131 128
55 -0.08198187 -0.24698922 0.04918994 -0.114917226 0.16274783 -0.15482315 -0.014320227 0.122167386 0.17560066 0.22101617 0.14502148 0.21275406 0.16330363 -0.017319033 0.028873175 -0.024733746 -0.01486632 0.03306887 0.16014662 0.11261849 -0.02535026 -0.11892092 0.06614796 0.14850454 -0.050874263 0.064132966 -0.20161276 -0.21975777 -0.035708107 0.03302772 0.026325908 0.07370447 -0.05969463 0.10358712 -0.08907346 -0.14120513 0.1492643 0.044992324 -0.080458894 0.07621287 0.023166906 -0.10529865 -0.0008691344 -0.0014700458 -0.034263235 0.22389162 0.04070702 0.025350092 0.0523714 -0.10464614 -0.083139285 0.015938498 -0.06308972 0.013218028 -0.17426682 0.22281215 0.22776198 0.047893807 -0.107286885 -0.11117395 0.119814724 -0.092706315 -0.08854713 -0.08724094 0.05871784 -0.048171386 0.024759484 -0.12843233 0.08221287 -0.07531918 -0.10865062 0.00015050886 -0.014146242 0.04854353 0.18364792 -0.0041845436 0.1250926 -0.11478549 0.07555188 -0.042762727 0.06322033 -0.013900563 -0.072789736 -0.21959518 -0.021703234 -0.12011264 -0.06896337 -0.17260413 -0.009898074 0.14946036 0.11667363 0.13052846 -0.09623581 0.10475423 -0.037902534 0.3043421 -0.035436697 0.06310177 0.21684341 -0.17117351 -0.11090627 -0.08817972 0.051026326 0.035440974 0.1872215 0.14228947 -0.084556155 0.14134832 -0.11290407 0.0320087 -0.14154442 -0.07118622 0.1197719 -0.123535015 -0.17846864 -0.008474292 0.029520756 0.015462362 -0.1888952 0.0466194 -0.11919248 0.06562803 0.0047349483 -0.054627873 -0.056867536 0.06171706 0.13448547 -0.113317914
118 0.10042934 -0.47929454 0.31759068 -0.080738164 0.09209958 -0.10695427 -0.23436143 0.31468207 0.038693603 -0.13759008 -0.43391466 -0.004669471 0.14415418 0.102209434 -0.14400144 0.09694129 0.07718317 0.19561343 -0.23795176 -0.019557146 0.35342 0.47662494 0.14008294 0.33340958 -0.25594652 -0.16784315 0.0735857 -0.14613557 -0.300048 -0.35024565 0.24585764 -0.16948003 0.14692375 -0.08424208 0.170152 -0.006874511 0.16688128 -0.090045705 0.36619785 -0.18870883 -0.28744274 0.32198647 0.08168506 0.009028863 -0.29647616 -0.34203175 0.26552388 -0.04504555 -0.24448408 -0.17786439 0.08270434 0.10001325 -0.30109096 0.27301413 0.23428446 -0.015883623 -0.04006048 0.20977944 -0.25678965 0.060674276 -0.3638346 -0.28672087 0.23311062 0.348586 -0.06382409 -0.14516488 -0.10951129 0.23976539 -0.20834546 -0.06406155 -0.20939554 -0.16160658 -0.12458462 -0.10539594 0.14711617 -0.13035068 0.4347329 0.15057392 -0.01230874 0.07944614 0.38664126 0.031523913 -0.25310495 -0.49341828 0.14790723 0.36510423 -0.044586107 -0.034295283 -0.09553408 0.089999706 0.121069886 0.1884696 -0.51264846 0.31285235 0.2978703 0.32984227 0.24467805 -0.2499373 0.23333204 -0.050646797 -0.05095449 -0.2823721 -0.062551364 0.06334989 0.24381386 -0.0740588 -0.004224288 0.13943468 0.24571389 0.16372402 0.30346656 -0.06851377 0.1344932 0.00025264008 -0.11230488 0.18115881 -0.5044979 0.40130517 0.14655723 -0.12893254 0.1403188 -0.11323015 -0.0076735197 -0.16389285 -0.084437154 0.20934783 -0.031132048 0.14401236
116 0.02728376 -0.44175655 0.36016726 -0.047292836 -0.006073991 -0.049601957 -0.21988568 0.2171866 0.1367489 -0.091204576 -0.433436 0.004090439 0.20921136 0.16422395 -0.11440597 -0.030408556 0.07298648 0.17318879 -0.22986385 -0.18248245 0.4506841 0.5798988 0.19929075 0.3289448 -0.239531 -0.2885579 0.081304975 -0.17411494 -0.31105006 -0.45527613 0.2775871 -0.17402513 0.11773281 -0.06712527 0.12691323 -0.097463526 0.054332767 -0.10462475 0.38778043 -0.23015742 -0.31360844 0.3644073 0.16629787 0.075393416 -0.31140718 -0.3322844 0.36251113 -0.17975247 -0.24198703 -0.1623696 0.04221743 0.17128901 -0.29637438 0.28045484 0.2596816 0.050926838 -0.08265352 0.34103492 -0.22202905 0.08054138 -0.33621117 -0.24598514 0.22700419 0.36366606 -0.10056234 -0.09437904 -0.075471185 0.21802193 -0.23517844 -0.054658167 -0.2103286 -0.24108951 -0.08596539 -0.015812622 0.1039275 -0.159671 0.37265888 0.17657125 -0.058779154 0.09101397 0.3846383 0.09050888 -0.29557577 -0.48017684 0.15553647 0.30858976 0.031123457 -0.048732445 -0.2307386 0.029153438 0.09850375 0.17661369 -0.54777724 0.25826928 0.3197993 0.25929728 0.19792674 -0.27709574 0.28017178 -0.052845817 -0.012570849 -0.33960345 -0.06901067 0.02984623 0.19305903 -0.08777619 -0.046019033 0.19383015 0.19184789 0.121236905 0.35745615 0.09178434 0.047289744 0.016910445 -0.09009422 0.16475241 -0.49455366 0.38827813 0.04723089 -0.20023158 0.11446225 -0.13155083 0.015841251 -0.22783576 -0.11833201 0.22242683 -0.008068559 0.053930767
115 0.012530155 -0.55999243 0.41430902 -0.033940393 -0.02550291 -0.1722285 -0.23835826 0.25404358 0.11244821 -0.09165931 -0.49988222 -0.04471812 0.2334844 0.1046082 -0.15573856 0.025207276 0.10902685 0.22448835 -0.2716029 -0.16602764 0.32655618 0.61655766 0.21260142 0.30708858 -0.2470308 -0.27855796 0.13755304 -0.19273445 -0.34535408 -0.4104945 0.26124576 -0.061346535 0.069911286 -0.13640973 0.23646778 -0.037158683 0.20125532 -0.06052379 0.3733855 -0.19371685 -0.38469893 0.23273008 0.13292147 0.08982052 -0.38912958 -0.3830478 0.3425269 -0.16223262 -0.24626009 -0.2708348 0.031764578 0.13889126 -0.2304409 0.29944146 0.20918 0.05631942 -0.03228309 0.291975 -0.26777652 0.1232639 -0.33693624 -0.2825485 0.1775864 0.28215268 -0.12725312 -0.14160153 -0.058032244 0.20540628 -0.22560042 -0.12126684 -0.1262668 -0.20970525 -0.048885524 -0.009146022 0.21913159 -0.081300505 0.26084998 0.121566154 -0.11395401 0.06696028 0.4649323 0.026924623 -0.31982425 -0.5588134 0.14605337 0.2370415 -0.05319363 -0.037548915 -0.25709385 -0.008515063 0.07156838 0.19383523 -0.5022147 0.2927793 0.36564362 0.256098 0.2986509 -0.21003133 0.27452308 0.008301493 0.017052911 -0.40866134 0.02842596 0.04237621 0.22015882 -0.15482965 -0.07644332 0.17025717 0.2069221 0.053931862 0.32849336 0.11070473 0.09326917 -0.035412904 -0.030551856 0.21078652 -0.495781 0.36682045 0.039850473 -0.23548101 0.095374756 -0.106039874 0.033463582 -0.23659891 -0.15706651 0.24901243 -0.068215206 0.07949656
83 -0.12049022 -0.21708466 -0.04515479 0.00327383 -0.041748486 -0.15138818 -0.104131095 0.11633799 0.06031204 0.22715737 0.14913128 0.13244246 0.17476399 0.02571933 0.14453419 -0.05552493 0.01873181 0.060564324 0.1215588 0.044889573 -0.031852916 -0.014195338 0.025789432 0.1325732 0.08767065 0.006395371 -0.22561657 -0.1558704 -0.052046645 -0.10084671 -0.048485667 0.05725546 -0.13679773 0.20872958 -0.06826114 -0.07235399 0.02730411 0.07630124 -5.6650824e-06 0.08956711 -0.11870374 0.09031846 -0.050759483 -0.044136774 -0.09006192 0.23011772 0.11382271 -0.029219067 -0.008282498 -0.100243285 -0.04916035 0.045602653 -0.20119305 0.041775733 -0.21987168 0.16572677 0.22841193 0.0551438 -0.20623854 -0.025695937 0.20578663 -0.15137716 -0.104243375 0.05819403 -0.12095554 -0.0065223784 0.05192809 0.054273583 0.16608532 -0.06964349 0.07247364 -0.14426483 -0.01634377 -0.038811833 0.3098247 -0.044000342 0.28566772 -0.005466505 0.12025782 -0.17464308 0.12571736 -0.004763705 -0.008499609 -0.30690777 0.049651965 -0.16796358 -0.05095294 -0.22796774 -0.023702249 0.2576127 0.22587441 0.15088752 -0.0011403173 0.07336773 -0.09686924 0.22900514 0.0702018 0.06830429 0.087318495 -0.1975612 -0.06867723 -0.012150205 -0.109887384 -0.13975115 0.07093766 0.065105 -0.15731724 0.2193518 -0.026758675 0.057166256 -0.13915126 0.0149995005 0.059179466 -0.091659494 -0.010764147 -0.03966151 0.03856991 -0.025000587 -0.12677832 -0.024289904 -0.16442333 0.008131389 0.06397537 0.07186632 0.058281906 -0.039644938 0.11931195 -0.059789944
98 -0.089148104 -0.19457029 -0.16127865 -0.096740775 0.22362755 -0.049606003 -0.06771912 0.10626035 0.12956575 0.11506943 0.15717503 0.12966838 0.08805265 0.01594956 0.0022440953 -0.096875735 -0.043307647 0.02343636 0.02426547 0.14477597 -0.022794824 -0.045051042 0.016572263 0.02935373 0.073739715 0.1506273 -0.2655632 -0.15354669 -0.0067984 -0.13835138 0.0070682545 0.014889504 -0.10995354 0.10113514 -0.020806354 -0.1028086 0.016506715 -0.042697676 0.08248856 0.042401575 -0.120885506 0.01676984 -0.057846263 0.03820793 0.01690162 0.24351433 0.05757084 -0.012316381 -0.012134758 -0.19889244 -0.028880013 -0.0014973801 -0.13657023 -0.0071335537 -0.08260827 0.12105741 0.23358217 -0.047131915 -0.16273671 -0.14309758 0.14193544 0.003644558 -0.053976 0.043821912 -0.12121416 -0.008758218 -0.074863076 0.0213603 0.071326785 -0.032135036 -0.073076636 -0.08834526 0.00093891716 -0.045260075 0.3039858 -0.03786575 0.16213644 -0.0038976655 0.03800326 -0.08848478 0.19550604 -0.05871011 -0.032116182 -0.23616926 0.099486805 -0.046532586 -0.015124347 -0.17922719 0.016224751 0.14994922 0.16677016 0.12071501 -0.1792929 0.12808658 -0.09527826 0.23111455 0.12971027 0.015174525 0.09594829 -0.06801151 -0.083475985 0.002436568 -0.065091774 -0.09103627 0.1672798 0.061833236 -0.14943233 0.11881503 0.09430801 0.05500489 -0.02040872 -0.11933039 0.045801513 -0.03820609 -0.092238195 -0.041107867 -0.06259028 0.09724611 -0.051913768 0.071853735 -0.088872015 -0.01726068 0.006184529 0.06750445 0.035836373 -0.034490958 0.08304208 -0.01395818
22 -0.083419554 -0.09021391 -0.014791498 0.05198333 0.020123499 -0.122526795 -0.0021552336 0.00440065 0.15775783 0.19293453 0.033631884 0.16735862 0.15599854 0.09539956 -0.10663381 -0.07106485 0.099706605 0.07180333 -0.01757919 0.33386114 -0.12198024 -0.13633408 0.2095109 0.027456934 -0.010587096 -0.017682668 -0.13859843 -0.21915235 -0.026118113 0.051909775 0.10351223 0.026080014 -0.15604043 0.059353646 -0.052679654 -0.09892221 0.11370299 0.08100894 0.085391715 -0.05675167 0.16034576 -0.11553937 0.07696152 -0.026071196 -0.06392672 0.11379835 0.06659844 0.059669975 0.21975578 -0.22776851 -0.10168072 -0.051218163 -0.032772694 -0.0054806876 -0.114976205 0.25531474 0.32323396 -0.08482784 0.027381651 -0.028087193 -0.035683498 -0.1708528 -0.039209634 -0.091817014 0.024093114 -0.013659144 -0.04454983 -0.10118281 0.05669326 -0.15578397 0.0049783294 0.07726595 -0.069596864 0.024470793 0.1332531 0.07664678 0.07643903 0.036139745 0.035975784 -0.051789653 0.056242656 0.001269772 0.019046357 -0.3382531 -0.04670684 -0.22740166 -0.019138953 -0.16976602 -0.14421034 0.10808776 0.10508277 0.11045033 -0.13779072 0.07985825 -0.00926414 0.30934006 -0.012852393 0.079350226 0.27998802 -0.19311728 -0.06501916 -0.12539311 0.102265224 -0.02060906 0.22726925 0.098296605 -0.08640343 0.033693343 -0.19478568 0.0076465206 -0.08465807 -0.057815924 0.04648838 -0.122600675 -0.004289664 0.09540007 -0.019520443 -0.01975354 -0.25329137 0.030045489 -0.16442649 0.0033584042 0.03430951 -0.024105025 -0.03865338 -0.03063882 0.08298051 0.0021602267
48 -0.027050538 -0.07686539 -0.014391304 -0.034537554 0.06674717 -0.10308048 -0.050689507 0.079218574 0.16794865 0.2316344 0.029814169 0.1335551 0.1699726 -0.0067071877 -0.061241575 0.0033430723 0.039030876 0.07376457 0.0377299 0.3491604 -0.06736918 -0.15625983 0.14723614 0.16890934 0.0017931592 -0.052872732 -0.199614 -0.227834 -0.057620224 0.04935529 0.09673613 -0.03169354 -0.08475771 0.01721418 -0.063309476 -0.146021 0.18148287 0.087889984 0.040638372 0.043999996 -0.028617084 -0.15277079 0.07817142 0.062939346 -0.07140509 0.13500904 0.044742554 1.7012073e-05 0.13840938 -0.33136842 -0.16682962 0.04624268 -0.10842881 0.12097069 -0.18120056 0.24591774 0.2714765 -0.004220823 -0.08899581 -0.07354237 0.05057226 -0.12176127 -0.1561096 -0.069582626 -0.05151615 0.03176468 0.026666677 -0.10407208 0.10872873 -0.09542371 -0.025899226 0.04647036 -0.021109011 0.024757536 0.13399786 0.026807219 0.0010141507 0.054358058 0.01008137 -0.0010386219 -0.009919765 0.05578749 -0.018231628 -0.32606825 -5.654477e-05 -0.21084261 0.0050406023 -0.1190288 -0.15867405 0.13108104 0.041983023 0.0847829 0.017615959 0.009705628 0.0073418254 0.20775527 -0.06818806 0.082426205 0.2074369 -0.19617105 -0.11494637 -0.12834059 0.10484093 -0.00039815845 0.20915318 0.19360435 -0.14320283 0.10825808 -0.12146834 -0.046989825 -0.08330514 -0.081694484 -0.007519394 -0.123136654 -0.0796598 0.004858579 -0.059312604 0.028281974 -0.25560287 -0.05296937 -0.2417741 0.02546592 0.0140387565 -0.1772694 -0.040835954 0.10776689 0.12469951 -0.039043743
76 -0.19186404 -0.25382844 -0.03088191 -0.10495735 0.14134271 -0.13384025 0.02537123 0.104891814 0.20852543 0.22118933 0.14483312 0.23733215 0.21293584 -0.012396758 0.022245273 -0.17938481 0.085598804 -0.025048718 0.03417611 0.1912073 -0.02856904 -0.12684333 0.2001396 0.21645401 -0.020774344 -0.06347108 -0.21139845 -0.24709037 -0.040724847 0.015650067 -0.017912664 0.08340382 -0.20836417 0.018246897 -0.032165933 -0.09633486 0.11571488 -0.019012585 -0.07595304 0.014813911 -0.018342094 -0.017756097 -0.012762078 0.02086109 -0.094593786 0.27122897 -0.021712769 -0.004712835 0.081689395 -0.18282065 -0.014245541 0.009637036 -0.121896386 0.02889696 -0.23519497 0.10492287 0.29854128 0.018327592 -0.05350526 -0.16555087 0.12652615 -0.028227769 -0.17705794 -0.07051932 -0.09716559 -0.033610232 0.046470333 -0.14487633 0.06205558 0.026903449 0.123314165 0.042380575 0.04575595 -0.041886475 0.24789509 -0.054484453 0.015043374 -0.074388325 -0.025293952 0.007282526 0.04850804 -0.004924087 -0.049313053 -0.25752243 -0.065918446 -0.14004943 0.07131054 -0.11269946 -0.13263555 0.05671425 0.09515812 0.04036115 0.0057674237 0.03154151 0.054364003 0.23740521 -0.099369235 0.06644708 0.23284456 -0.13243182 -0.07825437 -0.114331886 0.10800963 0.097712025 0.1982929 0.09822464 -0.07314752 0.23602347 -0.10006597 0.017865159 -0.17188843 -0.16160695 0.13717799 -0.2056704 -0.046121337 0.06471416 -0.002773115 0.0103799235 -0.16144024 -0.063203976 -0.21924806 -0.03200489 -0.11157296 -0.08625762 -0.025511613 0.09097443 0.16094851 -0.14274305
11 0.017573249 -0.1792423 0.16743451 -0.096517965 0.09652387 -0.17419471 -0.07108091 0.042824887 -0.04677182 -0.31116053 -0.027573112 0.016002283 -0.08856107 0.18959448 0.06292305 -0.09095136 -0.0021925904 -0.14025876 -0.25760186 -0.23240316 0.16599053 0.49101153 -0.05279404 0.48641172 -0.12475152 -0.31005225 0.10180746 -0.024243837 -0.28732723 -0.29809442 0.12872857 -0.01108129 0.29369748 -0.26732764 0.0037765978 -0.05248175 -0.072562754 -0.29730114 0.4285522 -0.27958956 -0.33026642 0.1604034 0.27815688 -0.10708598 -0.24668384 -0.137182 0.25385052 0.09407893 -0.142109 -0.1557877 -0.19413626 0.3676519 -0.16052213 0.29691085 0.020043375 0.16613723 -0.14224927 0.12108295 -0.18114337 0.083760254 -0.12303521 -0.41123646 0.1132062 0.12739508 -0.22362265 0.051782425 -0.101921104 0.1275291 0.14642777 0.0912477 0.11858477 -0.077529475 -0.05071149 0.06149203 0.2489733 -0.28916016 0.085581884 0.03451328 -0.05979075 -0.055892244 0.26523498 0.018249614 -0.10771695 -0.42951107 0.16179915 0.3676774 -0.053655747 -0.28151557 0.120661795 -0.16286205 -0.03961188 0.16545893 -0.5066027 0.26216647 0.13049015 0.21876517 0.35862136 -0.33866805 0.31093335 0.10655013 0.05011222 -0.20481458 -0.11166468 0.16571864 0.051387254 -0.12884124 0.044283 0.22653626 0.14769882 0.019925646 0.20228083 -0.29979944 0.088902965 -0.234264 0.009197258 0.12721577 -0.34008765 0.3239064 -0.076860964 -0.18468936 0.34485665 -0.0019821222 0.14344586 0.08032663 -0.10023237 0.2545205 0.19154051 0.2896811
12 0.09109337 -0.21024057 0.07390515 -0.20005427 0.11104322 -0.24357751 -0.04962894 0.23870787 -0.06885189 -0.2829498 -0.020797942 -0.05866879 0.018720318 0.24238445 0.040510353 -0.07375383 -0.04875192 -0.0848273 -0.18521778 -0.23753649 0.23062088 0.38568237 -0.06923627 0.4223161 -0.07513477 -0.16560155 0.26121852 0.009147955 -0.25427416 -0.32336298 0.24668239 -0.043032065 0.17544654 -0.20660512 0.025802676 -0.0034962343 -0.25634298 -0.29883918 0.3786937 -0.31259692 -0.32509425 0.122752175 0.24846518 -0.22322182 -0.16080244 -0.18856478 0.27467805 0.1955296 -0.13993818 -0.23569685 -0.20056221 0.44216698 -0.18830262 0.1428531 0.04911669 0.18815786 -0.20774068 0.10805481 -0.097162776 0.029819144 -0.17578818 -0.41245446 0.07565211 0.18392253 -0.22334348 0.13988736 -0.09183893 0.088617556 0.21550839 0.17001191 0.18604161 0.021793392 0.036390238 0.08541637 0.24249046 -0.23209278 0.11542259 0.112001054 0.022287477 -0.106510766 0.28168753 -0.0054064817 -0.11276928 -0.432977 0.28393778 0.39865625 -0.02266723 -0.26151556 0.11982259 -0.17584692 -0.04220578 0.16194652 -0.51002496 0.15407272 0.0225288 0.25325093 0.38640618 -0.35185423 0.3860615 0.13945574 -0.060534477 -0.21545146 -0.110340856 0.19476177 0.10265113 -0.15380882 0.098552376 0.17917195 0.14159247 0.042401914 0.08563531 -0.3706638 0.2052607 -0.14657374 -0.085306294 0.11740079 -0.2733431 0.28186703 -0.19305411 -0.11779933 0.33825928 0.026547143 0.12829113 0.17065479 -0.08444297 0.30295315 0.22403438 0.22358537
14 0.01820351 -0.1076059 0.12846273 -0.16555472 0.05597858 -0.19515765 -0.054260314 0.14713088 -0.109837174 -0.35447457 -0.0958251 -0.08120097 -0.034494374 0.14731863 0.017448358 -0.06937954 -0.07809151 -0.1394372 -0.26655445 -0.19177863 0.19383036 0.41719675 -0.055925347 0.51706433 -0.10178438 -0.18610565 0.12694088 -0.019133575 -0.25714338 -0.42041284 0.17253959 -0.05126894 0.22403304 -0.27311167 0.09065149 -0.004591902 -0.115760535 -0.26468575 0.39909446 -0.23114257 -0.39930996 0.17891093 0.31584954 -0.07647215 -0.19515881 -0.22719802 0.25597832 0.12499288 -0.12479332 -0.35391498 -0.29049096 0.4174805 -0.2541626 0.22971414 0.034498345 0.18043539 -0.20041026 0.17808881 -0.22333169 0.09033125 -0.108852215 -0.4016986 0.053649995 0.22668174 -0.26454547 0.13240297 0.007889818 0.14676937 0.18217053 0.044180024 0.0672335 0.033193674 -0.015563379 0.117682934 0.28647906 -0.25953168 0.1265862 0.1529649 -0.029365994 0.057189386 0.2688088 0.13528264 -0.06553676 -0.372181 0.1345687 0.37329775 -0.05906823 -0.14331412 0.015624572 -0.13462302 -0.066278815 0.12620772 -0.42139652 0.17512196 0.048020575 0.2430714 0.43436044 -0.27145413 0.2624864 0.1584615 -0.0045549544 -0.22224057 -0.21489473 0.19259392 0.08938305 -0.12118432 0.08187184 0.2506144 0.18253314 0.0018394294 0.14951041 -0.22216436 0.16479361 -0.1626307 -0.0006062249 0.0864391 -0.36208272 0.31900468 -0.17829221 -0.1427148 0.17614676 0.008159544 0.13858016 0.12565783 -0.090458594 0.29254687 0.2948247 0.25015995
104 0.06902412 -0.14373298 0.16342989 -0.16448575 0.05347338 -0.12663391 -0.12751235 0.10563446 -0.11029619 -0.28484195 -0.10837877 -0.09280485 -0.07449783 0.11780175 0.0281533 0.014816612 0.03651942 -0.14298263 -0.12857296 -0.21752144 0.16712162 0.38684797 -0.122596264 0.40505958 -0.1286356 -0.19398966 0.116577655 0.043215368 -0.15958463 -0.24575678 0.14508407 0.038949948 0.20887817 -0.3017102 0.049466502 -0.05825695 -0.11293727 -0.2590195 0.31840768 -0.17387195 -0.27129108 0.17018491 0.23396632 -0.092944 -0.24860023 -0.23824565 0.2370315 0.14046401 -0.08026133 -0.32450813 -0.27846843 0.38870853 -0.22158326 0.33766317 -0.053852748 0.22733371 -0.19808492 0.16516969 -0.18110651 0.10469617 -0.14349847 -0.3559766 0.056110155 0.17913967 -0.2140147 0.032953143 -0.038301524 0.10766629 0.15313579 0.02812935 0.083858214 -0.056932148 -0.0008163758 0.089485444 0.3211021 -0.2820872 0.114726104 0.09966523 -0.04401618 -0.09508242 0.32680583 0.105078675 -0.16841945 -0.40593928 0.27574235 0.32723004 -0.043857783 -0.207446 0.05037868 -0.153922 -0.12873454 0.117380604 -0.53533643 0.1378934 0.16314127 0.3290149 0.38909543 -0.33198553 0.2885418 0.08691228 0.00794857 -0.23569158 -0.17856659 0.18660048 0.14966366 -0.2750012 0.07299911 0.24878025 0.12028699 -0.016040785 0.21361351 -0.320226 0.23755872 -0.19954827 -0.018656546 0.09943576 -0.30566373 0.2650881 -0.094879895 -0.14102182 0.31813362 -0.03316641 0.13157348 -0.011685178 -0.2162709 0.36186182 0.24223308 0.102305815
20 -0.009154894 -0.20125331 0.17745167 -0.16667338 0.17155662 -0.17833689 -0.04592284 0.09186968 -0.11754621 -0.26690367 -0.016746322 -0.04818561 -0.06709742 0.05776156 -0.0027241886 -0.047844306 -0.021650415 -0.06988393 -0.12716787 -0.29901132 0.18798585 0.35941023 0.01828176 0.4613568 -0.14456111 -0.21517552 0.20044903 -0.0026214707 -0.24719515 -0.36440793 0.1663602 -0.013498146 0.19417423 -0.2695696 0.031126956 -0.050755113 -0.10231677 -0.31375507 0.32309553 -0.30343014 -0.37342146 0.23728967 0.23998703 -0.10528386 -0.16124907 -0.16418274 0.25426662 0.14394535 -0.0664314 -0.20758015 -0.2692979 0.32698885 -0.09839046 0.19658269 -0.023589017 0.19393782 -0.17481571 0.13115737 -0.2417559 0.08662398 -0.08698812 -0.3983889 0.12363078 0.15993908 -0.14283931 0.0798015 -0.04111597 0.058613528 0.17702237 -0.012393732 0.05153927 -0.057793647 -0.010438292 0.113461375 0.30790874 -0.23140408 0.11284735 0.11433084 -0.03406644 0.011003102 0.25542304 0.03386869 -0.10283871 -0.39051223 0.19314992 0.37871858 -0.11305707 -0.19808139 0.06438829 -0.1091167 -0.10691425 0.15817526 -0.43749663 0.15728152 0.10157996 0.17246948 0.43112293 -0.35752016 0.25091514 0.15020716 0.051453877 -0.20455837 -0.1834151 0.19939326 0.030274147 -0.18836297 0.112148 0.201829 0.15485822 0.092846766 0.08929524 -0.23023714 0.1160691 -0.25162938 0.06432731 0.11622744 -0.2858443 0.247834 -0.15341961 -0.20518565 0.21308975 0.05356685 0.196833 0.063533455 -0.11302983 0.32450962 0.20379703 0.28026366
57 -0.12309277 -0.32208037 0.0072953333 -0.067385636 0.061046235 -0.026480554 -0.0070864316 0.014161521 0.10164734 0.08432943 0.10249527 0.23833054 0.0992374 0.03455921 0.03547811 -0.12158957 0.027578315 0.108278856 0.064386204 0.25034076 -0.13663705 -0.07711101 -0.04623169 0.04518152 -0.027294924 -0.004239402 -0.16707072 -0.087379254 -0.1978963 -0.051212657 -0.030484013 -0.01816751 0.0004743315 0.13090564 -0.032205544 -0.14803573 0.027098805 0.1418248 0.05580091 -0.055803563 -0.12952678 -0.10068693 -0.045711163 -0.008406418 -0.0703078 0.19710177 0.07002936 -0.039540485 0.0026864712 -0.09553737 -0.1603265 -0.06765028 -0.13030522 -0.038621627 -0.027852898 0.1073769 0.15625803 -0.1374741 -0.14739947 -0.07966183 0.06348424 -0.06071481 -0.062504075 -0.070368975 -0.018944323 0.07917681 -0.065856226 0.025218718 0.0752208 -0.17417108 -0.05997838 -0.09766743 -0.070732765 0.013537889 0.4157619 0.091946766 0.100264356 0.006048234 0.0026138208 -0.20426986 0.05385591 -0.06860239 -0.03481734 -0.25092986 0.007738742 -0.112935305 -0.10923023 -0.34410608 -0.10974969 0.1676677 0.2054387 0.12387016 -0.0021315273 0.114057295 -0.14284423 0.22148882 0.145774 0.10083729 0.15806317 -0.21351676 0.004853818 -0.051125877 -0.11140482 -0.23429093 0.09081769 0.074562676 -0.23702198 0.15251847 -0.010353542 -0.025064552 0.032912537 0.01707362 0.07165482 -0.09353568 0.03040283 0.047563605 0.0030920303 0.093026936 -0.09903022 0.025211023 -0.24065037 0.040918916 -0.02547558 0.12672436 0.057038367 -0.078417726 0.10829713 0.004713528
75 -0.13853578 -0.09217461 0.0040205494 0.04701589 0.054953 -0.067675 -0.012600022 0.11450875 0.11312724 0.10100442 0.15880987 0.11229015 0.09312994 0.008406952 -0.06161555 -0.10510169 0.056559924 0.10475332 0.0900883 0.1898643 -0.094582655 -0.117523685 0.25439072 0.18898693 -0.11945409 -0.030254588 -0.15250008 -0.28031752 -0.017828671 0.0079779 0.10988642 -0.061056983 -0.19752829 0.14749971 -0.04602528 -0.14174682 0.020717004 0.068148114 -0.020883853 -0.037347548 0.16086996 -0.21138868 0.060098857 -0.046637006 -0.07579759 0.1584014 -0.10789683 -0.011277841 0.1942853 -0.19748515 -0.16566436 -0.17838961 -0.014511146 -0.066036396 -0.17032321 0.3398163 0.19653055 -0.19423892 -0.018192668 -0.10535918 0.033351824 0.009684012 -0.07201641 -0.037702367 -0.059998605 0.04747989 -0.0027874303 -0.06249962 0.20203176 -0.12919122 -0.11112904 0.046770647 -0.044042796 -0.050532635 0.26049417 0.19825979 0.14202173 0.08716438 0.08659128 -0.060811553 -0.006847654 0.13625762 -0.0045943633 -0.28812018 -0.003316071 -0.2030183 -0.062454175 -0.18969415 -0.15433136 0.1451713 0.003853947 0.092475995 -0.06928929 0.04790676 0.03367546 0.2734141 0.010281337 0.020914145 0.23528604 -0.26515055 -0.1447473 -0.17446907 0.02586247 -0.011710334 0.12297901 0.101259455 -0.08466887 0.21428147 -0.2263541 0.07802451 -0.16078173 0.026548184 0.14156726 -0.107669525 0.020478329 0.11717044 -0.03749335 0.015648896 -0.31060022 0.065704785 -0.21091323 0.006361247 -0.00334365 -0.07348407 -0.06761488 0.05360446 0.11192675 -0.026811168
121 -0.17337339 -0.10366631 -0.04352401 -0.09240308 0.5267773 0.08772665 -0.10805626 -0.033103976 0.0023895854 -0.18426694 0.060101725 -0.33787337 -0.012396174 -0.23189673 -0.26058063 -0.29086176 0.04465705 0.19503897 0.29898524 -0.21371695 0.040948946 0.1586178 0.1002932 -0.10336116 -0.33451822 -0.27189302 0.14855109 -0.08895054 -0.047132857 -0.30310994 0.2694419 0.051305167 -0.02183475 0.11621273 0.2300102 -0.00038709072 -0.14942968 -0.18170905 0.01491672 -0.14531149 0.018321991 0.25585455 0.19388135 -0.030451415 -0.1402402 -0.10477143 0.12611347 -0.089967206 0.4950682 -0.3127605 -0.27077398 -0.057544723 -0.23214397 0.2901481 -0.113446735 0.08950781 0.14721806 0.34628144 -0.5668575 0.2648415 -0.3565022 0.04469711 -0.082099155 0.38706148 -0.0047528977 -0.19441815 -0.0372012 -0.44197708 -0.12048929 0.05370099 -0.075424895 -0.14868763 0.08020791 0.08782189 0.0035009135 -0.16700345 -0.19846956 0.07720324 -0.2088227 0.1072782 0.100459985 0.13595954 -0.45854187 0.15628175 -0.11527821 -0.29994342 -0.2576756 -0.23120332 -0.034743775 0.19646478 0.14940147 0.25953037 0.07952926 0.0031603985 0.40202576 0.056066975 -0.08796326 -0.16282342 0.09205611 0.11639333 0.28921825 -0.29514027 -0.04444434 0.06955074 0.5176877 -0.18252529 -0.11460164 0.20746592 0.028197054 -0.29226625 0.118277274 -0.4858548 0.38850895 -0.16273186 -0.37269956 0.026881402 0.26483756 0.050813053 -0.35929078 0.3765978 0.13230622 0.23397613 0.087872006 0.43255058 -0.4338427 0.07090151 0.382916 -0.01094355
16 0.06837517 -0.12995481 0.19930223 -0.067943506 0.14220771 -0.14754878 -0.081280634 0.11740814 -0.065645844 -0.30186367 -0.07395784 -0.104780495 -0.07003399 0.115013495 -0.015296024 -0.09244587 -0.07952155 -0.13611013 -0.26926586 -0.30557123 0.22178432 0.4119369 -0.009854537 0.47825223 -0.03931332 -0.27984893 0.124296665 -0.0056133787 -0.22488548 -0.2331529 0.1795206 -0.0034053114 0.21753483 -0.3065531 0.044952318 -0.014932981 -0.110803686 -0.3486408 0.3042495 -0.31380966 -0.38403147 0.18691836 0.21715179 -0.11144457 -0.16183487 -0.139993 0.23822469 0.1251161 -0.09896055 -0.19860104 -0.19062543 0.3269669 -0.13831066 0.2640926 -0.035729587 0.20840475 -0.17656377 0.12556335 -0.19995034 0.057800505 -0.07457551 -0.40376884 0.13583474 0.15911356 -0.22334386 0.114799336 -0.0050237766 0.20721936 0.21185723 0.078278966 0.20966707 -0.05759745 -0.026578953 0.05412104 0.33989936 -0.23482065 0.119183525 0.109208345 0.021658171 -0.038467214 0.3780278 0.07350054 -0.084399536 -0.47352266 0.26175871 0.48200879 -0.064784065 -0.20462911 0.1079187 -0.17630918 -0.06882944 0.21568008 -0.49070665 0.18145934 0.14907517 0.27101186 0.50791436 -0.3455475 0.31517938 0.10594329 -0.0078044254 -0.24999142 -0.17705433 0.14448138 0.094054304 -0.22356358 0.1015835 0.3032722 0.22078787 0.04723147 0.04928437 -0.27955866 0.17293349 -0.22460794 0.011086787 0.13560994 -0.2511224 0.29761073 -0.119867116 -0.18817578 0.33341432 0.042782545 0.21762808 0.11594418 -0.15903828 0.30312312 0.23058015 0.315548
64 -0.050731856 -0.17729603 0.090314806 0.047309004 0.019794516 -0.004419716 -0.13782385 -0.037085842 0.083030045 -0.027236182 0.02182443 0.33546373 0.11034127 -0.0021109811 -0.06160885 -0.018834915 0.013351253 0.08158101 -0.05096626 0.25608376 -0.16044183 0.02952952 -0.010233393 0.18823078 0.009007167 -0.10149504 -0.15783049 -0.0889737 -0.09690203 0.09085453 -0.052440792 -0.060233686 -0.036846083 0.14533605 -0.085376084 -0.27209574 -0.021102674 0.1621796 0.099233724 -0.06630397 0.03115238 -0.007042114 -0.050548848 0.024501333 -0.09146194 0.1395908 0.007471587 -0.049021214 0.10348491 -0.12079544 -0.2893282 -0.10867154 -0.17192574 0.033760108 -0.044220112 0.16835706 0.16605532 -0.1730836 -0.11102432 -0.08554674 0.11203298 -0.015824335 -0.026793798 -0.1503102 0.009159912 0.11481854 -0.041114084 -0.008610348 0.04203886 -0.15873004 -0.12434713 -0.03380635 -0.1457033 0.07980029 0.39115867 0.023795994 0.053862702 -0.011323852 -0.040000066 -0.18346213 0.054955207 0.0060422574 -0.11650632 -0.19910808 0.021989295 -0.21681842 -0.122926526 -0.3361998 -0.099804975 0.18229935 0.11470954 0.11617168 0.06325504 0.057404034 -0.16061938 0.27351874 0.042983998 0.103355244 0.13541666 -0.25295064 -0.10256163 -0.06569663 -0.22442399 -0.28984237 0.08775119 0.036778253 -0.2006893 0.29354262 -0.09227821 -0.05982385 0.109047465 0.04923341 0.10951662 -0.16432458 0.08804822 0.066722445 0.018844938 0.0368699 -0.21437897 0.07390046 -0.32736108 0.0047319015 -0.081433676 -0.023957357 0.09577204 -0.07708437 0.1129349 -0.096842095
126 -0.16858643 -0.09479981 0.02025401 -0.05830215 0.5868063 0.15440401 -0.16109079 -0.06488482 0.03465416 -0.2632346 0.0061821393 -0.21730807 0.13088717 -0.040717665 -0.3259112 -0.33277503 0.024253178 0.13358322 0.2021986 -0.33692586 0.2736338 0.1618049 0.1929756 0.051882226 -0.34343433 -0.24745141 0.11145204 -0.16071644 -0.0042278487 -0.1764535 0.26390636 0.01938822 -0.14062409 0.098999806 0.1877274 -0.048047412 -0.14533372 -0.23059952 0.09840942 -0.23631448 -0.05094788 0.41484365 0.17587677 -0.054014973 -0.18265101 -0.03058436 0.19477268 -0.0066861403 0.4481802 -0.32699832 -0.2219527 -0.13960624 -0.1544654 0.36289465 -0.13064684 0.11959169 0.21843262 0.31846595 -0.47650963 0.21583515 -0.27999178 -0.064605586 -0.032934602 0.23132277 0.018499412 -0.15194586 -0.11361852 -0.43781176 -0.14893703 0.0015430595 0.019999702 -0.1024929 0.028775875 0.102633506 0.11685904 -0.1634847 -0.13940272 -0.019856315 -0.13780618 0.1549099 -0.04085807 0.0035991282 -0.4196182 0.12558968 -0.20903304 -0.20417646 -0.14698061 -0.23843218 0.026856007 0.27858078 0.16800296 0.19295141 0.06732511 0.019633148 0.29538342 0.098011866 -0.084708944 -0.051353954 -0.0014332869 0.09730027 0.30346698 -0.15837823 0.1007795 0.052205462 0.50491464 -0.085106656 -0.14881428 0.115554996 -0.049554758 -0.2682032 0.08139619 -0.50241053 0.38559705 -0.13287432 -0.42392594 0.07721492 0.3489231 0.01547731 -0.3108048 0.3970262 0.10058935 0.23480533 0.04577879 0.4434715 -0.33522648 -0.15029438 0.30865103 -0.0140051255
86 0.26332942 -0.47347194 0.53042406 -0.25143608 0.14525892 -0.43322667 -0.051442843 -0.14675666 0.30606982 -0.16748306 -0.23560536 -0.044182777 0.11878591 0.119551934 0.072914675 -0.04486111 0.118127875 0.26025602 -0.3648452 -0.34436604 0.2010911 0.5123447 0.34290227 0.24361585 -0.26871428 -0.19088599 0.18721741 -0.010272213 -0.4816879 -0.26290423 0.21440032 -0.31878644 0.13661739 -0.12038432 -0.10358302 -0.09568695 -0.17159244 -0.40241075 0.41728857 -0.10354525 -0.04899793 0.19085935 0.2549772 0.2155745 -0.021736454 -0.3243645 0.2676616 0.025416417 -0.10705791 -0.5552162 -0.3094026 0.44400117 -0.3790841 0.21106696 0.048727166 0.2730475 0.031811774 0.43751 -0.37127593 0.0073253824 -0.20500249 -0.25511816 -0.07681176 0.3391193 -0.08711069 -0.08496667 0.083040595 0.038635865 0.019998666 0.12435639 0.013569832 0.037801996 -0.19173658 -0.026051361 0.172643 -0.13223903 0.1713099 0.14231294 0.15735109 0.19886068 0.50226086 0.3019844 0.17847215 -0.26258394 0.4207099 0.42850488 0.20152313 -0.05440377 0.019148903 -0.3037652 0.0006035044 0.38788742 -0.49521413 0.101361685 0.22193412 0.4686895 0.5326881 0.13235067 0.41350853 0.010552002 0.06203317 -0.49849662 -0.34958944 0.06999009 0.19957668 -0.22677222 0.20143189 0.14828257 0.21958226 0.12716907 0.090523824 0.16629823 0.017676203 -0.21261819 0.059397608 0.12065799 -0.33411255 0.049615648 0.14168178 -0.29232126 0.2015746 -0.24471353 0.17556904 -0.01581303 -0.045764603 0.29126194 0.17481083 -0.044213925
112 0.29502025 -0.5868335 0.5156852 -0.3468389 0.12628116 -0.50778586 -0.11041559 -0.078037396 0.14282978 -0.15224756 -0.27488935 -0.12760346 0.12056513 0.1687165 0.13507608 0.10395366 0.27375385 0.29801044 -0.29810882 -0.27235144 0.17690831 0.56693757 0.19791989 0.3432586 -0.36413652 -0.27033547 0.26073796 -0.003451455 -0.45063907 -0.35880366 0.28908253 -0.36860666 0.17236827 -0.10372743 -0.10572454 -0.09390095 -0.1550898 -0.36442202 0.5282802 -0.24194379 -0.13160147 0.25457558 0.24631351 0.07050183 -0.030154087 -0.2778474 0.35740587 0.08385181 -0.21816233 -0.47124526 -0.2906471 0.4865755 -0.36038038 0.18423775 -0.029952161 0.24061267 0.059840262 0.43379846 -0.31636563 0.054330137 -0.2716709 -0.23386595 0.0031499271 0.3155508 -0.018354502 -0.12587517 0.025919525 0.071362525 0.091589324 0.20259368 -0.034816224 0.07845519 -0.2107773 0.087933354 0.08270695 -0.07070793 0.11791886 0.17038898 0.17020455 0.13136522 0.3540786 0.21032575 0.08197741 -0.28351474 0.4381905 0.37560952 0.18706661 -0.19468069 0.0264921 -0.14620085 0.016697884 0.37200588 -0.56893915 0.13318233 0.25146922 0.46144348 0.429506 0.08870536 0.38782597 -0.027572874 0.10736142 -0.3795774 -0.22692136 0.13726856 0.25786683 -0.22678426 0.13641869 0.16271222 0.1258418 0.105577976 0.05679712 0.041139252 0.0059912833 -0.19601594 0.052399162 0.16377969 -0.29841667 0.090780914 -0.014398886 -0.27335855 0.18239489 -0.14923853 0.23049262 -0.005616339 -0.083774485 0.30715376 0.19139965 -0.013947948
87 -0.15651485 -0.11050816 -0.008697672 0.010270639 0.08614675 -0.011428623 0.022644546 0.06357608 0.18135345 0.1476206 0.09295232 0.10478215 0.26409152 0.093019634 -0.009183255 -0.062084764 0.04922791 -0.035692614 0.005492336 0.3038023 -0.079844944 -0.15805468 0.17994927 0.24949023 -0.06192297 -0.037753444 -0.29699922 -0.27611965 -0.036109358 0.086849585 0.092315994 0.021838013 -0.13764283 0.008165188 -0.068830855 -0.21799497 0.10761412 0.07818474 0.1605548 0.03907789 -0.014983588 -0.23814918 0.051991142 -0.0495646 -0.15704243 0.14063965 0.0060414467 -0.08164132 0.14011821 -0.17791317 -0.09507895 -0.049211204 0.02820319 0.076137386 -0.18333206 0.29505366 0.18463244 -0.060140125 0.0634218 -0.05403162 0.020469176 -0.03490699 -0.033211894 -0.078394875 -0.07601176 0.030297723 0.0904759 -0.045210578 0.10043083 -0.1686047 -0.087142155 0.06604923 -0.048395596 0.12177486 0.19251741 0.06981793 0.037411578 -0.0016127407 0.0026595758 0.012897777 -0.021584975 0.00909246 0.026104165 -0.2883351 -0.08571453 -0.16872065 0.013092384 -0.15816976 -0.17903383 0.068526186 0.08439949 0.09416768 -0.090629496 0.113459915 -0.01627847 0.28849387 -0.006452216 0.061261714 0.25687364 -0.18350829 -0.027361996 -0.09885289 0.21108031 0.04415064 0.19659342 0.15378352 -0.12490621 0.07648379 -0.1320843 -0.06526584 -0.10182289 0.019258829 0.122314095 -0.11871147 -0.07909706 0.060805317 0.023816586 0.048013605 -0.28028256 0.026927669 -0.112976864 0.023740277 0.024575777 -0.021280946 -0.16283037 0.0066116466 0.16809331 -0.08235324
46 -0.08560387 -0.1298739 0.045788426 0.038925882 -0.009464983 -0.05248862 -0.0194187 0.04065785 0.14543898 0.25148413 0.087477714 0.24065226 0.098703705 0.021899475 0.044225194 -0.11571072 0.01312595 0.08532536 0.038825866 0.20860532 -0.07358866 -0.1273254 0.13553455 0.22426808 -0.026297295 0.018223051 -0.23966222 -0.24038179 -0.14730862 0.025542254 0.037034377 0.053230226 -0.16795073 0.14094314 -0.031854205 -0.15666173 0.15160328 0.08078268 0.07093368 0.067300424 0.032578234 -0.039528355 0.07188547 0.059141744 -0.120334126 0.090036005 0.10591682 0.005354813 0.10133203 -0.17027657 -0.06846152 -0.07908676 -0.16383359 0.06746404 -0.1455603 0.25042516 0.28471053 -0.1068231 -0.11031046 -0.049330004 0.16082962 -0.1570447 -0.13883434 0.02365179 -0.050058838 0.018483922 0.02248665 0.024981216 0.116529204 -0.13995205 -0.10121542 -0.05866982 -0.013739278 -0.056923654 0.17641641 0.048684094 0.15931982 0.05582798 0.071903266 -0.03100558 0.108394705 0.08745961 0.001983212 -0.3017738 0.07421525 -0.12104586 -0.04407881 -0.15328664 -0.10652133 0.21069461 0.1315149 0.061931293 0.045973003 0.018638283 0.01800799 0.29025733 -0.0035219765 0.109546855 0.14363326 -0.33152795 -0.11933476 -0.0532004 -0.032292567 -0.034023706 0.14451481 0.12622961 -0.1520142 0.13656524 -0.14249559 0.06814677 -0.046474893 -0.034427688 0.102402955 -0.14641795 -0.08886937 -0.030854471 0.0051718736 -0.09809337 -0.10499599 -0.03861 -0.21953642 0.043169722 0.010318592 0.035040025 -0.055796716 -0.046747793 0.08866583 -0.016944097
123 -0.10512262 0.044593766 0.09970178 0.07895268 0.5933435 0.27997446 -0.01647007 -0.038846582 0.13782404 -0.28157455 0.11492628 -0.24751875 0.093174495 -0.23596619 -0.31533903 -0.53907865 -0.11490496 0.10443117 0.16584481 -0.25850797 0.1870968 0.010631026 0.3383809 -0.1491274 -0.37602055 -0.18597104 0.08363689 -0.18406288 -0.21337447 -0.1622932 0.1523865 -0.06681357 -0.10599128 0.098992884 0.080866486 -0.07867796 -0.028463474 -0.1610116 0.0001226437 -0.122937985 0.15479353 0.13768132 0.18102491 -0.05406854 -0.17097323 0.062955625 -0.007946157 -0.041769695 0.48671004 -0.29737556 -0.07874306 -0.25715423 -0.04209258 0.38352165 -0.21716839 0.029781654 0.26467854 0.14285414 -0.3721049 0.13832076 -0.38994992 0.08282763 -0.16298872 0.2964893 -0.010650266 -0.05253921 -0.30769327 -0.56162345 -0.02168574 -0.04473248 -0.010466458 -0.10740197 0.1509177 0.030243892 0.18180218 -0.2543698 -0.26056504 0.10705444 -0.110084936 0.06869759 0.09202991 0.06988493 -0.3151137 -0.18101776 -0.10981511 -0.38343376 -0.16083723 -0.12443739 -0.044031892 0.36671206 0.34711555 0.32887724 -0.018948207 0.07468095 0.3498758 0.03276704 -0.012065226 -0.14526953 -0.04245389 0.24778725 0.3252715 -0.24317865 0.034588657 0.046322722 0.44781312 -0.038100325 0.023337094 0.023495538 0.09243446 -0.1359457 0.2260359 -0.3262004 0.4192755 -0.20646437 -0.5648949 0.16566871 0.15280813 0.056466017 -0.2783283 0.2771664 0.16642821 0.3285501 0.024289398 0.4091704 -0.2398649 0.031292845 0.51673937 0.27257055
124 -0.15689264 -0.081338845 0.077877685 -0.033967197 0.4801454 0.078266636 -0.19756442 -0.08561671 0.033869844 -0.3237979 -0.01568198 -0.30361375 0.09184422 -0.022685133 -0.35098654 -0.3916266 -0.022538118 0.12410395 0.22143449 -0.3748109 0.26544127 0.18267237 0.14664918 -0.060069896 -0.42139155 -0.13768561 0.19223614 -0.15057096 -0.065868214 -0.2529345 0.33687574 -0.050521787 -0.065935105 0.15716103 0.15328076 -0.04837274 -0.16183221 -0.099107556 0.04977006 -0.19754909 -0.027855814 0.301072 0.20810397 -0.09734004 -0.08748914 -0.03748265 0.15803465 -0.0285537 0.43213618 -0.2617846 -0.20521666 -0.13178182 -0.13825431 0.29153043 -0.21784006 0.12355067 0.31665096 0.24234909 -0.40281314 0.22482044 -0.2731461 0.022205165 -0.053568207 0.20794313 0.026534172 -0.16928042 -0.17724483 -0.33839226 -0.11661955 0.09375558 -0.08345049 -0.049935773 -0.037079737 0.2060948 0.04504488 -0.12653287 -0.20577827 0.08839004 -0.10614428 0.08151897 -0.008576903 0.067737624 -0.35542744 0.103967994 -0.089419 -0.26794666 -0.2525745 -0.22163047 0.07062166 0.3329915 0.1971508 0.19593425 -0.08640837 -0.026701195 0.35592064 0.031291712 0.012974955 -0.0662555 0.04175048 0.096494354 0.28723097 -0.07542764 0.041784037 0.05336479 0.49026397 -0.14594972 -0.14630549 0.091379456 0.055787824 -0.20509128 0.12126958 -0.54410976 0.38201782 -0.080907084 -0.44232747 0.10378941 0.18450838 0.12786749 -0.36950633 0.3958159 0.22164279 0.26476008 0.12396738 0.39215016 -0.327714 -0.0039375136 0.3879156 0.09141741
61 -0.058830425 0.10307905 -0.034178633 0.0637448 -0.04988342 -0.26207468 -0.10759307 -0.1262592 0.13740984 0.20397137 0.09872928 0.14735562 0.07602581 0.20136844 -0.1574058 -0.16955957 0.13318256 0.025072545 -0.111862294 0.24258219 -0.25243542 -0.060432635 0.26488405 0.10019052 0.09611008 -0.21143763 0.07779432 -0.11450534 -0.0032847077 0.12298452 0.142168 -0.022159306 -0.16994388 0.161487 -0.18959561 -0.13327803 0.070771165 0.18764773 0.25646326 -0.105822526 0.34183463 -0.14313823 -0.012545033 -0.16400002 -0.05905284 0.1571235 -0.06129424 0.0010577076 0.23901068 -0.105312765 -0.20042533 -0.20347576 -0.10091064 -0.06638244 -0.18415007 0.14048772 0.36971977 -0.2686046 0.024098791 0.018622203 -0.037517454 -0.14224647 -0.15190326 -0.040398788 0.046529688 0.08500692 -0.21870038 -0.11885928 0.048105065 -0.11139247 -0.18568131 0.059039235 -0.15930144 0.07821007 0.17904976 0.08163979 0.17914863 0.08587845 0.0047740587 -0.038099155 0.0072896257 0.07271823 0.02087567 -0.33121157 0.033883303 -0.32205343 -0.06099031 -0.2385732 -0.038167764 0.21395372 0.019880468 0.093237385 -0.104248896 0.069568135 -0.009149827 0.26861688 0.004338604 0.031844027 0.2174232 -0.32195818 -0.0936111 -0.05790003 -0.047272958 -0.15574595 0.18531431 -0.009566032 -0.06256075 0.06140455 -0.17373861 0.12899762 -0.01578393 -0.07972089 0.0037868232 -0.113515 0.14601567 0.20703748 -0.119982876 0.08040338 -0.18424472 0.15688536 -0.23563428 0.008487152 -0.05808993 -0.03836874 0.043463834 -0.009312725 0.14924821 0.06302962
52 -0.03620195 -0.21460417 0.0074407966 -0.16755824 0.20492887 -0.017604502 -0.122151375 0.085153595 0.20680213 0.18459593 0.14090686 0.15092973 0.13355663 0.06824954 -0.02089084 -0.08322727 0.06328071 0.13316356 0.023767594 0.11823193 0.00944525 -0.18254422 -0.09609591 0.15059012 -0.06598265 0.041123267 -0.15994893 -0.2309438 0.050706595 -0.05403427 -0.062320657 0.011011654 0.019832714 0.15297952 -0.013725076 -0.15399057 0.0317798 0.039752938 0.07608352 0.009246088 -0.20562148 0.026451157 -0.05919944 0.06312264 0.047453765 0.3015575 0.15839893 -0.033204723 -0.13076957 -0.07099764 -0.04956195 -0.0026378857 -0.16015702 -0.045984033 -0.054076754 0.07899433 0.24419932 -0.030811328 -0.19916432 -0.032916553 0.25808558 0.001365229 -0.12123346 -0.007952131 -0.03400352 0.06902555 0.107340924 0.14758414 0.043002192 -0.04321943 -0.0011644112 -0.08596854 -0.009821158 0.11785122 0.38002312 0.089795105 0.10306855 0.0041060587 0.091908254 -0.042029854 0.17425002 -0.11910081 -0.05990596 -0.28667638 0.120519094 0.0049530715 -0.028154908 -0.18584031 -0.00058767025 0.17847338 0.13407761 0.13789564 0.019331653 0.07254004 -0.030591674 0.2635288 0.105141215 0.12011175 0.18018447 -0.23226419 -0.23449373 -0.06960609 -0.054015074 -0.17487097 0.17450431 0.15487103 -0.21671864 0.31965598 -0.0050718943 0.009354115 -0.07130175 -0.056291685 0.13001871 -0.027392382 -0.01824752 -0.050461125 -0.0164295 0.14915024 -0.087811455 0.01327387 -0.27970523 0.016300881 0.032305177 0.1287019 0.028876424 -0.05681733 0.11579184 -0.037305236
40 -0.20638184 0.022967799 0.07154234 -0.003773757 0.06810396 -0.21541573 -0.1004645 -0.19283555 -0.029064653 0.2293585 0.119173594 0.21845186 0.10513108 -0.03934525 -0.13551073 0.0085998485 0.1537451 0.16069478 0.035084613 0.3478058 -0.3850819 -0.25013855 0.099495955 0.26293865 -0.010748656 -0.306007 -0.1746552 -0.11897992 -0.030659959 0.24254037 0.15252258 0.104814276 -0.16380277 0.27969787 -0.21143925 -0.16472785 -0.002769844 0.2724884 0.4239094 -0.23356268 0.19802432 0.013544354 -0.006665839 -0.20232043 -0.14880978 0.004604248 0.0151138 -0.09310778 0.31460807 -0.047993097 -0.28954756 -0.26912707 -0.09970859 -0.09924047 -0.16464221 0.12741172 0.4210766 -0.266016 0.0073350724 0.0372497 0.11118958 -0.23063539 -0.24699686 -0.07305058 0.054143578 0.021552261 -0.17923008 -0.23196009 0.009561214 -0.026503285 -0.2910601 -0.027040944 -0.19062246 0.26677153 0.09655044 0.010796214 0.267907 -0.0539918 -0.2099834 -0.028172744 -0.1656563 0.014938536 -0.1185419 -0.26891395 0.24888657 -0.17388295 -0.044365413 -0.31689438 -0.20103991 0.15187953 -0.20239504 0.044561584 0.1426438 -0.08845323 0.06541439 0.26827034 0.05300598 0.054851133 0.2575509 -0.21137615 0.030867077 -0.34464905 0.09103359 -0.07558875 0.39911506 -0.10485225 -0.13746482 -0.19676265 -0.062809624 0.064054064 0.034263678 -0.07101195 -0.17816617 -0.28457192 0.074532114 0.13345079 -0.02123088 0.014358478 -0.27509838 0.07696569 -0.23842521 0.17186664 0.010604502 -0.100321144 -0.10012754 0.06501105 0.12516344 -0.21662225
49 0.028753037 -0.19376068 0.04675653 0.014406402 -0.14081816 -0.121172614 0.006601545 0.04443605 0.16537882 0.16758248 0.0628465 0.20161703 0.1396263 -0.07604052 0.01400853 -0.053516917 0.05549396 0.04952912 0.053683605 0.13308613 -0.09577088 -0.044249635 0.17649119 0.09997417 -0.06736899 -0.027030401 -0.15959299 -0.28966007 0.008418728 0.060298134 0.028550131 -0.14898649 -0.10671801 0.059395637 -0.16675442 -0.21202643 -0.021821946 0.13156575 0.09346466 -0.04536824 0.1319084 -0.059992574 0.06954129 0.039675344 -0.07673776 0.21424825 -0.04283139 -0.01871364 0.121402584 -0.16805099 -0.07496973 -0.09862994 -0.07039008 0.031414304 -0.122936875 0.31039646 0.27116027 0.0017441234 0.022979802 -0.063622735 0.0052650594 0.028855866 -0.09952532 -0.0044558295 -0.088695295 0.0021924956 0.0088853715 -0.01549815 0.18313026 -0.067848526 -0.036542907 0.115519285 -0.061144885 -0.046663683 0.23250201 0.11877462 0.1402759 0.04339819 0.0803982 -0.115246445 -0.08588132 0.10213827 0.011181492 -0.23725668 -0.05658791 -0.18870586 0.056133747 -0.10492224 -0.16579355 0.103449754 0.09395468 0.06967073 -0.025774779 0.060319338 0.056833472 0.30711678 0.03105608 0.10838671 0.1622657 -0.15651464 -0.052513868 -0.10552133 0.035727344 -0.013326044 0.2589174 0.1719975 -0.064645074 0.20325068 -0.15784438 -0.031873263 -0.07001902 -0.0026368531 0.17287348 -0.0678005 -0.09082962 0.08631947 -0.0396224 0.014086796 -0.32112867 0.064570725 -0.1846632 0.01439396 0.00983799 -0.07919091 -0.08034004 -0.014333397 0.14805433 -0.02015902
99 -0.039220586 -0.32120165 -0.096003205 -0.14012177 0.31137818 -0.011530378 -0.1583613 0.15764523 -0.03048214 0.08623113 0.109051816 0.07510768 0.1129908 -0.09290569 -0.029927166 -0.059814807 0.012835037 0.111940615 0.15103962 0.12183707 0.1715422 -0.008496155 0.01873562 0.22417368 -0.10673358 0.027853385 -0.31246328 -0.23484506 -0.011715276 -0.058209978 -0.056709997 -0.042160172 -0.14580737 0.08252273 0.0003397661 -0.09582028 0.0071863146 -0.02338998 -0.08672545 0.00061827136 -0.18282856 0.14418662 -0.018868053 0.15443708 0.06309717 0.22818291 -0.0901654 -0.05209969 0.049547967 -0.19765851 -0.14458814 0.08592728 -0.23449415 0.062825784 -0.113481015 -0.040407013 0.13283888 0.06712938 -0.19116269 -0.09355125 0.19484426 0.055794515 -0.026342804 -0.06266756 -0.043623015 -0.022479681 -0.13002369 -0.069029644 -0.005742922 0.04847677 -0.08754485 -0.06195751 0.042128906 -0.13794056 0.09143624 -0.039170843 -0.041857034 -0.056286115 0.032665756 0.01791435 0.061099015 0.085705996 -0.032689277 0.012249207 -0.15840532 0.11168345 -0.0877372 -0.21348102 0.07893283 0.022097383 0.17416047 -0.03424587 -0.111525536 0.024121346 0.0027198738 0.13722254 0.016128177 -0.11104452 0.16754518 -0.18568872 -0.19178645 -0.115694046 -0.12155206 0.06897397 0.15243803 0.021091193 -0.04972028 0.28583544 0.13930765 -0.03033749 -0.0667186 -0.04965217 0.14252852 0.06014475 -0.092383705 -0.051336717 -0.15500706 0.09024016 0.0040623806 -0.023410495 0.04389652 -0.0013842135 -0.064003825 -0.06639605 0.040438242 0.04734648 0.18815707 -0.15239795
67 -0.07078317 0.12890726 -0.007586479 0.03979426 -0.023125943 -0.12185485 -0.14515364 -0.21823211 0.07402936 0.243666 0.12856819 0.12336317 0.053305782 0.15048608 -0.15226722 -0.045996714 0.11487533 0.09999707 -0.08846278 0.23709738 -0.28309557 -0.088491485 0.19561733 0.074450105 0.2020752 -0.2090875 0.02116221 -0.21735138 0.19677417 0.11963767 0.10289557 0.033722326 -0.17016377 0.14157827 -0.10292575 -0.11233581 0.037015684 0.16941671 0.1807414 -0.07836317 0.24291593 -0.14090382 0.0642575 -0.061355613 -0.11456778 0.09758829 -0.087090306 -0.0665495 0.2595115 -0.14327455 -0.26959172 -0.24437134 0.012598416 -0.12146801 -0.0061412384 0.24539936 0.09543943 -0.09255591 -0.07287738 0.105109036 -0.007695343 -0.16831939 -0.0043685636 -0.038526956 0.08387512 0.12800646 -0.083040096 -0.18275665 0.1442979 -0.24162745 -0.2964033 0.015390938 -0.08497383 0.18347783 0.24164148 0.14314708 0.22846906 0.018941842 0.008607554 0.0010369692 0.03678094 0.076439016 -0.07796608 -0.31511748 -0.10194832 -0.28938735 -0.08843638 -0.31509238 -0.14423595 0.20783836 0.068317406 0.09737193 -0.08859835 0.09547803 -0.0684772 0.36416185 0.033497553 0.0065924665 0.24261256 -0.38371065 -0.049310744 -0.2765028 -0.0737207 -0.13534594 0.07802375 -0.036851276 -0.12539175 0.13809957 -0.2512333 0.04393521 -0.08356105 0.23112394 0.06031891 -0.1384088 0.23833436 0.21414737 -0.1305273 0.04832534 -0.24811418 0.15444523 -0.2757791 0.031305134 -0.021717284 0.062070325 0.039007712 0.0057645207 0.19933398 -0.0842806
109 0.21996139 0.059282724 0.18500759 0.16486 -0.035603654 -0.1082922 -0.1983071 0.1382851 0.035579354 -0.37564096 -0.20679829 -0.36479053 -0.066385284 -0.0627201 -0.15422592 0.120177776 0.13020988 0.11237692 -0.44735792 0.21039169 -0.013229068 0.22742116 -0.21170613 0.44851616 -0.3243643 0.065067686 0.016495395 -0.21864171 -0.218981 -0.27160507 0.06119993 -0.074879505 0.037832193 -0.14496277 -0.22852898 -0.29427445 -0.47274667 -0.16067012 0.2726291 -0.15453197 -0.12542877 -0.045812074 0.2243948 -0.014652748 -0.122815855 0.22114097 -0.08435896 -0.2643524 0.25305608 -0.30510873 -0.119938985 0.36374345 -0.16562504 0.05377971 0.030461693 -0.1328737 -0.14520767 0.24042748 -0.07754036 0.29103532 0.042979263 -0.38933232 -0.18678081 0.12030883 -0.14168988 0.033762734 -0.02599977 0.2802269 -0.011351639 -0.10231791 -0.013067146 -0.29523832 0.058422644 0.20521061 -0.10234685 -0.17310353 0.031445287 0.098215155 -0.09835858 -0.2076988 0.62364197 0.056177523 -0.07251889 -0.35924295 0.30132952 -0.028965019 -0.19889462 -0.102602154 0.060864784 -0.2453435 0.29168847 -0.0038121836 -0.44571736 0.12445571 0.25866595 0.18323769 0.21496353 -0.4528818 0.23987667 0.10059518 0.0010814541 0.034744352 -0.20785594 0.037514657 -0.012159903 -0.33339873 0.044833876 0.24791645 0.13746265 0.035722435 0.21566083 0.07433664 0.4468921 -0.23462869 0.07343808 0.030383758 -0.39191964 0.29532987 0.19638243 -0.060503226 0.42617095 0.089123145 0.0023121478 0.18464005 -0.06139719 0.3326113 0.2455384 0.22665595
114 0.2755663 -0.04766788 0.15344504 0.02554256 -0.14525516 -0.15034653 -0.17403579 0.18415883 -0.0363718 -0.31614402 -0.29221278 -0.3217043 -0.008686255 -0.0045119054 -0.12617347 0.09052026 0.17066437 0.16919835 -0.31844985 -0.03449226 0.15063195 0.2903023 -0.13183227 0.39516523 -0.1536914 0.1383313 -0.05476191 -0.14100201 -0.19285846 -0.2271668 0.13502122 -0.012051612 -0.030859714 -0.1127147 -0.23904985 -0.29235148 -0.5330413 -0.1432637 0.17931208 -0.17394234 -0.066860564 -0.081146285 0.17464033 -0.018458568 -0.07577642 0.23796418 -0.13271368 -0.274716 0.2162818 -0.281176 -0.1140662 0.30711046 -0.16200739 0.023829808 0.10499434 -0.017545197 -0.14853163 0.23029944 -0.12041784 0.2871521 -0.039149027 -0.3822098 -0.17074531 0.16764705 -0.10494768 0.041709792 -0.06439551 0.17932983 -0.039048266 -0.025076902 -0.052566614 -0.20178793 0.027554948 0.15716358 -0.07609224 -0.11559353 0.118739314 -0.021788497 -0.12417803 -0.24509214 0.499978 0.12085549 -0.047032613 -0.27090394 0.2547819 -0.06957729 -0.106934875 -0.05917747 0.0064163283 -0.2019463 0.2842309 -0.03354115 -0.42902014 0.14323978 0.19088046 0.13019355 0.2702693 -0.45489937 0.35962194 0.032122307 0.036356576 -0.053062472 -0.3085309 0.039967895 -0.042061865 -0.38108695 0.06277645 0.20234355 0.13224167 0.08961177 0.22837292 0.026334176 0.42832875 -0.1272917 0.074210376 0.0740622 -0.37996957 0.3826729 0.21441892 0.0024261114 0.5318662 -0.043416534 0.099940695 0.13612829 -0.16780712 0.35183534 0.26850957 0.08604029
110 0.20413499 -0.09092227 0.17512028 0.04831421 0.05470559 -0.04898491 -0.17177667 0.18742812 -0.01073066 -0.3104804 -0.25296542 -0.32341883 0.009137561 -0.051306807 -0.087576024 0.16866444 0.2779023 0.20004709 -0.31317818 0.11254517 0.049196836 0.3221662 -0.24597912 0.5328666 -0.3123582 0.06572704 -0.08571196 -0.04384873 -0.2955432 -0.2624513 0.2005528 0.015587625 0.026834136 -0.13782156 -0.25245824 -0.37820745 -0.5454128 -0.18582048 0.278341 -0.1803109 -0.07375134 -0.0035974758 0.15383935 -0.046300385 -0.07734462 0.24141546 -0.038266763 -0.2479948 0.12956895 -0.31813475 -0.18966898 0.4214447 -0.26085111 0.051798504 0.020759393 -0.0013348204 -0.11545981 0.18635355 -0.048376832 0.23752385 -0.032250617 -0.4072115 -0.21324082 0.07513172 -0.01554299 0.0077462145 -0.06459579 0.23707853 -0.011558402 -0.07984589 0.073537245 -0.27038887 -0.03338135 0.2630668 -0.102996 -0.21719651 0.017700983 0.10238251 -0.071722806 -0.32762757 0.54871124 0.089878455 -0.10195385 -0.26917672 0.46001387 -0.0593037 -0.12182858 -0.03301021 -0.008943468 -0.20618479 0.14078242 0.02723127 -0.50574005 0.12403985 0.14020954 0.13371705 0.2939291 -0.4436238 0.35590267 0.0677339 0.07058217 0.037626453 -0.21270037 -0.05767447 0.0383943 -0.4054089 0.028140862 0.18813848 0.15101413 0.02635318 0.28912395 -0.037709832 0.38248006 -0.19252366 0.12603204 0.03152591 -0.34376642 0.33425018 0.13069601 -0.11615194 0.46736082 -0.078259 0.11515974 0.20914258 -0.14622973 0.32907724 0.30459198 0.06862618
125 -0.118369974 -0.0640063 0.15560444 0.069854215 0.59245163 0.20607246 0.009773575 -0.052253086 0.063844845 -0.26245385 0.13758655 -0.2818472 0.13889416 -0.16322118 -0.26104835 -0.674876 -0.105110094 0.12445217 0.249144 -0.41827402 0.33242264 -0.028537933 0.36253345 -0.018159196 -0.40178522 -0.32710296 0.03509395 -0.20485762 -0.22913106 -0.18420227 0.12943456 -0.08193058 -0.064458445 0.19248846 0.10340361 -0.01658673 -0.13879798 -0.19868694 -0.101501346 0.053183142 0.055547412 0.12020129 0.09265656 -0.10426742 -0.18828847 -0.0461009 -0.063491665 -0.18122019 0.5232118 -0.4032815 -0.14096108 -0.25651664 -0.07327311 0.5060371 -0.3124197 -0.07336295 0.20989121 0.21546347 -0.47428757 0.28776035 -0.33902717 -0.00026257592 -0.20961763 0.3542646 -0.12618895 0.04192182 -0.2144315 -0.56609845 -0.044120815 -0.003515055 0.045421947 -0.15268864 0.08695721 0.01281382 0.18585752 -0.20655999 -0.26554677 0.16879018 -0.083374664 -0.021935327 0.09610874 0.1168499 -0.25004566 -0.19567642 -0.07097609 -0.3590794 -0.15978725 -0.22773147 -0.009551852 0.3339347 0.27183953 0.43142307 0.12440065 0.0030485317 0.30509758 0.0013914052 -0.051139574 -0.10005035 0.07036958 0.19437976 0.25546384 -0.3054593 0.11258357 0.012873925 0.34084284 0.019418288 0.0047725276 0.07602347 0.13818425 -0.19481061 0.16538765 -0.40524358 0.27732846 -0.1286379 -0.49273852 0.1338283 0.34154016 0.022783669 -0.396879 0.3328001 0.20275016 0.35202205 -0.0081190495 0.44342232 -0.27514088 0.01169715 0.51058155 0.23266283
100 0.2734199 -0.05960817 0.1578092 0.08864255 -0.05580628 -0.084310286 -0.07993226 0.1943207 -0.007899927 -0.32673407 -0.27519917 -0.21027617 -0.0209868 -0.1007715 -0.18704894 0.12659279 0.24216269 0.11092846 -0.34848493 0.14276263 0.07878262 0.2324162 -0.16159904 0.5627477 -0.22702676 -0.010213967 -0.10756369 -0.05145956 -0.34671098 -0.27662477 0.11785954 -0.004064031 -0.036815077 -0.21777946 -0.3364971 -0.37958413 -0.5036923 -0.119015925 0.25687876 -0.21648261 -0.018392576 0.037087213 0.08193875 -0.042127658 -0.13383102 0.20086616 -0.06861717 -0.23054294 0.27152187 -0.21893616 -0.117484406 0.32413936 -0.20786773 -0.021205828 0.079479635 -0.054855853 -0.17884646 0.07135019 -0.095778905 0.18191352 0.012034357 -0.4623377 -0.13588935 0.12765041 0.008183808 0.060011808 -0.05083693 0.14030954 0.031242408 -0.13401288 -0.021984907 -0.1746946 0.013892161 0.112199284 -0.15020639 -0.2444299 0.1262749 0.05495687 -0.014415176 -0.21750274 0.6281552 0.0841922 -0.05632187 -0.29996818 0.31592318 0.019128688 -0.12654158 -0.0014171123 0.044450477 -0.18895108 0.2928428 0.06931338 -0.43114382 0.14830816 0.059175406 0.17508477 0.22505292 -0.42752734 0.25691152 0.044584326 -0.023330493 0.025812436 -0.3262246 0.008265859 0.03975471 -0.367768 0.023360988 0.0574377 0.17652175 0.122949384 0.2605015 0.08585572 0.36997807 -0.28556907 0.054127764 0.055744823 -0.25601488 0.24530384 0.18893158 0.039159823 0.40102744 -0.010550524 0.081260934 0.22447635 -0.18570031 0.21617116 0.21532191 0.15975206
97 -0.094616815 0.030745361 -0.1450878 0.06501044 0.048569977 0.047912087 0.026092228 -0.01990837 0.08013422 0.22422872 0.124162026 0.14980446 0.08928266 0.049047757 0.018402696 0.020817285 0.10334984 0.0714817 0.012606449 0.31478328 -0.086756535 -0.068875566 0.20830774 0.20983657 -0.12512565 -0.068551406 -0.16873226 -0.32123294 -0.075918555 0.019577643 0.05608468 -0.12003684 -0.12036968 0.061253373 -0.1413885 -0.24034314 0.07633203 0.12039551 0.18131025 -0.099534094 0.043656155 -0.12945509 0.10779159 -0.07079689 -0.13618249 0.26889962 -0.005920388 -0.040406097 0.21189708 -0.18291199 -0.08426308 -0.09224425 -0.07704913 0.05641461 -0.1793862 0.254013 0.26052138 -0.11755205 0.02717104 -0.038033646 0.0011089537 -0.04621859 -0.048309173 -0.01597962 -0.053176813 0.00044947676 -0.087301664 -0.027272051 0.18248846 -0.17335027 -0.101306744 -0.0029926614 -0.10941984 0.007041941 0.156394 0.0820251 0.11394383 0.03515304 -0.0036674151 -0.0046158014 -0.16383825 0.06720244 0.0034785296 -0.31340984 -0.055514283 -0.23667853 -0.055288814 -0.30158755 -0.11533293 0.15765865 0.081362836 0.041326467 0.040733166 0.096831284 0.049951557 0.23430519 -0.017476875 0.058416035 0.20780791 -0.25269803 -0.010792181 -0.036170844 0.10726759 0.0006493393 0.16946505 0.20317113 -0.18337336 0.12671879 -0.22270061 0.039783247 -0.063409455 -0.07436774 0.12872888 -0.16612874 0.076857366 0.1632793 -0.00059981353 0.06725042 -0.23758706 0.049548216 -0.21011499 0.11134616 -0.028053375 -0.0812679 0.024159173 0.047591567 0.13369326 0.019858107
8 -0.13019271 -0.26119703 -0.03302632 -0.16206709 0.052063506 -0.044495273 -0.13913172 -0.01837623 0.111969955 0.04531685 0.1963798 0.20961134 0.054109946 -0.069697306 -0.08314483 -0.17991087 -0.09130647 0.08154593 0.21985137 0.17303969 -0.20642829 -0.06826373 -0.01875035 -0.11204894 0.11813256 0.11594867 -0.04155349 0.018830221 -0.08985864 -0.0063690715 -0.028515263 0.0044539827 -0.067162536 0.14639217 -0.05442825 -0.14527036 -0.029760752 0.1625951 -0.0031025687 0.027893348 -0.04316931 -0.01466246 -0.065541975 0.016401138 0.027565729 0.20497696 0.1838032 0.063888475 0.033858236 -0.13836391 -0.2575137 -0.09460522 -0.18765157 -0.04081317 -0.015986858 0.104483135 0.21242009 -0.15590669 -0.18964507 -0.14011666 0.072191596 -0.0873106 -0.06126899 0.0026085756 0.020410813 0.036033675 0.02347327 -0.0016355442 0.1321492 -0.1740633 -0.13114482 -0.05923691 -0.041061662 -0.11791409 0.393348 -0.0708932 0.1828917 0.12785323 0.051850557 -0.16832098 0.0630664 -0.031156426 0.002970331 -0.31144825 0.019032527 -0.07751945 -0.008476628 -0.2840825 -0.09279136 0.20753965 0.015443341 0.22341737 -0.09578106 0.03601676 -0.16817561 0.28971076 0.12408283 -0.02300939 0.13538279 -0.18250969 -0.0004752907 -0.029891107 -0.15406793 -0.18464172 0.11839027 0.02736694 -0.21748269 0.16696809 -0.035926778 0.044282455 -0.04390887 0.009174721 0.129455 -0.09693849 0.09932641 0.10238262 -0.043123458 0.15926267 -0.23450322 0.13041613 -0.23468912 -0.008308888 -0.06547796 -0.019004473 0.066100776 0.07910826 0.1013602 0.08583547
77 -0.021712333 -0.075435825 0.007325739 -0.027848212 0.03624025 -0.15667664 -0.06346694 0.020838877 -0.032721832 0.24319871 -0.050906416 0.10389511 0.1020578 0.095649235 -0.07995728 0.051121604 0.12739144 0.03270373 -0.08143919 0.28874096 -0.12597057 -0.0701029 0.20980515 0.2125811 -0.078441635 -0.12107723 0.018055618 -0.13377653 0.05987781 0.098209046 0.15972176 -0.013516225 -0.20279334 0.07759741 -0.061053127 -0.072533906 0.2136604 0.14463535 0.26828116 -0.058979977 0.26496682 -0.13076779 0.040270444 -0.16904727 -0.13574214 0.17697327 -0.107396774 0.05638424 0.21608369 -0.28874633 -0.23582952 -0.18842933 -0.11534916 -0.038860872 -0.2136872 0.19273457 0.36251646 -0.15693283 -0.0033037397 -0.0013643466 0.025082858 -0.0751786 -0.09667894 -0.014044058 -0.08598416 0.18229267 -0.040960778 -0.04871975 0.06285294 -0.20016177 -0.20701165 0.2132824 -0.051058017 0.20186871 0.17696826 0.1586974 0.12912835 0.13059135 -0.029273365 -0.016202712 -0.047446012 0.026105538 0.05000981 -0.27787906 -0.04233903 -0.3196979 -0.1194903 -0.14949329 -0.043903157 0.10274069 0.06012655 0.055272333 0.08030707 0.036122624 -0.047639765 0.33261296 0.030713491 0.110846624 0.14802904 -0.19218197 -0.13463815 -0.035513807 -0.0017059201 -0.021911941 0.1877126 0.03215029 0.052418705 0.104411595 -0.08953588 -0.07435951 -0.063628554 -0.051516257 0.0077126212 -0.07408942 0.12713128 0.10751883 -0.15060863 0.01867454 -0.23533928 0.115863405 -0.35383967 -0.00043287757 0.0054777027 -0.033405244 -0.035073206 -0.03698227 0.18478592 0.022619186
53 0.028587207 0.07726498 -0.13989867 0.012094679 -0.09097591 -0.06106952 -0.011740959 -0.0362887 0.030724244 0.32640627 -0.0061988034 0.10271323 0.11999617 0.16680679 -0.049917623 0.03591548 0.27704307 0.16970748 -0.05445743 0.47225648 -0.28604603 -0.21253857 0.21702752 0.08034692 0.06670011 -0.1577446 0.10334056 -0.17438741 0.103879675 0.17819437 0.06425911 -0.13365945 -0.13914424 0.12353753 -0.12737155 -0.16626665 0.11168096 0.15968879 0.23454383 -0.052739955 0.28571385 -0.08130069 -0.013513175 -0.1932511 -0.09415138 0.10613923 -0.016415758 0.094356425 0.29616258 -0.25953662 -0.19821382 -0.052238513 -0.082670055 -0.05650164 -0.13460508 0.2085039 0.23927386 -0.175593 0.024772152 0.087267 -0.103057474 -0.15127225 -0.041589834 0.007987153 0.10582889 0.13650508 -0.16078563 -0.2155601 0.010846206 -0.3839894 -0.22315495 0.016919432 -0.13483827 0.13150088 0.15736313 0.08497187 0.11019311 0.1344183 0.028379222 0.0333179 -0.13637894 0.12253873 -0.022789665 -0.35387865 -0.116835296 -0.25692338 -0.109830245 -0.29563433 -0.1771207 0.152108 -0.009384988 0.095196314 -0.028638497 0.1487045 -0.058544952 0.31715214 0.006402064 0.0520834 0.24540097 -0.20556435 -0.01107537 -0.08406221 -0.060932316 -0.012039458 0.19445573 -0.0075393245 -0.009053805 0.13320549 -0.20500688 -0.003511673 0.11457877 -0.02652468 0.07265438 -0.16903271 0.16964906 0.2647922 -0.21421897 0.031964958 -0.18543316 0.09927681 -0.33399642 0.03856996 0.0049612247 0.058421798 0.055621546 -0.101447634 0.2588857 0.104707114
13 0.046233382 -0.14513177 -0.12334466 -0.2549992 0.09391361 -0.04823253 0.003902142 0.2253054 -0.1678447 -0.0015288019 -0.07074969 -0.05652203 0.13108027 -0.040944267 0.09525989 -0.03490178 0.18326455 0.06389791 0.20366432 0.0037023758 0.12629396 -0.12059159 -0.2740732 0.14416736 -0.057045378 0.03422808 -0.13830352 0.087951615 -0.13881126 -0.15083078 -0.12751298 0.13267468 -0.060420454 -0.07573071 -0.095359564 -0.16129695 -0.080004536 0.019485125 0.22014512 -0.15286745 -0.28110832 0.031124435 -0.17761362 0.10353461 0.033339847 0.13454057 -0.08714203 -0.047291834 -0.18867189 -0.16805618 -0.1321701 0.09348599 -0.07100972 0.1882719 0.06334631 -0.18779059 -0.13094684 0.054726295 -0.16701011 0.154951 -0.10287934 -0.16532697 -0.091887265 -0.019960182 0.00248406 0.050127517 -0.30959585 -0.1336023 0.028110806 -0.14271274 0.1879187 -0.071974695 0.27128342 -0.088966765 0.4243863 -0.039415833 -0.02531277 -0.12507045 0.021243934 -0.23547101 0.27348924 -0.2616253 -0.014211171 -0.1096442 -0.07663008 0.00866502 0.10949097 -0.05267467 0.115500115 0.12179908 0.37699533 0.029790713 -0.26016647 0.16630106 -0.19966419 0.0736161 0.24301402 -0.2454115 0.23135728 -0.23236448 -0.15039636 -0.31041467 0.027093675 -0.12335631 0.25114954 0.07244063 0.09840006 0.07231193 0.033883423 -0.048274904 0.18279222 0.077690214 0.13824292 0.26929894 -0.040674787 0.05516664 -0.16637874 0.26400876 0.040042333 -0.07936921 0.17122884 -0.046256028 0.003075526 0.17496943 -0.0023342313 0.15054739 0.25028995 -0.061117563
19 -0.08212795 -0.07361503 0.012881713 -0.040336303 0.106525935 -0.015681228 0.09730836 -0.0059543354 0.20193312 0.09756897 0.0828713 0.18708247 0.07164327 0.03519423 -0.002407083 -0.115229025 0.02296502 0.051652636 0.0036219216 0.24852608 -0.0041149464 -0.11626539 0.18874337 0.22362147 -0.051316075 0.02973032 -0.1900561 -0.17762189 -0.099890016 0.052601814 0.11601922 0.0015623522 -0.13992095 0.103641436 -0.06202871 -0.18101972 0.07275727 0.1152036 -0.04409241 -0.03714988 0.081821725 -0.17611457 0.10018647 -0.02976579 -0.13836214 0.12895486 0.035825364 -0.014003322 0.16110063 -0.10840264 -0.12807804 -0.021246769 -0.07918264 0.037328754 -0.09024542 0.32058102 0.21739595 -0.07367837 -0.05783467 -0.10033711 0.043458812 -0.05795131 -0.03428412 0.036310613 -0.14202191 0.059744757 0.116025835 -0.06406142 0.11768111 -0.1997795 -0.008263604 0.05285553 0.037788875 -0.013629359 0.25910255 0.09040191 0.09658206 -0.018855661 0.003858778 0.00689622 -0.03162934 0.04578116 0.071736395 -0.20579249 -0.08158008 -0.17828043 -0.006640164 -0.16601697 -0.095096156 0.049014967 0.14381333 0.052178137 0.14828204 0.062598035 -0.040623672 0.26447356 0.040649433 0.018287139 0.33337134 -0.23050244 -0.122519016 -0.044686675 -0.037710354 0.056518342 0.08577028 0.14418359 -0.0051879813 0.1943014 -0.17112048 0.04231553 -0.09146559 -0.10084035 0.19664624 -0.1443787 0.043949377 0.020798005 -0.023696836 0.059790283 -0.117922544 -0.04367436 -0.21469048 -0.06907285 -0.0049830745 -0.085067116 -0.08039505 0.059951853 0.156489 -0.08017329
96 -0.017954942 -0.22219525 0.114470735 -0.16619845 0.1419411 -0.021137327 -0.11303747 0.016450554 -0.027664203 -0.05856566 0.046091914 0.14289477 0.03969362 -0.018752182 -0.022999913 -0.021866914 -0.002626786 0.070189916 0.23752363 0.106754445 0.029732376 -0.084988445 -0.16603212 0.11507668 -0.23085485 0.16014023 -0.15496895 0.0056408076 -0.12333674 -0.15335715 -0.010133327 -0.02803122 -0.04172701 0.1626879 -0.1173674 -0.14283775 -0.07561643 0.09274228 0.07175878 -0.009027211 -0.10792643 0.08416141 -0.019601205 0.0043675094 0.0410747 0.28805327 0.1522704 -0.012674845 -0.13646539 -0.13717003 -0.15272741 0.03064597 -0.2059655 0.07473078 -0.043089967 -0.03140067 0.1851535 0.025186874 -0.17556658 -0.0044892686 0.11285185 -0.040105656 -0.09483342 -0.020103894 -0.16309209 0.06761288 -0.044368938 0.055199027 0.053988714 -0.08122331 0.007319211 -0.0013845116 -0.029662209 0.0532408 0.3656912 0.033088215 0.16782537 -0.008745901 -0.0021983427 -0.2659653 0.17188422 -0.1380398 0.03150154 -0.13251053 0.084262736 -0.18725893 0.007638977 -0.1736885 0.15783031 0.15682332 0.19463563 0.09362836 -0.13442925 0.048153546 -0.13669994 0.22268176 0.14644484 -0.07058457 0.18702224 -0.14280714 -0.19892842 0.0069495193 -0.08608254 -0.14793132 0.15693244 0.21766163 -0.056039143 0.08567655 -0.043429356 -0.02565525 0.0006442211 -0.12954044 0.034703467 0.16221 -0.02515588 -0.11436749 -0.041705754 0.18514515 -0.1782214 0.057335418 -0.109949715 -0.046198502 0.031094138 -0.040377084 0.11340755 0.057113633 0.04190027 -0.04368933
93 -0.15426101 -0.19550599 0.03629175 -0.08218595 0.09425218 -0.14606804 -0.09865818 0.07794751 0.10287086 0.14841688 0.19045654 0.17762323 0.055127684 -0.0442711 -0.03203792 -0.07893399 0.024198525 0.06576829 -0.015982207 0.23350291 -0.08968021 -0.15633039 0.13220797 0.24331291 -0.05034785 0.030966194 -0.25457126 -0.33274162 0.0030613998 -0.053566918 0.034803756 0.037593495 -0.010768954 0.106973216 -0.03888264 -0.05816439 0.12874235 -0.06509144 0.012230702 -0.0037500805 -0.06426402 -0.022540525 0.040227234 0.06805147 0.056234628 0.36983612 -0.12408974 -0.038252834 0.060153477 -0.059644826 -0.08386207 -0.072131075 -0.12112354 -0.13278677 -0.13105772 0.13462505 0.29063746 -0.0074748457 -0.13999663 -0.08820036 0.12764224 -0.009198248 -0.1683607 0.008480016 -0.04368613 0.009995379 0.08353798 -0.014373684 0.040968116 0.045412555 -0.06371542 -0.04470474 -0.030024437 0.052142743 0.23510112 0.047332354 0.08074124 -0.05400431 -0.0061920234 0.08444842 0.041633733 0.08023408 -0.03861447 -0.18717876 -0.07638308 -0.1286299 -0.12709859 -0.109309815 -0.049700093 0.11335845 0.099143624 0.041256797 0.014965468 0.13226442 0.10072577 0.15495051 -0.068474285 0.022384314 0.20565076 -0.1878145 -0.07901738 -0.15590478 -0.046505645 0.050973225 0.16169398 0.17539658 -0.12908724 0.37887424 -0.08305229 0.10104006 -0.15554333 -0.15343224 0.13872392 -0.165248 -0.04376415 0.0064127636 -0.10958308 0.107865326 -0.12002005 -0.058611408 -0.2563735 -0.013191106 -0.018841578 0.0669839 0.056584224 0.03268156 0.20038937 -0.0021934297
68 -0.08892127 -0.0974206 0.026996618 -0.022008708 0.0097357165 0.002135492 -0.20105591 -0.13026974 0.035887595 -0.056994833 0.15757878 0.254998 -0.05527191 0.06772667 -0.029160433 0.005068999 -0.021537859 0.04788426 0.09845577 0.12767738 -0.16617107 0.04979503 -0.075612545 0.10636802 -0.034326106 0.064984776 -0.08800049 -0.089816354 -0.07406171 -0.06935818 0.0046926294 0.012099005 -0.044533707 0.12145692 -0.08818375 -0.21085429 -0.075849526 0.059662268 0.12850544 0.070714 -0.043175597 -0.083915874 -0.03122284 0.010388243 -0.05513485 0.1500831 0.08780189 -0.010087608 -0.05555781 -0.22321385 -0.24263895 -0.035791397 -0.17604674 -0.0018636399 -0.0294795 0.1586652 0.1314661 -0.10831194 -0.2105257 -0.044945296 0.06637077 -0.10444102 -0.12733014 -0.011308093 -0.013048242 0.02449078 -0.08794872 -0.0017537774 0.10436795 -0.111754395 -0.14766985 -0.087481804 -0.11273768 -0.05767973 0.4027242 0.089978 0.15032439 0.0262293 0.04145532 -0.2075292 0.02271812 -0.051010452 -0.08531623 -0.1586137 0.13767834 -0.18505615 -0.015721682 -0.34319425 0.010833733 0.24278392 0.01274922 0.102362186 -0.11669066 0.049176168 -0.082097895 0.31646976 0.026676549 0.024472125 0.12144472 -0.31072915 -0.07125086 -0.02795968 -0.055641875 -0.15417105 0.105783224 0.11372366 -0.27841508 0.21239494 -0.21253711 0.029609218 0.0008247988 -0.13500853 0.12501368 -0.0623488 0.0880027 0.048278034 0.035597652 0.07246721 -0.23652415 0.14822656 -0.21363491 0.0029462338 -0.06674431 0.06915306 0.058671407 -0.025195438 0.03516843 -0.049131528
28 -0.22563577 -0.032915372 0.024930803 0.0037671635 0.10407215 -0.13893306 -0.05246602 -0.13112754 0.007122497 0.07284136 0.1881343 0.28058445 0.051376186 0.084988214 -0.09402424 -0.16889901 -0.015009472 -0.0012826894 -0.18208978 0.21081738 -0.168184 0.035767402 0.20491552 0.15925696 0.03921297 -0.09491023 -0.07220464 -0.16493592 -0.075324394 -0.00075376313 0.07432904 0.021125019 -0.06924416 0.20568363 -0.11819781 -0.14265229 0.10106129 0.111552045 0.17769769 -0.04690354 0.19809316 -0.12371804 0.08489919 -0.091161855 -0.131285 0.15243734 -0.12067353 -0.0359941 0.23887566 -0.18312724 -0.32942453 -0.20908245 -0.13491434 -0.022117421 -0.102016956 0.1700273 0.2892281 -0.23837426 -0.045857236 -0.028964445 0.025009802 -0.15411542 -0.14233112 -0.04490042 -0.025780866 0.100701675 -0.10084745 -0.08412486 0.07663876 -0.09418043 -0.2505782 0.043751635 -0.23421769 0.14357388 0.11351523 0.027767317 0.1740944 0.10598893 -0.0050068884 0.027639585 -0.026508234 0.061242156 0.03376406 -0.28144604 0.05753197 -0.32597753 -0.1452695 -0.21719128 -0.08149971 0.19814421 -0.05701909 0.07965731 0.06189578 0.04836092 -0.065554254 0.28027362 -0.0030343088 0.085381284 0.13094729 -0.16564575 -0.08292655 -0.16223498 -0.10290448 -0.17354831 0.060165145 0.093746364 -0.12231526 0.08126277 -0.19632171 0.08178619 0.009877405 -0.006159892 -0.034208063 -0.26151803 0.113782994 0.086888105 -0.15551104 0.054222696 -0.27035126 0.1276726 -0.27445373 0.018487113 -0.05778308 0.041044552 0.12849306 0.04852083 0.25069293 0.042550802
62 0.1888637 -0.10853619 -0.09011809 -0.1841695 0.09221367 -0.0615081 -0.039483566 0.10957791 -0.12462376 -0.16773751 0.063272186 0.004689042 -0.013760915 0.1328673 0.006124534 -0.0461719 0.27031162 0.08611669 0.17500494 0.15581344 0.024345597 -0.09890268 -0.3010725 0.23346877 -0.07530445 -0.07362117 -0.056634925 -0.10827394 -0.033900883 -0.19849294 -0.12804055 -0.028699975 0.008895056 -0.033236045 -0.11771312 -0.15179059 -0.115513265 -0.037593774 0.19352855 -0.0887849 -0.14937183 0.06010118 -0.06588572 0.13797882 0.0100214165 0.06776165 -0.1172617 0.014496284 -0.1763269 -0.23043483 -0.12208192 0.13601404 -0.06416096 0.12210695 0.14323682 -0.2311346 -0.24109523 0.12915523 -0.12510315 0.13679202 -0.06522889 -0.087648354 -0.12311923 -0.03932185 -0.120368525 0.16908993 -0.29635975 -0.19946647 0.09609091 -0.105909355 0.064402975 -0.10210787 0.22506723 -0.033330932 0.25787553 -0.012910815 0.082010284 -0.14303078 0.09631304 -0.28084642 0.33479705 -0.2383915 -0.0030463699 -0.03037808 -0.107563555 -0.010695015 0.23280872 -0.04512278 0.27812457 0.0073917517 0.3187116 -0.055971485 -0.30921853 0.20076536 -0.12803198 0.20329371 0.06990055 -0.2564972 0.21065697 -0.15912008 -0.2839785 -0.35224918 0.05641081 -0.013423936 0.18459676 0.16843851 0.13610344 0.15594096 -0.14112888 -0.063813485 0.07016626 -0.010448706 0.13443144 0.29182255 -0.11236305 -0.031461667 -0.1037586 0.22748731 -0.025229655 0.05961275 0.1985413 -0.07164601 0.0013718295 0.22835432 -0.060956895 0.09117782 0.25867692 -0.1517883
41 -0.17282432 0.16479327 -0.02639861 0.111153185 0.004168098 -0.23494947 -0.065855086 -0.16119687 0.06839127 0.28176272 0.20278303 0.22219197 0.13165945 0.03211505 -0.06652526 0.013475554 0.16191624 0.20656249 -0.0047945064 0.29859743 -0.27609032 -0.21956325 0.08696131 0.4008105 0.054264702 -0.28474098 -0.17324477 -0.0077335997 -0.039245944 0.264214 0.114729024 0.025879001 -0.2528974 0.30952647 -0.09593817 -0.10285943 -0.08479897 0.15731207 0.35909787 -0.18554221 0.33689263 0.063969664 -0.06173227 -0.2177712 -0.10427015 -0.07173908 -0.08930928 -0.018051587 0.38988355 -0.074487224 -0.3200576 -0.26629663 -0.060513888 -0.08642642 -0.15925717 0.2185879 0.347048 -0.23361321 -0.020389032 0.0070410827 0.061320633 -0.2977467 -0.20323062 -0.0682753 0.07097637 0.10055719 -0.15598355 -0.23913644 0.06899979 -0.058172993 -0.21653298 -0.14614597 -0.12754166 0.0871974 0.23397094 0.06539944 0.3658293 -0.07467259 -0.07609097 -0.102864884 -0.01465405 0.022397213 -0.13209179 -0.36566645 0.2094162 -0.09855476 0.057015892 -0.36571965 -0.23107423 0.23215565 -0.11665131 0.07363314 0.03627286 -0.09099916 -0.05431192 0.31393486 -0.033839323 0.10862174 0.19060922 -0.25333738 0.026685769 -0.28566274 0.07032372 -0.17868073 0.2978023 -0.15149601 -0.12840177 -0.13081042 -0.101632744 0.07959068 -0.005330662 -0.031622034 -0.18369964 -0.23178391 0.060900465 0.08352197 0.05282972 -0.012978427 -0.1729317 0.09162653 -0.22311881 0.12370754 -0.012596878 0.008239367 -0.15939741 -0.0045472267 0.06656767 -0.24151924
79 0.107263945 0.14544186 -0.073529296 0.012666834 -0.09848563 0.09474842 0.030008188 -0.333982 0.058927767 0.5079993 -0.0047722105 0.093351685 0.08336152 0.21083152 -0.027299773 -0.007707564 0.2391675 0.12779322 -0.05640088 0.24442399 -0.25899145 -0.10605565 0.3424392 -0.14412872 0.14308554 -0.088592194 0.16314319 -0.08884938 0.07725747 0.22929376 -0.06443924 -0.094743736 -0.20865466 -0.009515861 -0.06067867 -0.063457124 0.25587058 0.17241348 0.11031471 -0.12056855 0.250262 -0.07846519 0.23626235 -0.011981904 -0.09646966 0.025905786 0.15438297 0.11004261 0.42249957 -0.2866825 -0.103704125 -0.116856255 0.008790409 0.084372126 -0.18650584 0.1818933 0.3661286 -0.14893676 0.025041612 0.23674615 -0.06635645 -0.2206814 0.031886514 -0.029923864 0.039869662 0.086020924 -0.3058467 -0.11601301 -0.06788879 -0.47424626 -0.10203223 -0.008232061 -0.1953465 -0.002626635 0.10303413 0.101749375 0.05845743 0.12418045 -0.11033077 0.012509199 0.0037139934 0.05068145 0.075239316 -0.36119863 -0.19624622 -0.42033175 -0.08120703 -0.33219624 -0.032281484 0.073996305 0.10481046 -0.025395406 -0.18511462 0.14625601 0.008917749 0.34535939 0.14723365 -0.040871676 0.36691883 -0.2643988 -0.04310323 -0.11649682 0.010509411 -0.048367396 0.1166839 0.22968706 -0.08054314 0.015385952 -0.33009326 0.0140709365 0.069428414 -0.12718683 -0.005330857 -0.07883655 0.29619572 0.23534343 -0.2001393 0.10486439 -0.19880873 0.08004311 -0.18830869 0.052383896 0.072806194 -0.013106824 0.060594764 0.03836157 0.19813667 0.2509035
94 0.011156349 -0.13469818 -0.1303552 0.030063832 -0.023074195 -0.09208705 0.03072092 0.20926833 0.034433864 -0.0216682 -0.030951302 0.30599737 0.040091235 -0.016087282 -0.10307744 -0.03254958 -0.027187318 0.025393782 0.06824768 0.24738814 0.18274088 -0.11193646 0.15844928 0.26137036 -0.032554075 -0.048424266 -0.24647738 -0.33761606 -0.046521924 -0.025104972 0.09243046 -0.08298422 -0.034813464 0.06085081 -0.09654453 -0.26809722 0.057148702 0.1843251 -0.055364452 -0.059407912 0.018281002 -0.06827287 0.087259956 0.03327223 -0.09006209 0.13700613 0.072335325 0.08298314 0.28366157 -0.29958385 -0.2122444 0.02087056 -0.18091148 0.038520604 -0.10965345 0.29483882 0.3467112 -0.15147889 -0.054416686 0.013706843 0.118759416 -0.23693793 -0.15393493 -0.0029916216 -0.042588077 0.14060873 0.017934956 -0.033212535 0.237145 -0.12752466 0.059203845 0.08896015 0.012778418 -0.08400131 0.07642912 -0.015677784 0.057378855 0.093077175 0.19770208 0.047815878 -0.2611657 0.16207986 0.048811458 -0.3530654 -0.12231418 -0.093200944 -0.03363459 -0.15423875 -0.141297 0.2382272 0.043755505 0.06408306 0.26569572 0.13307013 -0.06403347 0.2259443 -0.07237479 0.053840272 0.1780632 -0.20185745 -0.20420669 0.0024617927 0.013931631 0.113937005 0.13426761 0.15549125 -0.16635889 0.22381364 -0.21349004 0.03815271 -0.017834732 -0.18592447 0.2660561 -0.1159183 0.0008971554 0.040126484 0.05176975 0.0069723204 -0.23746225 0.08998325 -0.18897906 0.06858867 0.026249008 0.029580388 -0.008588497 -0.09106879 0.12990266 0.048098624
127 -0.16655761 -0.01275202 0.07721854 0.089013785 0.3491609 0.15817691 0.0007692988 -0.07788009 0.053165223 -0.24416703 0.15045476 -0.1640066 0.04694704 -0.19458258 -0.24077444 -0.33380854 -0.0983739 0.04198935 0.21353224 -0.26655912 0.13672782 -0.010667457 0.20128123 -0.12411711 -0.2926251 -0.15188676 0.15064989 -0.1286438 -0.042206712 -0.16834182 0.19531481 -0.096645325 -0.13100329 0.14065604 0.20996144 0.031546798 0.017132089 -0.11331177 -0.07709695 -0.04948989 0.13571337 0.2601271 0.15321437 -0.071170114 -0.15382098 -0.12936729 0.06923405 0.02974499 0.45134452 -0.36655492 -0.14189658 -0.12264726 -0.13130207 0.24054301 -0.17643149 0.17211321 0.3496083 0.23532835 -0.33152947 0.114843 -0.20996776 0.054485064 -0.19999634 0.22955091 -0.1761549 -0.033702776 -0.10158221 -0.40356138 -0.014601554 0.043171696 0.006191925 -0.10517038 0.16041972 0.017415619 0.14139557 -0.12359837 -0.12674884 0.11719107 -0.047764927 0.00647353 0.11344692 0.037035115 -0.25822228 -0.036375582 -0.0685477 -0.266641 -0.05270235 -0.12693635 -0.08566224 0.2082976 0.28929794 0.14080754 0.01734017 -0.008408391 0.36460924 0.26417482 -0.088489614 -0.051576175 0.019131605 0.23790048 0.18949081 -0.23606396 0.16174363 0.2567304 0.53646475 0.0033192488 0.051836286 0.18500291 0.002264732 -0.16221043 0.07151408 -0.5212242 0.38471195 -0.21821024 -0.4902627 -0.036162008 0.2120415 -0.11127949 -0.30852202 0.18796654 0.0744115 0.22134846 0.069995165 0.39124808 -0.40570515 -0.006990272 0.39502808 0.01765687
60 -0.12945738 -0.28090593 -0.0016662612 -0.11664311 0.13832042 -0.20479599 0.011191278 0.13985433 0.27812746 0.244958 0.09053369 0.21657495 0.10940061 0.02441302 -0.051362775 -0.0654959 0.020154608 0.02326794 -0.009054827 0.21613517 -0.010338711 -0.10911104 0.09548505 0.12433425 0.002448076 0.058915634 -0.25516003 -0.26903114 -0.1071119 -0.095422395 0.08494958 0.113396086 -0.090269886 0.010775351 -0.025901778 -0.10818268 0.18665962 0.055205293 -0.0066024754 -0.047601786 0.0032800797 -0.18482131 0.1269342 0.11770757 0.0072237286 0.23830394 0.09228005 0.022463242 0.14534764 -0.08547705 -0.01491819 -0.039193813 -0.084038846 -0.05518027 -0.09177288 0.28435326 0.36183402 -0.07006089 -0.0013432462 -0.09628045 0.10691322 -0.15871309 -0.14517833 -0.039000414 0.045209352 -0.08545706 -0.008068259 -0.0043503772 0.069943696 -0.049495336 0.050403997 0.010447875 0.0067190416 -0.049844626 0.09061103 0.039789006 0.10763242 -0.0073326905 0.063557625 0.046997655 0.045995515 -0.011677776 0.015753489 -0.25244343 0.026193319 -0.13304976 -0.048246276 -0.027351253 -0.12716433 0.11165408 0.076521866 0.050761342 -0.011088353 0.022725485 0.04483606 0.19547018 -0.050121147 0.078303404 0.2624739 -0.29090974 -0.149117 -0.10261925 0.123184204 -0.03769433 0.25705808 0.17973019 -0.14251582 0.1372986 -0.16391203 0.07243759 -0.17575116 -0.1299444 0.14471933 -0.12912285 -0.09280839 0.020176914 -0.026895998 0.036417905 -0.15683569 -0.029306144 -0.17573164 0.035583112 -0.013078121 0.019293856 -0.07706011 0.069195166 0.14485489 0.0006147195
70 -0.08650805 -0.26865485 0.11276724 -0.08304272 0.03331242 -0.09084602 0.011950507 0.19876905 0.16762155 0.19955985 0.0071163788 0.20101146 0.1515765 0.05192822 0.016207367 -0.05933815 0.03317184 -0.007715823 0.14258839 0.25203001 -0.10200636 -0.19957033 0.18877773 0.22112373 -0.044171955 0.048845697 -0.25368905 -0.28883353 -0.019276116 0.017184606 0.08548991 0.059178706 -0.11789273 0.012653395 -0.1054717 -0.18979912 0.23578694 0.0070323776 -0.029570857 -0.010510842 0.020983813 -0.12926991 0.085962065 -0.011220595 -0.111012414 0.1992211 -0.006952642 0.031852636 0.15551749 -0.17452583 -0.040020775 -0.036278784 -0.052533086 0.042387296 -0.18330035 0.27901933 0.27211794 -0.05932868 -0.08597386 -0.06163585 0.07781468 -0.22418344 -0.0874758 -0.023507122 0.008240336 -0.017466815 0.04008837 -0.09130248 0.071108505 -0.063016355 -0.07884715 0.059910692 -0.017094428 -0.021608735 0.051245965 0.02092751 0.07981039 0.01779061 0.053000208 0.024340149 0.025039447 -0.0049577993 -0.037360646 -0.27153832 -0.027885603 -0.12514158 -0.0511394 -0.08976539 -0.10230123 0.17124838 0.16031379 0.058837406 -0.08232016 0.0807701 0.039998006 0.22125812 -0.080614604 0.054308858 0.18480228 -0.2532121 -0.08322633 -0.09876154 0.07104551 0.11011454 0.22941902 0.23549497 -0.1295573 0.08250511 -0.20105669 0.10444279 -0.12008353 -0.115371734 0.104055725 -0.23479803 -0.15564382 0.0073398617 -0.012931066 -0.062005322 -0.20926622 -0.0035304145 -0.16873565 0.023788184 0.011143962 -0.029770253 -0.09222106 0.009471506 0.07252682 -0.0055513843
73 0.25145712 -0.18539137 -0.0015132999 -0.27882335 0.23785555 0.085472256 -0.061416786 0.17686202 -0.06255984 -0.25190786 -0.012707176 -0.29993302 0.043357693 -0.16764158 -0.10026156 -0.062227115 0.3726738 0.103353865 0.25701126 -0.10802435 0.12451369 -0.20084277 -0.25367233 0.32620677 -0.24138683 -0.0015771773 -0.10186937 -0.10899608 -0.02719186 -0.17542721 -0.2792954 -0.11572815 -0.10132134 -0.20417735 -0.116341285 -0.09673221 -0.28680396 -0.14071357 0.004050756 -0.12448099 -0.25606346 0.081193864 -0.07634134 0.09807158 0.030962953 -0.017088931 -0.110557444 -0.06017195 -0.08223025 -0.28897467 0.016486086 0.22077745 -0.09474971 0.02852722 0.019748107 -0.19750404 -0.070494324 0.05868482 0.048486315 0.117262594 0.08004528 -0.018542154 -0.10836497 -0.07818369 -0.17432208 0.17438637 -0.24963681 0.037377167 0.0010106424 -0.2198559 0.034978513 -0.10321479 0.061928645 0.008132817 0.11478748 0.06863689 0.06014734 0.1243456 -0.046377856 -0.20317662 0.4134247 -0.18484956 0.11087248 -0.3187265 0.139488 -0.07167765 0.12677908 -0.33260813 0.16442211 -0.32820892 0.28706864 -0.18106967 -0.32347354 -0.002121093 -0.14280723 0.38074315 0.23641686 -0.027951613 0.3796955 -0.10914039 -0.3077408 -0.23475091 0.06863529 -0.03384404 0.15915121 0.31153747 0.016754828 -0.049282473 -0.08968716 0.055926073 0.0851795 -0.095178045 0.16423361 0.0033897138 0.11864974 -0.084351555 -0.15732184 0.027237149 0.34255135 0.021477288 0.19573736 -0.0768387 -0.039782826 0.0881646 -0.12349624 0.19238083 0.23723593 -0.1269545
54 -0.19174409 -0.16906816 0.0077657294 0.035833776 0.10887661 -0.07653212 0.034106694 0.07128487 0.17559068 0.22238247 0.1744108 0.23319279 0.24843264 0.06778452 -0.03558383 -0.16697547 -0.016626006 -0.031006219 0.012364302 0.10818509 0.012653861 -0.07010061 0.2607551 0.23756434 -0.09109866 -0.15570298 -0.15794143 -0.24281725 -0.010992484 0.08440412 0.1845412 -0.00501522 -0.13455656 0.09474369 -0.051746085 -0.12163227 0.023973988 0.06695045 0.026188288 -0.055370234 0.14990672 -0.1335756 0.05660809 -0.078744255 -0.08949467 0.19784684 -0.0912944 -0.061052293 0.21148965 -0.104023404 -0.17148918 -0.11920612 -0.03408521 -0.049438953 -0.136261 0.341974 0.2261032 -0.11992096 0.053354893 -0.110850215 0.11609146 -0.03820237 -0.010588156 -0.16620183 -0.0987959 0.077020265 0.11946736 -0.055844594 0.14547306 -0.026628084 -0.065943144 0.123110466 -0.05792129 0.14720611 0.19103162 0.07910002 0.04213394 0.02259798 -0.017716927 -0.070877835 0.01872089 0.06766913 -0.011252983 -0.25647655 -0.08613691 -0.12862423 -0.11667871 -0.19743091 -0.14059523 0.025074415 0.13465719 0.057673894 -0.05623029 0.07619149 0.0023966918 0.292992 -0.07708929 0.02709061 0.30823773 -0.24623504 -0.15768024 -0.118626356 0.068798766 -0.00061168015 0.13865945 0.1326688 -0.075774506 0.17212349 -0.08617591 -0.024342846 -0.2003652 -0.053645305 0.08735265 -0.17145671 -0.041971702 -0.027148815 0.009438081 -0.047890656 -0.29133555 0.014363873 -0.14374852 -0.032145366 -0.006918006 -0.06826888 -0.07887729 4.864196e-05 0.105282515 -0.17317577
119 -0.03580313 -0.1945287 -0.1861219 -0.06414468 0.37755972 -0.07418806 -0.01827831 -0.080331184 -0.006847538 0.1720794 0.22087444 0.099220745 0.14144903 -0.11794693 -0.06652987 3.0372088e-05 0.049763564 0.14970315 -0.07068851 -0.04212056 0.2625843 0.04684417 0.21742423 0.15679456 -0.12365859 0.08062576 -0.28776383 -0.22154787 -0.11835245 0.01918017 -0.026218044 0.021232365 -0.17595895 0.03681162 -0.07240623 -0.111259915 0.034435052 -0.04039914 0.11764057 0.004711429 -0.058409225 0.19553113 -0.16453679 0.088945866 0.022214033 0.25684884 -0.06394656 -0.024192296 -0.0044873594 -0.19974552 -0.1107605 0.09967151 -0.18669428 -0.018308781 -0.10717721 -0.04559568 0.20497423 0.05534954 -0.27624962 -0.1354173 0.11963768 0.06542069 -0.1497176 -0.058828484 0.109810315 -0.117197946 -0.1417582 -0.13718402 0.03553078 0.003340683 -0.021967905 -0.06597186 0.085026875 -0.24770288 0.22727765 0.056329373 0.043239873 -0.31039053 0.1259173 0.06916165 0.013046169 -0.03219255 0.10886214 0.028649189 -0.24178904 0.10473409 0.040446624 -0.24837267 0.12103849 0.100515604 0.2921876 0.006444442 -0.050013095 0.23709352 -0.04851483 0.3104012 0.09010663 -0.046561413 0.20127895 -0.1615429 -0.053622052 -0.05218738 0.02147705 0.13687041 0.19692649 0.024966063 -0.027795643 0.20067589 0.078558564 0.09468538 -0.15497923 -0.07990234 0.26332563 0.011742345 -0.02676457 0.020007025 0.008234883 0.12960255 0.14862984 0.014968395 0.05183312 -0.005171928 -0.03133104 0.12576222 -0.0519559 -0.10864547 0.1922546 -0.14834169
47 0.082606554 -0.3055503 -0.025970219 -0.24086823 0.120383084 0.008196787 -0.0024804245 0.22570309 -0.11650521 -0.002486288 0.03794866 -0.090865895 0.094809346 -0.090855494 -0.018492887 -0.1732145 0.2403053 0.10256072 0.15649854 -0.075277455 0.08561141 0.001967341 -0.27520317 0.08111576 -0.24970612 -0.048772022 0.075644955 -0.07087703 -0.22685735 -0.14292037 -0.18283951 -0.023918206 0.05077291 -0.091732174 -0.15688339 -0.10680894 -0.23837009 -0.10363903 0.07921799 -0.23894036 -0.24165638 0.03345248 -0.14639743 0.08536342 0.10706774 0.30854896 -0.075434975 -0.07568047 -0.17899883 -0.2134745 -0.06700454 0.047586974 -0.11561251 0.043814696 0.112854525 -0.23925592 -0.007694716 -0.009112077 -0.019976532 0.014657342 0.030621279 -0.011251754 -0.14956892 -0.20454426 -0.0503297 0.1430009 -0.26161534 0.037793215 0.07861799 -0.17892556 0.006170656 -0.1252216 0.09300652 0.006477146 0.25175697 0.07824148 -0.009600936 0.096900605 -0.013667503 -0.3699921 0.24202314 -0.20000878 0.06814306 -0.2700521 0.04662047 -0.1277263 -0.00088749663 -0.2454944 0.12274662 -0.085686825 0.23459302 -0.030085469 -0.24014047 0.09843032 -0.032374337 0.26702008 0.09614193 -0.053470924 0.21337102 -0.09832757 -0.19638738 -0.18808661 0.1026174 -0.17967705 0.08356908 0.23011559 -0.013036015 0.03875275 -0.079083316 -0.02341982 0.037444178 -0.022061028 0.042076603 0.13909 0.023390574 -0.012650612 -0.10771489 0.11656712 0.10454908 0.07993561 0.11943691 0.0038433576 -0.0416218 0.09176222 0.03326257 0.12908147 0.22396126 0.012290335
65 -0.13377759 0.07598715 -0.0067364783 0.008045668 -0.0006872065 -0.1998687 -0.1222808 -0.09502104 0.034641843 0.1463872 0.06667577 0.17584804 0.138337 0.14257859 -0.12364379 -0.036804084 0.0582933 0.12556334 0.058194708 0.34936723 -0.28790277 -0.20974807 0.120233126 0.3070121 0.14386831 -0.24677879 -0.17547043 -0.055340867 0.0006186063 0.25906065 0.12601511 0.0059610712 -0.28997734 0.3377103 -0.10181486 -0.09065426 0.009885558 0.1820158 0.22313523 -0.36060217 0.25987297 -0.015080494 0.08378891 -0.2326169 -0.11391043 0.063050345 0.036168043 -0.016203262 0.46030378 -0.0018162504 -0.24197413 -0.33913642 -0.09901384 -0.121726386 -0.1654516 0.241634 0.5125409 -0.31396782 0.035489086 -0.06085259 0.08815532 -0.21872976 -0.10726584 -0.029049346 -0.20519277 0.12983637 -0.11412129 -0.17312753 0.03948134 0.04566824 -0.17517665 -0.056929916 -0.07366881 0.092879124 0.15487263 -0.049789514 0.30724105 -0.035283305 -0.17093691 0.037106764 -0.020228472 0.053820807 -0.12387078 -0.43012762 0.1333276 -0.2245403 0.025130587 -0.4469427 -0.11508889 0.12988731 -0.020697564 0.09647729 0.17556779 -0.051403712 0.035468567 0.3224602 -0.039788924 0.116241366 0.22973199 -0.18250254 -0.016903764 -0.30258363 0.024383795 -0.023919102 0.2551209 -0.024802592 -0.22081128 -0.092746824 -0.12443431 0.115480654 0.046580013 -0.1090833 -0.12533851 -0.29343465 -0.02368236 0.07798042 0.056145232 0.0006621478 -0.07321323 0.12752329 -0.17511658 0.085735984 -0.030944131 -0.14664654 -0.030754445 0.076412305 -0.06099398 -0.16587627
108 -0.14101854 -0.26738268 -0.08445786 -0.08114215 0.30228096 -0.03649588 0.00622055 -0.0240804 0.10575162 0.16457485 0.24714503 0.23466162 0.21139051 0.045766223 -0.029084496 -0.07174081 0.047364067 0.11772501 0.022694591 0.15019791 0.115869805 -0.08481985 0.17231658 0.21104097 -0.16476445 0.089554824 -0.38308594 -0.18522517 0.030260365 -0.0063904156 -0.008660529 0.0093576545 -0.26443267 0.13526727 0.05333208 -0.045591705 0.04422893 -0.12797503 -0.009655679 -0.03597561 0.07548642 0.026081873 0.004894981 0.013568138 0.031949367 0.27582926 -0.0033239226 -0.061165404 0.05931221 -0.1401954 -0.10462788 0.009473747 -0.14118096 -0.14853837 -0.14147866 0.052579153 0.25043574 0.03276224 -0.109220706 -0.17944433 0.12469257 0.111490496 0.005669953 -0.067436695 -0.0053500626 -0.08042408 -0.054128654 -0.128004 -0.15091504 0.07876465 -0.054697044 0.045828953 0.04516901 -0.08075736 0.13512067 -0.031349916 0.017567925 -0.21996392 0.029941943 0.12902774 0.0666633 0.0077975667 -0.048920672 0.04403006 -0.17935927 -0.00627511 0.01737292 -0.28122815 -0.013154675 0.028232481 0.14211111 0.1328929 -0.13669409 0.13185568 -0.07583666 0.33123207 -0.03787395 -0.021435983 0.31157735 -0.10495064 -0.084817 -0.061684765 0.031501044 0.19681601 0.13507393 -0.01903194 -0.082961455 0.32113326 -0.013522351 0.003237522 -0.018013025 -0.076714925 0.19109118 -0.07462137 -0.07999779 0.08064212 -0.011222936 0.14540146 -0.1309679 0.04659706 -0.07165944 -0.013444438 -0.14888315 0.03966385 -0.047258545 -0.07208905 0.112847045 -0.12989463
113 -0.0010268806 -0.18215276 0.08278378 -0.13977133 0.15277405 0.09218535 0.0688852 0.16193838 -0.04513098 -0.14493906 0.051429406 -0.05007918 -0.02771097 -0.0042780438 0.07464009 -0.18510188 0.25825763 0.11450534 0.32523265 -0.00027991913 0.06900428 0.048376255 -0.27287042 0.20346491 -0.41609225 -0.099405505 -0.048258185 0.07177734 -0.2524847 -0.19744249 -0.17668597 -0.07543399 0.05123512 0.018555418 -0.10497511 -0.07323182 -0.2768793 -0.11419146 -0.18689412 -0.13043885 -0.1332015 0.11446852 -0.06892654 0.08919705 0.084768 0.2850734 -0.017215198 -0.15936548 -0.028967343 -0.14052576 -0.028217522 0.09727405 -0.23670308 0.0073870774 0.1212734 -0.17050926 -0.049650777 0.12457758 -0.13772039 0.046198994 0.030068636 0.024394374 -0.0906146 -0.028216628 -0.08201 0.057596404 -0.09824115 0.013549982 0.04084342 -0.1692782 0.058716763 -0.061401084 -0.0012478007 -0.0070610014 0.13434659 -0.0927157 0.083902 0.1432538 0.06454886 -0.20077245 0.30567384 -0.06804699 -0.027251007 -0.124078736 0.030977897 -0.13171233 -0.109177515 -0.18275629 0.16722028 -0.13420565 0.21929212 0.12571551 -0.18649271 0.09923539 -0.13187434 0.3061528 0.01780646 -0.026388194 0.25238556 -0.01766909 -0.3201932 -0.15128969 0.0010570212 -0.025863629 0.12416383 0.222812 -0.09552465 -0.013777049 0.0052033192 -0.04713029 0.157159 0.038858384 -0.062776856 0.004275522 -0.060075562 -0.06333564 -0.103384875 0.16930142 -0.053053502 0.14508706 0.00028406392 -0.06243934 -0.018055985 0.018937826 0.038331382 0.1408885 0.18241234 -0.02349569
106 -0.107113406 -0.28719425 -0.08119208 -0.10728509 0.20482904 -0.13029662 -0.008436835 -0.02843803 0.1033853 0.18000731 0.17667715 0.14465061 0.15186961 0.032551516 -0.04689054 -0.07610226 0.10332565 0.1433249 -0.0031297838 0.10064459 0.09743456 -0.04566942 0.12365088 0.14214166 0.012053637 0.05739027 -0.18740855 -0.1457966 -0.0655699 -0.08103688 0.028954718 0.1019488 -0.21663524 0.12625569 0.027428713 -0.023226116 0.016360162 0.03880022 -0.027955946 0.0094195595 -0.06863674 0.07731972 -0.035315216 0.0028297638 -0.01763425 0.19554828 0.152615 -0.017272092 0.029888032 -0.0468608 -0.026801476 0.075254366 -0.14828432 -0.17055781 -0.078321025 0.095389605 0.25550088 0.0053435913 -0.12685716 -0.104837745 0.17366698 0.023717757 -0.083022036 0.0094741 -0.02609393 -0.008728388 0.058508866 -0.035823856 0.0038466384 -0.05834302 0.069870666 -0.10411334 0.1323611 -0.06317651 0.22398217 0.021031125 0.1198068 -0.13903064 0.033542916 0.018871484 0.08792628 -0.06621708 0.05926175 -0.12288838 -0.052661076 -0.022000436 0.03705082 -0.20546362 -0.047114536 0.012640411 0.16605361 0.03570209 0.0604146 0.11139956 -0.065438345 0.28952724 0.063311085 -0.0667392 0.3455584 -0.13286473 -0.095470235 -0.037142754 0.022434898 0.13390404 0.11904093 -0.01833168 -0.058738828 0.2775967 0.020576257 0.08355125 -0.18762259 -0.13290438 0.25360996 -0.08208703 0.112795606 0.016998861 0.015216576 0.082663186 -0.0023642625 -0.098548576 -0.14241521 -0.06017774 -0.020561596 0.11600297 -0.08932275 -0.034374084 0.16533594 -0.15580179
102 0.0053502694 -0.35769308 -0.054951876 -0.2235271 0.18255472 0.11750909 0.054650567 0.25952202 -0.09013028 -0.105106466 -0.035133082 -0.04921287 0.05718338 -0.051912792 0.120555945 -0.10216083 0.27381188 0.01635532 0.40901285 -0.036382515 0.16189367 0.032215506 -0.19923152 0.24799009 -0.37547955 -0.14096445 0.008966606 -0.0050448244 -0.270803 -0.34274018 -0.10562822 -0.10669935 -0.108198434 0.034869734 -0.28557637 -0.26481634 -0.33573797 -0.046836115 0.05015031 -0.082167715 -0.2538486 0.12275706 -0.20201659 -0.01426794 -0.028295062 0.34543929 -0.036581118 -0.109353654 -0.13945106 -0.20709527 -0.022911929 0.18880798 -0.28094828 0.06955662 -0.0060106493 -0.21078289 0.010144694 0.028367361 -0.0700546 0.031267684 0.048272986 -0.0032183793 -0.096720085 0.053379048 -0.19499186 0.13294803 -0.24244738 -0.020666497 -0.02223244 -0.3667017 0.03922269 -0.20317405 -0.03548209 0.03092378 0.13394733 -0.07592241 0.18340547 0.21148273 -0.052205775 -0.26902178 0.22888044 -0.1380703 0.008617844 -0.08151196 0.11025014 -0.26663595 -0.0066549736 -0.12300083 0.25192904 -0.1786558 0.16697353 -0.030766912 -0.09829065 0.034833424 -0.12315771 0.17056458 0.030843744 -0.08326265 0.23774776 -0.030904058 -0.32392555 -0.023363657 0.007204227 -0.13892989 0.09782114 0.31150344 0.075996704 -0.06741908 -0.062992126 -0.020544874 0.15476371 -0.10112212 -0.055837397 0.057795912 0.1247021 -0.11239817 -0.11875181 0.05292365 0.07596121 0.10007665 -0.0025285743 -0.15159091 -0.024275158 -0.011854319 0.06369894 0.14695609 0.18839741 -0.12084963
81 -0.041365996 -0.38298586 -0.15120707 -0.09739779 0.44945422 0.10429039 0.023725323 -0.006802151 -0.11078589 0.11473686 0.26114592 0.09938467 0.18095806 -0.21553159 -0.010266651 -0.056379292 0.12762277 0.14860038 0.22873034 -0.086165816 0.23562412 -0.047940187 0.26513404 0.27617848 -0.08656582 -0.003497329 -0.26521325 -0.21290374 -0.1321228 -0.11262308 0.03796764 9.5881405e-05 -0.33734256 0.009198572 -0.120419264 -0.098335855 0.0082824025 -0.1051471 -0.063613355 -0.06571001 -0.15624845 0.11943606 -0.07604287 -0.041550927 -0.012699909 0.17936033 0.025641298 -0.01626581 0.037895754 -0.15039547 -0.046968505 0.045427572 -0.17077014 -0.15843889 -0.23425491 -0.003364314 0.15073927 -0.09917385 -0.07762952 -0.20615874 0.16531299 0.057705432 -0.08586649 0.04050497 0.040151585 0.01675166 -0.2250439 -0.21003583 0.011355504 -0.03946884 -0.10164301 -0.057056796 0.016102707 -0.18824133 0.03026769 -0.03473335 0.033803172 -0.07716476 0.06374089 0.1059593 -0.17804652 0.13011126 0.03055191 0.15388383 -0.039087024 0.14952704 0.053367592 -0.19407444 0.011954338 0.027776966 -0.024027074 -0.016875269 0.014867606 -0.004422648 0.01692793 0.17385957 0.099761195 -0.21692902 0.31640673 -0.14868908 -0.039107297 -0.13648565 0.08431346 0.27879867 0.22989944 -0.0038972418 0.06793862 0.23761113 0.021991415 0.10394992 -0.15545656 -0.2529314 0.22139983 -0.057647698 -0.088045724 0.1652044 0.100428976 -0.009530065 -0.0848741 -0.023174988 0.009071304 0.07562177 -0.047020014 0.1370409 -0.13868943 -0.030441575 0.32833207 -0.13803843
72 0.24213864 -0.08708893 -0.035613462 -0.22764087 0.0920871 0.05269492 -0.027388508 0.08428288 -0.16637798 -0.08295382 -0.01545503 -0.21950828 0.17130072 -0.15665397 -0.091884814 0.01573556 0.24688783 -0.0057554776 0.102893986 -0.07431513 0.11790236 -0.15624447 -0.30295238 0.2645366 -0.2803204 0.012183661 -0.07274034 -0.05390903 -0.08527185 -0.25902927 -0.19308329 -0.043128055 0.037660837 -0.27227426 -0.15854809 -0.16798306 -0.14163776 -0.0786362 0.2859257 -0.12234645 -0.15013808 0.09630821 0.007511531 0.101068854 0.051823083 0.09566629 -0.032299362 -0.070753485 -0.07359023 -0.38274667 -0.24264747 0.23869087 -0.13717547 0.08848629 -0.0037120574 -0.1673718 -0.19015475 0.10987227 -0.05254503 0.22125943 0.0625377 -0.19834442 -0.17229603 -0.08607636 -0.06050307 0.12481945 -0.18656613 0.008951989 -0.011211275 -0.16242038 -0.07745934 -0.0110412035 0.11697263 0.13286352 0.25196093 -0.10651267 0.030852923 0.01879928 -0.009692089 -0.24671577 0.4148373 -0.08584506 0.05208604 -0.19942898 0.032462895 0.027686024 0.0065360228 -0.028649557 0.10633911 -0.097439416 0.2716325 -0.043600235 -0.4727884 0.13775454 -0.05853339 0.26892656 0.25491023 -0.2356858 0.14003949 -0.03770782 -0.17331025 -0.19369331 -0.09003931 -0.024053842 0.097803414 0.061707117 0.07715609 0.066920154 0.058150906 -0.064053245 0.22737464 0.0872793 0.14101568 0.14765072 -0.07552725 -0.09220067 -0.20495924 0.18351564 0.11629173 -0.019451305 0.22687328 -0.0060776114 0.05810646 0.12489989 -0.0709192 0.1869982 0.21091801 0.014103075
105 0.25295565 -0.32061267 0.042826857 -0.20586145 0.11805963 -0.23075248 -0.14427532 0.21637909 -0.035895415 -0.2806181 -0.09266756 -0.1530383 -0.030866418 0.04230047 -0.057406135 -0.03809081 0.28889802 0.11487677 0.07077505 0.040714156 0.04283995 0.10571496 -0.24542296 0.33298796 -0.19348566 -0.026019603 0.09076849 -0.05845626 -0.24235848 -0.19493586 -0.0656524 -0.057442103 -0.11377491 -0.15324135 -0.104549386 -0.18991773 -0.24368173 -0.12491005 0.24060634 -0.12039622 -0.0625395 0.007383521 -0.05431366 0.099845044 -0.007465849 0.08937878 -0.19192462 0.114075065 -0.039625224 -0.28391406 -0.11561854 0.23634852 -0.016122494 0.10594301 0.0067978124 -0.11175742 -0.11996769 0.06494059 -0.12562807 0.038893435 -0.09665919 -0.13156609 -0.16813524 -0.076133475 -0.055677507 0.07874923 -0.32156882 -0.20236695 0.11090631 -0.10354052 0.09045367 -0.10194287 0.20578624 -0.10599965 0.2575736 0.03356822 -0.05970674 -0.09597138 0.022809118 -0.33961844 0.3684825 -0.1953766 -0.0016492141 -0.10725658 -0.024913948 -0.074007094 0.12443133 -0.056687918 0.24690296 -0.09447324 0.27808082 -0.12047721 -0.39182138 0.082252786 -0.037597824 0.08398244 0.07801024 -0.2069125 0.1758124 -0.106491394 -0.16512117 -0.1410972 -0.02917872 0.011997844 0.12711747 -0.024075357 0.1480383 0.097604275 -0.06512212 -0.030843843 0.053832255 -0.084678955 0.23994234 0.08933207 -0.051307745 -0.01910101 -0.26831108 0.15134405 0.13655996 -0.00824535 0.29085517 -0.10231343 0.029578177 0.1377666 -0.10060316 0.15903188 0.21336941 0.0018731247
