222 128
153 0.2879387 0.20370744 0.2685081 -0.6811295 -0.58342075 0.07712613 0.087420516 0.015188621 0.2672128 0.47516087 0.36195642 -0.0014217816 0.09412969 0.153213 0.4553914 0.07205115 -0.50261515 -0.33914417 -0.575832 -0.1070381 -0.1326654 -0.3987099 0.3303499 0.1898937 0.2932161 0.13877046 -0.095341034 -0.16965362 -0.26844567 0.20290904 0.14621678 -0.17561853 0.0036864919 -0.276036 -0.06952775 -0.33887672 0.21326932 0.08923484 -0.2608754 0.30834594 -0.38679123 -0.28386003 0.08576105 -0.1945106 -0.21558973 -0.1403977 -0.3591694 -0.11263385 0.33936518 -0.013595864 0.20460163 0.074186 0.06689066 0.14790225 0.21942985 0.10810594 -0.14951557 0.116288595 0.00076042884 0.40150255 0.53423107 -0.27681974 -0.033266533 0.046554405 -0.115769155 0.131023 -0.24554144 0.20976166 -0.4269315 -0.44556606 -0.0792489 -0.49853352 0.018100295 -0.08553721 0.093338594 0.11113642 -0.05043273 0.06772363 0.06577609 -0.3018909 0.6825094 -0.0017085113 0.15579227 0.07221109 -0.11312275 -0.1844698 -0.33971077 0.08367514 -0.36322019 -0.5994447 -0.27228332 0.1921701 -0.2835731 0.078191735 0.19935907 0.095324725 0.29720908 -0.48616743 -0.055770755 -0.08253622 0.07795546 0.03338932 -0.26494372 0.09758209 -0.17651837 -0.022978283 0.086278304 0.1665321 -0.33818185 -0.44039243 -0.16070929 0.19829568 -0.07727106 0.14591117 -0.18571356 -0.2082105 0.29238883 0.17624201 -0.037341855 -0.33503264 -0.33219898 0.41860485 0.14999004 -0.15004954 -0.11270459 0.2344452 0.18782389 0.10780785
34 0.29350513 -0.23235206 0.06922183 -0.22262587 -0.03797869 0.1932216 0.037631862 0.116067596 -0.14184234 0.07653569 -0.1669906 0.15380321 0.22706531 -0.22870596 0.16048254 -0.41553622 0.15909888 -0.25010255 0.17112121 0.21830092 -0.28387657 -0.17138171 0.12918654 0.36181396 0.23145552 -0.008936173 -0.16486198 -0.22065696 -0.24862693 -0.10919732 0.54173815 0.26969638 -0.5022897 0.13089162 -0.054452408 -0.26693726 -0.016366491 0.17038094 0.16429578 -0.33926526 -1.1380526 0.7334528 -0.044417832 -0.06277686 -0.20989794 0.017409999 -0.209742 -0.23489454 0.6414641 0.15561266 -0.26162627 0.4564554 0.010968258 -0.14606802 -0.033354692 -0.16845788 0.32291368 -0.25449362 -0.3338666 0.26811358 -0.066244535 -0.61700493 -0.11265925 0.13421498 0.1312541 -0.29753366 -0.051916145 0.1567192 -0.37903523 0.08933798 -0.3096682 0.16313322 -0.07825631 0.06125594 0.52387786 0.11241115 -0.49539173 -0.32902133 0.050716024 0.22292686 0.3528396 -0.06012383 -0.13615546 0.78296804 0.07457268 0.09074222 -0.29258555 0.38606742 -0.2199431 0.04289714 -0.4867016 -0.4316475 -0.10300129 -0.34955356 -0.23410995 0.48618448 0.13502838 -0.71125406 0.0034305863 -0.40357223 -0.27868566 0.03591638 -0.53383493 0.31123558 0.1768491 0.33609426 0.8153519 0.32072237 -0.023952328 -0.08250582 0.35753673 0.11431642 -0.58840233 -0.0946888 -0.5304529 -0.38447878 0.16614243 -0.30539644 -0.31116512 0.20262097 -0.1416147 0.08164326 -0.16614197 -0.052745048 0.14478122 0.11290215 -0.2682839 -0.06108484
154 0.24918829 0.073412985 0.23851416 -0.5719877 -0.54567206 0.031870108 0.18211553 0.051675405 0.27687177 0.41139594 0.36437806 0.04978057 0.15139316 0.0831819 0.43161604 -0.026625536 -0.48782027 -0.46041098 -0.5320367 -0.04415806 -0.026579626 -0.39344972 0.3086132 0.18058978 0.38666356 0.14167564 -0.087045036 -0.17664817 -0.1253063 0.16884427 0.12344531 -0.26962438 -0.05762086 -0.36494136 -0.08720644 -0.3218008 0.25087097 0.029818766 -0.27733436 0.2735001 -0.31395942 -0.2856046 0.15636386 -0.24985631 -0.079103895 0.020820037 -0.38932508 -0.020950397 0.40279427 0.028490672 0.15169886 -0.014268269 0.06637403 0.09528213 0.193546 0.15287846 -0.14675997 0.106892064 0.014742138 0.44377723 0.51922464 -0.22485967 -0.087175876 0.15074112 -0.09369766 0.15633507 -0.1245304 0.16215731 -0.43269554 -0.50965923 -0.013719116 -0.40796435 0.0061763166 -0.030719751 0.10336857 0.046250246 -0.0918407 -0.02606039 -0.02864311 -0.42421526 0.58424413 -0.14401801 0.1924245 0.009166738 -0.114646025 -0.24777065 -0.35212582 0.013793827 -0.30686486 -0.6158997 -0.19560674 0.13177957 -0.17247848 0.05935136 0.14513615 0.082109876 0.19008428 -0.47464073 -0.0999322 -0.0025393795 0.059631765 -0.012849842 -0.34550357 0.13287137 -0.16856427 -0.03637022 0.12105581 0.20045038 -0.23574181 -0.49955612 -0.17451893 0.11429 -0.047302324 0.12784912 -0.1652737 -0.14627261 0.26392028 0.12116666 0.014844686 -0.3063007 -0.24775141 0.39614815 -0.008099474 -0.17398582 -0.08690175 0.17020172 0.17784303 0.22845264
214 0.20126103 0.08571589 0.28842854 -0.56729984 -0.5192425 0.12686165 0.15154476 0.053298928 0.20422165 0.30311012 0.35947105 0.07357605 0.17634743 0.19330259 0.4020867 -0.050968654 -0.47895405 -0.39513847 -0.5284121 -0.04857239 -0.17672084 -0.32971594 0.30943877 0.16698408 0.3689937 0.17192861 -0.070427746 -0.13991451 -0.122465394 0.17518426 0.14990918 -0.23761474 0.03278047 -0.34499103 -0.080557585 -0.39101484 0.18931071 0.02465212 -0.18037908 0.28853953 -0.26445398 -0.43062294 0.026330406 -0.24732673 -0.03937752 -0.0870295 -0.36318344 0.030349554 0.2121839 0.05212358 0.18198483 0.07206771 -0.04432972 0.105225265 0.15400343 0.18054055 -0.105609484 0.12310268 0.13655461 0.3622348 0.47184807 -0.23160066 -0.13599469 0.12887979 -0.06172145 0.13202196 -0.20848583 0.1981372 -0.52033466 -0.5040758 -0.073780544 -0.4952554 -0.020216111 -0.026345173 0.2076228 0.104846075 -0.08174399 -0.0032531573 0.07873024 -0.3459818 0.5822658 -0.05540935 0.111739434 0.07991851 -0.048524164 -0.18956377 -0.33232436 -0.039073307 -0.34707418 -0.55906516 -0.23650666 0.13878721 -0.10510442 0.03576421 0.2198 0.14575474 0.25173926 -0.45028117 -0.12181574 -0.13264942 0.025389997 -0.03307116 -0.27122954 0.16626942 -0.18771566 0.03368781 0.061189912 0.20619215 -0.2895555 -0.41754 -0.18222935 0.06792385 -0.098705515 0.19666699 -0.23009206 -0.12786736 0.32837632 0.17185251 -0.00020137732 -0.35488394 -0.25408655 0.44455698 0.050053686 -0.17763388 -0.08433775 0.2986166 0.2167109 0.19175385
215 0.23653296 0.025034055 0.23258443 -0.62844783 -0.49542287 0.05672509 0.06123698 -0.021079948 0.24344198 0.35784763 0.35218507 -0.018974924 0.1357531 0.15564474 0.46546867 0.015157546 -0.46973267 -0.33041653 -0.5592731 -0.07156253 -0.08960485 -0.49753085 0.29874137 0.095494464 0.35993126 0.14257482 -0.07929979 -0.17534335 -0.15431884 0.1703851 0.17770751 -0.17548673 -0.044947132 -0.34743217 -0.06626387 -0.2519403 0.22322765 0.0482221 -0.2506502 0.24265169 -0.36644807 -0.30712578 0.019663218 -0.07572579 -0.10219061 -0.030617 -0.33067885 -0.06447326 0.3586056 0.07875948 0.14491545 0.01640763 0.03834955 0.1353324 0.19558588 0.086468175 -0.1734293 0.15637356 -0.0011642366 0.36456758 0.60422057 -0.31757852 -0.11829304 0.05729142 -0.09880632 0.053732675 -0.20989789 0.14219561 -0.40634882 -0.37873608 -0.09232522 -0.33231282 -0.036288686 -0.088726446 0.063733146 0.067856334 -0.1351956 0.086313985 -0.0004102679 -0.27985674 0.5326964 -0.06803977 0.14044613 0.024547122 -0.037865296 -0.18209489 -0.2779049 0.016579343 -0.23653229 -0.5832329 -0.23508167 0.1625582 -0.2236718 -0.07027792 0.20277214 0.06541231 0.23271245 -0.36611515 -0.06003725 0.012551649 0.014731529 -0.0012871136 -0.22863883 0.14152592 -0.13956507 -0.02939886 0.11659687 0.14548929 -0.20808029 -0.4254574 -0.031318504 0.116203964 -0.042734537 0.088270456 -0.07050832 -0.22171898 0.23016581 0.15326716 -0.0668237 -0.27344468 -0.25626436 0.36401176 0.07481786 -0.24226129 -0.14435136 0.16654287 0.117626145 0.24288015
56 0.2795689 -0.21449536 -0.00970594 -0.18190144 -0.0009862133 0.21502519 -0.032081317 0.13570672 -0.22400591 0.011474111 -0.19367933 0.20691666 0.18886574 -0.21732184 0.1018756 -0.39702618 0.1356174 -0.18956338 0.11997752 0.19041458 -0.28638223 -0.12816209 0.02581499 0.3084722 0.18056424 -0.024998615 -0.2222518 -0.20687638 -0.23946641 -0.079566866 0.50241286 0.2743748 -0.504267 0.076270096 -0.110961616 -0.2698299 0.050854623 0.124998994 0.16601104 -0.33089396 -1.0888586 0.6835731 -0.03154254 -0.14472002 -0.25990316 0.050149016 -0.20169857 -0.1663854 0.5809738 0.1141046 -0.24957752 0.37267798 0.14218998 -0.19991192 -0.050709024 -0.19869223 0.32384354 -0.23415495 -0.34358993 0.26155734 -0.122816615 -0.68077296 -0.016714232 0.17013809 0.07295596 -0.2995896 -0.045856994 0.2751925 -0.4708197 0.1420449 -0.21732895 0.21753259 -0.09030576 -0.01967025 0.47034132 0.16634096 -0.5127754 -0.32549492 0.052049775 0.30942824 0.3344907 -0.09965588 -0.22162564 0.7546222 0.068463705 0.05435064 -0.2757784 0.42757353 -0.15365992 -0.046813503 -0.4618167 -0.36874428 -0.16417359 -0.35431048 -0.2567019 0.44909802 0.12406316 -0.72748715 -0.052671473 -0.38007128 -0.31958404 0.0480791 -0.52380884 0.31698573 0.21717411 0.32130036 0.7900386 0.32323372 -0.07815915 -0.155523 0.3295324 0.109269194 -0.6165565 -0.21965165 -0.6206553 -0.30207217 0.13293569 -0.29024145 -0.29228836 0.27097765 -0.100164324 0.08704389 -0.26419148 -0.048400827 0.07799226 0.11956252 -0.29267058 -0.025808832
155 -0.31245923 0.12606022 -0.5157824 -0.15937915 0.10223317 -0.104712985 -0.081668586 -0.21625064 -0.35285228 0.5434527 0.31207553 -0.1438166 0.030538552 -0.14307876 0.073302634 0.06430302 -0.012828976 -0.027091006 -0.061256424 0.4707641 -0.058300707 -0.06816951 0.5878741 0.07802498 0.26589426 0.16115475 -0.15785798 -0.47739366 -0.10754338 -0.40890428 0.23741399 0.59658545 -0.26398984 -0.51062393 0.117510475 -0.056732785 0.3246113 0.045892425 -0.18828407 -0.20310378 0.06472617 -0.0438462 -0.49916828 -0.18285817 0.29931316 -0.14140823 -0.1464347 0.40682873 0.12576509 -0.0969464 -0.12243365 0.1375856 -0.17261668 0.14235266 0.14472252 -0.12546732 0.11934371 -0.319243 0.16742775 -0.05811063 0.32025144 -0.41446194 0.04309992 0.2774996 -0.026618594 -0.44903696 0.082179956 -0.42551485 -0.21655746 -0.48674703 -0.21744719 0.1059763 -0.3200589 0.072238185 -0.31189033 -0.039250504 -0.22744805 -0.033097334 0.21937256 -0.23848878 0.075308554 -0.5663068 0.2815708 -0.0151342405 0.28356525 -0.16849239 -0.49746576 -0.17651248 -0.035534605 -0.2610557 0.3021738 0.2866983 0.18039256 0.028621893 -0.03856477 0.2714578 -0.12680401 -0.13605061 -0.23245889 -0.2747666 0.1923419 0.15660818 0.3376331 -0.07598598 -0.66118145 0.3114571 0.23079544 0.5413643 -0.2029047 -0.101599805 -0.4369152 0.22435465 0.037219413 -0.21549198 0.07590716 0.46008426 -0.25963604 -0.1917053 0.08558354 -0.17188981 -0.40477613 0.13737513 -0.1384067 0.24290171 0.05076809 0.48225772 0.1451499 0.06695048
156 -0.2783259 0.17007856 -0.5031919 -0.1205874 0.09908922 -0.13195884 -0.028154291 -0.22344391 -0.4017117 0.65185726 0.21320832 -0.057455953 -0.0037943618 -0.15279575 0.106014185 0.04288379 -0.004229783 -0.035316125 -0.022481076 0.41922575 0.04945937 0.11596151 0.6815319 0.09992899 0.12907833 0.011437091 -0.15129755 -0.4251782 -0.040471435 -0.47774476 0.15957478 0.5531467 -0.32419685 -0.5024453 0.13871124 -0.16815604 0.44885325 0.11636879 -0.10491507 -0.25901684 0.08415105 0.020514527 -0.5232621 -0.16329245 0.20357607 -0.2537006 -0.14547025 0.34107363 0.023021437 -0.03993087 -0.13369821 0.14444767 -0.17117114 0.0623533 0.21706562 -0.22665638 0.050491318 -0.31000224 0.22213471 -0.09499461 0.1516115 -0.26707876 0.024571573 0.31574905 0.04037538 -0.5243824 0.10918659 -0.39534822 -0.2589988 -0.40175003 -0.1288844 0.20184109 -0.22183049 -0.045678988 -0.38351655 -0.044478152 -0.20661576 0.001672889 0.19155835 -0.05053991 0.13037145 -0.5193582 0.26860374 0.08999952 0.21928163 -0.17508964 -0.56440014 -0.09362472 -0.0658425 -0.15956552 0.23556761 0.30399296 0.0808036 -0.011167653 -0.050495185 0.2781024 -0.10141357 -0.14506248 -0.19674325 -0.37200812 0.23762056 0.1542865 0.26359406 -0.028657729 -0.6157779 0.32578176 0.2547824 0.55779445 -0.20027007 -0.057628028 -0.3649483 0.22453651 0.08962945 -0.22580904 0.0045467135 0.47082576 -0.18059224 -0.15399955 0.058249872 -0.13510223 -0.41193208 0.16106182 -0.105794005 0.1924768 0.012051046 0.48452947 0.19116569 0.10275451
170 0.24160457 0.05644781 0.21245198 -0.51894057 -0.6378654 0.036995113 0.2330754 -0.061909147 0.33164296 0.33524898 0.41128734 0.06470019 0.07435356 0.08150167 0.41760173 -0.018955147 -0.4991216 -0.31686127 -0.46112165 -0.022753593 -0.08230901 -0.3435177 0.1983932 0.12009259 0.2826836 0.06364282 -0.051074307 -0.045561593 -0.16848281 0.14312188 0.06139644 -0.27406463 -0.08821413 -0.35510835 -0.099148884 -0.38336468 0.27879685 0.06350193 -0.20496602 0.3221965 -0.21640281 -0.19142176 0.16135477 -0.229864 -0.12621652 0.025862334 -0.4207834 -0.024271533 0.34953967 0.077784576 0.073518656 0.04052153 0.10804817 0.09336811 0.09855925 0.11594076 -0.060956687 0.024371244 0.0075809904 0.37589884 0.502916 -0.25262362 -0.059244562 0.1753358 -0.088187054 0.15917924 -0.13863058 0.1912579 -0.4187567 -0.4556949 0.012095629 -0.4278727 0.059798114 -0.00013979536 -0.0066705644 0.0801394 -0.1861953 -0.038695827 0.05306558 -0.30998212 0.5694968 -0.15881751 0.12307465 0.04227292 0.050862025 -0.27440202 -0.30884764 0.04153929 -0.26662475 -0.5920554 -0.1735042 0.14245445 -0.24222055 0.043947753 0.16687942 0.15307525 0.188099 -0.40631118 -0.05890728 0.066597834 0.05742927 0.014540375 -0.22665977 0.056552432 -0.15728705 -0.047846273 0.10740569 0.15360437 -0.2143322 -0.3756013 -0.1539769 0.12531905 -0.05195746 0.13057783 -0.24535517 -0.218547 0.2100257 0.13148253 -0.02396431 -0.3006304 -0.21739154 0.36657882 0.03930867 -0.13304733 -0.0588368 0.29736054 0.21469724 0.21384414
171 0.30176318 0.19458584 0.22161679 -0.5765499 -0.57058376 0.057249427 0.13541386 -0.034980856 0.33283398 0.4554714 0.38515216 -0.016379643 0.1764433 0.12772454 0.4348936 0.05669489 -0.44163752 -0.3468892 -0.463275 0.016186668 -0.1182225 -0.33739316 0.18515243 0.1568787 0.3997194 0.13793749 -0.109909534 -0.10633687 -0.015558263 0.19696209 0.10800762 -0.23473139 -0.028684687 -0.34171143 -0.10565185 -0.21783063 0.22637177 0.016382325 -0.2552023 0.19533162 -0.2519559 -0.24792986 0.006745843 -0.28055325 -0.030680254 -0.07628449 -0.4388871 -0.0044184737 0.35992935 0.07186139 0.021249166 0.035891343 0.16096143 0.11289744 0.17443274 0.16270685 -0.03662783 0.07605883 0.12763727 0.43198276 0.44906425 -0.3373731 -0.006846749 0.084253706 -0.028875098 0.07490006 -0.16142388 0.20987265 -0.43228042 -0.41382456 0.07127778 -0.3906478 0.055563606 -0.053846546 0.093150616 0.06782498 -0.026913518 -0.013042146 0.093918465 -0.2984924 0.5683219 0.039913937 0.16737981 0.022014946 -0.07280698 -0.19681314 -0.25344175 0.08227229 -0.2966772 -0.6274983 -0.29972738 0.07075924 -0.20567647 -0.006243219 0.052090365 0.19974533 0.20858 -0.52734834 -0.27536175 0.08903189 0.0377949 0.0019110063 -0.31793365 0.078076296 -0.17236306 -0.042499665 0.11569056 0.15156199 -0.22871488 -0.38961664 -0.13364173 0.05170033 -0.16006596 0.14847896 -0.22260961 -0.12226241 0.20569365 0.03630514 -0.017741106 -0.29107425 -0.1691159 0.35253564 0.07452767 -0.17772421 -0.0026849457 0.2446465 0.13686195 0.08574003
77 0.46810848 -0.07400964 -0.15507041 -0.07483375 -0.122210965 -0.13033175 -0.18196416 0.3536689 -0.078463934 0.41542494 0.13919885 -0.100802325 0.16149646 -0.1904925 0.52252567 -0.13442923 0.12813482 -0.41006896 -0.16032475 -0.06422458 -0.12586337 -0.0496905 0.40640482 0.2844025 0.15540521 -0.099895574 -0.50132596 -0.20185348 -0.16294838 0.13398227 0.23070051 0.43866313 -0.30877936 0.20996982 0.15489154 -0.041805614 0.058461975 0.17329092 -0.14572878 0.030195042 -0.44264928 0.5442848 0.15762326 0.11129546 -0.056831516 0.24877654 0.49883977 -0.012141006 0.43319649 -0.15000673 0.16286427 0.5006029 -0.4712939 0.098624706 0.058053084 0.043551322 0.21512975 -0.027632877 -0.3954408 0.22008 -0.06597279 -0.44716036 0.45527655 0.22717164 0.29417315 -0.10546584 -0.20041074 0.2422907 -0.22484851 -0.28114614 -0.3166943 0.31888044 0.107439704 0.19573663 0.36652356 0.19318372 -0.66930765 -0.53190035 -0.008945436 0.26869243 0.45003793 -0.10708642 0.009290015 0.18726473 -0.14251092 -0.4033333 -0.5572169 0.4531763 -0.086964376 -0.058467656 -0.08800802 -0.35731888 0.016045174 -0.10127771 -0.25505906 0.626236 0.32369682 -0.39262524 -0.052243274 -0.28235945 -0.22149014 -0.10253955 -0.35799137 0.3211735 -0.042962655 0.26346025 0.41764346 0.14677091 -0.2606681 -0.32944664 -0.13127948 0.33022082 -0.20977476 0.0562762 -0.44205973 0.10976431 -0.051505215 -0.5390484 -0.42278913 0.11631427 -0.3730239 0.0018935807 -0.36550668 -0.010488297 0.32196566 0.06652967 -0.009514522 0.09104588
78 0.52320135 -0.0051804925 -0.12059266 -0.13720271 -0.2601855 -0.23255993 -0.2542066 0.2731615 -0.08480486 0.3871219 0.12471889 -0.0960969 0.23098554 -0.18268532 0.54873246 -0.042208277 0.13156044 -0.42834914 -0.15090072 -0.11269791 -0.25281912 -0.11697079 0.35138196 0.20156789 0.2540805 -0.03001955 -0.442435 -0.18860604 -0.058227982 0.11648866 0.29874304 0.50870246 -0.2873543 0.1620314 0.120852016 0.018825661 0.030085763 0.1611202 -0.14201027 -0.011469093 -0.4422353 0.4420323 0.19393998 0.09575727 -0.10037066 0.2597942 0.4650162 -0.059396848 0.54488546 -0.09204268 0.1656236 0.47917184 -0.51250386 0.17665005 0.0196643 0.054747794 0.18547484 -0.09333066 -0.3684482 0.25080892 0.0029917918 -0.41090998 0.5230496 0.19570811 0.36179593 -0.11813509 -0.27876705 0.16148025 -0.1377187 -0.35007542 -0.26916724 0.31610185 0.110023886 0.22321479 0.45173767 0.11342469 -0.64914495 -0.5914982 -0.043775164 0.2856573 0.31996453 -0.05006462 0.03691349 0.19705702 -0.10653418 -0.34800947 -0.5310651 0.4302804 -0.13303682 -0.014076277 -0.09959823 -0.4085421 0.16740426 -0.12745266 -0.29829234 0.64117074 0.2817226 -0.37697813 0.038926113 -0.301035 -0.2403297 -0.06934084 -0.44846576 0.35500062 -0.11110788 0.31850612 0.38260943 0.14489496 -0.18822488 -0.29224744 -0.11904094 0.34915107 -0.26282167 0.065972626 -0.431771 0.11066678 0.05883813 -0.5549489 -0.3262424 0.10614499 -0.36664408 -0.038613092 -0.28423628 -0.018690886 0.34083727 0.14845675 -0.011970244 0.07263705
216 -0.3500685 0.1524485 -0.49087995 -0.12667198 0.0485169 -0.108386755 -0.030020848 -0.3143158 -0.4483455 0.5801758 0.24360725 -0.07793357 0.009161772 -0.06623993 0.02714528 0.04539187 -0.035964675 -0.034522895 0.0020885388 0.41396606 -0.09943116 0.06992727 0.6348807 0.09202899 0.18173036 0.09948785 -0.189797 -0.5273322 -0.08944092 -0.40737385 0.21036364 0.5596201 -0.21084684 -0.34926847 0.08142948 -0.09940363 0.407764 0.06142994 -0.12973271 -0.21179882 0.09316004 -0.059831474 -0.45300907 -0.13490376 0.27405357 -0.17818528 -0.027394643 0.38933268 0.11439245 -0.07868238 -0.18278676 0.10900435 -0.22858116 0.05069582 0.20996787 -0.06178435 0.16717182 -0.26270816 0.20486762 -0.048817806 0.3462622 -0.3653158 0.029905315 0.34482563 0.0041267225 -0.56568724 0.07350524 -0.33318207 -0.22151923 -0.407318 -0.22922784 0.11985746 -0.37121758 0.024762075 -0.29689163 0.0012802059 -0.23060971 0.06304349 0.1696774 -0.1541114 0.09294905 -0.55649376 0.30219796 0.059230257 0.27916756 -0.14812052 -0.55400217 -0.04462545 -0.0915086 -0.19724728 0.22670884 0.2843043 0.074638024 -0.04474926 -0.06471634 0.24741279 -0.15705703 -0.18741737 -0.25829893 -0.2090277 0.2278962 0.05466358 0.33389047 -0.08019969 -0.6706702 0.31484702 0.27180803 0.5478978 -0.22480112 -0.077259615 -0.5258825 0.1769552 0.058140233 -0.21621823 0.035780855 0.50347346 -0.1975366 -0.17208275 -7.213716e-05 -0.16408327 -0.41262662 0.19524622 -0.17410134 0.11014028 0.041384082 0.5190131 0.0941404 0.0862563
217 -0.23462065 0.033818662 -0.47444215 -0.15754706 0.093964145 -0.08152173 0.003664491 -0.16636 -0.42114493 0.5477709 0.30782154 -0.16766153 -0.04354299 -0.0048255273 0.031666584 0.09123437 0.07411437 -0.0916919 -0.10576398 0.5170086 -0.08194583 0.022045566 0.60782415 0.0062979674 0.22288364 0.088660926 -0.2851177 -0.44190443 -0.044085685 -0.43982616 0.19324309 0.49454874 -0.27798304 -0.34379777 0.17474595 -0.12564868 0.4358206 0.065147825 -0.15853135 -0.122126766 0.11346713 -0.071442306 -0.38604358 -0.0944626 0.32134643 -0.10813045 -0.12657829 0.37773085 0.10830332 -0.04871364 -0.19053264 0.15167342 -0.18012723 0.17223984 0.19858871 -0.037494455 0.12586907 -0.22385725 0.117234245 -0.12560771 0.17154652 -0.28807625 0.008029991 0.28067142 0.031911865 -0.5714397 0.0927192 -0.40459952 -0.3004996 -0.5390005 -0.2582763 0.13901055 -0.28254268 -0.050454807 -0.46299028 -0.043456152 -0.3422223 0.016102776 0.18716624 -0.1643321 0.081181616 -0.581459 0.2603577 -0.03792568 0.21067813 -0.19366716 -0.5729652 -0.08239997 -0.09788743 -0.1661938 0.24557264 0.36477992 0.17674889 0.030289855 -0.03572265 0.436022 -0.0903944 -0.06629058 -0.18513031 -0.2933419 0.3186756 0.114993386 0.30462852 -0.11256877 -0.6472632 0.30764416 0.28254414 0.54678667 -0.29073223 -0.1353472 -0.35056734 0.22676513 -0.036082562 -0.19385989 0.035555787 0.5089616 -0.29949918 -0.1193097 0.056734353 -0.06920238 -0.31217787 0.04883206 -0.12376109 0.08353573 0.058547404 0.46953472 0.17249477 0.13733798
40 0.31681645 -0.28772208 0.0017021826 -0.22724256 0.04954578 0.2851973 -0.011120697 0.089110374 -0.19680822 0.08409245 -0.14188169 0.08948377 0.16644315 -0.16248909 0.2238182 -0.47657025 0.1876687 -0.2921668 0.070226006 0.14557315 -0.24524707 -0.12504868 0.092522286 0.3823701 0.1734839 -0.05858213 -0.27537134 -0.115541056 -0.2976182 -0.03491196 0.5266408 0.21058172 -0.4897802 0.13668062 -0.13698322 -0.30330282 0.07186792 0.15536256 0.1874291 -0.37995714 -1.1053826 0.74389523 -0.03797941 -0.1018276 -0.29216906 0.046261586 -0.19813421 -0.20655176 0.5849864 0.11071725 -0.28356227 0.3747637 0.1417153 -0.14257391 -0.123264536 -0.20749038 0.2502481 -0.29067087 -0.28271353 0.23720013 -0.06867648 -0.6811622 -0.09131927 0.08586045 0.079966605 -0.25956202 -0.053941205 0.20840104 -0.43504122 0.07629802 -0.24105966 0.22173546 0.015726633 0.048225746 0.35731602 0.14161262 -0.50004995 -0.3068016 0.010643226 0.30512038 0.31448177 -0.06281231 -0.09647635 0.7819042 0.1102968 0.12281373 -0.22987041 0.45415884 -0.13059323 0.013566169 -0.4780762 -0.40069863 -0.1941272 -0.33432376 -0.22849394 0.48234972 0.15503106 -0.7059559 -0.002457334 -0.41954994 -0.20319448 0.062287256 -0.46184486 0.30339757 0.2503737 0.33177012 0.82228243 0.2653264 0.0140194995 -0.1637342 0.27221823 0.093034565 -0.5655132 -0.1578484 -0.7177555 -0.3406672 0.18742855 -0.29636046 -0.3009742 0.15412101 -0.12039469 0.10025881 -0.26498294 -0.003514169 0.06089989 0.13611133 -0.2691636 -0.008001224
146 -0.31421205 -0.41666484 -0.38670048 0.20686196 0.17862602 0.35956585 -0.047731295 0.27959457 0.4429408 -0.03773865 -0.11481466 0.15159902 0.19749302 0.45603508 -0.1643464 0.16773622 0.5451159 0.037651975 0.27176532 -0.10592177 -0.20331663 -0.10864029 0.55111426 0.32447144 0.3078894 0.6703196 0.5861402 -0.15888204 -0.39312997 0.20127198 0.2102364 -0.20208845 0.13949913 -0.34829605 -0.5723777 -0.7106391 0.016207598 0.13087408 0.047484502 -0.24821946 -0.12995204 0.23669347 0.11889203 0.005457929 -0.3858834 -0.88946515 -0.6798483 0.09653012 0.15771313 0.271215 -0.13777962 0.16697207 -0.10345053 0.34123427 -0.09006452 -0.2636756 -0.50472635 -0.55536187 0.24010122 0.02770963 0.3167002 -0.106568 -0.03742617 0.2926712 0.3622637 0.36300692 -0.44729966 -0.043116823 -0.4700049 0.08473479 -0.10684661 -0.013438023 0.12909402 0.24495208 -0.86773705 0.01606403 -0.32715043 -0.43061078 0.130965 -0.61258966 0.1776649 -0.017122615 -0.277078 0.14040597 0.61837316 -0.16251995 -0.49624485 0.16576615 0.38860375 -0.46324545 0.40170342 -0.034203395 -0.4314171 0.7999817 0.6654998 -0.3131809 0.3722637 -0.20100343 0.43815088 -0.42201012 -0.32885316 -0.24953826 -0.08352745 0.13418476 0.09498603 0.23167162 0.2554129 0.33239934 -0.17171033 -0.36261395 -0.0351618 0.5426355 -0.20145945 -0.36101276 -0.029510431 -0.002991593 0.5829842 0.5921328 0.0924729 0.2735091 0.42775846 0.11632107 0.582793 -0.5059357 -0.12634614 0.46173126 -0.16043556 0.05692044
145 -0.34152308 -0.4466162 -0.37559602 0.17264096 0.1977669 0.27870753 -0.058368195 0.3440982 0.5150634 -0.067919254 -0.09218887 0.04468301 0.2181199 0.5322945 -0.1246501 0.12066712 0.5756173 0.003625243 0.25321478 -0.13413654 -0.29405746 -0.10333215 0.6002134 0.34381214 0.29152223 0.5231895 0.42181942 -0.25588077 -0.36789638 0.04643199 0.33628845 -0.036498424 0.056073286 -0.31829184 -0.63309026 -0.5594137 0.013112863 0.1489587 0.026023088 -0.24091661 -0.2606967 0.3437221 0.14914367 0.026541697 -0.3248293 -0.87279403 -0.7661504 0.037484962 0.27614123 0.24941859 -0.27078715 0.2191347 -0.043789543 0.32406026 -0.2529164 -0.31053326 -0.4159354 -0.55591637 0.2515636 0.10849609 0.42931402 -0.16460371 0.020887125 0.30416197 0.30410093 0.40776742 -0.48814487 -0.13081488 -0.34825504 0.037569877 -0.13465352 0.033934698 0.21603933 0.3244341 -0.798015 0.016988143 -0.27463338 -0.483135 0.12260551 -0.44476855 0.22599488 0.039119974 -0.19626965 0.07253648 0.62357515 -0.24441902 -0.36067328 0.20823872 0.38206258 -0.35505423 0.43159893 -0.0574566 -0.329526 0.7794326 0.69070244 -0.16330278 0.32665116 -0.17043713 0.3302074 -0.31993297 -0.4598622 -0.22055258 -0.030179458 0.049685482 0.05315875 0.073463134 0.16856651 0.29054716 -0.24692471 -0.1884522 0.026833264 0.5179087 -0.24018227 -0.3254819 0.010745915 -0.03499038 0.6476176 0.5642087 0.2232423 0.2476647 0.4714415 0.042113386 0.6102008 -0.58027524 -0.1797785 0.59212804 -0.1527177 -0.011555722
147 -0.2992913 -0.28229958 -0.19491217 0.2634643 0.09254102 0.26519343 -0.0065134712 0.3162178 0.37347057 -0.06443409 -0.18526298 0.116091505 0.19904421 0.30391178 -0.10249986 0.09849845 0.4669098 -0.047171723 0.33000085 -0.03804218 -0.24002372 -0.1202434 0.6941386 0.30768344 0.31474122 0.6726084 0.49377647 -0.24807407 -0.46510282 0.15432428 0.25046417 -0.031539198 0.17432405 -0.205826 -0.57869786 -0.6189463 -0.044159487 0.26179826 0.060208112 -0.30736953 -0.32485554 0.20407096 0.19574755 0.21396478 -0.438536 -0.95286566 -0.61816716 0.23808508 0.17417403 0.29918683 -0.12749104 0.15390217 -0.22953059 0.30623662 -0.056627963 -0.28823563 -0.27949497 -0.5004388 0.2618541 0.042240098 0.27628705 0.08269416 -0.115659356 0.32771426 0.3967822 0.31024444 -0.388432 -0.092601866 -0.4778445 -0.0029185186 -0.040508028 0.15842257 0.16586034 0.23424588 -0.8808743 -0.034076374 -0.27044898 -0.44961256 0.02991863 -0.62249815 0.15192463 -0.124104425 -0.1089305 0.14348103 0.6652378 -0.20893557 -0.5831867 0.05403703 0.36252725 -0.43576226 0.42301595 -0.10492436 -0.2834286 0.8060874 0.6635271 -0.3688668 0.32077533 -0.15074567 0.44854248 -0.40934366 -0.2895832 -0.22539414 -0.12718488 0.2080347 0.02136809 0.38411552 0.2720615 0.49175763 -0.08446383 -0.35323837 -0.04610148 0.59347343 -0.079022884 -0.26801196 0.06371756 -0.04424274 0.51399225 0.6250557 0.16933152 0.29799742 0.46943563 0.058410034 0.58540416 -0.64376056 -0.23488878 0.46517482 -0.15117687 0.11207098
144 -0.2334324 -0.4260305 -0.30098802 0.25272366 0.14310038 0.29678622 -0.060112014 0.31917703 0.42753246 -0.04334572 -0.14417477 0.21274307 0.28175148 0.42537895 -0.035432156 0.12446281 0.555906 -0.07689189 0.20795204 -0.24693096 -0.1758723 -0.1706993 0.73748237 0.28841373 0.26908848 0.61175853 0.40913978 -0.1518347 -0.3848404 0.22971559 0.22272228 -0.1523473 0.13481684 -0.3916881 -0.59682685 -0.7806572 0.0358659 0.112558946 0.040818334 -0.36114946 -0.33845964 0.1994951 0.075697646 0.020475172 -0.36273414 -1.0186523 -0.6789059 0.20327199 0.2967658 0.2806007 -0.1744481 0.19376722 -0.13159388 0.37197864 -0.10603538 -0.2549742 -0.44030088 -0.5730002 0.3020771 0.09392499 0.39775357 -0.090066776 -0.07650816 0.28853515 0.4387442 0.37530234 -0.4918685 -0.14985809 -0.5269596 0.015769463 -0.06695741 0.1623846 0.19717509 0.28858346 -0.8275805 -0.0046815383 -0.29238692 -0.34258676 0.14011383 -0.52846193 0.19490533 -0.090266675 -0.099997565 0.0014412451 0.6588385 -0.21072389 -0.38599208 0.10039474 0.36817124 -0.34556556 0.39236954 -0.022355549 -0.2958035 0.93652534 0.6314175 -0.33905238 0.31223732 -0.17700815 0.46332353 -0.4498024 -0.39719436 -0.33764124 -0.048189234 0.1460693 0.1544972 0.27873826 0.1844959 0.45873553 -0.15163934 -0.35238546 -0.11738722 0.5079962 -0.020203108 -0.35909858 -0.036135692 -0.036848463 0.49044207 0.57836586 0.1782924 0.2799061 0.4866269 0.009739179 0.59316677 -0.51605374 -0.22287177 0.5080831 -0.06313045 0.023521435
130 0.2517823 0.34612823 0.18217026 -0.66026103 -0.61017734 -0.47194982 0.020740053 0.4604742 0.49030414 0.64460593 0.3123045 0.40901503 0.013060195 -0.0753064 0.41934162 -0.21766815 -0.20924094 -0.2318194 -0.028483279 0.2387322 -0.37011093 -0.004090695 0.29188558 -0.044935804 0.38717538 0.5279204 -0.15919241 -0.008745042 0.056481585 0.21227078 -0.1504554 -0.20096569 -0.031524923 -0.28824905 -0.12103269 -0.51042014 0.092938624 -0.105756074 -0.35126066 0.21881148 -0.18717502 -0.006459133 0.21562037 -0.1653787 -0.5230734 0.0029398312 -0.50961167 -0.101595774 0.11158708 -0.11443216 0.088224895 0.047127783 0.342785 0.037193086 0.075327136 -0.035535093 -0.10016903 -0.072146595 0.050296176 0.10587998 0.039157014 -0.09296144 0.2625726 -0.035209656 -0.1525261 -0.04636972 0.27347696 0.7312848 -0.24511658 0.012024633 0.19569379 -0.25833604 -0.03892467 -0.19591655 0.049606856 -0.13209707 0.074641496 -0.30804378 0.06459823 -0.097833544 0.35423008 0.21334997 0.1079934 0.13503745 -0.36930642 -0.0950424 -0.40763074 0.18330535 -0.45525762 -0.19931713 -0.07084708 -0.15908778 0.020287 0.3496158 0.053615507 -0.085661516 0.30435228 -0.113571495 -0.21276215 -0.034888405 -0.004528823 0.023501923 -0.34540305 -0.06488651 -0.17760432 -0.06880837 0.06814421 0.26698136 -0.4422798 -0.16709766 0.17147473 0.20637639 -0.5224492 -0.07763821 -0.27522102 0.14543974 0.1738651 0.09151197 -0.21085043 -0.07887014 -0.1376982 0.07540468 0.24082859 -0.21676005 0.35564062 0.090449005 -0.053072464 -0.03719497
63 0.09399698 0.32856315 -0.27571228 -0.34814307 0.10423796 0.37222385 0.03804291 0.11303068 -0.2898492 0.12506762 -0.025510775 -0.23270617 0.12853856 -0.030869266 0.05143435 0.33113664 -0.11388141 0.21271475 -9.443378e-05 0.41270897 -0.144131 0.18742606 0.23187768 0.47256368 0.15700942 0.38958526 -0.08168961 -0.66761595 -0.54111636 -0.34666076 0.14688116 0.54369426 -0.4387311 -0.71019614 -0.010796224 -0.46491066 0.35502717 0.24436578 -0.027410917 0.001958165 0.16831893 0.040786985 -0.3613159 -0.37408015 -0.38794598 -0.04215407 -0.36347762 0.14234084 -0.05166105 0.14971475 0.13504855 0.24512273 0.096453205 0.3099159 -0.22837386 -0.21127623 -0.27002016 -0.7250428 0.06485863 -0.018940577 -0.031210946 -0.732046 -0.1476081 0.2893645 -0.20405778 0.23562205 0.110537566 -0.3478714 -0.32569328 -0.1440429 -0.3742111 0.44127417 -0.049290705 -0.24156323 -0.33604163 0.010990604 0.21448089 0.017367376 -0.11042418 -0.18581904 0.21846282 -0.3259303 0.24786277 0.069091454 0.05600333 0.044132277 -0.37061018 -0.30231714 0.28950393 -0.07500579 0.3575921 0.27041653 0.06907447 0.21354477 -0.07333695 -0.00050342735 0.24991174 -0.22123073 -0.23159003 -0.33101395 -0.08454394 0.34038404 0.16711348 0.29445007 -0.36475217 0.49690226 -0.13808753 0.092283435 0.25534946 -0.2768704 -0.29558164 0.5107871 0.11481145 -0.28944835 -0.0320559 -0.07262053 -0.19412832 0.31343743 0.2845929 0.0887307 0.00898619 0.106202915 -0.04773621 0.2524495 0.2363472 0.42055824 0.029886091 0.07309914
62 0.033278387 0.3583628 -0.41460115 -0.32186672 0.15134668 0.37519267 -0.010799266 0.13343509 -0.31707066 0.044320524 0.02175927 -0.2954393 0.035130203 -0.03302512 -0.05891212 0.56746393 -0.14134283 0.34209764 0.03877661 0.40272164 -0.3187663 0.19503026 -0.011482735 0.47208464 0.39191574 0.36958867 0.0033795433 -0.67341727 -0.5524346 -0.4715302 0.16766307 0.47168618 -0.38961762 -0.69571215 -0.02020412 -0.5178909 0.2359292 0.15680084 -0.090986006 0.055562314 0.1383355 -0.058792178 -0.3301211 -0.34293985 -0.38493073 -0.002706054 -0.38822538 0.28662258 -0.10367182 0.19134375 0.32586893 0.158971 0.04514525 0.45632863 -0.20698307 -0.20415191 -0.44892544 -0.511526 0.10213617 -0.043983664 0.032492474 -0.64822114 -0.15072942 0.28137866 -0.37388113 0.22395195 0.044705983 -0.32220224 -0.26101583 -0.121171996 -0.31769145 0.37087098 -0.00669819 -0.22995286 -0.3876197 0.16099262 0.23444204 -0.029043198 0.046503462 -0.14372787 0.1962157 -0.26434696 0.037046913 -0.0074072867 -0.005193687 -0.014701667 -0.15794611 -0.08104001 0.42887992 -0.10346583 0.39054525 0.13734618 -0.045841116 0.45011103 0.029312173 0.105343305 0.25681657 -0.2595581 -0.2341202 -0.38235083 -0.16722898 0.246121 0.21069339 0.19543864 -0.26573384 0.49254817 -0.11021905 0.054084398 0.17363244 -0.28912926 -0.2957103 0.3139561 0.06630486 -0.41153213 -0.09175957 -0.17971972 -0.2646518 0.24116245 0.22020975 0.07335429 0.07718964 0.035617653 -0.1373408 0.14822073 0.279413 0.2433229 -0.021216156 0.08287084
129 0.28824475 0.34144142 0.06722936 -0.6906859 -0.7367077 -0.5533209 0.052690744 0.5119149 0.5072819 0.5789699 0.32719746 0.3070762 -0.11183924 -0.14606783 0.3972337 -0.23766771 -0.26785073 -0.26642767 -0.064667 0.2883143 -0.34488603 -0.04134049 0.20277813 -0.06949507 0.27019998 0.42893645 -0.074035875 0.008970571 0.09202172 0.28923556 -0.20461684 -0.16996661 -0.07639245 -0.26105803 -0.050236084 -0.44717306 0.08058083 -0.1606209 -0.37698832 0.22743908 -0.11428665 0.09844686 0.22326294 -0.15655588 -0.43812314 0.07919619 -0.47235832 -0.1462444 0.20349982 -0.057457816 0.048504185 0.02643191 0.34017655 0.017436255 0.081396304 0.015272395 -0.09649227 -0.09629622 0.02167518 0.13597877 0.13584639 -0.21032366 0.2526294 -0.112464644 -0.15607654 0.047081877 0.27051604 0.6251436 -0.2725665 0.0027773299 0.121044084 -0.23747276 0.0036091236 -0.11434518 -0.01904256 -0.13958961 0.05800836 -0.29984108 0.13104555 -0.16103199 0.2739409 0.22672074 0.07681055 0.12533906 -0.30912772 0.014838001 -0.39454615 0.24862581 -0.4530262 -0.13055763 -0.1329091 -0.09499265 0.02093292 0.33654168 0.07556843 -0.047648825 0.312383 -0.0551202 -0.18548454 -0.012220492 0.040117417 -0.041397035 -0.26685712 -0.06318473 -0.13101585 -0.021616396 0.07007347 0.21924558 -0.48721084 -0.13970886 0.27383128 0.2568672 -0.5988742 -0.09682495 -0.1928523 0.119812995 0.15605366 0.04436111 -0.21732748 -0.042365763 -0.09793523 0.057651896 0.24590194 -0.24833214 0.40684023 0.089702435 -0.10121913 0.047135632
61 -0.019083459 0.29002613 -0.5342149 -0.24442752 0.1440996 0.23988427 0.13558264 0.20250788 -0.25147468 0.069641836 0.015555192 -0.25381073 0.037090477 -0.04253577 -0.07578314 0.3918951 -0.17397016 0.38453248 0.05139618 0.40103176 -0.21852206 0.28662476 -0.007865826 0.35123697 0.21535541 0.26798332 -0.06200657 -0.65389293 -0.48066974 -0.4610207 0.22593601 0.44100398 -0.4181969 -0.7959496 -0.013773279 -0.49321744 0.36071151 0.14291832 -0.052761223 0.07260718 0.21575885 -0.11642677 -0.26337302 -0.39645764 -0.263699 -0.15788136 -0.37182224 0.09403306 -0.046161897 0.1335125 0.23404033 0.18486361 0.14812095 0.40528956 -0.12903406 -0.1766072 -0.42858356 -0.6024071 0.046232384 -0.09049996 0.020064073 -0.7873289 -0.112951584 0.39028278 -0.27462453 0.094781846 0.09014196 -0.26203623 -0.2557513 -0.10102626 -0.40389144 0.47919002 -0.02672632 -0.28970537 -0.33512056 0.08527642 0.19924599 -0.047237474 -0.05313003 -0.12487633 0.24332434 -0.30948433 0.03943819 0.03262251 0.020124149 0.045067962 -0.24610014 -0.13228843 0.31244555 -0.10974673 0.39100733 0.28531468 0.06911798 0.3221075 -0.05706848 0.08044738 0.20615661 -0.16622588 -0.26687014 -0.30377066 -0.2392408 0.27890643 0.209511 0.24146721 -0.34252837 0.40681392 -0.20717588 0.07901886 0.09624464 -0.3064587 -0.19254291 0.40613368 -0.008800097 -0.34998676 -0.16049105 -0.15098388 -0.26363692 0.34827736 0.15769437 0.15091358 0.056171067 0.13486767 -0.12025131 0.120703 0.10356448 0.39924136 0.000776041 0.23964104
64 0.03268351 0.23247345 -0.34850907 -0.31962356 0.20774312 0.2698347 0.0123791685 0.28064275 -0.3180315 0.08673743 0.08430145 -0.12832595 0.019954665 -0.02857414 -0.027228057 0.39741346 -0.091222174 0.2831464 0.15128632 0.39789346 -0.11494835 0.25736168 0.1755361 0.32926834 0.18178132 0.27586928 -0.005495882 -0.59767187 -0.44622734 -0.28920865 0.09008096 0.39338785 -0.4454019 -0.7949081 -0.011925305 -0.60373425 0.25659472 0.19030002 -0.020168487 0.008688012 0.13397373 0.040801454 -0.33988893 -0.4363741 -0.41874042 -0.08313725 -0.3745136 0.21834168 -0.0656131 0.27997914 0.22173673 0.22680701 0.10001908 0.27813727 -0.12211459 -0.22522631 -0.43345693 -0.5500898 0.12378414 -0.024904488 -0.010324108 -0.72102696 -0.15968972 0.25093752 -0.2586901 0.0440616 0.11468915 -0.2786275 -0.30961126 -0.14039828 -0.35961452 0.48473945 -0.07062525 -0.31366476 -0.34594637 0.065033324 0.30517358 0.09427494 0.057249084 -0.10291407 0.23587707 -0.24929063 0.13573664 0.020120379 -0.080489814 0.046036907 -0.25767037 -0.23933017 0.39875737 -0.10311824 0.2599949 0.20943739 -0.06336021 0.47407508 -0.0398027 -0.0266135 0.2458659 -0.23906429 -0.35761172 -0.33938828 -0.14300394 0.28944248 0.19340947 0.18827781 -0.29767916 0.48311773 -0.04873239 0.21043445 0.14704083 -0.32469067 -0.25585106 0.30430973 0.017372847 -0.4690543 -0.132818 -0.098309875 -0.28150442 0.36340404 0.26622093 0.030045021 -0.05725442 0.12650551 -0.103508174 0.23414804 0.25901374 0.40453696 0.03251039 0.14432985
173 -0.2554833 0.095101155 -0.39182872 -0.10734866 -0.03790191 -0.26260656 -0.13281113 -0.2506542 -0.35030326 0.47324884 0.26999977 -0.041556243 -0.059261117 -0.06348321 0.16638447 0.023128485 0.00550588 -0.08714317 0.030373592 0.49376363 -0.11127149 0.120554395 0.5281886 0.07838062 0.17850581 0.029401084 -0.24377374 -0.45873672 -0.031736422 -0.37998426 0.17376453 0.6309699 -0.43048367 -0.42144284 0.22545531 -0.11724487 0.44678944 0.06118373 -0.10950369 -0.19995257 -0.014083424 -0.17745627 -0.43976048 -0.09775193 0.18134421 -0.14146104 -0.06861147 0.42943326 0.041901328 -0.029761072 -0.18376103 0.14266704 -0.15666164 0.10097143 0.17548823 -0.18577217 0.13487253 -0.27938834 0.2046914 -0.07227641 0.40659413 -0.3164481 -0.006896286 0.23809412 0.07026008 -0.563147 0.029977387 -0.48988867 -0.18984096 -0.55233735 -0.15393205 0.20637368 -0.23487566 -0.056892436 -0.30559212 -0.04505929 -0.16113083 -0.002080359 0.12609686 -0.09853617 0.009649316 -0.5321769 0.32213965 0.04988713 0.17264229 -0.13025716 -0.51113147 -0.19351518 -0.07656777 -0.18262917 0.23944643 0.2624849 0.17644258 0.042356785 -0.0686807 0.314818 -0.19787401 -0.093145564 -0.22146003 -0.2888966 0.24226573 0.10446887 0.2384877 -0.10132871 -0.57761425 0.31645125 0.27634692 0.61945903 -0.15815505 -0.08238432 -0.39054742 0.24091257 0.007425932 -0.11881752 -0.023388585 0.4945164 -0.25389817 -0.15409881 0.13509807 -0.11381862 -0.3756478 0.0870211 -0.11353747 0.16250412 -0.0024419902 0.42795753 0.23112474 0.15033355
172 -0.23500088 0.06229631 -0.45763335 -0.13704139 0.028437873 -0.26679125 -0.050202258 -0.24752346 -0.41267312 0.5154137 0.1667301 0.067834444 0.02751172 -0.104250066 0.11568155 0.06739594 0.073874585 0.05592981 -0.032618545 0.5545468 -0.0029138604 0.028622193 0.4264839 -0.035344966 0.23822169 -0.012090285 -0.18234453 -0.54710263 0.0365967 -0.51231796 0.2559382 0.6702166 -0.35134208 -0.47201595 0.1880635 -0.16338828 0.5184957 0.15329632 -0.18577154 -0.15739177 -0.008106904 -0.056769565 -0.4036277 -0.05636555 0.22712196 -0.21328561 -0.15771881 0.36257988 0.12827697 -0.021105742 -0.18396112 0.15441348 -0.1328416 0.123273015 0.24790074 -0.092686296 0.077861615 -0.23503746 0.13916579 0.032737985 0.27835295 -0.26659408 0.07868369 0.33663005 -0.010571897 -0.6179643 0.075279735 -0.46255037 -0.15797228 -0.5204211 -0.07200688 0.1611593 -0.32952628 -0.046127714 -0.43475085 -0.12665139 -0.1903614 0.040261656 0.16511251 -0.21515402 0.11267559 -0.55457836 0.2719043 -0.05264244 0.22320952 -0.1836506 -0.49542916 -0.12438138 -0.15037958 -0.20922813 0.16981114 0.3141872 0.14706615 -0.06091664 -0.06121057 0.19922847 -0.13813442 -0.04708726 -0.20943752 -0.2895483 0.2279908 0.14732878 0.3265424 -0.065779135 -0.60079813 0.34049106 0.230525 0.46493647 -0.20882878 -0.08356664 -0.43599468 0.23718417 -0.06939184 -0.23365387 -0.08619959 0.48339596 -0.31196532 -0.09806159 0.08303633 -0.16970932 -0.35042253 0.057263173 -0.18564117 0.083614185 0.029254891 0.46802574 0.19824234 0.12958238
44 0.47495946 -0.0091009615 -0.2387398 -0.12959433 -0.20004986 -0.20541483 -0.15430471 0.27247208 -0.07248325 0.55075604 0.21303535 -0.101150796 0.13290401 -0.10844555 0.4334785 -0.03976287 0.16257034 -0.3395206 -0.18393023 -0.09826278 -0.09084588 -0.12611616 0.3803598 0.20507143 0.13393553 -0.13547094 -0.42718318 -0.21106197 -0.16059436 0.10211433 0.23340356 0.47644645 -0.24851981 0.13194722 0.07171683 -0.017308177 -0.026451623 0.18446566 -0.046831094 -0.1685439 -0.50037426 0.5264676 0.16936105 0.070601314 -0.096676886 0.1835681 0.51626253 -0.056855362 0.47578707 -0.1921435 0.1722949 0.4004826 -0.54428136 0.0927146 -0.047220595 -0.045535963 0.21006612 -0.08874849 -0.38017198 0.17308848 -0.061477847 -0.49473497 0.51808393 0.18391591 0.35135952 -0.07887221 -0.25387532 0.14953476 -0.29298759 -0.21932288 -0.3090761 0.40621442 0.18123801 0.22787245 0.42396918 0.16260384 -0.6738069 -0.5428241 -0.06609813 0.38157254 0.3269314 -0.10641377 0.016211146 0.16208903 -0.18027155 -0.3597017 -0.47422278 0.49141493 -0.014833759 0.027630353 -0.12508564 -0.25829822 0.059153363 -0.11601749 -0.26388872 0.64111054 0.3052543 -0.42799857 0.06880576 -0.32751396 -0.24018915 -0.026147664 -0.3672359 0.411878 -0.026521595 0.25065318 0.44215655 0.14133228 -0.15388481 -0.33871806 -0.036269143 0.3182162 -0.23635644 -0.0081807915 -0.4664263 0.013622109 0.025059033 -0.54095346 -0.3549706 0.16475159 -0.35061237 -0.03200332 -0.3571028 0.0349139 0.3015209 0.092080526 -0.07439298 0.14543988
167 0.2742344 -0.0358317 0.4677077 -0.18950161 -0.08923538 -0.21749671 -0.021642728 0.24220307 0.07003976 -0.4089731 0.41516745 0.08253109 0.0081433775 0.21975614 -0.025958147 0.05006648 -0.109697826 -0.019415999 0.23063555 0.03630904 -0.40688106 0.24202639 -0.51512593 -0.07982998 -0.33523285 0.13799064 0.103923865 -0.52611077 -0.19379999 -0.5416202 0.092074335 -0.0693318 0.18583706 0.053504333 0.31363544 -0.11970183 0.24885406 -0.21718338 0.1469667 0.30183962 -0.0803451 -0.36710787 -0.39189485 -0.4604447 0.24020657 -0.3966778 0.15483841 0.11140395 -0.04542273 0.015386689 0.30903813 0.6094529 0.11418069 0.084632285 0.408473 -0.34626466 -0.5718199 -0.0742758 0.009872562 0.34235615 -0.042267174 -0.36420995 -0.066361986 0.2267171 0.511675 -0.22560869 0.274953 -0.5043821 -0.26089665 0.061390556 0.13199523 -0.059627153 -0.21275696 0.19051975 0.027739672 0.00039794738 0.01580143 -0.15063044 0.3576421 -0.3722433 -0.20685539 -0.37429503 -0.045483302 0.03200801 0.05274107 0.085251644 0.096399166 0.4948255 -0.07079582 0.3827811 0.057173695 0.22778417 -0.2607179 0.40656894 -0.066804364 -0.02652447 -0.15705504 -0.7046345 0.30255184 -0.27156126 0.21782583 -0.19969483 0.12944561 -0.051114183 0.027640305 -0.3674211 0.21846487 -0.031553425 0.30430946 -0.61804634 -0.023789242 0.46804088 -0.1107784 -0.41394874 0.076865844 0.10406789 0.27767143 -0.12787907 -0.38518476 -0.05170009 -0.09826824 -0.09841048 0.06781154 -0.57923603 0.56248397 -0.2825923 0.0009798275 0.13293406
182 0.49755397 -0.036973957 0.1995506 -1.044271 -0.49534547 -0.10158828 0.1902787 0.49199024 0.2029309 0.73157907 0.34157673 0.26679626 0.11311853 0.1300546 0.471823 -0.35146323 -0.18202412 -0.5412029 -0.18092641 0.27102843 -0.3247633 -0.13279444 0.39356306 0.15868211 0.46095258 0.3760397 -0.29985753 -0.1837107 0.18580063 -0.0536487 0.06865339 -0.04638598 0.0026011397 0.002350229 0.16791323 -0.32108292 0.3984129 -0.29441842 -0.38589868 0.31157926 -0.21222526 -0.0769651 -0.18206726 -0.0948704 -0.1770598 0.18867709 -0.22053605 -0.27199125 0.2515287 -0.20302406 -0.08006503 -0.12867801 0.26230633 0.10954634 0.27065244 0.2893362 -0.2431937 -0.072097436 -0.24149291 -0.097297974 0.11701263 0.22784068 0.105890535 -0.15362647 -0.11978752 -0.075714044 0.30253142 0.25243908 -0.30926532 -0.14925234 0.24958642 -0.5391082 -0.07175358 -0.2393056 -0.043433603 -0.14313889 0.05008716 -0.3232822 0.029000336 -0.147722 0.18366912 0.008835538 -0.054716527 0.29382807 -0.1184451 0.14384247 -0.47162396 0.45685464 -0.5618663 -0.18771887 0.05460612 -0.051882435 0.018496433 0.3695079 0.050607175 -0.13594228 0.052502193 -0.05986112 0.13517858 -0.22896084 0.22238833 -0.049382713 -0.4861283 -0.20307675 -0.08583231 -0.14839087 0.122692145 0.032896534 -0.39962527 -0.18835795 0.04966523 0.0803712 -0.27707294 -0.12949765 -0.08427435 -0.10527686 0.47350016 0.2902748 -0.21389116 0.091277905 -0.16850428 0.07757947 0.2720973 -0.4311506 0.16470388 -0.07626531 0.04398183 0.10637726
165 0.25997952 0.02790034 0.5124417 -0.16512065 -0.122731134 -0.23590013 -0.051482305 0.2652952 0.06195636 -0.4818608 0.34402323 -0.023107374 -0.024293121 0.12208048 0.049422003 0.000564147 -0.0198171 -0.10796027 0.21487492 -0.012660026 -0.44482264 0.06979365 -0.3942118 -0.024648072 -0.39390787 0.20544803 0.048875976 -0.49988654 -0.25630254 -0.63075197 0.10596132 0.02035486 0.12724002 0.086639956 0.3230293 -0.118167184 0.17046855 -0.19135311 0.12442443 0.23756096 -0.07572495 -0.27091244 -0.4718025 -0.42888933 0.19708166 -0.3004052 0.089584865 0.20466138 -0.056904357 0.006559063 0.2912474 0.68064946 0.013936997 0.16905132 0.3267268 -0.36952657 -0.4955264 -0.04073191 -0.0526044 0.30856046 -0.058819782 -0.4126402 -0.105690956 0.28485873 0.48676306 -0.18152428 0.39849898 -0.48629168 -0.19755197 -0.0050365627 0.10541815 -0.02095561 -0.2041248 0.29680854 0.015515058 -0.031302877 0.14357081 -0.14885963 0.38456026 -0.42567936 -0.122946195 -0.30403575 -0.0054828287 -0.056366704 0.08501149 -0.005187279 0.04296594 0.39685982 -0.014912981 0.33943388 0.06876682 0.17792717 -0.2957427 0.4011093 -0.020321509 -0.037841253 -0.15210447 -0.6672358 0.33804104 -0.17570746 0.24017993 -0.23820698 0.047162212 -0.08867419 0.08680296 -0.33366123 0.15621118 -0.008127947 0.27239317 -0.6008622 0.03865968 0.35088167 -0.037373483 -0.3853362 0.12240178 0.08316048 0.30284226 -0.10549001 -0.301029 0.008574039 -0.06916042 -0.14799507 0.07532943 -0.49956366 0.57028764 -0.25598264 -0.03306492 0.03925862
169 0.13819036 0.08524128 0.46273184 -0.12074766 -0.034879643 -0.26344642 -0.03898344 0.2148941 0.11409652 -0.39246356 0.38037542 0.10440461 -0.019397572 0.08569566 0.058217764 0.08040893 0.06933572 -0.08647145 0.29301107 -0.055998337 -0.44651276 0.26741606 -0.38274541 -0.03365538 -0.33313254 0.10010583 -0.044783574 -0.48714468 -0.3380552 -0.5851899 0.06449348 0.0066497237 0.14525026 -0.034360375 0.21612525 -0.1359942 0.1265999 -0.2584244 0.08393982 0.29312453 -0.072760455 -0.2313466 -0.38684532 -0.5112577 0.018285364 -0.3247459 0.083770245 0.16338088 -0.08114921 -0.031847868 0.31696483 0.56227124 0.16493955 0.19762541 0.34049574 -0.41973007 -0.46560144 0.038855985 -0.09337578 0.3616058 -0.09274047 -0.3627628 -0.073325284 0.26459372 0.40997773 -0.13204597 0.28516832 -0.38108903 -0.13174644 0.048188657 0.22545311 -0.1272167 -0.17511523 0.29968208 0.0091472315 -0.0064330576 0.14833239 -0.08987121 0.4252866 -0.3463094 -0.15651582 -0.33916527 -0.012184776 0.029638963 0.0826576 0.07909403 0.1560859 0.37993237 0.027930722 0.19077979 -0.034252863 0.10998267 -0.2748999 0.4247678 -0.0024934576 -0.06363837 -0.10973932 -0.6698568 0.2942584 -0.34497085 0.24390209 -0.17526437 0.13514785 -0.02621771 0.06841113 -0.35224417 0.17480032 -0.0074465806 0.2157303 -0.56417155 -0.1160021 0.30183777 -0.089484654 -0.4093037 0.012786526 0.2546541 0.29640865 -0.2438183 -0.34759688 -0.15115255 -0.06210416 -0.089630716 -0.004966491 -0.4482426 0.44585365 -0.33584294 0.06937839 0.029185379
164 0.2791661 0.034991365 0.38490564 -0.21766104 -0.11351505 -0.22460824 -0.04538828 0.25602272 0.067274585 -0.45798486 0.35351875 0.10088145 0.027888566 0.12266388 0.00977831 0.10704858 -0.07693506 -0.029145803 0.17916845 -0.022631472 -0.3907158 0.118247025 -0.48457524 -0.051907226 -0.36687675 0.18420461 0.030373093 -0.54630464 -0.22024138 -0.58722377 0.16944662 -0.039857563 0.12189354 0.0062522376 0.22161742 -0.12393229 0.24676982 -0.2006747 0.1407565 0.23591633 -0.09884041 -0.23797478 -0.41755185 -0.43088746 0.18434095 -0.3889224 0.1385382 0.12141384 -0.045030374 -0.0107779065 0.2301629 0.62489396 0.05463988 0.08832381 0.4500916 -0.3291941 -0.3979353 -0.087825745 -0.011078893 0.30960268 -0.11762785 -0.33948815 -0.06604159 0.21720022 0.51302135 -0.14842656 0.19626695 -0.49625692 -0.20626077 0.015184139 0.14127877 -0.013035612 -0.19192791 0.2525888 0.071627505 -0.012708526 -0.014390974 -0.092104666 0.35221073 -0.25553212 -0.13077675 -0.31974426 0.039485 -0.006377814 0.035896253 0.0076204017 0.14913847 0.46407074 -0.07615225 0.31051084 0.033737183 0.10209956 -0.2537545 0.40324065 -0.16277868 -0.11284819 -0.16840044 -0.6713603 0.38717216 -0.19505519 0.17166527 -0.25767916 0.05719767 -0.009017239 0.08137261 -0.35174474 0.14916511 -0.008559686 0.19769776 -0.5706894 -0.03584039 0.35291997 -0.013519206 -0.39010674 0.1027431 0.15692051 0.15729661 -0.12948394 -0.3314103 -0.0115981195 -0.14371152 -0.063715175 -0.013148505 -0.5660493 0.43543735 -0.2740998 0.09605353 0.046387836
181 0.48320073 0.04987805 0.06460512 -0.98733157 -0.5407149 -0.111138344 0.21515812 0.48678106 0.15944475 0.5581624 0.29921818 0.32775626 0.13809988 -0.020818926 0.5361747 -0.32307848 -0.30794686 -0.4581359 -0.18739913 0.36311674 -0.3859749 -0.13889702 0.4017119 0.17199746 0.36519796 0.38142383 -0.39986715 -0.15959346 0.116293855 -0.1040913 0.018266222 0.042129885 -0.08653485 0.04547617 0.21539798 -0.3154507 0.37014958 -0.19982983 -0.38900653 0.35574752 -0.27732697 -0.07557413 -0.17331909 -0.122053154 -0.20530824 0.19469607 -0.2709064 -0.34209844 0.2286246 -0.28244206 -0.091081895 -0.20542121 0.2413973 0.10359074 0.18142453 0.21320963 -0.15796757 -0.09077232 -0.2612165 -0.12361665 0.06728541 0.20523442 0.20375802 -0.13444489 -0.15062058 0.009492583 0.29210946 0.2373813 -0.35882738 -0.16435619 0.33431253 -0.51371133 -0.045180835 -0.33074626 -0.1801836 -0.1926026 0.09785512 -0.33567593 -0.102645665 -0.177866 0.22166371 0.06739245 0.022359153 0.23189086 -0.105430484 0.1441172 -0.3188736 0.47770163 -0.61392146 -0.30149436 0.028909469 -0.037869662 -0.011504691 0.4100277 0.00584916 -0.08338002 -0.023920799 -0.1579654 0.1492937 -0.14362158 0.32940614 -0.07849364 -0.58451974 -0.27864704 -0.08928706 -0.12836987 0.08455216 0.04930064 -0.47471994 -0.24154261 0.10341509 0.2247107 -0.27584007 -0.10809813 -0.17308716 -0.100649536 0.39981708 0.20030765 -0.18466522 0.07769785 -0.080859266 0.062663406 0.322324 -0.44488624 0.09290091 -0.04711923 0.05641247 0.09967662
168 0.18908554 0.06744524 0.4790229 -0.25890565 -0.13085333 -0.28226826 -0.21015991 0.23056343 0.078795075 -0.4731386 0.36073673 0.094993405 -0.070628814 0.18825588 0.022503681 0.085134596 -0.02581044 -0.11702107 0.24038246 0.01602098 -0.45832595 0.06938108 -0.46083432 -0.021880228 -0.37204236 0.1855838 0.019978091 -0.441184 -0.22277766 -0.61436796 0.13639286 0.049566004 0.040705573 0.05525512 0.25197682 -0.02141087 0.17150459 -0.22796968 0.10196439 0.21810095 -0.088120654 -0.27424306 -0.42997372 -0.43076023 0.093535654 -0.23873797 0.052582037 0.12789416 0.052136894 -0.03619683 0.24999426 0.600795 0.056850124 0.17011882 0.4404769 -0.34098625 -0.5257602 -0.03233109 -0.104541704 0.39359704 -0.069211125 -0.44948366 -0.112860024 0.17219865 0.47626558 -0.18786855 0.3192413 -0.5483911 -0.23101354 0.0086007295 0.23899809 -0.02489298 -0.21674897 0.23136602 -0.07576975 -0.06201791 0.17870322 -0.20565769 0.44511443 -0.32095307 -0.11841173 -0.30816007 0.026976313 0.015222751 0.09461195 0.03926339 0.23615406 0.45210874 -0.03286588 0.28953576 0.07813598 0.15953073 -0.25692862 0.49436536 -0.060409527 -0.085169345 -0.14777674 -0.6272826 0.38972837 -0.20157963 0.3639778 -0.24944007 0.056170125 -0.12357722 0.09094963 -0.29029036 0.107433654 -0.01611772 0.23083545 -0.5629964 0.0019019402 0.35886908 -0.06978914 -0.47281477 0.10740298 0.20145862 0.23991866 -0.17440282 -0.30721816 -0.11525423 -0.18074307 -0.18645146 0.06652456 -0.5339806 0.41961822 -0.3328757 0.046701178 0.06209153
166 0.25480747 0.022436883 0.4802464 -0.2235935 -0.08568125 -0.2408618 0.1164278 0.2516101 0.00585547 -0.4491375 0.36291057 0.079451375 -0.03533575 0.07505793 0.033681378 -0.0012710781 -0.008307784 0.01266311 0.19294703 0.0017274957 -0.56594986 0.14497869 -0.4401842 -0.065168984 -0.35792992 0.10007124 0.016228983 -0.5511025 -0.3722843 -0.64903474 0.086694665 -0.00141876 0.19182628 0.10975517 0.25354075 -0.20595449 0.109006055 -0.19928864 0.120698586 0.22038366 -0.072154015 -0.28939965 -0.5394248 -0.44158933 0.22135572 -0.45792168 0.15797545 0.10663319 -0.16167825 -0.0125235785 0.25823465 0.6924525 0.0684841 0.18314378 0.33174914 -0.379124 -0.3766678 0.0401424 0.04122137 0.28462702 -0.01848681 -0.33160964 -0.11675196 0.17484014 0.42812338 -0.19881698 0.25071326 -0.45370692 -0.28456813 -0.12964684 0.18984686 -0.045485653 -0.21262956 0.25330994 -0.05358809 -0.051135387 0.09896486 -0.11151815 0.4120168 -0.4060537 -0.06764387 -0.26561546 0.082831755 0.044953894 0.077639125 0.07396323 0.11773303 0.44339368 0.00079235766 0.28187886 0.001194607 0.11976016 -0.24096443 0.4220693 0.018242603 -0.0812275 -0.10451834 -0.6524243 0.33970615 -0.27189332 0.25938168 -0.25602555 0.15437195 -0.06320595 0.07650148 -0.39582253 0.056049228 -0.06532944 0.24097326 -0.667916 0.021029705 0.39281034 -0.1629944 -0.410275 0.037709072 0.10032054 0.20830822 -0.194946 -0.3554564 -0.028331012 -0.046377156 -0.060074393 -0.010516664 -0.54385114 0.54138047 -0.28620225 -0.06135045 0.059617616
149 0.33886695 0.23841563 -0.036009803 -0.8989944 -0.5565803 0.11038865 0.11547683 0.19578771 0.42974237 0.88913083 0.5154726 -0.21168087 -0.13127446 -0.38611192 0.6124066 -0.5280812 -0.56532884 -0.3145689 -0.040458016 0.6099881 0.011785255 0.19734873 0.61377925 0.16779973 0.20172888 0.08454944 0.09406491 -0.04787507 -0.048069898 0.1573038 -0.07135356 -0.3329338 0.16331136 -0.1942824 0.25291017 -0.023875508 0.47655317 0.02893602 -0.39927518 0.26251316 -0.33048716 -0.098680705 0.41358736 0.03010561 -0.080152266 0.015311505 -0.27539128 0.10540771 0.4903788 -0.16029033 0.040970806 0.15689597 0.02291663 0.08090514 0.1331849 -0.16655475 -0.32312512 -0.25842357 0.14735669 0.52278006 0.26938835 -0.12889837 0.45675662 0.7169371 0.090340346 0.28638965 -0.22762145 0.16655971 0.14954963 0.08127627 0.030659525 -0.3992847 -0.007854695 -0.15596302 -0.09667932 0.26752058 -0.6032676 0.18838288 0.13763638 -0.11714522 0.06011005 -0.08750665 0.14160098 -0.14585023 -0.23779461 0.07201999 0.36422017 0.28267318 -0.7123164 -0.110738814 -0.34416506 0.09774162 -0.12002331 -0.37160712 0.1232572 0.48891652 0.089232065 -0.33644187 0.09823621 0.043327272 0.17708513 0.07107283 0.058989152 0.09818091 -0.16500853 -0.18257734 0.31106222 -0.021564884 0.13562945 0.28923246 -0.049614236 0.3152794 0.10218767 0.30546874 -0.2921207 0.14242907 0.34169358 -0.26927516 -0.31794652 -0.71276504 -0.28518936 0.21054375 0.22146617 -0.31373295 0.22113913 0.08965322 0.16269499 0.16219603
150 0.3111089 0.33391055 0.028596424 -0.9931485 -0.49761075 0.2260328 0.12756808 0.15431982 0.5890332 0.8754655 0.5139286 -0.25401697 -0.15891573 -0.48669153 0.5489962 -0.5153104 -0.49412677 -0.27370718 -0.085746475 0.52853644 -0.11710349 0.18490522 0.67713034 0.21446465 0.2793085 0.28097382 0.038445164 -0.053291935 -0.026474087 0.1478288 -0.0038898764 -0.28220168 0.09390514 -0.30753294 0.2009491 -0.081076235 0.5398224 0.012121114 -0.41675907 0.18827946 -0.25274307 -0.1015741 0.3841319 0.007107751 -0.13205436 -0.044271193 -0.2791152 0.032115754 0.6058586 -0.19784698 -0.0022307206 0.08826975 0.021104746 0.11888924 0.072545655 -0.09277807 -0.2692079 -0.41059706 0.12000982 0.46169528 0.2569645 -0.03815064 0.4562464 0.7472775 0.15111145 0.31293628 -0.15462236 0.08923486 0.20976582 0.05716013 0.052274425 -0.39900133 -0.034549996 -0.0381607 -0.17764932 0.17464794 -0.6925646 0.17178392 0.07958833 -0.11594509 -0.018111458 -0.10307978 0.1856411 -0.1444552 -0.091659866 0.08022214 0.29458353 0.22778022 -0.76249754 -0.091081105 -0.34113526 0.019585459 -0.12872355 -0.4941418 0.070888765 0.48943907 0.13868934 -0.29751 0.24878302 0.050360866 0.3158815 0.05606285 0.054109544 0.15640211 -0.13542487 -0.17664824 0.36790815 -0.08926584 0.18849519 0.32104668 0.0060396614 0.37801915 0.101747565 0.20620325 -0.20836262 0.15564834 0.3742546 -0.29937923 -0.39788297 -0.7411798 -0.23330806 0.30336335 0.24851866 -0.4124199 0.31531355 0.19965531 0.10649511 0.15636745
7 0.4242651 -0.12057773 -0.19125739 0.020364154 -0.40190107 -0.27710646 -0.13832279 0.24730538 0.048538994 0.32872152 0.067323886 0.061080206 0.14192817 -0.032923926 0.39709666 -0.11250291 0.20053497 -0.19084732 -0.02557606 -0.10673708 -0.014545354 0.037262473 0.19786915 0.17546265 0.35362202 -0.15877506 -0.51996213 -0.2717502 -0.00997499 -0.062268287 0.3240098 0.50003314 -0.14001341 0.047904756 0.021725722 0.062259816 0.07580143 0.08249545 -0.19393721 -0.05054074 -0.5064442 0.43819204 0.27908418 -0.0032997206 -0.1646805 0.13837387 0.4757077 -0.051437683 0.49428287 -0.2301186 -0.052305974 0.35208315 -0.47182408 0.096832365 -0.05102511 0.01902755 0.34429833 -0.07825463 -0.35785574 0.30338076 -0.107871704 -0.3894737 0.53654844 0.4245943 0.29262507 -0.18717292 -0.3244551 0.17243494 -0.24571094 -0.3309486 -0.17214277 0.30877542 0.093009055 0.21135041 0.36423317 0.11276232 -0.63654524 -0.51355726 -0.089029126 0.34292725 0.36687225 -0.15780552 -0.091323294 0.057169933 -0.102990724 -0.3310859 -0.39714298 0.51578945 0.018094117 -0.06762373 -0.061872642 -0.4023548 0.04152566 -0.0821888 -0.30196154 0.50232714 0.24098416 -0.4156032 0.0072317575 -0.25601894 -0.3078316 -0.101811424 -0.28965038 0.35910702 -0.029001452 0.15568295 0.4408727 0.08712094 -0.18430147 -0.25396216 -0.17957139 0.16581264 -0.19923998 -0.19009344 -0.505528 0.05527094 -1.1225427e-05 -0.46511537 -0.3391748 0.07642091 -0.28913775 0.0035198694 -0.29688343 -0.16689247 0.272046 0.09773384 -0.093305826 0.14328745
205 0.3933403 0.15846622 0.020624919 -0.44599164 -0.35158345 -0.48947728 -0.3647376 0.1230978 0.51745 0.8023734 0.40707555 0.06974539 -0.08597098 0.25127387 0.14310527 0.39921078 -0.05082159 -0.121121466 -0.5908437 0.008254707 -0.62194407 -0.14254394 0.61592555 0.031227961 0.01809484 0.1546392 -0.6020275 -0.34412086 -0.53652054 -0.16181701 0.3117809 0.101399474 0.15399455 0.025780726 -0.20738779 -0.3854467 -0.066614 -0.0988427 -0.013526068 -0.42210522 0.15826719 -0.25647128 -0.03290146 -0.4678785 0.028945351 -0.89439744 -0.20775948 0.15963925 0.089748986 -0.15394004 0.090658754 0.19557315 0.17559114 0.48523235 -0.1837044 0.170757 0.4480498 -0.31608823 0.52688456 -0.078926414 0.25592393 -0.304024 0.10230543 0.044992603 -0.08744936 0.16497822 0.18495442 -0.36007485 -0.5116894 -0.39218786 -0.40626612 0.27147895 0.3574612 0.111395635 -0.2910672 0.060149908 -0.32882953 0.20824896 0.27232248 0.33583406 0.11265283 0.033617064 0.1174321 0.099424504 0.41925985 -0.20309302 0.32660314 -0.24756545 0.21982372 0.079577535 -0.49929336 -0.03502673 0.340219 0.16385376 0.2687169 0.11196008 0.1124723 0.096844204 -0.030751752 0.17401978 0.30944118 -0.22641172 0.3680757 0.09193416 0.15235808 0.20751669 -0.12623431 0.10412967 -0.08303893 0.22222114 -0.021583235 -0.13746291 -0.2295298 0.11736524 -0.15426224 0.1530291 -0.080663845 -0.26552412 -0.0993167 -0.31262597 0.1986363 0.16127728 -0.30629647 -0.29630613 0.076238066 0.10934256 -0.11570777 -0.02936518
211 0.4668148 0.13670467 0.07595642 -0.7260306 -0.90976477 -0.46234262 -0.057479925 0.066286296 0.29023078 1.060401 0.42560813 0.21827322 -0.2151231 0.2920034 0.42313743 0.03320852 0.1648514 -0.11882402 0.028274707 0.039502047 -0.48664322 0.010052476 0.5340967 -0.15577102 -0.11762628 0.0075846673 -0.117431745 -0.09400521 -0.20447831 -0.6628638 -0.113700315 -0.2504408 -0.007326483 -0.22474936 -0.25453365 -0.3821835 -0.06438397 -0.41493598 0.20699148 -0.33366615 0.37667337 -0.38249183 0.07770035 -0.6309871 -0.049261842 -0.26535937 -0.48905036 0.1251952 0.1877221 -0.026044214 -0.2998835 0.075329185 0.26016515 0.25951135 -0.12089223 0.1408222 0.7132858 -0.4026326 0.35272336 -0.04672332 0.1995165 -0.33687726 0.106410906 0.36205983 -0.16944319 0.31153363 0.06662241 -0.38963407 -0.4227843 -0.5361263 -0.5408891 -0.21331254 0.22132899 0.1324502 0.033894055 0.5835867 -0.3525003 0.49562484 0.26169688 0.08487947 0.25556934 0.11302462 -0.16899964 0.4006746 0.41613176 -0.3930797 -0.2702106 -0.35566515 0.3027037 -0.09429301 -0.30118972 -0.10400613 -0.116611026 -0.115366384 0.18689594 0.2124554 0.16850834 -0.19938612 0.39268237 0.08849387 0.24631831 -0.37942168 -0.028786952 0.033593122 0.1360114 0.0681406 0.18705471 0.30381373 -0.0703351 0.26064128 -0.2537853 -0.015906023 0.45414037 0.04566102 0.05482616 0.11676646 0.2959432 0.019571614 -0.12708011 0.017131818 0.27095595 0.31141025 0.2651056 -0.049104795 0.38908523 0.11295382 -0.13546813 -0.51932555
152 0.24518076 -0.66152143 -0.32007778 -0.38017133 -0.40698957 -0.65268934 -0.099357486 -0.15418693 -0.027019326 0.25990477 0.25388062 0.3088105 -0.07086141 0.056534294 -0.034631584 0.09613844 -0.07186973 0.074458495 -0.11128549 0.3347674 -0.6322753 -0.13570695 0.2697869 0.08162649 0.14389591 0.24513961 0.24130218 0.015885957 -0.2570095 -0.28495005 0.41893336 0.28434995 -0.52066964 0.22885025 -0.01859632 -0.5401135 0.10527013 0.24512868 0.07868541 0.19132712 0.050575938 -0.19681472 0.2849791 0.5192655 0.3698142 -0.26175317 0.1574239 0.56468934 -0.03513636 0.11335613 -0.14069904 0.53732425 0.054243088 0.38616955 0.20980641 -0.10852936 0.27956197 -0.4986233 0.2620154 0.04415418 0.43399578 -0.0042499276 0.1585631 -0.19338702 -0.09841137 -0.232159 -0.27233237 -0.65779024 -0.03735397 -0.7625092 0.06805905 0.5394678 0.5750122 -0.26074997 -0.39132428 -0.17722684 -0.34983814 -0.119731 0.6577194 -0.33311263 0.3818006 -0.1957362 0.22935951 0.4022406 0.18829232 0.099603266 -0.25469503 0.05958065 -0.2830308 0.18484142 0.097380154 0.33136168 0.18155012 -0.13608535 -0.29627934 -0.3380846 -0.18727307 0.14536081 0.24118973 -0.09072773 0.4601368 -0.007741333 -0.50610906 -0.032789275 -0.4064769 0.6179396 0.12387223 0.36156684 0.0852777 -0.60802674 -0.62228096 0.5874417 0.26410538 0.8137279 -0.059674945 -0.08054876 -0.46732765 -0.31126472 0.20422715 -0.42447722 -0.2710802 0.1470328 -0.33669105 0.1609401 -0.30744833 0.023008656 0.123708025 -0.055709958
110 0.3612581 -0.04698428 -0.25151858 -0.6724919 -0.5311299 -0.053062998 0.6729982 0.19648653 0.6077886 0.4328337 0.32580712 -0.23609717 -0.39801496 0.3982437 -0.09338339 0.041012663 0.3234045 0.15289347 -0.16876644 0.52420205 -0.22276258 0.17830575 -0.34842896 0.58648723 0.33990666 0.070103325 0.016866487 -0.3338397 -0.40840992 -0.41429666 0.21665388 0.24623367 -0.22854939 -0.7128374 -0.23015672 -0.20999132 -0.12768573 -0.44973385 -0.05074422 -0.5689267 0.3033718 -0.031902466 -0.18860057 -0.0041923537 0.4641959 -0.1264384 0.09008893 0.7299893 0.012237972 -0.07480573 -0.46153143 0.20196213 -0.3640093 0.51100796 -0.11051202 0.33482906 0.27760044 -0.35978082 0.18525378 -0.18471263 -0.28913224 -0.55179816 -0.2826826 0.37700567 -0.41674796 -0.0852238 -0.2652087 -0.2530958 -0.5365177 -0.026240235 -0.027861217 0.454518 0.39354065 -0.21204366 -0.14095731 -0.111092545 -0.4061369 -0.030132016 0.14268216 -0.33562684 0.2650967 -0.41947216 -0.48975837 0.28596395 0.34300599 -0.25309137 -0.5388334 0.27031383 0.028779782 -0.34111524 0.4231159 0.7597105 0.14655812 -0.24242178 -0.072937734 0.18090527 0.16053122 -0.037806556 0.023669818 0.07619371 -0.24847941 -0.3028926 -0.07611125 0.0997272 0.071263775 0.26247048 -0.28635988 0.18374158 0.19045033 -0.19271883 -0.39130467 0.1077254 0.31466818 -0.1755427 0.024985714 -0.59143203 -0.48147973 0.17068511 0.31084135 0.17236769 0.18839544 -0.007026234 0.09835024 0.27941465 0.19503532 0.13626595 -0.045833893 0.20615311
212 0.39322102 0.044538144 0.051266573 -0.77420443 -0.87634 -0.42899346 -0.040562287 0.011602698 0.20366146 1.0591377 0.38979626 0.31165567 -0.2067024 0.20161071 0.41972944 -0.06713184 0.24204862 -0.15979162 0.040951136 0.017669559 -0.4834809 0.1659496 0.6027262 -0.118911915 -0.02132853 -0.07391923 -0.24036668 -0.047159553 -0.18280257 -0.6872882 -0.017359719 -0.26354244 -0.11819699 -0.22881332 -0.30260596 -0.45445096 -0.033815544 -0.3625382 0.26645112 -0.37349784 0.18146363 -0.3792746 0.11230507 -0.6411428 -0.08114178 -0.27672705 -0.49099913 0.22229975 0.21073186 0.007989928 -0.17862682 0.22934695 0.22628127 0.23791042 -0.09946397 0.11860183 0.69765884 -0.41654766 0.28536177 -0.0005970427 0.12472741 -0.36332497 0.11221283 0.35091475 -0.07920044 0.26768726 0.1767893 -0.41007912 -0.42154613 -0.5047511 -0.5007568 -0.07874232 0.2502395 0.09182997 0.023770751 0.5755082 -0.23894612 0.44903225 0.10473809 0.087468155 0.18163885 0.096338116 -0.03956031 0.36089358 0.25188187 -0.32502648 -0.19714956 -0.5128949 0.38298506 -0.0026050755 -0.41398895 -0.19350863 -0.15623118 -0.18792792 0.027395887 0.15394354 0.12378101 -0.15979059 0.3139568 0.08787216 0.22931542 -0.42539698 -0.11764581 0.12204249 0.099868916 0.009112191 0.16580904 0.24185604 0.019740662 0.24771783 -0.31403452 -0.1118196 0.5034813 0.12155266 0.045891676 0.27790555 0.17470782 -0.06872159 -0.207603 0.019118257 0.21815276 0.34739593 0.057445426 -0.02910671 0.30322176 -0.030705962 -0.18440439 -0.5189668
111 0.51000625 -0.04035975 -0.20696427 -0.59501696 -0.5293669 -0.043312352 0.6886434 0.15683194 0.6272447 0.44123864 0.34055063 -0.17606807 -0.33539483 0.28745368 -0.10392429 0.03998339 0.32492903 0.099670485 -0.10099248 0.47574642 -0.19815078 0.11619574 -0.30953905 0.5347902 0.4252611 0.039005347 0.18048197 -0.32843575 -0.38643998 -0.3554698 0.14777961 0.21137883 -0.16969982 -0.7720019 -0.24197406 -0.1895688 -0.09369981 -0.32796958 -0.12594491 -0.4923463 0.38779518 0.046983752 -0.13269266 0.017558303 0.504261 -0.012772011 0.10572145 0.7872211 -0.024622452 -0.13841043 -0.56384206 0.21963336 -0.382756 0.4211023 -0.028270595 0.2734181 0.32594708 -0.3003841 0.19539584 -0.16666628 -0.25305837 -0.4847557 -0.3266309 0.43751055 -0.35103515 0.03867514 -0.14901458 -0.20399119 -0.43090603 0.016298568 -0.050406344 0.42057067 0.328774 -0.060217433 -0.15474191 -0.118067704 -0.4048071 -0.026680574 0.2843689 -0.41100845 0.267006 -0.4576235 -0.4995527 0.16696708 0.33343673 -0.36386994 -0.5642415 0.13777873 -0.041376483 -0.39147 0.3439831 0.7298508 0.10464086 -0.37845233 -0.17505309 0.092403315 0.2527918 -0.15220581 0.10366956 0.08744093 -0.23483932 -0.27705544 -0.14084084 0.19650778 0.037032146 0.27082652 -0.27382398 0.14817871 0.28153235 -0.25894699 -0.38908765 0.15561713 0.29910788 -0.20840597 0.14990261 -0.5664824 -0.5201908 0.16553491 0.16178207 0.17869173 0.15597273 -0.047541205 0.0588322 0.24201177 0.19655192 0.027580537 -0.07960778 0.10967447
151 0.2259774 -0.7847937 -0.27319163 -0.46316153 -0.45610246 -0.623737 -0.15664603 -0.059884932 0.03294896 0.25430733 0.21865828 0.3926074 -0.043707732 0.016229624 -0.1930842 -0.08478358 -0.07722972 0.25585547 -0.10630171 0.19332051 -0.576868 -0.045109265 0.30770996 0.10044569 0.057695672 0.27093238 0.21838892 0.011063252 -0.2866389 -0.3018599 0.46880773 0.17616357 -0.43337625 0.11978121 -0.018298242 -0.52436775 0.093673795 0.2541509 0.10062233 0.02684124 0.005487532 -0.25340167 0.29154858 0.46626115 0.4319005 -0.30768186 0.13242692 0.48761564 -0.034123898 0.062033784 -0.12530915 0.5546908 0.13170446 0.37687337 0.11347559 -0.06771435 0.32335448 -0.68123734 0.24859522 0.0779672 0.46383595 -0.08676778 0.20148931 -0.12694706 -0.12833677 -0.3036628 -0.3572558 -0.5522703 -0.12328676 -0.6907323 -0.0075451937 0.528229 0.60556585 -0.2794029 -0.39404413 -0.15507361 -0.26734683 -0.13466099 0.5511848 -0.42600146 0.36221233 -0.20614932 0.15703663 0.52481306 0.20305032 0.08341348 -0.33194137 0.015941614 -0.16170734 0.15831657 0.11113919 0.30328453 0.09246614 -0.028897023 -0.23699296 -0.40719342 -0.35060233 0.19660217 0.21351723 -0.10181423 0.3585012 -0.06563771 -0.5020869 -0.048153237 -0.46912044 0.5272315 0.15951717 0.31589693 0.22762711 -0.8321473 -0.7430129 0.57516474 0.2643525 0.81674886 -0.018206093 -0.13334446 -0.6002396 -0.42523015 0.2617217 -0.34913006 -0.22020088 0.29699412 -0.35988554 0.2534162 -0.34734437 0.019053148 0.1266698 -0.119194224
206 0.41626424 0.016661609 0.0033657881 -0.32339916 -0.34942192 -0.45467362 -0.36984634 0.2512859 0.62813175 0.8193558 0.4362425 0.09335841 0.018948557 0.23058362 -0.025887309 0.41543505 0.08545799 -0.03382921 -0.57390827 0.073202446 -0.33753663 -0.10403214 0.7127226 0.09874121 0.10895446 0.30861193 -0.70866036 -0.38683963 -0.5133508 -0.15165505 0.38103643 0.23984236 0.120619185 -0.081056625 -0.19849692 -0.43047684 -0.059893172 -0.13533841 -0.07884982 -0.4025692 0.0047870735 -0.26573133 -0.05232799 -0.39793226 0.014977832 -0.85777783 -0.2496727 0.019224001 0.034598544 -0.11582928 0.14570664 0.17032076 0.24082746 0.3914171 -0.21738383 0.096611395 0.532886 -0.24882044 0.49614546 -0.0952583 0.18703917 -0.30595392 0.0025393523 -0.05069551 -0.10754272 0.11011053 0.16603316 -0.41704154 -0.68998617 -0.40005347 -0.511752 0.19627307 0.3933739 0.09687293 -0.25427878 0.05008598 -0.46075317 0.3435007 0.2175631 0.27604866 0.10168511 0.015419933 0.071411915 0.03185402 0.3148588 -0.27031195 0.32112792 -0.3470274 0.30539188 0.10409156 -0.5165062 0.02279666 0.22784303 0.14170498 0.377865 0.06430554 0.12566544 -0.036333404 -0.1297162 0.13651972 0.29380715 -0.27163255 0.45987958 0.08879382 0.20397192 0.103233196 -0.017578918 0.2040652 -0.14967917 0.21534246 -0.040338803 -0.16744028 -0.07301532 0.10877065 0.019957913 0.21265502 -0.036259472 -0.29379663 -0.11979425 -0.39486253 0.13469118 0.25452784 -0.25586224 -0.39934123 0.16039433 0.05853063 -0.100936726 -0.097909704
218 0.3416549 0.11057455 0.038969852 -0.8249349 -0.7956095 -0.4546282 -0.15217102 0.49472302 0.3934638 0.7552543 0.5179191 0.21813923 -0.092984974 0.1446854 0.40991533 -0.034323517 -0.51416135 -0.7122693 -0.17156166 0.07239818 0.11893984 -0.21610175 0.61512613 0.19697347 -0.19335462 0.35451052 0.00070027774 -0.5883059 -0.4328654 -0.07888994 -0.15168656 0.10205343 -0.045246422 -0.22594191 -0.013374959 -0.11675219 0.032259345 0.13071024 -0.17074665 0.27412713 -0.22318603 0.13912457 0.04097887 -0.055469155 -0.055173755 -0.35270232 -0.4027539 0.13065282 0.21792035 -0.15430349 0.23027626 -0.0906274 0.014020831 -0.03510214 -0.2839899 0.04264725 0.03125615 -0.14655793 0.16610543 0.2857947 0.1717574 0.30847314 0.07664108 0.34829953 -0.03301366 0.31122562 0.5095724 0.6066562 -0.12115036 -0.061956786 -0.17132069 -0.2007267 0.054489445 0.1624572 0.13606544 0.20936705 0.03139137 -0.4030208 0.23014449 0.19572073 0.36704272 0.27579376 0.3812859 0.18641436 0.107078925 -0.15196615 -0.31836227 0.38606274 -0.6060697 0.014762073 -0.16399029 0.05798848 0.096138954 -0.023719544 0.12423758 -0.10316299 0.11619304 -0.04329799 0.018534591 -0.1328111 0.24414445 0.5030839 -0.14040253 0.07165268 -0.5621555 -0.41461343 -0.076508895 0.12017794 -0.2744912 -0.26020026 0.28396538 0.24488185 -0.5341571 0.42543584 -0.26729432 -0.05898658 0.41468456 -0.025351811 0.030269295 -0.2019938 0.0077293185 0.18880051 -0.06864099 -0.009212102 -0.09332327 0.3486135 0.14321062 0.17738295
219 0.3104749 0.18225443 0.059176873 -0.8930292 -0.7657257 -0.525055 -0.10061357 0.492509 0.41416112 0.75073403 0.41960275 0.121854424 -0.035409335 0.073921606 0.38722873 0.0542268 -0.51886106 -0.6810756 -0.08959945 0.09573576 -0.02497042 -0.28334126 0.5461004 0.15637158 -0.21952143 0.414981 0.021629618 -0.6326217 -0.46533847 -0.15175925 -0.08406788 0.22662589 -0.08682306 -0.20197852 0.011193977 -0.059217785 0.014783323 0.15770872 -0.13197264 0.24880816 -0.20593512 0.023998324 0.086174905 0.0053015216 -0.15187015 -0.29356626 -0.32107475 0.0820172 0.2252182 -0.18839242 0.22120899 -0.08470665 -0.05296791 -0.037118785 -0.31790313 -0.041194934 0.07694555 -0.09648969 0.11810194 0.31088743 0.18059868 0.33441132 0.15226066 0.38022432 -0.015105035 0.3088705 0.38294935 0.62942004 0.010959568 -0.044598885 -0.1777094 -0.20224896 0.01939622 0.10800185 0.22613783 0.14344698 0.09171329 -0.3639018 0.1672912 0.17288756 0.34326047 0.20418745 0.41171578 0.2383167 0.108594574 -0.115291886 -0.25132665 0.3585642 -0.64071596 0.08251952 -0.12200878 0.04191489 0.15947811 0.031315375 0.15520123 -0.06115177 -0.010561776 0.010604703 -0.079006836 -0.062728494 0.19573602 0.4548537 -0.21054524 0.005139615 -0.47281647 -0.29584286 0.019039925 0.15548752 -0.25059497 -0.19310276 0.24573171 0.2627131 -0.56355894 0.46972233 -0.28899917 -0.16216277 0.4726263 -0.10672521 0.21209985 -0.14748104 0.0010328648 0.18681405 0.0025614286 -0.030737046 -0.044444047 0.35256928 0.2081809 0.202736
204 0.3746625 0.02061976 0.15811369 -0.41161847 -0.41290677 -0.39287588 -0.43874642 0.18884285 0.65628064 0.8764143 0.4018917 0.13779123 -0.04093163 0.26876515 -0.015793564 0.35894406 0.04723525 -0.09356477 -0.5506096 -0.012274951 -0.3454197 0.014330977 0.82546514 0.086644314 0.08183239 0.17372523 -0.7021514 -0.43135628 -0.47508132 -0.20180623 0.2917436 0.16737512 0.15033063 -0.10477914 -0.22338367 -0.31638175 -0.054297578 -0.07957137 0.06608047 -0.48574704 0.11349683 -0.2785545 -0.048015945 -0.48614225 -0.028166577 -0.89527535 -0.16136977 0.127723 0.078297794 -0.008725083 0.122682735 0.26442736 0.1682259 0.33080098 -0.21110077 0.13934605 0.5774518 -0.26693758 0.4252275 -0.087486245 0.012002381 -0.18469599 0.0122898435 0.08941248 0.05932118 0.15018977 0.14632912 -0.3286311 -0.62761486 -0.36411142 -0.4105343 0.22366112 0.39590347 0.14211746 -0.23193513 0.08897271 -0.4729288 0.24097435 0.11110266 0.37820414 0.045665555 -0.0043544727 0.036961984 0.03715568 0.35835642 -0.35208562 0.26815137 -0.3932023 0.27671307 0.07445319 -0.47072256 -0.10741055 0.3273714 0.14036699 0.2532028 0.14625332 0.19102311 -0.052373756 -0.09776194 0.17366059 0.3255032 -0.26912493 0.3675027 0.1420471 0.09460933 0.08792666 -0.048350193 0.1517286 -0.06631161 0.18926942 -0.05601359 -0.07448846 -0.13125172 0.09750684 -0.08170562 0.2495394 -0.13332206 -0.2574007 -0.14687546 -0.32415983 0.2561053 0.14476746 -0.20305336 -0.4404932 0.087263756 0.19282585 -0.052753575 -0.11817872
203 0.5031548 0.047362342 0.11644887 -0.44303086 -0.43980652 -0.4079958 -0.4900651 0.22230674 0.54371953 0.92017156 0.4295102 0.11888568 0.008572029 0.30601412 -0.025189975 0.45202518 -0.002349954 -0.075667426 -0.5819749 0.13875651 -0.5318993 0.016346732 0.63616043 0.011211866 0.08964226 0.26363492 -0.7604152 -0.4153148 -0.38242903 -0.22666623 0.31126365 0.25828254 0.11065455 0.016144939 -0.21570696 -0.33374843 -0.014228963 -0.109447055 -0.05518846 -0.43501452 0.13121594 -0.4446833 -0.08200805 -0.41188994 0.006997698 -0.7217013 -0.10354027 0.15443157 0.05151027 0.0691147 0.1196217 0.18695891 0.2194084 0.3480432 -0.3401264 0.22830394 0.64316446 -0.1399237 0.55571663 -0.075396724 0.21179807 -0.21954092 0.105293125 -0.103809774 -0.060729176 0.17412952 0.08914045 -0.31248847 -0.7348971 -0.4808136 -0.43857428 0.27581885 0.3506169 -0.02468847 -0.22635885 0.20315915 -0.51777726 0.2552968 0.1927119 0.47737718 -0.053033326 0.08063624 0.070069954 0.054024145 0.42254138 -0.32166407 0.25054058 -0.33343664 0.27201217 0.14374769 -0.47192612 -0.046022583 0.32252508 0.08329965 0.30425116 0.30130878 0.24854486 -0.13271956 -0.15097818 0.115851246 0.30778158 -0.3618226 0.25832725 0.10137122 0.22495814 0.2070034 -0.1459366 0.13891284 -0.12677205 0.19313794 -0.04870164 -0.06387126 -0.15840644 0.08741321 -0.05363356 0.25914332 0.06293276 -0.3001957 -0.20245141 -0.22831422 0.23154007 0.16813958 -0.29095286 -0.5013903 0.1646141 0.12991118 -0.15036735 -0.07208489
209 0.39184725 0.09845728 -0.018441392 -0.75459343 -0.8498688 -0.46491307 0.004865204 0.122580975 0.18369672 1.0301957 0.3590716 0.3925623 -0.12332067 0.27850094 0.35064104 -0.14352815 0.24171928 -0.066216 0.027551122 -0.045531165 -0.4774377 0.11685475 0.7121599 -0.25402996 -0.049396437 -0.0001520309 -0.25880176 -0.1235073 -0.18318556 -0.65167326 -0.055241913 -0.21239324 -0.053807426 -0.2908308 -0.26789984 -0.5354838 0.0478596 -0.34422356 0.29114297 -0.2768794 0.21978645 -0.4303963 0.06586548 -0.6588316 -0.074170046 -0.34005556 -0.58683205 0.30317965 0.15881196 0.040910635 -0.31040916 0.14890923 0.37486956 0.18326698 -0.027823709 0.12635377 0.7610494 -0.43542743 0.32571158 -0.07443934 0.12811063 -0.40615436 -0.024143325 0.37836257 -0.10358608 0.17064433 0.18937193 -0.4126065 -0.6062175 -0.5903381 -0.60732126 -0.022937356 0.22915885 0.082887076 0.05149037 0.6041787 -0.29268384 0.5433756 0.22894734 0.16611402 0.26189265 0.098253116 -0.158321 0.34982264 0.3180554 -0.41467497 -0.3228031 -0.52250725 0.43193752 0.07861146 -0.3995485 -0.1991622 -0.13089953 -0.18501158 0.05341566 -0.034079045 0.21446066 -0.22332099 0.24787863 0.12078712 0.21120842 -0.34703618 -0.036284745 0.18254517 0.1277127 0.025100365 0.14144006 0.26471668 0.0029021928 0.18211806 -0.3823809 -0.09031702 0.49426636 0.041937467 0.004596843 0.18081346 0.15531947 0.09567027 -0.24255627 0.084116 0.3399524 0.26881588 0.040272847 -0.115200855 0.3219624 -0.012060629 -0.14710745 -0.56474507
160 0.3549366 -0.47657424 -0.22687969 -0.5863198 -0.048240453 -0.36894196 -0.52240443 0.6959352 -0.023940613 0.4925038 0.28878146 -0.07454494 0.051717658 0.11177815 0.17441104 -0.3754697 0.7510453 -0.32613322 0.2134735 0.33451903 -0.2282116 -0.32326773 0.2816693 0.15600868 -0.121234134 0.06580295 0.18896542 -0.5542253 -0.34379917 -0.35660654 -0.0012814781 0.03481451 -0.17948273 -0.20561226 -0.35907525 0.24297966 0.3648701 -0.2202562 0.2905255 -0.12563106 -0.3316865 0.16120838 -0.23304263 0.070486255 0.1872576 0.05871775 -0.49268958 -0.034492556 0.3858059 -0.07158211 -0.4957275 0.15077433 0.33664986 0.14700048 0.17442816 -0.17662913 0.17660652 -0.3098762 -0.0064707655 0.1338981 0.049549002 -0.45779404 0.051185198 0.27295053 -0.5237612 0.7299962 0.2955812 -0.5164719 -0.017566273 -0.13522658 -0.1799673 0.32175973 0.3004489 -0.13838239 0.28177348 0.33404577 -0.20143068 0.495174 0.36374515 -0.0703018 0.023377564 0.04263996 -0.12859325 0.0024123213 0.72672063 -0.05008648 -0.016080327 -0.4134368 0.43109477 0.39165986 0.10988423 0.15738738 0.19509386 0.14816931 0.0796187 0.047410816 0.61382824 -0.35940212 -0.07886408 -0.20097221 0.010555931 0.25802836 -0.107364565 -0.25907072 -0.33513072 0.87784344 0.11116189 -0.030031187 0.06056227 -0.05021154 -0.37875533 0.43598828 0.014138934 -0.2629413 0.6069575 -0.3701574 0.15674642 0.3261935 -0.025513062 0.031539373 0.09976638 -0.23231813 -0.1532155 0.2567862 0.024040075 0.5490295 -0.26453218 0.18600003
132 -0.3046617 -0.16519223 -0.16748296 -0.6035788 -0.16267885 -0.5100159 0.027325207 -0.33236274 0.14580776 0.6024166 0.324292 0.30106524 -0.07489937 -0.09868919 0.20343757 -0.53430104 0.3533515 -0.18300721 -0.2974625 0.5881549 -0.4234711 -0.25469828 -0.15940215 0.030915955 0.32648796 -0.09178682 -0.038539976 -0.21744253 -0.29699904 -0.30748388 0.42725846 0.42956612 -0.26872617 -0.22183883 -0.3226387 0.035925914 0.19078988 -0.057316843 0.46129954 -0.15764445 -0.026188899 -0.0070872623 -0.16720967 0.40654275 0.20889662 -0.259954 -0.118720636 0.5951358 -0.30963725 -0.059300445 -0.2052836 -0.10846841 0.07988591 0.15631704 0.15532918 -0.244279 0.2559866 -0.18177825 0.10932273 -0.17388473 0.112369835 0.11541568 0.080412604 0.10950152 -0.3131619 -0.1584649 0.21811709 -0.3721048 -0.0059311483 -0.072936825 0.25483504 0.2679605 0.10605689 0.09989888 -0.047700286 -0.15045974 -0.4991686 -0.3428437 0.18267374 -0.13799073 0.09397639 -0.46598917 -0.06639812 0.48719066 0.7079821 -0.26765028 -0.4684578 -0.018021058 0.066641465 -0.18744345 0.3948483 0.45254475 0.0715957 -0.21313347 0.007743165 0.18784562 -0.0170278 0.14398107 0.08513959 -0.46237278 -0.042782884 0.17696069 -0.06840272 -0.12382393 -0.38196057 0.32048663 0.058895394 0.43434325 -0.03341576 -0.051048838 -0.4833672 0.3098662 -0.0397282 0.058825064 0.09400902 0.19861433 0.010529925 -0.26325434 0.19702533 -0.12456755 -0.30631414 0.14302152 -0.35473007 0.4651267 -0.19904514 0.4689049 0.20517057 0.35910428
161 0.41452911 -0.49967644 -0.25160986 -0.50033474 0.05205824 -0.40330073 -0.511853 0.6650148 -0.11877287 0.4959509 0.2602404 -0.06636022 0.12173872 0.052012626 0.14001213 -0.36354184 0.686503 -0.3534256 0.1382218 0.2280741 -0.1874021 -0.35012403 0.27401063 0.2377156 -0.07231348 0.04513208 -0.08506392 -0.55571693 -0.4469916 -0.31353766 0.02015056 0.025409574 -0.18037309 -0.07706443 -0.38144922 0.08546484 0.45645082 -0.24027194 0.3158863 -0.04469128 -0.32167253 0.034303702 -0.13817088 0.0909085 0.20700206 -0.012631048 -0.43320584 -0.2640804 0.3332895 -0.17292123 -0.5821492 0.035585944 0.3933051 0.194908 0.15901507 -0.1927805 0.05005349 -0.15863633 0.031857155 0.11254308 0.13093674 -0.5874902 0.0023718665 0.27119884 -0.503562 0.65332687 0.25135598 -0.6506817 -0.088669226 -0.21830565 -0.19587117 0.38105705 0.2457854 -0.20283206 0.18329318 0.30049697 -0.19840099 0.5712406 0.42139181 -0.13265438 0.058630437 0.07185143 -0.072275855 -0.006615247 0.58962613 -0.06250758 0.013308334 -0.42083812 0.3940603 0.47123942 0.15078613 0.35742188 0.21417789 0.124957986 -0.009027965 0.09704577 0.61791456 -0.24708015 -0.055807725 -0.27594665 0.19765736 0.14332527 -0.03278451 -0.26127598 -0.31620663 0.8778509 0.0016636039 -0.0031800023 -0.06320453 -0.07504964 -0.30230328 0.4079155 0.07318225 -0.2633647 0.71033424 -0.16088445 0.17888294 0.28730464 -0.13885958 -0.025470572 0.06531965 -0.27311447 -0.11162347 0.2747444 0.0030204067 0.49215078 -0.23313873 0.25992492
210 0.33719987 0.031195674 0.107121736 -0.64803326 -0.7183902 -0.3352244 -0.08363595 0.00033418133 0.23423468 0.87875444 0.27585918 0.26023117 -0.27464625 0.4065371 0.2878478 0.13703926 0.2371533 -0.093842745 0.027405374 -0.008208681 -0.5321362 0.14671871 0.72729 -0.069671944 -0.21503972 -0.025940789 -0.17610939 -0.0685228 -0.27992988 -0.6585847 -0.13440923 -0.2709304 -0.10294549 -0.21061894 -0.30573675 -0.4783615 -0.034351896 -0.31642553 0.26179737 -0.33403137 0.28290898 -0.37669462 0.017999234 -0.6241477 -0.011739463 -0.26408815 -0.40696904 0.35602614 0.07474316 0.01644342 -0.37160143 0.26611757 0.32405296 0.20610133 -0.23060471 0.16509746 0.7507529 -0.51927197 0.33903912 -0.064148694 0.09918449 -0.36635458 0.08105413 0.27140808 -0.121331535 0.35424668 0.19528858 -0.39500594 -0.44943747 -0.48223442 -0.5843584 -0.031111285 0.36250526 0.18981744 -0.030980758 0.48771656 -0.27040035 0.58652824 0.21958217 0.17282364 0.23429362 0.014895752 -0.051964674 0.24992126 0.30787098 -0.32400775 -0.2214366 -0.48512173 0.26227447 0.007696774 -0.36987123 -0.12482774 -0.15970019 -0.08578324 0.0015818896 0.17650066 0.12293098 -0.27292183 0.23583193 0.058777604 0.27090213 -0.45281723 -0.060498517 0.05478285 0.055982746 0.105951965 0.29196763 0.40956208 -0.086402565 0.28487626 -0.34754497 -0.011473335 0.51977235 0.019813735 -0.06885851 0.13181093 0.12232899 0.011824912 -0.1315716 -0.08217433 0.2564317 0.31106 0.21022001 -0.089574724 0.36814317 0.17670761 -0.10062669 -0.5627195
220 -0.34500018 -0.124708 0.05005429 -0.5513994 0.08624962 -0.13567099 0.34174338 -0.2969446 0.056943968 0.40413302 0.18352214 -0.10553052 -0.042729452 -0.17269117 0.048597008 -0.2597954 0.19415691 -0.38399887 0.060452048 0.7879252 -0.49454984 -0.37213603 0.5820366 0.096115045 0.31628618 0.044314798 0.07686916 -0.10968179 -0.13130166 -0.4707021 0.25608152 0.20113665 -0.28247827 -0.19673038 -0.21180722 -0.011710524 0.11728672 -0.13180338 0.34280393 -0.38539204 0.18634953 0.0921053 -0.26308054 0.3639787 0.41915786 -0.10129437 0.019261107 0.4920806 -0.113081396 -0.25226295 -0.4307288 0.011492559 -0.016814517 0.10103484 -0.028372077 -0.0026307742 0.3177237 -0.090995006 -0.0745761 -0.3378689 -0.090803295 0.0019124537 -0.09964705 0.028435074 -0.2401833 0.08806536 0.30823418 -0.61016136 -0.21413314 -0.30761266 0.012033426 0.39796183 0.3002729 0.29361424 -0.11167963 -0.29020795 -0.10245676 -0.4128051 0.4382973 -0.314176 0.26671684 -0.5610161 0.19948469 0.44326448 0.71456313 -0.0034500374 -0.28916708 -0.061388396 -0.33460435 -0.27627084 0.07999427 0.2781305 0.50787747 -0.2427784 -0.15763116 0.38200507 0.09708717 -0.1939853 0.032233626 -0.3852739 0.31639507 -0.051905714 -0.275145 0.21192464 -0.6021609 0.77767754 0.25252968 0.50736845 -0.014215825 -0.08613067 -0.57422453 0.27913895 -0.21175252 0.123332284 -0.11273807 0.042750325 0.19331291 -0.09994705 -0.08405883 -0.3826427 -0.14326347 0.0074677863 -0.29697856 -0.13094759 -0.12209966 0.4332579 0.031303525 0.33014575
0 0.2391581 -0.2761468 0.01930066 -0.1489974 -0.019720929 0.13580431 0.033202503 0.064627714 -0.032191597 0.090802595 -0.10383865 0.10306851 0.12524219 -0.0757229 0.2621345 -0.33046904 0.16165158 -0.24827094 0.13916296 0.053899307 -0.1400118 -0.057996117 0.065569475 0.36529115 0.22592406 -0.112932585 -0.19261001 -0.11421842 -0.26533836 0.005770339 0.47191343 0.31752846 -0.5653894 0.011406101 -0.06632502 -0.26171476 -0.023250347 0.16573815 0.10256258 -0.29289022 -1.0242376 0.64900744 -0.06968601 -0.09021117 -0.22423045 0.057272922 -0.123648316 -0.15462478 0.5290498 0.10272223 -0.2650838 0.43976843 -0.008247065 -0.17644165 -0.116849884 -0.20116954 0.32832205 -0.2359248 -0.23539105 0.27898356 0.063334815 -0.6066321 -0.111270875 0.12681267 0.18500085 -0.34066665 -0.07511853 0.2061657 -0.3318384 0.18846947 -0.27428773 0.24813382 -0.039108053 0.08519054 0.30731308 0.11881551 -0.4968607 -0.2804182 0.10458132 0.2978756 0.27911884 -0.02440453 -0.20446245 0.7260793 0.10148376 0.010653655 -0.28242868 0.28687474 -0.13265163 0.00094963965 -0.3978444 -0.31869984 -0.23894574 -0.3648913 -0.1860617 0.33718318 0.1325123 -0.63806117 0.008729351 -0.38783455 -0.21265833 0.005614508 -0.40908554 0.3177299 0.30065632 0.2239094 0.78728324 0.25503874 0.06523742 -0.088741876 0.31725866 0.15643859 -0.51780903 -0.11776028 -0.6488089 -0.36188298 0.15437225 -0.27509144 -0.30590007 0.14925867 -0.13054961 0.14996074 -0.17635727 -0.025183292 0.107389644 0.11146754 -0.18218948 0.008146691
131 -0.3489334 -0.055398636 -0.20122492 -0.6242276 -0.09363246 -0.4926475 0.0067702807 -0.3481849 0.11607236 0.62057495 0.32161948 0.3033391 -0.09656383 -0.18359855 0.04297902 -0.40181905 0.3927227 -0.2506775 -0.35900176 0.5482762 -0.4112343 -0.23078887 -0.02770403 0.031351328 0.44569427 -0.068085335 0.0019977246 -0.19284749 -0.21386684 -0.4595533 0.4496874 0.44901532 -0.380325 -0.4058748 -0.32400697 -0.04698595 0.16221862 -0.16334736 0.4357136 -0.10135684 -0.040975228 -0.09194569 -0.15986557 0.33581293 0.20059827 -0.22774093 -0.1862754 0.5869867 -0.20019247 -0.01593927 -0.12497705 -0.08986636 0.17090005 0.14618473 0.13263002 -0.17513189 0.09466848 0.04613053 0.13132049 -0.06945647 -0.021051953 0.11728922 0.06008889 0.12108612 -0.36690465 -0.06779856 0.19375472 -0.3279494 -0.03759005 -0.015140808 0.2184657 0.32385844 0.17394164 0.10707291 -0.07890428 -0.11938648 -0.51029414 -0.3250018 0.34503376 -0.124964826 0.08007524 -0.39268082 -0.11599239 0.46684146 0.6720571 -0.2623792 -0.45852748 -0.14402229 0.033484776 -0.23015429 0.3362323 0.41787755 0.066554286 -0.3913758 0.02982728 0.16264805 0.11697556 0.081054084 0.02235082 -0.590554 0.034252103 0.10305665 -0.19736923 -0.07597462 -0.42166734 0.33614385 0.014614623 0.40813872 -0.12064975 -0.06060566 -0.52071005 0.27058083 -0.09214913 0.021030517 0.020461971 0.28897414 0.040703 -0.35979584 0.17764744 -0.16762379 -0.2565446 0.11997067 -0.46956742 0.3087768 -0.28352842 0.42427325 0.2466209 0.24151096
221 -0.22436455 -0.08888238 -0.2099275 -0.68651175 0.050917782 0.009331342 0.28865165 -0.24781752 -0.18695854 0.597736 0.07557591 -0.13921747 -0.09474642 -0.28516853 0.0110101 -0.26144022 0.29614443 -0.29791263 0.045604754 0.75074923 -0.35271677 -0.17400908 0.48608214 0.13193107 0.23929326 -0.04998473 0.012414319 -0.1543164 -0.09360191 -0.5885346 0.29362074 0.22727817 -0.2534575 -0.18890992 -0.22105496 -0.07860264 0.16386472 -0.13352852 0.2854239 -0.51829493 0.07086693 0.14754255 -0.30288002 0.39204013 0.41227332 -0.10637033 -0.11070132 0.5728727 -0.10301946 -0.19800778 -0.29597485 0.055338487 0.09558724 0.24790257 -0.027974654 0.13059738 0.3312864 -0.06519071 -0.08714388 -0.21413311 -0.05568109 0.06812915 -0.043638296 -0.016954761 -0.33585444 -0.055209033 0.44724733 -0.43470272 -0.14327267 -0.36570227 0.07713973 0.25912666 0.36032286 0.29988036 -0.2033388 -0.24422218 -0.15717116 -0.38184294 0.418679 -0.35800105 0.08974895 -0.55419254 0.1078277 0.419713 0.59653914 0.04907847 -0.39214554 0.09640161 -0.3933855 -0.25724694 0.044598527 0.24764371 0.43937838 -0.25404674 -0.13553661 0.4046866 -0.027111867 -0.13259418 0.09098632 -0.43739903 0.28304863 -0.06288696 -0.32841325 0.10823998 -0.6780944 0.6506377 0.2470735 0.4854082 -0.006205414 -0.23151658 -0.60862553 0.16245665 -0.17873749 0.14405188 -0.15537386 0.07035906 0.21647674 -0.09295248 -0.06069409 -0.22310412 -0.08987378 -0.0727288 -0.4066521 -0.19124612 -0.21023148 0.38448396 0.05462373 0.15168147
159 0.46288356 -0.44593012 -0.3255971 -0.5339827 -0.12520851 -0.4400584 -0.31725705 0.6540924 0.020165661 0.4963672 0.22176829 -0.028911464 0.076147236 0.16443598 0.176791 -0.36222264 0.5769166 -0.39053464 0.026698204 0.37317315 -0.2435201 -0.28865626 0.13212466 0.15249865 -0.085465245 0.01350098 -0.025237141 -0.5770883 -0.31720117 -0.31638438 0.036826134 0.10014202 -0.26234183 -0.1199954 -0.38328323 0.13769563 0.43197346 -0.22293794 0.34194553 0.082636274 -0.38735175 0.029989244 -0.12977932 0.098371364 0.20155516 -0.019971441 -0.5313516 -0.013037212 0.34073868 -0.014226347 -0.5552794 0.02393426 0.45459908 0.12831423 0.24990651 -0.133849 0.25363073 -0.21703158 0.054879777 0.08822532 0.099920936 -0.39009878 0.043132614 0.26484722 -0.58571726 0.7416038 0.29215753 -0.48364443 -0.0756961 -0.21026869 -0.24063262 0.36762193 0.34858543 -0.19118527 0.2885637 0.31163776 -0.3353947 0.5679446 0.3383411 -0.008907777 0.045009922 0.010757865 -0.079889335 0.0047619 0.721814 -0.13204315 -0.06332533 -0.43526453 0.32576373 0.4139887 0.105961636 0.26196203 0.25961584 0.029613234 -0.01853975 0.036859505 0.6230594 -0.30026144 -0.13640127 -0.13173161 0.07928379 0.23863308 -0.12016963 -0.24795546 -0.36074746 0.80389 -0.02105676 0.098659396 -0.08754696 -0.0038098623 -0.31262872 0.5143201 0.023253635 -0.15954867 0.6707134 -0.26118782 0.07452686 0.2562709 -0.015995858 0.017609514 0.19557598 -0.26068032 -0.20769183 0.1563213 -0.0036643958 0.526968 -0.18690345 0.2789941
158 0.46226284 -0.3844562 -0.35027605 -0.47917014 0.011392459 -0.51211274 -0.4462402 0.54818326 -0.07860885 0.46645194 0.18416539 -0.10060493 0.07799286 0.07284139 0.25475213 -0.36601835 0.6589467 -0.41221094 0.085845195 0.29766494 -0.14288594 -0.27911633 0.25239924 0.17820808 -0.06049699 -0.09867256 0.016508669 -0.58022606 -0.42860517 -0.33413583 0.0017154098 0.03443589 -0.26521686 -0.118726276 -0.35634744 0.14771545 0.45103064 -0.1420912 0.4198948 0.0046743583 -0.36359105 0.098620795 -0.17257509 0.175979 0.18026783 -0.019212846 -0.50389457 -0.10952664 0.30832437 -0.035631876 -0.4901944 0.10551205 0.34278855 0.064709894 0.38719782 -0.16946723 0.2654729 -0.15437073 0.03495394 0.18091026 0.17610584 -0.3597272 0.15685247 0.15421674 -0.4798024 0.6240612 0.32016644 -0.6314376 0.021066902 -0.13242367 -0.16193765 0.39563742 0.38885263 -0.18279217 0.20433643 0.2894419 -0.20475079 0.5843327 0.42813832 -0.030170603 0.054166056 0.068020925 -0.18843901 0.10515361 0.51859266 -0.14539556 -0.043040168 -0.4122374 0.4329735 0.42262778 0.09663426 0.21205024 0.18641907 0.19635968 0.015836336 -0.01631688 0.6270336 -0.32766005 -0.06911054 -0.20070313 0.16556054 0.14837252 -0.12901358 -0.24187578 -0.31121033 0.861063 0.019106911 -0.007958092 0.11770201 -0.044616055 -0.38239926 0.50404936 0.04317226 -0.22496599 0.6158332 -0.2343757 0.22605304 0.40301892 -0.013308466 0.061874095 0.1329846 -0.29389802 -0.19052081 0.062112942 0.122126654 0.55565923 -0.11958893 0.17424692
80 0.40138176 0.0068284194 -0.47587198 -0.96960163 -0.3472684 -0.3301784 0.63572824 0.15106131 -0.10697912 0.90730137 0.2792976 0.3387956 0.08742081 0.11670721 0.5499862 -0.575477 0.09006152 -0.26953945 -0.41075388 0.57335925 -1.0709453 0.12278956 0.33092338 -0.03005347 0.63557154 -0.12799416 -0.424011 -0.08104727 0.0659908 -0.57034516 0.43240416 0.24788761 -0.11382084 0.16912279 -0.24728794 -0.35333544 0.4859687 -0.21077149 -0.044898644 0.42755407 -0.37131566 -0.16974309 -0.22158758 0.07752569 -0.2842002 0.30808908 0.18501213 -0.36276516 0.2574713 -0.18397056 -0.00123127 -0.3347572 0.23092347 0.095363304 0.50539255 0.12993036 -0.29409215 -0.039639957 -0.406659 -0.55338275 -0.14085971 0.32530499 0.1646892 -0.2567106 -0.44071704 0.14058544 0.4427548 -0.005974393 -0.04130126 -0.15315092 0.32602355 -0.4369492 0.2159261 -0.06922512 -0.2229923 -0.41942444 -0.19638024 -0.28036302 -0.12618202 -0.123145096 -0.06950821 0.13460745 -0.21551238 0.25330988 -0.08693811 0.27721465 -0.092913665 0.43462667 -0.3777983 -0.3863169 -0.0029762702 0.09848247 0.027285295 0.38479075 -0.14402877 -0.01731481 0.21107177 -0.46838784 0.31728756 -0.4891001 0.3977089 -0.18019682 -0.8129004 -0.35739908 -0.22916768 0.010622448 0.08907391 0.17875884 -0.6600023 -0.05434046 -0.086572915 0.18041122 0.02303648 -0.0951529 0.1278687 0.131233 0.58022684 0.40897313 -0.33792204 -0.24347273 -0.14978278 0.1246972 0.15035664 -0.14503801 -0.36049965 0.24206619 0.013252052 -0.074453734
45 0.6211078 -0.14686155 -0.06203287 -0.12646855 -0.38502565 -0.004381451 -0.25418818 0.3195128 -0.03175377 0.36788115 0.15766136 -0.020486422 0.16112565 -0.07419976 0.520656 -0.102458335 0.13354087 -0.22371183 -0.040530976 -0.027329788 -0.08766617 -0.038566753 0.19522208 0.124815926 0.20641434 -0.15563655 -0.48628685 -0.15517987 0.032677412 0.09976079 0.20781934 0.5003321 -0.1904644 0.09601149 0.009684593 -0.037798237 0.034103595 0.16062967 -0.14769222 -0.012752661 -0.3986467 0.48688257 0.21549219 0.026643114 -0.19707984 0.21533209 0.4066541 0.018314363 0.4965532 -0.07710143 0.085720815 0.46445605 -0.49084237 0.1154343 -0.12031104 -0.010564983 0.3218104 -0.022866502 -0.3700916 0.28221875 0.03337754 -0.39231017 0.4365303 0.2817505 0.3039016 -0.16346708 -0.29400778 0.21639632 -0.2936896 -0.3570446 -0.1827297 0.26096573 0.15155794 0.26902777 0.3695235 0.1597721 -0.688345 -0.5721368 -0.0152097475 0.38285697 0.3288249 -0.14627679 -0.07939555 0.052371252 -0.102973305 -0.4082381 -0.48966885 0.52992 -0.0046051224 0.0974773 -0.025580892 -0.27307612 0.10078823 -0.08434559 -0.19845115 0.65786535 0.2926581 -0.36709797 0.030204957 -0.34403247 -0.2486999 0.020913454 -0.2525065 0.40867853 0.012154631 0.2490587 0.39667147 0.12256069 -0.16169605 -0.21924725 -0.16699009 0.27884242 -0.2638616 -0.14292869 -0.594448 0.07321851 -0.0812632 -0.44816595 -0.31137577 0.18798482 -0.34675148 -0.20819914 -0.31282654 -0.00405903 0.30208814 0.20272404 0.004862541 0.14147988
79 0.37020528 -0.070779614 -0.4616855 -1.1020198 -0.34802434 -0.41838196 0.6164342 0.29669282 -0.15371236 0.9241977 0.32861695 0.26423734 0.10776684 0.14694773 0.47377753 -0.5828826 -0.014543432 -0.29524612 -0.47382894 0.6478695 -1.1414329 0.056402963 0.3664296 -0.018926417 0.51351964 -0.23980384 -0.39330608 -0.21169782 0.08949193 -0.59768105 0.44004825 0.16106382 -0.067096 0.30407515 -0.24451306 -0.3156596 0.48727995 -0.10853085 -0.0067356494 0.3850346 -0.20145379 -0.109638736 -0.24640517 0.03180579 -0.16848011 0.26835594 0.13064924 -0.28131506 0.26667663 -0.09395495 -0.058612213 -0.3236795 0.33671427 0.07909565 0.5776075 0.14665368 -0.2449444 -0.0835702 -0.4198482 -0.60441524 -0.033524018 0.3513148 0.16079026 -0.25701952 -0.41917357 0.14671992 0.40967184 0.020782864 -0.056814205 -0.096472055 0.36375266 -0.42787364 0.24892294 -0.109863564 -0.12748903 -0.33079195 -0.061200332 -0.3706246 -0.049819164 -0.06830027 -0.08135382 0.12305005 -0.30706862 0.28312185 0.013361498 0.33232605 -0.06427771 0.50377 -0.3244458 -0.26091182 0.05484807 0.10006248 0.06558301 0.47237912 -0.108238526 0.020543747 0.21916169 -0.5376552 0.2955586 -0.48200893 0.32691756 -0.14666273 -0.8270563 -0.33483592 -0.174491 0.0028127895 0.037182447 0.18446955 -0.6917448 -0.064060286 -0.0010566496 0.21786155 -0.098608166 -0.07470474 0.16550319 0.069859184 0.5199208 0.46083355 -0.3344254 -0.1593268 -0.047797505 0.11459138 0.15806933 -0.22111516 -0.3856829 0.21379264 -0.10063451 0.017867347
179 0.0014017919 0.0029021623 -0.43127713 0.23758215 -0.0690877 0.021329246 -0.19532052 -0.012665663 0.52644265 -0.055440567 0.015179785 -0.16466635 -0.2747771 0.1887742 0.14982074 -0.18596844 0.1287557 -0.13941972 -0.26482406 0.18499364 -0.9062518 -0.23120248 -0.30555177 0.08397793 0.37714118 0.07290253 0.15145235 -0.348025 -0.6363136 -0.3504185 0.6752888 -0.12691137 0.48177496 0.164515 -0.41803822 0.27207124 -0.16879235 0.4256897 -0.058492992 -0.009763074 -0.5409822 0.4634495 -0.50654423 -0.424475 0.37482756 -0.5667985 -0.03681434 0.23792957 0.12680258 0.26085332 0.29833397 0.7957665 -0.15357295 0.5841619 -0.022655902 -0.06023702 -0.3334383 -0.054853734 -0.17929429 0.26709682 -0.8655408 -0.55504006 0.45697242 0.33240753 0.37725317 -0.029943286 0.17861567 0.38230452 -0.3333501 0.1413 0.12788247 0.34945104 -0.25874338 0.19407538 -0.39328486 -0.37483254 -0.35187748 -0.546724 0.009063473 -0.30078763 -0.38146392 0.32698762 -0.20349018 -0.25695822 0.17705742 0.1635552 -0.21161398 0.7038008 0.08192306 -0.3634802 0.23726353 0.036496054 -0.13475373 0.6002373 -0.08436434 0.48298848 0.22332561 -0.6789211 -0.03887196 -0.18290389 -0.013179542 -0.46013477 -0.6853052 -0.34388387 0.07048392 -0.26957226 -0.31403053 0.0024465895 -0.3190398 -0.7234967 0.42258063 0.21068762 0.0844899 -0.61901945 0.3115842 -0.10214813 0.33745638 -0.2461897 -0.082199804 0.46073458 0.4902608 -0.0011086143 0.2683768 0.2678195 -0.11309501 0.2070612 -0.15200566 -0.32220975
175 -0.028915143 -0.10525583 -0.36614212 0.28756326 -0.121761635 -0.14129241 -0.25831705 0.015822466 0.6556063 -0.03273421 0.080775015 -0.08323905 -0.18886928 0.37838566 0.17262727 -0.18014891 0.060055472 0.025794562 -0.24956262 0.18906061 -0.70856184 -0.16770156 -0.42471167 -0.07189221 0.3214698 -0.107570775 0.17093383 -0.37772593 -0.5254919 -0.40256613 0.70277655 0.027939701 0.48142946 -0.043149136 -0.42128497 0.2488519 -0.050038 0.37498525 -0.09817902 -0.07513675 -0.5194156 0.34898493 -0.48742136 -0.4615981 0.40648893 -0.6420705 0.031295966 0.158344 0.15034793 0.21641597 0.3132087 0.49486193 -0.21208932 0.39811122 -0.117328286 -0.10988654 -0.42738795 0.072394535 -0.06579355 0.19333081 -0.71117175 -0.5521498 0.4241903 0.29968318 0.2894932 -0.2021645 0.06208792 0.17932326 -0.44833535 0.19630906 0.07282438 0.3075571 -0.26093757 0.17183158 -0.37414902 -0.3480739 -0.3646279 -0.5345828 -0.1396904 -0.19727382 -0.51493615 0.3659824 -0.40462872 -0.23208828 0.13624504 0.0556772 -0.14766632 0.76957804 0.18456948 -0.32956266 0.26316682 0.120267265 -0.11844447 0.65069705 0.05363461 0.5020468 0.098159835 -0.7300014 -0.057724446 -0.30250317 -0.13164803 -0.5145817 -0.53712547 -0.30809858 0.16908756 -0.27664676 -0.20013851 -0.003945611 -0.38100487 -0.56353897 0.46686167 0.19238493 0.065639906 -0.81399 0.20693995 -0.18793707 0.46686295 -0.051868904 -0.061577376 0.4862905 0.40241396 0.10757028 0.37531185 0.27364084 -0.15681374 0.31170967 -0.12525597 -0.21648023
