222 128
154 0.5790214 -0.2463964 -0.09966009 -0.33276963 -0.12526774 0.26237413 0.37504652 0.7172768 0.1640953 0.5538516 -0.88614684 0.2926575 -0.4386705 0.13370061 0.19017369 -0.23325218 -0.09595971 -0.12085738 -0.30562842 0.13216116 0.3921868 0.04686372 -0.31210303 0.44209707 0.3935923 -0.112718605 -0.41787308 0.2543475 0.51488703 0.56909597 0.0847927 0.20991206 -0.58464766 -0.5456503 -0.04725862 0.0048588943 -0.36275947 -0.32192194 -0.3245874 0.08025375 0.048189335 0.1729335 -0.74804485 0.086690426 0.26719055 0.14458497 -0.6382769 -0.23713605 -0.07471078 0.17986953 0.6389777 -0.4313781 -0.19522074 0.19337688 -0.1847504 0.37326688 -0.35565722 -0.07506884 0.23434637 -0.052928217 -0.24254714 0.3519263 -0.2324303 -0.042652875 -0.45300445 0.71448934 -0.04945278 0.18598157 0.11074561 -0.14113161 -0.119498014 -0.06426673 0.1914383 0.0603236 -0.45041117 0.46815845 -0.18679392 -0.81123805 -0.34144217 -0.38558856 0.17574261 -0.024015112 -0.81403595 0.5947251 0.64398056 -0.09305528 0.42156613 0.42581716 0.16829841 -0.7097967 0.18977895 -1.2701187 -0.24493128 0.36496747 -0.1489244 0.6040632 0.4716418 0.13820599 0.6544257 -0.19536974 -0.052041996 0.49507186 -0.37978625 -0.25082827 -0.2454378 0.31533638 0.33368096 -0.5546996 0.04695252 0.022430776 0.26933634 0.25144646 -0.21840262 -0.6925176 0.057604756 -1.1078017 -0.5629583 0.730104 -0.16850366 -0.60882 0.4882496 -0.32789192 0.29373953 0.42344806 0.8028331 -0.251284 -0.3806677 -0.7973358
153 0.6899653 -0.25096864 -0.01129222 -0.33302024 -0.08872315 0.29043907 0.3865399 0.74485314 0.23361912 0.50686747 -0.8162218 0.2677547 -0.38699028 0.110387355 0.10935293 -0.28736508 0.03300013 -0.21730343 -0.25180635 0.14037222 0.5160226 0.124051616 -0.3545651 0.57554126 0.31679547 -0.024553971 -0.21729355 0.23709601 0.55602014 0.54950404 0.01273173 0.18711084 -0.606188 -0.48514375 -0.07343661 0.11401355 -0.27359772 -0.26470718 -0.27260268 0.08899524 0.038518067 0.19826664 -0.75021124 0.17655979 0.15306364 0.124304675 -0.6519306 -0.092356324 -0.03297244 0.108789824 0.5031394 -0.32067767 -0.2154082 0.28102693 -0.22760312 0.3307867 -0.31497315 -0.19762366 0.15887038 0.016209742 -0.26358297 0.41084856 -0.3179599 0.035184417 -0.39820403 0.6581259 -0.0406788 0.20992593 0.19816612 -0.11719961 -0.05061274 -0.12928835 0.21691573 -0.03510044 -0.54753655 0.5875946 -0.19038323 -0.81577307 -0.33951876 -0.3716751 0.12569517 0.11294276 -0.8047177 0.70138466 0.5980094 -0.12731545 0.25361896 0.3959557 0.20878394 -0.7683176 0.30913824 -1.2194686 -0.34199914 0.3324572 -0.117347784 0.6322389 0.49999076 0.033414755 0.6451481 -0.23387878 -0.22161536 0.67034125 -0.3354867 -0.2351534 -0.2693173 0.2503859 0.42723668 -0.4727863 0.15075487 0.12846257 0.17275299 0.35412505 -0.17070846 -0.5674537 -0.08986704 -1.232016 -0.48624775 0.8082113 -0.101870336 -0.5313183 0.5105083 -0.34116766 0.37180343 0.36599487 0.8153434 -0.25387 -0.33861774 -0.77863306
219 -0.5029467 -0.576994 -0.40702844 0.18367828 0.8652637 0.78554326 0.3656936 0.9156189 0.49786016 0.2509174 0.085017525 -0.05358446 -0.36340004 0.25322095 -0.10746252 0.011167491 0.1964318 -0.46119422 -0.12324039 -0.06651168 -0.4731537 0.043136917 0.45492694 0.5696657 0.4861795 0.16046293 -0.11093939 -0.1158316 0.12113013 0.6168587 0.064021096 0.05522657 -0.22096382 -0.2836217 -0.44455925 -0.02268156 -0.18632637 0.120998986 -0.016817095 0.57375497 -0.29302505 0.58116585 -0.10333797 -0.1793127 -0.40035295 0.07954096 -0.111792974 0.13768505 0.21704093 0.22918093 -0.19562776 -0.04862654 -0.21498597 0.11541056 -0.73173445 -0.5736273 0.12779917 -0.34332842 -0.06461841 -0.13043378 0.2641061 0.5028111 0.3158664 0.353174 -0.45869958 0.3943035 -0.28256264 0.5393743 0.35308537 -0.5963814 -0.39045346 -0.17964862 -0.50279963 0.22237664 -0.09450204 0.097620025 -0.2055101 0.11371417 -0.42411023 0.17548603 0.054074813 0.31201243 -0.18443681 0.2740064 0.32830468 0.13897008 -0.06622775 -0.1807117 0.010200468 -0.099358864 -0.04785485 -0.8155522 -0.061571047 0.33992398 0.25943947 -0.045343913 0.7410502 -0.08355609 0.0934491 0.36669272 -0.103497036 0.8007948 -0.17969944 -0.56491876 -0.5160423 -0.7455437 0.20799327 -0.06527748 0.11340728 0.056367006 -0.22703929 0.2504515 -0.3179241 0.28503206 0.27390623 -0.16928531 0.59869593 -0.0004786658 0.24303234 -0.32848012 0.53364027 0.2744342 0.21147813 -0.44675207 0.01449438 -0.054438706 -0.52330655 -0.046869654
78 -0.17044215 -0.24798882 -0.8383593 0.23884092 0.13883206 0.4146358 0.4971946 0.67383224 0.51424176 0.37897396 -0.3081481 0.18436624 -0.2258169 -0.57887864 -0.38038298 0.35417193 0.44875202 -0.4086882 -0.12689672 -0.033584528 0.15712312 -0.25109345 0.40763152 0.30793858 0.3031089 -0.057912633 -0.2932366 0.2243769 -0.36865366 0.10143501 0.022205675 0.32226732 0.032582104 -0.35756665 -0.7636259 -0.37129262 -0.028241608 0.112591214 -0.1310064 -0.048973937 -0.058351446 0.3935591 0.3668016 0.05585798 -0.3326526 0.525633 0.45889032 0.31920093 0.27136645 0.372006 -0.13634008 -0.46154532 -0.38421768 -0.3436387 0.049643107 0.18791255 0.38023734 -0.3212728 -0.12771094 -0.30442578 0.0015495796 0.33920136 -0.21795875 0.48373505 -0.63822615 -0.07265682 -0.93096554 0.9675044 -0.11724376 -0.049889203 0.0946416 0.19763386 0.331281 -0.0929667 0.16842866 -0.19284464 -0.10879737 0.2508148 -0.0069417786 0.17095359 0.13308595 -0.13239092 0.22413284 -0.27524367 0.8186285 -0.3509977 0.34016955 0.28153145 0.039278973 -0.011873404 0.025069367 -0.9413728 -0.009268906 -0.04789986 -0.047634542 0.61352324 1.0979956 -0.15016575 0.08703937 0.34871602 0.13008574 0.5416522 -0.29029995 0.054614134 0.06750774 -0.65809196 -0.2942332 -0.20307916 0.040909152 0.25488603 0.32284337 0.112490036 0.13168794 -0.5221637 -0.43723753 -0.545121 -0.34054488 -0.34491524 0.04528023 -0.2563752 0.78059036 -0.37948126 0.22654381 -0.054858692 0.034410756 0.7751524 -0.7204415 -0.3957693
66 -0.5334731 -0.061849624 0.23147514 -0.16459 0.43739638 0.24074899 0.2876369 0.39660966 -0.32197067 -0.066683486 -0.17198588 -0.04851789 -0.43140996 0.24953356 0.13780083 0.08037474 -0.25239566 -0.52113837 0.119831994 -0.073896326 -0.23997058 -0.064184345 0.5136277 0.27022558 0.13835572 0.4022425 -0.5641051 -0.1167459 0.5424521 -0.10904069 -0.1062029 0.23080416 -0.19329253 -0.33859292 -0.7231836 -0.4184673 -0.30437604 -0.3989813 0.27565446 0.2908419 0.30427322 0.6099872 -0.14767322 0.3329399 -0.18314332 0.45434877 -0.1168011 0.3996894 0.008986314 0.5766641 0.051565744 -0.61727303 -0.7464568 -0.04300289 -0.15516381 -0.4064356 0.19980483 0.060775116 0.01777209 -0.17943765 0.6351639 0.5164411 -0.48806626 0.25607398 0.2736584 0.16695562 -1.4076024 -0.06489753 -0.19511665 -0.07007595 -0.068213135 0.16106854 0.19141938 0.13848284 0.16164997 -0.29864362 -0.20354475 0.06263854 0.27519205 0.054520987 0.3175473 -0.43287492 0.18350334 0.7287364 1.2318745 -0.096467234 0.34619844 0.9198253 0.17096275 0.16133577 0.1440545 -1.0702566 -0.5242245 0.6330001 -0.019255064 0.5528176 0.8959651 -0.54192346 0.7932376 -0.68258035 0.40388805 0.54791784 -0.050917875 0.18247029 -0.32532173 -0.33427176 0.25147304 -0.5417927 -0.12389896 -0.03798751 -0.25481963 0.3898246 -0.44086424 0.10384993 0.20683847 0.0913477 -0.15596178 -0.26584896 -0.020419892 -0.5643662 0.49122268 -0.51737285 0.18403578 -0.0040888214 0.399163 0.48296973 0.18863617 -0.2159076
218 -0.47200182 -0.6337686 -0.47967625 0.2021572 0.849288 0.6041236 0.37984696 1.0050721 0.4025611 0.3019794 0.15774718 -0.11104183 -0.3345714 0.27009517 -0.109176084 0.11828566 0.16523056 -0.46863547 -0.13796456 -0.06753055 -0.48536092 -0.039893813 0.44161138 0.67141384 0.55653834 0.0747589 -0.058324486 -0.14263153 0.16376114 0.6402346 0.16795634 -0.046833884 -0.18254082 -0.27648354 -0.47443822 0.0031841504 -0.27737853 0.15190966 -0.0611466 0.6640935 -0.20847611 0.67348874 -0.08996296 -0.10255569 -0.33644468 0.10734157 -0.07925492 0.040365156 0.200725 0.17607577 -0.08466311 -0.021102985 -0.17601733 0.078618646 -0.7609441 -0.41174978 0.11943002 -0.47672093 -0.12503499 -0.08181564 0.27727914 0.3734498 0.21128674 0.33731067 -0.49459466 0.39466846 -0.3548365 0.49406895 0.36680096 -0.5447723 -0.3671488 -0.23551498 -0.5302578 0.21304259 0.021133808 0.045153286 -0.21536985 0.15036525 -0.28575125 0.1024338 -0.09412351 0.40243557 -0.19875996 0.31731644 0.3414114 0.055898003 -0.07038259 -0.13369095 0.10110511 -0.03393569 -0.10266704 -0.80103093 -0.09729826 0.39486945 0.3050272 -0.18274586 0.78915346 -0.29563275 0.1612443 0.35475588 -0.19709536 0.819394 -0.13406022 -0.54634637 -0.51901734 -0.763299 0.24323006 -0.21745442 0.15437743 0.10657182 -0.10154259 0.21687853 -0.3481369 0.28146312 0.3775358 -0.27092293 0.64374834 -0.16343865 0.2747823 -0.3500238 0.4894565 0.21511602 0.28761825 -0.48193774 -0.054466292 -0.07122709 -0.5740262 -0.12933241
77 -0.19448927 -0.2615013 -0.73554385 0.25554147 0.18769751 0.38890418 0.53448987 0.7341676 0.6094044 0.38020274 -0.2356478 0.2235358 -0.2495502 -0.6467713 -0.41454503 0.3711713 0.43812257 -0.41336504 -0.03435567 -0.039074227 0.22375521 -0.34959847 0.45413285 0.3070533 0.37546062 -0.103228286 -0.39469513 0.25264245 -0.42398566 0.12615515 -0.009966489 0.25844437 0.0194959 -0.342011 -0.74421316 -0.39269876 -0.036004886 0.17183515 -0.1516314 -0.12884898 -0.0963196 0.53776836 0.35665163 0.041241184 -0.38100064 0.530485 0.41454926 0.34483817 0.28623903 0.31948915 -0.18233137 -0.4366377 -0.3584224 -0.48486298 0.06249012 0.14187549 0.41023344 -0.35639426 -0.15060459 -0.34880358 -0.038744334 0.26985925 -0.19683956 0.5752122 -0.6514521 -0.119250916 -1.0641934 0.9574338 -0.1760355 -0.07668112 0.099410385 0.18953174 0.4325352 -0.0017852625 0.20842665 -0.23010544 -0.12739629 0.16012663 0.009773779 0.13285206 0.14287989 -0.19065355 0.10948144 -0.20598555 0.8779544 -0.4166489 0.2917249 0.2748203 0.078102954 0.054203946 0.011955068 -0.99976027 -0.13118243 0.019544635 -0.09876788 0.65131754 1.0304146 -0.19692561 0.1357555 0.33723572 0.09432973 0.553966 -0.29841086 0.069849364 0.07159865 -0.5223974 -0.18386096 -0.2342263 -0.02394132 0.30628178 0.40515622 0.2039938 0.14443165 -0.5655807 -0.5122839 -0.48389804 -0.30995578 -0.39513823 -0.040872935 -0.3048168 0.80232334 -0.45157114 0.20777358 -0.0430024 0.080708735 0.79532623 -0.7006833 -0.43044022
67 -0.42461348 -0.22808613 0.3232671 -0.07887797 0.38001233 0.47033873 0.24000528 0.45336145 -0.1358341 -0.058466565 -0.13107897 -0.097437814 -0.38682956 0.092423975 0.11850007 -0.065370955 -0.20441616 -0.4705385 0.04582325 -0.03706623 -0.29483017 -0.07311622 0.4506835 0.19217727 0.19429284 0.28213668 -0.572525 -0.22671737 0.4438679 -0.10287573 -0.046729967 0.21103463 -0.23609762 -0.39337912 -0.64919436 -0.32517782 -0.32094857 -0.28616998 0.32498413 0.2660843 0.22003195 0.6345132 -0.25781703 0.27174613 -0.2324519 0.52763605 -0.057032984 0.5081269 0.14759643 0.48345888 -0.04234597 -0.46659392 -0.7614646 -0.04714882 -0.022929866 -0.41594929 0.3083413 0.060944 -0.039960183 -0.17374182 0.5898651 0.53492165 -0.5335247 0.30276275 0.23973443 0.15391861 -1.257723 -0.038883906 -0.11029394 -0.11440721 0.014412643 0.22144839 0.14863673 0.05194043 0.16918136 -0.30382273 -0.17471908 0.17743622 0.241411 0.13927102 0.3368898 -0.37576175 0.2411152 0.74117106 1.1609825 -0.03767731 0.27714425 0.81871015 0.12107482 0.0837522 0.1378951 -0.9804173 -0.5155694 0.59099877 -0.010251125 0.39422125 0.9471336 -0.7449348 0.7335829 -0.64832157 0.40412676 0.5437215 -0.095711894 0.23842676 -0.30095333 -0.27982453 0.18857755 -0.5338001 -0.051970083 -0.15520336 -0.36185002 0.37362376 -0.38583136 0.25586632 0.3065864 0.13653024 -0.3101295 -0.26733312 -0.04877541 -0.5823833 0.547467 -0.53712314 0.051722225 -0.18034923 0.31817758 0.45347586 0.34177613 -0.19538933
105 0.14723028 0.06442879 0.29737678 0.2676347 -0.261162 -0.077090636 0.02440433 0.2349819 0.7554247 0.3888908 -0.16566008 0.16742645 -0.37850124 -0.08258215 0.26546252 0.22035173 0.49788296 -0.3978084 -0.093357325 0.2689113 -0.22136405 0.29878813 0.14784092 0.4743316 0.19267519 -0.075314835 -0.5581217 0.25665233 -0.098968245 -0.15139818 0.59557056 -0.006926012 -0.34960812 0.088143386 -0.075698644 -0.57678896 -0.30330414 -0.08329315 -0.04807316 0.24781425 0.23146757 0.2701264 0.007868656 -0.067136005 0.093600914 -0.32935596 -0.24594776 0.17583963 0.019528689 -0.009901026 -0.060879037 0.034049466 0.052948266 0.15577342 0.08285134 0.6194783 0.028837075 -0.40901047 -0.22188126 -0.3783903 0.6192902 0.04630088 0.21001433 -0.33739606 -0.423085 0.37034097 -0.2493084 0.4360451 -0.1615941 -0.1470849 -0.5069936 -0.43078443 -0.12331292 0.2657211 0.31074253 0.2753525 -0.19829889 0.109126315 -0.053518053 -0.5162087 -0.11478265 0.07535976 0.19774354 0.8103734 0.8926828 -0.4640904 0.4537168 -0.006203455 0.38483945 -0.111071885 -0.14908046 -0.6309065 -0.5043382 -0.059958614 -0.28523105 0.84996 0.6957033 -0.6235008 0.31671327 -0.086365215 -0.11818303 0.13851473 -0.2319891 -0.3543583 -0.16788422 -0.6068652 0.5220901 0.022366304 0.06635265 0.3605583 0.30513868 0.44594324 -0.24881035 -0.24143054 0.1487621 -0.63579166 0.15753706 -0.8850762 0.24965428 -0.23599757 0.43008462 -0.001699401 0.7405943 -0.3093594 0.5919559 0.46590012 -0.43544397 -0.3118979
106 0.22196627 0.119433574 0.20348397 0.26674342 -0.46405622 -0.044460323 0.056030925 0.19383177 0.66416234 0.42199185 -0.21555297 0.18665494 -0.33744907 -0.04601001 0.40344834 0.19506533 0.51382375 -0.4609969 -0.1391829 0.24974649 -0.36752406 0.2955196 0.007092774 0.5214556 0.15210201 -0.13113874 -0.7052847 0.23227967 -0.13880007 -0.17929137 0.5712255 0.0060874373 -0.25967145 0.13835111 -0.15009587 -0.53707546 -0.20989881 -0.13218747 0.0155120175 0.24794938 0.15304267 0.22104223 0.013878242 -0.10085081 0.18497886 -0.2736094 -0.26009646 0.15457043 0.1549056 0.009062856 -0.16468415 -0.06845626 0.07370382 0.052951492 0.040794965 0.7401553 0.011695042 -0.37560597 -0.1791572 -0.28191075 0.6297513 -0.08766084 0.24457262 -0.31423315 -0.4086073 0.45672747 -0.22705151 0.6407749 -0.17950246 -0.1345322 -0.54737365 -0.37946993 -0.14530598 0.33362672 0.36121932 0.33634436 -0.13270763 0.0771103 -0.052734513 -0.46442583 -0.13480161 0.035099268 0.203482 0.6065077 0.9493335 -0.42466795 0.48744065 0.0753919 0.3135618 -0.21162204 -0.2064185 -0.66202 -0.5742704 -0.053860713 -0.22686188 0.8481209 0.74304086 -0.6985359 0.2888627 -0.05202215 -0.011364864 0.07138947 -0.18272573 -0.4125153 -0.26157203 -0.71512324 0.6034435 -0.0064011505 0.0050961436 0.35790682 0.27863947 0.40169907 -0.39650252 -0.2611453 0.033780936 -0.66334957 0.19836569 -1.0367795 0.13899413 -0.2583247 0.41641954 -0.02824764 0.7501192 -0.25608814 0.6750526 0.56489944 -0.48904884 -0.2934246
185 0.05852516 -0.2896052 0.121404454 0.40713432 -0.17718184 0.09199007 0.20970803 0.31208444 0.085962065 0.4142058 -0.6276275 -0.34234884 -0.15041395 -0.33180642 0.0947975 -0.077263385 0.5197915 -0.41238284 -0.046190705 0.027988428 0.4629237 -0.18885033 0.29689714 -0.111956894 -0.11482906 -0.07982688 -0.20441122 0.1798804 0.18975754 -0.008962866 0.14514273 -0.16297917 -0.27388862 -0.088918425 0.011788589 -0.7059588 -0.25913897 0.056485094 0.0051379786 0.5305707 0.053647075 0.109158225 -0.5211969 0.1535704 0.1341498 -0.2314199 -0.41545856 0.4625693 0.2246956 0.45108932 0.20732895 -0.3143081 -0.09054606 0.13177708 -0.08414376 0.22678468 -0.2187366 -0.21815279 0.054835852 -0.15714681 0.025693875 0.77931345 -0.39236513 -0.18905139 -0.6254568 0.5377912 -0.3143072 0.6657605 -0.1845922 -0.7260652 -0.84954053 -0.13778658 -0.061863583 -0.16223556 0.14153747 0.32204974 -0.03638253 -0.44277793 -0.24937676 -0.45445976 -0.24550544 -0.0598363 -0.024715446 0.5291985 0.5484557 -0.0011324043 -0.04911895 0.1436138 0.43533725 0.3532917 -0.0029817398 -1.1563617 -0.5761338 0.23217757 -0.25961557 0.81178474 0.3667087 -0.19693467 -0.23699483 -0.42959 -0.0580064 0.17540494 -0.11866423 -0.24344192 -0.35934588 -0.3729634 0.49355036 0.08041494 -0.5146874 0.07833931 0.17147312 0.69366586 -0.08119297 -0.55985796 0.519689 -0.63019836 -0.23567027 -0.5087429 0.082130626 -0.5830885 0.52920973 -0.07434679 0.4793717 0.033198703 0.7214822 0.059936274 -0.22720405 -0.7806341
186 0.10883361 -0.3039695 0.06408842 0.43709162 -0.2529924 0.095820874 0.21516556 0.28797698 0.0678057 0.24262482 -0.5774123 -0.32677323 -0.18635327 -0.34609804 0.23348466 -0.05617793 0.50495803 -0.4154851 0.007630179 0.05667205 0.5324923 -0.19337848 0.24834694 -0.16903393 -0.05426006 0.022465115 -0.16634187 0.111392125 0.21391658 -0.1423869 0.25922382 -0.21218313 -0.29369164 -0.24637382 0.035320368 -0.7596098 -0.37297204 0.01575315 -0.07001707 0.5228983 0.1278812 0.16871499 -0.5839755 0.087593935 0.24294107 -0.10547185 -0.38681528 0.5397325 0.26374796 0.44802243 0.22033161 -0.37501827 -0.11324927 0.21711041 -0.16454458 0.30428696 -0.24046037 -0.34023455 0.1465689 -0.1203352 -0.016782865 0.8205805 -0.37303162 -0.2308945 -0.6936142 0.5308898 -0.3381293 0.75449514 -0.2045088 -0.6858669 -0.86009645 -0.14036024 -0.14058909 -0.12842612 0.1380716 0.21341507 0.015115056 -0.36005086 -0.23855193 -0.5222623 -0.22069876 -0.05592494 -0.077988155 0.48629922 0.55239886 0.038549554 -0.14193931 0.22478463 0.39887285 0.2947924 -0.03573134 -1.1022137 -0.636869 0.22532769 -0.27656567 0.82331824 0.3811754 -0.2764283 -0.3121069 -0.51991177 0.025859443 0.23586726 -0.15768178 -0.13551189 -0.43619478 -0.538289 0.54899234 0.092389904 -0.49241295 0.0077152364 0.17432716 0.74219203 -0.029731676 -0.6174424 0.5319978 -0.44677952 -0.20906968 -0.5649374 0.06296768 -0.6689425 0.637095 -0.010893548 0.50697976 0.1350014 0.6619419 0.032663923 -0.13304313 -0.74816227
215 -0.34217566 -0.77095735 0.07848357 0.41884357 -0.13147311 0.9328793 -0.13863306 0.43405312 0.8231533 0.23096135 -0.7182324 0.10779476 0.08834613 -0.49957606 0.5604407 -0.032489076 0.19015339 -0.949756 -0.025845898 -0.80760914 -0.11973715 0.042731114 0.5081561 0.14104834 0.18501988 0.1354841 -0.5973091 0.21660969 -0.03413316 0.12718442 0.21965228 -0.3677399 0.08609216 -0.021892972 0.109181724 -0.42585334 -0.4075116 -0.08897707 -0.3627825 0.3385547 0.026759373 -0.020361932 -0.38278672 0.19824743 0.016304418 0.1535117 -0.17318662 0.25097752 -0.13721326 0.54685074 -0.05831914 -0.3078193 -0.5004897 0.30702442 0.2752693 0.13087106 0.5699973 -0.2131887 -0.26486367 -0.06440733 0.5048432 0.966662 -0.16926146 -0.08289292 -0.33546844 0.4911631 0.08124426 0.40852857 0.084201425 -0.3690832 -0.58395463 -0.29062828 -0.09986881 -0.205068 -0.43215665 -0.1900718 -0.18300332 0.26462707 -0.28261527 -0.14433146 -0.14267854 -0.071762666 0.047659542 0.4072926 0.35351834 -0.24980305 -0.24886715 -0.36015666 -0.11488475 -0.15473922 -0.1833218 -0.85825825 -0.3494842 -0.14219974 0.039163064 0.43160564 0.82290757 -0.32677776 0.020150324 0.21735767 0.46088013 0.25682712 0.085347734 -0.3015176 -0.20110083 -0.5252076 0.020135632 -0.3534721 -0.17142628 0.10884022 -0.23293693 0.29321504 -0.36551988 0.1934715 0.1243511 -0.37072793 0.4378769 -0.61307937 -0.06264695 -0.2905913 0.3502056 -0.17115141 0.18391249 -0.61077636 0.38801858 0.12311999 -0.4796544 0.20884901
214 -0.3086694 -0.840542 -0.05507076 0.36682957 -0.22803959 1.1522783 -0.21730572 0.54733336 0.69266117 0.23146142 -0.7285122 0.23484874 0.063101724 -0.445573 0.6490566 -0.118937045 0.28471878 -0.9147111 -0.061232835 -0.6682481 -0.1084709 0.03748606 0.6370162 0.30994838 0.08845774 0.08836267 -0.5410819 0.22132353 -0.010473465 0.19219798 0.14050938 -0.5529837 0.107669935 -0.080729365 0.117931604 -0.3178318 -0.61654156 -0.13425793 -0.3756848 0.4496149 0.12067456 -0.068105966 -0.38058284 0.11246191 -0.15258902 0.1945288 -0.32051706 0.183271 -0.2157937 0.55410737 -0.049525008 -0.26340413 -0.45051345 0.3191302 0.28225997 0.27640194 0.5161391 -0.35399932 -0.06242302 -0.041480783 0.61126465 0.91487676 -0.15114225 0.037104804 -0.33432922 0.6510259 -0.019892192 0.56875247 0.037216745 -0.36315715 -0.66717094 -0.27534992 -0.2915146 -0.0967729 -0.3360212 0.06879238 -0.098289415 0.39263248 -0.29574513 -0.22964804 -0.08465084 -0.0024266194 0.112659715 0.5522759 0.47795486 -0.15623382 0.0026991386 -0.38915434 -0.2187916 -0.119752936 -0.19190691 -0.9663575 -0.38737872 -0.16539745 0.15255783 0.50102633 0.7373324 -0.38215667 0.24189539 0.12910986 0.46658573 0.14581807 0.21436386 -0.12498493 -0.17923585 -0.40332788 -0.05305626 -0.332041 -0.019071009 0.029687814 -0.26009902 0.31263667 -0.42802945 0.28315803 0.023408206 -0.2135198 0.4355075 -0.5577519 -0.08735297 -0.29216602 0.40807816 -0.119529665 0.14250703 -0.5579776 0.41548964 0.13650736 -0.35888994 0.1554667
129 -0.2738806 0.33361122 -0.5601385 0.52315086 -0.42499995 -0.026022544 0.60074925 0.61705357 0.6810232 0.11577491 0.23612852 0.30646247 -0.106696114 -0.32875726 -0.28350326 0.12584934 -0.11642575 -0.039099183 0.11930054 -0.31703442 0.3071279 0.6091158 -0.042542525 0.5628301 -0.26785555 0.18576804 0.29620335 0.04508174 -0.4758064 -0.02232481 0.6771666 -0.792901 -0.26087707 -0.35789993 -0.51321137 -0.03776476 0.0030840694 0.03254981 -0.45911932 -0.17838605 0.018650947 0.2948454 -0.4024685 0.373192 -0.38079292 0.82818896 0.16038936 0.28947282 -0.04451217 0.43930256 -0.6576575 -0.5277384 -0.23391402 -0.24997441 -0.41294998 -0.16077454 0.17338918 -0.31692234 0.13802482 0.122040115 -0.39910507 0.37141025 -0.33427435 0.41624668 -0.27846223 -0.122913055 -0.8821287 0.63240147 -0.52398014 0.27581605 0.039568737 0.43779272 0.034931354 0.046351146 0.055950545 0.18172458 -0.11180718 0.07695542 0.6255229 -0.48282272 0.32586592 -0.27991128 -0.247869 0.41267544 0.577693 -0.2504502 0.057859164 0.23916247 0.008932474 -0.29806688 0.30016416 -0.59020245 -0.37817279 -0.17774683 0.14397702 0.16590558 0.22024293 -0.09426495 -0.32962045 0.14610684 0.14495037 0.547754 -0.3104524 0.28880337 0.6778965 -0.28220135 0.25779322 -0.37766346 0.15785368 0.047057264 0.6739965 0.48299614 0.25253746 0.08252155 -0.99979603 -0.13940473 0.25518972 0.20277347 -0.17455405 0.042682715 0.685502 -0.21225935 0.36623764 0.058231328 -0.30063576 0.18027966 -0.43579122 -0.19931433
130 -0.27743763 0.40596214 -0.5575474 0.48436603 -0.3806361 0.13310574 0.546966 0.62975216 0.6416731 0.14053015 0.20061375 0.23957849 -0.078511715 -0.30797052 -0.23213518 0.080856435 -0.114616126 -0.044961657 0.066868186 -0.39960745 0.26679632 0.45863688 -0.048159026 0.43957996 -0.27427647 0.13870095 0.16574188 0.044080235 -0.48175788 0.014342163 0.8059379 -0.734316 -0.19477272 -0.41969407 -0.4591852 0.062905386 -0.0948354 0.06708418 -0.58023155 -0.21605678 0.0017050459 0.30159816 -0.47607738 0.371668 -0.43060297 0.84452814 0.0805951 0.2822256 -0.035530042 0.35668337 -0.6431972 -0.64742553 -0.2844782 -0.09151245 -0.48034665 -0.20666848 0.14940858 -0.40090415 0.16598263 0.14163394 -0.39427304 0.36573496 -0.3330006 0.38928282 -0.30056968 -0.02179918 -0.93374276 0.5576975 -0.5125033 0.2135153 0.016650682 0.46110505 0.1398726 0.021421447 0.088648565 0.06770899 -0.07777601 0.13585807 0.73350334 -0.34788698 0.42354888 -0.30033615 -0.35255054 0.39714935 0.56897396 -0.14856642 0.03412558 0.24710801 0.09861823 -0.36885923 0.27007172 -0.6002547 -0.40041012 -0.099025 0.147534 0.08424044 0.36123002 -0.15338255 -0.33631006 0.09994138 0.13634437 0.6966808 -0.3499078 0.2501705 0.62221354 -0.18937683 0.26192763 -0.5061897 0.041786484 0.0019216663 0.70002174 0.5045931 0.2901073 0.122893944 -0.9285481 -0.08034058 0.15478192 0.18549183 -0.18940364 -0.09083924 0.72304255 -0.20027797 0.43785402 0.11196793 -0.26530078 0.11782921 -0.36756238 -0.2506229
171 -0.4554237 0.3011694 -0.5290003 0.14220749 -0.28940827 0.44263896 0.7228295 0.040223543 0.56247807 0.5467744 0.09807511 0.16426052 -0.14568388 0.19474092 0.072424 0.06451531 0.20442073 -0.06700103 0.19058865 0.03403489 0.04710265 0.5460384 -0.024832865 0.1661156 0.3544853 -0.45061347 -0.409939 0.3587302 -0.23296061 -0.24648413 0.50444865 -0.31462356 -0.06784323 -0.21010016 -0.9443744 0.5998419 -0.03635344 0.058568317 -0.6290311 0.8419304 0.3643825 0.5590335 -0.75079703 0.31533077 -0.6155742 0.61293614 -0.19000757 -0.2088636 -0.32558373 1.1187253 -0.13412389 -0.82150686 -0.26623553 -0.2780906 -0.17079167 -0.3060398 -0.08633592 0.007003667 0.015788397 0.5899869 0.2086122 -0.15987356 -0.28664598 0.41007897 0.41498718 0.25928652 -0.86834973 -0.318842 -0.01383733 0.2812262 0.1842301 0.16477965 0.30486128 -0.28074625 -0.17016207 0.0304393 0.026906827 -0.28779483 0.16008425 -0.32095602 0.43526357 -0.6418183 -0.016446982 0.55312973 0.30496722 0.19943406 0.5419315 0.71790975 -0.028068632 -0.7970396 0.45345414 -0.44762233 0.026831517 0.17117283 0.44537833 0.051584497 0.17012313 -0.4991786 -0.26403457 -0.44208336 0.6117056 0.3303723 0.0826034 0.30040058 0.040879425 0.12660235 0.3560072 -1.0525912 -0.2505892 0.18030319 0.08763581 0.80602974 -0.44822565 -0.04587581 -0.10088669 -0.20658603 -0.03436649 -0.26891926 -0.20154047 -0.68433076 -0.1678719 -0.4312903 0.5901262 -0.06873029 0.06721746 0.55426186 -0.71127295 0.15091431
170 -0.32895547 0.3537779 -0.37638196 0.14661217 -0.14642762 0.37548092 0.67063165 0.00084313756 0.5376391 0.62358785 0.11681002 0.06759939 -0.24752598 0.1612223 0.044683512 0.15352641 0.17884837 -0.10748825 0.2371443 -0.006884227 0.15628363 0.59436196 -0.041733928 0.14011684 0.2666555 -0.47562945 -0.37621683 0.3763181 -0.23601589 -0.17556222 0.48530462 -0.30686703 -0.14643018 -0.18951875 -0.94776565 0.6059666 -0.041903418 0.08888829 -0.64186 0.82798487 0.42244887 0.5431648 -0.7918335 0.29924485 -0.6327172 0.5245821 -0.23043874 -0.20208108 -0.2957076 1.087094 -0.24755976 -0.83669335 -0.2934925 -0.27485585 -0.17591363 -0.30581334 0.0009160514 0.034889504 0.035449658 0.6703781 0.15140453 -0.18913189 -0.26961222 0.34141147 0.41772032 0.27130342 -0.9216359 -0.35610917 -0.17387496 0.1916941 0.14312327 0.18762878 0.27100515 -0.25936878 -0.19528691 0.08093622 0.0007378887 -0.2587282 0.30412316 -0.30308333 0.3887393 -0.56342757 0.07865259 0.5588984 0.34052742 0.23347427 0.5665813 0.66749364 0.03334209 -0.7710507 0.39358768 -0.5067614 0.08340653 0.11198375 0.45447978 0.12982415 0.235206 -0.39327317 -0.30793428 -0.44487384 0.65465486 0.4017951 0.14878301 0.33653057 0.053740487 0.2222032 0.32366264 -1.0142004 -0.21773566 0.10322997 0.18804882 0.82365847 -0.47528055 -0.022031968 -0.10438931 -0.2371207 0.039727453 -0.20174967 -0.18700694 -0.6259903 -0.14591675 -0.47464463 0.6981236 -0.15903975 0.17683437 0.6283052 -0.68652344 0.04547087
182 0.05659732 0.6980526 0.24907883 -0.044110164 0.4007818 0.5221705 0.42807838 0.425299 -0.030234152 0.1789978 0.37739196 0.36236316 -0.47218597 -0.12876874 -0.24608451 -0.12658688 -0.31055406 -0.16854793 0.051869605 -0.64811116 0.6266303 -0.3195656 0.06599042 -0.3389614 0.10555931 -0.12185751 -0.6390942 0.22834124 0.3213813 0.62571883 0.13362826 -0.33604586 -0.3624239 0.1302487 0.012907472 0.067008905 0.08696876 0.085821584 -0.5363778 0.30669203 0.18323857 0.48116732 -0.30203685 -0.2836941 -0.737021 0.7955331 0.58935994 -0.79711986 -0.009724561 0.58526045 0.5473082 -0.578517 -0.18242307 0.1607859 0.1039058 -0.01238896 -0.10619422 0.06024971 0.19272088 -0.45575297 -0.048078444 0.12130909 -0.4342834 0.17396984 0.14707586 -0.20710258 -0.76606023 0.011869792 0.031054514 -0.34387568 -0.3630775 -0.090008296 -0.67105734 0.20437959 -0.1052813 0.51105493 0.22070122 0.13892241 0.3070762 -0.21241167 -0.1402707 0.15404114 0.0047878 0.39589563 0.4168497 0.098753594 0.3630108 0.23982185 0.38354096 0.41119272 0.31127673 -1.0729197 0.09007728 -0.10689011 -0.019648325 0.6009962 0.30016536 0.0053926907 -0.34909475 -0.035030812 0.64242405 1.0163158 0.29092205 -0.10975758 0.09994195 0.09439955 0.43407518 -0.57012177 -0.22363631 -0.081868336 -0.019489024 -0.159617 0.4601585 -0.63495946 -0.4323894 -0.39872032 0.44854483 -0.23156257 0.3426186 0.107571855 0.06907297 -0.0015997288 0.05577853 0.6440173 0.43408176 0.33371055 -0.5123215 -0.2421143
181 0.1828159 0.5594555 0.27624154 -0.0734905 0.36651623 0.5647965 0.43224356 0.5864897 0.06552968 0.15490901 0.39993814 0.2804133 -0.49153504 -0.25918356 -0.34565845 -0.27418628 -0.2643575 -0.10000826 0.002021068 -0.66340387 0.4562743 -0.36822197 0.06316094 -0.35494223 0.12091264 -0.21539512 -0.7569764 0.22235303 0.35293674 0.65863955 0.20895472 -0.39362532 -0.38826865 0.18317373 0.041719344 0.16426852 0.13051978 0.11952581 -0.49662748 0.32966694 0.20287271 0.5647721 -0.3498728 -0.17253797 -0.79445785 0.8533802 0.6268792 -0.76221544 0.097134806 0.5211303 0.5440528 -0.54432046 -0.19209908 0.11384959 0.11695953 0.04951829 -0.039510146 0.027941717 0.15987365 -0.4936556 0.025227625 0.13705932 -0.48461205 0.22258466 0.043343127 -0.23953451 -0.70794386 0.08172421 0.024266897 -0.43135563 -0.36052993 -0.11121371 -0.7843561 0.13902152 -0.078385495 0.5834321 0.17244083 0.23488362 0.24976858 -0.27008513 -0.24235827 0.24471423 0.086416095 0.42474857 0.48846877 0.0734269 0.3393716 0.25839347 0.47446418 0.39833114 0.33557338 -1.1018949 0.15478286 -0.17218736 0.0062556337 0.47802475 0.3755988 -0.08063903 -0.47556883 0.11006744 0.790145 1.0341201 0.29052627 -0.09312931 0.11769391 0.11513641 0.4128777 -0.69669825 -0.1576482 -0.14254293 -0.004639571 -0.23901021 0.47513297 -0.6256857 -0.28228214 -0.4883945 0.38322473 -0.23269686 0.34455624 0.1088174 0.10806931 -0.043833844 0.0015345551 0.6090173 0.3362282 0.28514054 -0.53968716 -0.3502539
193 -0.3103464 -0.1772538 0.09041719 0.3004237 0.05773288 0.13549586 0.42901152 0.3915291 0.6105954 -0.23389673 0.010428614 0.13768514 0.22292204 0.35702914 -0.29089502 -0.01656695 0.0418654 0.15364382 0.32402635 -0.24234277 -0.16808651 0.07840229 0.35928693 -0.031604473 0.038357515 -0.34328127 -0.26494342 -0.049705796 -0.52598035 0.12693273 0.16142462 -0.18996319 -0.012853767 -0.31752902 0.5472225 0.20639974 -0.3494567 -0.039152548 -0.14392261 0.046721123 -0.057596367 -0.052013516 -0.1636097 0.1849422 0.0049070683 0.54685336 0.32250625 -0.3291231 -0.12229246 0.1584917 -0.33497173 -0.12693758 -0.218292 -0.57694733 -0.49756128 -0.21875094 -0.23933262 0.4020182 0.20763794 -0.08507054 -0.13317895 -0.08194955 -0.19799349 -0.13500182 -0.029503094 -0.16141088 -0.083055384 -0.13542375 0.05343369 0.058650605 -0.164533 0.09050673 -0.61404926 0.4817513 0.21582647 0.085409544 -0.15263487 -0.100699626 0.21659356 -0.17104575 0.07468396 0.14079052 -0.33078548 -0.15306605 0.3740053 -0.02102142 0.42390072 -0.3361854 0.19845474 0.60731834 -0.08074001 0.24565962 -0.2528685 -0.16954319 -0.44066507 0.23896122 0.28346884 0.14805329 -0.113379434 0.07707424 0.022069693 0.021687005 0.57990444 -0.29522127 -0.25851482 -0.10664721 0.42165923 0.16015336 0.0075279404 0.18772277 -0.2772576 0.11877073 0.032613523 -0.39715895 -0.35608783 -0.73826736 0.62406296 -0.45624587 -0.21725956 -0.099705555 -0.100491256 0.17154178 -0.06722532 0.13564478 0.47358593 -0.0663306 0.14172426 0.032691553
192 -0.28740093 -0.056809958 0.091548875 0.21410774 0.012287382 0.0837312 0.73274755 0.43456694 0.6882008 -0.19309855 0.14050348 -0.09058443 0.20847306 0.20421268 -0.22756326 -0.057887793 0.31190163 0.08722954 0.33498034 -0.14069058 -0.071495436 -0.081454605 0.34689462 0.109879754 -0.027168311 -0.32910904 -0.25818908 -0.00660186 -0.5707781 0.21493042 0.2378039 -0.10968582 -0.09462483 -0.30887312 0.5778908 0.15213975 -0.13517213 0.053014718 -0.14623274 0.026716039 -0.07056476 0.004516962 -0.29392183 0.19075167 -0.10560403 0.506807 0.2366486 -0.42850786 -0.031943552 0.25955567 -0.46360344 -0.25257376 -0.110578895 -0.5313455 -0.49778864 -0.26519537 -0.26367018 0.5658104 0.26395577 0.021155646 -0.26088583 -0.11959031 -0.11179428 -0.13486156 0.02435425 -0.15721992 -0.12308342 -0.10226279 0.08589625 0.09405138 -0.10502413 0.12434551 -0.6098866 0.4993327 0.2298437 0.11828474 -0.038679566 -0.26370874 0.0743605 -0.2669233 0.14599904 0.17427453 -0.2288109 -0.128417 0.42186964 -0.08106769 0.5660806 -0.2337175 0.12773666 0.5755621 -0.15771732 0.26263604 -0.16324832 -0.17517295 -0.42135167 0.37295166 0.31534055 0.26801562 -0.16294922 -0.1048525 0.14544351 0.15566674 0.6800426 -0.24659884 -0.20463765 -0.10537325 0.51530886 0.21460402 -0.047590215 0.051457953 -0.37186614 0.0904278 0.18221071 -0.47605813 -0.49344856 -0.67270267 0.5997075 -0.4608637 -0.17263253 0.06993078 -0.11694051 0.014637888 -0.15966877 -0.0010948356 0.59178656 -0.028310286 0.2456837 0.08282328
190 -0.25034258 0.10287158 0.07458089 0.13703996 -0.012843357 0.25787836 0.5215894 0.36118206 0.6796592 -0.16647443 0.041071963 0.00988537 0.18940058 0.25307682 -0.12629166 -0.10253554 0.07308819 0.089810036 0.2669493 -0.2315679 -0.025270993 0.052826863 0.4667483 0.12917615 -0.013288514 -0.31786153 -0.39988622 -0.068563804 -0.63375306 0.30461565 0.07673641 -0.20682576 0.049306378 -0.287584 0.61977106 0.22700714 -0.18387613 -0.026404966 -0.13779484 0.031462457 0.1441592 -0.04036337 -0.17479724 0.11906433 -0.13450044 0.56166863 0.31869915 -0.11294835 -0.14271669 0.23259124 -0.44057876 -0.22315983 -0.17406388 -0.5296044 -0.59782815 -0.20749658 -0.43975928 0.44830817 0.29931134 -0.05230358 -0.33435085 0.021733169 -0.090992756 0.12545687 -0.056542654 -0.1305887 -0.059025697 -0.04553827 0.2132781 0.14541791 -0.2854139 0.003978938 -0.6868052 0.4552195 0.16541502 0.102513365 -0.09975382 -0.11163551 0.11338059 -0.19276917 0.16928253 0.12975523 -0.2936676 -0.26626977 0.43836668 -0.14827159 0.5211427 -0.2530053 0.15234272 0.5236526 -0.1094682 0.3268723 -0.26641318 -0.11460862 -0.41069055 0.30369836 0.26338178 0.1768008 -0.07830985 0.07070016 0.10824219 0.05798655 0.6468255 -0.4309545 -0.14395152 -0.15232474 0.45138124 0.30900076 -0.11332382 0.17129871 -0.33530548 0.13293353 0.1755925 -0.6485385 -0.4602061 -0.7854427 0.51098084 -0.53057134 -0.22133006 -0.1266174 -0.13671893 0.23639473 -0.0629951 0.17230017 0.5430526 -0.00349924 0.28182334 0.12704818
191 -0.35711408 -0.023911998 0.059962675 0.19447866 0.080516405 0.23937304 0.6465533 0.44139555 0.54473907 -0.27922285 0.25209564 0.032228373 0.18044928 0.2616019 -0.23274598 0.005892188 0.039869204 0.11000772 0.27035585 -0.19295995 -0.15343407 0.009883497 0.42313534 0.10948368 0.006577868 -0.16194366 -0.08439391 -0.067002594 -0.5848782 0.19518238 0.19260544 -0.21369776 -0.15092614 -0.4227829 0.68599874 0.15547866 -0.10479103 -0.079395406 -0.21646632 0.14382493 -0.06694739 0.007926463 -0.27275267 0.24312678 -0.12431651 0.7771212 0.36002624 -0.36828926 -0.056022905 0.19445172 -0.33989716 -0.22258256 -0.053607065 -0.6017845 -0.5814129 -0.33118406 -0.31202596 0.41096044 0.17705862 -0.048088502 -0.2849473 -0.041613627 -0.117886126 -0.026532736 -0.10011176 -0.14147963 -0.059186224 -0.09326427 0.15940106 0.063224584 -0.09024062 0.02848771 -0.65115976 0.51332164 0.284841 0.10444917 -0.003006693 -0.20005693 0.06732262 -0.279737 0.20928442 0.09778539 -0.27692026 -0.19594166 0.37410697 -0.088171184 0.392584 -0.24984403 -0.007956853 0.4719453 -0.06778725 0.39791852 -0.34251845 -0.097613394 -0.43302554 0.23988631 0.28177187 0.14104736 0.04585379 0.068453476 -0.016001321 0.15099776 0.6145342 -0.38789225 -0.30659455 -0.20177399 0.5433126 0.12489735 -0.11166405 0.10634899 -0.357172 0.11494513 0.18325616 -0.4420355 -0.36990148 -0.8254072 0.5645162 -0.48493275 -0.15411323 -0.00082982535 -0.20307702 0.11862188 -0.1679148 0.08390997 0.5413044 -0.06767612 0.17872408 0.19918463
150 -0.76312786 -0.72982484 -0.18250842 -0.12978409 0.15416351 0.96134937 0.39454478 0.57818174 0.5083249 0.21543208 0.004841142 0.18436497 -0.3307501 0.36164802 -0.049437143 -0.029768435 -0.37161854 0.19930394 3.666403e-05 0.24469154 0.079829454 -0.20105962 0.006482668 0.10813336 0.58147925 -0.18347476 -0.3877806 -0.07186705 -0.028817324 0.599711 0.1027771 -0.16630396 -0.07648378 -0.07724113 0.27289665 0.0048315674 -0.19928353 0.40627939 -0.30433282 0.47259662 -0.107196 0.44480288 -0.36196578 -0.18891802 -0.0730777 0.67226285 0.077799916 -0.30333138 -0.11246971 0.46663603 -0.07731492 -0.111556605 -0.07306435 -0.44411248 -0.32422936 -0.12560846 -0.13968354 -0.10338111 0.030865688 -0.256688 0.29012063 0.13353476 0.25130656 -0.25806907 -0.6920244 0.029607298 -0.0010206437 0.13004884 -0.26802728 -0.16535576 -0.57533073 0.20016669 -0.7840299 0.30807623 -0.28542954 0.19679233 -0.31022418 0.4713227 -0.37368578 -0.43362522 0.11532478 0.121004514 -0.2246218 0.30508396 0.34195054 0.0029308544 0.38271967 -0.6624494 0.3034862 -0.039137542 0.29545972 -0.59661746 -0.21827407 -0.02106621 0.20856795 0.35711676 0.36404184 -0.032190654 -0.52062523 0.45334646 0.324859 0.3661458 -0.1425564 -0.12813039 -0.14560595 0.17709787 0.2094524 -0.36866736 0.05442643 0.16531187 0.094297394 0.19797625 -0.36396122 0.21447548 -0.26174495 -0.117654555 0.39169633 0.11918219 -0.10660631 -0.12526563 0.23487335 0.42191917 0.19764052 -0.1525027 0.30524683 0.019153737 -0.16447768 -0.1752582
149 -0.85529584 -0.6932189 -0.13490117 -0.09093002 0.11412555 1.0043831 0.48075542 0.51087654 0.5894831 0.29764342 0.005700976 0.13852574 -0.31738418 0.49793726 0.0023969822 -0.11820499 -0.3489036 0.10597161 -0.05125212 0.18467104 0.053610723 -0.28111848 -0.014067826 0.033288002 0.50497967 -0.22017863 -0.3246896 0.0025922444 -0.14604557 0.4762513 0.19657424 -0.28437334 -0.20189548 -0.093409196 0.2466271 -0.10317482 -0.032740284 0.51197565 -0.28743252 0.4472401 -0.13981417 0.53998095 -0.40853733 -0.166507 -0.13088974 0.648619 0.006086631 -0.30440673 -0.08519176 0.4691768 -0.047560655 -0.0010453778 -0.01769375 -0.38241494 -0.3913921 -0.2538568 -0.02382459 -0.12354558 0.024448484 -0.2342624 0.33668286 0.15740773 0.30440912 -0.35778934 -0.6109415 0.11895219 0.040274963 0.2980277 -0.27786812 -0.28715253 -0.53114784 0.31831416 -0.74631965 0.4335173 -0.3111801 0.15937725 -0.35979766 0.49079308 -0.43630922 -0.42748174 0.30104628 0.02319168 -0.22955243 0.23090342 0.28890306 -0.0612548 0.35104093 -0.5739955 0.21634 -0.05368335 0.21968718 -0.71377146 -0.17367244 -0.002752638 0.10374364 0.42324865 0.3392858 0.050567165 -0.60831517 0.4310705 0.46662655 0.42731735 -0.17509475 -0.0894577 -0.20780616 0.08172063 0.28063485 -0.37162024 -0.065011665 0.07944833 0.062459562 0.26944363 -0.31839892 0.28588927 -0.39089838 -0.18783066 0.39742374 0.089666575 -0.015852705 -0.17825654 0.30585992 0.40696192 0.09757466 -0.042574923 0.41885707 -0.03728064 -0.19701605 -0.20415716
161 0.4928998 -0.31534743 0.37184682 0.48039004 0.11995975 -0.35637364 0.25499362 0.5236127 0.57014936 0.11233973 -0.13566275 0.1884422 0.64977056 -0.29445574 -0.21195477 -0.25424677 0.15270184 0.28161532 0.2695565 -0.12336769 -0.18810757 0.33924967 0.04931969 -0.26567245 -0.22010086 -0.37255004 -0.09878323 -0.11629199 -0.2929245 0.22720087 -0.27699158 -0.079108894 -0.033709146 -0.33384216 0.1515524 0.15527414 0.21077038 0.060596302 -0.42679024 0.16531126 0.20626736 -0.17631362 -0.093270436 0.38689244 -0.15855029 0.86616683 0.08751697 -0.07974266 0.34693125 0.18694958 -0.32001075 -0.26866943 -0.36935037 -0.18569294 -0.25635806 -0.63697684 -0.0038671985 0.1783034 0.65370965 -0.31040597 -0.09120979 0.28454298 0.08760829 0.30853453 -0.56632555 -0.2826568 -0.05967629 -0.26442307 0.090416044 0.07363629 -0.083089024 0.5117539 0.24909243 0.13495603 0.06604238 0.0382122 -0.46333376 -0.11902734 0.255313 -0.21201152 0.23149703 0.062896624 0.032945078 -0.3589312 -0.019429505 -0.23816824 0.42853218 -0.27231348 0.24538559 0.43872535 0.11771303 0.069381885 -0.21495849 -0.37217948 -0.3375895 0.3841401 0.4113083 -0.25674087 0.15774578 -0.03915177 -0.26905215 -0.16762236 0.3784551 -0.13133991 -0.3516932 0.2503292 0.30159938 0.546946 -0.12564692 0.09786069 -0.55581474 -0.04806738 0.4881246 -0.21084735 -0.24826738 -0.75261915 0.0106342705 0.05683567 -0.22297394 -0.53475845 0.028507845 -0.26599565 -0.15552117 -0.23046634 0.4031686 0.15825596 -0.039738785 -0.17270611
79 0.11969744 0.079479784 0.025193283 0.39332488 -0.25443283 0.7672364 -0.23330314 0.63065207 0.7348791 0.5809881 -0.22206342 0.9250082 -0.11276596 -0.6871813 -0.6908006 -0.32218313 -0.27285922 0.40519983 -0.3923305 -0.20741355 -0.12551625 0.20753448 0.43983653 -0.02592191 0.42646506 -0.06633052 -0.12827148 0.12946202 -0.61960304 0.29546073 0.8008922 0.14044718 -0.14167053 -0.4514288 0.08544369 0.41744772 0.014518137 -0.1650648 -0.5530585 -0.29914236 -0.04019889 -0.45527455 0.07183129 0.37129375 -0.5103848 0.31847543 0.29656643 0.23892395 -0.23005128 0.15992102 0.014952229 -0.02197853 -0.75866395 0.34896255 0.07557953 -0.61267745 -0.09505623 0.20987146 0.18897238 -0.008794896 -0.2226858 0.2071269 -0.040179595 0.30958948 -0.40534967 -0.19391817 -0.28293526 -0.44599882 -0.121482864 -0.04596193 0.19671151 -0.24078399 -0.07536309 -0.29112267 0.1360824 0.59906757 0.1208508 -0.11576622 0.16529223 -0.32873365 0.25736305 -0.06845972 0.16752064 0.08019317 0.0858304 0.05590557 0.60269725 0.34992966 -0.2772214 -0.108588755 0.38848197 0.7122921 -0.0105085075 0.1950508 0.0034932098 0.95668775 0.5612293 0.18356675 1.0982765 -0.096963204 -0.4537595 -0.21693511 0.030313298 -0.39917016 -0.21181183 -0.09559989 0.06693918 0.3497513 0.49231595 -0.49342817 0.058975767 0.26584068 0.46393558 -0.34072486 0.7588203 -0.39336944 -0.21148095 0.22141726 -0.06201737 -0.14400035 -0.19861491 -0.53639084 0.2105772 -0.36695105 0.45558262 -0.0065098926 -0.49265766 -0.3108413
80 0.22296374 0.0002250117 0.1601628 0.51357514 -0.42325324 0.8891021 -0.36174038 0.6903644 0.7783262 0.5031059 -0.22430196 0.9437598 -0.088575736 -0.69181746 -0.7065261 -0.35298604 -0.16351117 0.40824366 -0.45391968 -0.46510455 -0.23372452 0.044574432 0.30853373 -0.015480258 0.4278291 -0.24082237 -0.10269123 0.0068954662 -0.67009866 0.43921012 0.7455812 0.09684859 -0.22622663 -0.564726 0.24856743 0.58867866 -0.13791798 -0.24721482 -0.5622841 -0.26967344 -0.09874378 -0.5023391 0.15178521 0.26099977 -0.60517776 0.3867597 0.34434184 0.10928806 -0.23319368 0.11342998 0.12545924 0.005564874 -0.72811174 0.42774516 -0.0015543586 -0.81684244 -0.17155011 0.1684463 0.27186924 0.006136075 -0.21370131 0.028604755 -0.09939195 0.2759759 -0.3696711 -0.3504363 -0.3592293 -0.38902158 -0.22544533 0.017786112 0.23808885 -0.11265783 -0.13775623 -0.14168127 0.07329572 0.6382942 0.053497862 -0.18076007 0.10354613 -0.26181135 0.17075765 0.02994292 0.23785883 0.014375426 0.33195043 0.049870145 0.5625134 0.32761338 -0.35152656 -0.158129 0.26745692 0.7230065 -0.14979094 0.23069909 0.1677209 1.0355065 0.44635254 0.12699229 1.2022535 -0.32787335 -0.4816239 -0.17910062 0.00039669548 -0.34023806 -0.26906648 -0.27980378 0.10763365 0.35325992 0.65278184 -0.45079973 0.15574081 0.22156462 0.45099682 -0.15120736 0.7766951 -0.49892035 -0.26883802 0.14189376 -0.18436944 -0.17037304 -0.15068072 -0.569767 0.19956368 -0.2929076 0.3662533 -0.095104896 -0.532525 -0.4985657
159 0.4807701 -0.5403268 0.43959183 0.50562674 0.19394937 -0.34391454 0.41413048 0.48082826 0.5535406 0.004157018 -0.1630966 0.21312448 0.6362239 -0.2886282 -0.16091494 -0.23777449 0.171982 0.22987555 0.26922414 -0.21462837 -0.20369744 0.24289653 0.08082895 -0.22561587 -0.114398405 -0.39876214 -0.07130051 -0.058058344 -0.25143212 0.18724658 -0.27037022 -0.07253668 0.14592576 -0.22357963 0.16609357 0.2203161 0.13349243 -0.019631743 -0.47193426 0.19720992 0.15896457 -0.08458907 0.08844963 0.2574866 -0.1849223 0.8728899 0.23076293 -0.17422004 0.32416785 0.25342837 -0.2782187 -0.21656975 -0.2632039 -0.2919397 -0.2670318 -0.55397373 -0.06880293 0.26828814 0.562787 -0.4101662 -0.0213756 0.29161787 0.076004386 0.44247037 -0.4741263 -0.27994722 -0.022543175 -0.28352845 0.26952413 0.122518405 0.1206414 0.23507327 0.19889413 0.23500997 0.025799172 0.03361067 -0.42451832 -0.25037912 0.09763269 -0.26372483 0.22402012 0.03181662 -0.107792296 -0.32548133 0.113197215 -0.36477295 0.45549342 -0.20412104 0.1586343 0.43967018 0.04962091 0.14483473 -0.3797407 -0.34394014 -0.23153204 0.31394422 0.2335496 -0.22872575 0.26336703 0.08267258 -0.2651664 -0.17166989 0.45855674 -0.23975304 -0.30328244 0.14745057 0.3594343 0.55031985 -0.20108393 0.04524516 -0.63106525 -0.17470005 0.39102623 -0.1390947 -0.21726164 -0.7939125 0.1690474 -0.03435664 -0.2308336 -0.5341946 -0.11306296 -0.33087045 -0.04731253 -0.17742541 0.41340634 0.10999094 -0.18635654 -0.17011926
158 0.5097038 -0.4362666 0.30004007 0.5077113 0.12869096 -0.3857309 0.30176306 0.68005925 0.6516655 0.053958684 -0.14950615 0.24024688 0.5674432 -0.20617148 -0.31859863 -0.14599223 0.2746377 0.13951455 0.24259086 -0.1967 -0.01603195 0.21354431 0.10786448 -0.16349477 -0.33055916 -0.41299003 -0.041699335 -0.25572136 -0.30466682 0.20046799 -0.3317436 0.03936328 0.041855115 -0.26414588 0.11861317 0.27463645 0.16207924 -0.079803936 -0.40428442 0.15343864 0.16435039 -0.23179953 0.09878771 0.27476466 -0.10739929 0.752214 0.15200143 -0.13235119 0.28612995 0.021257237 -0.44412574 -0.1832354 -0.2833536 -0.19595595 -0.22257815 -0.4867229 -0.07852776 0.24590102 0.69917893 -0.40874222 -0.11820072 0.124511346 0.06881669 0.46499142 -0.4169921 -0.30324498 -0.06279229 -0.27838942 0.20289043 0.0071821823 0.039613295 0.38878497 0.17345466 0.157899 0.014755842 0.18622036 -0.32028708 -0.12359059 0.26674372 -0.28955907 0.2261486 0.09032622 -0.05312034 -0.3430269 0.03382797 -0.15649681 0.3500843 -0.29986414 0.17348962 0.37371343 0.11344918 0.109523386 -0.35877216 -0.3128024 -0.20200658 0.3655606 0.17945836 -0.20286694 0.13000143 0.14949961 -0.39424336 -0.18768144 0.3953579 -0.24462293 -0.33232978 0.21889389 0.35907114 0.48861843 -0.02841164 0.13768503 -0.5892441 -0.06285397 0.37353098 -0.19570832 -0.34877363 -0.68026066 0.11676702 0.093222015 -0.17080106 -0.3925477 -0.0025858234 -0.21143197 -0.029409224 -0.19973965 0.30556223 0.14882332 -0.151459 -0.15110642
188 0.9135927 -0.06252706 -0.3587962 0.30265746 -0.09111187 0.27911657 0.452699 0.68337977 0.9251092 -0.15492171 -0.35857552 0.26881516 0.34315202 -0.6931827 0.14885028 -0.4726826 0.4546127 0.30623022 -0.30415446 0.019336514 -1.4251251 0.22032052 -0.25042072 0.004201102 0.45400363 -0.18301901 -0.11200687 -0.10802217 -0.67616063 0.2775278 0.13979837 -0.73007584 0.08029336 -0.4441903 -0.34851107 -0.12740599 -0.03238707 0.050663713 -0.18244484 -0.041991595 0.5379979 0.095971234 -0.021681577 0.18606827 -0.19304909 0.5506041 0.24583545 0.032566015 0.1360834 0.47104567 0.04176375 -0.7184377 -0.22760859 0.2876189 -0.52012 -0.4947298 -0.47965047 -0.19977286 0.6696174 0.14805277 0.18726332 0.059209447 0.3082874 -0.15537724 -0.34773958 0.380193 -0.26186582 -0.013983211 -0.24392986 0.36951494 0.005502865 0.5908505 -0.21604036 -0.07404991 -0.76039416 0.111344256 -0.065684475 -0.66143817 -0.33100757 -0.48410353 -0.129797 0.21200699 0.43911293 -0.28892013 0.06440614 0.024622865 0.21029942 0.16410561 -0.019570226 0.16366358 -0.20310052 -0.079146855 -0.15482126 -0.08947057 -0.104745544 0.57764244 0.19096191 0.3843571 0.078540996 -0.22787268 0.505131 -0.3919516 0.15052624 0.36039853 0.05473827 -0.1697611 -0.25116864 -0.36041933 0.4932827 -0.44853222 -0.369982 -0.26012397 -0.1919097 -0.078634426 0.26126036 -0.5571488 0.14033781 0.042788982 0.14102085 -0.29875076 -0.009668 0.20019391 -0.2701707 0.5630242 0.045968957 -0.4344831 -0.043473624 -0.076870695
160 0.47800472 -0.39219937 0.4010184 0.46698323 0.057870433 -0.30715638 0.39867333 0.49518356 0.4913519 0.029517043 -0.029668348 0.22797297 0.64971393 -0.24619946 -0.15886301 -0.23408385 0.15951692 0.20593864 0.23443033 -0.17454162 -0.06932423 0.36422536 0.07368402 -0.21130084 -0.057172287 -0.33740637 -0.10797524 -0.094242126 -0.29983497 0.2982784 -0.40710518 -0.1462251 -0.012845132 -0.35932192 0.26160473 0.28404918 0.22262703 -0.09062624 -0.47941336 0.16194402 0.18262893 -0.09028301 -0.08029702 0.29957843 -0.21067047 0.9825329 0.19212808 -0.24885763 0.34560257 0.21054505 -0.30603054 -0.20186743 -0.31809857 -0.21291406 -0.22024822 -0.5353364 -0.052191444 0.19356062 0.5179662 -0.3509739 -0.08250554 0.3627335 0.007043308 0.37726903 -0.47401133 -0.23933783 -0.06299821 -0.27439457 0.1995228 0.15278463 -0.040335793 0.34478194 0.2498763 0.20537183 0.0055588316 0.12116862 -0.4138594 -0.1387297 0.09532672 -0.20137778 0.16504592 0.14792897 0.02247601 -0.3334117 -0.008597339 -0.37266368 0.40648165 -0.29330733 0.15650994 0.44401705 0.12547646 0.0807597 -0.2644382 -0.40872803 -0.21293002 0.37460706 0.33368093 -0.22128412 0.2891268 0.07075669 -0.2659302 -0.18920842 0.4975737 -0.20992135 -0.37279293 0.2669997 0.23017271 0.5094347 -0.0976981 0.023168806 -0.6562635 -0.14283979 0.44840312 -0.23134589 -0.2593106 -0.9572513 0.078291796 -0.109428845 -0.20241591 -0.45895624 -0.10640944 -0.32754877 -0.0982086 -0.24471433 0.5183057 0.16187458 -0.12919515 -0.068617575
187 1.0211812 -0.11631819 -0.2965206 0.32518384 -0.020221118 0.16610327 0.48671418 0.6330474 0.9700202 -0.12976551 -0.3596849 0.14795856 0.29471228 -0.5564673 0.19649036 -0.49883446 0.5557773 0.32633296 -0.4553239 0.06795703 -1.403679 0.3221811 -0.25210926 -0.024222514 0.43687624 -0.24823044 -0.042592533 0.093350515 -0.7124961 0.3280761 0.16043204 -0.84438187 0.22446333 -0.4958821 -0.28212687 -0.004104378 -0.2223749 0.07458673 -0.16843896 -0.039722774 0.60896033 0.14275937 -0.12048619 -0.09229038 -0.21389624 0.68238294 0.42067847 -0.042136118 0.1969731 0.48283973 0.036261797 -0.534739 -0.17337243 0.23407267 -0.5398923 -0.32522884 -0.43577546 -0.5288649 0.6447131 0.1668839 0.33995262 0.07008583 0.27972332 -0.15161881 -0.26221028 0.31734598 -0.36318126 0.016133333 -0.20911643 0.34684613 0.044822864 0.5407885 -0.04611525 -0.023525758 -0.844328 -0.04945451 -0.21403208 -0.48852158 -0.3190578 -0.37605342 -0.21086308 0.20431283 0.3148004 -0.17939582 0.10534931 -0.058059778 0.16064033 0.084609255 -0.048254967 0.29262275 -0.18129355 0.016288638 -0.3178644 -0.11630697 -0.123817414 0.45627064 0.061638318 0.37672228 0.26799366 -0.015525573 0.35990676 -0.31207672 0.31837025 0.3787027 -0.010698439 -0.25222456 -0.2539573 -0.33671442 0.45715886 -0.64412767 -0.3625558 -0.28836673 -0.1761059 -0.10293022 0.35845023 -0.66617393 0.05569679 -0.1662124 0.15065847 -0.416778 0.062456388 0.14589857 -0.103415824 0.59429413 0.09562908 -0.4363599 0.023183145 -0.17985906
111 0.25788864 -0.36254662 0.3154443 0.124456085 0.31524584 -0.23476088 0.7787184 0.76047355 0.5796061 -0.001215719 0.114447825 -0.50297505 -0.08800856 0.23575094 -0.3761568 -0.05571902 0.512273 -0.11436408 0.07800791 -0.32329258 -0.3249603 -0.010392199 -0.3393368 -0.21238184 -0.45369035 -0.48659068 -0.03636681 0.31816348 -0.13069999 -0.4122473 -0.10543184 -0.27437314 -0.031125426 -0.57290727 -0.11974232 0.46980256 -0.5920319 -0.1945369 -0.09781401 -0.3273602 0.19975168 -0.099514134 -0.43366313 0.17917939 0.2516404 -0.11876244 0.076234564 -0.11216645 0.2857991 0.07947869 -0.28045562 0.29141033 -0.63834715 -0.30574194 0.21623406 -0.4470124 0.21006137 0.21500061 0.49874908 0.006578791 0.038805783 -0.033359878 -0.015255021 0.026204327 0.3164139 0.04651357 0.051692963 -0.1837738 0.10607358 -0.15748233 -0.0026043896 0.83493185 0.17153277 0.26520824 -0.1916367 0.09210915 0.106481425 -0.17107093 -0.09142443 -0.16303492 0.335755 -0.1762107 0.15677956 0.10323302 0.29280967 0.33938497 0.014817965 -0.07951194 0.05782469 0.16286656 0.09328263 -0.017352795 -0.33395562 -0.0060070213 -0.26171023 0.44297826 0.27299777 0.13408548 0.67878056 0.23785037 -0.05338064 -0.27292603 0.37972647 -0.08130212 -0.4381131 -0.3631369 0.12316931 -0.17577828 0.4278762 -0.316022 -0.12019815 -0.021921266 0.228778 -0.026969826 0.42739058 -0.5169399 0.13254675 -0.31996423 -0.07863261 -0.038065128 0.0008342395 -0.21366985 -0.2127166 -0.26723957 0.38566175 0.032863345 -0.38241073 -0.007598991
110 0.21382533 -0.35596702 0.28246075 0.17334366 0.23291044 -0.334843 0.7664289 0.6681606 0.53638554 -0.05028847 0.19907536 -0.37017095 -0.018272318 0.23898229 -0.45087898 -0.07574404 0.62561965 -0.05501074 0.18944627 -0.27350977 -0.44566005 -0.031690385 -0.3151541 -0.21975239 -0.34540752 -0.5007469 -0.19279882 0.39003518 -0.1553353 -0.4049033 -0.21886624 -0.24359897 -0.06785123 -0.5464263 -0.0619294 0.43018365 -0.5579513 -0.16104521 -0.045913078 -0.26449913 0.20206077 0.014019693 -0.3905371 0.2557744 0.20039238 -0.08223347 0.034694552 -0.10523498 0.24710341 0.06307166 -0.18540181 0.32972363 -0.576862 -0.29715303 0.20979024 -0.4211113 0.24293332 0.14176247 0.44221568 -0.044739358 0.03996548 -0.12167539 -0.16878803 -0.022197494 0.36834425 0.023257691 0.0995296 -0.27428305 0.055524394 -0.14111933 0.039784625 0.93301296 0.24637225 0.27367148 -0.16178174 0.04714039 0.06891274 -0.24125957 -0.18314211 -0.18833488 0.2772159 -0.1425797 0.14199242 0.056220166 0.2619022 0.20435499 -0.07968037 -0.16837634 0.19396304 0.22242807 0.11922456 -0.075435914 -0.33168426 0.070412226 -0.29108942 0.3754751 0.32674682 0.17010173 0.58074874 0.25089294 -0.056460224 -0.3279641 0.24437435 0.02839762 -0.37004834 -0.23020503 0.09544961 -0.28482005 0.5057149 -0.28860366 -0.13063905 -0.06819716 0.13990866 0.01616421 0.37783247 -0.55344826 0.17871296 -0.24254723 -0.033959765 0.036542755 -0.05721365 -0.32029852 -0.30668247 -0.30617532 0.4727218 0.056014583 -0.36795083 -0.000944653
113 0.26358905 -0.358934 0.2869001 0.1724639 0.24430129 -0.2741273 0.774045 0.67460644 0.53627974 0.100917585 0.19989301 -0.32091442 -0.09271372 0.3182948 -0.4594847 -0.09176305 0.5554428 -0.24550423 0.019004507 -0.40881678 -0.43074268 -0.13181554 -0.20606789 -0.12748156 -0.3457301 -0.4291851 -0.056821905 0.33637214 -0.3085861 -0.18663113 -0.09977653 -0.42339566 -0.013323111 -0.58042866 -0.18542124 0.39942014 -0.629925 -0.104043186 -0.06626493 -0.29439658 0.17779478 -0.12698999 -0.45202288 0.19919448 0.15234473 -0.102173135 -0.14228912 -0.12966669 0.17168295 0.15546446 -0.1813344 0.2804954 -0.69529945 -0.31699672 0.2741669 -0.41196078 0.2402001 0.060282573 0.58551526 -0.033887863 -0.08937269 -0.18451798 -0.17383406 -0.0075256694 0.2846053 -0.103525385 0.055548605 -0.19852969 -0.13056038 -0.07241317 -0.03860428 0.9958438 0.17065464 0.25730303 -0.12213149 0.08571823 0.00525248 -0.11911323 -0.03917755 -0.28630677 0.36853236 -0.2083093 0.17762685 0.13239229 0.37346154 0.27710482 -0.08847786 -0.28118154 0.02352058 0.22398877 0.07352027 0.013652354 -0.13562766 0.02179016 -0.07298844 0.35014188 0.39199954 0.15542358 0.6053899 0.22475027 0.038720693 -0.21004991 0.27237386 0.08135403 -0.3830141 -0.3493914 0.12980692 -0.18079326 0.5536948 -0.20359658 0.024139114 -0.016325954 0.19875157 -0.053467307 0.42018723 -0.47308445 0.2081346 -0.38514662 -0.079515085 -0.020971995 0.061187588 -0.24028218 -0.24260212 -0.40330896 0.32413295 0.017157394 -0.44982567 -0.051726434
112 0.15824385 -0.3978279 0.3772225 0.1754359 0.1864934 -0.25371742 0.6590695 0.5941357 0.48313385 0.14634171 0.08465597 -0.36124662 0.050704658 0.2750948 -0.39342088 -0.14641617 0.50361764 -0.1434929 0.02527159 -0.52685934 -0.34948632 -0.18637548 -0.23093897 -0.23895031 -0.36656696 -0.5362918 -0.09308104 0.28413323 -0.16750152 -0.2841598 -0.003887933 -0.42846274 0.059507664 -0.5386922 -0.13784786 0.46762782 -0.6164085 -0.116872005 -0.11820768 -0.3725468 0.10876467 -0.14196773 -0.5169717 0.31086147 0.221191 -0.17785834 -0.055376403 -0.12988244 0.18252051 0.23131272 -0.10816383 0.25351357 -0.6867762 -0.2649439 0.26827714 -0.4704933 0.1792697 0.26179048 0.5371942 -0.0161537 -0.03693965 -0.14612815 -0.28243765 -0.019268 0.35159194 -0.06717991 0.15694512 -0.23421475 -0.0041046715 -0.13321145 -0.035854165 0.9501409 0.08856188 0.27878335 -0.16854861 0.12360031 0.038728677 -0.20240277 -0.062204916 -0.24433665 0.25192916 -0.26493928 0.13374333 0.100927636 0.33166423 0.31237832 -0.0047128336 -0.13456637 0.08698568 0.24820447 0.12807998 -0.05256936 -0.13993752 -0.016209155 -0.22572064 0.36067897 0.32852992 0.16430318 0.53812945 0.18805386 -0.01397063 -0.30976245 0.33465183 -0.00515323 -0.30913138 -0.34871805 0.15885465 -0.1769833 0.44771817 -0.19534466 -0.017953513 -0.06862876 0.2702329 -0.055176534 0.46098122 -0.45559803 0.20659098 -0.3117768 -0.10149688 0.026373543 0.017041363 -0.23635425 -0.3299194 -0.28215998 0.31533912 -0.0039126305 -0.47015405 -0.120783515
136 -0.06631882 -0.35301366 -0.0029417516 -0.38415402 0.05514043 -0.24108376 -0.31785882 0.44203204 0.5370357 0.08179823 -0.03486193 0.35311973 -0.0954205 -0.15595365 -0.3599715 0.5792367 0.4441693 0.13132226 -0.29623285 -0.23487371 0.2094403 -0.16138253 -0.53416526 -0.005151592 -0.020654082 -0.18299317 -0.31946066 0.070501044 -0.647861 -0.008048402 0.13549867 0.12171336 -0.22553843 0.14131379 0.20366558 0.0047862227 0.006144943 -0.3056345 -0.08493739 0.75760883 -0.3069134 -0.24947034 -0.6770391 0.17121823 0.2628068 -0.1443334 0.27690127 0.36734563 0.025333956 0.37253973 0.49105436 -0.018939365 -0.32123512 0.05267435 -0.38426283 -0.36123422 -0.24943002 0.087671146 0.5374855 0.4396477 0.13239756 0.32621694 -0.061850958 0.061418965 -0.07488309 -0.061892103 -0.03827205 0.1519311 0.11076848 -0.16272174 0.15370394 0.44306147 -0.24336562 0.51703906 0.11056548 0.17556846 -0.47760323 0.4122443 0.04813372 0.002761373 -0.10731794 0.065933004 -0.0072829677 -0.11392055 0.44512752 0.09019731 0.16926919 0.23335843 -0.25260878 0.31846038 -0.23583421 -0.55802256 -0.41071025 -0.6701888 -0.099607185 0.15029821 0.2738652 -0.3803981 0.24104936 -0.06910986 -0.039785657 -0.09531792 0.081044696 -0.08331182 -0.06366356 -0.85767674 -0.09485766 -0.32300714 0.38506317 -0.025385397 -0.36923984 0.02518377 0.32716635 0.2161408 -0.057729986 0.058035333 0.05735113 -0.8981832 -0.65870166 -0.6097846 0.18490715 0.37334183 -0.52311873 -0.3978 0.14721595 -0.19877459 0.1696507 -0.15121533
84 -0.08291492 -0.3637941 -0.042952076 0.37554336 0.057606157 -0.026124636 0.22626188 0.051357932 0.5267449 0.2942309 -0.20624055 -0.040152494 0.1455162 -0.29111078 0.018130532 0.83043104 0.46600807 -0.059784934 0.058837768 -0.23217075 0.09779812 -0.12210953 -0.31365645 0.058627527 0.1802014 -1.0017962 -0.33544967 0.033821132 -0.20862402 -0.4250704 -0.1272825 0.34759206 0.020641863 -0.86147857 0.007017313 0.19633892 -0.7007785 -0.13122411 -0.08816272 -0.15762244 -0.07171378 0.27735567 -0.24989825 -0.10628427 -0.17260371 -0.105201855 0.19286314 -0.124534 0.2851782 0.7491911 0.30093777 0.55918205 -0.55566317 -0.13778554 -0.21264072 -0.3348641 -0.2577641 0.45307988 0.53706545 0.33964407 -0.1565409 0.3878047 0.124641456 -0.10465438 0.31552032 0.25325418 -0.24255666 -0.083252765 -0.17958887 -0.12409308 -0.26261392 -0.0030549036 -0.044322435 0.8046999 -0.19883974 -0.007442797 0.0045583406 -0.08460779 -0.0042054486 0.38941997 0.29939649 0.26659775 0.17298897 -0.07233021 -0.1305482 -0.4229932 -0.101229526 0.20442401 0.10681722 0.35494703 -0.33621043 -0.54237604 0.11656779 -0.33224007 -0.2666562 0.59560156 0.17579333 0.020630935 0.37275773 0.07304294 -0.051183693 0.13468838 0.10313941 0.12093742 0.093800396 -0.22225705 -0.40943173 0.28648055 0.05710581 0.3612361 0.080021046 0.075586714 -0.1579949 -0.30710012 0.05839546 -0.0028562697 0.06696581 -0.5418697 0.18383636 0.006118145 -0.09667784 0.3168861 -0.05872434 -0.5942015 0.24044189 -0.05315325 0.12218997 -0.2662638
221 0.041679394 -0.33064154 -0.71098906 0.052787676 -0.19739488 0.19928549 0.20278804 -0.05053775 0.26338345 0.17128211 0.32656384 0.5629041 -0.10294848 0.11312326 -0.47375596 0.25572884 0.41215026 0.15652107 0.05344699 0.07439185 -0.05624745 -0.11367876 -0.2985082 -0.73972833 0.10140679 -0.5555926 0.024411531 0.2609201 -0.26116538 -0.49746108 -0.5157725 0.11876318 0.11697364 -0.5149866 0.08154179 0.31399897 0.22201923 -0.48227417 -0.06306311 0.11462239 -0.5480404 -0.07003075 -0.54472643 0.27849805 -0.24835636 0.5666416 0.028385604 0.028202055 0.16377555 0.42661652 0.21379057 -0.6138131 -0.22476712 -0.2826905 -0.8279079 -0.17237046 -0.3286181 0.43571526 0.10876805 0.050875854 0.4620058 0.24040855 -0.10981449 -0.2849418 -0.30959982 1.0264593 0.02753401 0.028023517 -0.628044 0.27224115 -0.2661749 0.20270342 -0.5472784 0.5810172 0.19543464 0.70852566 0.3040243 0.13328677 -0.1779795 0.37428787 -0.2994903 0.10702413 0.12134548 0.51824635 0.10205227 -0.3872323 0.26336232 0.035471883 -0.12413477 0.20315437 -0.2021962 -0.23478451 0.057923406 -0.50633365 0.301778 0.4778523 0.5072971 -0.41821706 0.7526803 -0.5583793 0.18589431 0.2769809 -0.07357276 0.42201132 -0.183816 -0.65906113 -0.29803738 0.33171293 0.9286741 0.4972035 0.119963326 0.1831247 0.14435533 0.58998466 0.1744522 0.33732548 0.036378223 -0.25001925 -0.24166098 -0.022591867 -0.17508766 0.35810268 0.37511286 0.018840559 0.36702284 -0.114996426 -0.49679652 0.22652462
85 -0.081467964 -0.37057078 0.03013607 0.5031242 0.08515386 -0.08001316 0.35472998 0.07139073 0.65709937 0.39324918 -0.27833807 -0.06996519 0.14451958 -0.18751737 0.0042858627 0.76933044 0.40427622 -0.14436014 0.009993827 -0.28766823 0.14329402 -0.042124428 -0.26292962 0.08617197 0.186222 -0.9583669 -0.2532782 0.020151576 -0.30607677 -0.3387943 0.039365306 0.20816177 -0.074988276 -0.82029676 -0.025840793 0.19753078 -0.6038637 0.058244936 -0.15298079 -0.14678928 -0.1355205 0.27281368 -0.37489945 0.040944528 -0.15537924 -0.061187822 0.118135445 -0.12872428 0.2116407 0.79079497 0.3706475 0.5518809 -0.7218306 -0.11064632 -0.18864906 -0.3335854 -0.07679564 0.37203288 0.5135996 0.37219882 -0.063370295 0.42432034 0.11554769 -0.13958639 0.36852163 0.19047973 -0.25774828 -0.0051499833 -0.16287169 -0.113224044 -0.21310781 0.05191301 0.03239079 0.7712558 -0.16661894 -0.043976355 -0.06975344 0.005455911 0.115149945 0.42435324 0.4029149 0.24845052 0.06585901 -0.03708746 -0.18523623 -0.43154567 -0.1153474 0.21430987 0.027526207 0.30773118 -0.3970279 -0.48250598 0.15932398 -0.31107417 -0.15176183 0.55059254 0.28674272 -0.003114584 0.3841017 0.20378083 -0.015213476 0.082525074 0.113709815 0.15226509 0.1305708 -0.24516696 -0.39840356 0.1967772 0.14825784 0.2565605 0.15106295 0.024452625 -0.113740265 -0.25535527 -0.05262895 -0.06388762 0.19571997 -0.6012714 0.23692478 0.002787471 -0.08632194 0.25342894 -0.03286427 -0.7251583 0.18384683 -0.096400164 0.13102643 -0.20866138
83 -0.09389149 -0.4813913 -0.025763853 0.33829463 0.29814973 0.052308165 0.20526373 -0.020646442 0.58632594 0.38107345 -0.22918679 -0.054190498 0.07864769 -0.12900648 0.076511875 0.69968 0.52706677 -0.14806291 0.071542524 -0.21027093 0.1206115 0.070783705 -0.3060762 -0.009285793 0.2622049 -0.98034036 -0.20676057 -0.10304702 -0.2654218 -0.42127293 -0.13398907 0.4473949 -0.05266268 -0.819062 -0.11380682 0.104007825 -0.63159364 -0.09905177 -0.13648745 -0.27722657 -0.1421584 0.15538378 -0.2193423 -0.070365705 -0.05938644 -0.2105882 0.18789272 -0.14856063 0.25526753 0.65508145 0.26427534 0.467782 -0.5879014 -0.012912893 -0.20951967 -0.28404778 -0.12538268 0.52806884 0.37521115 0.13748683 -0.016086327 0.4910742 0.15071064 -0.19008955 0.24393755 0.3304606 -0.11829443 -0.04574837 -0.13172579 -0.10758934 -0.15579818 0.047998704 0.005674207 0.7470035 -0.22435354 -0.036054153 -0.007251114 0.020213997 -0.022952763 0.4077343 0.3707567 0.17115991 0.03161749 0.023274846 -0.02459372 -0.43503502 0.1078484 0.18487352 0.06377679 0.31957212 -0.40014893 -0.44699526 0.039895087 -0.2797202 -0.29792762 0.66614443 0.2395754 0.14303672 0.4833786 0.20119889 -0.14659683 -0.00042758338 0.051630013 -0.044259444 0.09674478 -0.24935117 -0.45305344 0.36595136 0.19189727 0.3199004 -0.05186023 0.096873045 -0.25568366 -0.36000443 0.053718083 -0.10086689 0.13869733 -0.5120113 0.19185981 -0.075441994 0.045774296 0.3250641 0.03239486 -0.6153214 0.120853186 -0.082281545 0.17466804 -0.22416224
82 -0.014361011 -0.6069409 0.07233241 0.3199924 0.13260922 -0.1449147 0.39080667 0.2750016 0.5055079 0.36072206 -0.3679187 -0.015875107 0.10167015 -0.08151724 0.028934654 0.7848451 0.49999326 -0.10095188 -0.04089713 -0.1838378 0.21613537 -0.17261627 -0.36921468 0.13011158 0.15055808 -1.0038097 -0.32122934 0.027984802 -0.21660863 -0.32554743 -0.13480042 0.17385106 -5.743993e-05 -0.89719754 -0.1534937 0.15102778 -0.45089436 -0.18996556 -0.13693833 -0.072794825 -0.11354363 0.3812483 -0.25183624 0.022699067 -0.059802625 -0.07556165 0.21049851 -0.1027206 0.17105095 0.760741 0.34833115 0.5350438 -0.5443543 -0.14047101 -0.11433886 -0.36410424 -0.2084731 0.48244956 0.5033783 0.12556578 -0.0085619 0.37128377 0.12048548 -0.19452918 0.28623685 0.2579403 -0.08584512 -0.14513665 -0.1360156 -0.17509647 -0.18840648 0.029670347 0.042724844 0.88002086 -0.18444565 -0.01921244 -0.0336471 -0.041878384 0.078102104 0.45621935 0.36346945 0.15377675 0.20998105 -0.034790393 -0.20057409 -0.3661781 -0.022839941 0.2837801 -0.012987373 0.18925755 -0.40741602 -0.38391978 0.061649237 -0.14127903 -0.21174495 0.550258 0.27003098 -0.0021078275 0.5480005 0.18108311 -0.10204737 -0.15777208 0.18136255 -0.06683978 -0.041791096 -0.24937783 -0.3198546 0.22515799 0.12218962 0.33313286 0.14086194 -0.04878502 -0.23047908 -0.04357584 0.04057004 -0.05334835 0.1417681 -0.548185 0.15872963 -0.01011638 -0.123548016 0.27902803 -0.031689808 -0.6934701 0.18697792 -0.019287862 0.17880267 -0.19169587
137 0.03587318 -0.4339494 0.08663187 -0.32829097 0.09750642 -0.26116744 -0.38665548 0.47084427 0.49177864 0.06833417 0.051671483 0.4409147 -0.101759404 -0.3394219 -0.43322226 0.4830624 0.51645863 0.07814613 -0.22081253 -0.38944882 0.2488643 -0.1526121 -0.51880205 0.038924865 -0.0606458 -0.16196248 -0.30667156 0.07134105 -0.5361791 -0.010562226 0.04767887 0.027729655 -0.23719686 0.17907529 0.16336541 0.021361522 -0.059651162 -0.34721658 -0.089235544 0.79701656 -0.29578784 -0.27028465 -0.6039398 0.18530001 0.1657913 -0.16375512 0.40186998 0.43156952 -0.06321711 0.41626558 0.48742214 0.030774219 -0.34308383 0.1160584 -0.3347914 -0.39221165 -0.16416655 0.033629525 0.4681133 0.41418454 0.1470548 0.44751537 -0.095437594 0.16579485 0.0134594105 -0.087601475 -0.102564104 0.12722565 0.126569 -0.19038065 0.27361113 0.42054003 -0.23631874 0.40702364 0.13608384 0.29654327 -0.44837523 0.38813663 0.0398493 0.08544847 -0.20756738 0.100844815 0.034065545 0.07069616 0.50129575 0.1527405 0.03635548 0.3060244 -0.22435386 0.37889344 -0.17530237 -0.64854825 -0.54376924 -0.65334517 -0.15009053 0.08710779 0.25263828 -0.34287375 0.30048257 -0.13622642 -0.021554537 -0.13080946 -0.060680587 -0.009971569 0.06067177 -0.9061757 -0.176114 -0.41066855 0.5067772 -0.042416807 -0.37215653 0.05740262 0.3640903 0.34715754 0.054292876 0.12281139 0.12862413 -0.8370576 -0.7004312 -0.5250693 0.20257947 0.40630144 -0.5527935 -0.3996103 0.04287196 -0.245482 0.18031827 -0.1008828
220 -0.03817023 -0.18214166 -0.89179116 0.11411634 -0.029967202 0.25840822 0.2105212 -0.03662037 0.28821063 0.27817047 0.2919937 0.4475441 -0.09589956 0.020707846 -0.3885351 0.20807898 0.37124193 0.16509654 0.04793664 0.060184617 -0.081849895 -0.1719307 -0.20764618 -0.84462804 0.021545231 -0.51241744 -0.03195886 0.3567338 -0.19703026 -0.5120398 -0.4015993 0.16047631 0.16380082 -0.6419994 0.00800325 0.3368205 0.08529047 -0.49425444 -0.18327905 0.012782705 -0.49970165 -0.15827216 -0.5110957 0.27014488 -0.3625198 0.59423155 0.08386502 0.08525808 0.22583406 0.42285347 0.26586255 -0.6017602 -0.21655545 -0.20141405 -0.7033553 -0.23147841 -0.3007723 0.28784195 0.11953784 -0.043653887 0.525967 0.32211256 -0.11621844 -0.18126065 -0.31159693 0.9766929 0.011994664 -0.11672727 -0.61790025 0.2812829 -0.24410446 0.17426032 -0.41798887 0.5465821 0.120535396 0.61789 0.36399144 0.13319653 0.080656484 0.56762844 -0.22717722 -0.0020884369 0.10276107 0.68653643 0.0776522 -0.37536666 0.3491573 0.07170407 -0.022903588 0.18525687 -0.17311364 -0.26453775 0.20759587 -0.4394462 0.25023037 0.3604551 0.4043401 -0.5130183 0.9202688 -0.53255457 0.12810788 0.32809773 -0.055432383 0.40969247 -0.059224747 -0.5110008 -0.34149772 0.5968055 0.8895834 0.45358256 0.16964784 0.1654252 0.33208984 0.5028758 0.21556704 0.45223713 -0.03658109 -0.11693198 -0.15211213 -0.00921718 -0.24671805 0.45979786 0.47093 0.11931208 0.39004818 -0.039463468 -0.38063166 0.32190248
134 -0.046508934 -0.38230202 0.024445085 -0.35392818 0.16802905 -0.12648776 -0.4883379 0.3383085 0.55925786 0.029931152 -0.18274203 0.4068209 -0.19010396 -0.32946604 -0.3505458 0.58897674 0.44950306 0.17560367 -0.16915251 -0.25362635 0.19115339 -0.1279586 -0.6632519 0.020360216 0.0021192632 0.063684046 -0.35255453 0.15913269 -0.5511225 -0.05859193 0.16056645 0.2121501 -0.22967502 0.040065385 0.17784238 -0.12011237 0.06815926 -0.34498712 -0.1273017 0.7186455 -0.3951928 -0.19310597 -0.66495603 0.21145742 0.2503499 -0.12034884 0.2703847 0.47414508 -0.11980669 0.38272792 0.48632985 -0.08120202 -0.26025867 0.1356161 -0.45522425 -0.44670182 -0.13219696 0.10686504 0.488084 0.32844546 0.039943155 0.44978136 -0.112637185 0.07850244 0.016496636 0.019079877 0.030441726 0.1519414 0.1739156 -0.26436958 0.20939219 0.33365694 -0.16955335 0.47453615 0.16135699 0.24614605 -0.47029436 0.40400624 0.05502201 0.15316269 -0.048180528 0.08028018 -0.07578222 0.03933182 0.48791856 0.07338861 0.18564586 0.32202342 -0.2176308 0.2598313 -0.21642797 -0.64838225 -0.47520792 -0.5529204 -0.043121606 0.13671835 0.15771557 -0.2491316 0.23058596 0.057714146 0.06941409 -0.17614582 0.03767322 -0.13280086 0.08688077 -0.79679644 -0.062398113 -0.36984518 0.38766378 -0.14804967 -0.30696186 -0.0053078765 0.31831655 0.18447334 -0.031174896 0.048365414 0.11610303 -0.79293597 -0.6067762 -0.5690184 0.26962674 0.3409744 -0.5734639 -0.3424209 -0.003097308 -0.18858807 0.1783828 -0.07450949
135 -0.10187312 -0.3939112 0.069123104 -0.20907028 0.111769825 -0.20826347 -0.36353523 0.49817452 0.52957314 0.04066389 0.020927675 0.51792157 -0.09102012 -0.21948405 -0.3115376 0.41316187 0.50704587 0.017652208 -0.27521425 -0.25546125 0.10606276 -0.17736289 -0.46214077 -0.08613604 0.1072647 -0.1071107 -0.25472358 0.1657024 -0.48342106 -0.1893929 -0.020111889 0.2953406 -0.0698141 0.17618655 0.14550586 0.07343128 -0.0065980894 -0.4267685 0.05291559 0.84100026 -0.4191145 -0.26712355 -0.46883997 -0.0046411357 0.22007191 -0.17023757 0.40693614 0.37226745 0.05171858 0.3847848 0.48310375 0.04003813 -0.2663191 0.015524529 -0.271448 -0.26002192 -0.28014767 0.050094485 0.43956733 0.3444015 0.25465184 0.37333447 -0.0018810123 0.16169934 0.10925774 -0.12112289 -0.05322352 0.06749918 0.10855161 -0.27803767 0.3087676 0.3221542 -0.10875226 0.43849114 0.07336699 0.36590713 -0.357006 0.2352861 0.049589913 0.049946215 -0.08789789 0.035216864 -0.009969941 0.14414415 0.47974887 0.20007241 0.13356508 0.3294893 -0.18653491 0.3469457 -0.21347442 -0.76756215 -0.6363081 -0.66901577 -0.23271257 0.1585566 0.053719647 -0.30383325 0.3004853 0.030398821 -0.016880369 -0.09824535 -0.013037343 -0.11740011 0.06564229 -1.0289013 -0.049372476 -0.30605406 0.4965051 -0.039574895 -0.34276152 0.047188852 0.15660343 0.3195508 -0.22188002 0.08112106 0.027912622 -0.75194454 -0.6677229 -0.4793877 0.21698461 0.36639142 -0.5262619 -0.3326203 0.16358833 -0.25535038 0.010808839 -0.07054265
204 -0.53963965 -0.26629615 -0.49664366 0.22312847 0.12949234 0.06836938 -0.23098633 0.4991239 0.60249805 -0.17998455 -0.24329269 -0.041807517 -0.099093094 -0.11557666 -0.0057946667 0.06485483 0.39103717 -0.32140982 -0.11865695 -0.017582681 -0.45630944 -0.5601546 0.3701863 0.14320673 0.022710588 0.083199255 -0.3148979 0.07180388 -0.044679858 -0.38350525 0.50760424 0.2869975 0.29234046 -0.65545964 0.13454784 -0.22825426 -0.260577 -0.19645539 0.21180975 0.34746173 -0.18054679 0.05856441 -0.257411 0.41141286 0.17737384 -0.070421025 -0.03001197 0.17721444 0.07419881 0.16996102 0.36278805 0.09167003 -0.24184138 -0.20138349 -0.6060767 -0.49764264 -0.37376907 -0.39854395 0.27044123 0.029769864 0.121094726 0.0032464424 0.096973024 0.25222233 0.20322502 -0.26996794 -0.32701057 -0.27449316 0.20567492 0.17725617 -0.6460845 0.4455091 0.15781568 0.2852489 -0.33736998 -0.18984999 -0.6312484 0.32595813 0.12310587 -0.03732121 -0.48399907 -0.048525844 0.37903136 -0.082081184 0.17179643 0.049088333 0.3788117 0.5288337 -0.089921586 0.43350533 0.16763689 -0.67402834 0.05770051 0.2873046 -0.076617695 0.29212886 -0.26768875 -0.51370203 0.6584144 0.043332085 -0.37788188 0.08320079 0.44886094 -0.13557632 -0.2753633 -0.5982931 0.5260659 0.37726715 0.034770574 0.24538031 -0.23255076 0.010000267 -0.081276126 -0.3543584 -0.38585505 -0.0434794 -0.045753293 -0.14746329 0.4597854 0.1611257 0.19437689 -0.27653044 -0.41291824 -0.21061131 0.28132504 0.32770365 0.09936997 -0.17878595
132 -0.26320413 0.18121338 -0.0014892565 0.787957 -0.3782361 0.45339137 -0.26627746 0.29699376 0.09215435 0.07276762 -0.06266251 0.9034658 -0.004576921 -0.1266633 -0.44191322 -0.41923225 0.25674105 -0.027256152 -0.336762 -0.27484277 -0.2485375 -0.27489015 0.10797442 -0.12774678 0.64460117 -0.39979574 -0.31264135 -0.16125207 -0.85657716 -0.02373578 0.41460088 -0.06691292 0.04538074 -0.09232077 -0.015285373 0.45935887 -0.37842816 -0.49096045 -0.27217922 0.082964554 -0.44234613 -0.0822232 0.678779 0.29280114 -0.65011555 -0.19039822 0.1907191 0.5229399 -0.20884667 0.39359447 0.42985153 0.70499206 -0.47387543 0.1765687 -0.037113793 -0.9020345 -0.5992943 0.06594101 0.52099144 0.05929058 -0.018977981 0.30460486 -0.5078578 0.43916067 -0.005486522 -0.17935316 -0.635876 -0.10381679 0.033448894 -0.12562019 -0.38257587 -0.1461325 -0.23913305 0.47273806 -0.5119633 0.43266574 -0.5958053 -0.2683558 0.37595952 -0.4793636 -0.09249199 -0.5355907 -0.2007795 0.1061594 0.36955968 -0.012730746 0.30409673 0.53373456 -0.35472605 0.35000235 -0.39672083 -0.14121832 -0.23463051 0.26328596 0.33600262 0.8382259 0.23412256 0.076716065 0.7544684 -0.22948778 -0.31160975 0.15986803 -0.13172981 -0.6815312 -0.46073458 -0.7538389 0.2873201 0.11082067 0.67590225 -0.1584619 -0.13680989 0.22819707 0.26268458 -0.009001633 0.4625539 -0.027486902 0.33034077 -0.4550641 0.1301238 -0.4849347 -0.04109452 -0.4555377 0.10735858 -0.24526457 0.2918729 -0.38084626 -0.9246711 -0.46786702
203 -0.5952259 -0.35755783 -0.58375365 0.24630737 0.13396516 0.25098062 -0.25007087 0.4065109 0.54675007 -0.30480474 -0.32120845 -0.15666135 -0.10481122 -0.20120056 -0.02979401 -0.1038224 0.35005102 -0.3056765 -0.0852157 0.031986445 -0.5122492 -0.5046247 0.27554375 0.14151281 0.056281198 -0.021102717 -0.42464533 0.0041317996 -0.14652969 -0.29565978 0.52871805 0.22525497 0.3991574 -0.5915865 0.21691002 -0.29646656 -0.26852903 -0.12646714 0.14269027 0.29225114 -0.17650062 0.03648057 -0.40021047 0.4814815 0.14661941 -0.047598906 0.1032275 0.25030038 0.0066559245 0.2674361 0.39313573 0.02708822 -0.3466143 -0.21055311 -0.62173945 -0.611203 -0.3597314 -0.30229515 0.24740407 -0.05817962 0.0046584406 0.19416451 0.07554175 0.17812581 0.28766814 -0.3065125 -0.265976 -0.3957983 0.171518 0.27415064 -0.66330445 0.54813117 0.112008534 0.10691255 -0.4262035 -0.37762144 -0.7299079 0.40583423 0.084740005 0.015876902 -0.51261324 -0.019021444 0.44255096 -0.055933177 0.049221564 0.07599902 0.44673643 0.6010838 -0.1287679 0.56055975 0.13041705 -0.48793504 0.124226354 0.34564763 -0.11329747 0.25898015 -0.26247886 -0.61611986 0.816634 -0.037040807 -0.3627741 0.10562316 0.41449934 -0.2025875 -0.2858723 -0.7503555 0.46589386 0.31962025 0.08222922 0.058559436 -0.27279013 0.07810577 0.0027995561 -0.33535928 -0.29883906 -0.26271996 -0.10556441 -0.27298108 0.446388 0.18104596 0.23367853 -0.2709561 -0.46721748 -0.38202637 0.30962124 0.32905883 0.12935877 -0.2951622
131 -0.30100214 -0.1335097 -0.14053015 0.52111787 -0.3025617 0.5243309 -0.2981162 0.31027985 0.036604203 0.1991323 -0.055492762 0.99995077 -0.07902402 -0.084238246 -0.49738008 -0.35792682 0.22208253 -0.21902053 -0.44945875 -0.18202221 -0.12528364 -0.45981777 0.14785738 -0.0111289 0.8044958 -0.45626035 -0.25416028 -0.12852667 -0.9515493 -0.0966489 0.34676224 0.034367017 -0.02827957 -0.21245284 -0.17871723 0.38594708 -0.22892521 -0.37450576 -0.20085746 0.20733948 -0.32775795 -0.26224625 0.6143857 0.3730151 -0.6706966 -0.09506473 0.09091233 0.41809684 -0.25140205 0.3022487 0.30492124 0.5477456 -0.37346974 0.08584924 -0.11767862 -0.95919603 -0.60377544 0.24592437 0.55871636 0.09712685 -0.16338706 0.2133939 -0.54911447 0.4929133 -0.15834449 -0.15924466 -0.66554505 -0.063198976 0.01831719 -0.15228753 -0.33862668 0.02055638 -0.27736047 0.43366164 -0.5842993 0.4091406 -0.50167185 -0.23966038 0.4693013 -0.5638462 -0.25031623 -0.48289916 -0.105828196 0.110999465 0.30598742 -0.038108144 0.14386775 0.49351898 -0.49632365 0.43871686 -0.467229 0.053995743 -0.47602564 0.34055847 0.29609287 0.95081365 0.31806037 0.072853595 0.88307846 -0.43754774 -0.3177377 -0.05042015 -0.14909525 -0.4429961 -0.65008825 -0.6520504 0.22360231 0.16180506 0.6325305 -0.14492217 -0.26834857 0.30881342 0.15649709 -0.020896839 0.33330926 -0.017263714 0.38932675 -0.5430486 0.11892844 -0.43711895 0.066853985 -0.569545 -0.07538706 -0.36174402 0.29353973 -0.22175443 -0.7851273 -0.43003783
156 0.25238287 -0.154111 -0.6145779 0.30595592 0.37157127 0.266356 -0.4098749 0.22090508 0.49128193 0.036322404 -0.42400008 0.06273954 0.20592888 -0.44204995 -0.0010648504 -0.35318533 0.2651526 0.1428794 -0.45265228 -0.06729048 -1.1102247 0.051784344 0.20075111 -0.08443005 0.093342766 -0.4974903 0.10049558 0.40521392 -0.64949375 0.2208914 0.71314454 -0.23539823 0.3083507 0.07553416 -0.2482537 0.115949236 0.054526754 0.30259746 -0.14008665 0.25974357 -0.18676965 0.2007257 -0.3292925 0.3324771 -0.38834333 0.13902268 0.5727599 0.6852202 0.6820418 0.3234799 -0.2646468 -0.052917656 -0.5439021 0.050071295 -0.8748613 -0.49975353 -0.3060563 -0.51088 0.4109343 0.14162217 0.4271403 0.104392245 0.29200873 -0.10238647 -0.3324019 0.31339604 -0.1034266 0.29084373 -0.36136338 -0.013542099 -0.14286879 0.12754807 -0.5507435 -0.06113272 -0.2077909 0.14666522 -0.3067025 -0.09152195 0.42670563 -0.3624605 -0.52966535 0.46538937 0.5605843 0.16509962 0.029014854 0.20879912 0.17662431 0.43754396 -0.24739107 0.73538786 -0.7590659 -0.40563616 0.47981668 -0.3732241 -0.23563834 0.15403177 0.06683697 -0.17861551 0.16485764 -0.06488566 -0.14997794 -0.07069243 0.24093635 0.081721544 -0.08793521 -0.6522708 -0.031291436 0.03378261 0.37047789 -0.21621117 -0.07911986 -0.08400487 -0.50650364 0.38903517 0.3908576 -0.41098446 0.39593336 -0.12031101 -0.14621773 -0.25672528 0.037067663 -0.09366199 -0.011951512 0.0851713 0.16559368 -0.2510274 -0.45159274 -0.55700207
205 -0.4671972 -0.3541473 -0.42145216 0.23843664 0.0031091548 0.018050771 -0.08037622 0.48193157 0.6527434 -0.26405135 -0.2022257 -0.10544394 -0.24547172 -0.13053834 -0.13811441 -0.12954718 0.29933473 -0.346528 0.08180256 -0.10283763 -0.5042229 -0.33424705 0.38589567 0.107837416 0.11699525 0.059633248 -0.38909093 0.11005023 -0.0664638 -0.5020847 0.45206785 0.047615495 0.37476397 -0.65978384 0.17961177 -0.2372024 -0.22297597 -0.1431105 0.28759184 0.30362818 -0.12270443 0.057309292 -0.33388698 0.6117465 0.17183223 -0.12467281 0.013677475 0.2713354 -0.0045075575 0.3050853 0.4275526 0.1258444 -0.3894059 -0.1988023 -0.6510699 -0.52543205 -0.25553536 -0.3195808 0.18998243 0.06601413 0.078667566 0.07281772 -0.07098674 0.1638373 0.20413963 -0.40578964 -0.31755972 -0.3502603 0.10568668 0.20395695 -0.7643812 0.57299286 0.090468735 0.22820653 -0.23424701 -0.2879243 -0.8128009 0.4679223 0.045887448 -0.00838747 -0.6601096 0.08676635 0.38653013 -0.029075231 0.19261353 -0.045447093 0.205378 0.51916903 0.046813566 0.5543043 0.26365107 -0.49922758 0.20394877 0.38563415 -0.077778675 0.32622585 -0.09093933 -0.43201596 0.6467329 -0.07347695 -0.20305713 0.068718776 0.528755 -0.10799912 -0.33946744 -0.57854736 0.42269987 0.28301623 0.26811898 0.16438295 -0.29035708 0.1907309 -0.07549819 -0.32372233 -0.3293013 -0.14874803 0.034933396 -0.27732953 0.31535527 0.12678315 0.22068402 -0.398024 -0.3872537 -0.31248075 0.3026903 0.35103676 0.18803555 -0.25504422
107 0.015997496 0.49692956 -0.52861094 -0.07646156 0.3104003 -0.071643695 -0.06830859 0.21287923 0.31629017 0.30612195 0.32907727 -0.22561923 0.16395381 -0.1273384 0.13231103 0.08515748 0.36840704 -0.13009593 -0.5070991 0.038749818 -0.5721111 0.24105489 -0.11071095 0.33167547 0.13276087 -0.22498159 -0.11226123 -0.08734846 -0.6616343 0.41262347 0.33783713 -0.20551991 -0.20116033 0.03891533 0.19992541 -0.016916255 0.27956507 0.26907182 -0.14087111 0.15737154 -0.4367508 -0.22863749 -0.49820456 0.15316074 -0.6646792 0.0006794435 0.37280428 0.41854718 0.33754212 0.11335003 -0.011735136 0.10438992 -0.053484607 0.59558016 -0.5130936 -0.4589779 -0.44188377 -0.56972885 0.43963268 0.5131022 0.38449973 0.08236227 0.1082354 -0.054149494 -0.4073484 0.51913804 -0.16097033 -0.17102683 -0.19726159 -0.25098127 -0.1698662 0.73110616 -0.45823753 0.09136424 -0.4582281 -0.0054082265 -0.22737889 -0.13044141 0.2924542 -0.0008679582 -0.6176759 0.4682331 0.29633775 0.3800044 -0.03990082 -0.037757844 0.4831887 -0.15858418 0.09041577 0.44414157 -0.80921286 -0.77479446 -0.05014591 -0.057599746 -0.1117217 0.41490453 0.5356295 -0.4479687 0.6358396 -0.49383342 -0.26763555 0.1293887 0.04452415 -0.09670331 -0.3343568 -0.44689584 -0.42879716 0.13186482 0.5737588 -0.4338186 -0.27443132 0.12158795 0.37555367 0.4920414 0.014693539 0.043156385 0.29131618 -0.5436448 0.20694324 -0.22957288 0.20508528 0.21918277 -0.07450899 -0.48971468 0.44474182 -0.064523384 -0.12343824 0.17072159
155 0.16535142 -0.23210521 -0.5299975 0.3139074 0.41432932 0.15955086 -0.41055045 0.27843112 0.54349774 0.0456404 -0.47517678 -0.04414636 0.14768432 -0.42428786 0.007864551 -0.30433267 0.3393068 0.19240277 -0.4295984 -0.08070363 -1.1888521 -0.06972626 0.23087288 0.0926933 0.21835437 -0.5016178 0.10278006 0.4105715 -0.6353957 0.19482315 0.71380186 -0.2853422 0.45274484 0.088326134 -0.4128299 0.033568 -0.07131176 0.39603022 -0.22343601 0.1525719 -0.25554177 0.18704352 -0.46320784 0.4157099 -0.34036043 0.18219338 0.5036583 0.7359157 0.52518487 0.5999904 -0.025627134 -0.07883874 -0.4109482 0.053563718 -0.95552355 -0.6426629 -0.48460078 -0.5805276 0.57505566 0.13625439 0.56681097 -3.5361445e-06 0.3888168 -0.065112345 -0.395006 0.49896982 -0.008099621 0.0767973 -0.48917362 0.04969623 -0.15953825 0.3171158 -0.5489136 0.037530083 -0.30537418 0.08421464 -0.29047495 -0.21271941 0.25508323 -0.5135937 -0.614898 0.30024222 0.49312145 0.3270223 -0.040514134 0.09791517 0.24229665 0.50227034 -0.15757796 0.7073238 -0.7428804 -0.4227038 0.37707764 -0.18122913 -0.16999558 0.09526185 -0.11521746 -0.16665798 0.3819805 -0.11051388 -0.2601624 -0.031872913 0.14181331 -0.003793701 0.00034107958 -0.6529137 -0.06346193 0.015708989 0.414907 -0.18740676 0.062372446 0.06194775 -0.4774305 0.42645854 0.5872719 -0.29153162 0.38492203 -0.18595439 -0.026960637 -0.3194262 0.044190805 0.08003736 -0.016158508 -0.002818061 0.11212298 -0.26361772 -0.60495836 -0.49859866
108 -0.0026641455 0.41801313 -0.5995002 -0.17011043 0.38075042 -0.14583343 -0.19466954 0.12324686 0.29619372 0.349201 0.32950214 -0.21509619 0.2377896 -0.0774384 0.092695914 0.1352583 0.28877008 -0.15054958 -0.58540475 -0.0048997425 -0.5654969 0.28505108 -0.095349796 0.25097254 0.15650214 -0.23955625 0.010779152 -0.07199241 -0.77728504 0.33510333 0.3382368 -0.2705704 -0.1928111 0.0755691 0.099673904 0.035246518 0.17551856 0.31693786 -0.21741635 0.14989798 -0.28367317 -0.27189428 -0.5594474 0.17082256 -0.58412534 0.06726004 0.40186036 0.4141523 0.37030056 0.16298075 0.003479572 0.12983617 -0.20295314 0.6768758 -0.4396781 -0.47070935 -0.31557837 -0.6351695 0.41879928 0.60631484 0.47975832 0.15490934 0.053497497 -0.024853176 -0.4879317 0.49894235 -0.26779622 -0.12728305 -0.24437247 -0.25086918 -0.09920035 0.7247785 -0.38986796 0.06283005 -0.49317464 -0.15720096 -0.3094019 -0.07632063 0.38036096 -0.07539325 -0.70603853 0.44601247 0.34942824 0.25149542 0.031269453 -0.039475713 0.40094697 -0.12824479 -0.020584902 0.5450847 -0.850372 -0.7668456 -0.0105979415 -0.13914783 -0.06298266 0.47449282 0.66846716 -0.41302755 0.6387187 -0.48902908 -0.28360724 0.06761222 0.100268744 -0.020795412 -0.48086062 -0.34374592 -0.5739096 0.015433964 0.5098071 -0.5363941 -0.42727783 0.06584641 0.40925187 0.5132741 0.2209109 -0.07983859 0.40500116 -0.5839399 0.1633799 -0.34817445 0.16048399 0.14164482 -0.06657505 -0.4335777 0.43243682 0.04105917 -0.12567681 0.14664482
206 -0.5512626 -0.40309536 -0.41453567 0.15095562 0.08481211 0.18897465 -0.22309643 0.53451496 0.60559565 -0.26493102 -0.30734003 -0.18131354 -0.24376023 -0.053697642 -0.15640432 -0.07406747 0.25203955 -0.317611 -0.088146806 -0.037604958 -0.447883 -0.4660119 0.43623284 0.09848993 0.013852858 0.10854246 -0.24459527 0.12830447 -0.0099187 -0.48833758 0.61295396 0.1716814 0.36914328 -0.6267046 0.11707527 -0.19547518 -0.24074133 -0.18107764 0.22734396 0.3315025 -0.23668404 0.123206876 -0.35076496 0.57800156 0.23665226 -0.059277095 0.010289146 0.29773563 0.07762667 0.2883391 0.41506147 0.15892816 -0.452989 -0.29864094 -0.6461553 -0.60727704 -0.39899656 -0.34213537 0.24540119 -0.05074231 0.15825614 0.13917649 0.09260667 0.17925629 0.10674299 -0.4468507 -0.28615093 -0.29641742 0.12828512 0.2194873 -0.69020677 0.54532 0.1694765 0.28240272 -0.2884508 -0.30058506 -0.7183133 0.45597056 0.05940239 0.033808414 -0.56331575 0.06652067 0.34703377 -0.007609399 0.053111527 0.1885914 0.10351174 0.51636887 -0.007704809 0.5263672 0.27953005 -0.55365455 0.17776199 0.3428982 -0.018153857 0.2673613 -0.059346657 -0.44141537 0.69108653 0.013752426 -0.29007876 0.10230092 0.4895171 -0.12614278 -0.35203493 -0.7645561 0.5114729 0.24704418 0.20031467 0.15955879 -0.30199948 0.028946094 -0.15132345 -0.28964356 -0.32611522 -0.05525495 0.026824215 -0.16136062 0.4589471 0.100671925 0.20616853 -0.36762813 -0.38001123 -0.33845246 0.3446753 0.24654154 0.10769988 -0.38357252
140 -0.02664494 -0.6749448 0.017483817 0.055683106 0.19881509 0.47145665 0.19335163 0.47902438 0.5832566 -0.3337279 -0.6970667 0.109911814 -0.44760144 -0.34124318 -0.2640972 0.2865361 -0.24667722 -0.23364142 -0.11703657 0.11669623 -0.19449311 0.22410537 0.5402129 0.52548254 0.079262406 0.06714975 -0.69716007 0.119033225 -0.17686342 0.5856513 -0.2189607 -0.06735941 -0.10725971 -0.25048736 0.06979737 -0.27756134 -0.8434831 -0.12998126 0.42805657 0.07681732 0.082424745 0.46133405 -0.14458129 -0.26031208 -0.118020885 -0.2648014 0.052467823 -0.004023073 -0.2553848 -0.21513681 -0.5547668 -0.45188302 -0.33274278 -0.14331971 -0.541687 -0.33442757 0.3311733 -0.09957843 -0.07182445 -0.13379586 0.38460195 0.7345887 0.12894371 -0.144176 0.117175214 0.37375766 -1.2428719 0.23241204 -0.39582846 -0.22230178 -0.72269344 -0.423438 0.07300363 -0.11744816 -0.28930867 0.32074744 -0.532588 0.2906492 -0.38663173 -0.031672884 -0.13837153 0.21438129 0.5967981 0.71878636 0.5729089 -0.20878668 0.00075924874 -0.19514632 0.08409805 0.06784663 0.24212664 -1.0869917 -0.17337903 -0.010899409 -0.09170413 0.70378864 -0.06200706 -0.21056984 0.4373364 -0.0020017417 0.117988154 0.42859855 0.06964244 0.2506231 0.28514078 -0.255216 -0.020773789 -0.16487205 0.11027152 0.26478213 0.028162101 -0.041652437 -0.4400093 0.03603195 -0.17399088 -0.53038347 -0.010761544 -0.18713418 0.10434716 0.3100919 0.1815912 0.13577618 0.026271254 -0.27180853 0.037477784 0.14680433 -0.10370895 0.12267192
139 -0.14995256 -0.4587392 -0.07249905 0.27044994 0.07863441 0.40819037 0.09947134 0.7065826 0.7057578 -0.23593298 -0.42984977 -0.16758408 -0.55593276 -0.32338664 -0.1824697 0.32290155 -0.2084525 -0.28852373 -0.12716177 0.1681244 -0.40218267 0.22297502 0.4590672 0.3843485 0.034397013 -0.076348655 -0.70211804 -0.108406164 -0.032716744 0.41000518 -0.29249597 0.16920301 -0.15298885 -0.37919697 0.22336763 -0.09118696 -0.82351756 -0.27475455 0.3985862 0.026145672 0.3302975 0.41897234 -0.16907068 -0.240546 -0.20952573 -0.1396821 -0.026554443 0.05806338 -0.1381358 -0.27726033 -0.46894306 -0.50217724 -0.3765569 0.010356904 -0.3637707 -0.30899692 0.2225723 -0.1803421 -0.0106039 -0.2771088 0.52563924 0.83480656 0.032993563 -0.022751082 0.0041903374 0.29849204 -1.2279178 0.23276715 -0.22195518 -0.19444154 -0.92698497 -0.3662493 0.038990922 -0.06545322 -0.48833078 0.14325544 -0.43592855 0.47681698 -0.41762874 0.0145695675 -0.1572179 0.22810055 0.53644234 0.65539235 0.57976556 -0.088218026 -0.19622485 -0.24638349 0.059136678 -0.086541444 0.32752386 -0.9773278 -0.26319295 0.109377824 0.13637444 0.8076213 -0.13740097 -0.2799375 0.5320929 0.03071158 0.065543525 0.5429727 0.13968095 0.14125176 0.12672846 -0.2537073 -0.029157992 -0.18946122 0.26527 0.24563622 0.060767673 0.0015365679 -0.4263126 -0.12359927 -0.04701498 -0.53428805 -0.10601259 -0.14271635 0.25153756 0.280491 0.072494686 0.21525776 0.16654797 -0.32901052 0.066732705 0.26246604 0.09531245 0.22793075
102 -0.6771113 0.5542914 -0.18359265 -0.08766564 -0.009517153 0.11382911 -0.05056946 -0.0859231 -0.10321979 -0.14274049 -0.3103517 -0.07190612 -0.19701087 -0.22221324 0.07663957 0.113619655 0.23396617 -0.40528995 -0.033302452 -0.11367001 0.5130831 -0.012812008 0.5747344 0.5402748 0.0067704828 -0.16190758 -0.72993606 0.36812326 0.38020918 0.114896774 0.034714844 0.04916107 -0.26593894 -0.035414826 -0.2409769 -0.37130633 -0.2376887 -0.68086463 -0.6708946 -0.01352582 0.023396373 0.6809186 -0.4979964 0.3822223 -0.054945182 0.5092972 0.55566263 0.4394201 0.14381331 0.5504904 -0.25511858 -0.5638704 -0.27474043 -0.4365441 -0.15035717 -0.018637171 -0.5202702 -0.34870723 0.2237999 -1.0242152 0.6295395 0.7130464 -0.012768284 -0.037098926 -0.55565304 0.22220981 -0.47617126 0.46354824 -0.19571541 0.39728242 -0.37559938 0.09791882 0.11942266 0.15017878 0.077957146 -0.016754763 0.06733263 -0.38680932 -0.22867566 -0.2855622 -0.23289132 -0.04491665 0.54798865 0.6419179 0.4950553 0.20745929 0.0756664 0.06322262 -0.10697289 0.11898931 0.11147156 -0.8903247 0.09217023 -0.2715042 -0.38440436 0.17953691 0.19104795 0.0600377 0.25541723 -0.01513832 -0.47570843 -0.016665135 -0.29510367 -0.33147264 -0.19210207 -0.61144835 0.030047826 -0.06850563 -0.10738486 0.8397568 0.41297683 -0.03184469 -0.16865933 0.17160277 -0.23254651 -0.6312451 -0.22485636 -0.6821975 -0.13210301 0.07897691 0.34656432 -0.04639812 0.2913312 -0.35261005 0.046754736 0.4989379 -1.0215567 -0.15273237
101 -0.67194843 0.6674268 -0.16967712 -0.109389365 -0.12834252 0.017071465 -0.115725845 -0.1385573 -0.020756815 -0.09985293 -0.22472955 -0.16523702 -0.14832632 -0.34552377 0.16443639 0.15994829 0.29904 -0.376058 -0.057856333 -0.35937908 0.36394587 0.051719036 0.5105439 0.6891657 -0.006656358 -0.09127079 -0.70045114 0.30413342 0.3881331 0.17763524 0.017843917 0.081738696 -0.20514828 -0.066881105 -0.18379521 -0.3863935 -0.038806573 -0.79240173 -0.5273433 -0.07012959 0.034468766 0.65183765 -0.4955304 0.43813497 -0.029986404 0.42660058 0.58681446 0.43538263 0.27730522 0.56071573 -0.2642381 -0.5971785 -0.29961562 -0.3559647 -0.13421749 0.027638894 -0.42919424 -0.32524195 0.24220859 -0.8785288 0.63099587 0.57213736 -0.022326963 -0.036918804 -0.48703587 0.22369222 -0.43868828 0.5672803 -0.33054653 0.323802 -0.32304054 0.2217516 0.022941288 0.15685643 0.11903148 0.016959071 0.03291316 -0.3200817 -0.3419533 -0.36295474 -0.1744918 0.07280842 0.6439568 0.49741152 0.53501606 0.07917607 0.25971636 0.07088727 -0.034269225 0.1032725 0.04533315 -0.9800064 0.13749802 -0.35242486 -0.36076266 0.10364277 0.23325618 0.09094366 0.14871654 0.21295638 -0.3818321 -0.0016952194 -0.13702364 -0.30420604 -0.06880439 -0.6665864 -0.07439581 -0.059219297 -0.05258752 0.6354722 0.32129604 -0.055574372 -0.26397017 0.19961809 -0.37811732 -0.64911294 -0.31993872 -0.6495984 -0.14485593 0.15282485 0.48220825 -0.16192082 0.11686136 -0.38170445 0.16190441 0.5362912 -1.0227485 -0.2528014
184 0.11050904 -0.17126286 0.06829732 0.34186134 -0.79978454 -0.13589644 0.11831036 -0.3267484 0.829084 0.6498866 0.16829379 0.18126698 0.100379504 -0.16267657 0.08279674 -0.11678123 0.17264739 -0.78370595 -0.0753705 -0.6628108 -0.2154045 0.5614485 0.8878333 0.062244117 -0.15668517 -0.34140006 -0.28500143 0.21044771 -0.56541693 -0.19025727 0.10066614 -1.1205585 0.61232686 -0.09954943 0.3783008 -0.2618001 0.43983197 -0.35725468 -0.25508317 0.4040728 -0.086917385 -0.6110651 -0.17321838 0.45569214 -0.5709543 -0.23243505 0.32150057 0.100699484 -0.3595476 0.8961886 0.043054033 -0.72694224 -0.288054 -0.1687614 -0.31758264 0.10932199 -0.8887364 0.5682516 -0.38563615 -0.11553582 0.018980483 0.8843912 -0.18186152 0.11038798 -0.46678722 0.12241269 0.038861725 -0.13969135 -0.26068455 0.2610879 -0.45928067 0.47960404 -0.23808537 -0.29161596 -0.18554276 -0.021782087 0.02429839 -0.1601207 -0.30407318 -0.07196414 -0.77932286 -0.2806904 0.13790905 0.15680411 0.20352727 0.30900177 -0.010042438 0.046267826 -0.035343345 0.24367389 0.23396753 0.17801914 -0.6527038 0.18781519 -0.06177242 0.86227053 0.33036283 0.27988988 0.43349156 -0.68541706 0.2001987 -0.50982684 0.4988181 -0.0621418 0.005574822 -0.239572 -0.005767695 0.2628386 -0.09408261 0.5770389 0.04609048 0.53339016 0.018421602 -0.26377332 -0.282963 -0.2276247 0.4438089 -0.21308322 0.010578237 0.041183535 -0.11050512 -0.20324655 0.31168693 0.024610648 0.46378025 0.5397283 0.18220995 0.1458012
183 0.101840764 -0.12027189 0.21009202 0.44643435 -0.796431 -0.10293205 0.15480286 -0.43664333 0.845561 0.5150102 0.14617771 0.24626362 0.17159574 -0.053196333 0.09082994 -0.18899542 0.23077933 -0.7782016 0.0022723507 -0.6052423 -0.09010074 0.60909456 0.9359841 -0.034135714 -0.02301553 -0.27399683 -0.24799173 0.12975201 -0.48177782 -0.229464 -0.049887635 -0.9978264 0.59907335 -0.25498936 0.5114165 -0.21241327 0.3277851 -0.36862653 -0.19901703 0.23188522 -0.029648682 -0.5435305 -0.120780095 0.4211076 -0.5256719 -0.25311878 0.2890341 0.178825 -0.403006 0.95834196 0.05899154 -0.65043813 -0.31467807 -0.17417297 -0.32350317 0.12797017 -0.7832678 0.52085155 -0.28136903 -0.15031826 0.052111194 0.91875243 -0.20739216 0.09818678 -0.48748872 0.18883201 0.037443843 -0.11649333 -0.17824315 0.2709442 -0.45480692 0.48832673 -0.20980303 -0.2306738 -0.3209899 0.049050022 0.03337601 -0.29245487 -0.5010539 -0.005944927 -0.78093493 -0.30130526 0.071171336 0.18159506 0.3035963 0.09705195 0.013161782 -0.09818565 0.08635959 0.13210176 0.2397328 0.22246286 -0.8398404 0.2628687 -0.07900499 0.97258025 0.31530446 0.2888509 0.4836395 -0.6252663 0.15521984 -0.53857636 0.5467303 -0.08930573 -0.04635695 -0.23300993 0.013925495 0.4527035 0.0015893951 0.6602416 0.08005325 0.501984 0.10579858 -0.3072003 -0.26406884 -0.29994446 0.4102068 -0.39849856 0.12866762 0.08361981 -0.022309659 -0.14618327 0.29703996 -0.016668212 0.471 0.4828428 0.13431075 0.32846317
63 0.017622482 -0.019053724 -0.24957521 -0.3590836 0.3111841 -0.27762914 0.10516923 0.43920332 1.3573595 0.13309596 0.043966196 0.547798 -0.0141710695 0.20651239 -0.07024633 -0.21352254 0.49472567 -0.022879716 0.0176153 -0.2730273 0.5110062 0.46167508 -0.25374237 -0.3828887 0.046868194 -0.3840659 -0.3950371 0.24475804 -0.09523809 -0.0982904 0.58866155 -0.3832723 -0.19365247 -0.26643977 -0.13684179 0.34134653 -0.11960997 -0.3856156 -0.2479215 0.22540928 -0.16048518 -0.052035987 -0.7202214 -0.028444314 -0.05432169 0.17010349 0.6135854 0.0024132503 -0.1283929 0.6044205 -0.09510648 -0.34007958 -0.20877254 0.13042296 -0.62142634 -0.3855987 -0.26111132 0.07507416 0.32423475 0.056175273 0.08946372 0.001852575 -0.1840912 -0.20749249 0.0126860365 -0.2680328 -0.35208797 -0.40491372 0.2609648 0.23843692 -0.13922988 0.38290092 0.34048837 0.27823055 0.13611671 -0.24735728 0.056360375 0.15382884 0.29714856 0.5946324 -0.30558544 -0.19953167 -0.20522436 -0.117413245 0.17458981 0.1274853 0.27998656 -0.12510239 0.17459531 -0.14575025 0.1874029 -0.32374382 -0.11372878 0.04310567 -0.44161054 0.1368393 0.13164154 0.34278625 -0.36089718 -0.21641189 -0.028290397 0.12235612 0.28377172 -0.27655756 0.16720311 -0.07672305 0.08416497 -0.1628499 0.1226602 0.39734337 0.12518531 0.27091834 0.07857971 -0.012773864 -0.21582845 0.4259535 0.005038231 -0.01774711 -0.43077743 -0.47461903 0.052833475 -0.003955623 0.3510402 0.08868228 -0.40860227 -0.18982898 0.29320925 -0.122758426
152 0.11092508 -0.3014159 -0.693483 0.0035967245 -0.078380756 -0.0013528352 -0.11020319 -0.042614598 0.92483634 0.21210726 0.49873763 0.6916668 0.017449683 -0.03199573 -0.15810408 -0.16517875 0.054356065 -0.17191151 0.036734886 0.030008111 -0.4106306 0.26856896 -0.4884847 -0.20883605 0.07110759 -0.46429506 -0.19545463 0.0032558553 -0.32265544 -0.32311776 -0.08693432 -0.6445302 0.042385813 -0.47300625 0.24133702 0.2882006 0.2737728 -0.2312243 -0.25719026 -0.2438285 0.10384587 0.19867773 -0.57048476 0.14037402 -0.21824466 0.677297 0.6394663 0.33558983 0.036523398 0.5818972 -0.07833119 -0.16909808 -0.0651854 -0.59277797 -0.75570136 0.09811451 -0.07689624 -0.09916502 0.036416307 -0.032905646 0.38248655 0.1647573 -0.6738178 0.05917395 -0.12247941 0.06510221 0.4097807 -0.31154117 -0.32174465 0.21418683 0.3567244 0.41331187 -0.5917537 0.07184152 -0.41270378 0.054986548 0.32219705 0.26033387 0.024623133 0.103803806 -0.86541694 -0.4667961 -0.09324793 0.29919317 0.13256367 -0.48968217 0.139973 -0.019891689 0.06966999 -0.06393019 0.06913922 -0.02905413 -0.38603437 -0.08912953 -0.016604543 0.113431856 -0.13335583 -0.3926396 0.29946813 -0.248027 0.36130756 0.29739916 0.15407981 0.41833067 0.16709684 -0.6397596 0.2774569 0.56445986 0.66050446 0.42271745 0.44196233 0.54344785 0.382138 -0.15177874 0.07854997 0.47218156 0.3366513 0.3344062 0.052122172 0.1747897 -0.03922198 0.026164701 0.31402013 0.33134124 0.44002673 0.35021353 -0.18948178 -0.10806891
216 -0.1451927 -0.1082611 -0.609247 0.81330866 -0.29694095 -0.52917534 0.6262007 0.69240946 0.7704061 0.13692884 0.33237886 0.13113637 -0.15773632 -0.11468104 -0.14138027 -0.060226128 -0.19121681 0.37389752 0.12996125 -0.13393483 -0.37439802 0.31112856 -0.5572249 -0.4951193 -0.33486336 -0.7170519 -0.40593547 -0.15700231 -0.16449216 -0.14641792 0.3420317 -0.65168 0.03845832 -0.09871425 0.30654767 0.1684886 0.12897207 -0.13518341 -0.70447284 0.05296295 0.25341207 0.28610516 -0.8471152 0.26070818 -0.1706531 0.7471731 0.7156083 -0.015758011 -0.15246888 0.40507445 -0.00047755637 -0.72280425 -0.070578225 -0.08621048 -0.5973803 -0.035851307 -0.001243824 0.22468159 0.009848223 -0.21525528 0.40227145 0.19747917 0.019803567 -0.3517585 -0.034812275 0.48342612 -0.17005406 -0.14093581 -0.31935233 0.44497934 -0.38136458 0.23387516 -0.63252854 -0.14990607 -0.10531275 -0.28109056 0.32266492 0.35107592 0.27666277 -0.029157666 -0.22216552 -0.0537818 -0.16459991 0.4010445 -0.06557226 -0.34951875 0.35479137 0.29427978 -0.11888724 -0.43374366 -0.16995136 0.3602718 -0.4110204 0.3421118 -0.024663765 0.027146133 -0.18268107 -0.6116095 0.57399637 -0.3866884 0.03267905 0.53996867 -0.19777617 -0.33256593 0.29602453 -0.48797336 0.07094759 -0.4242676 0.34219855 -0.08624574 0.557303 0.5141801 0.46243933 0.5632833 0.2563776 -0.073289394 0.011563797 0.029566592 -0.1959964 0.0769876 -0.36365542 0.21578254 0.7481287 -0.026527835 0.10807458 0.13483533 -0.0014880284 -0.058783773
62 0.08716253 0.114441864 -0.27033794 -0.44520843 0.29957747 -0.19602008 0.15272692 0.521704 1.4201776 0.119436555 0.027292732 0.4899911 0.016246868 0.1514061 -0.11964983 -0.20663126 0.4000424 0.008052233 -0.0037086376 -0.27504814 0.56468064 0.5578447 -0.27035433 -0.34971985 -0.046322525 -0.36390272 -0.48568523 0.25288066 -0.07449033 -0.0055273925 0.6896365 -0.51140076 -0.15851754 -0.07737733 -0.08727106 0.38870648 -0.105137825 -0.42151788 -0.3649066 0.2437112 -0.15784913 -0.08903236 -0.80730885 0.021726623 -0.076982945 0.07649135 0.71835387 0.048733823 -0.17260958 0.7056063 0.003252783 -0.3896582 -0.28060567 0.17934233 -0.60453653 -0.3708929 -0.3831995 0.081596054 0.3452273 0.12614466 0.15990013 0.15973888 -0.04127728 -0.15146108 -0.05258842 -0.16528133 -0.31487635 -0.4450934 0.33812448 0.17600018 -0.08800624 0.259226 0.32582134 0.23270704 0.099884026 -0.20240825 0.14571929 0.099720135 0.21025556 0.6204261 -0.3588508 -0.21872005 -0.2321131 -0.16871433 0.09326965 0.120479204 0.34002578 -0.05945462 0.19248661 -0.24371071 0.1931984 -0.2751665 -0.21198894 0.10912341 -0.42208993 0.12653089 0.20902121 0.2679657 -0.33328462 -0.15574217 -0.01641853 0.01703752 0.3349974 -0.3888017 0.11736085 -0.09755375 0.024373058 -0.22218756 0.032487452 0.3290475 0.16167767 0.1959116 0.20778981 0.010541446 -0.029437382 0.46852952 0.069887 -0.08808255 -0.41932452 -0.5244238 0.013017723 0.0072297915 0.43100706 0.014886298 -0.40674755 -0.25566003 0.20845012 -0.09725628
