222 128
181 0.328081 -0.07325016 -0.1439597 -0.11626903 -0.15603462 -0.42971626 0.15562595 0.4104757 -0.13131733 -0.028718809 0.40660718 -0.039802533 0.07560039 0.23626952 0.14388444 -0.13864455 0.5258542 -0.40100187 0.16780569 0.046758622 0.13086227 -0.4119205 0.08235459 0.53961766 0.32684845 0.3980825 0.22318411 0.015559412 -0.011948867 0.33243895 -0.0042530946 0.4324936 -0.034870412 -0.014418318 -0.3474809 -0.033878345 0.45855182 -0.1419735 0.10199346 0.2475965 0.76070267 -0.0045554508 0.1723164 0.23114285 0.03940624 0.14184988 -0.007264527 -0.1911054 -0.13726397 -4.3106702e-05 -0.44605407 -0.16288468 0.6311846 0.40424004 -0.043860383 0.06090735 0.34825435 -0.43795368 -0.24914704 -0.15685213 -0.16978389 -0.1943128 0.114110336 0.10188416 -0.18019459 0.18994218 0.3219616 0.00036706397 0.012105288 -0.081166446 0.5280635 0.07910379 0.7411106 0.19618928 -0.3080485 -0.19237347 0.13237189 -0.21039286 -0.08254513 -0.47272235 -0.082278945 0.088755235 0.122846864 -0.4652762 0.028411312 -0.27820522 0.10860015 0.5114682 -0.39193013 0.1538803 0.15601234 0.3505677 0.000525808 0.02546425 -0.019275682 -0.21872099 0.12924354 -0.07494277 -0.07109664 0.23735711 0.35603133 0.32760474 0.23649052 0.01251006 0.01001748 0.18398103 0.33304334 0.14219417 0.19170521 -0.10353717 -0.14096156 0.045704693 -0.2574923 0.16053155 0.29565784 -0.19096962 0.11701025 0.16651042 -0.03155438 -0.009971715 0.5744313 -0.84403557 -0.05559606 0.3509128 -0.17585145 -0.037154064 -0.34543523 -0.23639312
182 0.36064357 -0.033565465 -0.17808571 -0.12806879 -0.24321368 -0.4636707 0.14628458 0.47472388 -0.09400575 -0.12361755 0.48984483 0.005527158 0.12676223 0.18113779 0.016330576 -0.06351674 0.6379354 -0.43911326 0.23440851 0.06544656 0.19699761 -0.44083923 0.07636627 0.47741875 0.28171942 0.38103145 0.20837659 -0.024135008 -0.13332854 0.33811384 0.025835939 0.38704252 -0.03408889 0.056740396 -0.40585208 -0.12367591 0.507385 -0.2234045 0.1062127 0.3500789 0.74861455 -0.0056429347 0.20648967 0.23321328 -0.039611984 0.092870735 0.022771854 -0.2626168 -0.16624036 0.049149312 -0.47063616 -0.17784505 0.6346867 0.3784038 -0.061800133 0.029936561 0.40346706 -0.35433567 -0.30972502 -0.1134071 -0.09007273 -0.18678457 0.15131041 0.18069641 -0.17289008 0.19570245 0.22946921 0.029365204 -0.009883766 -0.0030900745 0.5720275 0.10122698 0.722774 0.25854447 -0.259449 -0.19088568 0.17037216 -0.24090758 -0.03258319 -0.41483796 -0.12247383 0.115930505 0.14629471 -0.5088426 0.06827873 -0.2549321 0.09674364 0.51681453 -0.36199883 0.1700097 0.1485391 0.3564744 -0.09542577 0.098580755 -0.06316435 -0.16056159 0.012989467 -0.13476199 -0.06111758 0.19450918 0.33738887 0.2578274 0.27198932 0.095893614 0.06311501 0.17222778 0.34962648 0.14341561 0.14657813 -0.09959151 -0.17303123 0.035172276 -0.24664542 0.19855571 0.2607096 -0.23864453 0.18672886 0.13037457 0.03155385 -0.05383253 0.631856 -0.8031103 -0.108695924 0.34210727 -0.17481804 -0.0120539665 -0.22513026 -0.25870267
185 0.100181215 -0.113250375 -0.17179953 -0.06597613 -0.16900052 -0.18882112 0.062680155 0.6001354 -0.1145382 -0.32944432 -0.03278675 0.08228056 -0.071999796 0.10999255 0.12249467 -0.23340379 0.32537347 -0.4243304 0.24906884 -0.15715538 -0.019916559 -0.24272421 0.08951341 0.50095445 0.035795026 0.63237005 -0.086744465 0.02344064 0.2090644 0.36014313 -0.3007709 0.36640832 -0.0347459 -0.3130816 -0.3173114 -0.35853234 0.1366236 -0.18144025 0.23860675 -0.13570109 0.2613786 0.07191433 0.049102418 0.20670572 -0.28796178 -0.03527655 -0.059485458 0.029687515 -0.11036307 -0.23881237 -0.41136166 -0.048522577 0.17660828 -0.027373584 -0.039248556 -0.22968064 0.15850987 -0.48344123 -0.052321855 -0.17499927 0.043872073 -0.123326905 -0.11403636 -0.18048778 0.09222224 0.13276434 0.08789549 -0.2101185 -0.33891115 -0.13525467 0.4722908 -0.16089162 0.52355695 0.35156795 -0.11877932 0.06865889 -0.11749153 -0.473101 -0.01711886 -0.62602806 0.1583008 -0.074493974 0.26464823 -0.2976782 -0.0013283249 -0.1838316 -0.017099405 0.558865 -0.26854172 0.13924961 0.276168 0.1835318 -0.07549339 0.15521479 -0.048899014 -0.17768478 0.012868285 -0.19344765 0.36813998 0.23717657 -0.021127218 0.08764447 0.19608696 -0.08811916 0.2603115 -0.0045607314 0.31377786 0.32564256 -0.101326466 -0.06662755 -0.18016209 -0.014075472 -0.20775294 0.06526168 0.1599319 -0.08114837 -0.0728868 0.1843742 -0.29329363 0.25738844 0.23999281 -0.91849643 0.106076695 0.06846139 -0.101922244 -0.058445003 -0.36162502 -0.33409712
186 0.101897426 -0.14187206 -0.21468112 -0.14632249 -0.14111504 -0.33658525 0.11866144 0.45830488 -0.061707 -0.16668616 0.007986902 0.110187314 -0.09399261 0.023437047 0.16631578 -0.29643396 0.42217064 -0.40766427 0.23650585 -0.08257552 -0.023393981 -0.24098057 0.0823452 0.42092967 0.10876654 0.650238 0.0077186045 -0.12749697 0.23100531 0.33555 -0.28657812 0.40852195 -0.09419438 -0.3061783 -0.37192175 -0.34408098 0.10385895 -0.1947844 0.2963421 -0.02962221 0.3696335 0.039157744 0.14164829 0.18253782 -0.18671368 -0.05908986 0.039780162 -0.009266409 -0.036295135 -0.16544308 -0.42840195 -0.15645674 0.16083048 -0.08487362 0.07625823 -0.23262896 0.06317891 -0.45673075 -0.04535884 -0.29404873 0.038107354 -0.21018744 -0.14960533 -0.11354369 0.17354672 0.08744776 0.08224298 -0.1497824 -0.28184608 -0.05941934 0.49309117 -0.109632015 0.5493999 0.28074345 -0.07901265 0.056228526 -0.08332941 -0.47624803 -0.08612954 -0.5536851 0.14033426 -0.028401267 0.2302074 -0.32722473 0.032356992 -0.08692997 0.004307635 0.56619596 -0.28035927 0.234828 0.25211677 0.08663601 -0.08838738 0.0588677 -0.17829378 -0.2548199 -0.037679236 -0.16550845 0.32383165 0.32282612 0.011842433 0.061762575 0.19232161 -0.08356976 0.31603208 -0.012331339 0.2650727 0.44553417 -0.010823611 0.05596533 -0.23091508 -0.054463856 -0.15374622 0.08843515 0.09548193 -0.053237226 -0.115173794 0.14529063 -0.3620712 0.09132726 0.23351672 -0.78233093 -0.0043230536 0.080461144 0.049835965 0.072836205 -0.2636429 -0.35732764
150 0.37846714 -0.22699106 -0.026045846 0.38729692 -0.34297836 -0.75111693 -0.10405104 1.2718046 0.18000555 -0.42341083 0.19575812 0.2673121 0.100302115 0.25799662 -0.1710442 -0.5026825 0.11429516 -0.23802176 -0.01909716 0.6630877 -0.65230894 -0.53518075 -0.035303738 0.15748975 0.065641865 0.47723788 0.09402211 0.1495181 0.38199338 0.098339334 -0.3348649 0.0067107542 0.55473596 -0.2048478 0.08687014 0.009625504 -0.3367246 -0.32741648 0.26960954 0.6702177 0.06877222 0.13854028 0.419516 0.29828712 -0.13792583 0.008776306 -0.32777786 -0.1943846 -0.0469264 -0.38523436 -0.010602985 0.053362224 0.113443345 -0.12862684 -0.20108944 -0.16893089 -0.47354344 -0.66904616 -0.07201446 0.029377582 -0.3720933 0.05477603 0.19641069 0.3112461 0.22872818 -0.038999867 -0.1036102 -0.09194372 -0.2971195 0.15477136 -0.31265938 -0.42249408 0.21817319 -0.06375977 -0.13441925 -0.15030873 -0.38598365 -0.23771691 -0.19211318 -0.31936336 0.28279018 0.12951799 0.21545725 -0.5746735 0.21714456 0.1432049 -0.03896347 0.19970979 -0.42718613 -0.024475714 0.08836123 0.20497717 -0.5257208 0.46237445 0.26526076 -0.070352845 0.024462223 0.019655216 0.32645202 -0.052159034 -0.1119153 0.27539638 -0.18803343 0.06202044 -0.036089603 -0.07443768 0.6388705 -0.33446673 -0.0888887 0.14604318 -0.30677563 0.007642634 0.09351993 -0.4103147 -0.4570388 -0.62680113 0.07179973 -0.117305435 0.054160804 -0.13919067 -0.42108074 0.08442251 0.13107854 -0.027724948 0.7322421 -0.16047941 -0.04957991 -0.06402008
149 0.27821 -0.19835514 -0.016901115 0.4315337 -0.2810196 -0.70372874 -0.045035772 1.2374854 0.08170793 -0.3475099 0.1662158 0.25169218 0.11930244 0.40700528 -0.17443672 -0.4663988 0.036693137 -0.2125944 -0.07868803 0.65883774 -0.64963454 -0.47466323 -0.037720628 0.14821027 0.1803825 0.51211387 0.0917429 0.24632527 0.34541124 0.14082903 -0.23535419 -0.120151475 0.5077022 -0.06664932 0.1456978 0.015292841 -0.27010182 -0.41951814 0.26156455 0.5886507 -0.023283686 0.12947935 0.44289201 0.34942508 -0.19791701 -0.0076335254 -0.41381085 -0.09342105 0.10012018 -0.27281556 -0.16771996 0.08405618 0.066920504 -0.23807369 -0.31038472 -0.23222087 -0.5239685 -0.6293508 -0.11563995 -0.04320111 -0.3841503 -0.003952548 0.24480751 0.35366368 0.17482595 -0.075583816 -0.050837655 -0.1374282 -0.28219846 0.14666338 -0.2940081 -0.31513238 0.18195099 0.00089019915 -0.17294581 -0.12749825 -0.27770063 -0.27680463 -0.13066171 -0.31073433 0.31918615 0.0129299015 0.16832192 -0.62933296 0.2462785 0.058682058 -0.104295045 0.18684337 -0.38729575 -0.070071116 0.102322854 0.28339183 -0.5600123 0.4504469 0.2336984 -0.13652119 0.15452003 0.05043988 0.2784028 -0.07669899 -0.23916185 0.3277971 -0.23937903 0.13461088 0.06424938 -0.07710021 0.56159234 -0.36872557 0.014914924 0.17510238 -0.33081552 -0.1048417 0.08674224 -0.3124509 -0.45865786 -0.59054685 0.020735787 -0.086168766 0.12945239 -0.09940936 -0.52691805 0.07671867 0.1339897 -0.0775388 0.77311057 -0.2121968 -0.069920495 0.028044797
67 0.32270434 -0.119363755 -0.31148148 -0.026541576 -0.46187556 -0.3936434 -0.102507785 0.115762815 -0.009313357 0.041342724 0.24827482 -0.21914114 -0.07515335 -0.032881405 0.021729391 -0.06179022 0.1760458 -0.30790597 0.23504339 -0.12131155 0.12908852 -0.16717581 0.25553864 0.2307847 0.17101334 0.7074548 0.20177174 -0.03433848 0.3188177 0.24622118 0.06778725 0.24368441 -0.084969155 -0.12221071 -0.31487858 -0.20597158 0.1260967 -0.24023838 0.26851878 0.085337736 0.28147098 0.23404388 0.13205841 0.35635784 -0.1917761 0.067980476 -0.1736408 0.10847878 0.011312375 -0.07007315 -0.34855577 0.0042274375 0.46928132 -0.03183871 -0.35143185 -0.043302603 0.1769115 -0.6518912 0.0072156824 -0.025505275 0.035024434 -0.20057146 0.071114376 0.21937855 0.008790892 0.04916465 0.22333746 0.02278394 0.15377575 -0.120545134 0.3020063 -0.16294828 0.22430104 0.3802272 -0.13359864 -0.089806 -0.28659552 -0.25664812 0.084027804 -0.28882435 0.046248965 -0.05225205 0.0035487786 -0.4610517 0.15852907 -0.2919372 0.1394785 0.6777885 -0.24726208 0.20036623 0.29776907 0.34291497 -0.0012850272 0.12828067 0.12129459 -0.37847662 -0.16715512 -0.075480334 0.24663417 0.31182614 0.31507304 0.23050888 0.22436406 -0.1344421 0.11394715 -0.02430686 0.4675426 0.06756678 -0.115686476 -0.15552725 -0.3223268 -0.14262748 0.067423336 -0.068622 -0.023693394 -0.18480673 0.13387957 0.20983373 0.030456455 0.26658744 0.3775449 -0.78635937 -0.1141134 0.20662852 0.08465535 -0.0026086408 -0.33742222 -0.24700971
170 0.4925632 0.1498396 -0.43500987 -0.2152332 0.27647778 -0.6415961 -0.25728562 0.379912 0.12511721 -0.2444606 0.16543597 -0.19700196 0.6739657 -0.47526467 0.11551674 -0.04293299 0.27206448 0.0047889706 0.10630796 0.06648751 0.38533866 -0.52576077 -0.23003 -0.13004743 -0.24886905 0.42811897 0.17629978 -0.13825375 0.2582418 -0.09172306 -0.101368815 0.42697406 0.010231443 -0.033705637 -0.3756252 -0.12494753 -0.02650466 -0.30321985 0.16310617 0.03041814 0.14771949 -0.49230883 -0.49948475 -0.118033394 -0.20853055 0.038708594 -0.054483958 -0.22703521 0.41114604 0.26704308 -0.3145797 -0.07942137 0.48922905 -0.03544744 0.4071742 -0.48252732 -0.16148245 -0.34430173 0.32472828 -0.079363525 -0.34813413 -0.20907688 0.041037936 -0.31391895 0.1530952 -0.09146002 0.2324619 -0.17844836 -0.14988971 -0.28563187 -0.052721366 -0.17462735 0.1881535 0.5043675 0.261876 0.23358205 -0.041868668 -0.30752873 0.08345039 -0.42961302 0.3015373 -0.105617255 0.46801713 -0.6056501 -0.23794392 0.049295496 -0.027274644 0.49765527 -0.29837382 0.38905278 0.17841583 0.033240724 -0.029025616 -0.058841098 -0.28756192 -0.10023111 -0.0785899 -0.54057574 0.20255566 0.38091272 -0.29582778 0.31874102 0.50838816 -0.06941642 -0.19468798 0.19291928 0.3442492 0.10773392 -0.06414066 0.0011773751 -0.091025874 0.3357043 0.5803782 -0.3224535 0.26503804 -0.2045764 -0.034063973 0.31884673 0.13452718 -0.06402515 -0.07534492 -0.4912967 -0.30226257 0.043476783 0.46767673 0.04028679 -0.33498925 -0.10587941
171 0.4284578 0.15518853 -0.42133507 -0.17459834 0.2503717 -0.6262817 -0.26731628 0.56765825 0.1389692 -0.21929671 0.21134703 -0.10463387 0.58558446 -0.4088637 -0.0037691689 0.016576933 0.32873052 0.012524189 0.06780359 -0.13003479 0.25124356 -0.55958706 -0.17733552 -0.25738433 -0.3033702 0.46381187 0.17291774 -0.0260635 0.24540865 -0.03140473 -0.07807676 0.3685188 0.048020646 -0.09898213 -0.32439303 -0.1964363 -0.09849738 -0.31659472 0.11029864 0.06096285 0.11540747 -0.5042825 -0.47265112 -0.12748756 -0.29826662 -0.024460083 0.01095613 -0.3034329 0.4105212 0.34473148 -0.20897986 -0.058083136 0.42344475 -0.06808274 0.34969583 -0.54530275 -0.27884212 -0.2935419 0.33717483 -0.04465729 -0.43043828 -0.1855515 0.1255161 -0.31462434 0.22130322 -0.116046615 0.13805497 -0.373314 -0.16196518 -0.2740412 -0.21436873 -0.124487154 0.2959849 0.5657659 0.21230495 0.23582354 -0.12801705 -0.31082174 0.19039455 -0.48029223 0.36781076 -0.0648927 0.5269186 -0.6276245 -0.27289912 0.077926934 -0.0042872345 0.44603923 -0.32047564 0.38574708 0.1647381 0.10480575 -0.007385115 0.054741874 -0.14941566 -0.17649078 -0.06822447 -0.47213677 0.120809816 0.46339834 -0.26433924 0.26710653 0.508943 0.011785301 -0.16327515 0.13148001 0.3634323 0.073111124 -0.22771367 0.007859359 0.05774154 0.32125297 0.60178065 -0.37916848 0.2681578 -0.20035215 0.09926966 0.25777236 0.19936164 0.01806524 -0.030654514 -0.48341495 -0.34051847 0.011638009 0.34292272 0.114558555 -0.38061365 -0.1627865
139 0.55349725 0.06637927 -0.45545837 -0.24171901 0.38714436 -0.51677567 -0.28514382 0.39344215 0.006034718 -0.28615478 0.08812635 -0.2895517 0.6727807 -0.26490438 0.037705168 -0.076763116 0.35872424 0.036796268 0.12406132 -0.062811054 0.2129878 -0.46864197 -0.23568729 -0.16953124 -0.15952125 0.5313522 0.16335182 0.029366147 0.2981681 -0.11236619 -0.16650474 0.33153465 0.0889782 -0.18229775 -0.2485054 0.053279065 -0.04460802 -0.24380559 0.13528612 0.1509304 0.005277743 -0.5519635 -0.508009 -0.12162607 -0.032636166 0.0072235144 0.04279079 -0.25006056 0.39361626 0.13016795 -0.39225653 -0.046510473 0.3582632 -0.04696242 0.41176018 -0.37086535 -0.19822092 -0.22282873 0.4507802 0.13634554 -0.15110615 -0.12050041 -0.051901527 -0.22016689 0.09069447 0.07257897 0.32470202 -0.3152483 -0.035850268 -0.23577215 -0.13390258 -0.11181375 0.12534705 0.46159983 0.2815294 0.4006732 -0.10672882 -0.15643568 0.17508522 -0.3682696 0.4295495 0.0054455013 0.5159889 -0.41521809 -0.3105889 -0.04578525 0.2111027 0.534618 -0.3429622 0.22459982 0.35324293 0.14022261 0.10461162 -0.11855968 -0.22220595 -0.1001717 -0.04761289 -0.54014874 0.11951589 0.40033647 -0.08823961 0.40345663 0.43042365 -0.364456 -0.044861145 0.25673255 0.35607967 0.21061118 -0.022087542 -0.06296141 0.051276296 0.16015485 0.3009683 -0.3198987 0.25866863 -0.14460357 0.05784923 0.34182298 0.15658778 0.048264507 -0.059138853 -0.63021165 -0.39339888 0.10193154 0.14203773 0.06907971 -0.26053077 -0.045485694
66 0.31136137 -0.18405105 -0.26484925 -0.0034232447 -0.45138758 -0.45373425 -0.09366487 0.14892738 0.14544111 0.077701844 0.2638679 -0.21907039 -0.1603464 0.014281989 0.052240543 -0.055771157 0.17109112 -0.36523953 0.35749012 -0.25519642 -0.017774964 -0.06976626 0.20095728 0.17776258 0.30547872 0.68240005 0.16255191 0.10043493 0.29710528 0.4519027 -0.023267409 0.16971336 -0.0847936 -0.06850336 -0.35306412 -0.30136257 0.08163604 -0.21810761 0.31644526 0.14229313 0.2606721 0.17267635 0.19720203 0.29537907 -0.25385597 0.07056307 -0.0979426 0.076241374 0.06629 -0.020834165 -0.3442629 -0.16663672 0.5083426 -0.049593043 -0.3951088 -0.07814769 0.22003494 -0.82340455 -0.008194165 0.069708526 0.11920909 -0.102757186 0.04477066 0.2025566 -0.058843423 -0.08508087 0.08100526 0.014292339 0.05566321 -0.18802716 0.40941507 -0.20055436 0.18824004 0.36355665 -0.28654364 -0.2105244 -0.21161973 -0.287142 0.08483413 -0.28906202 -0.11417375 0.080126025 0.057459682 -0.51020515 0.11753678 -0.3173903 0.1392259 0.7248345 -0.32557827 0.29324552 0.3367809 0.42707798 -0.023131039 0.12392364 0.006563181 -0.4291338 -0.10912326 -0.13768433 0.1892402 0.30761018 0.4265238 0.3026204 0.3167878 -0.07051604 0.08678516 0.046902455 0.46524483 -0.069165766 -0.0623722 -0.12205214 -0.2607552 -0.029802857 0.08128244 -0.1697692 0.235484 -0.17382678 0.21520048 0.26403967 -0.08861292 0.25614852 0.27862728 -0.7645626 -0.09203844 0.14488877 -0.03479485 -0.005756079 -0.44964233 -0.14643173
140 0.48823425 0.059650145 -0.38859612 -0.30512047 0.3904359 -0.58677876 -0.26012403 0.36795938 0.040326815 -0.25892526 0.08600631 -0.26058763 0.647137 -0.25373325 0.087166324 -0.047682058 0.28785062 -0.008798405 0.13913101 -0.095680825 0.25536832 -0.543132 -0.17802502 -0.22992307 -0.16441469 0.5629162 0.21188721 0.122601174 0.342196 -0.14580038 -0.16693659 0.4070852 0.07848054 -0.17276219 -0.3817449 0.054848805 -0.09232571 -0.19198649 0.121921435 0.11860882 -0.06319265 -0.5355615 -0.53793424 -0.1483127 -0.00898219 0.02682743 -0.011480028 -0.11725653 0.49273247 0.20531142 -0.39010364 -0.0877621 0.40499997 -0.07075358 0.37739152 -0.4239662 -0.18477172 -0.25469863 0.41139567 0.08308451 -0.15041266 -0.2211852 -0.011121724 -0.2549011 0.04325223 0.0053688698 0.29844326 -0.28786075 0.03610309 -0.15081063 -0.25488475 -0.058549006 0.12409319 0.4928079 0.28619435 0.4023328 -0.14038505 -0.17320946 0.17220841 -0.27975076 0.4457816 -0.0841876 0.46986097 -0.48105288 -0.36104712 -0.05840236 0.19871666 0.60774016 -0.32848522 0.21212058 0.445549 0.1631603 0.15082216 -0.0740078 -0.19285662 -0.20345975 -0.10509298 -0.56132007 0.07737806 0.37869713 -0.19059628 0.45022506 0.4056369 -0.38448834 0.04645576 0.28444293 0.42164683 0.19098589 -0.04776151 0.02625572 0.06848034 0.23960976 0.3847064 -0.3649388 0.22662129 -0.18594714 0.04197335 0.3460456 0.20251758 -0.03134241 0.00065753824 -0.5767104 -0.37092328 0.16951722 0.15226291 0.025724582 -0.22950527 -0.105870344
129 -0.005058479 -0.33828893 -0.29853803 0.18483841 0.1772383 -0.27335975 0.17157239 0.40347427 -0.101401955 -0.08609832 -0.07132597 -0.016887115 0.4139513 0.15432674 -0.2234069 -0.081329376 0.16610593 -0.19515666 0.20081389 -0.032352217 -0.018857636 -0.3306597 0.1391318 0.6118629 0.30115974 0.5651312 0.26804757 -0.23542313 -0.46056002 0.33143434 -0.1220439 0.25773916 0.117130086 -0.31155846 -0.19999489 -0.050967984 0.10619794 -0.1679339 -0.11493208 0.23533943 0.3844668 0.14007996 -0.21472773 0.13123767 -0.17154837 0.19787475 -0.070491165 -0.15705173 -0.14499447 -0.21388003 -0.32377005 0.20346294 0.2511309 0.30107605 -0.20372166 -0.18622875 -0.10611309 -0.5994374 0.067981444 -0.3934684 -0.09791552 -0.18324631 0.090963304 0.005054735 -0.039100062 0.14122406 0.22621135 -0.12949204 0.06675729 -0.044650037 0.1848058 0.06324192 0.40796882 0.38696253 -0.40877733 -0.16992259 -0.3972613 -0.23165107 0.12843509 -0.28075206 -0.15594928 0.17269814 0.11070682 -0.422256 -0.03930068 -0.39573 0.10573984 0.18187283 -0.20957728 0.20917265 0.5235393 0.19771107 0.20569128 0.14016452 -0.07576864 -0.25295755 -0.0071081095 -0.27583492 0.30644363 0.119551025 -0.015879724 0.17354675 0.45748872 -0.2025798 -0.0486304 -0.03938629 0.24750069 0.28992584 -0.032440845 0.041748203 -0.39818424 -0.13405043 -0.12331718 -0.044718966 0.09900137 -0.04586827 0.123897314 0.13853443 0.06929505 0.10954553 0.33737102 -0.7638562 -0.41485286 0.21623282 -0.068179525 -0.04154012 -0.48198384 -0.31358185
130 0.024598505 -0.29596868 -0.31702414 0.040765442 0.21429764 -0.31784064 0.25191078 0.47154272 -0.06344332 -0.079865664 -0.1183355 -0.067476764 0.32770485 0.16995549 -0.21099313 -0.12004165 0.27902016 -0.23164429 0.21284997 -0.07605876 0.036288343 -0.32063866 0.20144609 0.57659227 0.34432387 0.6498664 0.24634402 -0.3063006 -0.43909335 0.404876 -0.2101069 0.30795145 0.18626373 -0.44457784 -0.23241818 0.05999862 0.18456034 -0.12733513 -0.1174544 0.2067106 0.42683667 0.15953247 -0.10733474 0.15992485 -0.11686424 0.18853751 -0.014579063 -0.036499344 -0.25243247 -0.2722669 -0.16265914 0.13346688 0.2506188 0.42587885 -0.20097364 -0.22498716 -0.1192834 -0.62243116 0.07424282 -0.34660965 0.0011062736 -0.12318782 0.034012616 0.04673958 -0.12637766 0.0631235 0.2741048 -0.09096758 0.1502604 -0.06378671 0.19807842 0.09935797 0.51297337 0.312402 -0.41024584 -0.20219143 -0.28242874 -0.21893081 0.09359936 -0.27168387 -0.21819651 0.12517603 0.12904523 -0.4513472 -0.002748428 -0.3388651 0.070793636 0.08244668 -0.1372924 0.26019052 0.60551125 0.16526832 0.25966612 0.107595004 -0.052980114 -0.16352105 0.009026977 -0.31501994 0.30473316 0.0894407 -0.0061556646 0.14448994 0.57925856 -0.22476345 -0.0691307 0.050032996 0.2693434 0.24553214 0.043119192 0.17154406 -0.5058579 0.023375113 -0.08199768 -0.0070327735 0.19187923 0.03670992 0.19798918 0.077077955 0.032233063 0.19040358 0.36439478 -0.71318275 -0.3543701 0.14608581 0.007077754 -0.08185202 -0.50576127 -0.26309952
78 0.4512415 0.12561761 -0.3430661 0.010436266 0.28528675 -0.5475476 0.16155416 0.96207327 -0.28281394 0.06496624 -0.4019431 -0.27723122 0.4558131 0.09521604 -0.06864247 -0.18707436 0.8459396 0.048271626 -0.060231052 0.23421492 -0.046038598 -0.57152826 0.4562075 0.13092993 0.042749505 0.27738282 0.17774986 0.1762539 0.4616654 0.49270973 -0.2810163 0.3481643 0.35421222 0.053671777 -0.61250484 0.023897083 -0.046149917 -0.08446872 0.25092238 -0.12927486 0.08179241 0.17521088 0.27688596 0.15610398 -0.011034605 0.13803913 -0.08918428 0.059183385 0.29006478 -0.32594904 -0.10002307 -0.16418086 -0.059975527 0.47369283 -0.51593286 -0.14939022 0.0681075 -0.12023965 -0.066024475 0.21740194 -0.41130936 0.1355562 -0.06113605 0.21848992 -0.22708951 0.2517543 -0.11685201 0.16479276 -0.12838472 0.1691606 0.2729139 0.29582214 0.71985793 -0.11117921 0.113150455 0.29009098 -0.22729732 -0.42934835 0.010005215 0.010976378 -0.21521477 0.4841423 -0.11336361 -0.33450744 0.04496159 -0.13597606 0.055132452 0.42811427 0.3998079 0.5144864 0.38811165 -0.33384806 0.06048836 0.27268392 0.29435283 0.27367133 0.38785827 0.012337015 0.47091606 -0.4625153 -0.41757002 -0.24201761 -0.013161422 0.10750732 0.2531682 0.3540435 -0.28169078 0.21408176 0.07330415 0.12862553 -0.19386756 -0.03826937 0.2335532 -0.35954368 0.26896563 -0.1884041 0.10803782 0.26905748 0.47157863 0.28746048 0.020435253 -0.22852051 -0.3544662 0.43504375 0.20902836 -0.24328536 -0.12352636 0.1922378
77 0.3674174 0.09337733 -0.3556792 -0.022517541 0.3034192 -0.50278425 0.09810516 0.97169 -0.28262225 0.043438256 -0.32102248 -0.23959409 0.58715796 0.1832537 -0.03906783 -0.2519055 0.7930947 0.1460478 -0.04584782 0.2654054 -0.0061925366 -0.5994483 0.38678825 0.13886808 0.058101755 0.30285773 0.12191896 0.20717743 0.48633584 0.500703 -0.25768864 0.36525792 0.2511074 0.07070614 -0.5846945 -0.026209528 0.05036589 -0.13294682 0.20149554 -0.12668796 0.117520444 0.05253206 0.2525583 0.21646465 0.07983563 0.15067343 -0.067259416 0.14488444 0.2888011 -0.2930578 -0.09708491 -0.11292084 -0.0051894337 0.28198388 -0.55903935 -0.20552592 0.15694384 -0.10217373 -0.11452497 0.24669752 -0.3675816 0.06361219 -0.06969974 0.34233457 -0.17381532 0.29271573 -0.12541078 0.1933192 -0.08219072 0.223341 0.25466996 0.30218685 0.67057586 -0.029437361 0.08482772 0.22367553 -0.21071796 -0.49385658 -0.11925618 0.02601388 -0.17453861 0.49322918 -0.15509297 -0.3310002 0.13727641 -0.16211545 -0.08401698 0.413811 0.40795147 0.48957315 0.44046286 -0.3397926 -0.022694383 0.36130884 0.23587166 0.18274622 0.4078791 -0.043803208 0.4234008 -0.46729374 -0.33845842 -0.17339218 -0.04107599 0.10671982 0.27180883 0.3654239 -0.21111599 0.096715815 0.078357115 0.13832647 -0.25585318 0.08137542 0.13514367 -0.34105676 0.2327785 -0.22733995 0.097057 0.26647517 0.30567688 0.2667522 -0.0069639683 -0.22667079 -0.38088164 0.3973328 0.23142372 -0.20563807 -0.10840214 0.13779405
219 0.21093394 -0.039244924 -0.14321473 0.06766252 -0.82068527 -0.09956625 -0.23902717 0.23562872 -0.43738732 -0.6208698 0.377136 -0.1587052 0.00026826645 0.0345734 -0.22356372 0.21094996 0.5421831 -0.21830054 0.28870168 0.008936348 0.16320474 -0.5203869 -0.17587037 -0.25320876 -0.1363946 0.4142338 0.60760194 -0.5815842 0.3425018 0.11897288 0.15480667 0.3014708 0.18671188 -0.19637734 -0.4439131 0.057123777 0.023552617 -0.10698703 -0.14703466 0.12486672 0.27164742 -0.38561776 0.17594418 0.33427313 0.10653659 -0.02723829 0.10440633 -0.25953716 0.31906104 -0.5248268 -0.34475192 -0.80572444 0.3027397 0.36130866 -0.18886633 -0.16636701 -0.22957236 -0.3022081 -0.39195925 -0.034579203 -0.45828226 0.53584296 0.7426857 -0.062661186 -0.06438235 -0.21756698 0.09875473 0.62568176 0.36659884 0.19403008 0.3098264 -0.3435173 -0.058144335 0.35453278 0.07879119 0.2752277 0.3095784 -0.04704013 0.04092315 0.021524688 -0.25975898 0.2994259 0.2534194 -0.6858728 0.025110412 0.23259874 -0.43905059 0.62192345 -0.029159144 0.35312623 -0.006114955 0.27945566 -0.49772352 0.003983623 0.18451656 0.16238616 0.39391446 -0.1946247 -0.29046205 -0.20773345 -0.031955604 0.42288357 0.33075893 0.28533062 -0.29307994 -0.5132738 0.06741736 0.6918602 -0.15220165 -0.19780461 -0.18497644 -0.44008142 0.005430367 -0.02983678 0.513477 0.051078808 0.37454236 0.2681508 0.12773237 0.25736612 0.38675845 0.49446222 -0.37204263 -0.0208296 -0.22900297 -0.48689246 0.25648955 1.0198729
218 0.15349627 -0.11993815 -0.13754477 0.10467727 -0.5991436 0.03352512 -0.21119222 0.2798122 -0.58644897 -0.64698035 0.36688116 -0.17329283 0.18202281 0.05803893 -0.20492308 0.26984614 0.4390873 -0.2879141 0.29324424 0.0968975 0.31088796 -0.48538235 -0.09944993 -0.3054547 -0.028924989 0.54164845 0.5426331 -0.5286748 0.31507152 0.03502617 0.08451022 0.32684743 0.2783442 -0.23598197 -0.4914589 0.0094907535 0.02176031 -0.16144872 -0.17597069 0.13177457 0.2969724 -0.32174474 0.11030559 0.3640302 0.18083669 -0.09962381 0.06551963 -0.25371203 0.32994112 -0.42417926 -0.34689108 -0.7837518 0.3368539 0.59164226 -0.19197613 -0.14905125 -0.25985715 -0.34146833 -0.39941567 -0.039660383 -0.280617 0.5710975 0.5533595 -0.07512849 -0.02165219 -0.24722202 -0.09063188 0.6142146 0.33859047 0.3559956 0.2826487 -0.30606747 -0.12718216 0.27368468 0.087350436 0.23147085 0.41275948 0.0026460628 0.029935036 0.07489108 -0.035183065 0.31927037 0.3096867 -0.66232723 0.06259961 0.32006124 -0.4184662 0.5601681 0.18169129 0.31805742 0.0023872312 0.25941324 -0.5928878 -0.044920944 0.15317975 0.111734085 0.26553476 -0.078018785 -0.27034205 -0.1997018 -0.050536033 0.47266516 0.3524985 0.32318982 -0.22376664 -0.44184265 -0.10315915 0.5605919 -0.14426965 -0.2673815 -0.30622563 -0.3566878 -0.07206153 0.05314253 0.38141933 -0.00963482 0.3576292 0.25088263 0.1272501 0.22990006 0.27884123 0.4380007 -0.3475892 -0.17798351 -0.22595808 -0.50688404 0.3648544 0.96442646
63 0.1408587 0.1372448 -0.25300157 -0.2210893 -0.48031837 0.3732128 0.06983274 -0.053660076 0.032678515 0.072174124 0.5197755 -0.19095993 0.040311243 0.59654903 -0.09051459 0.24788947 0.663307 -0.19131541 -0.00362075 0.10430928 0.36916596 -0.012021824 -0.35406348 0.13729875 -0.20013252 0.2644874 0.300346 -0.61740637 0.023713134 0.3752088 0.18147244 -0.11942252 -0.17770141 -0.100400195 -0.19378075 0.16980569 0.1480028 -0.32606748 -0.15858307 0.38061354 0.88247555 -0.2780044 -0.22076005 0.017202308 0.62995005 0.12893845 0.20695643 -0.3730694 0.06415266 0.06426191 -0.028841268 -0.225207 0.09694122 0.14436714 0.491429 0.30921715 -0.36319318 -0.14606273 0.20414129 0.18827504 0.23499903 0.15467769 0.19493698 -0.16523057 -0.2986524 0.4448862 -0.2909434 -0.009438941 0.23576054 0.4636421 0.17020963 0.19814429 0.76182646 -0.11980127 0.021589119 0.21559511 0.083436795 -0.124810405 -0.11386495 -0.40156078 -0.42996183 0.20478618 0.33543643 -0.20781446 0.078031205 0.14466375 -0.06778386 0.21671224 0.27061537 -0.060582455 0.4397614 0.21147607 -0.33828452 0.25428188 0.6338503 -0.24328157 0.5975723 0.26070657 -0.045458894 -0.18543282 -0.429548 0.40150982 0.4714586 0.20575105 -0.60527265 0.08042883 -0.056199353 -0.27609795 0.13687335 0.31185943 0.039514482 0.0567553 -0.0763013 0.18670233 0.56346035 -0.2304468 -0.2672919 0.038141493 0.50692254 -0.13838261 0.53902143 0.11433485 0.5225642 0.046006892 -0.18842947 -0.054524582 0.25274706 0.56417304
146 -0.3111553 0.66470426 -0.6078259 -0.100174785 -0.13858579 -0.08963881 -0.16275737 0.1890013 0.45256847 -0.09023706 0.050606318 0.16511627 -0.37362993 0.62087286 -0.18212837 0.34877673 0.46896794 -0.47414356 0.1802023 -0.056834072 -0.2334044 -0.30605578 -0.16904473 -0.032179516 -0.25790098 0.1856877 0.16453418 -0.48203203 0.5029694 0.57681966 -0.071346864 -0.08872647 0.09643915 0.0022770616 -0.1782563 0.114485815 0.036743645 -0.5329697 -0.18402956 -0.061874304 0.6117711 -0.0746605 -0.72787726 0.067533135 0.6197364 -0.08422286 0.015614268 -0.83165956 0.036496118 0.37776756 -0.034647603 -0.100123145 0.4583035 0.37558767 0.2840438 0.004463841 -0.5219751 -0.040859047 -0.08394957 -0.14504512 0.22386643 -0.067284524 0.6212226 -0.1719317 -0.059794012 -0.048108093 0.07087295 -0.092060216 -0.25307053 0.047241464 -0.09974708 0.22262967 0.3851295 0.2485572 -0.19546898 -0.07588329 -0.18804185 -0.10350337 0.050664704 -0.09937834 -0.6503183 0.33794665 -0.10081641 -0.05845285 0.2153613 0.35968652 -0.57049644 0.3362581 0.18159068 -0.03932062 0.43873966 -0.30930778 0.36929575 0.704318 0.7454111 -0.47091177 0.09748709 0.738616 0.21630532 -0.2617382 0.048909884 0.19665629 0.17679521 -0.04551888 -0.22071782 0.4715094 -0.45990825 -0.38571644 -0.0057825265 0.22515704 0.21017665 -0.06681613 -0.3042933 0.05190162 0.016762855 -0.1825285 0.13255335 0.37291396 0.30708474 0.3230081 0.43521342 -0.050131537 0.34046465 0.024122577 0.16781023 0.43079308 0.2580356 0.40170616
147 -0.30854428 0.7062986 -0.6202876 -0.09502962 -0.20957157 -0.14066876 -0.2173736 0.11764006 0.61429393 -0.12896565 0.15761901 0.19659173 -0.376995 0.42290318 -0.12372014 0.393711 0.310698 -0.57947785 0.10689699 -0.11268427 -0.27321333 -0.3203258 -0.20729257 0.017117474 -0.15473737 0.18908554 0.19811632 -0.47703904 0.46773538 0.5112969 -0.075059436 -0.19403073 0.26974684 -0.0025896144 -0.29007554 0.10851272 0.085157506 -0.7683867 -0.21409398 0.0043038093 0.65474564 -0.057096872 -0.7602858 0.059672654 0.54970986 -0.1335156 0.09646451 -0.8390371 0.044787854 0.39381337 -0.069646485 -0.09987472 0.43039873 0.38224715 0.24546798 0.011407298 -0.6027258 0.020526722 -0.113412924 -0.24445583 0.15537265 -0.09455413 0.6277592 -0.019664863 -0.09404448 0.010664544 0.21665518 -0.09936937 -0.20334373 0.12082291 0.00974331 0.26703152 0.3636244 0.28235433 -0.19920328 -0.056623716 -0.17898211 -0.10523993 0.064822935 -0.21059823 -0.6857508 0.36557785 -0.1815022 -0.10892457 0.37652582 0.41166425 -0.6236967 0.36159936 0.20483887 0.0075551206 0.34275052 -0.32639933 0.2467224 0.5445174 0.5581622 -0.33736813 0.1142246 0.7191918 0.16765213 -0.22902997 0.07546439 0.18244073 0.1641958 -0.019460278 -0.30383462 0.4340001 -0.4255778 -0.2385026 0.031521488 0.07527961 0.16204172 -0.10034724 -0.377454 0.07060929 0.014146162 -0.31766874 0.17089282 0.33077785 0.3037745 0.30317292 0.47375044 -0.0535825 0.19482811 0.06483534 0.11809389 0.5210441 0.15056391 0.4911201
61 -0.006610043 0.20147705 -0.056499455 -0.1037111 -0.43617567 0.3272756 0.12976538 -0.064795375 0.06694899 -0.07503281 0.46163246 -0.17632355 -0.010524069 0.66715413 -0.07059771 0.2755189 0.5819604 -0.30253962 -0.036259793 -0.14888431 0.3529072 0.07051568 -0.56891423 0.12884349 -0.12070517 0.22150151 0.29130557 -0.53086406 0.0928614 0.37257925 0.21893467 -0.22421771 -0.17957644 -0.033369247 -0.14419149 0.1721279 0.07990384 -0.53071904 -0.12751271 0.3078972 0.85151935 -0.35571682 -0.37194082 -0.061439354 0.5512727 0.1411199 0.30009338 -0.71251667 0.08345149 0.06946291 -0.08525112 -0.14535658 0.13243835 0.14896473 0.46170208 0.264357 -0.51860243 -0.13893558 0.09930583 0.18271662 0.07744851 0.09471863 0.1454068 -0.122337386 -0.20282161 0.39967903 -0.33023262 -0.06513413 0.11144981 0.36032876 0.16890252 0.22140473 0.7478316 -0.04668137 0.047643278 0.18223856 -0.013497371 -0.19835562 -0.075471535 -0.45969954 -0.38190126 0.17045124 0.2494752 -0.28180388 0.25100031 0.08774199 -0.046657052 0.17967242 0.1893133 -0.09980413 0.3272009 0.23706865 -0.2993758 0.30508596 0.6791523 -0.13891125 0.7052165 0.18706043 0.054765143 -0.48035756 -0.43660963 0.39913592 0.4379693 0.16825828 -0.53624105 -0.0014179344 0.022065125 -0.0822197 0.16524743 0.19972582 0.22546594 0.062966585 -0.12239586 0.1086753 0.540166 -0.1293057 -0.26574072 0.06342941 0.47849792 -0.11196623 0.48142835 0.11603146 0.5670759 0.09516681 -0.2750061 -0.00415877 0.2667805 0.5361052
64 0.06099446 0.116825074 -0.20205292 -0.047054786 -0.39419025 0.3448846 0.13774075 -0.0737757 0.08497446 0.044697165 0.573408 -0.24370092 0.009205017 0.5071642 -0.15846908 0.27604607 0.64396864 -0.3059792 0.09258228 0.080450445 0.37729895 0.07548962 -0.34235474 0.1331992 -0.16991836 0.32884645 0.3445199 -0.5378421 0.16545929 0.36277702 0.16289672 -0.0900736 -0.15939033 -0.019099534 -0.27821368 0.03474653 0.22911733 -0.5311413 -0.21002743 0.44043747 0.78370154 -0.36983237 -0.3588706 0.015395246 0.55507666 0.18419531 0.32730058 -0.5633801 0.04211777 0.01516095 -0.104905345 -0.22680372 0.018319916 -0.0019261199 0.44068694 0.27566418 -0.55830616 -0.096114255 0.1470794 0.14717035 0.24822024 0.18537551 0.14891666 -0.055506792 -0.26755163 0.4622588 -0.31047168 -0.069286026 0.17910878 0.2716161 0.23585804 0.29457802 0.756128 -0.18417038 0.076379396 0.24984214 0.09147572 -0.15404552 -0.003804123 -0.44866577 -0.46814233 0.122517176 0.2781534 -0.16565679 0.16940294 0.16160806 0.016032595 0.21134342 0.2360875 -0.03211227 0.34477022 0.2602913 -0.28307444 0.253724 0.68489647 -0.08948859 0.62799853 0.28982764 -0.108144395 -0.2571282 -0.4124722 0.3379934 0.36394954 0.15497503 -0.64145446 0.08375319 -0.019054893 -0.13509785 0.096199736 0.12172472 0.21196459 0.016241435 -0.053142752 0.1855262 0.639872 -0.18771428 -0.20937999 0.02527193 0.4878941 -0.024535377 0.51380426 0.059251785 0.4975066 -0.013058314 -0.33546206 -0.05587601 0.1444818 0.53153867
62 0.03288638 0.24357194 -0.3344613 -0.15780759 -0.5390384 0.47951588 0.06772042 -0.101496145 -0.051260196 -0.03296812 0.56078196 -0.16405322 -0.11031508 0.6165099 -0.15257089 0.29353654 0.48280436 -0.3105231 0.0043759905 -0.07376945 0.30845258 -0.016387686 -0.43573585 0.2285445 -0.15676166 0.31507385 0.40476817 -0.46669862 0.014357966 0.29738575 0.0620627 -0.19772439 -0.15392639 -0.01677616 -0.19619393 0.20285448 0.06125533 -0.46569642 -0.19282836 0.34234947 0.6839133 -0.36723468 -0.36017925 0.030982345 0.5521748 0.11070257 0.2975856 -0.5687422 0.10458259 0.03501019 -0.06040596 -0.16390508 0.050125174 0.18358429 0.5079655 0.32547313 -0.60822445 -0.112361185 0.1774605 0.11771607 0.2528424 0.1703993 0.02044811 -0.14370792 -0.2994048 0.5050327 -0.16355053 -0.005982155 0.17158525 0.31826836 0.21057633 0.14988561 0.7154917 -0.0039201546 -0.019104762 0.25562876 0.028714905 -0.24134475 -0.10987439 -0.37214443 -0.32621616 0.16197453 0.3326816 -0.2080495 0.14841963 0.12247188 -0.10661027 0.3780987 0.26153505 -0.115320005 0.36335197 0.113826334 -0.3975988 0.24525715 0.6718893 -0.21405253 0.5860852 0.29193917 0.06931022 -0.33088407 -0.27759615 0.4308055 0.37829098 0.15519209 -0.5623884 0.14116246 0.06938871 -0.13953036 0.17442285 0.111380376 0.20337285 -0.058876377 -0.122109815 0.18970166 0.6029094 -0.3444725 -0.2632248 -0.09137693 0.6073227 -0.12738179 0.47800264 -6.093546e-05 0.45489535 0.17227536 -0.2840185 -0.006715276 0.11450919 0.49871203
220 -0.22348714 0.2047715 -0.23643546 -0.007030977 -0.25211295 -0.68499875 -0.017981894 0.14229089 0.22095771 0.10115891 0.36006412 0.037971932 -0.13779514 0.5708393 -0.029431771 0.24477556 0.42667264 -0.42859462 0.46115088 0.48649964 -0.52269125 0.10652045 -0.28706726 0.15502378 -0.26063406 0.28476298 -0.08948155 -0.6374575 0.13148573 -0.12808411 -0.7063214 0.0069722803 0.5424668 0.34486213 0.007280926 0.35789132 0.037219197 -0.84562266 -0.041505296 0.23305607 -0.046553396 -0.34135893 -0.12792632 -0.1236895 0.40037045 -0.057946946 0.30844814 -0.60367304 0.24128358 0.14775786 0.08141597 0.10847523 0.37164578 0.14459217 0.37528247 0.18241784 -0.994632 0.23733358 -0.12717524 -0.048277758 0.32373774 -0.02935697 0.7061393 -0.020085024 0.052034143 0.4104512 0.23516704 -0.3447475 0.13604668 0.24854729 0.4140813 -0.19866677 0.25562248 0.05755545 0.068726905 -0.2787313 0.06324436 -0.23282126 0.121734746 -0.014832626 -0.48229188 -0.11633893 -0.13393633 -0.21796036 0.04067125 0.3781396 -0.2317948 0.23948054 -0.0712893 -0.07099154 0.5663385 -0.09933014 0.48555332 0.5943516 0.15505406 -0.6843726 -0.09796767 0.09340402 -0.039279155 -0.2773269 -0.3334917 -0.1841687 -0.24322724 -0.18319513 0.32100198 0.77313685 -0.50049156 -0.2601483 -0.15273319 0.13285245 -0.07198084 0.1897844 0.03163301 0.064377904 -0.2887847 0.17861529 0.18218254 0.38318706 0.08086443 0.38195434 0.04870558 -0.53025526 -0.031228963 0.115998834 0.07429975 -0.019304393 -0.11849228 1.1101507
221 -0.18459502 0.3105566 -0.13103421 -0.023891233 -0.2336989 -0.5643379 -0.0017761536 0.113128066 0.25176173 0.013256077 0.30573174 0.23005107 -0.10551168 0.58108807 -0.034690995 0.27387735 0.47760445 -0.49879783 0.28050682 0.53633785 -0.559335 -0.02005388 -0.37686178 0.08947235 -0.24216145 0.2655273 -0.16637982 -0.75761 0.044515166 -0.030438175 -0.69234836 -0.030819785 0.52403563 0.4542286 0.061283037 0.20594195 0.117485 -0.7079324 0.098145105 0.18944378 -0.06625005 -0.13087307 -0.16493885 -0.013882634 0.203704 -0.12144377 0.25672224 -0.6379366 0.21407454 0.08522499 0.07497142 0.08920275 0.54942304 0.191624 0.4433563 0.07210199 -1.1298977 0.28816217 -0.2697807 -0.027806887 0.37059587 -0.139331 0.8046851 -0.16080329 -0.020764984 0.4316078 0.28376403 -0.22352786 0.17281367 0.28980547 0.42897168 -0.24256097 0.22586744 0.14056922 -0.024460755 -0.36958006 0.15017457 -0.13747975 0.09755373 -0.023883423 -0.5983435 -0.2119868 -0.10075109 -0.31472096 -0.08805199 0.4017518 -0.19094601 0.22685553 -0.06475774 -0.12417137 0.4892409 -0.08238871 0.48741776 0.7796936 0.2235052 -0.7068237 -0.15371951 0.10090587 -0.12111661 -0.35122746 -0.32144636 -0.16914985 -0.2524827 -0.11619328 0.3549778 0.6839081 -0.4573399 -0.3279457 -0.2849499 0.17486463 -0.1016414 0.09649672 -0.024020424 0.12155697 -0.29790178 0.2750743 0.14617859 0.26026112 0.10507185 0.304609 0.12608649 -0.4653229 0.04999012 0.1594125 0.04475694 -0.09110244 -0.046192706 1.0525408
183 0.18461338 -0.29355317 -0.5388556 -0.07022869 -0.22023056 -0.08738013 0.15948474 0.14796068 -0.0140128555 -0.31261808 0.41525397 0.3914734 -0.16829872 0.25629577 0.31374422 -0.5153688 0.36750513 -0.47840115 0.29596043 0.27914912 0.59621894 0.30603793 -0.15729283 0.2731954 0.19070548 0.3863053 0.20440353 -0.009155312 0.29130507 0.46119124 -0.053094998 0.0009768163 -0.033133835 0.6826884 0.0373266 -0.21859421 -0.097502366 -0.3513721 0.13667732 0.38614488 0.03828613 0.042705644 -0.042776197 -0.21130958 0.20434994 0.12553215 -0.07496514 -0.45860687 0.39696756 0.25387833 -0.1467987 -0.0326645 0.34473646 0.23130065 -0.0022526465 0.61864966 -0.4297156 -0.18800887 -0.17379138 -0.27932736 -0.52230614 -0.116126016 0.23901911 0.24203032 -0.020474305 -0.17511554 0.046453252 0.09666995 0.03705803 0.010944686 0.011884346 -0.7657704 0.27135965 -0.5297811 0.15045393 -0.013219118 -0.04748333 -0.71640205 0.34313884 -0.7345549 -0.24457031 0.08563079 -0.27802747 -0.3834809 -0.106716774 0.6383064 -0.39479488 0.4291362 0.3609026 -0.18763192 0.58539903 -0.014718891 -0.17360732 0.0019551532 -0.00752651 -0.5586812 -0.27672783 -0.056139756 -0.42411232 0.19962725 -0.42432272 -0.0962235 -0.31861287 0.021035349 0.10849695 0.1393828 0.0377132 -0.48249495 -0.7538079 -0.27699584 -0.018596867 -0.09140091 -0.24627478 0.07837331 -0.4274716 -0.29396793 -0.07789317 0.2419214 0.12475038 0.29719844 0.21697167 0.021135738 0.22476499 -0.031379808 0.060908083 -0.20544629 -0.252884 0.6439877
184 0.30252177 -0.3843353 -0.55959696 -0.1032805 -0.28602055 -0.15809755 0.09374535 0.23586875 0.043003272 -0.37371555 0.31045514 0.32470235 -0.26219222 0.32688773 0.2541679 -0.62775254 0.2233605 -0.57884747 0.25833806 0.30994245 0.5379844 0.34445015 -0.1514994 0.27753094 0.20288719 0.36559775 0.20666029 -0.06403759 0.19632159 0.3983989 -0.12909736 0.012189321 -0.08079574 0.6285071 0.07054711 -0.32207254 -0.03879422 -0.26815283 0.12817708 0.35926422 0.027014721 0.10397814 -0.020334208 -0.08368785 0.17781499 0.12219383 -0.0969295 -0.43819863 0.3467573 0.18931001 -0.06821791 -0.010401219 0.3435288 0.24506393 0.0129701635 0.5692899 -0.46439818 -0.08837134 -0.11200951 -0.2189928 -0.5077407 -0.23184296 0.27667865 0.15859598 -0.062519744 -0.088897906 0.09327286 -0.032149646 0.002258515 0.019273387 0.003605167 -0.7817619 0.20507665 -0.5875857 0.22164355 -0.03523759 -0.096988596 -0.7124296 0.37835652 -0.83017945 -0.22836103 -0.028588068 -0.3088489 -0.38450783 -0.1634704 0.68092996 -0.29678935 0.40136218 0.34081957 -0.1698234 0.59658855 0.0069666626 -0.01875007 -0.1070263 0.05996009 -0.61465615 -0.3468671 -0.15958297 -0.409217 0.18234384 -0.49516883 -0.029422516 -0.21668164 0.036438525 0.123020984 0.16840151 1.8377414e-05 -0.50043064 -0.80716264 -0.37673044 -0.085573435 -0.0027339088 -0.12720008 0.21895662 -0.39515272 -0.18427724 -0.076874554 0.2181069 0.16654976 0.36625233 0.119312435 0.0735519 0.19110791 -0.053546052 0.081040524 -0.19654489 -0.337174 0.7395031
144 -0.3554223 0.65156305 -0.61704177 0.008659149 -0.17065719 -0.18165262 -0.09854013 0.14957464 0.5830947 -0.037292156 0.0454349 0.23280914 -0.352889 0.5963206 -0.005398433 0.4289878 0.4281538 -0.46456558 0.17064075 -0.093322 -0.1109 -0.18893959 -0.17505196 -0.19135363 -0.15953155 0.17780301 0.08290546 -0.38569397 0.5156418 0.41706705 0.078712724 -0.11656759 0.19404699 0.109411426 -0.14204915 0.08516036 0.053191572 -0.65847915 -0.15067339 -0.16360828 0.5944855 -0.035970714 -0.76137537 0.013717112 0.6020989 -0.09930858 0.28154173 -0.689977 0.099221684 0.45108277 -0.17336783 -0.069830276 0.33222663 0.32372156 0.10837245 0.06053265 -0.5621602 -0.009040794 -0.06229892 -0.18106663 0.21872085 -0.0761159 0.5667199 -0.088292204 -0.07274024 -0.107442394 0.15680334 -0.051833156 -0.17953938 0.032149773 -0.114458375 0.33536422 0.21170981 0.23520903 -0.2335589 -0.088368095 -0.039148524 0.0050484654 0.17494166 -0.1242093 -0.71288854 0.21507043 -0.059535295 -0.15282513 0.3144042 0.44210935 -0.5899877 0.32824424 0.07598217 0.0061701797 0.3709647 -0.22711326 0.26999405 0.6425776 0.6995977 -0.36850372 0.10970606 0.6574854 0.0751216 -0.3386411 0.20067307 0.24335504 0.2149403 -0.04450536 -0.2962671 0.3117264 -0.26720273 -0.17760287 0.033473164 0.20623918 0.24789755 -0.10568108 -0.2992217 0.07646949 0.08643442 -0.1480036 0.17967232 0.15933391 0.39181486 0.31162915 0.5607262 -0.044446446 0.4031355 0.09477254 0.1622734 0.5240811 0.32928404 0.41761252
145 -0.36959177 0.49305987 -0.62789 -0.15109366 -0.15692109 -0.057561453 -0.35487503 -0.061327543 0.48497957 0.016099993 0.039108124 0.15268025 -0.3904305 0.44581246 -0.20692676 0.23802593 0.34690848 -0.4100994 0.13424583 -0.17810048 -0.3224063 -0.2515231 -0.20229812 -0.104328364 -0.23060918 0.12728016 0.23258165 -0.43064964 0.4019469 0.48785046 -0.013657463 -0.076261036 0.18537384 0.024377145 -0.2761338 0.15595526 0.08149968 -0.5463419 -0.231596 0.031962313 0.5585186 -0.16170701 -0.70761317 0.12294645 0.621271 -0.08855219 -0.028812336 -0.7808155 -0.054115012 0.35357052 -0.1649518 -0.05559947 0.32717344 0.31540906 0.26846734 -0.040380172 -0.5733587 0.099179365 -0.047475137 -0.22116327 0.136883 -0.054738965 0.46765622 -0.1493314 -0.110005036 -0.10104924 0.16399361 -0.14803176 -0.21457766 0.051398434 -0.05006501 0.24428459 0.35098594 0.22286697 -0.1473429 -0.051733732 -0.21390271 -0.057795234 0.033083938 -0.13897891 -0.6174811 0.32577902 -0.23606136 0.11863011 0.31554294 0.43261325 -0.59805405 0.31033355 0.08619843 -0.0020409583 0.3072989 -0.26257628 0.21695934 0.45647272 0.683691 -0.41628927 0.11555174 0.7024029 0.2356147 -0.18981859 0.098576255 0.18194877 0.11999732 -0.058800872 -0.23162502 0.36908022 -0.36937484 -0.4049621 -0.038527735 0.0898448 0.11995382 -0.086568676 -0.33072284 0.10810562 -0.015354935 -0.33567935 0.11297518 0.40172517 0.24775276 0.16158769 0.4655772 -0.11719138 0.32246086 0.224162 0.071029365 0.431768 0.17513895 0.3468542
101 0.33437112 -0.12648907 -0.519978 -0.28677025 0.45469597 -0.68742675 -0.26949322 0.66125333 0.28375444 -0.36279237 0.4401198 -0.20022348 0.34949327 -0.33253244 -0.15057732 -0.17992412 0.5198662 -0.022839954 0.23428212 0.11936392 0.18522479 -0.53129405 -0.27708012 0.2217164 -0.34747237 0.43380934 -0.12620158 -0.01701985 0.26296932 -0.26767132 0.11842562 0.40414837 -0.018458903 -0.14001177 -0.61081797 -0.044084314 -0.045477763 -0.4053226 0.18054985 0.23481402 -0.015812838 -0.13721307 -0.6085142 -0.19242293 -0.08593763 0.0388473 -0.39376494 -0.27738264 0.1485562 0.15565507 -0.08163909 -0.26029974 0.67588544 0.11203136 0.14257222 -0.12063741 -0.07105814 -0.54766107 0.12557065 0.20381282 -0.25053108 -0.15216215 0.10295318 -0.24168149 -0.045688022 0.09137288 -0.08986538 -0.14282086 -0.036720898 -0.07674251 -0.1003162 0.035027824 -0.02595488 0.3870179 0.1106139 0.35680905 -0.30045033 -0.13052787 0.17374204 -0.19236948 0.12994473 -0.22337233 0.21362399 -0.22426009 -0.010190338 -0.14105478 0.2902861 0.6389802 -0.20303105 -0.050484214 0.25983226 -0.020148054 0.016780088 -0.09354544 -0.0707364 -0.32698074 -0.085497014 -0.5957511 0.10417519 0.46585962 -0.14838217 0.41782004 0.43921456 -0.0014460906 0.1132113 0.25179774 0.44915906 0.24568294 0.1436328 0.25172907 -0.15650946 0.09921194 0.47384173 -0.16991034 0.16453922 -0.24072333 0.14948024 0.34933892 -0.060446568 0.07704984 -0.04922892 -0.043768406 -0.53589576 -0.025601603 0.2088889 0.20533054 0.14764042 0.027210359
102 0.30320162 -0.050911363 -0.472343 -0.38449565 0.41322225 -0.6570999 -0.34372726 0.62077993 0.2636827 -0.39342287 0.38511196 -0.2887163 0.4191522 -0.41706938 -0.19229929 -0.12090112 0.3350373 -0.07992939 0.22421414 0.06152681 0.22744843 -0.4747792 -0.3593025 0.19682744 -0.37427568 0.39839152 -0.10955487 -0.034455623 0.24665995 -0.31360555 0.1322439 0.36751375 0.17300496 -0.01985948 -0.6234377 0.022638187 -0.008273042 -0.45386615 0.12369655 0.23994567 -0.029607762 -0.114783034 -0.67281896 -0.21050356 -0.14986011 0.03209041 -0.364663 -0.24369138 0.14258884 0.041661892 -0.23725192 -0.19691849 0.66855973 0.13679367 0.1413304 -0.18143071 -0.074447736 -0.708753 0.16163786 0.19333814 -0.2509562 -0.1674105 0.045128994 -0.23099549 -0.085025445 0.22582084 -0.045504205 -0.1312994 0.012502562 -0.23298468 -0.13621585 -0.081329644 0.045677964 0.30995736 0.16576193 0.33460072 -0.29691115 -0.08991017 0.050143514 -0.16365038 0.090043545 -0.0067389105 0.21114351 -0.33150783 -0.009757979 -0.16633876 0.2370253 0.48646745 -0.05296045 0.06282193 0.256619 0.027380044 -0.031247562 -0.16764578 -0.12564945 -0.15839598 -0.24673611 -0.7192261 0.2700123 0.46234483 -0.16965398 0.3424562 0.46460253 -0.16724977 -0.00825948 0.120100796 0.41584682 0.32943368 0.16220048 0.1168052 -0.08609008 0.12319309 0.48381227 -0.18572553 0.3030594 -0.10583815 0.20912598 0.33729404 0.037785698 0.14134529 -0.012104558 -0.08123865 -0.40729964 0.15397026 0.097164504 0.24512479 0.16425477 -0.013117652
191 -0.21035178 0.1573552 -0.046774317 -0.28692254 -0.8590317 -0.5097015 -0.017121557 0.5413864 -0.21158925 -0.0889331 -0.11650831 -0.44549125 -0.1493434 0.1145065 -0.008527159 0.24859807 -0.1828346 -0.022560958 0.28123242 -0.563744 0.40724957 0.5900448 0.49608067 0.1551967 0.012898366 -0.60551775 -0.045261282 -0.10949076 0.3918102 0.3758909 0.46130493 0.30405092 0.04633133 -0.5803915 -0.0075259157 0.14705114 -0.10874982 -0.5011833 0.09049092 0.017823892 -0.20909089 -0.5270986 -0.107700236 -0.06641161 0.05777176 -0.15315992 0.019502942 0.14763533 0.12856133 -0.19859281 0.2032042 -0.27480423 0.39964327 0.17783752 0.28619754 -0.28464714 -0.22358276 -0.50171196 0.58228457 -0.08391585 -0.45880917 0.21502613 0.12941755 -0.4721106 -0.021702342 -0.48986396 -0.15846123 -0.36509055 -0.15072034 0.5432581 -0.05021599 0.13108675 0.6805182 0.32596123 0.16589977 0.42692274 -0.1838955 -0.49947217 -0.0048393826 -0.38305673 0.061528847 0.48959848 0.4645341 0.47549266 0.08247049 0.13883479 -0.13719527 0.13563274 0.2828262 0.0024734084 0.4228594 -0.47605082 0.09441531 -0.03533531 0.4508495 -0.83326715 0.10385994 -0.116542414 0.04659425 -0.19041389 -0.2136176 0.01992119 0.21359989 0.09188847 0.21183233 -0.18008038 0.07155367 0.09624413 0.118098214 0.045981318 -0.27855065 -0.39895645 -0.16604196 0.39161488 -0.2292123 -0.26166824 0.0059075546 0.06266384 -0.17211688 0.41275784 0.105624445 0.019882927 -0.15526351 -0.16690053 -0.20596243 -0.20006406 -0.015130238 -0.120518565
190 -0.0736266 0.012936691 -0.1307267 -0.3539027 -1.0680864 -0.5301438 -0.059160683 0.42652553 -0.111947976 -0.099367216 -0.1882262 -0.3586039 -0.11979008 0.21830258 -0.04547427 -0.05037203 -0.25926247 0.01497225 0.19385497 -0.56981415 0.3976336 0.6059093 0.25530663 0.18115702 -0.045664374 -0.5594295 -0.14913031 -0.053610153 0.24359427 0.28605342 0.43770912 0.27953878 0.06887164 -0.45162177 -0.19683085 0.10389941 -0.07473918 -0.50565666 0.30452624 0.05447421 -0.13338079 -0.472011 -0.087763526 -0.13448532 -0.070661984 -0.1436563 0.099073015 -0.0035002322 0.022618769 -0.22107488 0.0656985 -0.20635334 0.37865227 0.20468137 0.3580525 -0.24037126 -0.42988807 -0.53105116 0.496444 -0.15923643 -0.38370097 0.123264566 0.0089309905 -0.4238829 -0.06021556 -0.412441 -0.17264779 -0.22040349 -0.21360697 0.566282 -0.080713585 -0.10386793 0.57541424 0.3072411 0.18512914 0.4609198 -0.25037912 -0.4817685 -0.035317305 -0.4296742 0.07532017 0.5147692 0.486404 0.42379445 0.033448443 0.19982262 -0.047409263 0.10561748 0.36686644 0.04260238 0.30408305 -0.4918928 0.019719297 0.022177044 0.43010116 -0.7770543 0.23538272 -0.18715692 0.033817396 -0.18505 -0.26878712 -0.0803975 0.118115745 0.07797506 0.13204135 -0.23094693 0.14385256 0.12822501 0.19232425 -0.04618287 -0.29725522 -0.51700324 -0.043181345 0.35923877 -0.32035002 -0.35630643 -0.05466658 0.039107155 -0.203009 0.47400117 0.15955245 0.017986352 -0.16750765 -0.06814409 -0.4045624 -0.11733924 0.0658727 -0.19015992
153 0.2390181 -0.13622472 -0.54315937 -0.28357345 -0.57813466 -0.33055055 0.15123677 0.6764948 0.027480023 0.16486974 0.5221947 0.4948948 -0.114572085 0.18842535 0.13630489 -0.29414997 0.1148905 -0.32861066 0.23139794 0.25327903 -0.18517563 -0.43240133 0.23262233 0.28058022 0.25210455 0.6023966 0.16006479 -0.07594079 -0.018982342 0.09585316 -0.032293946 0.0247654 0.5672263 -0.31468403 -0.16209598 0.115299135 0.24746035 -0.77903676 0.162243 0.02075174 0.15393183 0.08351751 0.11613795 0.025291534 -0.2712021 -0.0802244 -0.22911324 0.34093344 0.07858803 -0.24477465 0.16611908 -0.2512929 0.1252567 0.01648339 -0.30862802 0.15310526 -0.25004455 -0.42856947 0.18539043 0.030278722 -0.31444442 -0.09997955 -0.30010357 0.27435794 0.24472427 0.29260808 0.22873673 -0.21672168 0.14253382 0.06814132 0.2390893 0.22135575 0.02054632 -0.06279629 -0.06986207 0.29989624 -0.17605959 -0.13602048 -0.15234049 -0.17862023 0.12329073 -0.34613436 0.15111335 -0.022176387 0.32752115 -0.5302098 0.17074266 0.56628233 -0.07172446 -0.19816676 0.16798428 0.37446743 0.2037059 0.05850943 0.43824333 -0.50278234 0.123276345 -0.45595333 0.54814535 -0.23209567 0.28780216 0.2557449 0.15138252 0.19579485 -0.044299237 -0.2754148 0.51937455 0.23898329 0.0747072 -0.22154006 -0.1609672 -0.11021428 0.19765255 0.012169105 -0.2741472 -0.17641869 0.21259934 0.12954903 -0.25619483 0.273652 0.3773041 -0.6500601 0.30115622 0.680328 -0.06314284 -0.030429712 -0.46225297 0.18333286
154 0.09314335 -0.15168405 -0.52587914 -0.33885786 -0.6686151 -0.33301204 0.1396252 0.7471625 0.06368365 0.25216684 0.52704614 0.55601275 -0.08759363 0.12284866 0.16949433 -0.27940863 0.08163172 -0.2837909 0.09369385 0.33079273 -0.2769328 -0.49687603 0.10834625 0.34952977 0.36899295 0.7309045 0.21285236 -0.08800154 -0.007020953 0.12500903 -0.078318745 0.03719222 0.58516455 -0.28944173 -0.1785593 0.069791175 0.36325362 -0.7565389 0.15882419 0.057557676 0.19107693 0.0745265 0.19334857 0.05444457 -0.2842901 -0.10493446 -0.25915512 0.42163825 0.09081424 -0.25970802 0.17396347 -0.2995025 0.20617796 -0.040483806 -0.3756672 0.0970631 -0.18704973 -0.460243 0.1749018 0.042209323 -0.27474418 -0.07997283 -0.26929614 0.24939483 0.21065986 0.25130707 0.3010833 -0.18706673 0.08812968 0.09514082 0.31957322 0.18547979 0.26637948 -0.044747755 -0.08987156 0.36708626 -0.08991181 -0.23868406 -0.20418371 -0.22801906 0.05823676 -0.3577297 0.11813447 -0.010040505 0.27482638 -0.45472807 0.058932852 0.5961323 -0.095947325 -0.20383611 0.20532447 0.40571046 0.07842421 0.032220405 0.36782596 -0.444222 0.009478811 -0.4345215 0.63659304 -0.25362125 0.26591712 0.12823807 0.12617697 0.16082175 -0.11724269 -0.35443485 0.5643497 0.19588822 0.03711036 -0.31095743 -0.078653105 -0.15082684 0.23642284 -0.050471622 -0.31340575 -0.29033345 0.08107993 0.20786291 -0.2619619 0.18621472 0.4288576 -0.6808722 0.2819619 0.75549924 -0.02672103 -0.06821148 -0.5080692 0.21405031
192 -0.24282977 0.17433876 -0.10516982 -0.31967437 -1.0219425 -0.5198112 -0.15657973 0.46112975 -0.08806851 -0.030202353 -0.15440978 -0.4822928 -0.16978028 0.18984902 0.09018076 0.13232455 -0.2859867 -0.07888789 0.23601726 -0.53390896 0.43056172 0.53902686 0.43627173 0.119915724 0.018392418 -0.65926695 -0.17621835 -0.22264013 0.4094391 0.29333413 0.46546596 0.32398623 0.054335278 -0.4578769 0.011713733 0.09599673 -0.0701396 -0.5080382 0.22030784 0.014094075 -0.13808127 -0.44328448 -0.06917939 0.008646693 -0.057868212 -0.16336104 -0.010185648 0.018976226 0.07921829 -0.18114233 0.14748873 -0.22330548 0.56793517 0.15697245 0.31453606 -0.35762477 -0.35464075 -0.38617587 0.55497456 -0.09586159 -0.4076503 0.06489848 0.250433 -0.49291188 -0.022775386 -0.53352654 -0.029696392 -0.2854821 -0.23344927 0.57377666 -0.078248136 0.13570791 0.6621843 0.4637125 0.1962882 0.36831194 -0.15263452 -0.52145594 -0.053544328 -0.3534216 0.030907633 0.4724523 0.44054732 0.3522683 0.043183953 0.17810845 -0.19992629 0.18963353 0.2824176 0.08591394 0.43664575 -0.587641 0.17910431 0.078942455 0.46364394 -0.7540964 0.10062121 -0.11973566 0.049191713 -0.3076277 -0.24451497 -0.0012755477 0.23359752 0.14688411 0.0668463 -0.17398855 -0.1000482 0.04240995 0.034071274 -0.001509846 -0.3986166 -0.4625796 -0.14309046 0.37436363 -0.31347913 -0.28049037 -0.031050764 0.01272821 -0.20398095 0.5052391 0.06658172 0.031486917 -0.22092696 -0.26485384 -0.17852196 -0.028989596 -0.037294757 -0.038363267
193 -0.11668866 0.08884502 -0.16692288 -0.30494264 -1.0082914 -0.67293507 -0.041162774 0.53588337 -0.10679824 -0.031041278 -0.054439325 -0.26073146 -0.05257211 0.14219177 -0.01791349 0.1287398 -0.17458683 0.017013108 0.19595948 -0.645718 0.43365878 0.66856647 0.31598172 0.18668501 -0.06428924 -0.57040197 -0.17325485 -0.1156298 0.3232449 0.32890108 0.62201333 0.35911158 0.04575595 -0.4290395 -0.16971548 0.16639471 -0.058216464 -0.54022664 0.13676642 -0.0021267869 -0.27619836 -0.39371789 -0.06878029 -0.17993897 -0.06261574 -0.15685529 0.045981534 0.16021425 0.08910712 -0.15513968 0.10980833 -0.16581915 0.45353857 0.16994812 0.35482788 -0.25367317 -0.34256604 -0.38575387 0.4688278 -0.16659394 -0.4044888 0.06699378 0.1512609 -0.5285397 -0.087587155 -0.49841872 -0.122885756 -0.3290001 -0.010252068 0.5404812 -0.06840539 0.07124617 0.6721819 0.41354433 0.24510854 0.45880434 -0.14395899 -0.43776983 0.026600324 -0.36612794 0.051520497 0.42627844 0.42774522 0.5024512 0.12669708 0.14324147 -0.13239202 0.15100151 0.27993384 -0.012797369 0.2933679 -0.4879453 -0.052399572 0.08782661 0.5441512 -0.7867177 0.2602865 -0.14615926 -0.02377095 -0.2393915 -0.28927505 -0.06773868 0.088610366 0.14599 0.21798117 -0.26987857 0.12416409 0.09961252 0.17707498 0.1041135 -0.24993461 -0.5196621 -0.18272841 0.3755849 -0.32413447 -0.33816776 -0.07079533 -0.01664879 -0.119142465 0.42505693 0.3060674 0.006059357 -0.13741949 0.042964946 -0.43642348 -0.15819694 0.0404038 -0.17685877
112 0.48508412 -0.12061848 0.351009 -0.32780814 -0.32315207 0.41791654 0.29624867 0.21969017 0.04684035 -0.20039316 -0.10137415 -0.3579793 -0.30071703 -0.1856414 0.5337552 -0.33121 -0.15155514 -0.17856415 0.33105838 -0.5323991 -0.053087633 0.23239695 -0.4388325 -0.1994527 0.07986212 0.16000518 -0.07196955 0.10595318 0.2669144 0.2995526 0.18771583 -0.24892329 0.47833157 0.44236946 -0.3509286 0.010098899 -0.2242262 -0.6196195 0.30511883 0.6172254 0.5408084 0.16855279 0.05767642 -0.31872624 0.1661279 -0.017183501 -0.25686616 -0.10766568 0.43534255 0.026204823 -0.47691202 -0.44589967 0.065081894 0.20293702 0.2019936 0.057108972 -0.43927607 -0.21924339 -0.18212107 -0.10481973 -0.1361655 -0.013491491 0.110883236 -0.007445423 -0.08007729 -0.18696222 -0.3367951 0.13694091 0.14173377 0.30723935 -0.10717436 -0.32633948 0.094699554 0.16004376 -0.039496657 0.17868365 -0.1859858 0.0964948 0.16704339 -0.7471301 0.24424952 0.2886544 -0.4320332 0.08519866 0.005493101 0.343623 -0.19684961 0.48070246 0.32782862 0.09028517 -0.035800572 0.2943553 -0.2589478 -0.26775292 -0.15176421 -0.2607252 0.4462272 -0.09766051 0.020468032 -0.10575164 -0.21482357 0.19812043 0.021368153 0.12904254 -0.31544143 0.13854271 0.43306705 -0.54635686 -0.07012847 -0.070946105 -0.6077151 0.07368142 -0.14214364 -0.06906153 -0.1141411 -0.38532567 0.4481755 0.15664369 -0.16853486 -0.054253206 0.033798583 0.25068182 0.13564637 0.57303834 0.38533944 -0.23758644 -0.32436663 0.27103114
131 -0.030047784 -0.42604542 -0.47718802 -0.47738233 0.17824297 0.079198554 0.16901734 0.22391598 -0.008014178 0.22313681 0.021070775 0.22080147 -0.11324021 -0.08611897 0.25544482 -0.29420927 0.064477615 -0.37894416 0.21626237 0.13125776 0.77947664 0.30964002 0.04457899 -0.07020049 0.08942589 0.22442423 -0.09854411 -0.09875688 0.37172106 0.124460205 0.12137781 0.260868 0.12040998 0.42656147 0.08176538 -0.19748154 0.24603824 -0.21256223 -0.026495716 0.33291528 -0.055307195 0.13679172 -0.15024814 -0.26472455 0.072330736 0.27486187 -0.052661568 -0.07511022 0.02496399 0.044987343 -0.4149998 -0.14724791 0.12384246 0.039222483 -0.101514354 0.051203597 -0.53454185 -0.19725536 0.090234056 -0.33822125 -0.7863371 -0.07172064 0.10173986 0.20239812 -0.28379261 -0.24618942 -0.018274872 -0.1434643 0.13507846 0.24430953 0.05358567 -0.34199783 0.2239787 -0.4687637 0.3506366 -0.08362898 0.0684536 -0.40246108 0.24338956 -0.6341603 -0.09515514 -0.19293478 -0.032629497 -0.18301006 -0.16319701 0.579243 -0.042454615 0.27984425 0.1835085 -0.29408547 0.32645437 -0.094736695 -0.187342 0.15197706 0.05488303 -0.29410458 -0.323 -0.5285589 -0.37609458 -0.002937268 -0.5260318 0.021682573 -0.3614204 0.049586017 0.1553641 0.17645268 0.49696136 -0.034493823 -0.66723067 0.014263511 -0.3219621 -0.14361769 -0.101764984 0.13740386 -0.60884136 -0.35706806 0.24963564 0.12378689 0.21358891 0.2487652 0.28672627 -0.13426709 0.40365502 0.036927544 0.2444363 -0.077666655 -0.36746535 0.50163704
132 0.011635202 -0.23059164 -0.4608572 -0.48337469 0.1270922 0.037596166 0.16626225 0.23139732 0.09699573 0.020447088 -0.008735441 0.31675795 -0.012389211 -0.18945536 0.16152175 -0.271345 0.042615734 -0.45275667 0.25923297 0.2502572 0.766684 0.30509552 0.006737347 -0.09000495 0.11679073 0.21427046 -0.14495948 -0.22540678 0.35586962 0.19916955 0.12605529 0.19865969 0.19155289 0.36336946 0.20564747 -0.181417 0.42855436 -0.2999975 -0.02956211 0.31894693 0.013203686 0.22712998 -0.14098378 -0.2488602 0.0054290025 0.20128201 0.01750958 -0.07201839 -0.060846545 0.00936858 -0.31151992 -0.1692087 0.24074022 0.17630053 -0.06282199 -0.0017914885 -0.65917706 -0.18432918 -0.015524167 -0.44582385 -0.6841992 0.046034403 0.04860644 0.23601536 -0.35144496 -0.18192543 0.029004669 -0.0704501 0.04725313 0.20188949 0.018360155 -0.33785534 0.13234718 -0.5283472 0.34056568 -0.08879366 0.17749415 -0.46503362 0.021026086 -0.7212118 -0.07845617 -0.20437351 0.021314343 -0.13107103 -0.11311325 0.60858184 0.09321551 0.06151469 0.31229547 -0.21446256 0.26200205 -0.1604965 -0.14309546 0.23332685 0.054169193 -0.20898934 -0.37600517 -0.53639483 -0.3946533 0.035134748 -0.642755 -0.08984839 -0.32141554 0.07179857 0.03141455 0.13875756 0.5258514 -0.117228724 -0.6544701 -0.018852679 -0.46168062 0.0020933573 -0.12638608 0.1394921 -0.6303767 -0.3392572 0.32600406 0.26957208 0.044850856 0.2309751 0.37723094 -0.12330529 0.48305112 -0.04743956 0.32386172 -0.25689897 -0.3103836 0.40353578
188 0.4990814 -0.034960177 -0.31766856 -0.06173524 -0.15779538 -0.23198359 -0.041446645 0.20987123 0.08324983 -0.19131683 0.2883735 0.08363326 -0.076293595 0.14709522 0.32038832 -0.39665124 0.378522 -0.1705754 0.04282 0.22209588 -0.1806069 0.13758066 -0.052382667 -0.17930281 0.21390054 0.07047728 -0.068949856 0.16178888 0.3128624 0.32392427 0.055741113 0.12191463 0.41182852 0.36917666 0.056073107 0.049667407 -0.0933504 -0.18337809 0.012449199 0.40188956 0.062409956 0.07338952 0.07437788 -0.16369061 0.26438403 0.025565756 -0.27140543 -0.0098560965 0.49827757 0.049750414 -0.47259715 -0.17343317 0.42966437 0.268352 -0.0043131704 0.38275164 -0.052221686 -0.2353528 -0.22802328 -0.19621915 -0.43370968 -0.09902418 0.5184416 0.10074083 -0.19782802 -0.1113562 0.20050736 -0.0707622 0.10031655 0.14274865 -0.28028387 -0.5182179 0.16718921 -0.29017338 -0.011614776 -0.18584165 0.15770082 -0.036490805 0.17665583 -0.5815429 -0.13434349 0.1410809 -0.17063315 -0.34548512 0.15964475 0.6134289 -0.2796482 0.1440899 -0.09159991 -0.024614554 0.29712102 0.2794091 -0.010849534 0.02587811 -0.09932126 -0.47880885 -0.0067982273 -0.14272529 -0.53948194 0.2590416 -0.49719885 -0.3031691 -0.38714236 -0.022178162 0.26526174 0.46916354 0.2669533 -0.65365154 -0.56084746 0.051502246 -0.3339603 0.037607867 -0.28805646 -0.33882803 -0.4783654 -0.33454373 -0.03297073 0.33110854 0.05903605 0.0048856623 -0.036843143 -0.049304727 0.36470053 0.11263862 0.17460193 -0.43892848 -0.22485617 0.52255535
187 0.42760095 -0.071534395 -0.14429608 0.052493215 -0.18918037 -0.21857324 -0.1130176 0.20500301 0.00940825 -0.24903807 0.24043305 0.1786196 -0.05981021 0.13634904 0.43609712 -0.38049158 0.2639866 -0.20672864 -0.06910551 0.20380253 -0.1588984 0.19836007 -0.025840582 -0.007074782 0.2585987 0.1923537 -0.048036512 0.19476591 0.3086897 0.41028556 0.09176794 0.08286207 0.41520616 0.33032694 0.011268489 0.0052121067 -0.11727277 -0.2143502 -0.044839572 0.49827832 -0.07995499 0.020978807 -0.005914175 -0.21119474 0.2704523 0.042799123 -0.22080122 -0.081619285 0.4676007 0.027221357 -0.47964513 -0.040290564 0.4672237 0.33616483 0.038844526 0.34466633 -0.046945103 -0.26873305 -0.11864059 -0.030875731 -0.5342662 -0.1968352 0.5411536 0.08763966 -0.15985554 -0.101153485 0.17973742 -0.114760615 -0.0073179016 -0.04157886 -0.273199 -0.48761275 0.17074986 -0.2595667 0.024809122 -0.18347767 0.13264504 -0.07133721 0.26754183 -0.5546951 -0.05385238 0.190227 -0.18011604 -0.4630946 0.09789577 0.5327758 -0.1522775 0.23680338 -0.06865177 0.0010951479 0.2667544 0.28406364 -0.15342064 -0.020277154 -0.1346127 -0.28614885 -0.0009387087 -0.17618768 -0.48890492 0.28099495 -0.5718549 -0.27666736 -0.42531422 -0.014827029 0.15115666 0.4157516 0.2033995 -0.5356209 -0.6667615 -0.114243485 -0.29143253 -0.016610866 -0.29362363 -0.35624978 -0.35799834 -0.20548178 0.02434812 0.34555435 0.08159076 -0.0141790025 -0.023501074 -0.0684927 0.295453 0.082594596 -0.076294236 -0.34366006 -0.1912883 0.46713662
5 0.44828686 0.29972485 -0.08409728 0.45779648 0.31565884 -0.5883988 0.30607012 0.2468054 0.19741705 -0.43679595 -0.4562084 -0.49540567 0.81669444 0.08784889 -0.03598865 -0.5760235 0.34302366 0.0018729599 -0.06603227 0.33967367 0.27503714 -0.5019739 0.21433713 0.2249618 0.75758153 0.28747535 0.6631842 0.2931493 0.71791816 0.4827962 -0.06796855 0.23118654 -0.11109921 0.047135796 -0.08593065 0.13744985 -0.18457368 0.013999665 0.49772307 -0.075799905 0.16376099 -0.16492291 0.08183214 0.43994305 -0.053730123 0.044560146 0.12499765 0.064925544 0.53638154 -0.31954196 -0.037314758 0.058135096 -0.009162098 -0.056150284 -0.40419018 -0.3951736 -0.18401188 -0.09985599 0.13766022 0.26277637 -0.02595605 -0.00832372 0.07503791 0.63690144 -0.18867342 -0.2217193 -0.012012188 0.34987175 -0.13915302 -0.19999056 0.30017036 0.031049866 0.62824345 -0.06254554 0.016164616 -0.19869602 -0.28669322 -0.6274616 -0.39871275 -0.07395609 0.1452326 0.3935351 -0.29902092 -0.6088097 -0.32647744 -0.4551788 0.06517662 0.38484728 0.56140465 0.32752195 0.6264183 0.17425251 0.2513403 0.58445 0.24491581 -0.04878163 0.28339916 0.022219947 0.34027076 -0.29496107 -0.9324583 -0.5261055 -0.16158794 0.045674976 -0.07175554 0.33198237 -0.035372034 -0.2271985 -0.07370773 -0.14047217 -0.2368894 0.22291955 0.4131416 -0.43833137 0.027646378 0.03888534 0.09052009 0.6542848 0.34608293 0.08511268 0.057493567 -0.18499894 0.19896571 -0.2569959 0.07394482 -0.3384531 0.1908976 -0.37054282
21 0.32023513 0.37040803 -0.003910594 0.47989058 0.26908648 -0.64546245 0.34555393 0.25030258 0.16844238 -0.38120374 -0.44370258 -0.6279674 0.73388684 -0.007962941 -0.08785622 -0.61417216 0.41257292 0.019635366 -0.056793097 0.30823624 0.22063473 -0.44862333 0.24330938 0.29014072 0.61122394 0.33866757 0.5841739 0.4222489 0.6723528 0.50472134 -0.063837 0.17603923 -0.1605434 0.17223895 -0.058937676 0.022442743 -0.20296493 -0.043569695 0.5602379 -0.028417038 0.10038618 -0.088914834 0.20153357 0.44168034 -0.035930716 -0.0071262415 0.19721416 0.04565981 0.5937175 -0.28504336 0.006484687 0.008305651 -0.008998094 -0.12327448 -0.38809797 -0.31633845 -0.31008297 -0.15308015 0.11196762 0.20855999 -0.028555406 -0.056406204 0.14975531 0.65851426 -0.18191877 -0.28303215 -0.06062878 0.33469582 -0.17360333 -0.27511036 0.31892782 0.0483129 0.5446697 -0.022359405 0.077735394 -0.19590065 -0.23577683 -0.57363826 -0.29864523 -0.038807333 0.1235171 0.43157238 -0.32344666 -0.65617114 -0.35756811 -0.35799548 0.031146107 0.41668865 0.62468636 0.35627672 0.57568383 0.17272803 0.106701255 0.53733385 0.28259474 -0.14484957 0.27446333 0.069305554 0.19559975 -0.056322075 -0.93817335 -0.51648206 -0.17828752 0.103358366 -0.022729289 0.41392323 -0.016229816 -0.2803916 -0.16993755 -0.107423946 -0.21853223 0.16344382 0.50018114 -0.42433175 -0.036904145 0.0018678595 0.12188409 0.624999 0.34072503 0.14778192 0.15711062 -0.18373284 0.12332333 -0.2299379 0.054717556 -0.24857925 0.15966372 -0.4490207
69 0.44216082 -0.063260615 -0.46812522 0.07834152 -0.0494249 -0.10727238 0.15468824 -0.018023046 -0.026201267 -0.56311446 0.017196652 -0.2511137 -0.2465214 0.37627816 0.23646098 -0.40429798 0.21227537 -0.28914434 -0.13315482 0.057868797 0.4824331 0.44738114 -0.11176079 -0.02869652 0.5086031 -0.072388545 -0.022325179 0.0063692834 0.27026942 0.28252244 0.07359383 -0.010650744 0.31602913 0.40661126 -0.017591963 0.0971989 0.0133329425 -0.011865825 0.15079162 0.2561055 -0.24430633 0.16536513 0.040660337 -0.2934022 -0.04930605 0.16778076 -0.064741015 -0.074863754 0.3250812 0.029899629 -0.38832223 -0.1610217 0.2696878 0.14105962 -0.09832435 0.26659745 -0.20863152 -0.20241483 -0.17466411 0.11414989 -0.8046654 -0.2580255 0.1418826 0.33906233 -0.31535327 -0.029588094 0.110376656 0.15905197 -0.15374783 -0.04468928 -0.17643921 -0.64986986 0.27114937 -0.55738544 -0.035353713 -0.05111408 0.14246777 -0.21061572 0.22797275 -0.47492188 -0.29844198 0.0796376 -0.20988867 -0.43072212 -0.105790906 0.35577673 -0.243077 0.5241644 0.34938705 -0.15478598 0.4668195 0.2678172 0.09384148 -0.047975797 -0.048688482 -0.49909276 -0.037717097 -0.41255552 -0.7105561 0.25424457 -0.60786045 0.17060575 -0.10590314 0.12398902 0.23378511 0.3583487 0.506883 -0.36700487 -0.6028703 -0.036932815 -0.16841671 0.096932046 -0.4029601 0.027915351 -0.45992604 -0.1589427 -0.07950098 0.23171738 0.17663121 0.18501627 0.17398322 -0.29758507 0.648677 0.14584753 0.222085 -0.27013788 -0.4038658 0.16054358
216 -0.22189206 0.7321774 0.45393428 0.15360728 -0.03768977 -0.3099112 0.0368912 -0.049180936 -0.051054426 -0.24798465 -0.12614289 -0.05141556 -0.007832517 0.60651225 -0.02213698 0.18765523 0.09302074 -0.39993295 -0.40561557 0.07003342 -0.20791678 0.26963744 -0.21076725 0.012523672 -0.02950728 -0.3122955 -0.3186461 -0.39388716 0.20151484 -0.06542189 -0.44624177 -0.27898523 0.66670454 0.69610393 0.035784516 0.21236637 0.097156644 -0.2562929 0.25883287 0.11211376 -0.16335526 -0.18518527 0.22428614 0.14588492 0.34901643 -0.3015888 0.057493526 -0.09336692 0.22050807 0.24035978 0.18990935 -0.060250316 0.26491582 0.056199245 0.30319285 -0.19719517 -0.803496 0.28271833 -0.02671252 0.3043862 -0.09135045 -0.26596287 0.9949199 0.20414452 0.13509528 -0.0060299323 0.3013534 -0.31889915 0.18571597 0.46653092 0.31415737 -0.2937468 0.42713484 0.20368865 0.037004177 -0.19338548 0.40914303 -0.034269992 -0.108914584 -0.0054158517 -0.62163824 0.3027467 0.047561593 -0.6048421 -0.16249223 0.66577166 -0.5337829 0.49167743 -0.07268798 0.034760274 0.4786254 -0.18118152 0.45859957 0.5468329 -0.0012124268 -0.25594994 -0.2654222 -0.38292918 -0.26785678 -0.45318598 -0.3912237 0.28508204 0.25425133 0.21238132 0.33090022 0.58834106 0.08178224 -0.056138124 -0.1953837 0.15293092 -0.17346944 0.008647038 -0.29615894 0.2158988 -0.19347432 0.057749137 0.010607006 0.33470458 0.15248755 0.060774546 -0.011172416 -0.5681566 -0.43471414 0.2620289 0.37724134 0.11756391 -0.07778508 0.735918
68 0.46081597 -0.15512839 -0.44609144 0.10034181 0.08669363 -0.17917645 0.1677231 -0.08888652 0.0024318912 -0.4271998 -0.023489216 -0.32441553 -0.18667938 0.3582968 0.30316144 -0.40849844 0.3307832 -0.27603525 -0.09696083 0.019239118 0.4422699 0.53622955 -0.12557623 0.024640284 0.5453457 0.023115423 0.030544015 0.02781038 0.35831463 0.373755 0.11705729 0.045829557 0.34615138 0.28519017 -0.005051162 0.21331492 -0.1338682 0.002673001 0.09446753 0.25762144 -0.27612868 0.2104303 0.035275433 -0.27233413 0.054247744 0.1812107 -0.0311441 -0.006775575 0.36689064 -0.03431879 -0.41757637 -0.2241427 0.26562724 0.17408466 -0.029253853 0.2818735 -0.36595616 -0.21178593 -0.10618038 0.11392559 -0.7011339 -0.20874143 0.2050218 0.35230762 -0.33264974 -0.0806312 0.10273361 0.110171184 -0.04354707 0.004890248 -0.12238434 -0.673153 0.21888949 -0.58727205 0.01967399 -0.10585422 0.17578837 -0.23692428 0.19603933 -0.5722332 -0.23929709 0.14384787 -0.10805026 -0.33701172 -0.019107968 0.39406523 -0.20085886 0.57242155 0.27677426 -0.15374963 0.505593 0.3097867 0.0879032 -0.042142406 0.027436854 -0.51032627 -0.006809006 -0.2881808 -0.716414 0.24994509 -0.5588623 0.12466818 -0.12496526 0.08246182 0.22837608 0.37441915 0.49482375 -0.3373117 -0.6585576 -0.022439424 -0.13446651 0.09088513 -0.42325947 -0.01761487 -0.34203094 -0.18396966 -0.10830873 0.18348812 0.1793442 0.19774078 0.20522149 -0.30523854 0.63527554 0.07082541 0.18257 -0.20926338 -0.5346536 0.17536433
205 0.37782064 0.72773993 0.42583397 0.6877307 -0.09331266 0.15266304 0.38002223 -0.03165846 -0.048891876 -0.078858905 -0.05707263 -0.0908069 0.32725582 0.29670835 -0.28516567 0.19424716 0.26600647 0.26847532 -0.34126398 0.016034903 -0.008636305 0.70104194 0.2971642 -0.014398962 0.0122926235 -0.36484766 -0.20372768 -0.31735897 0.39551282 -0.109639645 -0.18083169 0.15941739 0.52299803 -0.07691799 -0.24196655 0.32093784 0.071580276 -0.49296954 0.43729594 0.0554212 -0.17748037 -0.32440606 0.16466169 -0.17457333 -0.122896455 -0.3344417 -0.1119407 -0.50102854 0.37022987 0.008175363 0.1177111 0.19829392 0.29593292 0.8342363 0.14992027 -0.24836351 -0.44375855 -0.14962652 0.20455559 0.36458218 -0.24267794 0.2973124 0.33916488 -0.24176016 0.39849597 -0.2109376 -0.18574065 -0.39163086 -0.120759256 -0.41585875 0.30476823 -0.5995666 0.8916744 0.21998593 -0.05210377 0.26347247 -0.22826044 -0.11070107 0.43233788 -0.12493499 -0.06796366 0.37657017 0.24562977 -0.16026273 -0.08435978 0.50605273 -0.21193027 0.14410067 0.5076416 -0.10503933 0.2747447 -0.17917374 0.056026574 0.14797065 0.30451882 -0.4464344 0.28430682 -0.5876472 0.14640518 0.4362068 -0.09261311 -0.16766609 0.08365459 0.077826306 0.013786595 -0.042510632 0.1971087 -0.22348917 0.11171553 -0.13323192 -0.69034576 -0.31291527 0.27644423 0.5062693 -0.60424787 -0.34251508 0.47981802 0.30329663 -0.118805006 0.16368696 0.3004342 -0.39636877 0.23678446 -0.071228154 0.14863412 -0.04382078 0.16047777 0.061340593
217 -0.24604808 0.63136536 0.4265858 0.1571315 -0.0020663103 -0.29125857 0.09092251 -0.13126715 -0.10544162 -0.14472772 -0.02509236 -0.034719735 0.07696653 0.6541164 -0.06675748 0.14086021 0.10812842 -0.35876158 -0.34008732 0.0002772316 -0.19059248 0.16933149 -0.37630245 -0.0065498063 0.10738888 -0.2668921 -0.3097111 -0.39355144 0.14728764 -0.08786727 -0.48909372 -0.22065575 0.5740839 0.7018606 -0.041032184 0.24505824 0.097363584 -0.3349101 0.2631054 0.22706313 -0.103754535 -0.23519276 0.17677137 -0.0063170646 0.29365775 -0.2227611 0.097983696 -0.17496139 0.24575536 0.29959223 0.31388456 -0.14631423 0.27964407 0.038933117 0.34365517 -0.05935109 -0.9076831 0.19680947 -0.053407293 0.17511912 -0.03410607 -0.2989611 0.8874081 0.27683547 0.1469594 -0.052339308 0.26644215 -0.22449817 0.27018622 0.42958745 0.2214374 -0.21370018 0.49564698 0.10592386 -0.029591214 -0.17813599 0.44441268 -0.010354899 -0.17693587 0.08780916 -0.5746984 0.27055228 0.12313811 -0.5416213 -0.15983497 0.62026983 -0.47697163 0.36749864 0.014126519 -0.07741742 0.572757 -0.14942062 0.51029116 0.50828344 -0.08781294 -0.3548467 -0.26621136 -0.41945693 -0.32769263 -0.4448668 -0.36676183 0.1998493 0.14238146 0.08716486 0.3449585 0.51883084 0.083343245 -0.18229263 -0.13102685 0.13701364 -0.07961299 0.05532437 -0.29184607 0.1898526 -0.27120253 0.08493655 -0.096634194 0.25358224 -0.034427203 -0.013806919 0.042439338 -0.57366943 -0.40830997 0.2633977 0.31891996 0.01761472 -0.10043218 0.5807777
160 0.7459619 -0.006598927 0.3678093 0.41111064 -0.13226427 0.14873834 0.33806422 0.3486474 -0.27150926 0.07959849 -0.35546312 -0.26550952 0.061921686 -0.1755502 -0.21998282 0.049919747 -0.21462913 0.12594141 -0.023220865 0.3401519 -0.2029443 0.29395854 0.3583907 -0.095595166 0.1124 -0.23998074 -0.30797428 0.05171346 0.66357243 0.274861 -0.26674253 -0.07494439 0.5257898 0.094402984 -0.5660782 -0.021041477 -0.31768706 -0.6631733 0.016515465 0.010311549 -0.14881544 -0.37697867 0.039037142 -0.087492585 0.098327 -0.07919718 -0.56601715 -0.16939099 0.3703584 -0.15188952 -0.4530802 -0.462234 0.4194617 0.123359025 0.19199045 -0.00036867108 -0.49077594 -0.5464158 -0.117548704 -0.11471598 0.1184845 0.12808497 0.3968123 -0.21501134 0.14138526 -0.24486294 -0.2926019 -0.08660927 0.0279419 0.56728554 -0.120069414 -0.55176 0.7420336 -0.062635854 -0.2850587 0.23732139 -0.32641977 -0.016853554 0.07078186 -0.33649722 0.22889343 -0.14114168 -0.0075891702 0.0931845 0.028132075 0.18143587 -0.12977618 0.26431087 -0.16545151 -0.34343803 0.32199812 0.19725966 -0.021573398 0.3242211 0.22095416 -0.17227471 0.06298576 0.2779625 0.16546439 -0.1458302 -0.4311707 0.072009265 0.18801907 0.29160583 -0.43173248 0.04335902 0.27626306 -0.025913844 -0.22602911 0.23765902 -0.1336098 -0.03670126 -0.8206608 0.18326667 -0.34172976 -0.36788815 -0.08773518 0.116048425 -0.19745427 -0.16785344 -0.13384984 -0.2758042 0.3816167 -0.3626093 0.2082875 -0.20007688 -0.2527973 0.1482609
206 0.41399977 0.8075463 0.52967864 0.5811547 -0.13428947 0.2843758 0.2020436 -0.06483038 -0.027574519 -0.20286931 0.0340419 -0.16529861 0.32531148 0.32261473 -0.4671986 0.12887153 0.34664002 0.14154808 -0.32572097 -0.04981087 0.10348794 0.59005684 0.3652117 0.01798156 -0.05029966 -0.260742 -0.18869849 -0.3224555 0.53957003 -0.10520824 -0.11542743 0.18396272 0.4276654 -0.120929055 -0.1665471 0.36226147 0.16032313 -0.56060666 0.40825015 0.21508206 -0.1688686 -0.36301953 0.21513675 -0.07103756 -0.0922348 -0.3799324 -0.08563539 -0.56559587 0.27060527 0.011699224 0.11224879 0.23635574 0.20495786 0.7075191 0.0904416 -0.26093102 -0.49961314 -0.12319849 0.18115108 0.4187859 -0.14858682 0.26680052 0.32115766 -0.13532396 0.35182896 -0.22086823 -0.113144755 -0.36509103 -0.09713003 -0.3223242 0.15176338 -0.519839 0.86557925 0.21591496 -0.035815343 0.30260924 -0.13946036 0.10180719 0.4519954 -0.017198037 -0.13097556 0.3363119 0.16440347 -0.15928455 0.019164408 0.57678765 -0.26521215 0.08955599 0.49361035 -0.2405431 0.20914628 -0.17010452 0.029290842 0.17954753 0.3307218 -0.46967715 0.36107174 -0.60917115 0.013139227 0.6537744 -0.17746922 -0.05458212 0.13079399 0.052269217 -0.040750362 0.07192005 0.26144144 -0.25767413 0.12190354 -0.04537916 -0.6729194 -0.3371963 0.22984843 0.4974514 -0.64480764 -0.4364013 0.5153029 0.3576364 -0.13486739 0.23380719 0.45152313 -0.38453528 0.18536578 -0.23527113 0.18071552 -0.04571302 0.18498997 0.01060565
158 0.5113542 0.06218661 0.5078 0.32800925 -0.0935001 0.119814076 0.39062443 0.30212325 -0.2580658 0.1139333 -0.28330076 -0.19894257 0.01873196 -0.31985995 -0.36399913 0.11222005 -0.37999934 0.08983549 -0.0047245505 0.24339007 -0.3785747 0.17263736 0.49588504 -0.14969292 0.012173818 -0.13444676 -0.33502096 0.02282208 0.6101966 0.28275946 -0.25292656 0.122864164 0.54290247 0.2696473 -0.49311566 -0.13184714 -0.29049355 -0.80945235 -0.014456285 0.10327116 -0.094140306 -0.41480038 0.14960413 0.012796907 0.07103218 -0.15791065 -0.44227368 -0.03745764 0.40370062 -0.1148406 -0.33981636 -0.46683106 0.44649914 -0.0106544895 0.19581711 -0.06995844 -0.56727594 -0.46845374 -0.087138526 -0.13301305 0.23387824 0.17148373 0.29051512 -0.27935827 0.122645974 -0.44383207 -0.2675969 -0.14237729 0.19282366 0.61479896 -0.06420079 -0.49922577 0.6942564 0.044218328 -0.35167158 0.19845068 -0.19966593 0.11329099 0.17069726 -0.28789604 0.09311528 -0.096536934 -0.1325392 0.025843104 0.02296289 0.16160187 -0.21053492 0.3367008 -0.23984486 -0.21963519 0.20712659 0.30499408 -0.01584476 0.3056424 0.24646279 -0.2831382 0.043906644 0.3370356 0.083806254 -0.22365871 -0.43181324 0.12065904 0.27589205 0.21862899 -0.4453207 0.00016171375 0.29637364 -0.097759776 -0.34616938 0.31744647 -0.10637348 -0.022229964 -0.8195787 0.07438588 -0.27810785 -0.38016 -0.10687054 0.04685429 -0.24452747 -0.2400795 -0.14020485 -0.2692681 0.3693519 -0.29825494 0.19235662 -0.30683398 -0.3433692 0.2169877
117 0.59010226 -0.049298786 -0.13454384 0.34397498 -0.045875635 -0.13368079 -0.041298762 -0.19463174 -0.054055694 -0.1293609 0.008843572 0.076515965 0.264005 -0.23816037 0.09600021 -0.20471595 -0.16004868 0.084488824 -0.30055636 0.2312921 0.28852776 -0.0038873325 -0.12338775 -0.3314066 0.92227787 0.29132092 0.4077609 0.13979718 0.45536017 0.025853861 0.18426864 -0.37006888 0.31026018 -0.0598308 -0.16812076 -0.0069702202 0.31603494 -0.19581257 0.16530855 0.13771059 -0.55121374 -0.46550015 -0.2862442 0.29111615 0.29429585 0.10721001 -0.15072387 0.16603602 0.5345402 -0.03695843 0.33506873 0.3603428 0.16980669 -0.32726282 0.2134046 -0.16338667 -0.48163277 -0.26355118 0.20116334 0.13122962 -0.35998827 0.3609829 -0.3806842 -0.55468893 -0.056591492 -0.7590255 0.18822072 -0.20431682 -0.035449035 0.20743254 0.30990687 -0.14592078 0.0932806 0.32159227 -0.038669884 -0.24188836 -0.17890075 0.018114155 0.7522937 0.051838066 -0.3879867 0.14781049 -0.33784908 0.14793722 -0.5072624 0.42910686 -0.40827903 0.07621801 0.20767209 0.50574845 -0.06492052 0.44182178 0.11843001 0.08871549 0.27358896 -0.20420134 0.39858592 -0.30652526 0.3813457 -0.26394352 -0.30635494 0.18031242 0.2811638 0.7730912 -0.095071346 -0.031071138 0.2641987 -0.036168296 0.6222438 0.31567967 -0.16427736 0.2668303 -0.07045584 -0.19763888 -0.015235535 0.2749707 -0.09860913 0.49509826 0.3946017 -0.36997542 0.067378566 -0.4704258 -0.12940888 0.226613 0.12094806 -0.3669069 0.535058 -0.16076592
159 0.64618593 -0.020719036 0.44237903 0.45834824 -0.10871563 0.24720134 0.28232798 0.17286861 -0.18584643 0.010760118 -0.33886182 -0.17211147 0.046594094 -0.2276779 -0.3798495 0.02967389 -0.31079158 0.22082083 -0.07126663 0.23705387 -0.1884637 0.20068946 0.39604065 -0.16310658 0.047809947 -0.16152926 -0.23966701 0.048402283 0.57354355 0.3235115 -0.27671567 -0.027466547 0.50451595 0.23493135 -0.45086756 -0.053092774 -0.3168862 -0.7057838 0.12531763 0.05580882 -0.08480503 -0.47598723 0.042440873 0.06437986 -0.0005842098 -0.08216745 -0.5220412 -0.10214858 0.2645733 -0.09064102 -0.34621593 -0.46430093 0.46286651 -0.11251092 0.07519662 -0.034354452 -0.55813545 -0.5584241 -0.03373464 -0.069216505 0.059885748 0.08308006 0.21542457 -0.21183692 0.11896573 -0.29879233 -0.29439914 -0.06756558 0.010259223 0.65067005 -0.12207166 -0.4855997 0.71229017 -0.11181779 -0.3429033 0.27163687 -0.4051657 -0.017575061 0.09726914 -0.37135768 0.0347108 -0.2370079 -0.16146386 0.037737552 0.008233536 0.16634844 -0.18319893 0.3599501 -0.18773504 -0.34314492 0.2200543 0.21284667 -0.0096151205 0.23711143 0.2320042 -0.31644478 -0.025597095 0.32891494 0.001127381 -0.19386485 -0.4281034 0.1378321 0.20678325 0.23543802 -0.24990648 0.04326379 0.2870644 -0.13144916 -0.27046654 0.25760263 -0.11607137 -0.04518208 -0.73053336 0.14830352 -0.40656748 -0.4620032 -0.16903625 0.16216576 -0.3161319 -0.24592836 -0.051565547 -0.26415128 0.23768894 -0.3460834 0.2487272 -0.22878301 -0.17705198 0.050270855
204 0.23374443 0.7519934 0.4976006 0.6491022 -0.20357648 0.23411055 0.28538907 -0.029371867 -0.0058622328 -0.1003917 -0.022195127 -0.024864405 0.21982257 0.30450007 -0.45060506 0.14482825 0.24920022 0.1740458 -0.40066904 -0.032707375 -0.08785736 0.43260112 0.28969195 -0.023249298 -0.011407916 -0.3659676 -0.25072238 -0.22542983 0.34944555 -0.19507463 -0.18778682 0.24681808 0.3975817 -0.050529413 -0.23766395 0.31353444 0.096745536 -0.47274792 0.39006793 0.022149913 -0.17930168 -0.39714086 0.091430984 -0.068275236 -0.15627985 -0.37913916 0.010514995 -0.5419695 0.34401798 -0.0057041612 0.0957649 0.16457026 0.21072997 0.6666797 0.08339537 -0.29125744 -0.5481819 -0.1312881 0.18750313 0.24484918 -0.21717525 0.18392566 0.31512216 -0.30995715 0.36088762 -0.28594503 -0.10315922 -0.32925102 -0.14954203 -0.2992488 0.27600253 -0.5321241 0.835666 0.24137057 -0.056141336 0.1976367 -0.16994517 -0.13962111 0.36769402 -0.088701926 -0.009535933 0.30163524 0.19913888 -0.19042516 -0.008896414 0.5837846 -0.3206857 0.053101048 0.37919396 -0.19947942 0.19096096 -0.17601846 0.06781366 0.11667189 0.2619018 -0.57841074 0.3202568 -0.4515872 0.050745826 0.506097 -0.23685887 -0.221379 0.020702645 0.1836368 -0.021693278 -0.006031327 0.17173319 -0.35702977 0.02676298 -0.13445447 -0.6363348 -0.32797733 0.25889882 0.56524426 -0.57325995 -0.445246 0.49251118 0.35155907 -0.21193512 0.10200883 0.42805034 -0.42987454 0.27085122 -0.017660566 0.048229076 -0.02744646 0.22555454 -0.013459056
161 0.72295207 -0.03636053 0.35001817 0.3431951 -0.08041182 0.10832016 0.40666446 0.41946086 -0.31356022 0.05288988 -0.32781494 -0.17751668 0.014720422 -0.08107019 -0.3462583 0.016362619 -0.29848805 0.07987693 -0.11938714 0.22904032 -0.3471607 0.18899056 0.21566197 -0.11455315 0.03868789 -0.26021525 -0.38431168 0.05954389 0.6051218 0.16322717 -0.2915574 -0.021785257 0.5699213 0.21187913 -0.5699113 -0.09321563 -0.21249102 -0.8032617 -0.03891369 -0.04305143 -0.17584512 -0.37340793 0.038454726 -0.1298131 0.0075585158 -0.037073314 -0.44446474 -0.17586596 0.39644557 -0.13088587 -0.44279635 -0.46132526 0.43243107 -0.0061284476 0.21804385 -0.05733067 -0.67311674 -0.54515606 -0.13798806 -0.32124627 0.18816611 0.12326812 0.22013338 -0.22685367 0.010587803 -0.22910552 -0.275687 -0.06725348 0.11272416 0.573684 -0.15195729 -0.62257653 0.73104244 -0.054894354 -0.32054994 0.20624731 -0.2856946 -0.072588116 0.067872204 -0.4196817 0.29793298 -0.19945118 -0.053094707 0.10625675 0.021346072 0.105710156 -0.16980055 0.30282366 -0.14418168 -0.3521077 0.20776905 0.26424408 -0.10189231 0.45336705 0.16354263 -0.21984597 0.07488809 0.3430044 0.12411857 -0.19340391 -0.43606943 0.13602503 0.12816505 0.20712993 -0.38187394 0.0197804 0.33036694 -0.08723175 -0.21340752 0.25162262 -0.059676547 0.004680835 -0.81790125 0.25993934 -0.38438407 -0.46746466 -0.05052171 0.12482412 -0.25088906 -0.18357553 -0.21001855 -0.22278382 0.3725344 -0.2967535 0.20449145 -0.29351735 -0.2905805 0.10981837
203 0.22827508 0.7341273 0.4264945 0.7467402 -0.01694329 0.24199988 0.34560037 -0.059854776 -0.011201632 -0.12327437 0.08360925 -0.016840275 0.34282485 0.2356808 -0.42516688 0.2568051 0.3412018 0.20427427 -0.28055647 -0.074479595 0.040290263 0.5992503 0.33468506 -0.08601839 -0.032517195 -0.29128885 -0.12224902 -0.22074407 0.5127194 -0.05936377 -0.21323518 0.13375671 0.5302927 -0.10625313 -0.24511151 0.3869879 0.017267453 -0.6538498 0.27569014 -0.013307959 -0.3357755 -0.38728058 0.20116767 -0.0863868 -0.048547726 -0.34761545 -0.11019902 -0.51236385 0.41731116 0.14300093 0.10095772 0.17115891 0.21385181 0.6391027 0.062284864 -0.25633657 -0.55599916 -0.08527721 0.19215626 0.2953658 -0.20988722 0.2638985 0.3682658 -0.22565708 0.41644344 -0.37736154 -0.16178258 -0.4566309 -0.05568859 -0.46453944 0.22092693 -0.4130214 0.8532735 0.17873682 0.0027268766 0.20535032 -0.21618085 -0.09296099 0.41748795 -0.021039326 -0.025378646 0.20490953 0.18384977 -0.13894469 0.032900564 0.52996105 -0.24650845 0.06093576 0.44006675 -0.19516371 0.30498943 -0.09923181 -0.028173512 0.11075626 0.34143513 -0.44983184 0.22174957 -0.48720792 0.0832244 0.45158726 -0.1352854 -0.1611765 0.08648117 0.025279561 -0.0069421646 -0.0460919 0.28229162 -0.19556156 0.0755205 -0.031679757 -0.55178833 -0.2814589 0.14633778 0.5104117 -0.6245303 -0.3511738 0.4999947 0.3168918 -0.17088816 0.056604985 0.39909795 -0.3766631 0.35887662 -0.2270547 0.12994109 -0.059160616 0.20770685 -0.050277125
103 0.15079537 -0.2797828 0.2524683 -0.13552439 -0.108924836 -0.25545532 0.16614741 0.59314716 -0.17880055 0.40216494 0.029597253 -0.48395523 0.032856863 0.2255779 -0.03384572 -0.32286412 0.623395 -0.17956522 -0.054469332 0.159835 0.37407458 0.07707403 0.05221698 0.31454334 0.034059856 0.12094617 -0.3275441 0.10603389 0.074234106 0.16217245 0.10964971 0.21217036 0.26305354 0.861377 -0.15935652 0.22979331 0.060600508 -0.5472561 0.046078183 0.24371411 -0.48745823 -0.25164974 -0.42996973 -0.24006963 0.222333 0.2633528 0.12403648 -0.26194862 0.47003406 -0.24723378 -0.16127443 0.11915641 0.14727017 0.22656803 -0.0023378767 0.2179282 -0.7590204 -0.5744917 0.3322326 -0.092970565 -0.90597147 0.04201539 0.1037491 -0.11355272 0.19139627 -0.9788323 0.11907684 -0.14526728 0.0399433 0.10945789 0.059619375 -0.21623464 -0.06406494 -0.10682177 0.5893729 -0.50099385 0.17152692 -0.31432456 0.5945708 0.07057001 -0.09783316 0.12471769 0.41009477 -0.24181013 0.5024871 1.1778942 -0.33859903 -0.18388832 -0.24370503 0.04379724 0.20231159 0.16589513 0.72935295 -0.43711483 -0.16496564 0.011825779 0.0035749252 -0.22324045 -0.20389163 -0.0006008109 -0.39884323 -0.21769848 0.08272517 0.34063414 -0.20030129 -0.024143837 0.08181873 -0.48369512 -0.34102747 0.0016911284 0.07989689 0.09190577 0.26186052 -0.3547945 0.25837293 -0.4988193 0.2735641 -0.23874955 0.046665546 0.00036128494 0.285787 -0.13348933 0.11246928 -0.35393578 0.028520314 -0.083888054 -0.55154765 0.004368401
120 0.69669914 -0.042315345 -0.23075746 0.40767607 -0.04357422 -0.030605648 -0.08386786 -0.19744708 -0.12466364 -0.10979303 -0.05061171 0.011401238 0.2581092 -0.26013863 -0.006327908 -0.16948767 -0.09618284 0.13419014 -0.2535156 0.31595615 0.19709072 -0.041434333 -0.15840742 -0.43877646 0.902845 0.31305903 0.50585073 0.16588433 0.42657894 -0.021656811 0.068430364 -0.4245712 0.37895122 -0.03008071 -0.16502728 -0.05905313 0.3376625 -0.240399 0.08462816 0.11749071 -0.47645223 -0.5406516 -0.29499984 0.26967108 0.35958874 0.08364706 -0.24925575 0.110062554 0.55337155 -0.07447787 0.35222268 0.3309141 0.19126199 -0.2541294 0.20547731 -0.11001202 -0.49673492 -0.33741844 0.16473857 0.059925407 -0.30789676 0.4739273 -0.3591111 -0.6580713 -0.06790547 -0.6458845 0.12653315 -0.26522082 -0.056499917 0.23179904 0.36069167 -0.14278108 0.12055474 0.2835474 -0.04193393 -0.28104421 -0.2940729 0.13308805 0.79226565 0.059115246 -0.33725888 0.026590647 -0.38079908 0.15481284 -0.6411128 0.38930792 -0.32378915 0.014451051 0.172835 0.49096859 -0.14744134 0.544248 0.1379373 0.04026445 0.27061448 -0.18311554 0.35211462 -0.22929597 0.44814095 -0.19949992 -0.3831687 0.09889649 0.22389556 0.84219074 -0.0805973 0.0144395 0.123221576 -0.063533984 0.54500794 0.25478613 -0.1831403 0.25815433 0.0014002832 -0.17540032 -0.014161329 0.22095749 -0.04732014 0.57320446 0.4230511 -0.36565867 0.072005264 -0.48333752 -0.14914075 0.26201862 0.11688235 -0.45136347 0.44676384 -0.088748954
119 0.55903596 0.07853894 -0.23436874 0.35351923 0.043018796 -0.011658035 -0.075511724 -0.14723568 -0.1124798 -0.21659249 -0.020230694 0.11048667 0.04149906 -0.21241401 -0.07137681 -0.18666203 -0.1636948 0.010415175 -0.27196157 0.17196222 0.12824781 0.053789824 -0.12184432 -0.4203071 0.92520267 0.34251845 0.3080095 0.20368452 0.4769655 -0.04852057 0.076518446 -0.3276522 0.2533078 -0.055771537 -0.2138577 -0.08191045 0.43019658 -0.24186249 0.10194291 0.13139921 -0.5567435 -0.52716994 -0.36094177 0.2753295 0.33056453 0.13435653 -0.21573524 -0.011805456 0.5083847 -0.045742936 0.33581635 0.35068667 0.20703477 -0.28157517 0.25794703 -0.13904573 -0.5086027 -0.28151292 0.1285619 0.080734015 -0.33805066 0.44798002 -0.53011847 -0.64222336 -0.076433785 -0.7416338 0.21527371 -0.238699 -0.06243864 0.15264541 0.27790037 -0.13373262 0.09048883 0.27456596 0.017190978 -0.26260707 -0.2670913 0.010451689 0.72925794 0.058239244 -0.30037013 0.049143374 -0.26524836 0.116340905 -0.50155354 0.49335644 -0.341801 0.007163168 0.16683352 0.42356157 -0.068329886 0.42307106 0.19659606 0.090983115 0.3402555 -0.2346027 0.3955177 -0.28007412 0.35331827 -0.20264705 -0.36467683 0.14570823 0.18870232 0.752617 -0.023335515 0.04573559 0.26976132 -0.02745459 0.6083666 0.2932306 -0.16251303 0.2352442 -0.09498828 -0.17760158 0.0015668935 0.2757068 -0.12334089 0.54202086 0.33752742 -0.41220728 0.13036852 -0.52900666 -0.1324833 0.25557202 0.016121613 -0.38025743 0.6699177 -0.1406112
118 0.7575864 -0.15914932 -0.24315974 0.21709092 0.0990623 0.09846221 0.0031631852 -0.3144236 -0.21067373 -0.1185792 -0.023655571 0.06756076 0.17152475 -0.21112762 0.046678815 -0.3019745 -0.07613052 0.10977461 -0.36551833 0.24682125 0.3485834 -0.07018915 -0.18366225 -0.4045101 1.0515385 0.18514925 0.40638787 0.13058902 0.5289012 -0.07953438 0.2164101 -0.28374413 0.28494382 -0.048300877 -0.01725383 -0.022234702 0.3964727 -0.11456431 0.1915166 -0.02670326 -0.5288694 -0.44160643 -0.35642198 0.39944118 0.26835665 0.08671105 -0.19662215 -0.08147104 0.5898932 -0.18010214 0.2676881 0.266686 0.2425245 -0.26471278 0.23005092 -0.14683828 -0.41204906 -0.26914096 0.13620216 0.02524448 -0.39982513 0.40505776 -0.4798532 -0.7292718 -0.14855704 -0.77201986 0.19820192 -0.28923613 -0.033738323 0.21756649 0.34929812 -0.11254867 0.28028202 0.24133863 -0.07714667 -0.25264493 -0.2623949 0.02707013 0.79634666 -0.003180393 -0.2848064 -0.019022977 -0.41115627 0.13276464 -0.53083175 0.49529716 -0.41235563 0.029089345 0.18139839 0.5049337 0.048459597 0.51480675 0.24175246 0.15344685 0.36474338 -0.3023538 0.42105618 -0.17522228 0.5091197 -0.1668266 -0.2737492 0.08297041 0.42796078 0.82960486 -0.10396183 0.027126286 0.21300627 -0.044726565 0.63837945 0.39003998 -0.16657437 0.23529321 -0.115490235 -0.12870292 -0.15578884 0.22454038 -0.10229908 0.5375604 0.4597351 -0.37347427 -0.070899785 -0.42280143 -0.13643761 0.23482448 0.22460502 -0.28689218 0.49723688 -0.08596981
110 0.434358 -0.10126122 0.35306495 -0.30566564 -0.12937456 0.26047277 0.36263472 0.18333626 0.0036537733 -0.13601166 -0.29913655 -0.409691 -0.21986336 -0.280189 0.5809503 -0.41374674 -0.2171278 -0.16561133 0.3653284 -0.33844134 -0.12602158 0.19136392 -0.40416312 -0.09400675 0.14520113 0.08442478 -0.054082073 0.0092374515 0.2978732 0.22282134 0.12520075 -0.14122677 0.37437367 0.29818085 -0.3153535 0.12832035 -0.13595968 -0.49207166 0.22350854 0.6509389 0.6132928 0.3085947 0.14466521 -0.2685485 0.17039987 0.08504523 -0.2882681 -0.14964254 0.43114832 -0.04399581 -0.32754606 -0.44193318 0.08520806 0.18704225 0.20028535 0.0425695 -0.5144699 0.008138484 -0.17952265 -0.16481519 -0.066141315 0.013644787 0.10950758 -0.00060752867 -0.11193789 -0.27015814 -0.29562515 0.194533 0.11780406 0.38060567 -0.008112131 -0.2392432 0.002163351 0.15220417 0.061585084 0.11768284 -0.13341461 -0.069782145 0.10115998 -0.71675795 0.19529107 0.28777856 -0.3589816 0.1989476 -0.05198244 0.4133486 -0.2000668 0.42892444 0.37336156 0.054586224 0.020043954 0.14257854 -0.24740341 -0.29918468 -0.0982393 -0.3044031 0.36454013 -0.21386671 -0.0020947724 -0.18567118 -0.24592575 0.14249185 0.04446279 0.11063683 -0.32172993 0.071774215 0.36113784 -0.48127323 -0.08053625 -0.06617011 -0.72841454 0.076629244 -0.120573364 -0.086761296 -0.18847282 -0.42687693 0.41446394 0.14456145 -0.25537732 -0.21578684 0.047773313 0.24296823 -0.06371543 0.49013996 0.4514947 -0.21553174 -0.29793411 0.31072727
215 0.35634425 -0.3326837 0.15668575 0.16507253 -0.572756 -0.10700883 -0.16138583 -0.0145412935 -0.40568066 -0.32374984 0.5171347 -0.3899132 -0.036312163 -0.15070285 -0.35494477 0.30716667 -0.072469726 -0.10600471 0.22228807 -0.3625765 0.13116555 0.047417752 -0.5785668 -0.5095971 0.12584129 0.8966149 0.35721228 -0.35435292 0.6742305 -0.22231868 0.32644784 0.24193414 -0.049227886 0.13996129 -0.05626813 -0.023300447 0.07228163 -0.3072524 -0.14917205 0.0006982113 -0.05665336 -0.32449794 -0.010878043 -0.1591286 0.15149368 -0.11012171 0.47411227 -0.11953383 0.72054195 -0.40255606 -0.10573031 -0.4308506 -0.08896004 -0.4103245 -0.19483761 0.0046100556 -0.29152176 -0.45427653 -0.314114 -0.023943437 0.21399745 0.5911718 0.16476196 0.06162695 0.10287107 -0.017840737 -0.093390584 0.2553939 0.7036435 -0.07059327 0.17084365 -0.32393274 -0.13457985 0.48513705 0.005744565 0.28083736 0.09068195 -0.04657673 0.079353854 0.14001863 -0.06706532 0.2626883 0.34425157 -0.7325738 0.13940664 0.05199843 -0.43916738 0.5637185 -0.036414646 0.47564685 0.23166537 0.3616019 -0.7837569 0.46580538 0.33670795 -0.26183036 0.58867735 -0.22842126 -0.118632995 0.22393131 -0.29620114 0.25158733 0.15522967 0.19328277 -0.11613534 -0.32307616 0.4945304 0.16230279 0.101033054 0.17383063 0.06135905 -0.22045228 -0.2205884 -0.13339376 0.29462126 -0.09931363 0.4081806 0.17685509 0.5423747 0.38051662 0.26261848 0.012253069 -0.19976331 0.10433394 0.027519377 -0.32344016 -0.12984255 0.94177437
104 0.1988229 -0.39386377 0.34817442 -0.17771147 -0.09066904 -0.2521309 0.16047136 0.59337336 -0.17486444 0.40174636 0.11734724 -0.55196977 0.026347265 0.10638208 -0.15772972 -0.29065233 0.7954837 -0.1407667 -0.058638863 0.2625303 0.41240573 -0.030538514 0.05384444 0.26558784 0.06044977 0.07612705 -0.28579137 0.08258634 0.11726567 0.091126464 0.17302492 0.19197749 0.25042105 0.87075096 -0.082861915 0.2637707 0.079269506 -0.48637787 0.11689963 0.2852687 -0.38125926 -0.1589751 -0.5091932 -0.16747367 0.2722992 0.17756502 0.02236867 -0.26249573 0.4491019 -0.34963802 -0.18517219 0.041018464 0.16524415 0.3057926 -0.0032395797 0.29652688 -0.6911925 -0.6217287 0.29863307 -0.10556572 -0.91666293 -0.02070296 0.20350333 -0.083734825 0.1957412 -0.9575033 0.052893758 -0.099775 0.11344657 0.17710073 0.054314632 -0.12531799 0.05589843 -0.21203472 0.5486071 -0.45654932 0.12306985 -0.18336812 0.55467075 0.04729269 -0.089680836 0.08214587 0.4027766 -0.24144542 0.45105124 1.1539118 -0.35498977 -0.1733767 -0.17472509 -0.062794514 0.24092811 0.21463308 0.75964165 -0.4012926 -0.14614171 0.023319647 -0.07704175 -0.11222099 -0.22886471 0.0405189 -0.42605186 -0.38131627 0.07196368 0.35577786 -0.13569771 0.0065238066 0.11611016 -0.46405756 -0.394938 0.013240527 0.014661577 0.0017826125 0.23456375 -0.35274047 0.14916451 -0.45365262 0.3021586 -0.23972821 0.03501424 0.019317549 0.4098145 -0.13228956 0.16634782 -0.3068069 0.078928515 -0.12237856 -0.43258765 -0.13182896
74 0.31710973 0.12800658 -0.29409498 0.24141872 0.13535938 0.040594682 -0.40533438 -0.22568114 0.25539964 -0.22544761 0.030446772 -0.038570996 -0.007868702 -0.007486251 -0.5097889 -0.108498745 0.36324877 0.30389932 -0.07395377 0.18280984 -0.15216385 0.04330082 -0.1207409 -0.5402791 0.40845644 0.22722815 0.35257417 -0.01877183 0.29465088 0.0301853 0.2558394 0.12862523 0.018815849 -0.1674168 0.32402384 0.120277196 -0.14139499 -0.54670715 0.094347216 -0.02908052 -0.6433178 -0.51464564 -0.39496028 0.52459145 0.63902545 0.11258051 0.15808828 -0.19651382 0.52122676 0.051520843 0.26343414 0.20179562 0.28157672 -0.33916247 0.10067269 0.15689945 -0.5514192 0.055205368 0.45147392 0.09174539 -0.17720328 0.1610049 -0.49589914 -0.60290074 -0.34756997 -0.61992425 0.2732226 -0.4739189 -0.21532503 0.016567325 0.37097517 0.13709608 -0.010263654 -0.027663799 0.1817845 -0.19955763 -0.082947694 -0.04671402 0.90701294 -0.09831988 -0.65843755 -0.019931821 -0.27560377 0.07737938 -0.16196473 0.82315826 -0.122536786 0.13246825 0.05132619 0.7199991 -0.1772758 0.38161904 0.25877658 -0.1340077 0.20755109 -0.2778386 0.2705095 -0.22285213 0.20245175 -0.5023965 -0.37321836 -0.04802109 0.74529654 0.31514135 -0.08246938 0.04160247 0.076199554 0.42461738 0.46075037 -0.037477937 -0.3485121 -0.11210397 0.112188295 -0.51758164 0.19507854 0.28276262 -0.31129092 0.5318733 0.29543594 -0.45758036 0.06934054 -0.8578996 -0.29412535 0.4572621 -0.06621463 -0.49201432 0.4915365 -0.3328404
84 0.705303 0.19533938 -0.010519601 0.33339688 -0.9152707 -0.7995082 -0.4540592 0.1484721 0.07148826 -0.14624964 -0.15259643 -0.49044937 0.10546075 0.027753338 0.07360107 0.18749528 -0.21422738 -0.09820961 -0.37839216 0.006303441 0.19607551 0.42908478 -0.09440188 -0.20753454 0.51849145 0.26385823 0.03616499 -0.16562611 0.45026442 0.26644102 0.4798196 0.09245693 0.10722131 0.09506232 0.17493063 0.118532866 0.23687832 -0.3882336 0.45131427 -0.08852977 -0.0035179956 -0.51062995 -0.21730681 0.01333525 0.24652222 -0.34628266 0.26594526 0.20240894 0.46179986 -0.08955719 0.010679295 -0.13295862 0.42132762 0.5183603 0.29314345 0.33319512 -0.5278313 -0.4771901 0.9329268 0.19139 0.22162837 0.06057234 0.16987118 -0.35994568 -0.20045868 -0.21079405 0.38184884 0.1225099 -0.24608614 0.26394904 -0.61479425 -0.18842706 0.08787061 0.32675296 0.0625567 0.5359764 0.16708739 0.008046578 0.043609478 -0.4784853 0.14254308 0.33851185 0.83687353 -0.04608431 -0.042295802 0.3461446 0.09393234 0.106716 -0.20732641 0.13011056 -0.0031640402 -0.15745868 0.17381927 -0.10341012 0.54904896 -0.05180224 -0.22750922 -0.13814674 -0.008534878 0.14711171 -0.22426894 -0.13483839 0.44835857 0.103040665 -0.047487292 0.0025644377 0.42629057 -0.38959053 0.08022088 -0.24497665 -0.17716223 -0.24013546 -0.11569755 0.30059212 -0.32973456 -0.3265919 -0.28826603 0.1917475 0.32536495 0.030911995 -0.032491006 -0.17671406 -0.2499926 0.13910365 0.43517098 -0.2632271 0.18977429 -0.14296529
121 0.6547 -0.03430322 -0.12237151 0.35470062 0.07455347 0.0029938025 -0.026669616 -0.23097377 -0.12980421 -0.08558583 0.010300237 0.053745344 0.23928894 -0.22911023 -0.010690618 -0.15476015 -0.124786355 0.12845673 -0.335505 0.31262657 0.14234029 -0.045215458 -0.10260923 -0.35525897 0.9086208 0.2960306 0.37146014 0.17099561 0.3903112 -0.16765642 0.11206974 -0.36074927 0.31953144 -0.06119314 -0.16003413 -0.051074553 0.37753356 -0.2803368 0.10108352 0.08298417 -0.5384812 -0.5025735 -0.28209162 0.28992996 0.41821367 0.10035853 -0.15478997 -0.020060988 0.6493046 -0.13875636 0.26849696 0.4023606 0.2400771 -0.23916706 0.17467189 -0.061548818 -0.4496681 -0.35051316 0.21646446 0.0880444 -0.27740997 0.42163053 -0.4367342 -0.7446918 -0.12331569 -0.71605426 0.17961337 -0.30449006 0.012493313 0.22434226 0.4465547 -0.13913162 0.1909122 0.26407903 0.011833737 -0.2881309 -0.31617448 0.070472166 0.90392125 0.057137232 -0.3032873 0.04632025 -0.38372365 0.07916526 -0.5679221 0.49147013 -0.32233873 0.0034257954 0.15306595 0.466934 -0.024210121 0.53404677 0.1871019 0.033865336 0.2744249 -0.1670191 0.3392535 -0.31810945 0.440306 -0.21089196 -0.3285299 0.060769036 0.3149906 0.758195 -0.1282258 0.0038589344 0.13515566 0.013781897 0.5870639 0.26167274 -0.21924183 0.19226253 -0.10051176 -0.10348859 -0.029893326 0.24306142 0.03499992 0.5644217 0.43767047 -0.3885197 0.039379142 -0.45678267 -0.22871546 0.29413667 0.028919416 -0.34910363 0.6111056 -0.06275027
