222 128
218 -0.23374376 -0.17058799 -0.17899002 0.29029447 -0.1413521 -0.12377655 -0.406779 -0.005329896 0.72488385 -0.4547895 -0.090280935 0.32810107 -0.3983675 0.031655353 -0.21630996 -0.021919675 0.052708693 -0.0064356476 0.54649127 -0.14651024 0.47309265 0.19558139 -0.004097741 0.3249342 0.03632169 -0.14421594 -0.4334452 -0.30001628 -0.0948166 -0.08809465 0.27311644 0.30403936 -0.24482709 -0.09721756 -0.07068407 0.2807161 -0.20133941 0.23456544 -0.503477 0.43703502 -0.15780942 -0.29946324 -0.20909181 -0.32808346 0.29493502 0.12888983 0.09788557 -0.13963097 -0.47740138 -0.06072558 0.005079226 -0.30774754 0.47104034 -0.04507169 0.4117563 0.32674304 0.16035971 0.23943987 0.017065946 0.1579045 0.120023094 0.12303806 0.19764304 0.43695804 0.12040386 -0.33796224 -0.020020913 -0.39463934 0.01133947 -0.24349177 0.040089633 -0.4203688 -0.33336464 0.30694512 0.38688385 -0.046323825 -0.20782158 0.40744978 -0.020186918 -0.24229443 0.12770712 -0.1726532 0.37323892 -0.15439963 0.341965 0.19609767 0.015415499 0.3562947 -0.43241975 -0.16301095 0.08209857 0.2150228 -0.2164526 -0.32064754 -0.3702462 0.13481995 -0.12298042 -0.038088907 -0.25662673 0.2215513 -0.063880146 0.33135226 0.37646505 0.16670439 -0.24389826 -0.0564795 -0.3206028 -0.29002953 0.060445696 -0.027893543 -0.08070443 -0.16668466 0.2031533 -0.016637431 -0.055348866 -0.22015844 0.0075036674 0.18834217 -0.43802983 0.029493146 0.643103 -0.14535671 0.07295308 -0.36653283 -0.5646596 0.2186308 -0.19162473 0.6137304
219 -0.29240584 -0.11430567 -0.27982065 0.26483408 -0.2231496 -0.22757837 -0.54130906 -0.17804551 0.75017774 -0.42433006 -0.065930374 0.27058935 -0.36965993 -0.10840703 -0.24650466 -0.031552743 0.00016366468 0.019478777 0.4681777 -0.014443063 0.52453387 0.22327913 -0.09457104 0.21298055 -0.018583652 -0.06368359 -0.4081899 -0.20985436 -0.06253115 -0.12270268 0.3696797 0.31260607 -0.19564809 -0.07431935 -0.1145658 0.11779874 -0.13082787 0.23343278 -0.47586358 0.4072586 -0.22597495 -0.29995334 -0.102303594 -0.32051894 0.25720456 0.08171703 0.10057315 -0.026142651 -0.4378935 -0.17830686 0.01406472 -0.31375587 0.48730323 -0.087828755 0.16874273 0.3226993 0.12538037 0.26124662 0.020581761 0.073175855 0.04113287 0.22018312 0.27617806 0.4775388 0.15410544 -0.29196706 -0.11372416 -0.1161304 0.06194301 -0.3238406 -0.064267516 -0.4569374 -0.2801699 0.3649753 0.31899682 -0.009730512 -0.21811093 0.33706954 -0.040442344 -0.23878586 0.18770914 -0.12481871 0.29647538 -0.1724486 0.25630486 0.21948604 -0.0037713652 0.27707443 -0.46469665 -0.20840316 0.10083718 0.10178648 -0.31970775 -0.2738395 -0.43233147 0.14244492 -0.13039184 -0.114865646 -0.23394883 0.25348875 -0.166382 0.2846954 0.31134382 0.17417738 -0.21924287 -0.23370457 -0.20485267 -0.319299 -0.031767607 -0.046211503 -0.04127629 -0.21519771 0.25395697 -0.09377701 -0.033593312 -0.22186925 0.021164011 0.1608245 -0.3110218 -0.01389085 0.67277914 0.010152284 0.0363969 -0.29835078 -0.49363866 0.23397613 -0.015348982 0.5322481
113 -0.09756185 0.045732953 0.22572486 -0.019256566 -0.21079451 -0.16818835 -0.27624634 0.09120459 0.33473903 -0.20672086 0.216402 -0.24219754 -0.14254035 -0.051909007 0.43029338 -0.12325174 -0.41011766 0.18059035 0.20769866 -0.0027449245 0.66442114 0.16042854 -0.24344683 0.1003861 0.044321742 -0.059207126 -0.20251705 -0.015717518 -0.16730404 0.002806278 0.29315764 -0.0014603207 0.017589038 0.58671725 -0.17738211 0.16878332 -0.004385562 0.27256185 -0.31235307 -0.062384717 -0.1354598 -0.36030176 -0.4168915 -0.01903686 0.17153695 0.026739053 -0.39220706 0.029401066 0.05441288 0.20485172 0.18676591 -0.2376866 0.15706101 -0.007918696 0.3263865 -0.27192447 0.18838875 0.13001478 -0.3092702 -0.044501398 0.21319084 0.24870092 0.054956988 0.15738171 0.09896622 -0.45047072 0.05219577 -0.13668506 0.15024115 0.12725 0.25411892 -0.14038853 -0.3975298 0.29275814 -0.1305744 0.24838564 0.09098239 -0.041211262 0.07262593 -0.38505897 -0.15181445 -0.043219537 -0.05823785 0.33477563 0.2175082 0.01878152 0.108903036 0.15485987 -0.011708475 -0.22562677 0.22219351 -0.116729364 0.12274736 -0.09942087 0.012361541 -0.15961607 -0.4357589 0.07279666 -0.23795934 0.3908443 0.012139996 0.10637009 0.17208761 0.089989886 0.06471301 -0.02041036 0.22313397 -0.35450864 0.06545125 -0.09073503 0.052137434 -0.09079987 -0.34873515 -0.06903702 -0.33177587 -0.37714353 0.22389455 0.21522178 -0.7101028 -0.010662957 0.58366543 -0.2801343 0.12840226 -0.11055954 -0.1615937 0.32628477 -0.1631755 0.23199256
112 -0.115014814 0.00269076 0.12902018 -0.015725829 -0.26369625 -0.15564528 -0.31784838 0.14776322 0.54458207 -0.13310356 0.23392409 -0.16176109 -0.11921315 -0.035870556 0.29232508 0.050969537 -0.40058213 0.22188355 0.25120756 0.0074722324 0.72564346 0.3067971 -0.15777655 0.013642374 0.1640414 0.05497782 -0.12514187 -0.0846564 -0.16847803 -0.007885966 0.307052 0.0010203186 -0.032677155 0.41600096 -0.19574241 0.18259996 0.013723104 0.2372777 -0.37366802 -0.08631395 -0.08875287 -0.2831604 -0.2691215 -0.09265996 0.22818846 -0.02033686 -0.36704746 0.07368407 0.06907985 0.11586093 0.15474553 -0.21602352 0.24561478 0.09933218 0.3206075 -0.21357758 0.25687236 0.20236902 -0.41440573 -0.06979643 0.18902908 0.22237675 0.10995465 0.18374525 0.1695721 -0.46991014 0.04240769 -0.2308405 0.08262401 0.04643885 0.14037475 -0.23092723 -0.4196323 0.2222033 -0.13582362 0.2904152 0.10845722 -0.096474335 0.054663718 -0.4470234 -0.16481486 -0.21132776 -0.050736107 0.3150736 0.2695945 0.118034124 0.0844034 0.1120144 0.019299544 -0.22718643 0.26460117 -0.15754907 0.16794671 0.12363668 0.10566528 -0.16431189 -0.44759777 0.09356579 -0.2284415 0.42821953 0.059685122 0.07514381 0.1545319 0.17651147 -0.0116672795 0.08981727 0.2168002 -0.41092962 0.038905308 -0.17459384 -0.021479052 -0.105101496 -0.42262125 -0.124985225 -0.37258247 -0.39556175 0.30557838 0.20030783 -0.69542617 0.025405841 0.6205419 -0.21222953 0.18842636 -0.10887577 -0.08145628 0.2700119 -0.19107994 0.31309053
111 -0.06902005 0.04478677 0.20764028 -0.16308284 -0.26555905 -0.24144766 -0.4062221 0.114375815 0.3485168 -0.10257719 0.22008105 -0.079620674 -0.09260138 -0.128509 0.3585852 -0.062465902 -0.4403499 0.13684149 0.23389292 -0.034179185 0.6515875 0.23033598 -0.07796053 -0.040737037 0.16453335 0.032005735 -0.12854359 -0.0755211 -0.1663786 0.08190217 0.27493912 0.023678072 0.081962384 0.45251232 -0.21628805 0.16183373 -0.05803877 0.33234197 -0.31953895 -0.0046099313 -0.09569314 -0.39171603 -0.34235486 -0.07323613 0.2798459 -0.01807337 -0.37758964 0.037658513 0.013496586 0.16573186 0.15740155 -0.31161314 0.33009958 0.028839884 0.31494117 -0.2091737 0.28990453 0.3242602 -0.40217555 -0.12035047 0.21181324 0.27321783 0.14233907 0.20325865 0.17728987 -0.41485503 0.057927098 -0.26598507 0.10416548 0.2005052 0.2194621 -0.16282336 -0.33709568 0.282323 -0.096004836 0.25836453 0.13372435 -0.07610239 0.07473742 -0.36933893 -0.2221828 -0.09736093 -0.100997835 0.30370566 0.27595276 -0.06804449 0.18199846 0.09130747 0.048203364 -0.27551785 0.17270796 -0.094288066 0.13582979 0.03763639 0.022532139 -0.2832134 -0.42639878 0.094098836 -0.19832833 0.4735296 -0.013228388 -0.025592616 0.10317017 0.119859 0.10236251 0.0491366 0.23265667 -0.254286 -0.0008843978 -0.22083658 -0.07043924 -0.1042038 -0.25640145 -0.092836 -0.369174 -0.3346438 0.27749357 0.15966433 -0.6769456 -0.026450178 0.66942936 -0.10544244 0.22586362 -0.12184281 -0.1737952 0.31712475 -0.15437157 0.31063902
110 -0.043114502 0.045499597 0.17186368 -0.10266737 -0.41539747 -0.19541194 -0.28639358 0.09990598 0.37276202 -0.035723202 0.1752102 -0.14456601 -0.13330972 -0.0634783 0.33968672 -0.17567022 -0.49100143 0.2690837 0.17305222 0.024697553 0.6287042 0.29706374 -0.2839223 0.05301726 0.16378923 -0.021521868 -0.26801097 -0.08096183 -0.18965513 -0.013457164 0.2727038 0.061904814 -0.02104537 0.47031397 -0.25859413 0.21912873 -0.07492654 0.20933065 -0.35177982 -0.20803049 -0.09873318 -0.36531377 -0.33093444 -0.08365135 0.23548493 -0.051813543 -0.3198342 0.037191078 -0.025520645 0.13134016 0.23872532 -0.25103775 0.266654 0.02001953 0.2975899 -0.18555093 0.20418578 0.3239868 -0.45482364 -0.10652578 0.08426331 0.22599958 0.10133854 0.24537529 0.13478741 -0.47464564 0.11653672 -0.29079783 0.087050214 0.19021402 0.31270826 -0.07147284 -0.3189725 0.23040065 -0.044019863 0.317777 0.13213342 -0.109692454 -0.12076322 -0.4229525 -0.27268797 -0.15434752 -0.11349845 0.33179396 0.2846314 0.004366615 0.13899828 0.16543196 -0.01370129 -0.22880457 0.28491086 -0.09158841 0.13695323 0.18352796 0.032076344 -0.28011486 -0.530137 0.114570685 -0.1735718 0.43919033 0.07910193 0.04376708 0.086293966 0.16385567 -0.01723247 -0.0153112905 0.17302097 -0.22269571 0.17887142 -0.26128617 -0.061856046 -0.06686525 -0.25658873 0.07480797 -0.44536996 -0.36935446 0.18623239 0.19766876 -0.71366405 0.11990267 0.6912067 -0.20484665 -0.02987541 -0.02512359 -0.1049772 0.26297486 -0.19002776 0.32478052
66 0.038476653 -0.5504219 0.2937626 0.09460768 0.0066474075 0.0063765133 -0.08311359 -0.36058906 -0.6667653 -0.020598838 0.034059674 0.06532727 -0.10629138 -0.60398287 0.23116344 -0.112757325 -0.13865083 -2.8736355e-05 0.49079013 0.1565196 -0.024084756 0.6877389 -0.43921754 0.3862628 -0.12275561 -0.030761728 -0.0050843083 0.042540114 -0.008586465 -0.5302655 0.46381816 -0.025376832 -0.22146147 -0.35807326 0.0049753906 -0.1926729 -0.09860375 0.16686913 -0.04785174 0.17657332 0.181045 -0.0017137821 0.16705744 -0.30413112 -0.079374135 -0.35179335 0.34678727 0.23846754 0.14501925 -0.08810732 -0.08259962 -0.07578563 0.14544526 -0.05978514 0.6193338 0.17104323 0.7906704 -0.10173167 -0.56038624 -0.0054284665 -0.14221278 0.18686329 0.38789806 -0.036337752 0.4845788 -0.09796893 -0.20923191 -0.11043516 0.2056113 -0.24508563 0.022973102 0.1290484 -0.3956644 0.31881276 0.11849946 -0.15599017 -0.16157429 -0.0017391754 -0.064881325 0.087057285 0.4824275 -0.025982622 0.045814518 0.44297916 0.12899248 -0.17645444 -0.053207636 0.18125345 -0.38720965 -0.52984923 0.12575336 0.13320811 -0.09960116 -0.22170837 -0.66096365 -0.5764627 0.039490573 -0.016327778 -0.18655036 0.5369051 0.051930077 0.21453151 0.15000811 0.06907846 0.1501292 -0.44542497 0.11485162 -0.520143 0.031925034 -0.28539178 0.27249113 0.32953003 -0.33733377 0.32152462 0.06586157 0.29307646 -0.016690472 -0.18214414 -0.22923532 -0.2839515 -0.09380126 0.05073036 0.05367787 -0.32841587 -0.41543782 0.105068676 0.040956236 0.08497176
67 0.08218131 -0.5226779 0.28120092 0.018778339 0.065643445 -0.034972813 -0.027365968 -0.33459404 -0.540126 -0.05095876 0.07661661 0.105141036 -0.17338534 -0.5753561 0.25262293 -0.25154367 -0.057515226 -0.046653323 0.4522295 0.12508805 -0.14812046 0.6472411 -0.42547274 0.2537811 -0.04909578 -0.12204641 0.04475824 -0.027303174 0.084577315 -0.45625293 0.26527178 0.055513903 -0.09503516 -0.14725946 0.015569974 -0.10841653 -0.15814419 0.16749893 -0.02528182 0.098832436 0.11303907 -0.037419148 0.14398044 -0.24198702 -0.13669004 -0.37993515 0.39963606 0.14434117 0.14308609 -0.23319507 -0.10482585 -0.03364448 0.14336075 -0.1396065 0.58097535 0.11528127 0.7775499 -0.060945015 -0.56355655 -0.057458274 -0.06084059 0.18824916 0.32963014 -0.01558347 0.4458023 -0.031547323 -0.1410599 -0.15131068 0.08797271 -0.27697387 -0.026502678 0.11849181 -0.3799504 0.26125163 -0.12794803 -0.23045856 -0.37299457 0.084915 0.053540073 0.13107783 0.48586652 -0.016481362 0.053713724 0.58045363 0.026000796 -0.055284515 -0.08491334 0.093829826 -0.41767204 -0.5330796 0.32736215 0.11805174 -0.05453167 -0.16407776 -0.67084545 -0.50213325 0.08548532 -0.04852841 -0.15349229 0.4852358 0.19457951 0.27745157 0.17152506 0.05220858 0.11208751 -0.52970684 0.22339179 -0.5636889 0.11422081 -0.17435765 0.29102322 0.4560817 -0.35000023 0.5039249 0.0775526 0.4281666 -0.00874283 -0.19159126 -0.20816 -0.34185913 -0.042938095 -0.076387525 0.10980607 -0.3437847 -0.44116753 0.16173643 -0.030366538 0.046144955
140 -0.15556231 -0.2737872 0.6096694 -0.054755814 0.20681398 0.11357392 -0.10896784 -0.23801951 -0.60473907 0.032643393 -0.25694025 0.30983427 -0.10049401 -0.41122746 -0.05069559 -0.09046254 -0.06749744 -0.0036585727 0.5653796 0.020230405 0.014589504 0.3897502 -0.7088802 0.20933819 -0.117913686 0.14428782 -0.14251406 0.14733331 0.026419593 -0.3878089 0.4862367 -0.09468242 -0.16548228 -0.003989166 -0.013960245 -0.2260484 -0.055459943 0.38514262 -0.19326189 0.22883824 0.28650588 -0.0813299 -0.010975766 -0.23845343 -0.0043131397 -0.2067777 0.08486838 0.27508736 0.25228167 -0.1381622 -0.30103013 -0.16433355 -0.002842401 -0.44405657 0.6011999 -0.026069812 0.7832103 -0.15084109 -0.86098653 -0.0016585566 -0.22679831 0.47700018 0.29383418 0.053009402 0.42595565 0.034276605 -0.009357283 0.012660702 0.060738083 -0.14018975 0.25749698 0.09374289 -0.41156226 0.34996614 0.011345025 -0.18683064 -0.24981779 0.07800274 -0.049484037 -0.08866388 0.44274712 -0.00548308 -0.006011743 0.5794847 -0.05662241 -0.0030737158 -0.23315485 0.4134302 -0.3887689 -0.5204277 0.047661707 0.3609227 -0.24575846 -0.09847557 -0.58201855 -0.47359714 0.19110414 0.04906731 -0.19040105 0.36929062 0.04452551 0.3277632 0.1676046 0.18334469 0.37682745 -0.66378826 0.29384023 -0.23253007 0.14680502 -0.41618556 0.2979926 0.2554266 -0.2173101 0.26151922 0.30346587 0.36296085 0.0719635 0.23250571 -0.36773384 -0.12747294 0.19768283 -0.034599733 0.037043944 -0.24082007 -0.43224907 0.22500657 -0.01610821 0.22389346
139 -0.083775885 -0.4451344 0.5968877 0.00876663 0.2195252 0.1319516 0.05121898 -0.20916907 -0.4656484 0.020112863 -0.26251754 0.31383982 -0.14369854 -0.33080372 0.021188237 -0.06015157 -0.0908108 -0.08707922 0.37280107 0.117375135 -0.07829651 0.39606172 -0.740889 0.14644006 -0.08570819 0.15902598 -0.09370231 0.28450656 -0.0141835185 -0.39006597 0.43854544 -0.26658222 -0.14842351 0.037925884 0.012471992 -0.20011859 -0.043473534 0.34589148 -0.10838817 0.16284636 0.34212622 -0.12545186 -0.01716403 -0.17415906 -0.03096805 -0.24449393 0.11034046 0.29996842 0.3324547 -0.12749611 -0.26747406 -0.17376398 -0.09307082 -0.43848774 0.668346 -0.024931818 0.74983984 -0.13289216 -0.874991 0.025623333 -0.1734277 0.47119457 0.2747875 0.08183714 0.5079923 0.03172355 -0.04632827 0.09929215 0.0011122007 -0.20120136 0.31521285 0.028203836 -0.44439572 0.27840328 0.046525523 -0.12830748 -0.12493428 0.033002254 -0.06944323 -0.024535168 0.38731784 0.11617883 -0.12639655 0.567586 -0.02625391 0.044506833 -0.22999577 0.49357566 -0.29675633 -0.44636434 0.091241926 0.30568448 -0.19035795 -0.06573725 -0.6444848 -0.4897782 0.18130682 -0.057570208 -0.26321656 0.37914088 0.06285089 0.33403057 0.1372183 0.19332899 0.26559734 -0.50315887 0.33544743 -0.15401216 0.16843775 -0.40795046 0.27235726 0.33188066 -0.1779152 0.35753813 0.3098876 0.25834724 0.18397063 0.2427974 -0.3404967 -0.08372727 0.07023807 -0.07972572 0.09115686 -0.29163688 -0.4715352 0.13460787 -0.113942936 0.17191717
130 -0.7945465 -0.10504989 0.0986758 0.040224798 0.52277946 0.07458782 0.010744624 -0.28022534 -0.79121655 0.24245386 -0.031736206 0.18791917 -0.051514372 -0.49075255 0.31890666 0.06062724 -0.15652037 0.1399054 0.53111243 -0.36844137 -0.17832686 0.45993295 -0.470536 -0.012266156 -0.37234312 0.000287706 0.14492062 0.14219813 0.0014434119 -0.6041303 0.7392078 -0.013147429 -0.0780328 0.26956084 -0.11443228 -0.32392314 0.060368944 0.1667559 0.027023368 0.33508173 0.2609995 -0.08501863 -0.085986815 -0.27305174 -0.03375581 -0.11548091 0.30917194 0.20607814 0.18926112 -0.1307559 -0.18536638 0.108860284 0.19770877 0.19367431 0.7338577 0.07251754 0.5434594 -0.4241775 -0.74468976 0.16331321 0.05605429 -0.048725292 0.5987572 -0.049460873 0.40764463 -0.38657916 -0.2799395 0.102558665 0.18357208 -0.48355287 0.16522384 -0.09288464 -0.10096396 0.0980774 0.058286306 -0.048943605 0.12912768 0.121779315 0.012894604 -0.10868752 0.0864658 -0.06307695 0.12997535 0.66671133 -0.21610355 0.32756087 -0.33292893 0.64653397 -0.3055788 -0.35625535 0.07828888 0.40360948 0.2122586 -0.1443576 -0.48684534 -0.30261418 0.11067311 0.14194123 -0.31021747 0.5192895 0.1324628 0.18069476 0.13009621 -0.051868588 0.14748181 -0.064421855 0.2849873 -0.8294017 -0.061450824 -0.44160038 0.20236723 0.23198815 -0.5579299 0.35643128 0.39506984 0.5744254 0.2464076 -0.059309006 -0.10724642 0.26408514 -0.19566458 0.038355865 -0.14111237 -0.14836764 -0.25152478 -0.43265396 0.08380119 -0.05094159
129 -0.5845768 -0.0070305094 0.06378267 -0.06530424 0.48425812 0.049836002 0.0884717 -0.37630212 -0.8527083 0.3733475 0.057713836 0.119592234 0.0011142252 -0.5040813 0.37049592 0.062431123 -0.07693123 0.096655056 0.4787704 -0.42565 -0.32796827 0.53471774 -0.4116903 -0.025882227 -0.38449726 -0.004861129 0.210832 0.07713234 -0.010201449 -0.71368074 0.770829 -0.029230865 0.00086216285 0.23112847 -0.0936016 -0.33214304 -0.024334235 0.19287519 -0.042952117 0.29379776 0.27406406 -0.03182959 -0.091699116 -0.3617686 -0.04563605 -0.062383838 0.37393025 0.1960061 0.11345253 -0.13530454 -0.21062411 0.093102686 0.27200758 0.20833121 0.7610605 0.08389136 0.6581073 -0.34474236 -0.8318658 0.10563187 -0.12780577 -0.032461204 0.5885785 0.04579534 0.36693624 -0.34929013 -0.2981726 0.070863195 0.20685574 -0.51849186 0.23009759 -0.0711152 -0.21183729 -0.039067466 -0.015094457 -0.12402271 0.047052976 0.14055595 -0.019183366 -0.065691695 0.039703593 -0.12995918 0.057541884 0.72837794 -0.28201336 0.31750408 -0.22907466 0.64540815 -0.29760543 -0.3728543 0.11316736 0.39989185 0.20576417 -0.064873144 -0.5465563 -0.36551118 0.06687089 0.15821418 -0.40854383 0.5436525 0.0753266 0.27196908 0.2230983 -0.094859645 0.23020302 -0.08316447 0.33047158 -0.7746537 -0.024208726 -0.48357415 0.14360811 0.27966917 -0.5112431 0.43724367 0.33676553 0.7079142 0.21749853 -0.08861035 -0.09613258 0.21236064 -0.27434942 0.08983366 -0.120822296 -0.081018806 -0.27384782 -0.42176506 0.10107451 -0.072911166
211 0.09607553 -0.2876987 0.11792663 -0.04833229 0.07087655 0.005361242 0.06674335 0.5655632 0.13710576 -0.49668908 0.4180358 -0.34579846 0.15094903 -0.090326205 -0.06845167 -0.097006634 0.07863981 0.08111506 0.13607273 -0.15311484 0.042707995 -0.19846015 -0.13570027 0.029300392 -0.37509546 0.0746152 0.15580344 0.04317938 -0.17841376 -0.2487796 0.11479196 -0.32471704 0.27617168 -0.06680948 -0.06321241 -0.021667173 0.05296439 0.056319524 -0.07116037 0.019245861 0.09520939 -0.2212052 -0.6638436 0.101269566 0.04275724 0.16316828 -0.32963228 -0.14270282 -0.28184378 0.021780062 -0.055633236 -0.09229013 0.099819645 0.021066204 0.27094677 -0.168259 0.16693236 -0.52392685 -0.051356126 0.057885084 0.11995621 -0.13151371 0.09298943 -0.007536135 0.27357066 0.17803593 -0.20539434 -0.19323567 -0.1809021 0.05468243 0.008533945 0.14061739 -0.07597217 0.076708324 -0.14895946 -0.05722297 0.08130116 0.20450312 0.30186144 -0.4189054 0.1782339 -0.14317244 0.27037674 0.019450406 0.08026547 0.09265952 0.09067042 0.2582182 -0.19693723 0.24219103 0.04802701 0.34515163 -0.013010277 0.0025983748 0.08105162 -0.23169129 -0.049687106 -0.35027915 0.11900619 0.55748564 0.16033909 0.23646773 0.17765968 0.40899098 0.055678833 0.32014072 0.34604624 -0.1288969 0.097962804 -0.12698635 -0.20175959 0.14021604 0.15470149 -0.16708311 0.13017136 -0.31682572 0.4887353 -0.037174445 -0.12327768 0.13830176 0.31861374 -0.06717329 0.14211927 -0.13809717 0.06191437 -0.11832151 -0.24344365 -0.26765326
210 -0.018591098 -0.137042 0.18888745 -0.110702015 0.19178624 0.004496449 -0.0023514333 0.61053973 0.062300988 -0.4352256 0.4958932 -0.27357608 0.14457618 -0.096594185 -0.17310184 -0.1406344 0.1302012 0.04389294 0.26341712 -0.31471112 0.02419072 -0.043243956 -0.26992875 -0.036477447 -0.23348075 0.111494005 0.119753286 -0.14094515 -0.030495526 -0.31088606 0.18040098 -0.18664894 0.336011 -0.13866675 -0.20617266 0.037105277 0.026865898 0.03482914 -0.25984493 -0.09172275 -0.047354605 -0.24748869 -0.6995869 0.117752515 -0.005932891 0.08629557 -0.18768959 -0.15699945 -0.29445964 -0.04092576 -0.17464277 0.026307445 0.10098666 -0.08224219 0.2531949 -0.22514041 0.20874871 -0.38653556 9.311906e-05 0.03425819 0.070774674 -0.15291333 0.13336203 -0.066968225 0.21537116 0.13151173 -0.11488267 -0.094316915 -0.1597241 -0.001058482 -0.016983526 0.113332905 0.030764434 0.0076054838 -0.22972552 0.05332599 -0.07021452 0.08524826 0.24981892 -0.350199 0.055780154 -0.078187704 0.32037836 0.024063852 0.20870893 0.07842351 0.10032364 0.2593889 -0.19256724 0.26885974 -0.035565186 0.24576886 -0.028073126 0.055227358 0.12128716 -0.22277991 0.06602496 -0.13978505 0.13798688 0.49310285 0.23983856 0.08429298 0.12208195 0.19428615 0.07660211 0.32307065 0.23752779 -0.19758788 0.19390136 -0.08383729 -0.14137532 0.12617567 0.044793252 -0.05314052 0.034240235 -0.258689 0.27017087 -0.075287126 -0.13277408 0.13733432 0.22525811 -0.21001202 0.13030054 -0.116950676 0.06482336 -0.11098185 -0.21410753 -0.24292319
209 -0.061090793 -0.17289126 0.046012416 -0.005190896 0.07271695 0.045075838 0.08440987 0.59267247 0.085443795 -0.4904875 0.37145254 -0.28956825 0.13042565 -0.18772736 -0.06746935 0.002124361 0.22206056 0.013915924 0.19559772 -0.25123793 0.02875402 0.0095280185 -0.18870771 0.002819113 -0.34417906 0.102974094 0.28697285 -0.19473854 -0.13650592 -0.22402216 0.18764246 -0.2249799 0.32752192 -0.069484614 -0.14986332 0.04974635 -0.027773421 -0.01109083 -0.018022256 0.020969305 0.048664905 -0.17847161 -0.7163257 0.12871893 0.036404032 0.20557544 -0.26794308 -0.113032125 -0.17732555 0.063184984 0.06696052 -0.048581403 0.008940313 -0.02235522 0.23714136 -0.18530966 0.20092314 -0.4201193 -0.06571751 0.0011176231 -0.0063784285 -0.18207753 0.09924167 -0.0014172603 0.25650528 0.14752658 -0.09060796 -0.09123763 -0.24835286 -0.1372927 0.016704287 0.14531812 0.09806229 0.030334705 -0.19300583 -0.012291575 -0.044373035 0.022787422 0.33502504 -0.43852833 0.06655668 -0.16534805 0.29019737 -0.0016458515 0.08184406 0.21847248 0.073391214 0.31000605 -0.24718367 0.21666294 0.09186934 0.33972776 0.084254645 0.018848317 0.03189011 -0.14392497 -0.11635367 -0.22898749 0.26106244 0.50854164 0.12788427 0.121923454 0.19907115 0.30131564 0.17974217 0.19533293 0.31528506 -0.18440385 0.13687575 -0.19746362 -0.07448657 0.17577444 0.020722348 -0.0889882 0.14768012 -0.37902892 0.28223604 0.026877671 -0.12967263 0.22935039 0.47134 -0.054746166 -0.02166909 -0.14180063 0.19775176 -0.021343103 -0.22440855 -0.26241997
212 0.0384142 -0.28384557 0.09758205 -0.12506227 0.05676067 0.010906955 0.14535126 0.5854962 0.12985206 -0.44038996 0.3954507 -0.34013972 0.09527336 -0.048765454 -0.16082895 0.0022444543 0.3017337 0.037805986 0.2545418 -0.29791543 0.18702948 -0.05711796 -0.15882239 0.039902322 -0.23994742 -0.036119573 0.35389447 -0.14834328 -0.04712932 -0.18479954 0.23548432 -0.22016166 0.41945592 -0.13564445 -0.23391712 0.080654256 -0.06032232 0.0066950056 -0.1491987 0.004942175 0.08216692 -0.22347757 -0.74267536 0.078913525 0.1266678 0.099015445 -0.24326985 -0.0540876 -0.22297587 -0.14551197 -0.11910079 -0.11294885 0.028178604 -0.099410295 0.33277357 -0.18085858 0.3814793 -0.47022498 -0.045713536 0.045351554 0.16301331 -0.14952506 0.09403158 0.12105529 0.2785585 0.20097318 -0.11517748 -0.11309896 -0.23104139 -0.0154342875 -0.023072215 0.1326313 0.16406043 -0.014221151 -0.30312473 0.076653846 -0.00045727385 0.088277906 0.27088577 -0.3804023 0.1483088 -0.21248278 0.3309968 0.10696915 0.08049847 0.1837645 0.13909909 0.31204566 -0.18148005 0.2019621 0.022501104 0.12357264 0.05433633 0.03328533 0.14785384 -0.18479438 0.023516022 -0.37901255 0.20640153 0.45757738 0.21031328 0.12035641 0.15380892 0.26869246 0.035201162 0.2567357 0.39055905 -0.14134392 0.07261592 -0.123392366 -0.11408957 0.13045302 0.040630814 0.009425119 0.10046848 -0.26614136 0.2679046 0.01093602 -0.30326703 0.06464202 0.3485158 -0.07856822 0.040648118 -0.07094178 0.1333817 -0.16072345 -0.29997203 -0.18983892
54 -0.4861107 -0.1600192 -0.0017911184 0.017870072 -0.45144844 0.23421983 0.26773566 -0.11008997 0.19440274 0.12603794 0.016938718 0.26879972 0.14653383 0.023709081 0.08096852 -0.17059654 0.012967457 -0.360341 0.6061561 -0.30407426 -0.108608276 0.28873742 -0.35348418 -0.28967327 0.15249102 -0.25146312 -0.72921747 -0.25489512 -0.26607606 0.004579337 0.35499838 -0.26065084 0.4613946 0.2846907 -0.36857805 -0.19933566 -0.29597214 0.12719804 -0.24369837 0.77592456 0.04358084 -0.39075387 0.22723927 -0.45934466 0.0039154575 0.21643533 -0.16254894 -0.1316435 -0.22604854 0.17994452 -0.23500484 -0.23539852 0.48551384 -0.13889417 0.12029884 0.2055142 -0.061524216 0.41097078 -0.14128959 -0.20441285 -0.061159395 -0.046978455 0.11225132 0.34438452 0.3980695 -0.23066422 0.30511492 -0.3097028 0.20643455 -0.10284373 -0.1610788 -0.37180677 -0.18681736 0.26599327 0.1506672 0.15638928 -0.45190164 0.09428391 -0.08380045 -0.30444533 0.05502341 -0.36750856 -0.18220088 -0.07208067 0.12758967 0.49665335 -0.09073326 0.0043103136 -0.0024848166 0.05835462 0.16999081 0.09478024 -0.5679867 -0.17233217 -0.31756216 0.061143063 -0.1650584 -0.27401575 -0.07667939 0.039532382 0.34105557 -0.36806872 0.33128735 0.16894382 -0.2940383 0.089132935 0.30741984 0.33963534 -0.29979825 -0.22313727 -0.67000884 0.02362279 0.22856583 0.05609422 -0.32057977 -0.021745315 0.33944687 -0.34918743 -0.41388136 0.049547803 0.57138085 0.059864704 -0.16195898 -0.29694813 -0.1395484 0.16835058 -0.21676064 0.39936674
205 -0.23647512 -0.04909049 0.08208156 -0.22554296 0.229426 -0.44279718 0.21165149 0.43667585 0.615138 -0.48131824 0.29395527 -0.5335217 -0.4224194 -0.016602095 0.33421406 -0.5607476 0.40674114 0.25613835 0.33704996 -0.29020673 -0.26119044 0.13340653 -0.39795524 -0.09537863 -0.45406124 -0.1030738 -0.2109095 -0.042337447 -0.18059903 -0.36280227 0.39134228 -0.80165195 0.39514804 0.07327488 -0.2945174 0.13580269 0.06766199 -0.041988097 0.037135355 0.32344326 0.12960386 0.16612183 -0.36254475 0.031966772 0.110860646 -0.23558192 -0.14742343 0.1381764 -0.3751033 -0.1939778 -0.29218623 0.23573832 0.31312862 -0.055546395 0.8004873 -0.014621259 -0.1966184 0.07352476 -0.06596579 -0.4673734 -0.13979201 -0.26677424 -0.19412851 -0.27224874 -0.2878219 -0.088504754 0.044611692 -0.12664497 0.057832338 0.43695062 0.053841267 -0.2066647 0.18943863 -0.15274277 -0.1607767 -0.2083942 -0.0017530227 0.31259552 0.16600896 -0.43550882 0.0762243 -0.11903827 0.08161127 -0.10213557 0.45194697 0.23851334 0.18847565 0.12963676 0.019966241 0.03464968 -0.21213317 0.6471301 -0.47385296 0.32371342 -0.016556213 0.022317117 0.060872503 0.21904168 -0.24279505 0.66158056 -0.023820098 -0.2608114 0.31128052 0.16380988 0.13157314 0.24942818 0.2424132 -0.16217886 0.22846217 0.3590398 -0.20332018 0.018552586 -0.24554212 0.20041977 -0.10518514 -0.42889732 -0.18998821 0.032873746 0.3590906 -0.11899392 0.19034545 -0.06351519 0.24568743 -0.14887917 0.028001882 -0.08401234 0.25574267 -0.54532343
203 -0.3335415 -0.14179869 0.22517626 -0.31981915 0.34354058 -0.41447276 0.18893285 0.53099984 0.5916101 -0.4293506 0.36362252 -0.65135086 -0.31012103 0.106077574 0.31083447 -0.49046522 0.39780638 0.2392385 0.3660654 -0.40045047 -0.24617705 0.2638253 -0.43600237 -0.11904887 -0.3346674 -0.17296515 -0.24619836 0.07483697 -0.092473745 -0.29387146 0.3057984 -0.68064827 0.2959366 0.10436761 -0.25993773 0.24083526 4.706194e-05 -0.1576558 -0.18085483 0.27718708 -0.012555307 0.15360597 -0.26805568 0.09879765 0.2271023 -0.21075657 -0.3203873 0.25598967 -0.40007412 -0.2542101 -0.36464942 0.12285484 0.19277914 0.049544718 0.79609084 0.11923889 -0.04058511 -0.019965084 -0.101165116 -0.41790566 -0.14897804 -0.29759476 -0.1569191 -0.11507644 -0.2579682 -0.16652767 0.0025268083 -0.24699342 -0.0044453465 0.4011999 0.041279186 -0.0820132 0.26942015 -0.043410324 -0.112136535 -0.14693074 -0.053118706 0.3730179 0.14730692 -0.35794145 0.11989995 -0.19293241 0.074609645 -0.021072887 0.39826033 0.21254352 0.033939764 0.042526964 -0.15865247 -0.025569567 -0.16865164 0.743169 -0.48526546 0.09202452 0.011647423 0.020575946 0.019231707 0.124568 -0.11836871 0.53782105 0.03257559 -0.49991253 0.38096523 0.10740751 0.17895596 0.3523044 0.22349112 -0.10774151 0.32350892 0.343773 -0.034625106 -0.10255171 -0.31953725 0.18604381 -0.04783312 -0.32608247 -0.16651618 0.0063846046 0.21706967 -0.1584004 0.019207468 -0.057914935 0.18033476 0.1184947 0.09625668 -0.10100694 0.23012364 -0.59846205
190 -0.0057735443 -0.25788644 0.119063266 -0.4399068 0.14089625 0.036025573 0.10638396 0.6382632 0.28760272 -0.3228729 0.50691056 -0.4296661 0.11415702 0.005350432 0.13769554 -0.08113589 0.16745009 -0.03198034 0.056290396 -0.403456 -0.066827565 0.053114057 -0.23928922 0.060583252 -0.28532267 0.15721154 0.12219077 -0.2927266 -0.054602947 -0.46491542 0.34312356 -0.20433713 0.4036217 -0.32730937 -0.1593222 0.07450398 -0.03126411 -0.016255368 -0.2930214 0.07404646 0.029662415 -0.06450221 -0.54636174 0.024962228 0.018540991 0.08369177 -0.31372732 -0.062376734 -0.1957224 0.06712007 -0.109202325 0.03223501 0.09215816 0.07299615 0.090683855 -0.23692597 0.10951418 -0.49293545 0.0761747 -0.050139055 -0.119680285 -0.22724277 -0.12719 0.12588386 0.060567386 0.18877442 -0.08557423 -0.052520577 -0.15471853 0.029427268 0.008162093 0.08438246 0.10362919 -0.16907252 -0.26033476 0.08513651 -0.16794 0.039268952 0.13335808 -0.33657363 0.16470635 -0.07312426 0.16707155 0.057311192 0.25633898 0.0581444 0.06635972 0.17767373 -0.1435722 0.08612529 0.12415964 0.30653855 -0.071368255 -0.01126626 0.19388564 -0.0823245 -0.0011709095 -0.11431804 0.05038307 0.5039628 0.22575867 0.13533837 0.24426985 0.3113162 -0.07288006 0.17750703 0.35017595 -0.0897567 0.06761634 -0.17443341 -0.0753502 0.15109657 0.068206675 -0.24731381 0.10295511 -0.29252318 0.06709034 -0.055372003 -0.04226528 0.02763577 0.29437488 -0.08792149 0.13829647 -0.08206973 -0.045975316 -0.045687634 -0.17864943 -0.24474344
204 -0.21560213 0.115358375 0.13288854 -0.16555598 0.32615215 -0.39316803 0.078778885 0.42321655 0.7430571 -0.3230756 0.45409998 -0.5316393 -0.287511 0.04266479 0.31085852 -0.54097027 0.44122425 0.29292485 0.35744092 -0.35192928 -0.28177923 0.25892752 -0.44705525 -0.08420208 -0.38370806 0.07851198 -0.35021812 -0.12453766 -0.09667972 -0.3851134 0.3908066 -0.64350355 0.32104662 0.13751838 -0.2790396 0.27981615 0.032143783 -0.11640137 -0.086549275 0.2602236 -0.03963463 0.27068684 -0.2870242 0.10582349 0.21550412 -0.1571715 -0.2706611 0.16461937 -0.32962644 -0.16001612 -0.47648114 0.21953449 0.2566221 -0.038322546 0.8608742 0.031049747 -0.084461235 0.048346438 -0.062026106 -0.4266288 -0.060712315 -0.3943292 -0.1581505 -0.2543958 -0.35963014 -0.09661977 0.025391972 -0.08920518 -0.0068934606 0.40625665 -0.047000706 -0.073000506 0.24373557 -0.09683162 -0.078672186 -0.06656066 -0.10088877 0.229853 0.17011896 -0.3322923 0.033894714 -0.13484311 0.06008096 -0.037439752 0.4821975 0.22108735 0.04802703 0.11617687 0.0072179902 0.030891567 -0.17699979 0.6021861 -0.53573537 0.05863959 -0.0073125144 -0.034333155 0.071610905 0.2627251 -0.18285064 0.5925784 0.014808849 -0.4481558 0.38784423 -0.04189393 0.164947 0.346628 0.18769616 -0.19507715 0.3115292 0.27121088 -0.07288194 0.013740019 -0.345703 0.19264139 -0.07571014 -0.408744 -0.23049244 0.04190517 0.22524633 -0.1695347 -0.085116975 -0.14167674 0.18816635 0.096662804 0.14519928 -0.0054446533 0.27401602 -0.54685163
206 -0.08256719 -0.010296727 0.09909925 -0.3388744 0.23248465 -0.36632434 0.14532831 0.43168452 0.7199405 -0.54980725 0.36389202 -0.5102777 -0.39645663 0.087094195 0.21918118 -0.47227404 0.33430666 0.16585891 0.21523413 -0.22971582 -0.32543358 0.1696299 -0.35146338 -0.10828209 -0.20988266 -0.0070655574 -0.26353487 0.059883542 -0.10600105 -0.32795486 0.15993135 -0.713353 0.3017647 -0.006642515 -0.29757246 0.13779296 0.1588762 -0.14534976 -0.06327143 0.30859974 0.089075804 0.23727146 -0.19193667 0.13889475 0.19391583 -0.2382155 -0.25354782 0.13413295 -0.46528167 -0.21268347 -0.31986293 0.20219332 0.3588182 0.023479529 0.9152736 0.108685225 -0.03906968 0.020211928 -0.097336456 -0.43897653 -0.111295216 -0.3776993 -0.10583093 -0.23253313 -0.24619964 -0.112287305 0.075741276 -0.2105671 -0.034736067 0.4440097 -0.08268729 -0.1719905 0.123664975 -0.18346144 -0.112226196 -0.09521337 -0.03868156 0.45466405 -0.014614386 -0.47009066 0.09776069 -0.25155503 0.12643498 -0.056441355 0.4794181 0.17156208 0.17880535 0.11030511 -0.08538067 -0.08527016 -0.1551184 0.74313605 -0.50102615 0.2101213 0.025544696 -0.048228007 0.0028552667 0.11112717 -0.3035874 0.68807834 0.0015679752 -0.48640946 0.43029603 0.11989726 0.037345555 0.3169773 0.21602473 -0.05676662 0.24753127 0.34395266 -0.10740775 -0.1110636 -0.33613852 0.35159698 -0.08827316 -0.3304881 -0.18436924 0.11256633 0.25981516 -0.08076055 0.06803319 -0.033100884 0.27990168 -0.052012976 -0.012991086 -0.002710776 0.22672252 -0.45922503
191 -0.013383355 -0.26608905 0.040171865 -0.24489462 0.0479773 -0.016247353 0.14693385 0.6894659 0.26522306 -0.37713984 0.49471796 -0.25879225 0.20212038 0.042243328 0.20527287 -0.08195053 0.1743637 -0.11958915 0.07605065 -0.26499346 -0.11131833 0.17347637 -0.20739266 0.10577833 -0.25940055 0.13947389 0.21347061 -0.44211426 -0.054148186 -0.31688905 0.27822697 -0.29956093 0.33516043 -0.30097517 -0.19242631 0.031705137 0.007588846 0.015103023 -0.33128822 0.05778119 0.02243338 -0.16573998 -0.5749566 0.046711594 0.0145325465 -0.035036646 -0.21838662 -0.11901662 -0.15608622 0.24681965 -0.033324823 -0.024411706 0.11240919 0.0051154774 0.30649912 -0.13679178 0.04801006 -0.37218538 0.05381803 -0.040965803 -0.07064985 -0.23599549 -0.06680414 0.037194557 0.11033234 0.16709118 -0.026120007 0.02183761 -0.055936318 -0.060020328 0.06344516 0.11331263 0.059181917 -0.12201933 -0.1990197 0.071570456 -0.043069113 0.13862434 0.114083655 -0.34240454 0.22545677 -0.098283604 0.16077892 -0.078524925 0.19463766 0.15376417 0.09400887 0.18960424 -0.20134477 0.044367515 0.075505264 0.30819923 -0.10480095 0.12226685 0.16598433 -0.039543193 0.02023714 -0.18018931 0.018994985 0.40743685 0.16033101 0.160626 0.28796488 0.20861247 0.08842733 0.33583143 0.30756015 -0.11524733 0.11947235 -0.07501474 -0.10893009 0.16274047 0.12338813 -0.20471968 0.03674807 -0.26346928 0.18371964 0.068561755 -0.022053257 0.012308016 0.24743654 -0.060395177 0.072595656 -0.09935659 0.0008312434 -0.007080915 -0.2986296 -0.35296735
193 -0.015865268 -0.3044601 0.09892677 -0.32285878 0.06813515 0.01928137 0.22633724 0.61581457 0.2692988 -0.4924447 0.39236462 -0.32110628 0.10247533 0.019690458 0.097153425 -0.16741505 0.14155263 0.012260412 0.03143787 -0.43248123 0.04523291 0.14114384 -0.31184137 0.14159076 -0.41240996 0.13250113 0.08757925 -0.37575814 0.028742416 -0.4702469 0.36227745 -0.34439042 0.5006757 -0.16210875 -0.22352257 0.023951622 -0.030593617 0.016675279 -0.23661324 0.21955957 -0.018322028 -0.10824386 -0.64389014 0.031211777 -0.021195024 -0.033138115 -0.26876158 -0.05802329 -0.1719843 0.10488304 -0.091167234 0.082642086 0.018092027 -0.08965821 0.17355797 -0.029980294 0.17860399 -0.32250947 0.05477095 -0.07971853 -0.020216968 -0.253069 -0.1118136 0.064331934 0.08221529 0.19850296 0.013367869 -0.022977008 -0.142963 -0.0025924419 0.04842457 0.07735079 0.0684419 -0.18093611 -0.28525433 0.124796875 -0.017034126 0.22103073 0.26213574 -0.32004884 0.21899812 -0.0050492063 0.17498066 -0.036974076 0.34111983 0.09878045 1.9297942e-05 0.1625711 -0.09829747 0.019282697 0.080535114 0.23649172 -0.12975803 0.08519179 0.15624847 -0.110708445 0.06362143 -0.14922485 -0.059240356 0.4775597 0.3335656 0.0650898 0.22589639 0.14535707 0.044373404 0.27302203 0.26670614 -0.12760602 0.034895465 -0.09219971 -0.062273815 0.16009179 -0.01407465 -0.19032668 0.059151847 -0.3553974 0.09641878 0.02024519 -0.078208126 0.04398365 0.15594077 -0.15097234 0.07451064 -0.060301334 0.018117573 -0.10872531 -0.21637659 -0.30004025
192 -0.08958258 -0.22446807 0.20813924 -0.37720194 0.11447979 -0.020232217 0.19492146 0.5466866 0.19369254 -0.34468234 0.40910456 -0.3852286 0.15481263 0.023892326 0.16764219 -0.13959469 0.15323754 0.030074103 0.029560601 -0.47509032 0.044918958 0.10204794 -0.3299334 0.08718037 -0.37764958 0.21979612 0.20245203 -0.31431028 -0.047452874 -0.5085131 0.3277927 -0.45029798 0.40604937 -0.1890005 -0.20623088 0.15235429 -0.016975848 0.040273692 -0.27964586 0.0054892963 0.07088503 -0.19619446 -0.5466505 0.073291056 0.089163296 0.017199395 -0.18726218 -0.04831936 -0.24405958 0.09150459 -0.11264555 0.07548216 0.07602826 -0.06175568 0.17369992 -0.15762216 0.12545973 -0.4084851 0.0007315177 -0.07624494 0.07906519 -0.23133335 -0.041995768 0.17066883 0.16535652 0.23922974 -0.018583072 -0.07611355 -0.18229419 0.07741396 -0.03616179 0.07981123 0.019057551 -0.11279435 -0.2747912 0.029862836 -0.02991327 0.2214148 0.20147207 -0.27675584 0.16091533 -0.0927919 0.20308053 -0.08801354 0.26545328 0.15190272 0.03231807 0.06488181 -0.23144004 0.008684007 0.08900844 0.34453344 -0.19165064 0.048556868 0.18676157 -0.09001205 0.03249702 -0.048288904 -0.011650392 0.4509 0.19159469 0.06117606 0.23149209 0.19361022 -0.055792443 0.2481251 0.29972512 -0.11879885 0.10847255 -0.098088816 0.0051422915 0.18127671 0.089600235 -0.16655438 0.098933965 -0.28793445 0.1816127 -0.003676722 0.035673607 0.056809008 0.21137223 -0.09224982 0.14053087 -0.11036484 0.042323656 -0.013804954 -0.28387403 -0.3820852
58 -0.48587415 -0.18878493 0.1286395 -0.040121935 -0.48700732 0.2620325 0.15153113 -0.07807132 0.13540755 0.14366347 0.13996051 0.33849773 0.021523472 -0.064045765 0.14257175 -0.4156789 -0.0075376146 -0.42850873 0.61093795 -0.17468049 -0.1599753 0.26710004 -0.3863802 -0.41205394 0.24608943 -0.24431826 -0.7816107 -0.21298517 -0.44389278 0.035859786 0.31754583 -0.26765642 0.46428186 0.34306428 -0.40309337 -0.22022657 -0.30975986 0.014322951 -0.19628736 0.7351662 0.06294623 -0.44397458 0.14571677 -0.3702663 -0.02583519 0.17061657 -0.14403781 -0.2724013 -0.33130765 0.21111834 -0.1891839 -0.16755748 0.6048379 -0.0487874 0.15469481 0.22684155 -0.06768056 0.48716426 -0.1529673 -0.22606556 -0.018142594 -0.06855065 0.16952367 0.31164604 0.4030043 -0.28327733 0.23073229 -0.23691991 0.20333077 -0.10499454 -0.12727602 -0.40348917 -0.12856695 0.23678331 0.2341199 0.21469614 -0.4636524 0.092802726 -0.20355956 -0.2298414 0.022898458 -0.3781541 -0.24125545 -0.17664409 0.12908517 0.43939498 -0.059632514 0.1375709 -0.062331114 0.026808586 0.02704905 0.07383214 -0.70390964 -0.13920403 -0.34916082 0.019126996 -0.20273948 -0.23736441 -0.030421695 0.12742014 0.32449803 -0.35925108 0.35208833 0.056142308 -0.34292898 0.108621776 0.22899066 0.26774246 -0.33712098 -0.27307442 -0.6854102 0.040520836 0.2831901 0.10142675 -0.3907091 -0.0106017385 0.27882585 -0.3520007 -0.37598604 0.03459816 0.44926575 0.07927852 -0.17576107 -0.26000136 -0.085547216 0.2034383 -0.14028375 0.33141065
69 0.5164614 0.14660944 0.1271381 0.26153275 -0.43761808 -0.21423332 0.15971482 0.10298321 -0.060196813 -0.19415735 0.4655125 -0.3991753 0.23439845 -0.29179937 -0.46555233 0.17619652 -0.020557066 0.39246207 0.22729205 -0.053116933 0.22098117 -0.13777013 -0.13387612 -0.024315685 -0.6060721 -0.06734106 -0.40956947 -0.18856525 0.028005132 -0.07468428 0.047326326 -0.1371637 0.13459656 0.20543124 -0.2670052 0.1004678 -0.266211 0.53528136 0.07014753 0.9791949 0.13176379 -0.49636889 -0.24630286 -0.77976733 -0.07142047 -0.21097535 -0.28213432 -0.321137 -0.17498034 -0.13308747 0.11980862 0.17039359 0.07821871 0.06577131 0.92503834 -0.08307508 0.2168876 0.050829448 -0.51137286 0.23832916 -0.038674727 -0.08313173 -0.009903112 0.28436744 0.19182171 0.07152964 0.029035503 -0.20942546 0.32155833 0.046525296 -0.3315725 -0.35828152 0.4301191 0.0470233 0.18723087 0.35075954 -0.12625864 0.4858772 -0.35559314 -0.16249855 0.5900012 0.20362109 0.10570508 -0.20555268 -0.18023044 0.14777234 -0.08814062 -0.032802124 0.3441507 -0.40838453 0.40838617 0.09895519 -0.41187978 0.22527981 -0.506297 0.17706326 0.14910081 -0.47980356 -0.15313077 0.30791017 -0.6098346 -0.03242874 -0.17000195 0.058774058 0.17694642 0.23054732 0.09075321 -0.13936055 0.18236265 0.22661646 -0.23636325 0.11243578 0.26029277 0.40092766 0.25494036 0.08720098 0.0293466 0.10330699 -0.25901905 -0.12408976 -0.087406434 -0.034332242 -0.1359717 0.34179437 -0.10319017 0.19335671 0.17004502 0.25571066
68 0.3921285 0.28138682 0.042443328 0.31124532 -0.38584167 -0.36451772 0.023412151 0.13125475 -0.036477625 -0.14827299 0.4170628 -0.4214498 0.37481534 -0.2903779 -0.41197184 0.1285241 -0.01126236 0.6187267 0.28458634 -0.0034296762 0.10089048 -0.14380962 -0.18532729 0.075883746 -0.5623143 -0.018972918 -0.4863804 -0.07155634 0.023460666 -0.078896366 0.0436259 -0.11500709 0.16319388 0.18027732 -0.41972548 -0.09027858 -0.12128117 0.533958 0.065188356 0.8518717 0.113060676 -0.47130442 -0.06176907 -0.70624065 -0.15169843 -0.17748226 -0.32032263 -0.23429902 -0.22894385 -0.051446855 0.20267117 -0.023029175 0.38961408 0.20933768 0.93423665 -0.0997127 0.07531112 -0.008968113 -0.3025691 0.1879358 0.012048789 -0.0934965 0.049854226 0.21783458 0.1627633 0.056230124 -0.0044756606 -0.23513353 0.30510387 -0.06323691 -0.35228294 -0.31685278 0.51748526 0.19272311 0.09132804 0.2218056 -0.11372244 0.43778715 -0.37696135 -0.1777555 0.63864106 0.14286074 0.12262393 -0.16986229 -0.111277305 0.0049186875 -0.104868375 -0.025844896 0.47593614 -0.2684121 0.4711214 0.18688117 -0.411021 0.19139303 -0.5818428 0.21192516 0.1953108 -0.5025193 -0.08479194 0.26763964 -0.82099116 -0.060770243 -0.1250574 0.017783593 0.16115282 0.23087403 0.14703336 -0.23018628 0.004602088 0.20214261 -0.2719246 0.16350739 0.28419852 0.35657454 0.29368654 -0.003116998 0.10168908 0.066990994 -0.36744657 -0.23315668 -0.058203153 -0.18236911 0.016008588 0.37950715 -0.15205328 0.29843497 0.23568228 0.23850347
221 -0.14756802 -0.06160866 0.12752052 -0.115605354 -0.13417295 -0.10857218 0.6872356 0.38728535 -0.3436834 -0.5687291 0.4027918 -0.6497432 0.024586374 0.1707739 -0.22892006 -0.20927213 -0.14118932 0.03194901 -0.17946291 0.44002005 0.1427778 0.13982522 -0.17366727 0.030100638 -0.14423518 0.28386188 0.21767867 0.22718583 0.29182053 -0.02341858 -0.50345767 0.39043498 -0.08814213 -0.084625185 -0.3308329 0.4001474 0.0033966822 0.039296538 -0.05533262 0.45502353 0.15336856 -0.45136887 -0.34801355 -0.38187954 0.1360844 0.17173325 -0.16052572 -0.27716923 -0.28114355 -0.027890993 0.041704487 0.18822978 0.2861006 0.26083922 0.5503849 -0.05506436 0.17664202 -0.120058894 -0.2971811 -0.035906978 0.19828424 0.057935312 -0.24515949 -0.08584305 0.33239153 -0.060641494 0.04604482 -0.34898576 -0.17017086 0.0488642 -0.16093466 -0.29145765 0.24170399 0.44164336 0.1998213 0.014924137 0.19721438 0.1431522 0.13052596 -0.605501 0.41891217 0.04052512 0.54972684 0.294965 0.07775395 0.20200199 -0.053552236 0.0017904055 -0.133912 0.11173973 0.36061478 0.5960941 0.16732174 0.1697921 -0.04293163 -0.4557326 -0.22750281 -0.48857233 0.029594943 0.26522112 0.14560923 0.4741541 -0.048785932 0.14361157 -0.14356796 0.12305792 0.48256144 -0.07949724 0.04336189 -0.00611116 -0.27686676 0.29041073 0.2840602 0.33681253 0.28293204 -0.3765715 0.2461358 -0.27878952 -0.29779637 0.10202525 0.376487 -0.28581536 0.6311541 -0.17295703 -0.2845124 0.22549583 -0.27843988 -0.16764131
131 0.38621145 -0.38649812 -0.035336055 0.08315081 -0.6739814 -0.36740994 -0.47393242 0.1710011 -0.49117628 0.15151452 0.36530513 -0.29070503 0.42121458 -0.15285401 0.12136315 -0.17366508 -0.13921733 0.544928 0.07529077 0.11590264 0.35357043 0.24011011 -0.13022237 0.15209459 -0.66010237 -0.0048140753 -0.012159876 -0.21942002 0.26818144 -0.23046891 0.32930273 0.1863263 0.18451478 0.42198664 -0.38489065 0.55150527 -0.34783244 0.57742876 -0.06769303 0.46752065 0.032986883 -0.5246858 -0.06051011 -0.6397462 -0.01804096 -0.23578517 -0.5066982 -0.106742024 -0.10400944 0.033359475 -0.15583642 0.34609377 0.20209394 0.71421105 0.9502529 -0.14777549 0.3271145 0.041681066 -0.48669434 0.028269488 -0.0520331 0.13755164 0.04397288 0.36525786 -0.0736678 0.06553729 0.0492156 -0.06341551 0.48786545 -0.21396619 -0.38226813 -0.6067574 0.5257983 0.02033258 0.39257017 0.5732424 -0.12654719 0.3003101 -0.57246774 -0.2705932 0.65926915 0.32132313 -0.03795304 -0.14891179 0.057912286 0.25458938 -0.05158963 -0.19531327 0.13923348 -0.19941284 0.6447309 -0.036944006 -0.2925052 0.13644835 -0.6713056 0.22588551 0.018225808 -0.36954418 0.208515 0.39426517 -0.8378163 -0.010170506 -0.4567369 -0.19867903 0.24142736 0.30293143 0.17638823 0.19859746 0.48053986 0.43394586 -0.23632771 0.2966194 0.3249425 0.4429295 0.4685748 -0.27250192 0.30603242 0.056696452 -0.030155921 -0.26525664 0.08558126 0.18264106 0.064198405 0.17658798 0.042143714 0.2299478 -0.10343494 0.28281114
142 0.36330232 0.13219638 0.29545045 0.42574883 -0.42454678 -0.35049763 -0.088209264 0.15436494 -0.12628418 -0.071209766 0.45566377 -0.49973106 0.44581276 -0.48268026 -0.11927352 0.11925391 -0.29088944 0.5925314 -0.022769414 0.084226295 0.2758481 0.118324466 -0.06611764 0.01989984 -0.5233424 0.043958735 -0.28709522 -0.14238279 -0.031485748 -0.15527707 0.25242227 -0.15368202 0.14703688 0.39802584 -0.43163702 0.21115378 -0.15361242 0.42795438 0.17640728 0.6166276 0.10775751 -0.50550485 -0.018746376 -0.582536 -0.1157285 -0.42734864 -0.38626474 -0.2115947 -0.08106564 -0.08424675 0.0945214 0.033163007 0.2729255 0.34380743 0.79611146 -0.113919005 0.026360564 0.31451806 -0.35554203 0.1739404 0.072125696 -0.0031192221 0.12296201 0.25496104 0.06855821 -0.00018256484 -0.009640168 -0.097038366 0.30072188 -0.122815505 -0.129009 -0.3228932 0.6954499 0.19295582 0.13596594 0.4005017 0.119946495 0.23637596 -0.31321895 -0.14891087 0.6027077 0.24610306 0.12192067 -0.15955077 -0.13698347 -0.026177797 0.025013806 0.072718814 0.4919236 -0.33385685 0.4714087 0.040027387 -0.40794957 0.21866295 -0.5377427 0.2902808 0.11720123 -0.41641673 -0.053834286 0.39279866 -0.7911023 0.019918501 -0.19711594 -0.2752124 0.18648246 0.1503704 0.296807 -0.14344767 0.08094218 0.090115674 -0.011342113 0.31578985 0.19959883 0.5116153 0.28504047 -0.23286061 0.14975145 -0.0963565 -0.20679459 -0.2792846 -0.055571515 -0.14339408 0.10677569 0.30700505 -0.00358716 0.27312484 0.15499179 0.078785285
194 -0.059407726 0.5243558 -0.18694614 -0.7617207 0.047475625 0.39211997 0.21944627 0.31113374 0.51481235 -0.370526 0.785083 -0.13919437 -0.18575323 0.098646775 0.015864115 -0.46507722 0.019776547 0.5985094 0.41310468 -0.1426861 0.19202052 0.6306115 -0.14334543 0.2400974 -0.44883573 0.56760335 -0.05338363 -0.4508693 0.07949215 -0.14665917 0.8897405 0.09711163 -0.23651275 -0.036201816 -0.17460401 0.12722614 -0.1939312 -0.23218505 0.13949293 0.38530004 0.3758348 -0.2542101 -0.078787975 -0.59200346 -0.14045879 0.14175664 -0.39181265 0.20004785 -0.036140215 0.20761076 0.06201726 -0.27712706 -0.13077006 0.43782446 0.29994622 -0.37373132 0.23953936 -0.13235407 -0.36127484 -0.07043128 -0.44119912 0.18013695 -0.032499462 0.485293 0.0044020945 -0.16578186 -0.7022336 -0.7376322 0.23851077 -0.03371068 0.31032756 -0.067455396 0.3413806 0.15436593 0.3562019 -0.071628414 0.09804075 -0.24905351 -0.028076243 0.008841001 -0.1575909 0.057599623 -0.029358193 0.10999726 0.2711178 -0.31865975 0.33116564 -0.044169262 0.596153 -0.37229556 0.21319903 -0.17276722 -0.17292942 -0.1710867 -0.53509456 -0.36176702 0.111205585 0.046239294 -0.5510617 0.33145046 -0.18455844 0.4453517 -0.27605 -0.049383655 0.23067898 0.09722858 0.55959505 -0.19589047 -0.0239592 -0.37828186 -0.15051001 0.1987183 -0.28845784 0.059774015 0.011286826 0.0061334763 -0.29207763 -0.4360591 -0.26817635 -0.44034734 0.04946168 -0.2065096 0.22337909 0.15314144 -0.01824118 -0.3053449 0.3009602 0.19779925
141 0.49281365 0.1053314 0.22250055 0.30528653 -0.43913534 -0.26171485 -0.12533574 0.1937696 -0.1483205 -0.10548841 0.41139433 -0.5999801 0.33201918 -0.36615527 -0.29588383 0.0672007 -0.37973106 0.6361556 -0.17212474 0.024353921 0.39274964 0.15357858 -0.029058862 0.112762935 -0.6259282 -0.1018758 -0.4070601 -0.092280485 -0.035309922 -0.25250617 0.35074797 -0.12847874 0.07787091 0.3951831 -0.49977455 0.13630612 -0.18842943 0.38265547 0.18044029 0.63843274 0.033523183 -0.5509774 -0.026950715 -0.6544628 -0.15279171 -0.29623333 -0.3180563 -0.22582117 -0.14920564 0.03746892 0.10313423 0.10113839 0.24770045 0.2957659 0.78409106 -0.06774064 -0.011509396 0.21264413 -0.3469681 0.24412972 -0.007072141 -0.1298029 0.09995939 0.32225034 0.011278381 -0.04358947 0.060111437 -0.1087272 0.13594314 -0.264466 -0.20217085 -0.40521452 0.7057806 0.17180172 0.25036186 0.4565288 -0.015411175 0.28627956 -0.36705935 -0.14499511 0.50915605 0.25292328 0.05604342 -0.13217734 -0.17688489 0.016009632 -0.083739564 0.008851702 0.44574192 -0.40098608 0.43182245 0.043617006 -0.33597693 0.116302975 -0.59047097 0.28495476 0.028704656 -0.48746815 -0.07796997 0.406568 -0.77302504 -0.012321051 -0.2565046 -0.30200365 0.109449334 0.09102654 0.25693625 -0.07708557 0.241746 0.035615973 0.01681324 0.27422035 0.1865285 0.6252097 0.32374144 -0.31891036 0.16912699 0.0427438 -0.17284414 -0.22215119 -0.04534033 -0.16824076 -0.07373245 0.21416862 -0.027977252 0.23053505 0.1250692 0.022579247
213 -0.20176917 0.5341028 -0.21482366 -0.7685382 -0.019361332 0.44552022 0.23456854 0.37963203 0.61878717 -0.38637665 0.82707137 0.01837207 -0.087313354 0.045227077 0.051267173 -0.48614928 0.029415037 0.6118088 0.51376855 -0.17410043 0.21513282 0.56404036 -0.1594943 0.30486974 -0.4409141 0.47712934 0.017797148 -0.49510887 0.05688855 -0.17660737 0.95090574 -0.038813356 -0.2862561 -0.11910059 -0.14528142 0.1358335 -0.21979289 -0.19509266 0.02984784 0.409073 0.4320553 -0.40811083 -0.09736634 -0.6141248 -0.12040053 0.06413974 -0.40839526 0.21465984 -0.057119403 0.12586546 0.033500392 -0.23955517 -0.19023004 0.33418998 0.44134697 -0.38680565 0.2054147 -0.13362318 -0.34419748 0.027956823 -0.53452 0.17814897 -0.053386576 0.520338 0.069884054 -0.11329212 -0.81773466 -0.70353115 0.22859378 0.0559722 0.31145027 -0.037368547 0.3808813 0.12530506 0.35163826 -0.11880644 0.123075634 -0.25545788 -0.027040362 -0.0068642693 -0.066042 0.0011216674 -0.060655758 0.10084123 0.31559473 -0.31937385 0.3541697 -0.051672634 0.48518917 -0.39572316 0.15407504 -0.09338933 -0.22789545 -0.24167769 -0.5646179 -0.29718286 0.27734923 0.122379385 -0.52909243 0.29419437 -0.1375612 0.4654175 -0.32278314 0.010304489 0.22042584 0.20759498 0.5746809 -0.227823 -0.11676124 -0.3815902 -0.11492248 0.19903354 -0.24023773 0.02144204 -0.026731832 0.035834465 -0.34912547 -0.46805686 -0.2792203 -0.44082862 -0.016463313 -0.21455188 0.28668633 0.06991318 -0.10957576 -0.3571483 0.18744966 0.2539571
132 0.22687477 -0.2569332 0.06327137 0.03701232 -0.63121545 -0.46652922 -0.36669245 0.12576695 -0.28601387 0.18511072 0.42870083 -0.24413463 0.42543823 0.033749465 0.18954468 -0.08936745 -0.001234267 0.55803335 0.263696 0.10098254 0.2803779 0.2342464 -0.40118492 0.12211345 -0.8188417 0.17333856 0.011240063 -0.19314632 0.26095822 -0.25192487 0.32650778 0.029267201 0.05867036 0.36196733 -0.36185005 0.6618542 -0.17685232 0.6165998 -0.025737558 0.43004906 0.014486633 -0.6051059 -0.16680834 -0.6241177 0.05444666 -0.18913276 -0.39676493 -0.03183426 -0.13140862 -0.01633673 -0.24222866 0.34210053 0.12957199 0.68925816 0.92138666 -0.119516805 0.26518065 -0.028409382 -0.6382238 0.029391054 0.0074247443 0.27821964 0.06166608 0.34968612 0.0030547595 0.14052042 -0.1109451 -0.033489842 0.42195737 -0.12156387 -0.37523964 -0.69508815 0.49097806 0.11556182 0.4249877 0.48565325 0.029494788 0.23614989 -0.57466304 -0.15290396 0.54438615 0.22024615 0.036880016 -0.25005603 -0.019943068 0.287448 -0.030871479 -0.18807913 0.17247964 -0.26132825 0.6028638 -0.005427344 -0.42198515 0.18248412 -0.69261354 0.33066761 0.07853429 -0.40502465 0.07893387 0.25871488 -0.91377497 -0.10274938 -0.49198335 -0.11531166 0.23043498 0.40695086 0.177413 0.1035549 0.40678537 0.41840577 -0.23112702 0.2819043 0.44263235 0.37640125 0.47319412 -0.19093633 0.4337097 0.07111459 -0.029908542 -0.2701645 -0.047364134 0.20008923 0.26143757 0.2433048 -0.006172169 0.18795644 -0.08298894 0.26087916
220 -0.13311072 0.021452954 0.13942987 -0.09995807 -0.08143649 -0.19425021 0.70573443 0.25173473 -0.21607485 -0.6949641 0.31800735 -0.7780071 -0.03388105 0.15744658 -0.26065105 -0.122086585 0.053912394 -0.031264484 -0.12805699 0.45590812 0.09756166 -0.0025690594 -0.20273726 0.089773856 -0.19263928 0.32535803 0.19209543 0.15996635 0.24735728 -0.07414329 -0.40833068 0.3347694 -0.23990385 -0.03008102 -0.26450256 0.41294467 -0.09146861 0.044244494 -0.01901247 0.56364995 0.16172977 -0.5383243 -0.33241692 -0.40062526 0.17969035 0.17364322 -0.21065202 -0.24814758 -0.11610083 -0.1431846 0.005392914 0.17436399 0.24276587 0.14947541 0.50356156 -0.015427917 0.24107051 -0.17059004 -0.22869538 0.042530343 0.28183597 0.06979563 -0.2171215 -0.017550096 0.44068277 -0.1340032 -0.08152363 -0.3572939 -0.06589371 0.10395026 -0.17403717 -0.36911646 0.22159885 0.4671142 0.19390948 -0.017940521 0.18221962 0.1600646 0.26417053 -0.5358863 0.4271855 0.010904715 0.4738508 0.33181375 0.11797411 0.284076 -0.061296396 0.037625954 -0.22570983 0.027867934 0.35314208 0.60373014 0.034856264 0.10195725 -0.06763886 -0.4116971 -0.29049402 -0.474228 0.075403355 0.10268931 0.11299925 0.49382624 -0.023178698 0.11073402 -0.23069243 0.21109611 0.53779763 0.0035051692 -0.047397897 0.049560357 -0.3112707 0.29556084 0.3331876 0.34457135 0.26494858 -0.29468632 0.20006761 -0.23762092 -0.23892091 0.11024756 0.33528915 -0.25886917 0.61900616 -0.081065044 -0.29259193 0.14788423 -0.21160294 -0.13158646
41 0.16434963 -0.054284103 0.2079929 -0.3177061 -0.29049784 0.13850108 -0.21218738 -0.32278663 0.5148474 -0.5837061 0.15549988 -0.1246064 0.22542809 -0.31570902 0.44592723 0.12027552 -0.12794673 0.03723922 0.3334401 -0.2335745 0.43467194 0.15574616 -0.71185803 -0.11122909 0.1145453 -0.5275159 -0.58492506 0.19998044 0.06079864 -0.4548282 0.12231681 0.27479488 0.36607254 0.50932413 -0.5395149 -0.03947025 -0.19106847 -0.30869 -0.42025647 0.23181982 -0.22684576 -0.6738646 -0.6088648 -0.004156749 -0.11592529 0.37729692 0.018218383 -0.21105386 -0.22214787 0.41748518 0.2912553 -0.4033457 0.7707956 0.21116227 -0.034447793 0.14523631 0.26036415 -0.05048195 -0.3762449 -0.5026352 0.24727821 0.43231127 0.4603598 0.0813273 0.7747589 -0.0028422817 0.016013311 -0.32724148 -0.04577121 -0.19179803 0.10505438 -0.5119779 -0.19968338 0.35046136 0.19203794 0.3035495 0.29911754 0.085049264 -0.25720423 0.696151 -0.40031844 -0.1262679 0.0017784267 -0.23011328 -0.20820007 -0.38442954 0.08570663 0.23219182 -0.1790935 -0.10480728 0.18997918 0.09594855 -0.30495763 0.035455897 -0.4360828 -0.26776353 -0.21710646 -0.00075595186 -0.09171907 0.18201408 -0.024859373 -0.03768098 0.19401665 -0.2810719 -0.4799065 -0.038257264 -0.19754323 0.31449923 -0.3146619 0.397969 -0.040890925 0.16555059 0.60938853 0.15528806 -0.5939201 0.007585808 0.19933684 0.12462438 -0.26946196 0.31615758 -0.19966666 -0.11122507 0.00795369 -0.49195066 -0.10451572 -0.086061634 0.089837074 0.09999612
43 -0.22375622 -0.104495935 -0.020820493 -0.23245908 -0.30681 -0.007884556 -0.14846393 -0.07849283 0.7684895 -0.5623353 -0.010939263 -0.16455875 0.19504786 -0.26991528 0.06953731 0.16614386 -0.013048215 0.53665864 0.39995846 -0.03293527 0.4567382 0.28091902 -0.764392 0.049324956 -0.1662655 -0.23473607 -0.5022695 0.054190733 -0.114285044 -0.5019587 0.2805563 0.17501037 0.013747223 0.2541227 -0.46721804 0.16197053 -0.2721322 0.025970966 -0.31064627 0.112641536 -0.2463008 -0.5340697 -0.7033097 -0.10508306 -0.117044084 0.19658038 -0.066726446 0.004929932 -0.21212944 0.28085163 0.53787696 -0.40560126 0.8488473 0.0051271515 0.11132266 0.33688378 0.25914645 0.21777613 -0.16304685 -0.3496963 0.039387893 0.31858957 0.07527482 0.0079730805 0.6158594 0.02414361 -0.010888965 -0.20001048 -0.15623815 -0.31389096 0.11074044 -0.33585125 -0.027113324 0.40326357 0.27664796 0.21450272 0.2772802 -0.06611062 -0.40448102 0.5369365 -0.38986564 -0.16727224 0.20852311 -0.2974398 0.0074583925 -0.5655919 0.3306926 0.32101107 -0.3460871 -0.04278959 0.14217806 0.14178471 -0.12930538 0.2325379 -0.5456508 -0.014292417 -0.3135051 0.35893995 -0.03858397 0.11277524 0.1937712 0.19314808 0.34991243 -0.007949404 -0.33498353 -0.073964834 -0.24221978 0.15685451 -0.2630009 0.24731159 0.10530982 0.13788374 0.62382877 0.004265268 -0.36688894 -0.06214323 -0.16050656 -0.007506355 -0.27562296 0.24650325 0.12559092 -0.1272309 -0.06176684 -0.56167305 -0.11168437 -0.049579557 0.24623236 0.20498192
134 -0.003134154 -0.29001802 0.07058346 -0.442553 0.03855368 -0.16923265 0.19634965 -0.49278286 0.0029268207 -0.15764281 0.2760522 -0.3796492 -0.11269181 0.005790166 -0.1731768 -0.015234942 0.57093996 0.26500598 -0.046162896 -0.0045756157 0.2616707 0.2269488 -0.37524304 -0.21192902 -0.31678647 0.12106042 0.0010311488 -0.19298947 -0.351878 -0.13579898 0.17594694 0.2502457 0.32313386 0.09359037 -0.13589522 0.0014305003 -0.031778302 -0.3506063 -0.41078502 -0.036233123 0.09620858 -0.018059848 -0.43186662 0.22443461 -0.0836431 -0.5046839 -0.47922626 0.5245111 -0.41202694 0.25505167 -0.06043559 0.34659976 0.2594208 0.55720246 0.21793507 -0.6396985 0.62362343 0.05132846 -0.09883276 0.15725581 0.31282797 0.25822788 0.042598747 0.0033598293 0.25194207 0.08248207 -0.34479153 -0.2658468 -0.101404905 -0.045147114 0.3567918 -0.014151412 0.30560425 0.14968927 -0.2635904 0.024810502 -0.087902516 0.26694897 -0.08391394 -0.30889377 -0.12465596 0.06655941 0.3307063 0.42436343 0.3690465 -0.42590797 0.5053946 0.11285035 -0.13893487 0.33359316 -0.20892377 -0.044779092 0.011698049 -0.19460276 0.23626181 -0.3783078 -0.17626262 -0.11755179 0.08994201 0.32821643 0.017766565 0.06751341 0.35291627 -0.2372198 0.24574628 -0.062581 0.2614721 -0.0834526 -0.009884529 -0.35121223 0.052987035 0.10336504 0.061543647 0.18365583 0.1307814 -0.37982872 0.23932934 -0.59755695 -0.21620569 0.016835915 0.06880532 -0.2358796 0.049578592 -0.7211187 0.13620578 -0.26697746 -0.19606647 0.12583387
137 -0.047183 -0.33884087 -0.043602485 -0.24713202 0.03813888 -0.30139622 0.22802657 -0.5493509 0.056855667 0.15523952 0.34267908 -0.4324511 -0.027698476 -0.106681176 -0.14657496 -0.08615726 0.6052239 0.31030238 -0.036719557 0.106255285 0.29047537 0.15282845 -0.25241166 -0.16984652 -0.28112283 0.0047459346 0.1179131 -0.16249286 -0.315861 -0.11727175 0.16534694 0.24176252 0.3147248 -0.0061300327 -0.2705505 -0.09284858 0.035975046 -0.2696861 -0.3159175 -0.0099928295 0.14426857 -0.03627719 -0.517599 0.30828255 -0.06279804 -0.4897032 -0.5096659 0.5102114 -0.51676023 0.2722503 0.109978355 0.25971022 0.17478535 0.51753235 0.2389529 -0.581164 0.6064012 0.04757364 -0.031866282 0.08340183 0.36012673 0.2601641 0.02132881 -0.069805026 0.18128206 0.13349 -0.3447418 -0.393098 -0.18181907 -0.032210466 0.31823123 -0.030499142 0.24471974 0.04864251 -0.24517937 0.056815594 -0.021244038 0.2795757 0.030818863 -0.3603841 -0.07901276 0.05998331 0.35058734 0.37113538 0.3664177 -0.27109608 0.44624525 0.06552427 -0.099973224 0.4487114 -0.21747698 -0.12938952 -0.039109033 -0.23992027 0.23980446 -0.31107697 -0.20246987 -0.29742143 0.084490776 0.28895372 -0.0010446786 0.0016858944 0.28447428 -0.12073426 0.19150242 -0.24393904 0.14952473 -0.11741477 0.0028251726 -0.15477929 0.08006806 0.16791323 0.013929805 0.1559541 0.18987487 -0.5040809 0.29087895 -0.5390486 -0.31615442 -0.10397838 0.2962449 -0.14930506 -0.012745462 -0.6433561 0.23163624 -0.2747202 -0.08045932 0.030723924
135 -0.037309546 -0.33853376 0.05013983 -0.3521498 -0.10132483 -0.20420974 0.24626656 -0.30117342 -0.03920901 0.10389185 0.2658004 -0.2750751 0.056565247 -0.02132992 0.04997481 -0.09434552 0.6243629 0.25572234 -0.08117375 0.04781776 0.20941325 0.102959014 -0.28681275 -0.14175849 -0.08766273 -0.012719487 0.023517182 -0.1397187 -0.427611 -0.12842973 0.2254849 0.19807543 0.31143704 0.22456229 -0.2648753 -0.07530622 -0.08250851 -0.1613351 -0.27202496 -0.20293352 0.060438767 -0.12964834 -0.4101512 0.21077861 -0.0067501664 -0.42117536 -0.3604021 0.3122495 -0.39410472 0.24962443 0.11631669 0.3116197 0.16259357 0.5141084 0.16348019 -0.56698924 0.5094686 0.031759582 -0.05110365 0.20727398 0.41697317 0.299966 0.06435045 -0.02670126 0.20404898 0.03544922 -0.34692183 -0.3888495 -0.19861281 -0.049983345 0.29895762 -0.09612447 0.3042397 0.060657598 -0.21770358 -0.0054922197 -0.12274872 0.3078365 -0.08938432 -0.38808918 -0.11055827 0.049788497 0.17714739 0.36396137 0.27969286 -0.39440468 0.49748954 0.06725793 -0.073077306 0.35577682 -0.24293005 -0.16002537 -0.011476944 -0.29227257 0.025802564 -0.2604521 -0.17978533 -0.098882645 0.16932753 0.43910444 -0.22128443 -0.016418623 0.34879816 -0.23754641 0.21894181 -0.2531212 0.16210838 0.012581326 0.02252217 -0.30890167 0.105649464 0.24787487 -0.06957145 0.21060553 0.1756376 -0.38116646 0.27324975 -0.46173492 -0.26891914 -0.0157363 0.09505623 -0.04336987 0.0917674 -0.71575904 0.12233825 -0.28679225 -0.18246385 0.19286312
136 0.047034483 -0.312921 0.12321676 -0.32276568 -0.0016175979 -0.3014831 0.23765804 -0.52509546 0.04574869 0.060732234 0.3348451 -0.43013415 -0.023815423 -0.23026839 -0.083926715 0.089642435 0.64210284 0.32417372 0.004165982 -0.05984025 0.18529178 0.1359367 -0.29218566 -0.0735226 -0.14538275 0.024534516 0.12592399 -0.38085884 -0.38765687 -0.2394045 0.21748443 0.34618014 0.19025302 -0.04816831 -0.24573517 -0.19542138 0.185341 -0.22614157 -0.24472852 -0.026410827 0.11217837 -0.16888241 -0.61551726 0.23204112 -0.107684 -0.44742724 -0.27536628 0.49260315 -0.36637658 0.3032243 0.3049582 0.3223768 0.14656632 0.55936587 0.30347648 -0.7273205 0.4901832 0.009331758 0.02088994 0.19477408 0.5191818 0.26329213 -0.045240603 -0.15591271 0.21640219 -0.05403496 -0.25048944 -0.37267143 0.029462446 -0.15913309 0.2805024 -0.117005855 0.19787233 0.106490314 -0.25052834 -0.045927208 -0.028891727 0.23597567 -0.0169901 -0.49173796 -0.12904648 0.0010297772 0.2875052 0.43361202 0.4194209 -0.23268986 0.43740386 0.032450587 -0.1041705 0.29692736 -0.17790698 -0.03483468 -0.09363614 -0.17784654 0.22882894 -0.12877385 -0.18217929 -0.12608731 0.066834524 0.260152 -0.040471263 -0.071606226 0.42101192 -0.16047782 0.1690031 -0.08992649 0.3083013 -0.13883573 -0.0179662 -0.2688831 -0.059774492 0.20107849 0.06804493 0.2304174 0.1780787 -0.3066326 0.2510614 -0.4052143 -0.23239863 -0.027289474 0.23801272 -0.004082467 0.015903499 -0.66317195 0.15593486 -0.23250158 -0.025438586 0.035080045
21 0.13768184 0.12872823 0.21377409 -0.26593307 -0.2925803 0.0675115 -0.16668099 -0.18551758 0.462298 -0.6453199 0.24442059 -0.17957166 0.15997963 -0.28237155 0.42691743 0.072426796 -0.21142781 -0.052907042 0.38024786 -0.32016528 0.40917054 0.15890679 -0.7347126 -0.11753111 0.096601576 -0.4811569 -0.5446193 0.09881823 0.04034515 -0.4652791 0.09172193 0.26958433 0.39573094 0.50483996 -0.62373465 -0.14839078 -0.1291095 -0.25265655 -0.3852441 0.2668913 -0.15114051 -0.6897848 -0.6058289 -0.024218125 -0.1610263 0.24669132 0.11850695 -0.21099986 -0.16420986 0.51626897 0.39590415 -0.28402573 0.7358184 0.22681963 0.028858174 0.1950049 0.19850114 -0.10854489 -0.39181027 -0.5223694 0.3813318 0.3814174 0.48545626 0.029523768 0.8242281 -0.042271335 0.14556825 -0.38673124 -0.12841903 -0.35981944 0.045547523 -0.61143917 -0.34754354 0.32177413 0.102461815 0.33241326 0.28515404 0.1235583 -0.2932896 0.67179096 -0.44585884 -0.090260066 0.025959276 -0.22072838 -0.22920431 -0.30944926 -0.08181173 0.1956129 -0.14840195 -0.13470462 0.25189096 0.12321235 -0.25901246 0.10559286 -0.3762314 -0.29638442 -0.3337604 0.012854501 -0.14532949 0.16256672 -0.004947025 -0.03594956 0.19290736 -0.25650012 -0.53983456 -0.066828765 -0.26550752 0.28956154 -0.26241037 0.38165003 -0.059255052 0.25586176 0.5657998 0.19994268 -0.5207441 0.04295586 0.32589123 0.19248262 -0.24336495 0.39074272 -0.19051853 -0.16188936 0.050137576 -0.51068115 -0.109508224 -0.10162332 0.017485699 -0.019615078
171 0.061092235 -0.03104948 -0.21579824 0.51547617 -0.39521015 0.0742609 -0.46373263 -0.44666296 0.3302845 -0.65549064 0.052843478 0.31365913 0.09404587 -0.44961962 0.6916781 0.19403921 -0.31182897 0.45512488 0.18783642 -0.23730907 0.57162446 0.16437681 -0.14182125 -0.23483182 0.007465778 -0.110064514 -0.43005112 -0.39681077 0.059787966 -0.14744934 0.2758686 0.4567522 -0.027335817 0.39222708 -0.076415025 0.37849468 -0.062878296 -0.06482365 -0.21937585 -0.30323884 -0.23260164 -0.19789757 0.081307404 0.30310723 0.2094747 -0.03929899 -0.41855398 0.033517297 -0.20819688 0.32859126 -0.273864 -0.20985337 0.31155574 0.22412041 0.46661443 0.07097655 0.35291052 0.29720023 -0.10774302 -0.21490139 0.34374893 -0.012678008 0.123343125 0.06373675 0.13573289 -0.500317 -0.020443486 -0.15571706 0.38895267 0.16959566 0.112433426 0.04092355 -0.12317793 0.54266644 0.094679594 0.5294869 -0.14472522 0.21917556 -0.0014609223 -0.39127898 -0.1002091 -0.077173255 0.11656231 0.28330925 0.27884737 -0.17850555 0.18505377 0.41684142 -0.28483114 0.026212472 0.23665848 -0.0016336519 0.052432295 -0.64371556 -0.34225556 -0.18744156 -0.13437131 -0.0029166928 -0.5479713 0.81349975 -0.059272178 -0.042353246 0.70620435 -0.22580338 -0.5395712 -0.39584246 0.008524594 0.011419863 0.39715037 0.23007327 0.070293516 -0.06475902 -0.40177673 0.5646798 -0.13202742 -0.20685418 0.03201314 0.018966101 -0.48311406 -0.45938122 0.37639415 -0.29665604 -0.04847462 -0.2307628 -0.15351321 0.10913609 -0.29450744 0.27482685
109 -0.4032313 -0.20939866 -0.1341427 0.07818158 -0.39783314 -0.51054996 -0.11816853 -0.084837034 0.26737928 0.27497643 0.18738464 0.18105969 0.054081425 -0.00790217 0.09224686 -0.0078787 0.029553685 -0.1703519 0.4815987 0.3754531 0.11348503 0.2515099 -0.109475195 -0.18811221 0.21088718 -0.29127467 -0.4510219 -0.5370763 -0.534943 -0.003689237 0.6572892 0.2835605 0.1294278 0.009541025 -0.25278723 -0.36078113 -0.1170627 0.042847462 -0.16113879 0.57601583 0.0772682 -0.5437232 0.066388644 -0.47915348 -0.092505224 -0.30976868 0.13989274 0.15018134 0.0014037542 0.34844118 -0.17402394 -0.36964694 0.6592949 -0.28620258 0.33695906 0.28013292 -0.0074666496 0.32695657 -0.15357462 -0.30627578 0.078488454 0.06809889 0.45466846 -0.07139951 0.2595759 -0.008392792 0.46611455 -0.40244073 0.26221338 -0.18876515 -0.29305243 0.041605134 -0.24145155 0.49257872 0.2066927 0.23010689 -0.3145158 -0.31109834 -0.08157903 -0.18804461 -0.041225534 -0.42517614 0.054522827 0.14540537 0.42761195 0.30855882 0.046685543 0.11930868 -0.1782928 -0.17535846 0.022942629 0.090804674 -0.56133336 0.048216917 -0.19436209 -0.15067248 -0.05783148 0.12482217 -0.12047334 0.37005588 0.5194669 -0.15716687 0.091600075 0.46530458 -0.23588161 -0.028016916 0.22471832 -0.04554856 0.061942995 -0.04288032 -0.61697507 0.12360029 0.25918898 0.121504545 -0.26846385 0.24765854 0.37752736 -0.37060815 -0.18439567 -0.27361378 0.7460704 0.30711532 -0.30661747 -0.2522661 -0.16600016 0.013737433 -0.15470566 0.41095474
170 0.14696486 -0.09376139 -0.22187646 0.400781 -0.38906956 0.1525536 -0.3943929 -0.49450997 0.48245454 -0.6191922 0.13774174 0.27536705 0.1865081 -0.4062828 0.63179517 0.18263158 -0.20200828 0.3956063 0.23272377 -0.1439492 0.5000998 0.28044388 -0.2276974 -0.22939819 -0.048076477 -0.10701233 -0.5045386 -0.3367233 0.14577226 -0.15115215 0.17094968 0.57657063 -0.047723327 0.37861353 -0.1647231 0.28121352 -0.039938767 -0.07564381 -0.33586568 -0.2742329 -0.29994392 -0.16755788 0.0710996 0.2580621 0.18214875 -0.048533548 -0.38230452 0.05614031 -0.20899971 0.32107702 -0.31628993 -0.22535153 0.32187727 0.12791438 0.51179576 0.15822959 0.47128138 0.29928923 -0.16334519 -0.26495156 0.34850064 -0.07668023 0.13024096 0.075111054 0.24873368 -0.38091278 -0.12852918 -0.019996695 0.44016692 0.1656232 0.014584324 -0.072451025 -0.22484453 0.5011293 0.039603204 0.590338 -0.28025487 0.22679621 -0.08320227 -0.32664603 -0.08654956 -0.13810612 0.084062204 0.27227867 0.2978793 -0.104387574 0.22531144 0.29699793 -0.3481353 -0.07665909 0.29924646 -0.045242995 0.027101412 -0.57341295 -0.33659804 -0.20483744 -0.178056 -0.0515443 -0.5605145 0.7334286 0.016930541 -0.12849851 0.7389032 -0.22375102 -0.493081 -0.36103407 -0.045964543 -0.06983184 0.30469537 0.33845612 0.06801853 -0.14782876 -0.36457452 0.5272758 -0.1813586 -0.18077794 0.04405007 0.0012414309 -0.5222599 -0.4007511 0.349426 -0.25473186 -0.041442145 -0.33469608 -0.22405508 0.1357905 -0.21754518 0.2461169
188 0.03927537 -0.10414767 0.12621771 -0.29847953 -0.32043028 -0.47761723 0.053150743 -0.33557618 -0.17211762 -0.13923943 -0.1006095 -0.71917355 0.4478362 -0.37047607 -0.008680145 -0.038428567 0.2244198 -0.019588199 0.39449808 -0.11402502 0.32280678 0.591479 -0.38300535 0.38340375 -0.20093763 -0.41632208 -0.23293847 0.1264568 -0.26393533 -0.4024913 0.6912992 -0.21954837 -0.23075558 -0.2271604 -0.15340221 0.08368222 -0.25332013 0.2693539 0.49295557 0.1423897 0.010690876 0.04910436 0.37681514 -0.1997508 -0.06555409 -0.066501945 0.109625295 0.3565921 0.2394573 0.17011966 -0.4654062 0.47149628 0.5479976 0.41005072 0.40363556 0.079605125 0.7627913 -0.34113237 -0.4295599 0.04155874 -0.32215178 0.18013124 0.20088604 -0.041429956 0.2553153 -0.12513287 -0.13887274 0.4637315 0.38577268 0.38998362 -0.56489176 -0.025514208 0.1850282 0.6410892 -0.024305634 0.07216177 -0.022713833 -0.122388504 -0.17206007 0.37279433 -0.15157585 -0.029665666 -0.023599468 0.66055363 -0.13584113 -0.07064451 0.19680957 0.39833722 -0.44566342 -0.14293908 0.17022726 -0.04948693 0.26440126 -0.29784414 -0.7645567 -0.47162664 0.055303756 -0.10511233 -0.21811807 0.23979841 -0.13876705 0.16871865 -0.015132143 -0.058317248 -0.31121135 -0.69846 0.12008946 -0.2775649 0.043764137 0.12003324 -0.054207988 0.47310174 -0.49914107 0.7855138 0.117878415 0.64004105 0.14745279 -0.33586475 -0.5895898 -0.47675934 -0.11310278 0.19289951 0.05836219 -0.7265485 -0.63928306 -0.19281518 0.20766193 0.39880562
181 0.16545124 -0.20099808 -0.17849103 -0.016700573 -0.79189533 -0.43053478 -0.19438334 -0.53200173 0.50531566 -0.79909253 -0.16368368 0.021729609 -0.37627673 -0.6051949 -0.31280664 -0.31822267 -0.012570694 -0.040564355 0.33398908 -0.24096698 0.19394849 0.18127835 0.24244365 -0.13517945 0.14449134 -0.20501661 -0.010411 -0.2209496 -0.18928647 -0.121069364 0.48036933 -0.1336848 0.14219172 0.11092786 0.051830336 -0.3053757 -0.21704222 0.09145773 -0.39311475 0.13725156 0.23939398 -0.4883425 -0.13622946 -0.19479188 0.37264642 -0.39429092 0.012567213 -0.1731503 -0.4156627 0.03423763 0.046309896 0.16420127 0.2847442 0.23941 0.4919716 -0.090655275 0.20859094 0.13396847 -0.4943294 -0.057429537 -0.058357615 0.31974053 0.4770745 0.46264997 0.3428686 -0.5823362 -0.12447356 -0.30286688 0.4746603 0.559622 0.08531335 -0.49134687 -0.03766079 0.049245488 -0.03992794 -0.10460423 -0.12293142 0.35045907 -0.05729677 -0.13134372 -0.22421709 -0.1494418 0.12452852 -0.23209837 -0.19549744 0.23038512 0.13680267 0.41981474 -0.6296327 -0.08654165 -0.02580984 -0.08415141 0.17970131 0.2510654 -0.39012292 0.07742129 0.019606898 -0.2365317 -0.3282628 0.12588978 -0.6653464 -0.03816569 0.15681778 0.11326836 -0.3101276 -0.42384592 -0.37178826 -0.26796722 -0.29660428 0.10955013 -0.056402672 -0.110556185 -0.21120818 0.23661713 -0.10956679 0.12311408 0.36089823 0.36934933 -0.39231253 -0.1347295 0.42928106 0.3012394 -0.28047204 -0.685428 -0.2863282 0.07753157 -0.22019202 0.70533526
187 -0.089148484 -0.18174046 0.08101922 -0.26646784 -0.25891915 -0.4577721 -0.056504283 -0.3614955 -0.09974663 -0.1430009 -0.061844587 -0.683928 0.4619853 -0.36048988 0.067683764 0.012606432 0.21389617 0.003511735 0.30261898 -0.14377187 0.51762193 0.45793587 -0.2485665 0.4077044 -0.1410209 -0.48356417 -0.16105188 0.11773919 -0.28159603 -0.41226232 0.64608216 -0.0764497 -0.29894555 -0.30021745 -0.14657986 0.008096592 -0.19527797 0.12612863 0.43727243 0.24414393 0.047824454 -0.017352577 0.44780523 -0.208313 -0.12705065 -0.13640109 0.13012409 0.38390124 0.26084566 0.22379711 -0.5457523 0.40686217 0.536036 0.42560595 0.3682828 0.07643518 0.655982 -0.29735398 -0.3769801 0.09479054 -0.3542342 0.31889403 0.15258682 -0.058049135 0.12896125 -0.067474894 -0.0795502 0.46045372 0.3426265 0.34778395 -0.4655197 0.03468964 0.21660239 0.6425803 -0.021572169 0.08972067 0.009154603 -0.122925684 -0.095282815 0.31170866 -0.048614874 -0.01387361 -0.0486244 0.68520135 -0.17284901 -0.044251543 0.163175 0.43167537 -0.40712944 -0.20100486 0.08642064 0.020187424 0.17425245 -0.37047473 -0.7259093 -0.47895694 0.13738857 -0.1641859 -0.2081806 0.21873243 -0.25992924 0.27181298 -0.012449169 -0.03063121 -0.30750257 -0.70867157 0.16157949 -0.20352107 0.07326434 0.063514836 -0.14729738 0.36582392 -0.3228004 0.7897849 0.10487972 0.5743617 0.20342885 -0.20864737 -0.5417479 -0.5048237 -0.06458965 0.14707306 0.017544255 -0.6742733 -0.6921994 -0.21868217 0.18761134 0.40728313
182 0.22399852 -0.30902347 -0.27855444 -0.20339008 -0.69627213 -0.46897668 -0.2821924 -0.6401291 0.4949276 -0.65810627 -0.008272343 0.0267498 -0.25615415 -0.4790543 -0.358196 -0.2807765 0.043312874 -0.08113987 0.28830293 -0.076476306 0.15469047 0.18603225 0.11117177 -0.067158915 0.13915038 -0.29526433 -0.03788285 -0.30823612 -0.1578657 -0.15327846 0.4452702 -0.105814844 0.055921264 0.08378846 0.07351387 -0.14318237 -0.1982259 0.07118622 -0.34882626 0.15804873 0.2610412 -0.5378155 -0.18662226 -0.15506577 0.38194484 -0.28475913 -0.0605256 -0.15674344 -0.46325544 -0.022946049 -0.017092705 0.20633371 0.3353514 0.25116134 0.42681995 -0.11836719 0.2626876 0.07856553 -0.4944873 0.029134223 -0.0032240672 0.3883169 0.44991595 0.5289403 0.327596 -0.542445 -0.0795489 -0.26622245 0.52647895 0.6348239 0.04835956 -0.5544957 -0.11404423 0.11304268 -0.015633013 -0.10978514 -0.033223905 0.2740404 -0.060640875 -0.10389955 -0.21402021 -0.20006396 0.053388026 -0.1613436 -0.13691963 0.27534926 0.09802234 0.35769784 -0.594157 -0.06187719 -0.099431105 -0.13097791 0.12711956 0.14588532 -0.2907813 0.03720304 0.0037654457 -0.32514706 -0.27538258 0.11563527 -0.6422831 -0.0046458067 0.10078609 0.17684965 -0.35856992 -0.35528818 -0.37526986 -0.16723092 -0.2198062 0.08282261 -0.14114554 -0.13421604 -0.08048596 0.31345448 -0.11493373 0.120838806 0.35947576 0.29512888 -0.40036693 -0.060358055 0.4464602 0.23127727 -0.19503434 -0.64864475 -0.28748518 0.044377573 -0.2883979 0.70378673
78 0.19828978 -0.2512823 0.14177193 0.2398285 -0.12067391 -0.07721588 -0.10421921 -0.39707586 -0.41734537 -0.062313072 0.01169319 0.19549221 -0.10088471 -0.36608037 0.21230972 -0.07630091 -0.060888067 -0.01634416 0.38599378 -0.13645439 -0.00800387 0.30728015 -0.45910326 0.15767045 0.04403209 0.16211033 0.134379 0.24053904 0.073676705 -0.32876536 0.45590618 -0.034619447 0.031239048 -0.17694229 0.020929439 -0.21156418 0.028545683 0.19619922 -0.018856594 0.027908413 -0.053666692 -0.0498265 0.13873075 -0.13566884 -0.09130175 -0.30739984 0.3251018 0.17524539 0.21923628 -0.29789183 -0.089718424 0.0034778973 0.072073326 -0.20157424 0.33818796 0.04905587 0.70417 -0.13029894 -0.5341196 -0.018887976 -0.22602695 0.16889077 0.42084533 -0.021222172 0.37983182 0.054431148 -0.18012558 0.12736528 -0.05670042 -0.2191216 0.015867373 -0.017292665 -0.2579984 0.18228683 -0.008967725 -0.034280896 -0.09138641 0.049467582 -0.026998915 0.038793784 0.29641274 0.040430695 -0.028090106 0.49315056 0.05783975 -0.004737264 -0.01102789 0.21721728 -0.34568128 -0.4096995 0.05977994 0.15913953 -0.14080076 -0.19876936 -0.52458984 -0.47257978 -0.076087795 -0.27434415 -0.19317886 0.5603812 -0.015731623 -0.013903578 0.18534538 0.16336924 0.11218802 -0.49154493 0.27287364 -0.11310949 0.15145126 -0.17399138 0.1973921 0.27977416 -0.19061805 0.43292502 0.106405355 0.26450145 0.073277205 0.044369545 -0.27281457 -0.20417504 0.103049256 0.05313044 0.23203108 -0.15804592 -0.59750056 0.14902826 0.025342433 0.05390628
77 0.0011510816 -0.2793056 0.44645718 0.24205193 -0.018388348 0.08588229 -0.15074481 -0.2658875 -0.3329325 -0.16178443 0.13102753 0.08342508 -0.07520253 -0.5169908 0.0069051636 -0.089941174 -0.0697782 -0.036986522 0.4128449 -0.057145074 -0.10341105 0.44185463 -0.3289776 0.13417678 0.11690483 -0.034656685 -0.12559648 0.35432863 -0.018029239 -0.25871056 0.46099177 -0.061799686 -0.011418529 -0.14685243 -0.017595533 -0.28128722 -0.054321166 0.21610999 -0.09988057 0.034327302 0.038596336 0.01914365 0.24131067 -0.14308214 -0.09647382 -0.15563855 0.24071738 0.10811235 0.24338704 -0.32739857 -0.2551897 -0.092850566 0.10465741 -0.20703557 0.55250794 0.121437445 0.6635557 -0.25274697 -0.57870793 -0.021824397 -0.09693999 0.26397267 0.38928717 -0.029693337 0.41556552 -0.042403564 -0.21657556 0.12920207 0.049490485 -0.22024727 -0.049720533 -0.10199585 -0.34798518 0.2771797 0.043396037 0.026532602 -0.15919898 0.018609326 -0.065678544 0.13985233 0.34315935 0.043132883 -0.13584028 0.5240522 -0.03963727 -0.028057491 -0.17423819 0.40182772 -0.33441946 -0.26824233 0.0036083315 0.19620326 -0.067112096 -0.30014926 -0.49756157 -0.516248 -0.014898693 -0.13996136 -0.14000918 0.5265613 -0.12429555 0.07236404 0.2687796 0.03490767 0.16617525 -0.46191537 0.1645572 -0.14999115 0.07727852 -0.1722296 0.21063419 0.2615406 -0.3563035 0.41131172 0.1964615 0.20313609 0.1582844 0.04843777 -0.36227152 -0.20424177 -0.01569154 0.048298288 0.18309046 -0.22616717 -0.46630347 -0.043942243 0.10482459 0.020396542
160 0.035228807 -0.12970015 0.35612985 0.19630302 0.35857022 0.22413772 -0.012148226 -0.38028064 -0.02219901 -0.038726993 0.49676445 -0.14531884 0.060810626 0.021323232 -0.07207618 0.24953306 0.6629241 -0.027646229 0.3763508 0.4827319 0.009845297 0.20184079 -0.2318413 0.030213619 -0.27484986 0.10201523 0.45447752 -0.07510742 -0.47921434 -0.23462743 0.027783357 -0.39492497 0.014565591 -0.06277921 0.10855369 -0.13826351 0.002801044 -0.12665147 -0.026841272 -0.22292718 0.17110483 -0.48297063 -0.35708338 -0.13743794 -0.004677445 -0.19674972 0.23997001 -0.16049317 0.13640419 0.069451526 -0.104468524 0.08167604 0.0080224555 -0.21832289 0.4011211 -0.23761545 0.5080674 -0.05927918 -0.15076247 0.21507621 0.34567693 0.24349399 0.16481897 -0.4979365 0.30057663 0.42476317 0.03633846 -0.5973326 -0.2599422 -0.10548602 -0.0200834 -0.045156337 -0.032753598 0.18482624 -0.26041105 -0.017394004 0.033002216 0.38340628 0.41487864 -0.47233576 0.21842483 -0.39412192 0.34988356 -0.07915822 -0.037965205 -0.19866993 0.40679136 -0.39882484 -0.188881 -0.05109969 -0.26197258 0.16187781 -0.2021003 0.15602067 -0.06991883 -0.30942234 -0.07770277 -0.16822053 0.1058054 0.815381 0.13702004 0.041607272 0.5999177 0.0043039606 0.003232065 0.050689764 0.3655907 -0.05497573 0.13102539 -0.18860258 -0.114634044 0.38373742 0.120361015 -0.012244611 0.18494809 -0.39046174 0.45376047 -0.08824607 -0.08685885 -0.016392415 0.31950194 0.09163168 0.14944495 -0.51223665 0.2543805 0.32618114 -0.3625669 -0.18578856
161 -0.013544268 -0.117041044 0.62071466 0.080335446 0.42041734 0.3900638 -0.13238852 -0.2833744 -0.21049525 -0.13278216 0.4027406 -0.061817434 0.09532393 0.0004760277 -0.13985871 0.14203541 0.48089176 0.016875487 0.34295556 0.34878778 0.08906131 0.18675877 -0.035472594 0.11515889 -0.18207246 -0.024515929 0.3444847 -0.18734351 -0.4198418 -0.20696872 0.03017839 -0.2619432 0.08994216 -0.014265857 -0.10169233 -0.18194464 0.008208736 -0.09220196 -0.19337438 -0.013780813 0.3181778 -0.44269124 -0.25805527 -0.16102676 0.07740069 -0.1851477 0.13950811 -0.12716785 0.18772759 0.029826496 -0.13919291 0.045362048 0.106138654 -0.25368878 0.555096 -0.28917462 0.33854055 -0.10440594 0.074026085 0.33407712 0.5022019 0.08411081 0.13844685 -0.3924355 0.34480676 0.42678773 0.02913926 -0.72341543 -0.19874206 -0.09631179 0.018656312 0.01364862 -0.17063001 0.21788307 -0.28453735 -0.10877645 -0.009503971 0.28910762 0.59068435 -0.49119928 0.15171131 -0.21785595 0.30735865 -0.115737535 0.0989019 -0.20284091 0.38869548 -0.32680494 -0.14083658 0.088162765 -0.24694686 0.23404671 -0.15000187 0.13186894 -0.17627619 -0.30767116 0.045820255 -0.047371358 0.038879603 0.69045544 0.016279312 0.158866 0.50798404 -0.033451647 -0.033484127 -0.003909221 0.38798082 -0.08463171 0.02618671 -0.029439574 -0.032670874 0.2261028 0.08434096 -0.11721152 0.24839799 -0.49183163 0.53265595 0.0038164912 -0.072630174 -0.14976475 0.34703666 0.11677666 0.15718576 -0.7811705 0.17058824 0.30009156 -0.29027447 -0.15233807
53 -0.35965204 -0.090955734 -0.16090032 0.08560809 -0.46443644 -0.59434295 -0.13883251 0.029770186 0.2117834 0.20861293 0.1800279 0.16333285 0.08618955 0.06976581 0.05453055 -0.015220522 -0.12960418 -0.20063469 0.32173902 0.2576492 0.13710675 0.15013632 0.059712704 -0.20001103 0.34966812 -0.35365883 -0.4203919 -0.38987082 -0.63118404 0.06257297 0.6558497 0.23025988 0.2500611 -0.016111132 -0.380126 -0.3506091 -0.19404596 -0.04082554 -0.09658462 0.55310977 0.19981931 -0.4983132 0.12671956 -0.52350986 -0.14295685 -0.42711058 0.24393345 0.29050702 0.031951122 0.32443488 -0.1940804 -0.27061978 0.77492326 -0.06711902 0.4429026 0.19282049 -0.08297703 0.21248694 -0.03568617 -0.27646592 0.122772 -0.04770134 0.50026375 -0.004376061 0.24173525 -0.00011935423 0.39626008 -0.52046007 0.24262768 -0.24490239 -0.2824246 0.104006395 -0.11803818 0.50654584 0.19071348 0.2021888 -0.24638523 -0.34071305 -0.024104781 -0.1962717 -0.10846586 -0.3754793 0.08925833 0.09695948 0.5008183 0.2932241 0.09594046 0.1632831 -0.079883404 -0.017916853 0.036555413 0.07421789 -0.52157533 0.120088845 -0.30537936 -0.1760663 -0.0046997466 0.16113389 -0.16946241 0.44438833 0.47046655 -0.0036911748 0.13968559 0.4129069 -0.34954563 0.018170917 0.25899932 -0.14781259 0.023774685 -0.0013524098 -0.6724305 0.17772429 0.25097027 0.1249633 -0.21493374 0.25230026 0.4698429 -0.43433738 -0.22915982 -0.3540048 0.64750344 0.19039768 -0.24209937 -0.3452647 -0.31568763 -0.097908944 -0.21944329 0.31977126
107 0.508058 0.026091518 0.089484625 -0.2361517 -0.16468237 -0.08287363 -0.19554211 0.0020239307 -0.17550221 -0.024959207 0.36166105 -0.087774925 -0.025046851 0.0072357897 0.21714838 -0.039189987 0.61495453 -0.36579353 0.28610125 0.9723834 -0.31075904 0.34756678 -0.09378046 0.5915451 -0.050062895 0.1954046 0.14870483 -0.22623926 0.020308683 -0.48542878 0.47187844 -0.13405608 0.11668088 -0.13832669 0.06777619 0.44772983 0.018708864 -0.7700723 0.26041925 0.6161793 0.1496865 0.11553296 -0.10705467 -0.17926699 -0.51668686 -0.3761566 -0.33317873 0.011270756 0.46915016 -0.25489306 -0.3408762 0.27336735 0.3002283 0.0009819035 0.5521609 -0.2925387 0.0022111645 -0.2190789 -0.5735463 -0.2631943 -0.54606116 0.15399112 0.5264183 -0.0497089 -0.014026211 -0.028440773 0.105527215 -0.43065527 0.30341354 0.07010464 -0.29397964 -0.19659169 -0.05113586 0.2644875 -0.17519464 -0.06158848 -0.10650326 -0.09189873 0.4836521 0.05443645 0.36589393 -0.48025215 0.15141262 0.26476052 0.13218528 0.100985356 -0.07496603 0.124235615 0.30844197 -0.553634 0.45910525 0.18149218 -0.56603914 -0.032325882 -0.29406264 -0.3309933 0.19899933 0.054568905 -0.07935469 0.8839205 0.21706831 0.5695508 0.3967652 0.30076364 -0.2767684 0.15917785 0.6679892 -0.18872999 0.18548553 0.25544915 -0.03861338 0.4625056 -0.31404307 -0.10290182 -0.29773888 0.16118653 -0.2436821 -0.2572029 0.31436995 -0.22296473 0.051488504 -0.27549967 0.120207146 -0.39581132 0.105417706 0.04947603 0.094223775 0.053009734
108 0.61254287 -0.048480324 0.079914905 -0.39288855 -0.033050776 -0.1402927 -0.26998645 0.08061374 -0.31895268 0.050237134 0.41054803 -0.069033295 0.01610595 0.06984787 0.21076243 -0.015401604 0.44151706 -0.45355147 0.09355305 0.8964321 -0.3085577 0.47195485 -0.10927274 0.4967413 0.011725776 0.13994744 0.025883416 -0.23351555 -0.02399808 -0.37031698 0.48079234 -0.13762976 0.21945836 -0.2624106 -0.035192166 0.4349228 -0.098858975 -0.7894883 0.36984894 0.727438 0.32548642 0.18061168 -0.09336712 -0.22307205 -0.3071466 -0.39301533 -0.34475645 -0.13111165 0.46538228 -0.2017577 -0.34307927 0.17779396 0.498078 0.22079718 0.6528838 -0.22596937 0.048934385 -0.31304404 -0.5208316 -0.23492166 -0.44660604 0.0569654 0.5281739 -0.003051466 -0.13676745 -0.027972143 0.27054632 -0.5669942 0.2682697 0.22126032 -0.26520932 -0.12873365 -0.14502077 0.43163362 -0.07580195 -0.07225002 -0.20827755 -0.09440681 0.42541492 0.15320793 0.37087986 -0.6183483 0.03830567 0.2115247 0.14076237 0.24216586 -0.027234776 0.14358526 0.24074017 -0.69397485 0.27615342 0.23078677 -0.4949392 -0.073435694 -0.2363048 -0.24446179 0.23610316 0.02588419 0.05840793 0.8033425 0.24676397 0.4998753 0.45286515 0.1829406 -0.28056028 0.04292627 0.64350975 -0.19569185 0.16629012 0.14709815 0.050245475 0.363481 -0.38158327 -0.19092003 -0.20977141 0.2623204 -0.24226807 -0.21633932 0.29929972 -0.3140268 0.016481962 -0.29669756 0.08350254 -0.41392884 0.013229795 0.13115083 0.16921328 0.060857404
159 -0.050851535 -0.42528087 0.4358327 -0.2951152 0.2782172 0.14858824 -0.063564986 -0.07966474 -0.12132239 -0.26252794 0.38496262 0.066032216 0.056772314 0.031016352 -0.251686 -0.018515628 0.37989807 -0.18125172 0.2962091 0.055874124 0.11487495 0.2064604 -0.24905157 0.13184574 -0.29946473 0.11820172 0.2312346 0.025075873 -0.21799539 0.052055962 -0.1272731 -0.3392806 0.066753946 0.040430654 -0.08543681 -0.27725628 0.09043801 -0.22029705 -0.047495753 -0.17487031 0.20046945 -0.23561159 -0.2874625 -0.21225272 -0.103611864 -0.046887476 0.19402897 -0.22537974 0.09008326 0.13232157 -0.2010545 0.21813098 0.050580014 -0.15938698 0.14210038 -0.51594085 0.43737796 -0.23510325 -0.16024135 0.28055668 0.20092581 0.14809279 0.0062168594 -0.32779232 0.42215946 0.549073 -0.28801027 -0.48842892 -0.27039042 0.0033972035 0.025932634 0.032131366 0.13789606 0.16758882 -0.24197352 -0.123357244 -0.082798064 0.2533061 0.41303888 -0.43530175 0.0019900105 -0.36607724 0.07996325 -0.0845084 -0.17298824 -0.04988856 0.6131345 -0.48088244 -0.13418199 0.006648635 -0.36457735 0.08630513 -0.0005837361 0.17690104 -0.116333574 -0.26732448 -0.07359952 -0.15320157 0.18186064 0.88187027 0.041063752 0.01913636 0.47909206 0.14059427 0.2097956 0.014276524 0.5129353 0.0030346885 0.22819033 -0.23424059 -0.20662002 0.21942736 0.07168131 -0.04847096 0.0017218442 -0.046175793 0.34906635 0.037516274 0.020309413 -0.051666267 0.42930946 0.02013533 0.14522955 -0.85059214 -0.04348684 0.3466414 -0.35316482 -0.14465258
84 0.10869371 -0.7254016 0.86840254 -0.06259341 0.3970362 -0.12128094 0.14075445 0.12817854 -0.42880407 0.1071733 -0.03127647 0.044636652 0.35868195 0.039791316 -0.04776847 0.41102916 -0.36734813 -0.30994606 0.27660608 0.01805452 -0.115902565 0.9284954 -0.7770715 -0.012856865 -0.042235564 -0.16152129 -0.7143118 -0.059013326 -0.08520743 -0.16200985 0.33972383 -0.16568218 0.09500541 0.55502194 -0.104885 -0.119969144 0.27745673 0.17943087 -0.014370438 0.18214297 0.54431915 0.26133895 -0.21652436 -0.41688475 -0.13017803 -0.32459426 0.27977267 0.16291663 -0.106392376 0.016809124 0.18440814 0.2542358 -0.54837614 0.23984192 0.054304138 -0.2022447 0.3022199 0.25723475 -0.85560423 -0.18834594 0.15489529 0.13657896 -0.19961435 0.20787477 0.020076625 -0.16057546 -0.1411597 -0.24253465 0.067837074 0.018594284 0.026879538 0.15141083 0.038395558 -0.16143468 -0.4896704 -0.36888635 0.30065966 1.0369587 -0.09811979 -0.36180577 -0.31547785 -0.22404489 0.2031715 0.06408175 -0.03946714 0.18921505 0.031242337 -0.17879294 0.55278605 0.26926327 -0.014695832 0.08688124 -0.25082716 0.1878367 -0.3421668 -0.01208106 0.03070871 -0.33817527 -0.8111806 1.0961608 0.01413174 -0.028434854 0.7246448 0.30950442 0.0126920305 -0.010782466 0.16628845 -0.108978726 0.24577782 0.17791586 -0.22148441 0.0647316 0.1981926 0.26723328 0.15061866 0.033769693 0.005999457 -0.26536274 -0.25495517 0.03243371 0.1386739 -0.01227771 0.08993558 0.13703756 0.032353356 0.06824463 0.08581447 -0.18876469
64 -0.011093682 -0.1039154 0.83075833 -0.2443605 0.17641045 -0.19684294 -0.45855626 0.63856274 -0.22981459 0.024136065 0.55741197 0.07807222 0.08100292 0.057099074 0.1918154 0.35967475 0.21100014 -0.43163562 0.47810587 -0.4340678 -0.34438396 0.11850869 -1.516708 -0.059325933 -0.21434717 0.10689393 -0.37945777 0.044314522 0.21088491 -0.035901703 -0.07402924 -0.33480683 0.41542247 0.3918229 -0.039927226 -0.049117476 0.22581276 -0.07034533 -0.004050257 0.7068686 0.25224274 0.40846145 -0.47724217 -0.38265002 0.12201462 0.1366034 -0.17243136 -0.099500224 0.063978545 0.047649458 0.10363455 0.32330173 -0.27590907 0.25286353 0.7623508 -0.024441715 -0.05800666 -0.16622187 -0.44895074 -0.14703049 -0.13541587 0.17191017 -0.11235967 -0.0071360795 -0.10398013 0.30301768 0.06947266 -0.23156232 0.2687713 0.08895146 -0.08722303 -0.094322935 0.2348685 0.055442408 0.3104014 -0.1605493 -0.05825423 0.35536295 0.012687065 -0.6743888 0.05338296 -0.14331633 0.33713973 -0.05312102 -0.37502939 0.13893645 -0.029369608 0.18357235 0.15607321 0.11912255 -0.25129992 -0.03974891 -0.20662692 -0.08716592 -0.37969702 0.19742103 0.18747158 -0.29031226 -0.16804813 0.64026994 -0.2593003 -0.18583357 0.06520684 0.08238394 0.3872642 0.20444885 0.24301374 -0.5160804 0.46015245 -0.10978254 0.05576234 -0.0833186 -0.49062172 0.22751068 0.42233595 0.22715145 0.13977276 0.16006087 0.27356225 -0.074782 0.06159089 0.103339955 -0.4338376 -0.095289215 0.38814136 -0.076566905 0.21759732 0.25136626
158 -0.21902134 -0.3496302 0.3427046 -0.29459807 0.2862694 0.21139613 0.03400533 -0.0023925668 -0.06809836 -0.2512034 0.32083723 0.08582221 -0.059712633 0.03735484 -0.04810367 0.036453787 0.33978978 -0.1442945 0.17088522 0.22256894 0.17630337 0.1264935 -0.36403456 0.039692055 -0.26397178 0.0036337816 0.17334896 0.15289181 -0.3245846 -0.12902486 -0.112541474 -0.52474666 0.109145336 0.11658751 -0.13679907 -0.26278186 0.08706043 -0.16012064 0.0045004645 -0.19855471 0.2836298 -0.386593 -0.33856946 -0.1592656 -0.16465877 -0.07853935 0.26038367 -0.14529125 0.15702659 0.004802955 -0.16555627 0.26768374 0.0611593 -0.14133874 0.3297951 -0.49194938 0.41025832 -0.29051208 -0.048409805 0.33009562 0.338951 0.121906236 0.01453952 -0.34130484 0.5044359 0.44807175 -0.1769029 -0.5134446 -0.2316864 -0.07857674 0.09297269 -0.044920433 0.08335454 0.14162263 -0.3590075 -0.102757536 0.0032322574 0.19807114 0.39092934 -0.44018635 0.043484107 -0.28642815 0.10906561 -0.08031185 -0.04977747 -0.19807883 0.59423566 -0.36090755 -0.10340695 0.032956846 -0.22719334 0.12803341 0.038797896 0.2225854 -0.24246001 -0.12940641 -0.0694416 -0.06564817 0.20545927 0.8646933 -0.045981113 -0.062729806 0.4859245 0.111433275 0.055188768 0.071749665 0.39874128 0.026890906 0.23000263 -0.26096135 -0.15962349 0.27813292 0.007249478 0.018302727 0.051737763 -0.039287414 0.31451184 0.022938529 -0.0028546427 0.035813715 0.2569323 -0.042615756 0.16072838 -0.8388757 -0.030069377 0.26724976 -0.3907974 -0.09665318
48 -0.49927324 -0.20552292 0.15851186 0.047187254 -0.19887044 0.21405418 0.24873796 -0.030680688 0.26104298 0.13822736 0.045283653 0.30520117 -0.02962077 -0.059162747 0.21466821 -0.27117896 -0.01624122 -0.2860934 0.63584244 -0.19746906 -0.009823769 0.19719288 -0.2139647 -0.3589206 0.18357703 -0.2986489 -0.6057695 -0.26553974 -0.35730717 0.027447345 0.2183285 -0.12987511 0.25413966 0.21334302 -0.34954792 -0.08837085 -0.19728687 0.09983542 -0.2134555 0.65838397 0.07728148 -0.41752288 0.14545068 -0.3551869 -0.004970917 0.19090746 -0.16381662 -0.14005986 -0.29340774 0.15238951 -0.19968623 -0.23472403 0.486054 -0.050826836 0.12236245 0.14119405 0.006308196 0.37656328 -0.16834123 -0.24490839 -0.096158594 -0.049740463 0.11408278 0.2476548 0.48794723 -0.3977542 0.19190267 -0.24004309 0.251026 -0.07922261 -0.074904345 -0.37234226 -0.24922407 0.25613117 0.1677936 0.20008077 -0.29653105 -0.0049826866 -0.13199982 -0.32368264 0.11911936 -0.3308641 -0.13374248 -0.08092713 0.23081289 0.36399436 -0.11634932 0.095515914 -0.10136135 -0.052314326 0.070942454 0.23864067 -0.60004294 -0.1431249 -0.274595 -0.011793271 -0.1612916 -0.22095565 -0.06192442 0.020634143 0.32055932 -0.356258 0.1313886 0.15024059 -0.25887337 0.08880182 0.24959715 0.15106395 -0.3288167 -0.1833918 -0.5718322 0.01892344 0.077758975 0.112568505 -0.41543838 0.059959646 0.3331115 -0.27745983 -0.4644877 0.06406088 0.46786374 0.04215914 -0.09744071 -0.13589403 -0.14691918 0.27500713 -0.07307374 0.48350346
83 -0.16839646 -0.6330108 0.6945421 -0.11331595 0.2946365 -0.14116846 0.19022226 -0.03573996 -0.3361534 0.059886895 -0.11919227 0.06353118 0.35022324 0.20832217 0.008655211 0.5152103 -0.417531 -0.4645606 0.20815845 0.11049474 -0.0316335 0.8724402 -0.74610573 -0.07336404 0.18892498 -0.27134082 -0.6922717 -0.26216745 -0.21651933 -0.2459475 0.37194067 0.11342791 0.1405193 0.45951778 -0.18175833 -0.10372892 0.2403596 0.15865068 -0.01704939 0.2863546 0.5066628 0.117871575 -0.1614344 -0.40510115 -0.2513093 -0.18427098 0.40157056 0.15193625 0.021584315 0.06544303 0.078994565 0.2835253 -0.43998563 0.2005561 0.07452109 -0.25841182 0.2977959 0.113047965 -0.8301725 -0.10600226 0.2029508 0.033534903 -0.30265802 0.24242371 0.09587742 -0.07558404 0.09588824 -0.13697475 0.1416981 -0.047039777 0.20663631 0.17698123 0.09478567 -0.17349653 -0.43550262 -0.24193728 0.3680352 0.8544344 -0.119101934 -0.3075275 -0.32591438 -0.24965781 0.30133283 -0.015288575 -0.14740174 0.0068758423 0.17321198 0.030794563 0.57014143 0.31114185 0.04990377 0.15012799 -0.24930176 0.25657412 -0.21020892 0.0664747 0.11592433 -0.41985637 -0.6898278 1.1143556 -0.02722259 0.093026966 0.82198375 0.21881595 -0.009253371 -0.10988618 0.21906787 0.16758999 0.43515384 0.108251974 -0.22033815 0.10585535 0.3218093 0.31911162 0.14850782 0.27401194 -0.11001509 -0.17364122 -0.19236146 0.05905845 0.03706214 -0.026529206 0.0066056014 0.06735467 -0.02492425 0.0055557434 -0.061756518 -0.22561805
25 -0.18583424 -0.3225212 -0.09481838 -0.24285546 -0.11973628 -0.23864794 -0.64901143 -0.41470167 0.3904821 -0.45235178 -0.5843913 0.38495314 -0.060078405 0.45034376 0.23026328 -0.34301847 -0.35837933 -0.21164733 0.23599315 -0.106502645 0.75249636 0.3837524 -0.28381023 0.15334086 0.296876 -0.10205232 -0.37125817 0.08345544 0.10980886 -0.13245563 0.37556455 0.07063056 0.27286458 0.9099268 -0.058768235 0.35611582 -0.49911946 0.15613213 -0.5685284 -0.00374861 -0.5700731 -0.51719695 -0.5283788 -0.20734268 0.23838544 0.037918013 -0.1435423 -0.09576054 -0.22661372 -0.14804907 -0.41164026 0.02828699 0.34579602 0.36774468 0.3157182 -0.13285533 0.30040833 0.24556826 -0.34946555 -0.021637833 -0.40090644 0.22482754 0.34210062 -0.07291712 0.025454218 -0.42603636 -0.016719505 -0.6540358 -0.34476605 -0.10786484 0.2278564 -0.19064882 0.1685851 -0.03717192 -0.19577721 -0.4207833 0.07151534 0.24315071 0.344178 -0.041810296 -0.21754128 -0.5235288 0.16224805 -0.015985278 -0.28094527 0.21580234 -0.11812697 -0.08977597 -0.42220813 -0.043355286 0.19874585 0.35905024 -0.013336825 -0.17737697 -0.8375439 0.35102242 -0.005922507 0.39430898 -0.18623784 0.1859085 0.034562476 -0.18030009 0.3174614 -0.082706705 0.12694488 0.3588025 0.03966721 -0.08637889 0.114140354 0.08505488 0.06250856 0.09256707 0.02411332 -0.13782594 -0.16023742 0.05567321 0.06556702 0.44225258 -0.4477016 -0.36204657 -0.044480886 -0.28368318 0.30572185 0.047857426 -0.33622387 0.6226162 -0.06978662 0.2937619
82 0.053963926 -0.85852873 0.72021073 -0.1406256 0.42329237 0.063886605 0.26362568 0.07727277 -0.3170882 0.0110852895 -0.17766339 0.21534874 0.4335363 0.15374224 -0.008158405 0.3840229 -0.20900011 -0.27687493 0.28966433 0.15078327 0.051956873 0.8797562 -0.74743414 -0.0024536666 0.15415147 -0.15528293 -0.54923105 -0.24523349 -0.16057497 -0.08459157 0.38944235 0.02331963 0.22496669 0.5016581 -0.007075663 -0.011759221 0.21597475 0.16556871 0.048082136 0.26903734 0.5352755 0.23043999 -0.17029218 -0.32864 -0.26256824 -0.45938602 0.26970595 0.09205309 -0.07153823 0.054517586 0.12766844 0.25456473 -0.47427896 0.2840627 0.102923736 -0.24190547 0.25126144 0.26756382 -0.84986055 -0.14636844 0.07502958 0.22465484 -0.21377055 0.18732025 -0.018339152 -0.007561722 -0.039552752 -0.066486105 0.10439253 0.012912691 0.05302736 0.16583604 0.088712335 -0.22296585 -0.5609008 -0.29292393 0.2794183 0.95059115 -0.12067602 -0.26060954 -0.19118333 -0.11088638 0.14347914 0.037426967 0.0064906706 0.19090393 0.09296211 -0.05152357 0.59022707 0.19877541 0.07111619 0.03151017 -0.40125903 0.2265189 -0.3443571 0.010421113 0.23998012 -0.40276212 -0.73966324 1.1563749 -0.068046115 0.12780601 0.69778943 0.34451678 0.092299834 -0.07205538 0.2307293 -0.08238047 0.28213903 0.28594807 -0.18492343 0.09286616 0.36173096 0.36015883 0.124317974 -0.018654812 0.052202363 -0.31726867 -0.23702316 -0.039140575 0.16702646 0.03439473 0.09132489 -0.07595441 -0.051187783 -0.016241595 -0.022282418 -0.10404345
85 -0.0645605 -0.9293629 0.7872457 -0.1876 0.27016252 -0.067087494 0.13890928 0.065019235 -0.3561821 0.043303274 -0.061977804 0.21922801 0.30549303 0.19321956 0.05597406 0.55749243 -0.3907492 -0.39550844 0.28659442 0.09794874 -0.097465165 0.86040056 -0.7384925 -0.14027235 0.12601867 -0.2473067 -0.52806646 -0.08366619 -0.124063626 -0.10945346 0.23832715 -0.082753375 0.148299 0.48610148 0.007625157 -0.028886711 0.20696281 0.14452225 0.023092967 0.33030355 0.75341624 0.094989546 -0.23438594 -0.4289791 -0.23238225 -0.26728883 0.20135686 0.20408082 -0.043167472 0.0049292403 0.17568171 0.20432001 -0.57952344 0.2381709 0.114945024 -0.2380519 0.320751 0.16086198 -0.7855249 -0.05337477 0.18271987 0.008841673 -0.25884017 0.2699363 0.11212824 -0.16168424 0.07048455 -0.28497607 0.14953926 0.09182559 0.15372123 0.14673397 0.05136207 -0.18778403 -0.4241021 -0.25006098 0.2870867 0.83903724 -0.16682746 -0.25818866 -0.23830663 -0.18493731 0.27822715 -0.016951395 0.059763175 0.100646965 0.12655075 -0.08139278 0.52843565 0.22352548 0.10407874 0.16744693 -0.12306141 0.261187 -0.25315526 0.03152959 0.18605864 -0.40868196 -0.70688456 1.0530736 -0.067656755 0.020014958 0.6167522 0.36198846 0.05620818 0.037685584 0.2398569 0.09770009 0.20935406 0.2724612 -0.18122792 -0.008680983 0.1805609 0.3358526 0.26125318 0.16524552 0.032417137 -0.2698861 -0.21682504 0.003005502 0.09892281 -0.007930698 0.04468587 -0.0007949437 0.06426281 0.046269726 -0.14988472 -0.15895233
61 -0.02664006 -0.2177771 0.78306425 -0.34897786 0.09953369 -0.27001452 -0.38451442 0.6033242 -0.21585876 0.15570478 0.29700097 0.10964132 0.16762044 0.19526236 0.108121164 0.3152287 0.14573205 -0.37140858 0.45246217 -0.44215375 -0.32764795 0.21972305 -1.3621074 0.10038366 -0.36507228 0.11597757 -0.5361553 -0.022535201 0.19241889 -0.006444029 -0.041540626 -0.21054228 0.397392 0.5401654 0.02612783 -0.027994204 0.2465317 -0.090334795 -0.028729785 0.7251433 0.13181527 0.45972165 -0.57111245 -0.316302 0.2206347 0.34499344 -0.07329409 -0.0385811 0.15309253 0.13888988 0.06349442 0.28103122 -0.1439076 0.2920003 0.58220065 0.01033613 0.011456503 -0.32873783 -0.47199947 -0.21028168 -0.05055029 0.22762105 -0.24691983 0.006279748 -0.05518631 0.36416763 -0.035797145 -0.100387156 0.2883296 0.07711856 0.045608867 -0.009357906 0.25869057 0.032667145 0.32085225 -0.17457205 -0.03283482 0.31777453 0.06018205 -0.46644473 -0.1464799 -0.1258786 0.17461276 -0.103506595 -0.5071578 0.13288972 -0.023247857 0.24444005 0.18096502 0.29037383 -0.20275646 -0.0419463 -0.25093287 -0.013514399 -0.39222503 0.054061696 0.018805224 -0.28751898 -0.024694094 0.6863103 -0.33558854 -0.14786837 0.2223225 0.1281692 0.4557295 0.2520389 0.26764435 -0.43698752 0.47748002 -0.12603807 -0.12005926 -0.061390944 -0.21750596 0.11070242 0.31932375 0.25013503 0.20022847 0.32435247 0.16544965 -0.118156284 0.09345733 0.1649311 -0.438514 -0.044885878 0.43530864 -0.039435104 0.27959147 0.07765722
