222 128
36 0.03416255 0.04321968 -0.1400182 -0.3785181 0.21603422 -0.36697552 0.30775878 0.20497157 -0.18708055 0.18220069 -0.17022383 -0.07941962 -0.08958254 -0.03204168 0.037292756 -0.19991928 -0.43233174 0.3212694 -0.21957313 0.20300174 -0.096683 0.0062187235 0.22955428 0.032047484 -0.27034128 0.15936777 -0.367468 0.037845295 -0.082839146 0.38452175 0.09471776 0.3399135 0.03178372 0.6920743 -0.058479775 -0.042795174 0.2949501 0.3355022 -0.07623725 0.28066912 0.3822226 -0.001663922 0.24004638 -0.35400167 -0.1505322 -0.008719117 0.014625729 0.411208 0.06393854 0.003298995 -0.32955873 -0.08046927 0.2173683 0.041382745 0.07995579 0.11716876 -0.018176796 -0.37872902 -0.1464657 -0.5030854 0.3365705 -0.30278012 0.07875627 0.121417575 -0.13995066 -0.06268004 0.08976705 -0.12684557 0.27036127 -0.21785362 -0.1047837 0.31765494 0.13785863 -0.034360737 -0.063071065 -0.32448235 0.395401 -0.10316801 -0.07733041 0.2647324 0.25430524 0.078058675 0.21927655 -0.42228198 -0.1199381 0.16853626 0.037964314 0.262827 -0.2284705 -0.13090666 0.19240956 0.52350104 0.508475 -0.0479503 -0.5004365 -0.004298154 -0.46550977 0.11779338 -0.44245356 0.3406835 0.06304693 0.19509862 -0.13111097 -0.27679107 0.15999004 0.30053338 -0.06310409 0.05834152 -0.074461915 0.23566017 -0.55998474 -0.103809364 -0.11926063 -0.3517684 -0.4188368 0.070291735 -0.4391967 0.002968429 -0.20571971 -0.26342973 -0.07633627 -0.1096985 -0.25786287 -0.11080909 -0.016664017 -0.22940212 0.028372403 0.041295517
158 0.3094616 -0.19145603 0.19139372 -0.315718 0.008558439 -0.081292585 0.48439035 0.47328523 -0.18675035 0.4417969 -0.37637123 0.24326412 0.29943696 -0.2928946 -0.4650249 0.34181926 0.2423177 0.49630177 -0.21216045 0.38417056 -0.28845358 -0.015501909 -0.13241524 -0.21899168 0.03590943 0.13633616 0.26802805 -0.04984072 -0.08395335 0.20190284 -0.00085553277 0.32814804 0.13895732 -0.122078404 -0.5100951 -0.08266774 0.83161277 -0.101061404 0.13935485 0.03613524 0.27815127 -0.07601283 0.050288986 -0.18774693 -0.47079313 0.15401818 0.2525884 -0.19003186 0.080884725 -0.36018896 -0.063211255 -0.17725064 0.16806154 -0.073935315 -0.12274141 -0.5879109 -0.2388523 -0.22386837 -0.18873343 -0.3748909 0.2655219 -0.5129751 -0.15845425 -0.34597787 -0.029971056 0.34821406 -0.23940445 0.020233834 -0.07252841 0.064136475 0.15726848 -0.28819507 -0.08089128 -0.06770962 -0.2479105 0.05359405 0.3231509 -0.2719103 -0.2863318 -0.22226755 -0.026479257 -0.20828666 0.38642088 -0.2538278 0.17926757 -0.27876654 0.22913036 -0.13647008 0.37401253 -0.051479563 0.47290403 0.28198472 -0.29770654 0.6271374 -0.20305002 0.044082798 0.52909493 -0.5623763 -0.12990895 -0.13703069 -0.039073445 -0.2700685 0.0128039075 0.014448761 0.43766525 0.020988412 0.37725058 0.0236707 0.31824636 0.075250916 0.13712707 0.27276316 -0.036907602 -0.19836983 0.6271917 -0.1020755 -0.107913576 0.044604044 -0.20009236 -0.25446624 -0.13527974 0.08833716 0.22476941 0.09273402 -0.059064303 -0.16404198 0.15525097 0.09003132
159 0.3889971 -0.14403598 0.30325443 -0.24384905 -0.08789165 -0.020690301 0.35739812 0.5783286 -0.15062058 0.4181771 -0.4133471 0.1347684 0.30542248 -0.3086606 -0.5060742 0.32657558 0.18604532 0.55249023 -0.1530464 0.41906825 -0.19943134 0.004096322 -0.042175166 -0.18234722 -0.041582312 0.16736889 0.2398954 -0.10644843 -0.08283521 0.24676907 0.043910585 0.25275856 0.1052403 -0.13724197 -0.45806378 -0.03040247 0.7241651 -0.07289746 0.110996366 0.09855251 0.38725147 -0.089709155 -0.044523913 -0.29570907 -0.40024012 0.2673865 0.17043704 -0.12169293 0.12918289 -0.37674174 -0.094543956 -0.24369507 0.111827105 -0.1371204 -0.11091485 -0.6357795 -0.20688526 -0.2801515 -0.2469204 -0.4176079 0.2756381 -0.55347776 -0.1505889 -0.37951225 -0.03967697 0.37176478 -0.2250437 0.06400967 -0.051297687 0.019729385 0.06804186 -0.16464342 -0.119590364 -0.041626815 -0.19370732 0.053279288 0.3441338 -0.15290734 -0.32342595 -0.20302506 -0.17207892 -0.23334242 0.36281654 -0.2406506 0.1837168 -0.22516368 0.23743413 -0.24668424 0.4643907 -0.010920437 0.54517514 0.14697263 -0.25893664 0.6506986 -0.16224726 0.124429904 0.550456 -0.5519243 -0.06064565 -0.15020084 -0.006137416 -0.21531756 0.044464804 0.014826895 0.38342896 -0.025799798 0.43504822 0.018812139 0.33530352 0.030613294 0.18123117 0.15548204 -0.09404589 -0.22214498 0.57079756 0.010749333 -0.06862792 0.056651425 -0.29954487 -0.1274331 -0.11463952 -0.021014228 0.0915918 0.052597653 0.019375877 -0.11144768 0.108629666 0.08115992
160 0.30925992 -0.122779176 0.33486947 -0.14157686 -0.0073015196 -0.10536086 0.42599228 0.46077144 -0.099002264 0.38879228 -0.4736553 0.22431856 0.39795467 -0.39855072 -0.5017325 0.2864582 0.24523416 0.52501154 -0.11306703 0.29742005 -0.23246264 -8.45045e-05 -0.054622434 -0.25751117 0.09040867 0.1671096 0.30080286 -0.011130415 -0.05606781 0.25396764 -0.008436309 0.29955313 0.148595 -0.11401649 -0.3621434 -0.09945184 0.74790806 -0.029118849 0.10576893 -0.080905356 0.2792414 -0.0038682914 -0.009323727 -0.22533494 -0.3703697 0.25643343 0.2358895 -0.18426237 0.096745424 -0.346698 -0.04117902 -0.22938213 0.12057002 -0.17314696 -0.15540028 -0.5618394 -0.31228215 -0.31880653 -0.33908927 -0.3659721 0.21697046 -0.5393058 -0.13971841 -0.3497984 -0.079532735 0.38231215 -0.22922997 0.07168024 -0.063332535 0.15528987 0.10224416 -0.2747629 -0.038260072 -0.10255287 -0.24906938 0.055514526 0.3475658 -0.23526493 -0.2663892 -0.14500526 -0.122567 -0.31107396 0.38187507 -0.32505566 0.106908746 -0.22168332 0.2961432 -0.14579967 0.34047496 -0.03642236 0.4969363 0.19375478 -0.3518588 0.6471885 -0.15324873 0.1679403 0.5088544 -0.52813923 -0.043850265 -0.137569 -0.12622587 -0.21324095 0.03969608 0.028529944 0.47035694 0.031367265 0.41853067 0.021497935 0.35125062 0.17332402 0.23088676 0.22469842 -0.08183799 -0.2741747 0.58066875 -0.07119405 -0.14052638 0.13538754 -0.28508812 -0.21523347 -0.10965297 -0.028496599 0.19803365 0.0010451645 -0.057211637 -0.10958685 0.1454198 0.06020548
161 0.29823178 -0.29683492 0.2608776 -0.25793654 -0.05293178 -0.072974466 0.46174055 0.4155575 -0.16316517 0.510069 -0.41766787 0.17614667 0.2812339 -0.35725728 -0.49405217 0.2741423 0.2662225 0.5091847 -0.12648132 0.42707965 -0.24655917 -0.04939924 -0.14867888 -0.19802044 0.07304186 0.15479226 0.30263785 -0.04365553 -0.12354741 0.2085804 0.068569995 0.38764313 0.14776328 -0.10896706 -0.49552193 -0.01476104 0.7673841 0.021481711 0.09492294 -0.06966365 0.30465764 -0.010810215 -0.046739366 -0.21651293 -0.41383818 0.21723443 0.24835557 -0.20756796 0.19799528 -0.29629007 -0.0984862 -0.16090275 0.14436871 -0.10342017 -0.12641525 -0.519462 -0.20446984 -0.28825936 -0.24918763 -0.38684615 0.21819602 -0.4902882 -0.14898543 -0.28545517 -0.1295551 0.4084643 -0.1256847 0.03255072 -0.09684721 0.10157848 0.16774955 -0.27811766 -0.05499771 -0.13460785 -0.27076593 0.10118089 0.39946982 -0.2236161 -0.2835678 -0.21153593 -0.05428828 -0.30971935 0.35225293 -0.2250693 0.100007035 -0.29674074 0.32459494 -0.15827294 0.3875581 -0.029329158 0.47762853 0.3186957 -0.3558788 0.6260373 -0.18262911 0.1685598 0.55848557 -0.50996655 -0.04646163 -0.18118235 -0.061154027 -0.25387257 -0.0051161335 0.11207372 0.50073117 0.06261834 0.40090823 0.052212127 0.31756052 0.1336945 0.18361267 0.23167498 -0.06813361 -0.23489098 0.62181664 -0.058776908 -0.11899095 0.1656137 -0.2542685 -0.29555735 -0.004905459 -0.03832137 0.27543947 0.023158595 -0.10147122 -0.15391682 0.21043718 0.07793427
1 -0.35276777 -0.059244376 0.5693244 -0.15065624 -0.23107485 -0.13813537 0.07619187 0.14888546 -0.13791524 0.1771086 0.1401696 0.20171894 -0.10269254 -0.08517432 0.059438147 -0.36606458 -0.42994478 0.049765732 0.1201348 0.034801263 -0.30293676 -0.41813105 0.0525189 0.10531295 -0.06646368 0.38513398 -0.25151423 0.3525334 -0.092009485 0.2953034 -0.07218023 0.5845544 -0.056100708 0.41116557 -0.058154732 -0.18336791 0.14038973 0.3740293 0.25709167 0.18982452 0.13121365 0.0652878 0.37392247 -0.08287754 -0.3989895 0.14262177 -0.009220968 -0.09894357 -0.16737077 -0.10050003 0.053201873 0.019339522 0.4171577 -0.12366017 -0.1961933 0.2862128 -0.06813952 -0.37685195 -0.5509233 0.037252393 0.044997297 -0.1541071 -0.0622177 0.40315786 -0.15948176 -0.41666597 0.23343885 0.3597008 0.18469766 -0.36971623 0.1193518 -0.16287905 -0.3052994 0.015533583 0.18716045 -0.29964 0.3021871 -0.18603325 -0.20101795 0.015187327 0.20727733 -0.27451462 0.028834023 -0.5478231 0.35117736 0.08115695 0.29235506 0.14956984 -0.11517192 0.019313298 0.23855788 -0.22972783 0.14871825 0.22302508 -0.12067496 -0.38578108 -0.25143138 0.023138981 -0.19223155 0.25124848 0.36674008 0.11170639 -0.47597498 -0.48830298 0.18205023 0.066862755 0.40019852 -0.16870086 -0.30754688 0.037129276 0.15005174 0.016295506 -0.07868465 -0.20040086 -0.16222914 0.25877443 -0.14553292 0.055433065 -0.4043048 -0.055446915 -0.03391064 -0.15337941 0.030842565 -0.15100987 0.03370872 0.028710995 0.014998201 -0.18264924
77 0.41583303 -0.0885484 -0.27888635 -0.18635863 0.39856213 -0.21628644 -0.36667627 -0.088659145 0.10377219 -0.1674621 0.210954 -0.022591827 0.27444223 -0.18339169 -0.32475832 -0.23815715 -0.091547966 0.38674703 0.08290171 0.56527066 0.102398045 -0.37152424 -0.032482237 0.035429757 0.04098581 0.480752 -0.16986279 -0.05127638 -0.22545591 -0.08437294 0.24958627 0.48862278 -0.03164261 -0.02937429 0.38310125 -0.01581684 0.36658204 -0.19868782 -0.03270511 0.19257441 -0.42359957 0.12776087 -0.04095375 -0.15633355 -0.06007199 0.3025264 -0.21345045 0.105849005 -0.16108231 -0.0463738 -0.050747268 0.057696953 0.70767105 -0.50260925 -0.19751406 -0.071952306 0.070750706 -0.09498069 -0.054358583 -0.055561822 0.45784628 -0.07559578 0.24686967 -0.10751541 -0.34819433 -0.36279786 0.28149396 -0.3361914 -0.12711252 0.30088094 0.37943196 0.025797507 0.105045564 0.065212384 0.07855371 -0.33843988 0.1407032 -0.4245412 0.23158269 0.027419353 0.2750602 0.08070148 0.12745623 0.097162664 0.11912154 -0.113731556 -0.1314803 0.23894739 -0.10781218 0.0034799343 0.14058056 0.65820646 0.11713243 0.31889877 -0.3879686 -0.06320513 -0.17983164 -0.4774627 -0.2111941 0.24451548 -0.09224579 0.4306329 0.091467366 0.029441675 0.10747819 -0.17199208 -0.029412208 0.11867073 0.30167606 -0.21426797 -0.31562912 0.046672653 -0.25723976 -0.45907462 -0.1876345 -0.026799962 -0.10228975 -0.013201269 -0.33946413 0.27151453 -0.0041922517 0.038515378 -0.38315427 -0.13389598 -0.0015891542 0.38134557 -0.46760926 0.11497986
78 0.33916917 0.08742774 -0.1548692 -0.07147668 0.4367702 -0.21704659 -0.38027453 -0.08247405 0.19380613 -0.24929546 0.21370009 0.027327912 0.32729113 -0.16772565 -0.31173536 -0.24033262 -0.049112834 0.3244071 0.124376945 0.47201866 0.1687526 -0.27844527 -0.034263894 0.18176357 0.09433788 0.494131 -0.15909939 -0.14827433 -0.19016369 -0.07107618 0.1996528 0.4310402 -0.06397495 -0.020273846 0.30043006 -0.08293195 0.31034407 -0.071007855 -0.06926208 0.15214176 -0.24563344 0.14568041 -0.08071081 -0.12302015 0.08313006 0.37666076 -0.20064497 0.1595173 -0.120968945 -0.06920583 -0.06608275 0.0169651 0.652595 -0.46668637 -0.24419548 -0.08824777 0.054608233 -0.18361963 -0.113696 -0.048231 0.40209347 -0.12895155 0.28260037 -0.0918248 -0.23403604 -0.24467349 0.2321732 -0.3195882 -0.15243621 0.29961327 0.42051005 0.029154541 0.09182312 -0.068301715 0.0968211 -0.27601957 0.09780757 -0.45193958 0.35874808 -0.047245774 0.27643153 -0.022029571 0.29661125 -0.04215672 0.14701141 -0.080685414 -0.016984018 0.21403775 -0.1182828 -0.050543822 0.11331388 0.5613074 0.07286243 0.30124262 -0.37463182 -0.18291709 -0.15259124 -0.4763571 -0.15423284 0.20221785 -0.10280799 0.40981174 0.14521046 0.00389489 0.12634182 -0.15016682 0.010037631 0.06337592 0.28812486 -0.19507536 -0.23413618 0.051314566 -0.23821914 -0.32007703 -0.15967673 0.03432627 -0.1631636 0.110350534 -0.38948956 0.3044191 0.0018079926 0.05947272 -0.3686117 -0.111143015 0.05135353 0.2983392 -0.46206528 0.1458921
134 0.22213493 -0.27074733 0.35012183 -0.41612908 -0.14773527 0.06935721 0.4446319 0.37919974 -0.34276685 0.51641876 -0.38095388 -0.18308164 0.16114388 -0.16316202 -0.23041657 0.34439862 0.19981651 0.4766362 -0.22075872 0.4757211 -0.20722131 -0.1828066 -0.1534923 -0.2508486 -0.28127956 0.13112344 0.2588562 -0.08085561 0.0510525 0.082123205 -0.18484269 0.19557153 0.031644918 0.049245592 -0.28672305 -0.031194877 0.98629695 -0.057982232 0.35556754 0.13229553 0.16805579 0.091821216 0.15224105 -0.10497283 -0.4082165 0.14370492 -0.12274611 0.05020848 0.01790903 -0.43916136 -0.17359321 -0.057790045 0.35121527 -0.098542415 -0.19941661 -0.48743308 -0.07897673 -0.010753677 0.013472441 -0.44983009 0.122311555 -0.46401516 0.14149868 -0.39630514 -0.08082002 0.4306881 -0.43919414 -0.16669866 -0.035979662 0.0044317027 0.106740266 -0.15805958 -0.11178292 0.08657508 -0.35816506 0.10368994 -0.19532856 -0.2957641 -0.19731937 0.022061529 -0.20724687 -0.06817576 0.4335609 -0.10169886 0.069830865 -0.40179354 0.030512767 -0.18592975 0.4596102 0.052220628 0.51824814 0.26879728 -0.22962558 0.5398615 -0.27333146 -0.019586777 0.6005117 -0.3057961 -0.3120842 -0.053041436 0.08607274 -0.09257516 -0.17347154 0.008705862 0.36909622 -0.1441888 0.3412921 0.207437 0.14612086 0.07039702 0.02694374 0.3875283 0.057317417 -0.13438012 0.5000269 0.17470565 -0.018625593 -0.079025194 -0.19611241 -0.13702193 -0.07814676 0.07343883 0.1417512 0.36483586 -0.012796779 -0.1875007 0.18562256 0.25499776
135 0.15220857 -0.15270646 0.46545592 -0.28532863 -0.20023564 -0.055979647 0.5518851 0.3701548 -0.30224526 0.4774765 -0.36709362 -0.06896398 0.18602975 -0.2313934 -0.18000422 0.2733449 0.24774389 0.332728 -0.20402263 0.3586089 -0.16851012 -0.13637288 -0.18492614 -0.2600706 -0.34535268 0.040535472 0.24356198 -0.035314642 0.010536325 0.040523272 -0.3104116 0.12360544 0.056489255 0.06410949 -0.27651677 -0.023393951 1.0497882 -0.033768 0.32310393 -0.073242605 0.11605222 0.14430322 0.054130796 -0.15239751 -0.34141225 0.13128519 0.044660714 -0.0043200515 0.072351016 -0.54274523 -0.15320708 -0.0058253743 0.32968438 -0.11938209 -0.35665503 -0.48118028 -0.21762025 -0.09322053 -0.06545297 -0.46512806 0.17526206 -0.41319 0.21300338 -0.34201014 -0.18308073 0.42583653 -0.46017763 -0.15540622 0.003199739 0.084338605 0.12786965 -0.115965255 -0.04236377 0.021356277 -0.27772686 0.18451217 -0.07930194 -0.23955438 -0.12357141 -0.12102644 -0.22027092 -0.1409003 0.550631 -0.15095006 0.11061609 -0.330388 0.19598866 -0.24696039 0.46681586 0.034262482 0.41869006 0.16359401 -0.29355896 0.5443502 -0.29514962 -0.095462404 0.5477316 -0.25200817 -0.16589996 -0.027664253 -0.06644636 -0.12832744 -0.13966554 -0.07233613 0.45250914 -0.037259478 0.3359674 0.19918416 0.18366592 0.12097844 0.097071536 0.3364582 0.04408916 -0.09405145 0.552936 0.087000355 0.004314614 -0.023985056 -0.25738165 -0.12198765 -0.14177841 0.1472965 0.1520466 0.34475526 -0.0099688545 -0.20845361 0.13771582 0.24151766
171 0.44345072 -0.054028574 -0.2726176 0.0027375126 0.2780892 -0.19775322 -0.39166334 -0.10476033 0.11041332 -0.1903014 0.19591403 0.05933351 0.21730344 -0.09878964 -0.29974586 -0.26615566 -0.03723893 0.2777385 0.14901286 0.4823944 0.05481956 -0.33201545 -0.011366605 0.15573856 0.10389641 0.48781252 -0.013688736 -0.15865573 -0.21811685 -0.029824745 0.23805346 0.4803058 -0.09023754 -0.019585116 0.3483673 -0.06739135 0.2989875 -0.17716072 -0.016922573 0.2209162 -0.36313763 0.07979722 -0.038300917 -0.07698325 0.022873012 0.17102304 -0.22507049 0.08922792 -0.091608 -0.044141892 0.041404624 0.052257396 0.607721 -0.5574893 -0.10349128 -0.1300524 0.04810535 -0.12378225 -0.051361844 -0.0039792615 0.5087421 -0.038665883 0.39245534 -0.0040442017 -0.28506312 -0.2146517 0.24068564 -0.21588121 -0.13854301 0.27019617 0.32111353 -0.121007346 0.13797757 0.022667319 0.12833874 -0.3306844 0.02609848 -0.46975574 0.22962712 -0.09367717 0.33549097 -0.066288926 0.16332558 -0.00035152436 0.06602552 -0.18245713 0.046605278 0.28175977 -0.21331054 -0.08258895 0.11400575 0.6379658 0.07483977 0.2666581 -0.4278906 -0.1347419 -0.23701185 -0.41275156 -0.13399732 0.26569024 -0.079402804 0.41681397 0.15295736 -0.10063312 0.10287631 -0.22187524 0.07682449 0.15612598 0.11640808 -0.2279696 -0.25073323 -0.045548983 -0.19781199 -0.44153872 -0.15624085 0.03488828 -0.17554928 0.0032016374 -0.42481768 0.22400096 -0.040560532 0.07047726 -0.37606192 -0.13084224 -0.009666547 0.32613185 -0.4376881 0.22504368
47 0.037678104 -0.0126039665 -0.031226393 -0.37106162 0.12674409 -0.5443553 0.30416292 0.2858603 -0.14180918 0.15625724 -0.1753854 -0.057146046 -0.08233077 -0.11294684 0.036021423 -0.12489311 -0.44628233 0.33700168 -0.21411362 0.2142931 -0.113180794 0.09249814 0.15935457 0.05774284 -0.33868316 0.11935794 -0.35722917 0.021839699 -0.12656604 0.4260885 -0.0063073486 0.22536922 0.06546021 0.783441 -0.053843003 0.013287475 0.2045467 0.2381885 -0.17088841 0.2645389 0.31074908 -0.02418254 0.25483403 -0.3648989 -0.10951603 -0.05561819 0.052885823 0.31433618 -0.016482374 -0.028889328 -0.20370808 -0.0027871907 0.31159744 -0.00061668584 0.02738081 0.18030635 -0.029780012 -0.27214643 -0.091993235 -0.4692504 0.30412102 -0.31743965 0.0843204 0.07500367 -0.17892462 -0.028886164 0.12560865 -0.081715845 0.2868146 -0.19872046 -0.031497084 0.29057962 0.26691186 -0.10824543 -0.026339587 -0.24383837 0.44625917 -0.096713 -0.028569411 0.1766118 0.20469119 0.0777876 0.17763212 -0.43906623 -0.10148716 0.124028705 0.112005934 0.09961514 -0.20289801 -0.10861206 0.19211614 0.44985542 0.35872555 0.021662444 -0.4262141 -0.05732209 -0.5000965 0.18261166 -0.31835988 0.35652018 -0.010091386 0.12169341 -0.09247748 -0.2622399 0.14097251 0.32218605 -0.04901353 0.020978397 -0.10647941 0.22073336 -0.45202723 -0.119574815 -0.16697448 -0.2320997 -0.39037302 0.05379423 -0.35764065 -0.096424125 -0.15673715 -0.21839225 -0.040293016 -0.05670935 -0.3187158 -0.12653503 0.020542597 -0.34414238 -0.01387602 0.035756372
170 0.40995494 0.007870011 -0.23743914 -0.14195839 0.39902663 -0.25491664 -0.40122607 -0.050238237 0.13961612 -0.23253967 0.252818 0.07466404 0.22740507 -0.15351862 -0.39032912 -0.28654715 -0.17845996 0.29709423 0.16516413 0.59898436 0.008134134 -0.3977174 0.07883339 0.17555428 0.059186164 0.53135926 -0.03427164 -0.11163234 -0.1565056 -0.04987665 0.17766076 0.56769824 -0.10834835 0.025053522 0.341615 -0.1403085 0.30765325 -0.21340063 -0.02716666 0.19885223 -0.34552717 0.04290408 -0.07255287 -0.13915572 0.0842791 0.2777569 -0.25859958 0.14462546 -0.11578272 -0.101114094 -0.023166819 0.011794041 0.61071056 -0.5508865 -0.059268333 -0.11425952 0.04138091 -0.11997576 -0.100807674 -0.046103384 0.4414067 -0.106523745 0.3536601 -0.1251553 -0.1814584 -0.31222516 0.19159226 -0.25634614 -0.08301911 0.2548682 0.36010453 0.07750515 0.072049305 0.08097497 0.11532974 -0.36809266 -0.0012521781 -0.41988623 0.30705217 0.07981546 0.28017986 -0.024234269 0.16933091 -0.03344525 0.1529345 0.03488379 -0.11965428 0.15691954 -0.11437722 -0.003973704 0.24478282 0.595258 0.010447422 0.21524738 -0.36298084 -0.16126862 -0.18295105 -0.46154174 -0.13298486 0.24393304 -0.10358064 0.48352078 0.10146513 0.027730554 0.05959156 -0.20670368 0.0008794849 0.12712912 0.20327798 -0.22952496 -0.259176 -0.10243625 -0.24084441 -0.3582484 -0.105160825 0.01599528 -0.15819667 0.03329769 -0.43115917 0.20800498 0.043215305 0.030834224 -0.3073422 -0.17188014 0.010349146 0.27209136 -0.5338146 0.20030442
79 -0.11734655 -0.1807752 0.27254567 -0.36719882 0.041405674 0.1273379 0.14020158 -0.035816353 -0.08407499 0.082371406 -0.4684286 0.06030233 -0.059090957 -0.13616851 -0.5138485 -0.2216945 -0.3485806 0.496719 -0.16388056 0.18630776 0.20129184 0.03732222 -0.64400315 -0.0065366803 -0.28402957 0.14646266 0.3320624 0.005861723 0.037979297 0.027560206 0.45140854 0.21815437 -0.06593373 0.07456204 -0.2696696 0.34757838 0.04593829 0.20535877 0.33178547 -0.39041898 -0.2950298 0.18584867 -0.24922857 -0.059755728 0.30439135 -0.019084841 0.09065898 -0.20520842 0.17725216 -0.46910644 0.10777191 0.061824877 0.26061648 0.09754036 0.11227614 -0.27303103 -0.15433507 0.08359865 -0.30233234 -0.30047333 -0.33445743 -0.09373771 -0.18712935 -0.07497091 -0.50269383 -0.3242964 0.021915121 0.23146279 0.12823777 0.34690005 0.38713393 0.20365512 -0.20992352 -0.24699049 -0.0008356632 -0.1458193 0.30654928 -0.4296455 -0.19292022 -0.053459454 -0.14869934 -0.07808252 -0.06819768 0.19162185 -0.00068617234 -0.022728276 0.3181981 0.1906173 0.21120626 -0.4313585 0.39651623 0.18108672 -0.09418111 0.4813825 -0.43271688 0.10824545 -0.08515198 -0.107337855 -0.0750649 -0.11865313 -0.6315102 0.071708396 -0.356476 -0.1171566 0.67188585 -0.4346582 0.10421233 0.12465278 0.1891252 -0.2706876 -0.045161113 -0.7014135 -0.12294165 -0.33709252 0.11882116 -0.44641986 -0.3871002 0.1750865 -0.21858841 -0.16413805 0.20033641 0.12613903 0.05456352 0.050026163 -0.3249937 -0.37491828 -0.097671956 -0.026592439
80 -0.15019466 -0.1558475 0.24183 -0.15133762 -0.10770772 0.100054145 0.15017194 0.0808211 -0.02631619 0.1357054 -0.5441578 0.017711356 -0.10419235 -0.11076941 -0.4270128 -0.2360969 -0.3497668 0.29999945 -0.18070775 0.08772504 0.19275802 0.19684187 -0.53795666 0.008411525 -0.28798354 0.18798243 0.2501813 -0.1580443 0.083940305 0.024018697 0.47275272 0.14859751 -0.08699242 0.069004744 -0.25278512 0.23961161 -0.026182095 0.25786218 0.2662917 -0.18596472 -0.33683693 0.119649604 -0.26946813 0.02765089 0.31358927 0.0082840575 0.06495253 -0.23661749 0.038859755 -0.3880269 0.12123195 0.08888099 0.21515009 0.116173804 0.1850848 -0.11822476 -0.031459633 0.053356573 -0.31638747 -0.23197083 -0.20318405 0.016533762 -0.13066396 0.037511967 -0.45088884 -0.3530151 -0.005610616 0.1683641 0.09055827 0.3237947 0.39452684 0.06386795 -0.27889022 -0.33389384 0.03036652 -0.18107794 0.23548077 -0.4171566 -0.07866381 -0.13715875 -0.09434555 -0.048732717 0.103593305 0.16114417 0.0278423 -0.08991431 0.29356974 0.23500404 0.3080311 -0.4261558 0.39823422 0.24293964 0.009350459 0.5444797 -0.4973433 0.09222457 -0.017559208 -0.1341077 -0.2259242 -0.14111198 -0.63458157 0.17269969 -0.28335238 -0.09269776 0.61710703 -0.3615013 0.108130105 0.0871477 0.17533793 -0.2655124 -0.038771454 -0.5487434 -0.16221434 -0.40594807 0.18771775 -0.3699899 -0.4064854 0.19707903 -0.28940454 0.008750414 0.16355921 0.14611425 -0.07824702 0.13295509 -0.3791836 -0.39394474 -0.111028604 0.055156812
137 0.1951071 -0.22366817 0.45481384 -0.41766188 -0.23324119 0.007711985 0.56691664 0.4671873 -0.20863684 0.6300743 -0.29419407 -0.18685077 0.1360562 -0.28607574 -0.08666861 0.19899534 0.15704603 0.44763902 -0.11893317 0.410022 -0.22082847 -0.09993106 -0.08364148 -0.27410603 -0.34217876 -0.044017803 0.30772027 -0.02711444 -0.106376156 0.08585605 -0.20869571 0.20538321 -0.015961569 -0.028226202 -0.2865507 -0.03737501 1.0544308 -0.035020553 0.30802304 0.07584036 0.31866804 0.14657325 0.06425983 -0.18691225 -0.43844417 0.07052554 -0.049895145 0.12050566 0.10100055 -0.49507788 -0.17750956 -0.05970205 0.38178134 -0.021613993 -0.23599312 -0.58322746 -0.10354058 -0.030119335 -0.023046622 -0.47332227 -0.009355253 -0.38266507 0.07037621 -0.3730636 -0.20706083 0.5051216 -0.4198494 -0.30353528 -0.11158916 -0.007023294 0.23571508 -0.07034172 -0.10980616 0.03860434 -0.4048115 0.25291812 0.010000194 -0.2278182 -0.17548504 -0.18636319 -0.19836167 -0.20910734 0.48664945 -0.19524577 -0.02101106 -0.39298147 0.20553403 -0.06917403 0.47639528 0.07611285 0.5206646 0.15976754 -0.34126925 0.5584247 -0.29107243 -0.009152301 0.6363894 -0.35767093 -0.20743315 0.06725534 -0.044808876 -0.07666149 -0.06239252 -0.014632305 0.3231663 -0.22476278 0.32060498 0.11107255 0.14048412 -0.002374887 0.03988198 0.47574407 0.039977588 -0.29488868 0.56935924 0.031619966 0.049856666 -0.05869547 -0.28559604 -0.09769828 -0.0024820121 0.15716083 0.052434336 0.25401893 0.075802274 -0.3022169 0.08464187 0.18074247
136 0.21705803 -0.37109438 0.39130646 -0.46823364 -0.26305717 -0.04035624 0.58425605 0.5789251 -0.34399268 0.528913 -0.38059756 -0.20459776 0.15640543 -0.24069633 -0.23204619 0.15386432 0.23452164 0.50112593 -0.20766781 0.48320612 -0.22339852 -0.05675564 -0.08440671 -0.20556876 -0.16568868 0.025810473 0.22132087 0.03706139 -0.08137145 0.16582988 -0.19933231 0.1630323 0.00059222215 0.02750179 -0.35709378 -0.06612239 1.0237305 -0.096512936 0.28642383 -0.06982382 0.16458221 0.075677864 0.10790969 -0.14060001 -0.29007825 0.08783156 0.06342605 0.018131658 0.010951549 -0.51582277 -0.08753062 -0.041846853 0.38160425 -0.13866867 -0.31705523 -0.42914128 -0.09581461 -0.011498901 0.07466566 -0.43186086 0.041971542 -0.42555854 0.0816505 -0.395061 -0.14928055 0.33967444 -0.487188 -0.15708125 -0.028543236 0.022319922 0.19029881 -0.10808884 0.021885 -0.030902341 -0.31074166 0.1848223 -0.12464767 -0.24883795 -0.14958386 -0.1849742 -0.25151005 -0.05065525 0.39445114 -0.15846887 0.08490754 -0.2950467 0.22692809 -0.19201438 0.63399994 0.094811246 0.46897346 0.16130666 -0.32552326 0.56726044 -0.30261225 -0.1746398 0.59120756 -0.33109218 -0.19998184 -0.020043021 -0.17859723 -0.2621683 -0.13120711 -0.045667253 0.38907787 -0.04089564 0.39019686 0.18674643 0.18101525 0.027733343 0.028650643 0.33920494 0.0041539357 -0.16806646 0.44271234 -0.0075755003 0.04988422 0.0455919 -0.20855021 -0.04798742 -0.103621185 0.20133941 0.05494791 0.26482463 -0.0060507613 -0.09601452 0.0467619 0.20026626
14 -0.106634334 0.049498122 -0.083982155 -0.30634195 0.15245731 -0.2047577 0.50669277 0.13096452 -0.08303204 -0.054744784 0.03233152 0.013869734 -0.1645172 0.039002303 0.17873055 -0.38143358 -0.5246475 0.028830046 -0.1638467 0.2683769 0.079429924 -0.17209487 0.22346985 0.14042197 -0.14175098 0.019462684 -0.48343787 0.10421845 -0.07356203 0.40203223 0.00072201923 0.3747225 0.056931704 0.41875994 0.097157374 -0.04548247 0.305647 0.3032989 -0.06945522 0.1897497 0.28800184 0.065953456 0.19248466 -0.4013957 -0.29953215 0.06817147 0.23695607 0.24117237 0.07406067 0.020247934 -0.34127575 -0.021502538 0.24905787 0.017605642 0.0010249338 0.10269157 -0.2674763 -0.3237264 -0.22048683 -0.54546046 0.24348289 -0.46451223 0.16370767 0.094750635 -0.18553299 -0.019713609 0.20403245 -0.08230248 0.11921684 -0.056497164 -0.04308614 0.27145797 0.18250476 -0.19040486 -0.09737234 -0.2758842 0.45844772 -0.033744812 -0.10327715 0.103447855 0.19347347 0.02054122 0.22573443 -0.35956097 -0.03911068 0.3013686 0.14680257 0.17960677 -0.19249788 -0.12937637 0.0758884 0.48722965 0.3731794 0.14794423 -0.53310704 -0.06782821 -0.27867785 -0.018091628 -0.4162291 0.27691546 0.20299222 0.20438689 -0.18882741 -0.29139933 0.10325775 0.36469847 -0.04411495 -0.01581657 -0.092571445 0.11353126 -0.3966029 -0.093882255 -0.05666193 -0.29118317 -0.31205532 -0.11872812 -0.2656971 0.034126863 -0.10351753 -0.27375504 -0.093466476 -0.058563653 -0.24197976 -0.2325152 0.111076005 -0.2190574 0.005879439 0.06866025
218 0.47747302 0.07284953 0.020372149 -0.37280443 0.25251123 -0.13646263 0.2904711 0.6983398 -0.02480106 -0.11609548 0.16387317 -0.1442461 0.160684 -0.46981856 -0.44450107 0.04545879 -0.33776864 0.25139752 -0.010334236 0.08626579 -0.018911565 0.012472682 0.05534467 0.4569957 -0.5005178 -0.1708654 -0.15647504 -0.13745914 0.20800555 0.058990706 -0.021797132 0.28340584 -0.042648774 0.1750853 -0.5122223 -0.19133852 0.06478443 0.0388867 0.24777435 -0.21601543 0.44293714 0.25404608 0.22963627 0.058506984 -0.12961255 0.53710335 0.501613 -0.08398817 -0.10734496 -0.076355845 0.0011869844 0.15375485 0.631568 -0.44978097 0.031354666 0.34975058 -0.015154021 0.18591776 -0.22465418 -0.22527061 0.50189686 -0.08183183 0.30484515 -0.25012746 -0.18774554 0.15601695 0.12847272 0.039044768 0.3959915 -0.052067064 0.30178788 -0.100393444 0.41339704 -0.13320807 0.3334371 -0.005684323 0.4030675 -0.23149562 0.1163727 -0.053855833 0.040736623 0.019268548 0.36216635 -0.3710082 -0.3811352 -0.083572544 -0.34301615 0.40713486 0.025933629 0.066461444 -0.14801832 0.37658107 -0.20515631 0.68363166 -0.72951627 0.15993261 -0.60443395 -0.073968425 -0.43281657 0.82967037 -0.38011497 0.36142156 0.4283867 -0.5347591 -0.24933635 0.15259892 0.029000808 -0.04313198 -0.14202492 0.06550718 -0.57676977 -0.26075608 0.19815093 -0.14472273 -0.037918497 -0.51760525 -0.26526147 0.17530888 0.17547141 -0.07650833 -0.017211806 -0.27777424 -0.7294411 0.052990705 0.14973256 -0.044266623 0.04521253 -0.15758991
219 0.606813 0.036621097 0.03243018 -0.54217887 0.28497002 -0.20967095 0.2754152 0.653905 -0.08682499 0.021090811 0.17566517 -0.15347102 0.15965903 -0.5084456 -0.31487823 0.1804528 -0.36568746 0.2571658 -0.025150588 0.06650807 -0.033041127 0.07385423 0.13393623 0.46010345 -0.4354078 -0.078158855 -0.14365701 -0.23750085 0.30945814 0.1333738 0.08475392 0.34053233 -0.045150425 0.21074843 -0.40539733 -0.098240465 0.048539117 0.0039984947 0.2636147 -0.1805816 0.5404015 0.36308402 0.19322848 -0.080843575 -0.0046217316 0.455037 0.54015493 -0.11838243 -0.18107015 -0.18713425 0.05794179 0.21427947 0.5468583 -0.32291344 -0.008034761 0.41060835 -0.0033138292 0.22064131 -0.29612273 -0.19386442 0.4090232 -0.1315124 0.3713399 -0.24383126 -0.13576221 0.14893015 0.025656408 0.024949433 0.344308 -0.101204 0.23720762 -0.0810155 0.47328123 -0.14608923 0.35854626 -0.016994907 0.20777676 -0.08601892 0.15807709 0.0014696779 0.056278307 0.033670686 0.31145492 -0.41992325 -0.3873684 0.012503336 -0.3801518 0.35226947 0.045458343 -0.08273542 -0.06655339 0.3327099 -0.22452645 0.70098203 -0.7207715 0.17209734 -0.6636162 -0.04699578 -0.4576415 0.85938245 -0.41546205 0.44558552 0.32097164 -0.4460888 -0.2959922 0.23138598 0.0013816645 -0.08315255 -0.058840998 0.098763786 -0.4327438 -0.26918676 0.18534571 -0.16992547 -0.03575208 -0.50224304 -0.15140986 0.1371838 0.2777807 -0.010302675 -0.067393266 -0.18451288 -0.69904035 0.13196847 0.12714837 -0.03654507 -0.006660227 -0.11133056
67 0.3879161 -0.014356745 -0.16865587 -0.064036876 0.3791639 -0.20344566 -0.41273504 -0.03466541 0.30394712 -0.23988043 0.17807306 0.074051075 0.35593292 -0.11623691 -0.33817437 -0.27255714 0.025512561 0.32209966 0.15202852 0.5909448 0.11690627 -0.3263713 0.0009911844 0.098076664 -0.15117814 0.52491486 -0.08989171 -0.16751488 -0.19157171 -0.10897061 0.20489076 0.48070157 0.00439209 0.015812041 0.27930167 -0.10001097 0.13194896 -0.20458047 0.08634114 0.21231045 -0.4427091 0.07663821 -0.0663896 -0.14556669 0.030298974 0.37985703 -0.24684991 0.069878064 -0.02533896 -0.07824962 -0.1624969 -0.023956107 0.62342954 -0.4329494 -0.2979904 -0.015126581 0.013546746 -0.17991646 -0.14858338 0.11577568 0.47953627 -0.08091559 0.29765812 0.015871605 -0.26918748 -0.14653064 0.29878026 -0.31127736 -0.0047519105 0.31878048 0.38071653 0.102155514 0.056589447 -0.015942201 0.2314922 -0.20199282 0.16281183 -0.4421294 0.34525558 0.07811134 0.30160502 -0.101095356 0.16415843 0.016650891 0.064051755 -0.09921977 0.07587154 0.18960293 -0.058107864 -0.06602437 0.13155939 0.56579804 0.057368755 0.32791469 -0.4156459 -0.14897572 -0.11000316 -0.48625508 -0.10415715 0.13753742 -0.15421431 0.5057523 0.1760219 -0.11022643 -0.014693328 -0.19733736 -0.04939347 0.23601839 0.12823744 -0.26132694 -0.22970703 -0.020752069 -0.32863578 -0.3194054 -0.062796175 0.13790143 -0.111139975 0.13645618 -0.46804032 0.09589057 -0.0038087247 0.04346891 -0.2107808 -0.010284509 0.056966674 0.3390081 -0.4232893 0.028860116
66 0.3226312 -0.12263005 -0.12828012 -0.15208764 0.47247693 -0.15880528 -0.43787482 -0.03764047 0.15701054 -0.18169224 0.13402186 0.034714803 0.22938003 -0.15452164 -0.43348017 -0.31259722 0.042433042 0.25832927 0.2103292 0.48188508 0.0525256 -0.23537035 0.06145984 0.042079184 0.07271437 0.5125689 -0.08428383 -0.13598166 -0.26221955 -0.067331366 0.37664527 0.53457516 0.0012156898 -0.016322805 0.38827693 -0.017031793 0.28801602 -0.22547108 -0.092010744 0.1721908 -0.45425573 0.05864996 -0.07390088 -0.11115101 0.073356345 0.18564674 -0.22970371 0.1465919 -0.07476736 -0.06334098 -0.12615097 0.1401936 0.6185139 -0.3630074 -0.2028272 -0.11379618 0.11962963 -0.14715804 -0.0442575 0.07954575 0.3996462 -0.059206158 0.2647873 -0.017510464 -0.34760168 -0.31165105 0.31483048 -0.38416097 -0.11252929 0.30309558 0.4566396 -0.10892835 0.09186617 0.036660004 0.004860247 -0.40723372 0.043579068 -0.48054096 0.35520223 0.10010342 0.36061308 -0.11253144 0.15908697 -0.04162941 0.1327837 -0.17318447 -0.05615729 0.26961616 -0.078599855 -0.081323914 0.22243458 0.6372532 -0.0432166 0.3606077 -0.3584074 -0.1635269 -0.09202137 -0.4820185 -0.20227534 0.22843589 0.0031462365 0.47892648 0.19624609 -0.023101002 0.06234932 -0.1725679 -0.054625012 0.18677889 0.18118688 -0.2910383 -0.28665772 0.01936208 -0.31319705 -0.35808536 -0.12088151 0.009677291 -0.14321317 0.074479304 -0.33140498 0.24599211 0.023103466 0.03553302 -0.20206301 -0.2109299 0.053878 0.31082484 -0.38101834 0.12878244
173 -0.06695857 -0.085514724 0.1982441 -0.13822563 0.06267577 0.14781862 0.17401591 0.08738761 -0.044799004 0.046271678 -0.4361698 -0.07049469 -0.11960187 -0.1399554 -0.4446172 -0.15440984 -0.34647933 0.34629023 -0.09273004 0.077405006 0.21287861 0.12811275 -0.5309666 0.064001046 -0.2566704 0.2395692 0.31072235 -0.034635108 0.16785648 0.096108876 0.5223494 0.25739413 -0.14828472 -0.055910304 -0.2527753 0.3270013 0.051149018 0.20576863 0.3779522 -0.17194848 -0.20598167 0.20470132 -0.24045286 -0.15561162 0.2560464 -0.0461126 0.13046798 -0.15618742 0.13410506 -0.5717242 0.14837407 0.08935994 0.24524021 0.16079769 0.12014537 -0.26598853 -0.25425473 0.08273302 -0.35157922 -0.13932337 -0.26015487 -0.06759954 -0.10908673 -0.06161119 -0.52283525 -0.22617829 0.0064479145 0.20310803 0.032401234 0.2716 0.5000096 0.13662362 -0.025847469 -0.25750992 0.023614317 -0.19039288 0.32173234 -0.39070922 -0.18102284 -0.08689185 -0.1694837 -0.1060959 -0.047701962 0.115359604 -0.07870323 -0.016762616 0.414158 0.25060514 0.16726322 -0.5161629 0.4275365 0.124852814 -0.012249176 0.5601318 -0.4997203 0.10029963 -0.14300613 -0.23621047 -0.15805063 -0.2645952 -0.80313516 0.16641742 -0.35101175 -0.18589596 0.6158596 -0.4887816 0.13652387 0.09099116 0.16806485 -0.29273474 0.024854885 -0.64700043 -0.019224465 -0.33256304 0.18338138 -0.30820546 -0.45203555 0.28773558 -0.2243442 -0.026745373 0.18922518 0.050802812 0.0626698 -0.08878287 -0.39808738 -0.30094928 -0.08503745 -0.06461019
172 -0.1222123 -0.1178473 0.22657664 -0.30350748 -0.077163264 0.118154354 0.0014858686 0.072582334 -0.18093055 -0.054827854 -0.53562856 -0.06276308 0.023627425 -0.23661228 -0.5289448 -0.22580211 -0.33327958 0.46553183 -0.05212979 0.16317195 0.243751 0.17449273 -0.6883968 0.06764762 -0.31699646 0.15907462 0.28466034 -0.14506431 0.115526944 -0.013963408 0.47729757 0.16691166 -0.1065407 0.09587915 -0.27207196 0.37130216 -0.013904837 0.25731546 0.31512037 -0.29555127 -0.37446547 0.15543729 -0.28087392 -0.07442051 0.26638907 -0.004929689 0.043855894 -0.4086418 0.08200602 -0.3962615 0.20839871 0.11866025 0.30787537 0.05946863 0.10407334 -0.26190656 -0.16959979 -0.09861936 -0.32400143 -0.26830715 -0.28072342 0.015635805 -0.08473861 0.031311944 -0.5190432 -0.3608338 0.07035733 0.19276997 -0.0005966832 0.28948495 0.3044356 0.031895164 -0.19029063 -0.28523397 -0.017503558 -0.15592271 0.29583418 -0.48405078 -0.17207132 -0.13855517 -0.06718882 -0.11085995 -0.019397544 0.18907952 -0.009438289 -0.01294598 0.3574051 0.1696144 0.20148084 -0.41261956 0.32649684 0.2673071 -0.14917932 0.641031 -0.30683807 0.08859978 -0.16180035 -0.12736487 -0.16449371 -0.072992004 -0.61738664 0.046840202 -0.26915792 -0.029511292 0.68777907 -0.33762744 0.11725726 0.119396314 0.23400983 -0.19672519 -0.09309446 -0.54420334 -0.10934692 -0.37932342 0.12852134 -0.4084146 -0.50883573 0.22596359 -0.2735312 -0.13204446 0.28838888 0.07385414 -0.090105616 0.06873923 -0.33312008 -0.31552693 -0.021574676 -0.0042125504
69 -0.14526369 -0.15757857 0.11957884 -0.18734999 0.03035454 0.084092475 0.3072567 -0.042057697 -0.11313196 0.20512344 -0.47511828 0.045456793 -0.051070683 -0.07626037 -0.5346809 -0.14939484 -0.2453191 0.3560852 -0.17539752 0.0707281 0.09835158 0.16026291 -0.5807504 -0.044661183 -0.20418654 0.1524806 0.25438705 -0.046280406 0.057985846 0.035311043 0.44142303 0.19260977 -0.06391696 0.10759384 -0.26112846 0.3435993 0.053960573 0.21135244 0.2042162 -0.21995208 -0.22576274 0.21636379 -0.22680947 -0.10024596 0.20740071 -0.06939508 0.1685479 -0.23428276 0.20789474 -0.4143542 0.13216087 0.0044284435 0.19127946 0.13623895 0.14934506 -0.24389085 -0.094192505 0.012685553 -0.233781 -0.19606401 -0.18578961 0.049783308 -0.17750645 0.02997446 -0.44996625 -0.3417526 -0.15579863 0.15399829 0.12856953 0.16589256 0.43807876 0.14990024 -0.08271708 -0.29799098 0.012249916 -0.14248258 0.2986418 -0.43306938 -0.20230572 -0.09935111 -0.05139942 -0.027102489 0.028863829 0.11679796 -0.05758237 -0.20142804 0.28984508 0.22151351 0.35206798 -0.49048904 0.51449615 0.20900409 -0.10077243 0.5210099 -0.5014067 0.16090077 -0.10642804 -0.2091606 -0.21408398 -0.09400195 -0.7770105 0.13517538 -0.31628636 -0.15997073 0.7005786 -0.38467953 0.15440461 0.13167071 0.15584728 -0.28220466 -0.17274731 -0.5348415 -0.14825714 -0.45941684 0.08382336 -0.31928194 -0.38897467 0.25217575 -0.30182615 -0.0062796697 0.15575156 0.2049919 -0.020430727 0.08571571 -0.368238 -0.3223846 -0.2070253 0.02916729
40 -0.21603459 0.021747539 0.14126927 0.012643772 -0.1918334 0.1781768 0.16503313 0.22008853 -0.3562377 -0.04798978 0.26381215 0.3176915 -0.10576879 -0.19624905 -0.012888081 -0.46391496 -0.552062 0.08932169 -0.06408961 0.07488304 -0.015889453 -0.39078882 0.15963505 -0.1159052 -0.23793803 0.462581 -0.52334696 0.41285288 -0.10787548 0.25035706 0.14366506 0.38022876 -0.02463123 0.4096269 0.16587192 -0.196227 0.31386337 0.6220095 0.2810264 0.019211996 -0.08291013 0.028971354 0.3939271 0.024065407 -0.5887413 -0.051958162 0.063746914 -0.104402125 -0.19593346 0.002956789 -0.03765451 -0.17031658 0.52496004 0.10866659 0.03940022 0.0248251 0.04312493 -0.48570022 -0.3488128 -0.34800142 0.1650047 -0.04855205 -0.13561958 0.13906762 -0.14420621 -0.4479264 0.13054956 0.17171624 0.0022730047 -0.47236392 0.01988245 0.010717746 -0.10848968 -0.3100656 0.1317585 -0.18463358 0.32554358 0.07444119 -0.35394648 0.24527243 0.36057785 -0.18611106 0.044986863 -0.24835439 0.50441605 0.22184879 0.22295596 0.08371741 -0.14873774 -0.11313523 0.08807195 0.053861506 0.034102004 0.12919883 -0.14021702 -0.277484 -0.10917419 -0.15687393 -0.29783756 0.0862197 0.44648018 -0.039216418 -0.6045896 -0.80412096 0.5103844 0.009656639 0.2540653 -0.19213498 -0.020496061 -0.2711278 -0.41065452 -0.09338645 0.31334028 -0.11535902 -0.41054624 0.24360518 -0.31318772 0.17502989 -0.28155357 0.22795002 -0.12961061 -0.023162223 -0.13951993 0.0022774097 -0.06446586 0.035627637 0.31985146 0.025958763
35 -0.2205818 0.020877646 0.11216825 -0.06516432 -0.17898342 0.028283877 0.27490595 0.10076693 -0.2649902 -0.15589656 0.34121704 0.31421223 -0.163331 -0.17299004 -0.01450525 -0.36168933 -0.64011776 0.03127006 -0.07648988 0.054381218 0.00012470804 -0.39852616 0.10708562 -0.018862598 -0.2092106 0.35770038 -0.48544365 0.4325585 -0.11747895 0.25270516 0.10275449 0.3975741 -0.03989389 0.40783024 0.23114644 -0.27272278 0.31711182 0.59136677 0.19377702 -0.025950057 -0.05415941 0.13377772 0.35315675 0.032724455 -0.44761533 0.10371774 0.20050347 -0.112433 -0.1446493 0.009693163 -0.025365438 -0.10563135 0.5556811 0.09076612 0.004322679 0.12780063 0.045491073 -0.39439446 -0.33142814 -0.40505952 0.10720126 -0.051379878 -0.18291561 0.22650778 -0.30348238 -0.5749693 0.24581648 0.09235283 0.03861281 -0.5257126 0.07807451 0.08832833 -0.07137133 -0.24027967 0.063399635 -0.23581436 0.3154238 0.15763377 -0.26006976 0.19333781 0.24337505 -0.14211617 0.0259321 -0.27726597 0.41883445 0.22043878 0.12418159 0.08200731 -0.16182943 -0.094692275 0.20758419 -0.0010701279 0.011588867 0.13243552 -0.16980498 -0.286823 0.022191469 -0.18888739 -0.3250378 0.11709973 0.4226729 0.076561354 -0.65138185 -0.7526204 0.43202028 0.071275674 0.35827816 -0.21215253 -0.009839053 -0.238469 -0.32786185 -0.0627469 0.27487707 -0.22221437 -0.23979694 0.16037047 -0.22173439 0.1334376 -0.13858251 0.17311496 -0.14957564 0.05628093 -0.093125954 0.03166707 -0.049296454 -0.059581097 0.23642515 0.028198663
26 0.09711976 -0.008153575 -0.14040056 -0.4765757 0.19012478 -0.43852788 0.3173037 0.30400428 -0.21379374 0.13447574 -0.14018214 -0.00831691 -0.1552258 -0.030373354 -0.01056513 -0.096419565 -0.5621128 0.38538864 -0.274879 0.26957116 -0.07045458 0.12156709 0.07442904 0.11380726 -0.43497095 0.05401065 -0.41140205 -0.013438251 -0.04521659 0.30506414 0.03395629 0.2669085 -0.07619856 0.74588025 0.021627042 0.08695413 0.2864588 0.33203706 -0.12406401 0.20137848 0.40122467 0.02173319 0.27362514 -0.41607285 -0.040437415 0.049501576 0.0930934 0.35478628 0.012773296 -0.00869188 -0.22625327 0.09673594 0.2840197 -0.08104905 0.07552303 0.19806096 0.009372227 -0.23900923 -0.122991055 -0.54069495 0.24935172 -0.36170638 -0.003965032 0.063299276 -0.20414707 -0.07193327 0.12483772 -0.13183258 0.38585812 -0.20200199 -0.058591772 0.31230316 0.1634072 -0.07752262 -0.11245395 -0.24897394 0.36207384 -0.077319644 -0.060201146 0.22209106 0.18104245 0.15207551 0.16750264 -0.44991785 -0.10614832 0.22208896 -0.08106091 0.12920795 -0.21628658 -0.20423219 0.22381894 0.48659807 0.3715081 -0.019911923 -0.5258706 -0.0680004 -0.32960406 0.19205317 -0.41449678 0.3659978 0.09392446 0.23736909 -0.26995334 -0.3190366 -0.046391312 0.27549115 -0.034775954 0.043596618 -0.041852623 0.27449903 -0.5066124 -0.070450746 -0.12314053 -0.33435336 -0.3745952 0.19664311 -0.3304473 -0.0632127 -0.029698186 -0.20402761 -0.12341241 -0.047773417 -0.37442294 -0.11567832 0.07987453 -0.30589432 0.09486267 0.026615616
68 -0.1784934 -0.09641644 0.24938886 -0.35150433 -0.08579877 0.009522525 0.22080085 -0.037585884 -0.16516094 0.04381424 -0.51912385 0.0151066985 0.018006532 -0.10231572 -0.37054646 -0.14226325 -0.37078324 0.40657023 -0.09509559 0.14235091 0.23343885 0.049764827 -0.62653565 0.013746823 -0.23485395 0.15881853 0.22299317 0.086929485 0.06828835 0.10038437 0.3462209 0.21047421 -0.06525215 0.0048699994 -0.15460849 0.3338781 0.021128137 0.14985105 0.16417475 -0.30993345 -0.33136603 0.1719375 -0.16030918 -0.18362093 0.18748255 0.0023138737 0.19678146 -0.2366469 0.16311626 -0.45512277 0.19437222 0.09209926 0.17940634 0.23156421 0.1358426 -0.11994287 -0.16742244 0.056294866 -0.19746315 -0.125475 -0.30610138 -0.089799844 -0.31814545 -0.041648507 -0.48075786 -0.36150587 -0.029331805 0.064921185 0.114120685 0.23530197 0.42991772 0.08154858 -0.12597549 -0.25953212 -0.10823449 -0.13563569 0.2986244 -0.5013863 -0.14036985 -0.09497136 -0.13727432 -0.03774717 -0.021338196 0.038058203 -0.05319301 -0.03068294 0.30522528 0.28147116 0.17524214 -0.35755655 0.4386804 0.22791697 -0.07051681 0.57360864 -0.42136526 0.13690689 0.039852332 -0.17328437 -0.29050106 0.025424862 -0.7697126 0.06433529 -0.23823206 -0.053343065 0.60237586 -0.28320456 0.08040612 0.17013822 0.22366616 -0.1961802 -0.14008713 -0.43493637 -0.036846105 -0.38888338 0.21763426 -0.36483425 -0.30296916 0.17634805 -0.20885403 -0.029914958 0.1521171 0.28378326 -0.08813059 0.041162636 -0.29576966 -0.26899967 -0.20808852 -0.021684637
2 -0.11141926 -0.05596059 0.1094164 -0.049759615 -0.12810306 0.06317905 0.16929564 0.18983495 -0.28424364 -0.03688643 0.34721982 0.29741308 0.0015493665 -0.13202481 0.0034687675 -0.34960783 -0.5542868 0.0634065 -0.06512051 0.05027334 -0.0127242645 -0.48432696 0.16503766 -0.14775693 -0.15862569 0.33664712 -0.43956178 0.40208578 -0.14133494 0.22482818 0.15594012 0.41099188 -0.0056037344 0.42714635 0.12562306 -0.12136469 0.34581777 0.5663784 0.36290327 0.045924388 -0.04053244 0.09154053 0.39729756 -0.01900627 -0.60636246 0.07227012 0.16401468 -0.15633714 -0.07093333 0.048516303 -0.008553555 -0.17290606 0.5454876 0.043585427 -0.051382948 0.12796536 -0.04650521 -0.34591782 -0.3015649 -0.34069306 0.124777906 -0.0090646045 -0.11705517 0.20326458 -0.2067673 -0.48437557 0.3053695 0.09979408 0.13568708 -0.4244835 -0.04016415 0.119903885 -0.119447164 -0.20534846 0.1063526 -0.23039435 0.30291647 0.03822086 -0.33211252 0.20107083 0.28556535 -0.112359606 -0.007134113 -0.11062905 0.43179733 0.31429422 0.11511015 0.17896502 -0.116345905 -0.054490235 0.11530056 0.024617577 0.15223838 0.11688121 -0.22765723 -0.2952973 -0.14294611 -0.14246787 -0.32957798 0.11213392 0.49469262 0.0094053075 -0.58840597 -0.73474145 0.50138414 0.014472998 0.32310387 -0.15413922 0.021281103 -0.18913095 -0.39525312 -0.08082515 0.2862511 -0.20077765 -0.3668322 0.15459456 -0.16659236 0.13870241 -0.25423986 0.28106752 -0.16266206 0.05240747 -0.19873673 0.041985165 -0.07542593 -0.012780798 0.2908919 0.027297772
8 -0.14158829 0.112524316 0.06651621 0.013461526 -0.089995116 0.046388797 0.30809072 0.18566823 -0.2878897 0.067917414 0.27172235 0.3531625 -0.10366627 -0.12756377 -0.028395902 -0.40028828 -0.62152034 0.026675876 0.038775347 0.045947094 -0.1203714 -0.47228774 0.060844984 -0.12105222 -0.16661245 0.3839573 -0.425466 0.42090812 -0.067109436 0.2712022 0.013446049 0.43982926 0.039292026 0.46047866 0.08692173 -0.1804324 0.29690626 0.5815443 0.28774884 0.07464366 0.064478815 0.19575967 0.3196011 0.021716228 -0.45476532 0.022561641 0.013564729 -0.12237628 -0.14347532 -0.09046264 -0.032851845 -0.1926801 0.5295932 0.095078915 0.05331498 0.092986785 -0.021104358 -0.4397672 -0.30703244 -0.30687082 0.131557 0.110758096 -0.23569962 0.27004296 -0.18395928 -0.44282243 0.2190149 0.10271692 0.05141612 -0.44709343 0.025934523 0.109169245 -0.14623582 -0.21145794 0.10525305 -0.2624559 0.25522608 0.10569575 -0.27096513 0.1404827 0.30129772 -0.2809466 0.007373549 -0.19332416 0.50963396 0.28300974 0.26043 0.023412906 -0.2559028 -0.16549465 0.21854666 -0.058635585 0.15348752 0.03695725 -0.17320621 -0.30518818 -0.16330366 -0.11603394 -0.3285098 0.15517743 0.43925056 0.071243085 -0.61810786 -0.75223607 0.4580263 0.03091681 0.2619764 -0.20212756 0.06257968 -0.22498871 -0.35158864 -0.044788603 0.23452768 -0.16339323 -0.15343684 0.2337839 -0.26070037 0.23867133 -0.26633257 0.2005778 -0.078324996 0.026023606 -0.08392818 0.10761784 -0.06197066 0.014383623 0.24115743 -0.020818599
27 -0.33504146 -0.03455846 0.52447915 -0.2131535 -0.30436864 -0.16973378 0.057977475 0.169886 -0.10995131 0.20665132 0.052292604 0.2389201 -0.07528281 -0.061897848 0.062781446 -0.38067874 -0.52345437 0.21634807 0.12747099 0.0973394 -0.26626107 -0.40292057 -0.04321169 0.10570517 0.060758296 0.4157164 -0.19080706 0.29257214 -0.076957524 0.2837027 -0.051684633 0.55713964 0.007915313 0.24718647 -0.08915944 -0.20394303 0.1467542 0.15504716 0.18950538 0.18237792 0.23519877 0.098071665 0.3874264 -0.13722992 -0.4385621 0.20667028 -0.08124658 -0.16069031 -0.3669111 -0.21660735 0.041836344 -0.09792594 0.42634875 -0.11793011 -0.10526396 0.32835457 0.020789562 -0.3687428 -0.7157695 0.084039785 0.08715895 -0.18161559 -0.1279151 0.3250917 -0.08765527 -0.35207504 0.19533782 0.4730152 0.11539478 -0.35169083 0.11863756 -0.22161254 -0.4167519 0.096802525 0.16730958 -0.32329994 0.33230945 -0.10564662 -0.1957052 0.027723763 0.20166957 -0.3108677 -0.10410264 -0.5638943 0.5133802 0.011823818 0.18540889 0.16242172 -0.21954484 -0.027363002 0.22637182 -0.2818474 0.18184048 0.25004852 -0.123558715 -0.42830026 -0.31527057 -0.00077500835 -0.14569955 0.32069618 0.45979932 0.14793484 -0.5800347 -0.42621708 0.15791517 0.08281301 0.3821473 -0.26668307 -0.2968219 0.046228252 0.24438678 -0.075410806 -0.29043624 -0.3030365 -0.27198696 0.27508706 -0.0417017 0.0053522424 -0.38231742 -0.11153362 -0.0054924344 -0.23411389 0.091708526 -0.25966033 0.07145628 0.17691542 -0.07939309 -0.20173723
147 0.35023963 0.068115905 0.07207944 0.3581639 0.16477703 0.11115196 0.6531879 0.043426182 -0.1510686 0.4399005 -0.29049194 0.19116813 0.27166802 0.00013968904 -0.030513557 -0.08640398 -0.055961277 -0.024696585 0.058503903 -0.028670043 -0.3149742 -0.08544276 -0.2593617 -0.28198197 -0.1847314 0.3124779 0.24895328 0.42858487 -0.35198507 -0.00418157 0.2450285 0.21424478 0.21751648 -0.011850282 -0.23035266 0.33001518 0.044682764 -0.056741465 0.2628557 -0.26665923 0.037222773 0.023839878 0.1768788 -0.19512044 -0.017493673 -0.00080283463 0.018263573 -0.18829222 -0.026128966 -0.44627452 0.05448639 0.20173888 0.0009720884 0.06822784 0.051879797 -0.010881707 0.55644673 -0.09524694 -0.29386646 0.1527745 0.0492245 -0.050475545 0.009293683 -0.37479842 -0.22858354 -0.2119387 0.03165739 0.026105316 0.19867222 -0.014718547 0.54752916 -0.10256519 0.0004492322 -0.17384748 -0.14027601 -0.09083682 -0.08978055 -0.44934165 0.35823697 0.11526004 0.1821047 -0.05852687 0.23744456 0.18655828 0.335635 -0.017779624 -0.18908074 -0.03105947 0.12812969 -0.051753923 0.15825886 -0.047348887 -0.08052036 0.5613535 -0.56546295 0.3902708 0.059857048 0.28456348 0.35110003 0.42958066 -0.13287374 0.08270262 -0.34254846 -0.08853531 0.30500066 -0.19058852 -0.0073317112 0.47071922 0.5963556 -0.12785104 -0.07062759 -0.12941374 -0.21769951 -0.19463167 0.3998705 -0.17793624 0.1273359 -0.034853213 -0.45087364 -0.17659518 0.10508393 0.30461884 0.1511904 0.3646642 0.09172498 -0.24043031 0.10299594 -0.3703638
11 -0.3504589 -0.033360682 0.63448155 -0.2742562 -0.17339176 -0.2499432 0.028326213 0.14557311 -0.09196419 0.19272174 0.042232007 0.25560293 -0.14301036 -0.076415576 0.0048935604 -0.37532887 -0.482453 0.08635768 0.08536477 -0.02115819 -0.24518728 -0.43793547 -0.052678365 0.09694147 0.06105242 0.3493919 -0.18015797 0.3127562 -0.058146063 0.30106464 -0.08575699 0.58386886 -0.06394711 0.3964252 -0.048909977 -0.17281896 0.13631548 0.10957557 0.21006559 0.22814207 0.21350682 -0.024407342 0.362287 -0.055336908 -0.43390006 0.10946846 -0.05422049 -0.19502857 -0.26935852 -0.24209271 0.040510908 -0.0455502 0.31163666 -0.26837063 -0.14020014 0.1970878 -0.03882387 -0.2977963 -0.6559168 0.017311158 0.01265674 -0.2220892 -0.055093624 0.30978712 -0.10327822 -0.33857802 0.18703207 0.5413324 0.121010065 -0.33556545 0.120806105 -0.3343552 -0.40735853 0.17510644 0.20797324 -0.23785803 0.32617772 -0.13272852 -0.2260495 -0.023036873 0.14797275 -0.34687704 -0.085835434 -0.5682587 0.40388596 -0.04948926 0.24603547 0.14530385 -0.14743434 -0.030387376 0.22488056 -0.34076053 0.116766535 0.23889305 -0.14444655 -0.42258188 -0.41524583 0.046210166 -0.07706422 0.41416466 0.4680914 0.14345688 -0.490043 -0.4670049 0.17413653 -9.8193545e-05 0.45040697 -0.10368095 -0.28376517 0.09805376 0.2510382 -0.049112923 -0.2752161 -0.3009603 -0.29040194 0.2902297 -0.074961424 -0.09451351 -0.37920043 -0.08557287 -0.048173003 -0.27164194 0.03813189 -0.25669506 0.14226237 0.037915796 0.022076642 -0.1628225
215 0.17845567 0.05738582 0.020498835 -0.08895011 0.4960515 0.06704568 -0.038822886 0.16541095 0.13147426 -0.15024088 0.29001185 0.14485 0.2736068 0.015546751 -0.16150796 -0.2242828 -0.39863595 0.10863845 0.1931987 0.06866011 -0.03002353 -0.21094093 -0.0294249 0.3066611 -0.15183678 0.27964675 -0.27949172 -0.07585495 -0.16294445 0.06623857 0.21716501 0.34065726 -0.17431892 0.39577106 0.29367056 0.31993985 0.16466197 -0.20613748 0.27732337 0.03726605 -0.05628597 0.21408877 0.15344971 -0.051009674 0.27044278 0.06867844 -0.0149347745 -0.12991546 0.10619718 0.1266591 -0.082538046 0.2873275 0.5618164 -0.83115345 -0.39220735 -0.14088397 -0.3084999 -0.033551876 -0.1578336 0.09074007 0.34182066 -0.23644552 0.34411627 -0.09222798 -0.30104285 -0.1552841 -0.14339206 -0.08420222 -0.081179455 0.18066734 0.5751564 -0.20076603 0.038733445 0.06407123 -0.14645396 0.17944454 0.20992957 -0.2621258 0.48842773 -0.16003478 0.04174556 0.013442874 0.015498343 0.034323394 -0.025359862 0.0038715198 -0.23592512 -0.0134433275 0.023818988 -0.27630967 -0.28942168 0.17993915 -0.31948864 0.2936668 -0.36420152 -0.3011702 -0.3137838 -0.4476818 -0.090401515 0.52449054 -0.16134785 0.3384504 0.20679188 -0.3530914 -0.18266654 -0.28487778 0.07280378 0.023689736 0.29559594 0.09850603 -0.33160225 -0.14826381 -0.27082002 -0.1964909 -0.08424194 0.0030125966 0.251771 0.11033716 -0.23744074 0.0102332365 -0.10440568 0.23290646 -0.40841067 0.06185911 0.24448289 -0.008976167 -0.18987581 -0.1651289
55 0.0786575 0.020723023 0.11082782 -0.3162911 0.18595004 -0.34529153 0.3302322 0.22660491 -0.16563176 0.076957844 0.072016306 -0.097278915 -0.10186157 0.018875293 0.14811698 -0.1719559 -0.4697409 0.14685619 -0.19698085 0.118957326 -0.110589534 -0.03610377 0.15381134 0.08966388 -0.19443253 0.0039295238 -0.43891087 0.13153207 -0.0017354353 0.31906715 -0.039947674 0.2280325 0.11562733 0.6241813 -0.058283623 0.01786326 0.19638208 0.3153353 -0.08769467 0.31190133 0.2824016 0.07277311 0.17815007 -0.38850623 -0.2220509 -0.01948851 0.05316583 0.28848973 0.06671999 -0.048478875 -0.2648165 -0.0036194955 0.2707617 -0.017402355 0.08642679 0.095689654 -0.1916212 -0.24418949 -0.13167773 -0.3889037 0.27190173 -0.31209868 0.04078529 0.09583955 -0.086961396 -0.14628968 0.20759735 -0.09951735 0.23296526 -0.124765605 -0.03936548 0.287215 0.20233269 -0.11553247 -0.06721522 -0.3870092 0.28092965 -0.11550569 -0.07022638 0.14476329 0.2702869 0.09036805 0.17689204 -0.23115867 0.019691464 0.2574121 0.038099084 0.056081004 -0.19584109 -0.108011946 0.26129287 0.38310555 0.4701983 0.06853468 -0.5064674 -0.0791615 -0.36989248 0.10259483 -0.4136295 0.22020777 0.21514612 0.19009411 -0.16317706 -0.31047747 0.10711879 0.30624998 0.07593108 -0.018105723 -0.08100001 0.2513146 -0.41067564 -0.10724498 -0.05312658 -0.21323134 -0.21227378 0.045012813 -0.32313913 -0.020037202 -0.12838504 -0.27572522 -0.07258117 -0.035068356 -0.20563306 -0.13192737 0.04605278 -0.20525213 -0.048360627 0.035357837
146 0.31315824 0.035403557 0.07242926 0.37867072 0.17429371 0.037831306 0.58186936 0.1614829 -0.20629896 0.39771178 -0.3790904 0.10727053 0.3217263 0.027676625 0.047270007 -0.122167096 0.096691504 -0.0016549967 -0.05315122 -0.0841002 -0.26904473 -0.03349563 -0.291204 -0.34472522 -0.26209795 0.28004804 0.29299122 0.40241784 -0.32106522 -0.04647528 0.17195235 0.11015601 0.26326513 -0.044215377 -0.23578253 0.28261936 0.09193833 -0.03828641 0.18859085 -0.28609958 -0.0053799585 0.008616483 0.14286512 -0.29267693 -0.08645747 -0.005175472 0.05995165 -0.20441777 0.029133797 -0.3750425 0.15131764 0.08740047 -0.07508889 0.13206358 -0.060323387 0.012753139 0.54153633 -0.16639283 -0.2689458 0.101634786 0.05851719 -0.047276646 0.1302246 -0.3202019 -0.23997582 -0.22728963 0.1457691 0.04680273 0.27565747 -0.049997035 0.41104624 -0.11694933 0.00022963909 -0.2382656 -0.062123418 -0.066702165 -0.04005608 -0.52221686 0.36964148 0.04663737 0.25497657 -0.03465016 0.2965341 0.16497846 0.31376535 -0.08232267 -0.11770925 0.033794984 0.062328912 -0.060237005 0.1450456 -0.0110031525 -0.054340273 0.5878557 -0.58705276 0.38708255 -0.013792232 0.31245026 0.42574885 0.5042292 -0.1399546 0.041538756 -0.33860132 -0.088551514 0.34147125 -0.19929737 -0.09959415 0.5563491 0.5002867 -0.2240223 0.016791333 -0.0740985 -0.24232602 -0.23945671 0.26698622 -0.14726478 -0.060260307 -0.080178745 -0.6103359 -0.2664661 0.14007172 0.22352962 0.029532287 0.38818532 0.2221254 -0.16239047 0.105169155 -0.33554748
214 0.060641658 -0.09846234 -0.12593287 -0.009972013 0.45495474 -0.058275934 0.029350081 0.19437782 0.03896687 -0.1149821 0.12340784 0.056083888 0.35361972 0.20440425 -0.12539648 -0.3383352 -0.26813126 0.17860141 0.039209466 0.08966113 0.00023755149 -0.15327482 -0.018950608 0.3469561 -0.11423591 0.24479263 -0.17173561 -0.19717315 -0.19634515 0.11361705 0.20489916 0.27365574 -0.2658652 0.37709287 0.27352813 0.32295978 0.3043114 -0.21198861 0.2998542 0.043899745 -0.14132962 0.21413077 0.19948266 -0.14586784 0.2057815 0.0011534978 0.014110174 -0.14429496 0.07040501 0.07138673 -0.036720935 0.223112 0.59651196 -0.74026614 -0.43711823 -0.15582262 -0.29725394 -0.15146899 -0.23494872 0.052993175 0.4486048 -0.35773838 0.34308925 -0.058178052 -0.2593344 -0.22503178 -0.28227237 -0.057761796 -0.034435574 0.14072119 0.46411094 -0.14770865 -0.038952984 0.09508313 -0.20877118 0.21616863 0.17081107 -0.13965243 0.581886 -0.1645985 0.037742168 0.093317986 0.036677282 -0.070824966 -0.035027478 0.055434957 -0.3059786 -0.06293129 0.06782143 -0.33378223 -0.33699343 0.118655644 -0.31873953 0.27050215 -0.42007083 -0.23886977 -0.395489 -0.5734176 -0.08095599 0.53980184 -0.30005744 0.2996033 0.14691064 -0.2804039 -0.29106003 -0.3363133 -0.05048385 0.013011606 0.2119576 -0.043199006 -0.3444746 -0.10767613 -0.23125388 -0.14306194 -0.3504476 -0.01011655 0.25535852 0.19102648 -0.27778855 -0.07785944 -0.10849347 0.16017352 -0.4360656 0.0107907 0.34021404 0.09783117 -0.21232666 -0.20380306
144 0.25184432 0.0030347523 0.1802922 0.31363428 0.18929738 -0.010994831 0.66321427 0.12220284 -0.18889819 0.4613554 -0.3511037 0.13350615 0.22877055 -0.05461548 0.12623604 -0.11599279 -0.022561355 -0.08980089 -0.09506229 -0.13419354 -0.29914024 -0.018216629 -0.1538227 -0.37975684 -0.17018728 0.26216692 0.27631557 0.51866543 -0.17570505 -0.009762551 0.17310342 0.09551857 0.24991117 0.075469 -0.15056239 0.24295558 0.092315264 0.013256983 0.0767118 -0.32395014 -0.033216875 0.061435334 0.16727947 -0.2186507 -0.0070370603 0.040475313 0.10372536 -0.19426198 0.037268862 -0.33379745 0.15657876 0.12428283 0.015924394 0.027629117 -0.08066586 0.10944065 0.5986989 -0.094532505 -0.24793541 0.039760146 0.038130376 -0.16967736 0.21682318 -0.36438698 -0.22017242 -0.21662176 0.042473666 -0.02773618 0.14220656 -0.062184427 0.5978291 -0.21225154 0.10378406 -0.22412962 -0.07052945 -0.059875768 -0.098473415 -0.503294 0.43011203 0.09482162 0.1633155 0.04207653 0.29996762 0.06218968 0.26583534 -0.07943443 -0.15196355 -0.02740808 0.11909104 -0.06484961 0.09292931 0.015337047 -0.15031354 0.54373854 -0.55057204 0.32736945 -0.035588425 0.29139718 0.41559142 0.43241814 -0.16915074 0.057692893 -0.35346195 -0.016564963 0.46590155 -0.13179582 0.03422721 0.6054572 0.51545185 -0.08152859 0.055576377 -0.016333414 -0.1282875 -0.30803406 0.31669366 -0.16646126 -0.06086514 -0.1555584 -0.5457565 -0.2611006 0.10370069 0.26328528 0.12931226 0.37454012 0.08640702 -0.32561052 0.12522255 -0.29418206
85 0.15067178 0.06708489 -0.07646936 0.3906956 0.07664486 0.052805096 0.6093167 0.11718261 -0.06372712 0.3131711 -0.36250597 0.1326995 0.1935112 -0.16047446 0.07552241 -0.112600885 -0.077080436 -0.03623065 -0.039571512 0.019763153 -0.15993936 0.05850905 -0.42220393 -0.06781924 -0.09277943 0.11923436 0.14783774 0.37383732 -0.40125096 -0.15360633 0.26877165 0.030029006 0.12902556 0.11435315 -0.20746195 0.20530245 0.033146787 0.13126786 0.19795817 -0.27594218 -0.045026004 -0.05922424 0.19875708 -0.1576387 -0.07050744 -0.11156649 0.08331444 -0.15253991 -0.084015936 -0.3450707 0.13459677 0.18292767 0.08419024 0.09998202 -0.060079828 -0.03934294 0.4854885 -0.09153627 -0.15246803 0.2532695 -0.035306264 -0.110148184 0.1787357 -0.3417777 -0.21743079 0.0010112587 0.09918444 0.14863844 0.12733838 0.065677084 0.6337577 -0.14683051 0.15773925 -0.17445661 -0.28778917 -0.01894487 -0.08309159 -0.5975029 0.36225265 -0.034929026 0.16365753 -0.0783022 0.29484177 0.13131747 0.32577002 -0.17100836 0.07237666 0.043608587 0.06751495 -0.20513314 -0.019548772 -0.0044445614 -0.17862478 0.6827681 -0.56319124 0.29075816 -0.10036637 0.2472992 0.43315798 0.38956532 -0.24791208 0.035239585 -0.40340894 -0.25224853 0.5154952 -0.35662395 0.009949998 0.5298062 0.48876613 -0.27104065 -0.027958447 -0.07692176 -0.17556599 -0.096677534 0.24971934 -0.18129687 -0.037047114 -0.0038369852 -0.53042245 -0.17187339 0.2389582 0.3698921 0.093030185 0.4314816 0.09815034 -0.16968498 0.016529024 -0.26358196
192 -0.048541483 0.008170976 -0.035706747 0.16852751 -0.18097074 0.13155153 0.30432323 -0.010836319 0.5464027 -0.11355399 -0.11903725 0.09317581 -0.1964148 0.21858254 -0.16043481 -0.44529805 -0.29310903 -0.08137313 -0.37750727 0.35479468 -0.4602276 -0.31646287 -0.0273085 0.19319707 -0.3950157 0.2884129 0.099033676 0.25420088 -0.35778993 0.25975946 0.038474914 -0.26434788 0.016588604 -0.1146834 -0.11647018 0.3457877 -0.14918599 -0.10173923 0.43999115 0.04526019 0.18054706 0.13944721 0.44120675 -0.2176011 -0.1740792 -0.16903219 -0.003562728 -0.13931061 -0.30704585 -0.014932084 0.123328 0.5318076 0.3277483 -0.050952885 -0.16836423 -0.40774623 0.31471732 0.05958737 0.063649654 0.12446705 -0.037441432 -0.2573649 0.0887429 -0.25404692 -0.015761316 -0.18968378 -0.29877394 -0.010035729 -0.089725114 0.13969743 0.2620176 -0.09136451 0.36237216 -0.061639264 -0.12526321 -0.34110668 -0.5277369 -0.3637448 0.33969483 0.17299531 0.37454602 0.34885752 0.029707855 0.1309509 0.35265556 -0.061182976 -0.31669092 -0.25129464 0.08804192 -0.06593592 0.14290547 0.30695483 -0.25696784 0.40052015 -0.17126025 0.07091743 0.33460578 0.042093042 0.23289041 0.4503117 -0.17138077 0.20221621 -0.21696524 -0.109195076 -0.002964811 -0.23556097 -0.0368276 0.31036195 0.4210885 -0.17512903 -0.23951373 0.027921295 -0.042462777 -0.041889384 0.11413281 -0.17442456 -0.03941314 0.059734378 -0.20615508 -0.14687401 0.06218329 0.40799835 0.12154931 -0.0887326 -0.034329318 -0.01642335 0.0023170908 -0.020935563
84 0.12046989 0.08072421 0.027229348 0.34900334 0.18764725 0.0040516574 0.6922713 0.006517977 -0.16111684 0.5126161 -0.34101787 0.22373727 0.2764722 -0.17298703 -0.017507322 -0.11469264 -0.068133764 0.005942934 -0.106024496 -0.06574252 -0.29808548 -0.044354584 -0.2739821 -0.15440069 0.08064217 0.16181746 0.28304598 0.4470967 -0.27810988 -0.14845301 0.21339127 0.117881484 0.16613793 -0.0049718637 -0.24290407 0.18155895 0.10214407 0.038395308 0.16567087 -0.38805285 0.09337281 0.091338396 0.16122477 -0.12284881 0.060995672 -0.08071394 0.07535519 -0.17744379 0.11226855 -0.32788926 0.1888934 0.14962736 0.13835447 0.09091202 0.011306068 -0.13821346 0.4312077 -0.13564713 -0.18385993 0.06687949 0.048178542 -0.069138296 0.08922689 -0.17181848 -0.20479906 -0.11920995 -0.044241898 -0.0017014401 0.122605234 0.10501126 0.4952878 -0.052682895 0.085452065 -0.15247451 -0.21769267 -0.1282551 -0.08109988 -0.62819654 0.48334476 0.05237203 0.21242385 -0.042738345 0.28869146 0.22261354 0.29689214 -0.02928256 -0.043677904 -0.0633445 0.085864894 -0.16662651 0.10146464 0.05513327 -0.17193592 0.5306075 -0.49885204 0.38902912 -0.15185858 0.20117864 0.5595608 0.37895778 -0.26855052 0.11355841 -0.31508726 -0.14341228 0.4067487 -0.31025764 -0.06800548 0.4042777 0.5251655 -0.25345194 -0.10968779 -0.11506165 -0.1861849 -0.18369429 0.25209716 -0.23169331 -0.119316325 0.051467776 -0.47275767 -0.32458556 0.095728606 0.29003227 0.22582948 0.33217767 0.051632382 -0.2705167 -0.027717557 -0.32757434
119 0.13223852 -0.10762443 -0.01567868 -0.027354129 -0.2278961 0.53413934 0.31133553 -0.04799828 -0.09304315 0.29913944 -0.31021148 0.3740339 -0.015300053 -0.35389686 0.28327724 -0.050082587 -0.03045948 -0.123551056 -0.21115711 -0.039243486 0.24527144 0.12083816 -0.055049017 -0.018617809 0.23179446 0.5676094 -0.16290092 0.2610666 -0.20404376 0.41517344 0.20772503 -0.0346503 0.035506353 -0.23538588 0.19038215 0.41189578 0.047872636 -0.6919401 0.21438046 0.24256542 0.28451732 0.09066931 0.63077426 0.19844986 -0.3288214 0.5208148 -0.043859627 -0.38819942 -0.7029543 -0.32931793 -0.0661921 -0.024763184 0.20013316 0.17152244 -0.3969463 -0.18336317 0.094570376 0.17015834 0.13848956 -0.15051968 -0.33229628 0.1527069 0.24866645 0.23803489 -0.79521406 0.08410763 0.13152823 -0.17620178 -0.096339025 0.2826723 0.14627093 -0.118181534 0.16036406 -0.2747515 -0.13203947 -0.08521008 -0.16433518 -0.09219278 0.37104788 0.10839479 0.15767911 -0.121305734 0.28889197 0.11780964 0.19798154 0.36595258 0.18345779 -0.54489046 -0.32327023 0.0566554 -0.04316089 0.22614034 0.07412354 -0.2959704 -0.42077503 0.4240861 0.29689467 0.48538068 -0.0067417137 -0.17922466 0.15043882 0.18246305 0.08498102 -0.08188678 -0.30422595 0.005368772 0.41220468 0.51875186 -0.106711134 0.34154767 -0.49973086 -0.2277445 0.060403403 -0.20503023 0.29774055 0.25443956 -0.43955326 -0.2151575 -0.44175404 -0.76058453 0.23390923 -0.13930023 -0.14034484 -0.0070706992 0.09162041 -0.040494993 -0.025956938 0.12425474
82 0.13510308 0.070745595 -0.14975692 0.36866993 0.22632009 0.22609471 0.6556396 0.020675298 -0.24127437 0.44109464 -0.29544967 0.21018834 0.24921858 -0.14748211 0.15548056 0.10866256 -0.114496015 -0.1477359 -0.010697661 -0.09234308 -0.063214555 0.02622269 -0.23932062 -0.17641746 -0.03167166 0.1692186 0.18937972 0.37495688 -0.18314864 -0.25656548 0.18066235 -0.018906549 0.17865433 -0.080859244 -0.2107267 0.36066282 0.12275384 0.07826909 0.18462312 -0.3203586 0.05873477 -0.029262325 0.15282306 -0.16033174 -0.1339158 -0.04604417 0.08106136 -0.13977943 -0.15473224 -0.32023856 0.15378085 0.18516947 0.0711908 0.059474573 -0.075151 -0.20875968 0.48185465 -0.10473797 -0.21123451 0.11713556 0.13926016 -0.16419126 0.17244455 -0.34321278 -0.18334143 -0.08045647 -0.0752933 0.112267695 0.118007995 -0.0007260704 0.6566503 -0.11057733 0.1408336 -0.13283102 -0.2665769 -0.08635646 -0.01707413 -0.5495405 0.392217 0.060328986 0.12445118 0.07926649 0.2663499 0.27606323 0.3716787 -0.16129997 -0.14944418 -0.15647142 0.13303125 -0.17780757 0.06445 0.01765822 -0.1584827 0.66008765 -0.5179036 0.33176097 -0.2097159 0.07081351 0.36830026 0.40594342 -0.09032216 0.14698598 -0.3912281 -0.10763005 0.48524824 -0.2324205 0.07010257 0.48330858 0.61228335 -0.12131052 -0.069655545 -0.06972603 -0.08770195 -0.12330948 0.24144295 -0.18691738 -0.04438591 -0.040273428 -0.5550523 -0.30766615 0.21199949 0.17284906 0.1683166 0.32056072 0.069920175 -0.32011122 -0.023135785 -0.36673856
145 0.18834117 -0.016298609 0.056841414 0.36433968 0.12324604 0.035719194 0.5960482 0.1313986 -0.14722343 0.31930086 -0.2621951 0.032399055 0.23215964 -0.053902514 0.092277534 -0.033422083 -0.057331517 -0.011852891 0.03631695 0.017568419 -0.33017913 -0.05665812 -0.28706914 -0.35448736 -0.20876876 0.2878881 0.2814911 0.38387996 -0.20729238 -0.10672143 0.13081986 0.12744755 0.28257087 -0.013848355 -0.30357718 0.27277362 0.051779997 -0.026860861 0.2508995 -0.29605716 -0.051297966 0.0054786038 0.109896764 -0.14819701 -0.0861715 0.0648965 -0.0049045123 -0.21557055 -0.009053604 -0.375439 0.10514783 0.123764254 -0.027964301 0.12452343 -0.08197374 0.071706824 0.5382413 -0.08326838 -0.17825174 0.13701288 0.04162446 -0.1353076 0.09658608 -0.41083366 -0.24491267 -0.26279235 0.015846647 0.047587078 0.13910234 -0.052075066 0.46330705 -0.109375775 0.031241544 -0.21290202 -0.095469296 -0.09355658 -0.07278645 -0.52417386 0.42426568 0.15826969 0.12882255 0.048589077 0.27853933 0.19797146 0.29236335 -0.09768097 -0.10734985 -0.027547363 0.12524456 0.11019517 0.16998707 -0.015934935 0.0039451155 0.5851156 -0.5997571 0.30346793 -0.06565224 0.2705789 0.25992545 0.47484896 -0.070606634 0.10633287 -0.31793654 -0.05796496 0.4744279 -0.23135388 0.059783768 0.5967731 0.57720613 -0.10909673 -0.04442414 -0.063089944 -0.27868044 -0.24299139 0.267007 -0.10847952 -0.098947056 -0.109161384 -0.5301 -0.3084639 0.21687886 0.15166141 0.09813156 0.43767 0.21331754 -0.13515171 0.13958055 -0.3541163
190 -0.015993567 0.10026227 0.03321086 0.14691947 -0.19635788 -0.0045556487 0.105739996 0.009157907 0.55456066 -0.0827968 0.0035620155 0.16670667 -0.23699436 0.044982836 -0.2839104 -0.33712968 -0.2128512 0.009702309 -0.45789668 0.2803131 -0.43057165 -0.26220763 -0.04108923 0.090933986 -0.3474393 0.33773106 0.14238007 0.17546088 -0.19799486 0.1894747 -0.118643425 -0.29560757 0.037353 -0.0037040014 -0.1060415 0.26642483 -0.13946916 -0.0723506 0.44643715 0.024156153 0.1629109 0.03908365 0.4648232 -0.21531923 -0.25731945 -0.11775295 0.0017493403 -0.25263786 -0.3570179 0.03638388 0.23999599 0.5761468 0.39397272 -0.097325325 -0.21297872 -0.3155104 0.31651708 0.011944302 -0.008150281 0.13447124 -0.028370082 -0.3481871 0.1117768 -0.29874074 0.06709273 -0.2081208 -0.30932567 -0.06768533 -0.18020882 0.029394131 0.26134968 -0.17335369 0.37907913 0.025488468 -0.06741493 -0.3044916 -0.5416246 -0.45128357 0.35753584 0.12482647 0.34897968 0.29725736 0.070453994 -0.07781976 0.34628278 -0.101322226 -0.24181582 -0.3358366 0.1122079 0.013068832 0.16288452 0.2624546 -0.3736164 0.37206826 -0.13360986 0.16514589 0.28345886 0.031944588 0.39209425 0.5324701 -0.15626866 0.21552017 -0.17404856 0.06916413 0.051071975 -0.3303377 0.05569395 0.31719616 0.5542593 -0.021114992 -0.18479256 0.057766963 0.09103316 -0.10869961 0.14138307 -0.023473382 -0.08163693 0.062881894 -0.22099109 -0.2653074 0.16308145 0.28118056 0.17047623 -0.10968674 -0.058870684 0.10154335 0.121794745 -0.11113979
6 -0.16701688 -0.0377292 0.18537672 -0.07260606 -0.12835574 0.1846327 0.2158331 0.19654976 -0.3393999 -0.05622195 0.21241266 0.21481036 -0.19088152 -0.088413596 -0.1397447 -0.43728292 -0.44761336 0.14506161 -0.027736917 0.08568495 -0.11869273 -0.3243523 0.07782874 -0.05717287 -0.2560022 0.38437867 -0.5072755 0.33950865 -0.08803295 0.27177235 0.10146033 0.4602889 -0.10061166 0.538159 0.1577269 -0.16731158 0.27846125 0.53556126 0.24784648 0.032352906 -0.06504929 0.1229889 0.30290648 -0.030147167 -0.4870201 -0.043255847 0.12209709 -0.13026348 -0.037669256 0.049633276 0.0002230866 -0.108560875 0.42187452 0.03516711 0.03140805 0.08199704 0.09934716 -0.49119237 -0.34190932 -0.35673454 0.080600314 0.060157273 -0.20806538 0.20118949 -0.21153954 -0.5393989 0.13443126 0.13235332 -0.03326149 -0.52278566 0.01834398 -0.027069686 -0.16994959 -0.19845016 0.045179565 -0.21252847 0.2216903 0.1661197 -0.3033597 0.25613028 0.23119523 -0.23206358 -0.0350954 -0.24295413 0.39806864 0.110303804 0.16534044 0.11226032 -0.16867204 -0.0968177 0.23682135 -0.02448007 0.024767352 0.14996776 -0.22354533 -0.20703357 -0.10892988 -0.18548906 -0.31462723 0.11493162 0.43532285 -0.040956087 -0.60419106 -0.75031537 0.43669862 -0.07499145 0.35937753 -0.107506774 -0.029785918 -0.19173303 -0.32481277 -0.10983337 0.18474163 -0.21722269 -0.34295052 0.27987832 -0.22903064 0.13146451 -0.26613662 0.15700264 -0.1030844 -0.06577101 -0.1871203 0.08583201 0.021587623 0.06385258 0.42274335 -0.014374902
101 -0.08581321 -0.1564618 -0.0076021184 0.20553817 0.47393438 -0.07107868 -0.044854414 0.010546576 0.15108174 -0.18939379 0.072266415 0.26899824 0.37685364 0.28889337 -0.17743744 -0.49548835 -0.19640896 0.37771988 0.036009226 0.065180466 -0.035504118 -0.17238557 -0.08765282 0.30279922 0.0015006275 0.42289382 -0.12320087 -0.16289617 -0.38232225 0.16957317 0.2758975 0.23825647 -0.2140941 0.37989783 0.33595368 0.29716206 -0.010557708 -0.068095185 0.24859633 0.10675706 -0.30932233 0.34613374 0.078013204 0.05960332 0.22252834 -0.09130504 -0.16104895 -0.22875597 0.15668094 0.21018949 -0.049505726 0.14067215 0.48871547 -0.6714519 -0.36771482 -0.27750227 -0.33115175 -0.18069582 -0.23166962 0.090376265 0.34683 -0.3265864 0.07631039 -0.021643238 -0.25503713 -0.21284236 -0.39819804 -0.12622777 -0.11291877 0.23451497 0.5412955 -0.053025935 0.14385273 -0.0014031852 0.0043617915 0.14465597 0.16600233 -0.38600844 0.43136114 -0.1368742 0.09876381 0.04800362 0.027939977 -0.059573814 -0.043632388 -0.093244426 -0.1578833 0.006625931 0.16612267 -0.13899904 -0.30574512 0.2209686 -0.32656443 0.18122041 -0.45749542 -0.36233664 -0.25361213 -0.4135138 -0.22317661 0.6319305 -0.25895342 0.2718559 0.35136947 -0.27679205 -0.27565768 -0.29245242 0.005766878 0.28046495 0.24958766 -0.02261482 -0.56777096 -0.08154074 -0.12859412 -0.11081533 0.1167199 0.0040833317 0.27879247 0.099807985 -0.18181501 -0.31981444 -0.064535275 0.3061936 -0.4319982 0.112025835 0.22316235 -9.717133e-05 -0.018383771 -0.28230244
191 0.022129241 0.21647777 0.02983428 0.13554588 -0.2571307 0.002094348 0.16420205 -0.05745719 0.59591955 -0.07506972 0.024406116 0.3633522 -0.11946431 -0.009795852 -0.25694203 -0.4150681 -0.2998591 -0.12328015 -0.47249702 0.28157908 -0.30647442 -0.22175069 0.10853748 0.15897141 -0.2993711 0.31972104 0.1817612 0.18467797 -0.22351521 0.23664857 -0.047233596 -0.42820123 0.052926242 -0.1708657 -0.09039262 0.32649726 -0.20323095 -0.12443701 0.44764146 0.007460214 0.15457977 -0.026673665 0.4163308 -0.10477255 -0.16832423 -0.18564928 0.014716227 -0.16641279 -0.24089912 -0.033871144 0.23141523 0.5319035 0.27315357 -0.1428926 -0.16389991 -0.45283285 0.22037329 -0.13898027 0.06661894 0.1609227 0.059582703 -0.3509958 0.12634203 -0.29771605 0.10814201 -0.222294 -0.5112508 -0.061547786 -0.12503414 0.02920064 0.36677763 -0.11994274 0.29559407 0.03127899 -0.060546 -0.32537493 -0.5735609 -0.35533744 0.31470636 0.18729061 0.34569547 0.22319221 0.16614297 -0.16618302 0.40008217 0.05132525 -0.22330603 -0.29977736 0.19902535 -0.022781812 0.23513934 0.1967715 -0.1986042 0.3180766 -0.21412033 0.15604962 0.20358524 0.059136417 0.3040868 0.44062483 -0.1402858 0.22195983 -0.10063055 -0.06981473 0.027858598 -0.22959414 0.082117446 0.26162207 0.45912248 -0.038708296 -0.22914736 0.008335441 0.14279832 -0.107226886 0.107522905 -0.019843934 -0.08268024 0.0023165387 -0.291157 -0.10587084 -0.006478265 0.31568453 0.0883607 0.09072444 -0.029951945 -0.023914838 0.09593945 -0.16976796
205 -0.20139846 0.13193828 -0.03940005 0.27783626 -0.1481236 0.1606425 0.17565055 -0.06297258 0.44876176 -0.11566927 0.0067348895 0.18181151 -0.29979742 0.094948865 -0.23592328 -0.49274454 -0.33875644 -0.17331272 -0.5650829 0.2529766 -0.52917826 -0.09471418 -0.13190508 0.20547526 -0.4719906 0.31812918 -0.059401616 0.1863838 -0.1961721 0.11193176 0.1075577 -0.26079518 0.08536766 -0.15023552 -0.07556365 0.4405123 -0.12766 -0.092913836 0.5498103 0.020506535 0.107104704 0.11888739 0.40984565 -0.35913903 -0.28633666 -0.12692946 0.11323224 -0.31773588 -0.3632946 -0.18280849 0.118027784 0.5822257 0.4258659 -0.016453467 -0.26904812 -0.2833881 0.19849826 -0.089081764 0.10523888 0.2092232 0.21092843 -0.2117957 0.019098185 -0.25901976 0.05948768 -0.36255538 -0.27859494 -0.16854532 -0.13116641 0.11418553 0.2880566 -0.20360059 0.3576707 0.04226805 -0.01462611 -0.3401838 -0.527704 -0.27534887 0.21289283 0.19369173 0.38067418 0.30810916 0.14081366 0.049444772 0.3827746 -0.008867344 -0.20149626 -0.30890208 0.15333012 0.0013561893 0.12855981 0.2321815 -0.38176155 0.5054245 -0.1516723 0.12592375 0.3505691 0.06044124 0.30116293 0.48337105 -0.15683642 0.27018118 -0.19342908 -0.07051574 0.096027024 -0.3207847 -0.07777236 0.35735798 0.71663755 -0.10720523 -0.29577014 0.17169017 -0.032361075 -0.055573195 0.19756684 0.04674356 -0.057069432 0.16138047 -0.13877623 0.019316357 0.06333429 0.31978676 0.113059066 -0.10234763 -0.15665111 0.17252424 0.21004552 -0.10935906
102 -0.027802184 -0.06141534 0.03359718 0.15936418 0.5525985 -0.09524532 -0.079426296 0.14190818 0.12297383 -0.27331847 0.012490517 0.05954341 0.51732653 0.26209447 -0.24026057 -0.4231608 -0.25722682 0.28929397 -0.00033157153 0.16390198 -0.09830385 -0.31815332 -0.0067397654 0.091401406 -0.011709683 0.47034314 -0.12537195 -0.19411986 -0.27172092 0.15489659 0.2290963 0.15352352 -0.16728471 0.43046427 0.40953714 0.36552802 0.052628793 -0.18150827 0.23958033 0.020633463 -0.28469694 0.29074314 0.18013102 0.116393805 0.18777564 -0.0074576056 -0.09269534 -0.15677263 -0.031080043 0.21527728 -0.020466346 0.101834476 0.38474733 -0.64948714 -0.34417814 -0.23170033 -0.2736852 -0.1159478 -0.17021984 0.10588978 0.50804156 -0.43225408 0.08139213 -0.043963004 -0.22161502 -0.22857027 -0.39915127 -0.10643649 -0.098644026 0.34935302 0.47476032 -0.15303329 0.1425124 -0.022051042 -0.04512783 0.08759604 0.12097607 -0.2629347 0.5273018 -0.07235441 0.026430978 0.10273836 0.02722826 -0.016520627 0.019142596 -0.06655256 -0.11284386 -0.08187031 0.1436786 -0.13297032 -0.2958919 0.3119411 -0.2151188 0.19986022 -0.4437938 -0.22368294 -0.31215495 -0.5969607 -0.17662767 0.5561445 -0.3146481 0.32065308 0.3005848 -0.37654477 -0.24849385 -0.41187042 0.14863451 0.2809418 0.42381105 0.05075792 -0.4868245 -0.11964152 -0.07075521 -0.048519075 -0.09217135 0.13874644 0.20677665 0.106379494 -0.2693101 -0.12308138 -0.042571954 0.20384805 -0.3839794 -0.0118317455 0.13941869 0.20095493 -0.1968733 -0.13821882
104 -0.33091292 0.009321832 -0.15016356 0.10987271 -0.11315051 -0.034458045 0.47422215 0.0705126 0.02418043 0.115504734 -0.42551574 0.015080866 0.19423307 -0.22888404 -0.31553063 -0.08231034 0.29850668 0.4087745 -0.007737234 0.13272302 -0.044815168 0.3209122 -0.32571897 -0.30233657 0.11933027 0.21144131 0.20250358 0.13073236 -0.11018048 -0.12303496 0.31331754 0.056502648 0.17463654 0.04494595 -0.26588055 0.4560656 -0.11218677 -0.13478653 0.16352758 -0.12351681 0.0009034562 0.36505997 0.17388606 -0.12297188 -0.16622216 0.23037738 0.44834596 -0.34851006 -0.06276424 -0.18524888 0.059529573 -0.0032279498 0.101611376 0.0882845 -0.10486637 -0.21120527 -0.5145213 -0.15602027 -0.12857287 0.0057681887 -0.25881514 -0.20880772 -0.10291551 0.29907826 -0.39923197 -0.2574544 -0.26877272 -0.042122614 0.11811432 0.16381983 0.20687696 0.06567358 0.056427374 -0.26541972 -0.05242491 -0.0008850592 0.38093227 -0.4104616 -0.30846053 -0.28421608 -0.078155905 -0.046823364 0.2656376 -0.20929676 0.03494895 0.15419577 0.27693084 0.32297865 0.5848386 -0.2028096 0.5694668 0.208932 -0.41757336 0.37822503 -0.095037565 -0.019064404 0.3890037 -0.4414685 -0.14471963 0.10424344 -0.44158694 -0.06638256 0.084151454 0.0017340004 0.41929084 -0.00024210486 0.4278762 0.09067666 0.3308923 0.17076011 -0.13279824 0.24945632 0.18133117 -0.5485685 0.41187128 0.20339376 -0.13499564 -0.011529764 0.024309188 0.20580886 -0.010559851 0.13532864 0.054011747 -0.20649727 -0.26825264 -0.14855577 -0.24092984 0.17101656
193 -0.12563477 0.13063936 0.14985928 0.0886788 -0.20669824 0.07950977 0.1954079 0.06166759 0.5043605 -0.04604362 -0.08870964 0.179353 -0.06343622 0.066897646 -0.16486768 -0.36623976 -0.4294028 -0.079404466 -0.4799921 0.24987759 -0.391306 -0.1809785 0.026966665 0.18422884 -0.47862545 0.28247052 0.12466499 0.21956715 -0.24329264 0.23020698 0.08690438 -0.39654335 0.011913341 -0.054605685 -0.16677128 0.36786094 -0.22723247 0.012732145 0.48520043 -0.016978847 0.20929182 0.07365036 0.3646137 -0.14978558 -0.12532987 -0.120257355 -0.0647888 -0.22615877 -0.1974386 -0.016716717 0.107149415 0.62224936 0.3879432 -0.09021146 -0.16264643 -0.31831342 0.40525788 -0.07495003 -0.01346604 0.13545498 0.07193414 -0.29210222 0.0641612 -0.23428445 -0.008650833 -0.16399483 -0.33663693 -0.09321202 -0.10752465 0.1336881 0.2289211 -0.1330568 0.33133957 -0.0034943672 -0.04726306 -0.27591896 -0.50716674 -0.3120771 0.41083774 0.17555477 0.33115497 0.33121264 0.054073866 0.024337037 0.24046232 -0.014697758 -0.2768408 -0.27253973 0.2189117 -0.003399394 0.03832255 0.19609348 -0.22888981 0.3777907 -0.17245476 0.16190442 0.31431636 0.14809859 0.27002484 0.54260355 -0.27402073 0.23878787 -0.07587052 -0.04610559 -0.011535656 -0.28513584 -0.033112306 0.34120688 0.55659896 -0.11256741 -0.31968895 0.09105574 -0.02676055 -0.13571328 0.115555815 -0.08877403 -0.13089392 0.12563443 -0.19948843 -0.09887541 0.122738674 0.34243882 0.032909524 -0.11263257 -0.060634382 -0.01738549 0.078434385 -0.10931128
116 0.08216129 -0.051974464 0.11301243 0.0037645719 -0.26939526 0.54577416 0.32327095 0.051125884 -0.07320837 0.25266337 -0.36483645 0.33686462 0.09352443 -0.3595617 0.26392883 -0.08087606 -0.05645976 -0.045159165 -0.23895264 -0.086393915 0.26419723 0.13149196 -0.06753803 -0.09996274 0.1507671 0.5366433 -0.08512191 0.25563598 -0.21143967 0.39518085 0.12953477 -0.20874439 0.006081558 -0.28196698 0.13380994 0.43509224 -0.026729608 -0.6643351 0.23364706 0.21385568 0.3361871 0.0869162 0.6312265 0.2729702 -0.22994636 0.51081544 -0.14545636 -0.4424386 -0.74330896 -0.35673288 -0.06405311 -0.01704282 0.22214611 0.09482863 -0.4459676 -0.16031696 0.15451944 0.17140517 0.08525604 -0.1351301 -0.32968172 0.18194318 0.28939113 0.23341067 -0.65680724 0.031866297 0.17849937 -0.15261047 -0.07052501 0.21171977 0.0653681 -0.11466022 0.198626 -0.21384884 -0.073871404 -0.09364345 -0.11481933 -0.06536155 0.3164832 0.15009561 0.12054216 -0.1400771 0.34361213 0.12813537 0.23235433 0.41719365 0.15350941 -0.5371857 -0.2715184 0.036829423 -0.0066855466 0.118837826 0.07584198 -0.3178528 -0.39771307 0.4199256 0.27087697 0.50178766 -0.020436263 -0.12809518 0.09444058 0.07472957 0.0197619 -0.058137223 -0.25879827 -0.013413663 0.51364213 0.5321536 -0.08335811 0.36366364 -0.52546906 -0.16993147 0.0302168 -0.20433815 0.22746944 0.20336175 -0.3459885 -0.18424182 -0.500613 -0.6517198 0.2542122 -0.19008961 -0.21216246 -0.18729702 0.14791407 -0.12228011 0.062217113 0.028001796
150 0.37516415 -0.07709225 -0.37528038 -0.10538241 0.4879328 -0.016764194 -0.4784334 -0.16997223 0.0869546 -0.3766909 0.20916857 -0.08227191 0.25563824 -0.11469039 -0.38303825 -0.0927733 0.16217938 0.37596318 0.09018341 0.5271654 -0.0627071 -0.20354955 -0.09146694 0.10914006 -0.02779579 0.64770675 -0.14835249 0.023754874 -0.30501178 0.05800767 0.25141707 0.4985832 -0.0058378414 0.15421346 0.38999447 -0.16112632 0.27538523 -0.3061109 0.036404382 0.20847405 -0.44979435 0.110418335 0.036693808 -0.30320117 -0.022760315 0.24328916 -0.12688012 0.0070044464 -0.12447445 -0.074400514 -0.051522966 0.11553965 0.5514094 -0.41150114 -0.19956367 -0.037841726 0.1355672 -0.19993109 0.039526477 -0.033695906 0.3614411 -0.0449705 0.14404768 -0.29352134 -0.34454787 -0.43110812 0.46585461 -0.333151 -0.24630699 0.24584943 0.3346315 -0.058972433 0.0064441236 -0.10484138 0.069248326 -0.29286668 0.035934985 -0.28850582 0.2444299 -0.08146326 0.32025877 -0.07511343 0.1295315 0.12722276 0.13431972 -0.0593027 -0.06300328 0.048200194 -0.16231515 -0.008471739 0.24137212 0.5525216 0.04774565 0.41888317 -0.2397427 -0.028388387 -0.060696613 -0.40220916 -0.15300079 0.3491231 -0.12914711 0.2807186 0.08930301 -0.13346413 0.17786725 -0.1861987 -0.006688721 0.15179618 0.37674397 -0.31621557 -0.123497464 0.013886379 -0.38175297 -0.33834735 -0.033966124 -0.0207292 -0.2864014 0.12702231 -0.29798958 0.19159235 -0.061889365 0.017703526 -0.2159782 -0.11821882 0.06132101 0.34308994 -0.5629232 0.13798732
96 -0.42407832 0.10168843 0.19948818 -0.13516465 0.031581882 0.1969648 -0.27716368 -0.3993796 0.21791938 0.23994265 -0.18727551 0.17086309 -0.08707878 -0.17771856 -0.021800587 0.3169496 0.25735262 0.11922489 -0.4795794 -0.16789739 -0.13449904 -0.06561201 0.0063101356 0.20489784 -0.24411605 0.33336058 -0.13610211 0.18586875 -0.16500996 0.15875566 0.25617722 -0.013143731 -0.25283027 -0.10514892 0.025548873 0.17657551 -0.033935875 -0.42408744 0.33082265 0.2192569 0.23587362 0.124429025 0.4320733 -0.28416792 -0.33372426 0.18857856 0.07813911 -0.3032334 -0.3948531 -0.51510334 -0.2650906 -0.057611536 0.10272065 0.3590252 -0.71124804 -0.26030752 0.13375868 -0.111695476 0.17426953 -0.18377753 -0.02784643 -0.002479635 0.42355916 0.044422675 -0.7123716 0.11346019 -0.17059033 0.0084372675 -0.39590606 0.2422641 0.19647476 -0.04838082 -0.07473753 0.2592759 -0.1533978 0.023706816 -0.33175653 0.1623161 0.07175191 0.13437691 0.27162296 0.15964003 0.38915786 -0.31078058 0.6422849 0.17754751 0.04839945 -0.535794 -0.44488072 -0.33897626 -0.2961971 0.25073257 -0.13401741 -0.3361838 -0.24651203 0.29187417 0.2909434 0.48345616 -0.1125441 0.045287974 -0.038178045 -0.08623133 -0.074430734 -0.22021513 0.050464373 -0.19452612 0.24401936 0.25216663 -0.13985583 0.23350866 -0.07818657 -0.21096984 0.452059 -0.15922491 0.39666542 0.16926278 -0.49692616 -0.16060527 -0.2735758 -0.5976545 0.23920564 0.05679471 0.17575863 -0.016906675 -0.17033978 0.41010472 -0.053791042 0.16505912
203 -0.18087363 0.15752536 -0.16316752 0.3343323 -0.19428582 0.17953888 0.18516088 -0.12542294 0.5125241 -0.07044763 -0.06998502 0.32517177 -0.12677296 -0.050918076 -0.118116796 -0.31577873 -0.2544334 -0.04528052 -0.53449345 0.19952202 -0.655535 -0.07833161 0.01657543 0.040532157 -0.37196097 0.43281582 0.071159825 0.25261077 -0.20265879 0.1477031 0.06548008 -0.41192785 0.11973349 -0.21923903 0.06803289 0.23617926 -0.14584915 -0.22838032 0.5051792 -0.04227192 0.14353022 0.15176368 0.5874004 -0.24767666 -0.19482514 -0.18254429 0.1299474 -0.34741443 -0.40104514 -0.14446115 0.14884017 0.5879755 0.4050604 0.017996423 -0.2535967 -0.38814119 0.29779923 -0.08551307 0.15190049 0.1098539 0.19313519 -0.23231359 -0.02706643 -0.36521304 0.12311788 -0.3221042 -0.34292465 -0.21849158 -0.17363724 0.08314325 0.46777007 -0.3582227 0.34437653 -0.10597773 0.098020844 -0.32076275 -0.39607197 -0.34434763 0.17051813 0.24635215 0.45818686 0.30592674 0.20277898 -0.10746042 0.31189615 -0.051510796 -0.2219516 -0.3107734 0.19997677 -0.005008997 0.10247588 0.33057135 -0.38330817 0.5243062 -0.081656404 0.02802982 0.32333326 0.04695953 0.10405157 0.64366966 -0.3540793 0.16254056 -0.17299415 -0.27419147 -0.033655923 -0.32952768 -0.08013911 0.364364 0.5875599 -0.27326417 -0.26377034 0.2782451 0.047494873 -0.06830313 0.16384895 0.004878916 -0.15238497 0.21806434 -0.20513618 0.011514761 0.014715336 0.37010393 -0.029597046 -0.18342918 -0.12707798 0.051591847 0.22729693 -0.08307537
83 0.18230817 0.117064245 0.017195223 0.39618006 0.17328042 0.14117792 0.6022407 0.11519781 -0.22941588 0.3442363 -0.24779302 0.1394529 0.22661357 -0.15964095 0.14924783 0.053171422 -0.02255942 -0.035737608 -0.017835852 -0.026461551 -0.16741195 -0.07652257 -0.3160063 -0.28858417 -0.13253829 0.26973492 0.19079491 0.42146197 -0.24759762 -0.1119896 0.078255355 0.02866873 0.1402452 0.036468066 -0.17324519 0.30130753 0.08921212 0.016134616 0.08910104 -0.32996228 0.058196414 0.01762023 0.168843 -0.164252 0.012766352 -0.029289775 0.0658354 -0.101401955 -0.13005325 -0.29232243 0.21842493 0.09272858 -0.064679265 0.07248187 -0.054350525 0.035410933 0.48609477 -0.023271292 -0.11570792 0.14058489 0.04480164 -0.19805785 0.23314592 -0.36369053 -0.2239827 -0.103042334 0.030930452 0.11995553 0.20626515 0.008167201 0.52768886 -0.0561116 0.18306176 -0.25120685 -0.17098767 0.019140694 -0.086870335 -0.4544974 0.4607999 0.015009766 0.12869528 0.013393953 0.34573627 0.12012379 0.3590583 -0.030401068 -0.08155902 -0.1427703 0.0728737 -0.15044226 0.047629267 -0.006380039 -0.13526954 0.5277116 -0.48603007 0.3169919 -0.16994952 0.24419932 0.44106036 0.4053363 -0.17763935 0.064982735 -0.31663197 -0.13874699 0.44879118 -0.22111122 0.059482526 0.52922 0.51424235 -0.12444052 0.031917516 -0.19405924 -0.056887206 -0.012172411 0.22927123 -0.19075991 -0.15552278 -0.12648262 -0.5360939 -0.36107314 0.1782512 0.21953951 0.13306254 0.3638248 0.18555227 -0.18169029 -0.10963032 -0.31997725
95 -0.43693703 0.18598433 0.23447931 -0.028411474 -0.017548908 0.15008453 -0.17757054 -0.3062412 0.19355398 0.26335502 -0.25464433 0.14440754 -0.12696494 -0.2548923 -0.035190944 0.31027168 0.25503293 0.08154369 -0.5209396 -0.21610443 -0.08561783 -0.016665949 -0.021910096 0.19226645 -0.1979707 0.34317404 -0.15290214 0.108455956 -0.19439936 0.10443106 0.20220137 -0.09480498 -0.23001885 -0.20907529 -0.056254234 0.23943058 -0.06398876 -0.4684099 0.29226792 0.29254594 0.2838679 0.0962202 0.45553455 -0.30592662 -0.3163781 0.109531365 0.048071634 -0.19791356 -0.52395463 -0.55124986 -0.26348764 -0.030016256 0.23857854 0.44021133 -0.7198134 -0.39449963 0.07474597 -0.08882196 0.2159106 -0.12912187 0.046837457 0.01818654 0.5043237 -0.015570887 -0.61665964 0.09166141 -0.23091026 -0.04589443 -0.44869354 0.25563696 0.28349757 -0.041893426 -0.029926836 0.34858117 -0.13559748 -0.11116624 -0.29201 0.061369278 0.16013025 0.19555329 0.29142234 0.099897176 0.46276826 -0.30774704 0.7785892 0.18101929 0.0856239 -0.538404 -0.48592287 -0.3197718 -0.27758202 0.27224216 -0.085152514 -0.28802776 -0.25603357 0.279134 0.121172324 0.4400516 -0.10946525 -0.028816355 0.039670624 -0.13704194 -0.107989945 -0.20124568 0.055649426 -0.20518173 0.20644584 0.25151867 -0.12664166 0.15176862 -0.11455123 -0.24104561 0.48922953 -0.07311328 0.40856314 0.24095327 -0.48693097 -0.1636725 -0.39931688 -0.60620964 0.34683368 -0.021215027 0.16462459 -0.20069754 -0.17346634 0.38026983 0.041130435 0.16159026
117 0.17587171 -0.11628362 -0.09501346 -0.028220296 -0.16627717 0.42045143 0.26482207 0.03554266 -0.103440255 0.29717746 -0.32421187 0.44744107 0.0724555 -0.40531093 0.25002378 -0.032074224 -0.0892657 -0.049837165 -0.21902451 -0.00828444 0.27146542 0.1571215 0.034200396 0.035529025 0.32398897 0.6086923 -0.15975326 0.21875939 -0.21629576 0.4140864 0.24296208 -0.099313006 0.02764494 -0.20751078 0.12334847 0.41600406 0.08695533 -0.7804034 0.2983845 0.32586858 0.39986458 0.006822794 0.78016186 0.19721949 -0.29440835 0.49490428 -0.036994167 -0.38850585 -0.72006667 -0.41927564 -0.027031355 -0.093285754 0.14759706 0.18117176 -0.3721209 -0.23847193 0.08836306 0.29560947 0.18429212 -0.16397013 -0.34230408 0.1781645 0.26304546 0.21656047 -0.61653733 0.0907653 0.08549632 -0.029554533 -0.061216388 0.20868015 0.12767746 -0.072627015 0.16502382 -0.18470919 -0.108578056 -0.091576785 -0.15279211 -0.076832 0.3983921 0.11981508 0.096893825 -0.13252826 0.1844778 0.13697834 0.25350502 0.52420205 0.14751686 -0.60718286 -0.36933523 0.022474475 -0.030434275 0.15324448 0.115761705 -0.3220673 -0.43625298 0.39182445 0.0787681 0.4531409 0.07665931 -0.18334883 0.19724476 0.075727396 -0.0893437 -0.0983338 -0.21456452 0.019192792 0.44565645 0.52968395 -0.121964425 0.27288982 -0.3700709 -0.29199743 0.037252087 -0.21196501 0.18971108 0.2584279 -0.39155024 -0.1509586 -0.5500891 -0.6514577 0.30807087 -0.1444921 -0.30635613 -0.053437963 0.038179424 -0.09034837 0.03354339 0.062460188
120 0.025086932 -0.067742094 0.03934651 -0.074762866 -0.2398904 0.5550728 0.36982062 0.021265516 -0.15272127 0.36208346 -0.3334395 0.43904537 0.10234958 -0.35489556 0.276954 0.0046004145 -0.0035129387 -0.09596373 -0.27673474 -0.06260223 0.263789 0.1171819 -0.033980314 -0.018207487 0.16821894 0.700843 -0.17331153 0.22307079 -0.27429822 0.45279422 0.23752344 9.63762e-05 0.0037739673 -0.17330235 0.09176233 0.44008893 0.07108576 -0.76468295 0.25532126 0.3234631 0.29219604 -0.033894118 0.7789086 0.23856944 -0.3253376 0.4883887 -0.053666435 -0.40636468 -0.6368356 -0.34995332 -0.122868046 0.08649038 0.19192329 0.169796 -0.28873345 -0.22356063 0.14657068 0.23537171 0.092191316 0.049192455 -0.3888876 0.16388343 0.22085796 0.23957336 -0.7167938 0.02562298 0.08007205 -0.15986338 -0.0866231 0.3045366 0.10991512 -0.08859371 0.1764787 -0.18894412 -0.12056632 -0.10987901 -0.1674495 -0.15592395 0.44646627 0.17513941 0.17017403 -0.11207639 0.34284306 0.16348408 0.23629487 0.535156 0.07641589 -0.6007767 -0.28607297 0.046639267 -0.014028984 0.19753598 0.10132851 -0.44100842 -0.46149585 0.50672233 0.2403248 0.5528575 -0.062737435 -0.2444202 0.113386154 0.120500855 0.02138208 -0.11094731 -0.2837866 -0.056498762 0.47992793 0.4832858 -0.14972216 0.37155783 -0.54616624 -0.31692287 -0.019495863 -0.1912829 0.26839694 0.21867837 -0.38393155 -0.21561682 -0.5226078 -0.7182368 0.26430348 -0.12357888 -0.2811512 -0.055515293 0.18865843 -0.13529661 -0.055738553 0.03210385
204 -0.1849551 0.17916244 -0.10012415 0.26455384 -0.1657279 0.16329257 0.17046656 -0.008464719 0.5201566 -0.11624174 -0.046409216 0.28785157 -0.24188066 0.07152572 -0.1710406 -0.5210252 -0.24533303 -0.026064366 -0.5844188 0.3296928 -0.5078738 0.008578738 -0.14470464 0.18902586 -0.36712876 0.47292423 -0.07121945 0.1985934 -0.11851016 -0.011248681 0.033144835 -0.4159407 0.1419753 -0.23869462 -0.033634607 0.38053688 -0.025542963 -0.18979548 0.53210413 -0.07417331 0.23687702 0.08657951 0.42671737 -0.32620758 -0.22868405 -0.26310655 0.15893061 -0.27168414 -0.35669434 -0.21985674 0.3305664 0.6204856 0.40937942 -0.025107319 -0.20698242 -0.23373768 0.2653398 -0.084216945 0.09856517 0.2542041 0.10199577 -0.18171708 -0.041504323 -0.36971888 0.27673423 -0.1791448 -0.41062844 -0.149901 -0.15020616 0.14613654 0.3970825 -0.26699972 0.27996948 -0.08014977 0.051072545 -0.2779835 -0.52479714 -0.26916787 0.25253308 0.18455644 0.3598793 0.23203689 0.20300114 -0.11906069 0.4601641 0.050581228 -0.20187706 -0.3499585 0.13387632 -0.000559529 0.062305573 0.28549603 -0.4340059 0.53725207 -0.24165908 -0.09153699 0.39862895 0.08285736 0.18140024 0.5495409 -0.1450449 0.24630292 -0.252718 -0.03635426 0.11541231 -0.23303506 -0.123725675 0.36466467 0.7068778 -0.1295318 -0.34348023 0.15246934 0.038239148 -0.021824993 0.16690724 0.21662518 -0.124154866 0.22586395 -0.2753341 -0.17500608 0.07336062 0.26494178 -0.025255943 -0.108732246 -0.06132119 0.14700417 0.36327565 -0.070820704
97 -0.51163065 0.16992012 0.21477371 -0.16353905 0.055591322 0.12616186 -0.16030775 -0.28542444 0.17422646 0.3207796 -0.28023392 0.09845473 0.05665199 -0.11871424 0.020298721 0.2681647 0.28308934 0.17286298 -0.5102457 -0.11168341 -0.064145364 0.032573767 -0.06507582 0.26797977 -0.31631646 0.31169564 -0.17166954 0.16573958 -0.16659357 0.11914691 0.22013675 -0.13541652 -0.21739207 -0.08099489 -0.056158237 0.21540086 -0.012558046 -0.44972444 0.32282287 0.23952298 0.17431934 0.10748462 0.5145972 -0.30232874 -0.3865496 0.22506532 0.048579916 -0.2298596 -0.4707942 -0.56225413 -0.30589896 -0.09770858 0.20008124 0.41260812 -0.7826587 -0.3022436 0.069849774 -0.1318789 0.15010476 -0.13291642 0.0066625886 -0.03932935 0.34040815 0.058146868 -0.6345996 0.12043044 -0.20664719 -0.008933473 -0.38865945 0.26009476 0.1840473 0.035120204 -0.085541695 0.38455555 -0.14614776 -0.03004544 -0.27562 0.23509945 0.15004799 0.24531889 0.2340913 0.1458348 0.42066136 -0.29950127 0.70441985 0.25843295 0.10225349 -0.6058414 -0.50186646 -0.2634656 -0.36235753 0.1347137 -0.05468943 -0.36707243 -0.17634147 0.30069125 0.1812822 0.43587974 -0.069644585 0.0057832296 -0.016709983 -0.11323168 -0.10221376 -0.15618499 0.1391904 -0.1970778 0.21956164 0.28568432 -0.050088946 0.28952968 -0.09993405 -0.1889208 0.43977895 -0.12867764 0.33323509 0.32501632 -0.48745564 -0.17517471 -0.33294186 -0.532484 0.30579162 0.012022145 0.06889145 0.0049928986 -0.121365786 0.4133255 -0.039769936 0.13907744
149 0.48690045 -0.07030312 -0.3539562 -0.015702106 0.6375985 -0.12977177 -0.4395666 -0.094152346 0.11517456 -0.41272715 0.25096104 0.05023616 0.34364542 -0.0985713 -0.38531032 -0.15790227 0.03333621 0.30655864 0.12320957 0.5301314 0.02821136 -0.25967646 -0.13013752 0.12024897 0.095941715 0.6199513 -0.28119504 -0.07050978 -0.22742277 -0.050337303 0.22260752 0.4598042 -0.015650777 0.07758832 0.40005904 -0.047299746 0.3711207 -0.32438976 -0.06691518 0.2979187 -0.37656957 0.18040909 -0.10022327 -0.25683236 -0.08375274 0.22377983 -0.21796572 0.0332232 -0.07096377 -0.055062916 -0.017747076 0.06918641 0.60885334 -0.4742117 -0.19194616 -0.18014131 0.060491703 -0.20091379 -0.06688712 -0.027475689 0.3873012 0.04970608 0.1872848 -0.13606173 -0.25206873 -0.35947976 0.23693928 -0.30771473 -0.13931972 0.33899456 0.2975571 0.008498204 0.06010176 -0.05032152 0.054029476 -0.40948945 -0.09135146 -0.418191 0.21935773 0.0060716905 0.3472092 -0.10377172 0.11225957 0.1863717 0.24863058 -0.027871607 -0.14437437 0.09884092 -0.25503543 -0.05386423 0.36279315 0.6141255 0.1627271 0.34018636 -0.39478874 -0.027290601 -0.21356642 -0.36145592 -0.17216066 0.28114918 0.070893556 0.49033102 0.06662965 -0.1359959 0.16533867 -0.17891555 -0.08148224 0.112969846 0.32275522 -0.26124808 -0.23447883 0.0016635095 -0.4015422 -0.3390874 -0.07310468 -0.027367443 -0.30228198 -0.008519433 -0.39782172 0.10530497 -0.12302469 0.003137954 -0.29111272 -0.026555987 0.035449386 0.3172965 -0.5066506 0.13151959
121 0.11441372 -0.005458243 0.0076108687 -0.019125074 -0.2401755 0.4745062 0.2926908 0.025457479 -0.0660606 0.24061373 -0.33805838 0.45638385 0.013752273 -0.3825149 0.23426506 -0.0084075965 -0.1058706 -0.14124903 -0.2581443 -0.089344755 0.24172719 0.13705945 -0.024578186 -0.07251567 0.24028829 0.6427678 -0.12951142 0.18456995 -0.2508208 0.49269706 0.15695307 -0.1280243 0.057485227 -0.19111022 0.19001564 0.41081938 0.019683953 -0.7892403 0.16516516 0.32420075 0.3668669 -0.032805122 0.73757464 0.20010269 -0.2711344 0.48389322 -0.13167147 -0.46616024 -0.75477123 -0.40261543 -0.10196062 -0.058395382 0.21943048 0.20329753 -0.31486014 -0.19003738 0.11559068 0.18467125 0.10946414 -0.078695424 -0.32742867 0.08959039 0.2018937 0.19935666 -0.65888286 0.13156956 0.100302 -0.18840885 -0.08409435 0.25639516 0.112129115 -0.03650213 0.26019704 -0.22886631 -0.096456245 -0.11783226 -0.09336058 -0.09812882 0.37317917 0.18785861 0.12083625 -0.18269897 0.30717644 0.0041996776 0.24589163 0.4457212 0.1833676 -0.64650327 -0.29724815 0.018269023 0.039992094 0.20007053 0.056094803 -0.33396104 -0.3939891 0.45912328 0.2286681 0.52456087 -0.0044203848 -0.1731632 0.12965614 0.15106112 0.03631691 -0.050715085 -0.31020802 0.014684727 0.40863323 0.50562775 -0.09974492 0.28846958 -0.5313313 -0.30612183 -0.011195909 -0.1627583 0.21580955 0.21989848 -0.4126896 -0.18442693 -0.486937 -0.77868855 0.3026525 -0.1567559 -0.21831802 -0.17796125 0.12642409 -0.102602094 0.01089809 0.05680177
176 -0.079421766 -0.15697485 0.4769562 -0.4742636 -0.051356826 0.09860754 -0.09208381 0.1450782 0.36921135 0.5394171 -0.2721906 0.24553314 -0.008632983 -0.19201842 0.008234774 -0.04508384 -0.024435641 0.28623894 -0.7505469 -0.12576579 -0.117189124 -0.20937419 -0.04383877 0.17898947 0.2882471 0.315693 -0.18181638 -0.011120371 -0.17740501 0.5001228 0.44794106 0.082284495 -0.14459725 -0.47336563 -0.0058264667 0.45075434 -0.005157306 -0.5212182 0.21180627 0.5352292 0.44335908 0.05067284 0.15614554 -0.057126857 -0.3413526 0.27589217 0.22420834 -0.22468042 -0.42812976 -0.2731387 0.1499515 -0.1670204 -0.15507714 0.29656827 -0.6046392 -0.26310483 -0.013182401 -0.037275583 -0.02183413 -0.11285876 -0.3503221 -0.104878366 -0.17087156 0.08753684 -0.64132047 0.09387369 -0.05694004 0.17251395 -0.29901314 0.40906054 0.43004295 0.0055343197 -0.29787987 0.07968541 -0.047920484 -0.08677005 -0.23940441 0.451673 0.07476514 -0.122491054 0.29881606 0.09961259 0.2943536 -0.4840901 0.59659314 0.2623298 -0.036642026 -0.6727967 -0.10958048 -0.1618261 -0.2322034 0.11788989 0.2607618 -0.30124307 -0.3220327 0.27437997 0.17721139 0.36624962 -0.23262554 -0.0029750222 0.15941857 0.12932983 -0.01463047 0.15144718 -0.006195749 0.027662978 0.12812099 -0.02912527 0.0854092 0.37668207 0.024726802 -0.29093122 0.547497 -0.1707072 0.2897877 0.01721667 -0.5964817 0.04417049 -0.2611491 -0.74916995 0.22216482 -0.15152368 -0.13362199 0.15866135 -0.07395855 0.23870227 0.21065778 -0.042067803
103 -0.25382534 -0.007503217 -0.161504 0.22012658 -0.09069281 -0.02166061 0.45430568 0.17501175 0.042627376 0.06897307 -0.45382723 0.015212323 0.07587218 -0.13797852 -0.24609877 -0.16300352 0.24894077 0.47142434 0.0144864265 0.11760316 -0.108551644 0.24762693 -0.3700438 -0.24716298 0.117653556 0.3637595 0.17209023 0.09245834 -0.11834467 -0.047535814 0.27710724 0.15695201 0.15674542 -0.028093608 -0.25374424 0.5243214 -0.04386158 -0.123845614 0.015659075 -0.13296543 0.040682256 0.530822 0.03074581 -0.26328692 -0.19397208 0.1386503 0.45362198 -0.25867268 -0.018381858 -0.23141038 0.18398103 -0.07967188 -0.05710122 0.09013554 -0.061362296 -0.35318926 -0.55209035 -0.13067071 -0.16860995 -0.07375978 -0.23834588 -0.14481227 -0.09844909 0.1789062 -0.24670583 -0.24569038 -0.4131084 0.059462644 0.041999206 0.0948775 0.1594019 0.022808889 0.15267959 -0.22326425 -0.1045338 -0.045033667 0.2797132 -0.47357988 -0.36526936 -0.26876056 -0.13164161 -0.08395103 0.12471643 -0.14969505 0.041892234 0.02287086 0.2346369 0.3714943 0.31827927 -0.24121493 0.6444562 0.19169587 -0.40534937 0.34299237 -0.22021085 -0.0055950447 0.30137572 -0.49449766 -0.12524322 0.23427694 -0.34975696 -0.03751249 0.09876923 -0.02568079 0.4414381 -0.021405108 0.35677043 0.16413434 0.31697294 0.22720335 -0.12848364 0.08207834 0.21120311 -0.5696595 0.5327631 0.23584998 -0.10780267 -0.070517845 -0.012818979 0.026529504 0.0009810886 0.20054126 0.07398817 -0.12893617 -0.28399548 -0.10769221 -0.18825783 0.17535049
