222 128
153 -0.029982531 -0.031215435 -0.14757064 0.1305423 0.2537651 0.26144347 0.19059943 -0.31707132 -0.2125943 -0.14140417 -0.24498186 0.1608242 -0.11371688 0.0500276 -0.6998103 -0.07072274 0.17145388 0.31356487 0.27523914 -0.21831654 0.7756139 0.294403 0.18433812 -0.07939188 -0.052191507 0.25389165 0.42659354 0.34009236 -0.1673764 0.401818 -0.502527 0.23657429 -0.1733507 0.11423895 0.33253127 0.28239113 -0.6127961 -0.30663 0.44739926 -1.1313021 -0.2729291 -0.04641356 0.48693934 0.22983518 0.25508302 -0.09406527 0.16876276 -0.5057111 0.26753664 0.040334366 -0.6143731 -0.12267506 -0.20431066 -0.4551564 -0.07834186 -0.1468008 0.10849844 0.15491986 0.63014066 -0.09799674 -0.1041673 -0.24534786 -0.509586 -0.39975324 0.039276876 0.25816265 -0.6340054 0.15311863 0.092462525 -0.25315148 -0.42241883 0.07134811 0.024423022 -0.10101377 0.19086985 0.24417308 0.15254831 -0.33176026 0.22785144 0.25910833 -0.123343535 -0.055945076 -0.19450834 -0.47506428 0.10602616 -0.21664491 0.65273476 -0.5613324 0.1041656 0.5976833 -0.02263069 -0.34713733 0.24140422 -0.3061667 -0.17262937 -0.13430373 -0.17003272 0.094205245 -0.06890499 0.7439662 -0.29373536 0.0718335 0.60032773 -0.26905134 0.40399814 0.22115219 0.09334303 0.3491129 0.034844372 0.18054841 -0.14191747 -0.44672823 0.12767021 -0.10595332 0.017143337 0.16253074 -0.16396861 0.13314262 -0.22403112 0.16934526 0.00547193 0.0015198912 -0.21539344 -0.16091268 -0.015064214 0.09652087 -0.2550408 0.22184935
154 0.014107177 0.03742272 -0.14498343 0.19168684 0.19329976 0.21744095 0.07225672 -0.1805166 -0.17078887 -0.054013725 -0.21359864 0.09242489 -0.027278386 0.051355183 -0.66564566 -0.10487503 0.14698456 0.36472955 0.24244127 -0.30074784 0.6907104 0.25142446 0.22468558 -0.096803136 -0.11373157 0.2670599 0.38265955 0.34886268 -0.0018745805 0.3583407 -0.48438528 0.26842132 -0.18821421 0.11299869 0.334992 0.27739576 -0.62230575 -0.32936466 0.512462 -1.110076 -0.2717287 -0.07509281 0.587999 0.17559068 0.1921541 -0.072472915 0.12871705 -0.5809742 0.22945553 0.10991774 -0.5438094 -0.115828104 -0.26753393 -0.48238036 -0.15883538 -0.17239296 0.06736108 0.1776092 0.56511647 -0.13074255 -0.047565944 -0.28758553 -0.42913285 -0.31763843 -0.048205126 0.1988445 -0.4706465 0.15526962 0.09889221 -0.2789531 -0.42318025 0.027896654 -0.011351823 -0.14067854 0.2642244 0.24408622 0.22258107 -0.23082426 0.14623667 0.26789394 -0.17428362 -0.0566072 -0.11257773 -0.55497384 0.0075106393 -0.31881806 0.66221917 -0.60748625 0.08378384 0.60346967 0.040198423 -0.4530348 0.30742666 -0.30198035 -0.18786724 -0.18680583 -0.1852306 0.046848614 -0.058028657 0.7392239 -0.2583813 0.03601917 0.50326717 -0.29748857 0.5202806 0.22962995 0.052667275 0.37232307 0.080648415 0.19070685 -0.111017235 -0.5572839 0.18381003 -0.13200167 0.019964762 0.20348138 -0.18851383 0.195975 -0.21650837 0.26105782 0.09176917 -0.041099645 -0.29210007 -0.16945875 -0.0186107 0.12590334 -0.2972885 0.24832232
215 -0.15308057 -0.06866488 -0.13255273 0.5573667 0.10622246 0.28041434 0.4724944 -0.45681813 -0.426397 -0.0792561 -0.038240056 0.32126057 -0.052639578 -0.032486852 -0.5021569 -0.06548715 0.5436228 0.22894509 0.20922089 -0.09027031 0.7122522 0.3345198 0.20656937 0.03665607 0.05473225 0.3334963 0.17581834 0.4728829 -0.2661955 0.34610504 -0.50873566 0.38000488 -0.15593722 0.22701913 0.4031473 0.06914719 -0.46314535 -0.30836612 0.36965773 -0.95350045 -0.5229513 -0.12927377 0.4068366 0.18016027 -0.025399694 -0.30094457 -0.031893674 -0.4281438 0.23408742 0.11046346 -0.59321314 -0.16706267 -0.25527617 -0.28576303 -0.113445185 0.032870095 0.028241185 0.17808622 0.28893298 -0.12490495 0.040511668 -0.109607905 -0.18214257 -0.19986124 -0.04731736 0.34668237 -0.3634793 0.019725956 0.11226723 -0.34642726 -0.21991003 0.15071942 0.25299603 -0.15838599 0.07936349 0.14867583 0.06787099 -0.16123603 0.29597002 0.22926468 -0.063112766 -0.25035465 -0.32939282 -0.3422768 0.2736719 -0.26412004 0.42102662 -0.5384629 0.109656714 0.36136064 -0.0495334 -0.29246804 0.09436206 -0.25598076 -0.088547245 -0.057019368 -0.08232954 0.35056502 0.11121468 0.51311284 -0.2485462 0.060754675 0.22539032 -0.31671286 0.58461785 0.27242365 -0.05399669 0.3648277 0.10830311 0.30806112 -0.022866162 -0.4121852 0.0007673264 -0.06469601 -0.026499294 0.11891003 -0.041802805 0.1509637 -0.0043833833 0.15086176 0.09008535 0.027432326 -0.17160326 0.17375 0.1967868 0.1975688 -0.21414995 0.21121015
214 -0.078285486 -0.044495843 -0.1504721 0.6262362 0.1010994 0.3314137 0.39472568 -0.3538915 -0.43210527 -0.0800608 -0.057947814 0.32492968 -0.10024879 0.009591884 -0.5307071 -0.07546913 0.5481592 0.2656948 0.31988683 -0.15469581 0.8232768 0.35400486 0.20614547 0.035824608 0.047709942 0.3686871 0.28611547 0.47534382 -0.30409774 0.36141285 -0.50477844 0.3045502 -0.116970055 0.23754014 0.45856124 0.14993641 -0.50962067 -0.35473913 0.35767615 -0.95886886 -0.509242 -0.05456442 0.51777405 0.2629452 -0.012975112 -0.3494191 -0.06400058 -0.43580094 0.21897085 0.054169282 -0.4866362 -0.1289835 -0.20664932 -0.3314119 -0.049021922 -0.055925436 0.038465172 0.14198393 0.31259453 -0.08469953 -0.053748958 -0.13055782 -0.21475883 -0.1808014 -0.090422876 0.23609272 -0.4194271 0.01623992 0.08429198 -0.28728762 -0.22540027 0.044941254 0.25506213 -0.08258056 0.15861708 0.17468503 0.032934748 -0.08195248 0.24320957 0.12683535 0.027149765 -0.18167675 -0.30841598 -0.32992643 0.20803896 -0.25845727 0.42106864 -0.46878582 0.16770564 0.34709957 -0.026420169 -0.26079196 0.10607525 -0.23484436 -0.036213167 -0.09675533 -0.091205776 0.30887592 0.07852645 0.55514085 -0.2706587 0.04627461 0.28038096 -0.3212439 0.44331026 0.22986591 0.039452802 0.41094744 0.09726877 0.31539613 -0.12818463 -0.40135965 0.013403128 -0.16059862 -0.031216776 0.1413117 -0.12676066 0.1336425 -0.006731277 0.057728015 0.03081375 -0.0076483707 -0.12737876 0.12633416 0.119181074 0.13692486 -0.1910631 0.14205225
77 -0.073388845 0.38654494 0.0976637 0.45273504 0.061098773 -0.4360007 0.14312075 -0.30795538 -0.45729536 -0.25595585 0.029718766 0.1330742 -0.16398881 -0.3521373 -0.52016234 -0.29535416 -0.08959276 0.25053677 -0.015121975 -0.08438219 -0.3240119 -0.44020766 0.48573428 -0.37434918 -0.022938171 0.31714195 0.09868326 0.1712192 0.062098294 -0.041779008 0.02444466 0.22932807 -0.19413732 0.13087626 0.117500015 0.15610707 0.19095376 -0.038643334 -0.16915153 -0.08634044 -0.14804177 0.03366657 0.021773068 0.34666935 -0.043676164 -0.27114847 -0.031551607 -0.14085507 -0.007886164 -0.46007398 -0.5015991 -0.12346201 -0.05417838 -0.5109346 -0.42307645 -0.26651502 0.1313547 0.3746132 0.18342163 -0.29501843 0.17423674 0.04336868 0.35696858 -0.11664724 0.24512598 -0.14689195 -0.4209133 -0.090611525 -0.3824278 -0.3746807 0.27609476 -0.09480435 -0.12588064 -0.19079034 0.17366135 0.42865786 -0.091595314 -0.73778355 0.093149334 -0.058698256 0.49951273 -0.07845887 -0.05897132 0.5413582 0.0029754306 -0.19119364 -0.095712155 -0.1950767 -0.28481618 0.22231776 -0.12848003 -0.15172684 0.273084 -0.03157515 0.16387007 -0.2862758 -0.29842255 0.3228789 -0.3254425 -0.0132119795 0.022615261 -0.4264163 0.3189723 -0.1792948 0.12554355 0.05366596 -0.26046965 -0.31355792 -0.422324 -0.12468668 0.119473636 -0.32029697 -0.5703818 0.26716077 0.012939181 -0.11800892 0.24553782 -0.09346193 0.23382099 0.5831007 0.42016265 -0.6069996 -0.17331207 -0.13669612 0.107022196 0.20485877 -0.17697081 0.09675942
78 -0.07822061 0.39691824 0.01659776 0.5452809 -0.0211717 -0.41121688 0.15576175 -0.28267413 -0.5006267 -0.15686962 0.012883307 0.16267541 -0.17619519 -0.30925873 -0.51679647 -0.30304277 -0.116283506 0.20458327 -0.07199604 -0.114037834 -0.31661984 -0.46246165 0.5093719 -0.34641597 0.02424708 0.314423 0.1643737 0.18812105 -0.033279397 -0.090323165 -0.05130456 0.367099 -0.35370943 0.09971867 0.062183496 0.10542371 0.19347154 -0.009954137 -0.21006085 -0.010234044 -0.09620961 -0.016899448 0.049221344 0.32975322 -0.109584205 -0.2072819 -0.021398768 -0.15232246 0.05001006 -0.34389013 -0.5417633 -0.18269226 0.0070016254 -0.41621038 -0.45148474 -0.21981777 0.041870456 0.3411612 0.20978077 -0.19947597 0.22127536 0.00027861854 0.38024223 -0.15829729 0.24276572 -0.11706302 -0.48600724 -0.13514587 -0.42400846 -0.48747826 0.3496551 -0.12029118 -0.068126455 -0.19407433 0.07898004 0.41191804 -0.06489027 -0.7801076 0.115084045 -0.12162327 0.543004 -0.043196447 -0.044389803 0.53099865 0.047494803 -0.21394143 -0.009688433 -0.24449612 -0.16573475 0.18758062 -0.22153392 -0.19387871 0.18505394 -0.033730797 0.2177367 -0.22185786 -0.26045462 0.328036 -0.24790822 -0.09055907 0.06787586 -0.3816533 0.34162048 -0.23789133 0.15646295 -0.085620105 -0.24557738 -0.34010547 -0.5180616 -0.19567074 0.17199476 -0.27249983 -0.553158 0.26533413 0.06150588 -0.14324911 0.30185744 -0.120602876 0.23547325 0.56743634 0.46833953 -0.5799144 -0.19140568 -0.19397315 0.09936249 0.17377213 -0.31187582 0.03367496
155 -0.26827812 -0.003110069 -0.22913966 0.119312115 0.11433042 -0.48354784 -0.16363156 -0.31622824 -0.19335584 -0.13402091 -0.17828849 0.15290545 -0.44097987 -0.013766218 -0.70221144 0.05212477 -0.0013006735 0.3593113 0.3335743 0.21715015 -0.3314905 -0.025477638 0.56432736 -0.6170314 0.21806212 0.16607898 0.4557906 0.16662912 -0.14541842 -0.11586413 -0.40319696 0.14247869 -0.39011648 0.027382826 0.19445916 0.21895267 -0.26838416 -0.23397058 0.092699945 -0.52424914 -0.4586956 0.10872859 0.35163048 1.0303167 0.100579895 -0.4765841 -0.058722943 0.39547023 -0.022056993 -0.44739842 -0.094132856 0.048276965 0.22497883 -0.7222932 -0.57962453 -0.26807976 -0.08033189 0.40599325 0.34601226 -0.30941093 -0.011782857 0.5861851 0.24878447 0.13810635 0.5287906 -0.4470854 0.012710003 0.06671191 -0.22899882 -0.3760002 0.28936723 -0.34628096 -0.2232439 0.32204163 -0.4257645 0.3359384 -0.49619153 -0.680857 0.23817414 -0.114578284 -0.079818204 -0.20160699 -0.21642669 0.4468432 -0.11352011 -0.5029444 -0.2865695 0.45009986 -0.1195397 0.36494914 -0.1729205 -0.047216166 0.19842838 -0.029970806 0.24907652 -0.20027095 -0.24432515 0.10280263 0.3738178 -0.74399835 0.05691293 -0.56732666 0.22278792 0.4192116 -0.032057524 -0.5346277 0.15364599 0.3634397 -0.3746704 -0.37850273 -0.04615046 0.08123407 -0.5299528 -0.014823316 -0.5365106 -0.046180997 0.55725473 -0.2759665 0.047359932 0.2530132 0.2543749 -0.33673948 -0.2222867 -0.5102655 0.44891918 -0.055944514 -0.09872381 -0.1057825
156 -0.13839132 -0.097747736 -0.22384302 0.21571788 0.26308027 -0.40298513 -0.15821521 -0.1443665 -0.16157487 -0.09473964 -0.21240355 0.20410068 -0.4929152 0.006626612 -0.67387736 0.0016048424 0.26640347 0.21246172 0.3471115 0.30039078 -0.29550585 0.0009583849 0.6248195 -0.4556157 0.2045762 0.13897724 0.33762386 0.090298735 -0.18073858 -0.16709027 -0.5372179 0.23408702 -0.36127192 0.070798226 0.5081353 0.30216014 -0.13079461 -0.17875496 0.16234447 -0.5803622 -0.68896776 0.16273731 0.25612804 1.1625566 -0.08179359 -0.4581195 -0.07201567 0.26492086 -0.03794937 -0.56539243 -0.2627385 0.08025411 0.2325966 -0.6716812 -0.72034824 -0.3764041 -0.024200723 0.27194342 0.284982 -0.19594742 -0.101997845 0.4990322 0.27986857 0.18705907 0.5553293 -0.6826045 0.04587133 0.07676159 -0.39162427 -0.28476354 0.35218886 -0.43314368 -0.13213581 0.25167617 -0.45346573 0.29292572 -0.40988305 -0.81368244 0.20627703 -0.056085557 -0.18467517 -0.20962079 -0.20492846 0.45894817 -0.013347172 -0.55952156 -0.40838408 0.4261894 -0.25082317 0.40149337 -0.23155323 -0.0697254 0.19269037 -0.097614996 0.3309513 -0.1265978 -0.25804842 0.15957841 0.5281419 -1.028371 0.027880218 -0.68433124 0.13915265 0.44335732 -0.03012375 -0.46317497 0.108783476 0.27432746 -0.36298507 -0.51429874 0.028896721 0.12168392 -0.664758 0.041065034 -0.54143953 -0.16343938 0.6013123 -0.2975279 -0.04187091 0.16570044 0.19135688 -0.2802531 -0.20088086 -0.3899341 0.5235175 -0.043087054 0.023390211 -0.092006065
171 -0.56568515 -0.34168538 -0.06823138 0.5848269 0.2223614 0.37243804 -0.37780952 -0.4648793 -0.29315844 0.2737211 -0.22100325 0.3091334 -0.10693388 0.3812801 -0.13958405 0.08192458 0.4262846 -0.31047946 0.72277397 -0.07569851 -0.10521186 0.15129547 0.5212902 0.1458493 0.12061634 -0.23857751 0.1124589 0.05256491 -0.124788254 -0.05665389 -0.43194652 0.6342843 0.023308292 -0.10602341 -0.1795118 0.47285795 0.08493132 -0.42793497 -0.44657323 -0.22001739 -0.52877814 -0.057595976 0.08629909 0.42139918 -0.17949522 -0.21632479 -0.34104723 -0.25619552 -0.046523783 -0.0036641983 -0.5575511 -0.18969084 0.38061914 -0.26210937 0.11532266 -0.5564928 0.1962738 0.13612077 0.09855588 0.13015111 0.045331113 -0.019692693 0.26414466 0.2284722 0.29243857 0.26561144 -0.015362778 -0.12149088 -0.43315643 -0.9286966 0.14171037 -0.63177484 0.42869443 0.08723637 -0.3645596 0.2994322 -0.419483 -0.35984662 0.20502281 0.1296619 0.25785893 -0.41024116 0.13539721 0.19710921 -0.0994671 -0.037398513 0.2632147 0.08763382 0.4477427 -0.4146311 0.13868779 -0.15896842 0.28947267 -0.08188427 0.020217922 -0.37021393 0.29173675 -0.075493224 -0.28640845 -0.02660855 0.062119808 0.38508412 0.061146066 -0.39837357 -0.25652158 0.35316098 0.14456517 -0.123446874 -0.32632664 -0.2534224 0.25959164 0.106941506 -0.32774138 0.044134766 -0.34945604 -0.17340024 -0.11973536 0.25795057 -0.22691052 0.30391553 0.0790976 -0.35599872 0.25601774 0.0018623788 -0.22660787 0.14507648 -0.22308674 0.36283955
170 -0.48041433 -0.39189106 -0.122739024 0.5975482 0.22456071 0.38226542 -0.3120679 -0.42138952 -0.20305784 0.2225422 -0.2431141 0.20075165 -0.0067238235 0.30053198 -0.05308993 0.101777114 0.43573588 -0.33760464 0.6918515 -0.08938618 -0.0209258 0.06624557 0.5308257 0.0972358 0.14941165 -0.27450532 0.059354935 0.16022915 -0.20632644 -0.11035624 -0.386102 0.640852 0.016808676 -0.11521931 -0.15674621 0.34774423 0.1396665 -0.41445297 -0.38854617 -0.23048265 -0.5703581 -0.03330446 0.047923036 0.5667407 -0.3158818 -0.19833285 -0.2613565 -0.12756677 0.04490139 -0.060044944 -0.55806917 -0.22822474 0.3432118 -0.28555718 -0.05835606 -0.54837924 0.15168302 0.14708744 -0.013967808 0.11911768 0.02967086 -0.0834984 0.3573751 0.17481303 0.30925477 0.05252752 0.003963382 -0.15353806 -0.48788366 -0.8298954 0.14996746 -0.6082756 0.5428606 0.01685901 -0.4859094 0.20035979 -0.41484547 -0.4103961 0.09639785 0.20750563 0.13192604 -0.419851 0.10969272 0.07944136 -0.100089416 0.061799433 0.20530872 0.22461447 0.49768755 -0.42971164 0.11681522 -0.116441816 0.14101394 -0.11848697 0.038122375 -0.31524974 0.24436677 -0.14120492 -0.20407753 -0.043298457 0.030336728 0.39243996 0.10701134 -0.38421956 -0.124654405 0.39996278 0.1542633 -0.1988875 -0.3551491 -0.27104875 0.23442197 0.0057498463 -0.22179833 0.101195976 -0.37292978 -0.15986921 -0.21740864 0.2245261 -0.26920605 0.3792597 0.10963306 -0.45700547 0.13494422 0.009598589 -0.19870934 0.2564946 -0.26888242 0.3884526
105 -0.1651685 -0.25930205 -0.05990836 0.40884513 0.0054533617 0.33989954 -0.4195798 -0.27047828 -0.12252279 0.24846238 -0.158558 0.29027417 0.055696018 0.20026505 -0.02425206 0.010988658 0.33119178 -0.20501423 0.72696185 0.19604291 0.007319705 0.21148561 0.4914253 0.07952412 0.17048839 -0.060570706 0.07473699 0.19192713 -0.11204939 -0.30179635 -0.34548685 0.4642793 -0.1937371 -0.12264223 -0.083786376 0.37974373 0.05114557 -0.48071915 -0.20220189 -0.11617385 -0.39903703 0.11710893 0.31988406 0.46195558 -0.27025115 -0.115117185 -0.32855064 -0.28383797 0.020263921 -0.08896046 -0.28660673 -0.17139457 0.29107225 -0.15688658 -0.2882065 -0.6105811 0.15349652 0.10789585 0.0522713 0.095205836 0.08798574 0.15160768 0.38118452 0.08475617 0.1473547 0.04101015 0.022485023 -0.07133499 -0.52440304 -0.66720706 0.18999845 -0.5278274 0.376998 0.07354571 -0.39662644 0.25767398 -0.25152174 -0.44064268 0.23289637 0.16475159 0.16112581 -0.29808655 0.09731431 0.16276513 -0.28546453 -0.087818794 0.2471783 0.072259836 0.30613852 -0.25238502 0.13261048 -0.2628596 0.28186977 -0.16902202 0.0859479 -0.27436647 0.21199073 -0.14064115 -0.20954126 -0.0070386343 0.046236522 0.2786355 0.0433253 -0.4181106 -0.17204976 0.45331806 0.067997314 -0.1962465 -0.3516025 -0.15774502 0.31531167 0.025634522 -0.22578415 0.07777519 -0.39657184 0.17146513 -0.08976212 0.35691026 -0.100889854 0.40227836 0.18707155 -0.50930065 0.13001183 -0.022347776 -0.079469696 0.36124897 -0.21549913 0.3965537
106 -0.14445701 -0.20620765 0.07572754 0.29519957 -0.10414989 0.5294584 -0.45562506 -0.19292329 -0.08522929 0.1675709 -0.15480295 0.3851886 0.012297065 0.0206304 -0.035985585 -0.037727036 0.33048388 -0.31996503 0.7467009 0.12113095 -0.043449823 0.105384566 0.55973625 0.02690539 0.26646242 -0.03211263 0.11084472 0.22710505 -0.16965617 -0.20303163 -0.3065259 0.517521 -0.20496982 -0.20481713 -0.21359536 0.4250923 0.07416144 -0.52075505 -0.10238919 -0.27262697 -0.49986625 0.045916058 0.25709394 0.5281543 -0.20455515 -0.14154127 -0.24184817 -0.18672298 0.16502908 0.036464475 -0.26739427 -0.18174343 0.19607997 -0.18523338 -0.25256106 -0.55040103 0.15307243 0.24964444 0.017347759 -0.11280899 0.09910165 0.060836136 0.38615322 0.18989353 0.29329816 0.13267934 0.10071468 -0.05848307 -0.410266 -0.6734424 0.10934371 -0.4923663 0.45177943 0.14483464 -0.37000263 0.29475626 -0.24831085 -0.55205005 0.24521257 0.19650792 0.17135832 -0.3631408 0.13539805 0.15967597 -0.2829318 0.030667897 0.24030642 0.14103612 0.22602355 -0.353096 0.100586936 -0.30053857 0.38148293 -0.072939195 0.0606845 -0.18820786 0.34347257 -0.2627888 -0.24943839 -0.10673025 0.18057111 0.33102107 -0.02133052 -0.44674477 -0.1867254 0.5781254 0.12936072 -0.24796082 -0.32776934 -0.10243109 0.30163682 0.11334694 -0.2631525 0.024506532 -0.4282917 0.051358383 -0.09488447 0.3507452 -0.06795892 0.35731834 0.22549371 -0.5205775 0.10169987 -0.12047481 0.04455199 0.2282084 -0.20170034 0.38166696
216 -0.33915058 0.12910831 0.19074513 0.08103428 0.03281537 -0.61225563 -0.06336696 -0.30520517 -0.53428155 -0.283853 -0.015557893 0.2392799 -0.27530855 -0.09120016 -0.45050782 0.0039842315 0.1253351 0.3090015 0.13256915 0.31530792 -0.5006373 -0.30787924 0.45135117 -0.4538947 -0.03807982 0.103859626 0.29184088 0.10938995 -0.0764326 -0.15993328 -0.27555352 -0.08757105 -0.22791229 0.22731985 0.25408196 0.10179344 0.005198114 -0.0045391265 -0.18450135 -0.3320736 -0.6297524 0.0175404 0.14942244 0.86702126 -0.06256781 -0.49939984 -0.12325771 0.14572875 -0.062890574 -0.3792971 -0.17190626 -0.34060994 0.05031087 -0.5859602 -0.5079338 -0.095743395 0.16285631 0.2528498 0.48448512 -0.10739686 0.085542396 0.4312596 0.44856483 0.0555132 0.55696267 -0.1217999 0.022756722 0.022562489 -0.25079608 -0.74331415 0.29420123 -0.23748305 -0.106460765 0.23663016 -0.10304595 0.50098646 -0.42120072 -0.59331906 0.38864672 -0.1631743 0.010180907 -0.046094142 -0.32152522 0.46100694 0.14491296 -0.47747895 -0.109731846 0.07138897 0.030383129 0.45496508 -0.2123268 -0.16703665 0.2741794 0.07256126 0.2752498 -0.30683836 -0.27390864 0.3737426 0.20137131 -0.60134065 0.17886104 -0.57698846 0.27328146 0.40563133 -0.006232457 -0.3756608 -0.011889046 -0.19922681 -0.4281919 -0.3999367 0.24148089 0.28590432 -0.38455245 0.27739754 -0.20358726 -0.008612112 0.5075695 -0.3128539 0.0120534785 0.4667862 0.3301724 -0.26475498 -0.11614367 -0.38334104 0.31525823 -0.03266256 0.15054852 0.059235126
217 -0.2369369 0.05555357 0.18241227 0.063922495 -0.056430485 -0.64416194 -0.107140414 -0.43093464 -0.5454802 -0.25325495 -0.058288388 0.3108233 -0.25986275 -0.056114335 -0.43789873 -0.053524513 0.16014346 0.21486685 0.113088615 0.30905306 -0.47222075 -0.35087252 0.50467443 -0.44216704 0.059781116 0.17062525 0.2409537 0.23414946 -0.08131237 -0.24743284 -0.18299933 -0.08834188 -0.14244826 0.3184324 0.24390526 0.07485956 -0.041521102 0.029342862 -0.16902874 -0.2921343 -0.67061514 0.08891653 0.094126634 0.9459528 0.04249224 -0.51758873 -0.18583073 0.18934067 -0.06471909 -0.39125696 -0.14973219 -0.29019648 0.08596698 -0.6247835 -0.46733987 -0.015088576 0.15047051 0.22040404 0.44449034 -0.08474928 0.028564299 0.3936414 0.45173562 -0.07835955 0.37110275 -0.20363344 0.094281666 -0.051959027 -0.31221336 -0.6609553 0.28172556 -0.18849024 -0.14097229 0.15941428 -0.12500954 0.38152483 -0.44645146 -0.5519579 0.489339 -0.12353814 0.037284896 -0.1497884 -0.30429938 0.48956951 0.08018486 -0.42383188 -0.19207132 0.10981155 0.045310386 0.38244575 -0.17979698 -0.073743336 0.25067472 -0.034438256 0.29514587 -0.35755417 -0.28368637 0.3766886 0.16075198 -0.5643209 0.1663526 -0.51278365 0.3971501 0.47423264 0.09980971 -0.25407287 0.03732768 -0.1855233 -0.38352183 -0.2736095 0.28566566 0.18019237 -0.3749929 0.2371714 -0.3056784 -0.09233152 0.43641979 -0.32118693 -0.06271786 0.41691765 0.20829508 -0.32806137 -0.09809318 -0.35864463 0.4635422 0.02227595 0.12314938 0.05811644
210 -0.5762676 -0.36084628 -0.13723214 0.29414573 0.15756541 -0.13834925 -0.4511404 -0.025101926 0.39822707 0.22853072 -0.32146955 -0.33323845 -0.06700597 0.20290887 -0.017318193 0.33118778 -0.0072636553 -0.26565975 -0.05195667 -0.28255737 0.5926916 0.012338807 0.46100593 0.09192804 -0.069117114 -0.17811348 0.24909486 0.048047386 0.1388827 -0.06832225 -0.47960937 0.10021976 -0.20186287 0.15165313 -0.03447441 0.22437441 -0.19464947 0.37527293 -0.51978415 -0.5416808 0.10625758 0.16993962 -0.063202985 0.79493237 0.3739171 0.19117476 -0.17529209 0.470273 -0.19491157 0.1890057 -0.5022561 -0.05846645 -0.14046104 -0.54906887 -0.1302813 0.51175547 0.71253365 -0.06098991 0.1880543 -0.16092715 0.77465904 0.37351158 0.19324909 -0.23057158 0.02061843 -0.2941347 0.2418636 0.28475535 -0.26912192 0.15812068 -0.16705354 -0.061474837 -0.3109334 0.07700397 -0.20459016 -0.3522308 0.049164932 -0.07234912 0.022599988 0.054566983 0.063166335 0.026594767 0.28778747 0.31945235 0.038110588 -0.177698 -0.30622932 -0.30202162 -0.5155754 0.20884326 -0.1530034 -0.26551586 0.66033787 -0.46012124 0.5144942 -0.6007282 0.04964177 0.5677322 -0.31537205 -0.050826162 0.53369445 0.24152878 0.21789189 0.1743551 0.042802937 0.20244172 -0.5360468 -0.15752105 -0.041643318 0.52238786 -0.09241775 0.10184352 -0.19178131 0.17588118 0.17329848 -0.055161692 -0.12213808 0.10744034 0.012075484 -0.12552497 0.12227026 -0.23243703 0.53551346 -0.4751458 -0.038065054 0.101677954 -0.14740726 -0.28297016
212 -0.49713707 -0.3792841 0.00052697 0.20782071 0.1317863 -0.3061059 -0.45015785 -0.044241864 0.39580742 0.25762862 -0.3084792 -0.34283793 -0.03178884 0.39200205 0.010586466 0.36562094 0.0016825928 -0.35299864 0.028323287 -0.4036809 0.5052531 -0.08888285 0.63941544 0.09426628 -0.094043925 -0.15641017 0.23246661 0.0341232 0.17899808 -0.046523415 -0.45042 0.12337643 -0.17005543 0.16322027 -0.033787154 0.18709373 -0.21063332 0.3067678 -0.566259 -0.55208445 0.052209053 0.11710889 -0.04787991 0.96078414 0.42752698 0.1439244 -0.11063755 0.5274888 -0.118518524 0.18752584 -0.48467907 -0.026186185 -0.23798357 -0.70892906 -0.0587275 0.50931436 0.76218814 -0.05555858 0.24760406 -0.2326896 0.87739724 0.39224845 0.23848881 -0.25009078 -0.014085678 -0.2860346 0.4269517 0.2826057 -0.24517457 0.13599798 -0.22316335 -0.050770015 -0.3413725 0.05777873 -0.21533751 -0.3870743 0.02934907 0.026196012 0.047361813 0.06732642 0.09820767 0.0049726493 0.4325541 0.3751473 -0.033773445 -0.19181639 -0.26336896 -0.20355627 -0.5498007 0.22813345 -0.2290308 -0.2012342 0.59384733 -0.4264263 0.5001994 -0.60713416 0.08327129 0.6498658 -0.31604138 0.006413408 0.55804336 0.21070485 0.32362086 0.15181091 -0.013325076 0.21420088 -0.61381686 -0.13767613 -0.0049200407 0.5289792 -0.1497393 -0.02278991 -0.13248682 0.19084099 0.18295431 -0.2205198 -0.09861553 0.13938472 -0.064593606 -0.14870214 0.14412981 -0.28837082 0.3995942 -0.4530005 0.053640857 0.066047154 -0.07107643 -0.26233438
192 -0.6845592 -0.39881882 -0.1914281 0.013989583 0.6299169 0.011065064 -0.28953254 0.32561246 0.4116055 -0.13971025 -0.13468239 0.008337436 -0.119077176 -0.13714194 -0.070113346 0.14356314 0.35936525 0.10739736 0.35931385 -0.09270933 0.36232635 -0.011200173 0.1690473 0.123154655 -0.20442952 0.15397932 -0.13379025 0.062000617 -0.062487368 0.20199834 0.0035870445 0.75891644 -0.18125914 -0.083709866 0.16065909 0.11205193 -0.29843852 0.2178556 -0.4326196 -0.37486434 -0.019913118 0.20285767 -0.1874139 0.16057095 -0.13921918 -0.05228378 0.3452591 0.16912949 0.086982176 -0.031295948 0.11878047 -0.046555594 0.15799694 0.37881738 -0.23464535 0.02069408 0.23787805 -0.46637133 -0.110330105 -0.1494322 -0.123572335 0.12332266 0.02737366 0.05932026 0.09943402 -0.30519608 0.16457212 0.50067735 0.3132019 -0.090185694 -0.23325801 0.055631965 -0.38913742 0.08263298 -0.007942449 -0.025278639 0.07284381 -0.640744 -0.20738919 0.15948914 0.39495915 0.27543083 0.29352358 0.12078445 0.3757322 -0.13590285 -0.13866222 0.1252245 -0.084429674 0.050111577 0.48162067 -0.1275821 0.032600064 -0.12270545 -0.27881593 -0.016984731 -0.07492014 0.3928621 0.033798657 0.5306378 -0.38200927 0.22739974 0.22885787 -0.009716655 -0.20823161 -0.19024836 -0.020413391 0.07109879 -0.2683888 0.34953633 0.49304983 0.13686667 0.007973492 -0.16048218 0.5108608 0.01595617 -0.2569528 -0.09599323 -0.38260117 0.25016844 -0.03412437 -0.2742812 0.18915103 0.032659568 -0.07516484 0.08158269 -0.62521994 -0.24328968
193 -0.51111823 -0.42445546 -0.20133509 -0.0013391741 0.65493953 0.11310309 -0.15577358 0.46354392 0.36570567 -0.102944866 -0.13670188 -0.01461842 0.038813774 -0.2620715 0.043967463 0.10010067 0.30557567 0.009747161 0.39497697 -0.18041967 0.38567403 -0.072707705 0.17175595 0.16376807 -0.13561538 0.06681412 -0.21315916 0.059321597 -0.070843264 0.15738206 -0.06340704 0.7967091 -0.31439197 -0.24827525 0.13446303 0.098761424 -0.2327818 0.15094627 -0.43807545 -0.38881713 -0.023894833 0.23852688 -0.2063493 0.21476537 -0.20983313 -0.10800017 0.3524828 0.16037223 0.1120604 -0.014976282 0.1847671 -0.08689714 0.07781721 0.37098196 -0.23363183 -0.052435827 0.154237 -0.37529963 -0.026354507 -0.1919191 -0.09433368 0.12720037 0.0195666 0.06774775 0.17139678 -0.26314571 0.20469949 0.46160293 0.33128336 -0.117599264 -0.2217037 0.0123973675 -0.33846727 0.12669165 -0.088872105 0.017907852 0.12438755 -0.7357668 -0.2419518 0.22043292 0.42498657 0.23585714 0.21262068 0.13546112 0.27250808 -0.18743613 -0.22043897 0.16796441 -0.0002834568 -0.06907051 0.52716446 -0.13763149 0.0031259148 -0.15069073 -0.24206059 -0.08648251 -0.12924398 0.40330112 0.031086115 0.58366257 -0.35218292 0.1732284 0.3951771 -0.017873269 -0.31815675 -0.29783258 -0.08924719 0.0662487 -0.2782117 0.33958846 0.5418594 0.1799343 -0.0024425313 -0.19021054 0.5369722 -0.09319607 -0.2396813 -0.11525696 -0.3854213 0.26920912 -0.011079469 -0.3372197 0.19237049 -0.11590732 -0.041636437 0.086534746 -0.5919463 -0.20196189
191 -0.58971035 -0.4324693 -0.19334482 -0.022110427 0.481462 0.056094997 -0.11848879 0.431737 0.3369294 -0.11583655 -0.16348428 0.009540631 0.041159604 -0.0015863309 0.040221523 0.20697904 0.37367648 0.093061775 0.53193974 -0.2446063 0.30774677 0.014966581 0.12158997 0.15651329 -0.10170376 0.16911842 -0.13746694 -0.027205797 -0.17484537 0.24753043 0.12391073 0.8002645 -0.25075462 -0.15725543 0.039037038 0.06430253 -0.27156612 0.21529682 -0.5008539 -0.34903485 -0.04874067 0.28333566 -0.1593488 0.14666119 -0.08751571 -0.07691608 0.32784033 0.20663284 0.13562931 0.016838986 0.049782187 0.057886854 0.19483218 0.30133486 -0.32405627 -0.08630946 0.12220947 -0.32111907 -0.1589022 -0.058588438 -0.14235929 0.0044711647 0.008687005 0.1489876 0.12535496 -0.30493358 0.21624717 0.5396571 0.3597054 -0.06856502 -0.16853443 0.10979795 -0.36550623 0.10137201 -0.09714685 -0.043424144 0.14355677 -0.65170074 -0.2468111 0.29689497 0.33289617 0.30517703 0.2035653 0.1973406 0.3446822 -0.10089339 -0.13734102 0.18409248 -0.023451673 0.027926514 0.4013777 -0.16787547 -0.022724258 -0.057175606 -0.24293981 -0.00992343 -0.0920155 0.3708803 -0.07592743 0.4352896 -0.4083624 0.19096857 0.25623456 -0.00023244448 -0.1771394 -0.24973811 -0.04667857 0.14014278 -0.37758493 0.3239624 0.5963244 0.09575744 -0.13506515 -0.14657663 0.44250792 0.02124248 -0.24620543 -0.07232987 -0.30688503 0.32905406 0.081323326 -0.273186 0.13571197 0.07622157 -0.05827437 0.10517424 -0.69795233 -0.20520982
190 -0.61282164 -0.445711 -0.06708481 -0.07185121 0.54221785 0.11889895 -0.27372098 0.5290397 0.4047247 -0.13117613 -0.098506615 0.13686535 0.021612668 -0.13168266 -0.0088836625 0.15639871 0.35074773 0.083839715 0.5030562 -0.24996467 0.33179763 -0.04496881 0.2163386 0.15009595 -0.1118753 0.27777335 -0.22869843 0.10627963 -0.2569595 0.31237137 -0.020014701 0.84787285 -0.17468244 -0.21004878 0.15282099 0.10660092 -0.28222585 0.22818166 -0.54301035 -0.39030483 -0.03357688 0.15084185 -0.1773069 0.18565913 -0.1399631 -0.026365316 0.36498183 0.23128787 0.062359888 0.05694754 0.11326105 -0.0030029172 0.20713791 0.41417965 -0.21554123 -0.08345415 0.23032127 -0.34322846 -0.00946423 -0.08609324 -0.10511756 0.013135844 -0.07390387 0.094296336 0.21298549 -0.23968634 0.17088954 0.4024605 0.4518246 -0.11175468 -0.1791175 0.0864044 -0.42694876 0.09616964 -0.05359402 0.028115235 0.066794544 -0.7137829 -0.21067862 0.28034624 0.48560998 0.29980972 0.3262463 0.107218765 0.3847203 -0.17830497 -0.08779761 0.050834592 -0.05030943 -0.028921371 0.44051474 -0.09595727 -0.007715897 -0.06512359 -0.30998647 0.06905005 -0.065638 0.478465 0.014587699 0.5448078 -0.25493503 0.143697 0.36877203 -0.05123365 -0.23642752 -0.28115577 -0.076478615 0.09682022 -0.21889348 0.31167862 0.57354444 0.16156399 -0.057316896 -0.24933441 0.48615995 0.04794192 -0.25636038 -0.10554772 -0.3853715 0.19941866 -0.029346028 -0.30469018 0.16029836 -0.17314062 0.007028894 0.077003755 -0.62083846 -0.11440607
151 0.1884997 0.15665689 -0.26835686 0.48304418 0.535916 1.0095117 -0.14710313 -0.7461682 0.29144517 -0.10891586 0.09612749 0.19862989 -0.22089192 0.089187756 -0.24975468 -0.10103478 0.26757908 -0.32601216 0.09047946 -0.18530762 -0.1427995 -0.018016504 0.3572331 -0.2265586 -0.35264835 -0.33247638 -0.382737 0.078178965 0.32909787 -0.49665198 0.20182665 0.24103421 -0.6593348 0.064174004 0.01680612 -0.031738613 -0.6660545 -0.11496001 0.2802573 -0.42064765 -0.29352307 -0.08215116 0.20212166 -0.09183997 -0.1713544 0.31532818 -0.1791806 0.3998654 0.052957013 -0.09821773 -0.3718719 -0.15490569 -0.3732318 -0.6161445 -0.4672192 0.09049158 0.73002535 0.37278107 -0.07187688 -0.18545789 0.18420912 0.54537016 0.1270266 -0.114670455 0.20276639 -0.43903682 0.47871226 -0.40937534 -0.3156935 -0.22519639 0.13634199 -0.19156465 -0.20619178 0.3020838 0.12614325 0.29055253 0.13710366 0.29524767 0.41859618 -0.1492725 0.18814987 -0.026170215 -0.26310894 0.5693835 0.019417576 -0.1544089 -0.33595487 -0.037597544 -0.24627733 0.13228591 0.12502809 -0.29416588 -0.00054366613 -0.4833361 0.042505555 -0.4461652 0.07162566 0.38406718 0.70342255 0.45676053 0.5713806 -0.4973908 -0.2647007 0.097374 -0.015391255 -0.3359436 -0.25276756 0.41616508 0.55101067 -0.03893405 0.39207366 0.19815266 0.234847 0.038121667 -0.022294695 0.22221862 0.04554311 0.08757781 0.012706894 0.047388937 0.4947146 -0.07358554 0.39159513 -0.17717561 0.15200432 -0.019007238 -0.08716723 -0.078973785
152 0.1085736 0.07063939 -0.1517326 0.4016925 0.5949108 0.8935585 -0.17836694 -0.73543626 0.31282046 -0.12541373 0.120426364 0.09128474 -0.19643623 0.09520122 -0.15200919 -0.057951193 0.14854228 -0.21556449 0.14915109 -0.22050416 -0.18871239 -0.21774079 0.28583154 -0.3007275 -0.37437835 -0.27670822 -0.39111876 0.12749487 0.3545894 -0.38511983 0.26436678 0.24100554 -0.62246853 0.11097012 0.0030356697 -0.008249606 -0.6932019 -0.04913189 0.1282482 -0.3710584 -0.2893049 -0.14535587 0.18066162 -0.16315205 -0.117324576 0.28747746 -0.26666918 0.28597817 0.019086765 -0.04352346 -0.32793963 -0.23307997 -0.3175058 -0.66837466 -0.3651222 0.1853192 0.70429 0.34892684 0.014316727 -0.1992931 0.18211111 0.61214167 0.09221942 -0.17945923 0.18038361 -0.3073762 0.5036284 -0.38180664 -0.26233914 -0.2842357 0.10854682 -0.17860094 -0.22655942 0.26919082 0.2135724 0.28827783 0.15273981 0.25315252 0.5430644 -0.16730978 0.2542436 -0.059542622 -0.074211635 0.6629094 -0.06745408 -0.17441516 -0.34682423 0.022699531 -0.30866256 0.16842026 0.09931724 -0.2929046 -0.022304181 -0.41526824 -0.009984933 -0.4402834 -0.015955633 0.36728984 0.5417599 0.5163155 0.6211554 -0.43208396 -0.22614256 0.1282809 -0.12885432 -0.24661359 -0.103711836 0.38706887 0.60338473 -0.021121735 0.3806817 0.3148785 0.06826703 0.1224903 -0.0049774353 0.18517141 0.07749871 0.089526094 0.026105335 0.011968986 0.53068763 -0.096065275 0.4491181 -0.19550315 0.10652972 -0.04174616 -0.06873816 -0.11323563
187 0.049499843 -0.7346769 -0.070839174 0.2599957 0.1532556 0.39024696 -0.019405095 -0.5271725 0.5439935 -0.5502254 -0.36308357 0.53155684 0.080514304 -0.2346044 0.10682191 0.43489456 0.5903947 0.11703463 0.56213874 -0.4231983 0.36780575 -0.4559401 0.052887667 0.04361116 -0.18526167 -0.2516453 -0.06286644 0.20215137 -0.08034515 0.3936055 0.08240684 0.45393056 -0.20499098 -0.047502566 -0.063747875 0.014127897 -0.64540035 -0.18990456 0.18747067 0.061694253 -0.07977186 -0.08412852 -0.006281599 0.70712537 0.048396517 0.5767874 0.09373175 -0.09205607 -0.043631773 0.08905127 -0.3913021 -0.13592699 -0.25760338 -0.4633226 -0.5940526 0.22719125 0.4166175 0.39168808 0.01086496 -0.038383126 0.21105947 0.611141 -0.13424352 -0.28054675 0.38146934 0.3696811 -0.30893534 -0.42732987 0.20399773 0.52969795 0.62479144 0.24852088 -0.06462545 0.0960787 0.19350147 0.21470255 0.17513283 -0.37349674 0.48162642 -0.20964824 0.55422753 0.49417576 -0.83232236 0.51661074 -0.2532766 -0.45919213 0.15811482 0.19275376 -0.4794443 0.3236548 0.35353285 -0.15724774 0.47031662 -0.71503484 0.19787219 -0.92860866 0.23554873 0.17431076 0.5660805 0.13206194 0.0051639834 0.1398609 -0.073711514 0.18838425 0.21531259 -0.15169065 -0.5436278 -0.102106504 0.25194135 -0.15951586 -0.029466344 0.22690211 0.1466928 0.459712 0.07601113 -0.53635585 0.46296144 0.051546894 -0.31656775 -0.118618414 0.5301858 -0.16537714 0.45190355 -0.6951907 -0.14302963 -0.29703182 -0.27247605 0.0847429
188 0.09721122 -0.8053398 -0.07474163 0.17810047 0.112175964 0.48208845 -0.09117646 -0.57377094 0.5657135 -0.3285209 -0.30643088 0.546168 0.17284535 -0.23508404 0.21098357 0.3909489 0.65043175 -0.002957754 0.5296983 -0.43178868 0.23653348 -0.49297345 -0.007601323 0.179623 -0.07981078 -0.17588922 -0.07269759 0.24517044 -0.22037046 0.3699852 0.099394985 0.3949641 -0.2960341 0.08283156 -0.22039463 0.04456266 -0.4725275 -0.17009127 0.30373022 0.15473373 -0.092001535 -0.05133884 -0.009679066 0.6077799 -0.064044185 0.51139235 0.09461766 0.08797504 -0.02088766 0.13085714 -0.36233932 -0.1254783 -0.21715146 -0.44935605 -0.6099713 0.25069118 0.44026855 0.42908123 0.021514324 0.009528244 0.25955153 0.4716659 -0.21052063 -0.36668643 0.31349954 0.26622152 -0.29407588 -0.32162505 0.12131729 0.5135431 0.68799436 0.3097167 -0.20139709 0.17634968 0.2210613 0.29282728 0.25784248 -0.36861908 0.45430908 -0.08446376 0.51599884 0.45144922 -0.83899605 0.63753784 -0.12453395 -0.40533215 0.12747286 0.15139589 -0.45234635 0.13630062 0.24361861 -0.17348032 0.31082428 -0.85316825 0.23261279 -0.78248703 0.20500483 0.09068692 0.56330466 0.066644624 0.1408824 0.09101033 -0.042869683 0.1422995 0.23085043 -0.1359358 -0.6381945 -0.18923293 0.24648803 -0.24537441 -0.033891913 0.18771985 0.116584584 0.40978128 0.028303431 -0.3729809 0.42755687 -0.09854741 -0.3518995 -0.017135536 0.53614855 -0.21074344 0.36138126 -0.6326511 -0.059251282 -0.3532535 -0.32418266 0.12592524
67 -0.16038214 0.05871221 0.1863456 0.4032773 -0.15114118 0.33857185 -0.095733814 -0.37880358 0.031807788 -0.23766208 -0.22352023 0.12745434 -0.14266111 -0.41258764 -0.30625492 -0.22657359 0.27328253 0.25753295 0.36492953 -0.44842154 -0.0076415017 0.13316861 0.39872104 -0.2704067 -0.47874755 0.25371704 0.015672121 0.27815282 -0.2117659 0.69548124 -0.43561465 0.56053144 0.17124689 0.26897866 0.11293901 0.32236823 -0.34578553 -0.35767493 -0.29351795 -0.07288567 -0.507745 0.0667597 0.21928675 0.3149945 -0.109927066 -0.25355256 0.037885483 -0.3533581 -0.062991425 -0.3523143 -0.35664493 -0.55667573 0.16635695 -0.03937746 -0.76931196 -0.47189817 0.14079545 0.67860395 -0.24954867 0.36761367 -0.15390398 0.58416605 0.36554995 0.23416537 -0.35974348 -0.12829301 0.16466285 0.18880022 -0.12969962 0.15407981 0.3018681 -0.1027747 0.3420074 -0.5077727 -0.021215282 0.45309377 -0.020223357 -0.045652315 -0.07263045 -0.0027877828 0.49477705 0.18456794 -0.27402988 0.52402323 -0.5219503 -0.17896028 0.30367416 0.2155002 -0.16131774 -0.30527532 0.28166357 -0.20720063 -0.0743269 -0.23089236 0.6850474 -0.44947565 0.19611382 -0.25082663 0.113324255 0.0787837 -0.036500484 -0.22336078 -0.21498492 -0.093488105 0.36694187 -0.21404713 -0.3353571 -0.260223 -0.056403946 -0.44442973 0.39816827 0.33056498 -0.03269021 0.3329018 -0.21710892 -0.13140148 -0.19196877 0.36992878 -0.19749025 0.35122156 0.59199923 -0.123158135 0.2871856 -0.40119904 -0.6066206 0.14004467 -0.057868175 0.543606
66 -0.08308265 0.012394382 0.175932 0.4446431 -0.14003237 0.2735902 -0.103793316 -0.36198238 -0.042248193 -0.2847583 -0.2233235 0.09825874 -0.03258074 -0.508122 -0.3879747 -0.40865242 0.27209237 0.23040138 0.48769024 -0.5719689 0.12793273 0.17301558 0.41903612 -0.24153505 -0.60648906 0.20005666 -0.05046689 0.35525784 -0.26685944 0.5789789 -0.3943787 0.65236896 0.027497513 0.52419186 0.031583842 0.14491966 -0.4270263 -0.34196407 -0.24227743 -0.011455542 -0.51894176 0.07315968 0.2179924 0.23339692 -0.10894994 -0.2881765 -0.0156406 -0.40230775 -0.061907783 -0.31773868 -0.44349945 -0.53138953 0.24886896 -0.04729944 -0.7766482 -0.34765917 0.10164839 0.71789885 -0.30520272 0.38051555 -0.08280563 0.67317677 0.38902205 0.23811856 -0.33839616 -0.016871426 0.040659703 0.16348322 -0.21425857 0.1789564 0.30957475 -0.19723879 0.38659072 -0.57179946 -0.10856018 0.50783294 -0.032069307 -0.03654084 -0.037789363 -0.044609375 0.5157633 0.060279183 -0.35471994 0.5619274 -0.3389005 -0.25952962 0.31230682 0.2897643 -0.23399176 -0.1160776 0.16497263 -0.18799935 -0.18593603 -0.25256813 0.63177675 -0.4068359 0.23913275 -0.14419746 0.2163316 0.004257994 0.027850641 -0.27395847 -0.22724342 -0.05029552 0.3289254 -0.24030119 -0.33898172 -0.30048156 -0.17723063 -0.34389117 0.4082107 0.28056598 -0.097040474 0.3892924 -0.27261636 -0.06705336 -0.13783303 0.4414108 -0.17677228 0.23914473 0.58732545 -0.07420542 0.27224272 -0.33299112 -0.54367286 0.20314285 -0.13366525 0.4766734
108 -0.17256992 -0.2926719 -0.010286215 0.32501513 0.07811787 -0.1991878 -0.48222697 -0.12617363 0.054156203 -0.067456216 -0.5851953 0.38634992 -0.08757119 -0.12141654 0.21630476 0.015502139 -0.3807021 0.15790974 0.3905616 -0.24465208 0.26298618 -0.035075244 -0.728834 -0.017723732 0.07814031 0.022247134 0.024653189 -0.3617115 -0.116259485 -0.08599631 -0.5718733 0.07437604 -0.07496528 0.11391059 0.31184354 0.5073472 -0.059437405 -0.15191552 -0.31475517 -0.24753824 -0.1775963 0.07966877 -0.4669778 0.13422602 0.13556533 -0.12824653 -0.087337226 -0.016425172 -0.24154207 -0.28885928 -0.21526508 -0.23548016 -0.21837524 -0.37848023 -0.51052874 -0.20122012 0.1156729 0.4946178 -0.26809394 -0.3167327 0.19571106 0.57648563 -0.014223645 0.37116885 0.019835738 0.015688568 0.14313862 0.35854155 -0.079691015 0.15439384 0.18534847 0.4660066 -0.2899643 0.43872735 0.1149341 -0.09918445 -0.13370527 -0.13599056 -0.015116812 0.25802776 0.15344255 -0.13742156 -0.7157104 0.36064824 -0.08407818 -0.20888317 -0.28061917 -0.12872039 -0.7355847 0.1122807 0.10811234 -0.72937745 0.265435 -0.27124164 0.25025508 -0.3056789 -0.22223026 0.17236187 0.16592447 -0.2735326 0.2666939 -0.040285934 -0.11416294 -0.1360294 0.099015586 -0.31956944 -0.19798398 0.46458554 -0.13906336 0.0723092 0.31145576 -0.25817823 -0.14389622 -0.15089127 0.0017731632 0.3241308 0.25805202 0.30242223 0.032271046 0.01907547 0.57054096 -0.38695592 -0.14882477 0.084472746 -0.11074921 0.29684395 -0.051389065 0.5284207
160 -0.21539396 0.09697404 0.34505835 -0.27730802 -0.29493588 -0.18069081 -0.07689912 -0.4315514 -0.102585845 0.067822985 0.02274246 0.084028915 -0.23787196 -0.026858842 -0.22694038 0.22341135 0.045539286 0.43127835 0.59931886 -0.14096531 0.38561743 -0.45628732 0.14546804 -0.15211675 -0.30526268 0.035904113 0.1521929 0.006629163 0.05701219 0.2627644 0.04845441 0.7158307 -0.5386864 0.09273877 0.46472687 0.41981927 -0.40512288 -0.19034256 -0.57243675 -0.3426135 0.32562414 -0.193613 -0.15458816 0.48480073 0.14060831 0.13685523 -0.10493858 -0.23615815 -0.0004677071 -0.007937091 0.054977484 -0.37424332 0.10412527 -0.07856966 -0.5264509 0.3766215 0.18954532 0.15755786 -0.08087572 -0.24193366 0.05407885 0.30807632 0.3287726 0.11155383 -0.078213505 0.12234546 0.38440678 0.19000235 0.4774466 0.04692579 0.050853014 0.25871566 -0.55332136 0.87242043 -0.38997045 0.20134014 -0.16729902 -0.29132423 0.19127879 0.08451502 0.12537137 0.07451675 -0.6192133 0.1729334 0.3439196 -0.62882996 -0.24674317 -0.20485638 0.3195581 -0.6475676 0.440061 0.056585714 -0.27852112 -0.03216368 0.102603965 -0.12793227 -0.06254465 0.7117198 0.05376568 0.42468935 -0.041693084 0.044294626 0.1975476 -0.29454532 -0.19479676 -0.23142828 -0.11131305 0.04713868 -0.07722686 -0.065700874 0.15472874 -0.13911282 -0.064882755 -0.33676842 0.1788785 -0.2729892 0.58286005 -0.1547182 -0.16530037 0.051105224 -0.11952973 0.23857349 -0.09982475 0.1529522 0.09599729 0.23208694 0.13059364 0.1313251
161 -0.29974985 0.022811374 0.2615659 -0.15903652 -0.35950673 -0.21238166 -0.0012392843 -0.36195233 -0.0031493986 0.11384432 0.017571388 0.023147007 -0.2503575 -0.20655838 -0.17070197 0.24052884 -0.087237425 0.5628529 0.5622873 -0.08218449 0.43228677 -0.34456626 0.048865784 -0.19549815 -0.21767351 0.0039745863 0.2060793 0.04236136 0.012667627 0.16419794 0.04852876 0.72542554 -0.52627426 0.17044622 0.53458166 0.46777278 -0.4190747 -0.10991251 -0.5242778 -0.2806716 0.4022709 -0.2675207 -0.14492987 0.5060892 0.013039295 0.082305156 -0.21936415 -0.24614754 0.049507696 0.0330214 0.095179185 -0.42260495 0.08319126 -0.13252802 -0.41827303 0.36394003 0.15507673 0.1707626 -0.12784056 -0.32276013 -0.026698193 0.29796162 0.26219428 0.121347226 -0.068857744 0.10228966 0.4458679 0.13408813 0.44160953 0.121051356 0.029646777 0.2973992 -0.41218895 0.7464653 -0.38056943 0.091877334 -0.085436136 -0.4264057 0.12666705 0.010611432 0.1717723 0.01617622 -0.6181797 0.20231792 0.2126553 -0.63531804 -0.26235417 -0.22513813 0.34299543 -0.61184996 0.37057537 -0.02863551 -0.3400768 -0.030484894 0.04985516 -0.0058150566 -0.023376267 0.5953379 -0.002684555 0.49017268 -0.13795413 -0.042335823 0.28215548 -0.35364377 -0.17567088 -0.18183106 -0.09657907 0.12134187 0.014522993 0.009890742 0.10573563 -0.24606532 -0.06139308 -0.3114848 0.22337456 -0.35474303 0.56650037 -0.052118503 -0.11741757 -0.022804532 -0.026246343 0.12473038 -0.15380101 0.13556975 0.0785923 0.25701582 0.04672909 0.15869425
107 -0.16013941 -0.21477148 -0.058417074 0.40621528 -0.006322671 -0.111383095 -0.26349536 -0.2570231 0.09380324 -0.028237797 -0.5377287 0.2574208 -0.05198092 -0.061960213 0.3516307 0.0495256 -0.51466125 0.26176694 0.45415267 -0.34315163 0.2402217 0.014761501 -0.6635974 -0.0995069 0.15100205 0.05796512 -0.016249457 -0.35951188 -0.13746305 -0.049445473 -0.6149198 0.08635158 -0.13310215 0.09619964 0.4186583 0.45117697 -0.15081775 -0.1784529 -0.29668853 -0.3441288 -0.11477551 0.0044041104 -0.43610612 0.019702995 0.15387316 -0.18588975 -0.044304274 0.11708374 -0.20944038 -0.29636714 -0.23876598 -0.29534027 -0.21731965 -0.37206665 -0.4954763 -0.229866 0.10554025 0.5804616 -0.21219149 -0.3625661 0.19161476 0.55352443 -0.05994573 0.35015744 0.14030072 0.0679685 0.08568069 0.35206145 -0.09425434 0.086902216 0.16811061 0.44200942 -0.2755627 0.4061703 0.016864065 -0.00038312934 -0.029775416 -0.06485949 -0.08755838 0.20820652 0.06482131 -0.101499915 -0.687255 0.330743 -0.07639883 -0.3113475 -0.20525081 -0.23069248 -0.72066367 0.18764564 0.13285667 -0.630659 0.18101798 -0.1461226 0.15122224 -0.23791164 -0.19877939 0.1255459 0.2319947 -0.27606344 0.22194111 -0.19726148 -0.14749064 -0.15788326 0.06547255 -0.37833038 -0.27065036 0.57811564 -0.17614838 -0.06033565 0.22496971 -0.24131007 -0.13362758 -0.09897594 -0.020443536 0.4079691 0.30019024 0.31142834 0.07487921 0.07699813 0.49144363 -0.2629337 -0.04054181 0.18333009 -0.036094256 0.3046665 -0.058731437 0.49243137
159 -0.26477402 0.10768542 0.2803601 -0.25611293 -0.42248353 -0.059178416 0.03805211 -0.38523236 -0.059234127 0.019033805 0.14648338 0.10880574 -0.25928095 -0.011854603 -0.042147033 0.19814278 -0.10084126 0.38917425 0.56256306 -0.074015744 0.39019284 -0.28048828 0.07005469 -0.087645166 -0.19528492 0.052005734 0.10987002 0.0275087 0.06288829 0.231014 -0.0053103864 0.74506605 -0.52952945 0.23811653 0.6043097 0.46440017 -0.35990673 -0.16348028 -0.5199705 -0.20391291 0.35988238 -0.22231898 -0.04210233 0.53374094 -0.0009171652 0.19050877 -0.2162037 -0.23335232 0.0016405723 -0.0045281746 -0.027451038 -0.57171464 0.10087949 -0.09090263 -0.672366 0.38237342 0.24137549 0.15762082 -0.0656698 -0.22971645 0.073942475 0.275705 0.43808115 0.051336065 0.0053829313 -0.06277296 0.41619074 0.07180963 0.44243872 0.070360266 0.102652945 0.1926377 -0.49308228 0.7655687 -0.3926566 0.052088156 -0.12237555 -0.4174554 -0.0035356213 0.042573184 0.101805456 0.13477011 -0.522364 0.15865378 0.22535491 -0.5675105 -0.22899902 -0.12188747 0.44609085 -0.7487554 0.34385353 0.03980722 -0.31950933 -0.0165685 0.15017399 -0.07326897 0.053035855 0.6679328 0.061968584 0.33466795 0.0020756316 -0.04871987 0.17429614 -0.3740828 -0.23968108 -0.31334257 -0.14078441 0.07516283 -0.044076074 -0.08753158 0.1370973 -0.20802858 -0.16109832 -0.29739884 0.14954546 -0.26331347 0.64854586 -0.117810234 -0.15441567 0.029546462 -0.12779187 0.16945913 -0.08049214 0.11157425 0.100303575 0.28031307 0.06877475 0.23288547
158 -0.2662656 0.09194361 0.28375545 -0.1984591 -0.41977197 -0.11152296 -0.07599739 -0.4406717 -0.087497346 0.06984116 0.13305078 0.061321955 -0.23772778 -0.03302407 -0.02745557 0.34775794 -0.011465316 0.4773504 0.62649494 -0.120473385 0.35518578 -0.34188926 0.053237077 -0.18620114 -0.31347775 -0.045123212 0.19404696 0.021505158 0.17723948 0.19283882 0.027761735 0.73540646 -0.46082905 0.25801605 0.54245037 0.44435787 -0.4261966 -0.20379396 -0.6113175 -0.3056654 0.32803398 -0.2933671 -0.26521546 0.4484644 0.03115689 0.058954347 -0.21915963 -0.29538774 0.10452073 -0.00340881 -0.016975982 -0.4456612 0.108123206 -0.17928953 -0.54793173 0.37176555 0.17343871 0.16557646 -0.04156692 -0.2423704 -0.036322434 0.26211405 0.46934447 0.09997183 -0.032837123 0.069979385 0.40990373 0.10790152 0.39428845 0.07146879 0.017921045 0.13854161 -0.4836155 0.88582414 -0.26202768 0.12563078 -0.17129621 -0.3147359 0.1212864 0.05619082 0.10457506 0.055317752 -0.6274327 0.15734853 0.27710643 -0.5205775 -0.23554957 -0.17902152 0.34332517 -0.6745543 0.30966294 0.08636595 -0.3183456 -0.08343627 0.063918784 -0.020972226 -0.0495688 0.6802759 0.023053994 0.40982926 -0.0949726 -0.00311483 0.17202055 -0.42394894 -0.21865351 -0.2584211 -0.13524324 0.08315547 -0.12190052 -0.06160718 0.19214225 -0.30270496 -0.11695672 -0.2661718 0.2164321 -0.29981273 0.6075232 -0.2511414 -0.19538787 0.08425806 -0.10122941 0.17382741 -0.08455244 0.12932137 0.094652385 0.17046018 0.061337914 0.1649163
172 -0.13664587 -0.28222528 0.115110144 0.44161266 0.010973087 -0.2596265 -0.4494684 -0.3577439 0.07307582 0.13334128 -0.6033172 0.73477685 -0.088061996 0.3328289 0.2001042 0.010311114 -0.6632217 0.049836285 0.6515477 -0.4321454 0.32737085 -0.08430015 -0.53283626 -0.30789816 0.25829005 -0.17189749 0.0464615 -0.27118063 -0.11764241 -0.31043497 -0.7187559 0.0706054 -0.12547775 0.023339422 0.44805467 0.51429594 -0.12305393 -0.10606043 -0.60420907 -0.3502985 -0.28424224 0.13558446 -0.5552253 0.30984557 0.3713337 -0.14175549 0.03394563 -0.1939892 -0.039786052 -0.14202829 -0.26804748 0.014147256 -0.15237032 -0.518488 -0.72367734 -0.21638739 0.13085857 0.57240134 -0.2651665 -0.107818045 0.025020186 0.41046372 0.09427558 0.51688963 0.044776484 -0.03066761 0.09635814 0.33452475 -0.23351367 0.15338227 0.1814302 0.39696962 -0.39624125 0.41702038 0.096981905 0.05892815 -0.048869077 -0.027667305 -0.23016687 0.34465116 -0.024769654 0.03359195 -0.519929 0.42933768 -0.03340631 -0.24406834 -0.010174034 -0.20637304 -0.78310674 0.20383559 -0.12580201 -0.44725603 0.25703654 0.006912282 0.30922008 -0.14346418 -0.20061804 0.33031127 0.34230018 -0.4239241 0.4988231 0.010506285 -0.2981717 -0.057886872 0.08482755 -0.396276 -0.4396899 0.42603984 -0.093690835 0.06999901 0.13696995 -0.11340625 -0.046875264 -0.012216116 -0.09068115 0.25985703 0.22938874 0.23498493 -0.20017003 -0.046065103 0.3207719 -0.21659777 -0.14312795 -0.008028121 0.10237135 0.31925714 -0.12887098 0.2291199
173 -0.109014474 -0.36090592 0.11716359 0.50143003 -0.0926466 -0.17179184 -0.44571304 -0.20168915 0.15578778 -0.021724325 -0.66257685 0.6155071 -0.19971918 0.21520528 0.3473579 -0.080501705 -0.6289726 0.026711056 0.63625157 -0.5376505 0.44235927 -0.14668716 -0.43455195 -0.31469855 0.2860762 -0.33255082 -0.02981581 -0.071035445 -0.06082615 -0.14459899 -0.6292535 -0.003351874 -0.082486525 -0.041847635 0.42544702 0.60265386 -0.13564472 -0.16346733 -0.6180351 -0.42497832 -0.28692722 0.1937939 -0.53272307 0.2811819 0.35427615 -0.19640209 0.13188146 -0.023172995 -0.07938538 -0.20652558 -0.2705625 -0.11060985 -0.20359816 -0.56447005 -0.5966641 -0.16808948 0.020188615 0.73872924 -0.20682977 -0.24967265 0.13033652 0.3253389 0.25147066 0.41818938 -0.03420413 0.056083705 0.09944634 0.2655452 -0.1667888 0.059541877 0.26335782 0.41329706 -0.38538253 0.40415293 0.11801046 0.028967503 -0.15060666 0.034949012 -0.08602937 0.28594506 0.004469139 -0.085314065 -0.49943483 0.38016918 -0.13205728 -0.23334566 -0.06593072 -0.21662821 -0.76924986 0.12912557 -0.00687287 -0.3418705 0.23047937 0.01906242 0.09895447 -0.10001423 -0.2087061 0.19162996 0.2408296 -0.38434556 0.44866386 -0.06345625 -0.17482927 0.05811372 0.044303674 -0.37321565 -0.22178388 0.38697803 0.012050127 0.082491964 0.111957476 -0.09545486 -0.16619247 -0.026531585 -0.10899742 0.25880173 0.37783504 0.14215761 -0.11395953 -0.045706615 0.32525554 -0.2252836 -0.10711218 -0.18374828 0.031257987 0.35279292 -0.08532153 0.25654203
150 -0.41024452 -0.7726592 0.15598498 0.16245928 0.1287971 -0.040904883 -0.593265 -0.4751531 0.02588951 0.15878406 -0.2304092 0.52414334 -0.084078416 0.15591548 0.32871497 0.18906593 -0.4080913 0.0060203257 0.58554476 -0.03438648 0.26792932 0.040981665 -0.27292022 -0.09575007 0.2658297 -0.0040587247 -0.046637792 0.210989 -0.3819645 -0.16207086 -0.42548308 -0.002625761 -0.117954046 0.27393228 0.45824245 -0.12815616 -0.18850188 -0.0693038 -0.2275073 -0.14693607 -0.20476304 0.31754047 0.3958064 0.14891139 0.15313911 -0.5237484 -0.06366966 0.13193238 0.019035615 0.3056832 0.1775698 0.00390127 0.1505463 -0.5027008 0.057342373 -0.071912825 -0.0058366824 0.1663934 -0.08027844 -0.32046577 0.10316924 0.23615173 0.12788166 0.0902023 -0.12511465 -0.2104879 0.016797174 0.47373572 -0.028676486 -0.10703871 -0.34232086 -0.13135637 -0.110962376 0.22450054 0.07834704 -0.3230246 -0.0020689808 0.2617659 0.08092895 -0.21685426 0.097479835 0.1294074 -0.33456105 -0.14134832 -0.07513444 0.09838077 0.09022374 -0.09157906 0.037352 0.33779612 -0.17612994 -0.4657756 0.024473969 -0.29930702 -0.100124195 -0.19833769 -0.42797065 0.26073188 0.24638103 0.43721902 -0.05026092 -0.2632058 -0.19718556 -0.09290774 0.12035997 -0.18005489 -0.18953408 0.17074704 -0.10960525 -0.11997894 0.11110797 -0.09875033 -0.4946021 -0.044944234 -0.4942194 0.19742206 0.22429869 0.35005665 -0.29868373 0.26452324 0.13085426 -0.1779647 -0.17601113 -0.5301829 0.25095117 0.20831656 -0.774266 0.08048956
211 -0.4862445 -0.3689174 0.029784545 0.23953809 0.20438302 -0.35251337 -0.5646995 0.0073180264 0.40129817 0.21617942 -0.38144663 -0.29160124 -0.089204825 0.24278279 -0.024755418 0.4583982 0.031311437 -0.24551496 -0.025321728 -0.2954945 0.50773853 -0.06165199 0.42709112 0.05587389 -0.12956688 -0.11310928 0.20223053 0.07577558 0.19828837 -0.15872328 -0.498857 0.12498024 -0.13839944 0.257497 -0.0015835777 0.21139352 -0.11389434 0.35567096 -0.6246302 -0.55316335 0.1269928 0.012774832 -0.23448363 0.7723738 0.31064576 0.10311218 -0.17482921 0.44678319 -0.15214472 0.17963545 -0.45552313 -0.061011102 -0.15122584 -0.6169853 -0.092410445 0.4944794 0.6641481 -0.124134466 0.15505677 -0.10454334 0.8008309 0.40673193 0.32047233 -0.23579217 0.02134318 -0.26848197 0.23333265 0.28831416 -0.19616857 0.12791173 -0.22629958 -0.110895835 -0.22475146 0.07695992 -0.13747002 -0.42182016 0.043353792 -0.0884027 0.028525008 0.021734215 0.11255433 -0.022191307 0.3271183 0.2764678 -0.022913992 -0.14559305 -0.2984862 -0.22062565 -0.5847779 0.29958382 -0.12716685 -0.2898302 0.603398 -0.49005902 0.4678221 -0.4730124 0.048593245 0.5902172 -0.34251374 0.050223112 0.57745147 0.26406837 0.26918074 0.15969361 0.052648604 0.3296936 -0.49051243 -0.20279548 -0.009700591 0.5459096 -0.10612441 -0.010578559 -0.17253116 0.116138205 0.20108944 -0.13793129 -0.042298276 0.111757524 -0.07608441 -0.07815615 0.17816743 -0.26696476 0.44231525 -0.48675117 -0.078949295 0.038311217 -0.124529235 -0.21742104
149 -0.44270423 -0.7637699 0.11968167 0.20604728 0.14141275 -0.09352716 -0.7358909 -0.4212177 -0.029550627 0.10650873 -0.28212398 0.66392547 -0.14965864 0.1831808 0.30256724 0.24389477 -0.42034954 -0.0056805653 0.69173723 -0.0325166 0.3512942 0.020743314 -0.17316091 -0.20137616 0.30697867 0.057898384 -0.06914138 0.24321926 -0.35288754 -0.06650468 -0.43810296 0.18170375 0.016637346 0.21995457 0.47977293 -0.17833793 -0.12568982 -0.062411256 -0.26227963 -0.101171084 -0.19535208 0.25475943 0.36416647 0.13173684 0.25549033 -0.51781076 -0.04219076 0.22881329 -0.05425912 0.32789373 0.26813406 -0.00027186968 0.066512294 -0.48737398 0.06456085 0.086586356 -0.016469898 0.09204824 0.06792736 -0.47594464 0.1803983 0.24248299 0.1797162 0.1221461 -0.088652715 -0.22851887 0.16166838 0.531353 0.061766908 -0.11590501 -0.4019281 -0.11499277 -0.16814761 0.27831063 0.1074088 -0.27221158 -0.03159859 0.24640808 0.14026529 -0.19926386 0.030592116 0.16045523 -0.33403736 -0.18178532 -0.052156836 0.03946633 0.17702241 -0.07191464 -0.042982858 0.30926228 -0.19219463 -0.4665348 0.22861817 -0.31613722 -0.15520005 -0.23427176 -0.42839077 0.30851704 0.19609648 0.4058936 -0.084865905 -0.29103917 -0.23182668 0.013464101 0.1436715 -0.19655898 -0.12430437 0.20583615 -0.09017267 -0.10443109 0.042179897 -0.12431013 -0.619274 -0.080654405 -0.5918416 0.29469776 0.25795877 0.2596218 -0.36310098 0.2004151 0.21700983 -0.1008537 -0.26942617 -0.63653797 0.3004678 0.11963625 -0.8031765 0.019519452
181 -0.40025145 -0.33446917 -0.09235808 0.22538559 0.34771547 0.55241066 -0.42596197 -0.28464392 0.17578058 -0.11980054 -0.21118774 0.26749113 -0.48570716 0.23025422 -0.50733244 0.8075272 0.10297046 0.0725954 -0.007158372 0.15657724 -0.06927453 -0.01907075 0.42577785 -0.66036093 -0.13110037 -0.31633085 0.32705972 0.44240227 -0.09293282 0.0812761 -0.292328 -0.0816015 -0.14922181 -0.114627056 0.5107284 0.1966021 -0.045236077 -0.13336557 -0.52249914 -0.23618348 -0.35619715 0.17487177 0.057337638 0.047645956 -0.040254444 -0.44247586 0.37515575 0.1473312 -0.07507208 -0.18080014 -0.2939866 0.13026817 0.3486587 -0.2299539 -0.43764877 -0.08342454 -0.20670003 0.38820294 0.24292067 0.41480938 -0.16127396 0.53135115 0.21851756 0.23998424 0.32356048 -0.35881343 -0.090917386 0.28193414 -0.34666955 -0.5402879 0.17329858 -0.46907082 0.23594904 -0.025237903 -0.08898162 0.47962207 -0.25466457 -0.42022002 0.29975638 0.49640217 0.42466456 -0.11331633 -0.24514282 0.39027458 -0.14064424 -0.21788567 -0.1486844 -0.01864162 0.07520859 -0.0014418148 -0.19448389 -0.15730077 0.2058663 -0.35000083 0.47941813 -0.14787318 -0.07043046 -0.017022695 -0.3502746 -0.24768534 -0.15958871 0.2051452 -0.69416445 -0.025354559 0.7168315 0.15861338 -0.1569906 -0.25111046 -0.29846022 -0.3686262 0.44565436 -0.13136703 -0.039629545 0.14922842 -0.35808155 -0.1734038 0.36978665 -0.1693008 0.15494794 0.6484755 0.0737224 0.2503743 0.035745766 -0.461063 -0.22758572 -0.022726802 -0.30295745 0.3266491
130 -0.53411764 -0.46769306 0.011210284 0.2661656 0.09455122 -0.51090586 -0.17515086 -0.5770559 -0.053891424 0.033564948 0.076255895 0.075575374 -0.24458149 0.23402302 -0.39690158 -0.37618676 0.024835212 -0.020490086 -7.4212425e-05 0.13577598 -0.36515707 -0.32716754 0.79996 -0.4031187 0.32910055 0.1502656 0.096544385 0.08578512 -0.13973443 0.2901315 0.005424501 0.084543556 -0.07413854 0.24609135 0.054556325 0.2164724 0.2040852 0.020100523 0.29420966 -0.08659464 -0.45121843 0.31556934 0.09308806 0.22814679 0.096285716 0.115290776 0.23287815 -0.3779731 0.15145788 0.0147149395 -0.7368745 0.34349415 0.25063413 -0.66365963 -0.40026063 -0.51467377 -0.39285472 0.28271613 0.12151195 -0.0729405 0.02862426 0.05251552 0.108939506 -0.05545533 0.39306024 -0.51357836 -0.26940683 -0.2068985 -0.15367597 -0.6060985 -0.06090573 0.084585585 -0.2284693 -0.09571823 -0.16811053 0.5319612 -0.5151929 -0.59043604 -0.15812023 0.59079534 0.26078352 -0.09185366 0.14711075 0.49544543 -0.15480578 -0.320325 -0.40001178 -0.4658846 0.16322587 -0.019705636 0.5636109 -0.042064097 -0.24413307 -0.045373056 -0.155277 -0.31601113 -0.27821663 0.36544174 -0.2991793 -0.3280692 -0.053223718 0.025244132 -0.011881078 -0.014067272 0.19153878 -0.031711247 0.01942194 0.23559019 -0.28016564 -0.17894652 -0.05666086 0.03200005 -0.41466013 0.04983444 -0.20057204 -0.19888616 0.30879834 -0.16705324 -0.11988549 0.6958834 -0.017067617 -0.5968955 -0.20632301 -0.17357695 0.20852485 0.6907396 -0.5137369 0.20527615
129 -0.61063004 -0.27102864 0.008201559 0.22254622 0.095742226 -0.42521968 -0.09684055 -0.5112604 0.056955304 0.06278715 0.1588511 0.10174746 -0.2696087 0.05080109 -0.35359523 -0.4630173 0.06606703 0.014656338 -0.08446919 0.16381407 -0.02289085 -0.25457227 0.7651734 -0.39928347 0.39280307 0.02060021 0.23222849 0.10238532 -0.19356231 0.31971505 0.048416644 0.121818334 -0.116954036 0.34313375 0.11217695 0.12696421 0.32708064 0.102886386 0.33962083 -0.12006954 -0.4607599 0.3644834 0.13508025 0.1904633 0.02462903 0.062065087 0.32222143 -0.30757767 0.1760816 0.13350192 -0.777458 0.30746704 0.38231564 -0.77318656 -0.2918935 -0.51501906 -0.45688483 0.2387499 0.1839383 -0.02009553 -0.07408534 0.113067456 0.110854365 -0.043102864 0.40618438 -0.40573788 -0.35768142 -0.26408768 -0.12756234 -0.58162105 -0.017031403 -0.05532289 -0.22632788 0.14579253 -0.3102502 0.5592236 -0.6094998 -0.5593273 -0.17593448 0.633492 0.27258748 -0.07861152 0.117527775 0.28935176 -0.17364296 -0.39429447 -0.24237725 -0.5124514 0.19552784 -0.0111273965 0.5595004 -0.17157184 -0.19338362 -0.19044878 -0.13419746 -0.2914204 -0.2686479 0.41306558 -0.39744976 -0.3499839 -0.0749465 0.014737993 -0.23757769 0.0068466985 0.24293259 -0.12023946 -0.0009706322 0.123745106 -0.37619674 -0.11637544 0.08943579 0.106466584 -0.44787654 0.049805097 -0.32218942 -0.03805956 0.3183155 -0.21183163 -0.010221943 0.7610943 0.009772375 -0.5931952 -0.20068192 -0.1976452 0.11949784 0.77434194 -0.52431166 0.17387609
182 -0.50211585 -0.38872847 -0.1351924 0.20953427 0.4016115 0.6646449 -0.44538513 -0.3747741 0.116852194 -0.14062 -0.13190322 0.2947718 -0.46999618 0.18973775 -0.4495706 0.8147965 0.00943983 0.040508695 0.0066889166 0.12657285 -0.05340239 -0.042617902 0.40120634 -0.7337951 -0.12936325 -0.18473545 0.29925078 0.55549246 -0.10203113 0.15980421 -0.47592026 -0.056001697 -0.094285734 -0.032991104 0.5266876 0.13794051 -0.05523879 -0.1330848 -0.5613062 -0.17419808 -0.28402755 0.09008042 0.103168935 -0.080823675 -0.009361205 -0.4033998 0.291976 0.16959332 -0.10460579 -0.097637184 -0.30329883 -0.00090547994 0.38581303 -0.1341857 -0.5241866 -0.016890544 -0.22734185 0.43435186 0.28958875 0.50033563 -0.1919372 0.5206636 0.19276245 0.13886265 0.2595888 -0.33515474 -0.16117576 0.24741235 -0.3376211 -0.6148818 0.17327692 -0.46203873 0.24701716 -0.15295199 0.015256739 0.46392733 -0.17002924 -0.46990725 0.21653911 0.46240196 0.42927003 -0.08029656 -0.19528095 0.4335415 -0.24831787 -0.16783245 -0.20124535 0.004747055 0.20050141 -0.07822974 -0.21856885 -0.0931778 0.10886731 -0.35948902 0.5842812 -0.0921392 -0.043745395 -0.050248962 -0.4327917 -0.17400385 -0.12819096 0.25609672 -0.6310833 -0.08285804 0.80441946 0.17753544 -0.17801903 -0.22769783 -0.28743798 -0.31430554 0.40057826 -0.17925496 -0.11615601 0.16948026 -0.3877676 -0.16622856 0.3941656 -0.21283804 0.20812903 0.67557794 0.062912695 0.21974851 0.13651447 -0.46955884 -0.20238113 -0.03439501 -0.42855433 0.41884643
209 -0.4584101 -0.41211763 -0.049732674 0.2206767 0.18117514 -0.15494342 -0.47333527 -0.092458345 0.3265206 0.24364492 -0.39900687 -0.39439645 -0.04239234 0.29739845 -0.05103975 0.24948414 -0.005201582 -0.27806336 -0.042976413 -0.27107167 0.44120282 -0.14407092 0.5511196 0.020124132 -0.07684504 -0.16271459 0.23474672 0.02870605 0.22700645 -0.0059677144 -0.43847126 0.0186246 -0.11583749 0.2422111 -0.040070005 0.26539445 -0.2420973 0.36645913 -0.51468825 -0.69651264 0.10917477 0.22018251 -0.03245339 0.7280254 0.44559884 0.21081986 -0.13516146 0.44617775 -0.10688098 0.26436946 -0.50115985 -0.036210265 -0.09573578 -0.7152109 -0.21982254 0.48847327 0.70780873 -0.074900866 0.17131133 -0.1364406 0.8063979 0.35200447 0.27808005 -0.26292723 -0.052987408 -0.26483166 0.29814103 0.36796808 -0.21438974 0.15444614 -0.22402586 -0.08068709 -0.25231627 0.09650314 -0.1459199 -0.41117805 0.11006493 0.07957129 0.02266398 0.051767793 0.10372639 0.0031411885 0.35919696 0.28983173 -0.14498445 -0.19319916 -0.30737853 -0.17663528 -0.58737 0.3216677 -0.06469247 -0.3122569 0.59970695 -0.43426245 0.44297585 -0.637041 0.0910633 0.4766852 -0.33140028 0.11351743 0.5689222 0.24477968 0.15229636 0.2500786 0.058472622 0.20177266 -0.55751145 -0.26367825 0.06147216 0.48943484 -0.08143087 0.083641574 -0.34162995 0.17032441 0.17541343 -0.096381806 -0.050292604 0.12388413 -0.0716855 -0.05533585 0.19391605 -0.3055304 0.49061263 -0.49152985 -0.16917688 0.11478927 -0.17239094 -0.2808819
140 -0.20357102 -0.41988727 0.4769921 0.42523333 0.3644958 -0.04735906 -0.6203937 0.008815476 0.34390587 -0.18601355 0.15059306 0.15923457 0.22350745 0.2678421 0.37238505 0.25597167 -0.4092932 -0.38134867 0.4974427 -0.7387199 0.15618835 0.00015006385 -0.27046815 -0.1035636 -0.115387104 0.46947277 -0.100469515 -0.036475185 -0.109732844 0.023756452 -0.89487386 -0.08508829 0.23791155 0.21371076 0.47641814 -0.15787762 -0.19335009 -0.50945914 -0.38461092 -0.39519328 -0.43187433 -0.23188451 0.3987069 0.2526258 -0.023259772 -0.42337728 0.09961953 0.038742937 0.029128782 -0.23920843 0.015389612 -0.42513636 -0.109601974 -0.30738452 -0.07839092 -0.16975927 0.17368789 0.5837642 -0.054252543 -0.25762615 0.38276193 0.6966259 -0.11239341 0.50871956 0.30998164 -0.09786615 0.21783382 0.32070315 0.119854845 -0.3992455 0.23581249 -0.21448666 0.03407151 0.077861786 0.04460012 -0.3609418 -0.32591075 0.28330472 0.09157801 0.331847 0.0941737 -0.14924508 -0.0806736 -0.50753653 0.011384505 -0.19664127 -0.1316766 0.05656506 -0.3832305 0.1383259 0.09725254 -0.20018137 -0.11518277 -0.07171651 0.08104818 -0.28149393 -0.22420861 0.20682317 0.2796525 0.16878507 0.19673602 -0.08949644 0.16140573 -0.09160198 0.22595002 -0.27763182 0.07238411 0.37575445 -0.5492065 -0.28680938 0.26083708 -0.26543 -0.36455783 0.0074435407 -0.25551182 0.40851012 0.03263435 0.32186076 0.023279049 -0.034348078 0.40228832 -0.3719119 -0.10878802 -0.29694855 -0.06261813 0.38661236 -0.29353577 0.3952033
139 -0.22198051 -0.42812586 0.4746962 0.5368189 0.30414143 -0.0171691 -0.4972425 -0.085443236 0.27174154 -0.040068842 0.16623951 0.15823969 0.12117831 0.37423772 0.3259606 0.19237056 -0.39916405 -0.4875758 0.49614066 -0.6980007 0.22408067 0.22932726 -0.22147608 -0.13940097 -0.05950519 0.29658392 -0.10326416 -0.22217827 -0.21937993 -0.00987526 -0.8146922 0.022258298 0.34680262 0.22792959 0.5097403 -0.23458718 -0.13120185 -0.49607623 -0.46349964 -0.34128702 -0.449185 -0.099015474 0.43437228 0.20565474 -0.06544304 -0.48278666 0.18156043 0.0063282596 0.15938851 -0.31362146 -0.083092265 -0.38672915 -0.110423535 -0.32316056 0.016176896 -0.15832591 0.20989421 0.6301695 0.10635411 -0.08265369 0.3581059 0.6079209 -0.2362428 0.54499644 0.2742862 -0.16667683 0.1443553 0.31444368 0.03451555 -0.3998388 0.23041779 -0.25351557 0.07075164 -0.10981951 0.14251475 -0.2857907 -0.16581932 0.26541126 0.08747796 0.2646301 0.054375052 -0.030755367 -0.26758885 -0.47187716 0.0998378 -0.07678921 -0.19357787 0.07557203 -0.16634212 0.18667765 0.056572467 -0.22770086 -0.034221087 -0.07661315 0.1712948 -0.44442755 -0.28513023 0.26489094 0.22768727 0.17829601 0.07694586 -0.037171766 0.3229451 -0.045869414 0.15800676 -0.52505785 0.10522101 0.2957257 -0.44190803 -0.31185466 0.30877712 -0.34105015 -0.33487552 -0.019569699 -0.14147907 0.3699803 -0.032581866 0.27646828 0.094191 -0.08419219 0.51750267 -0.4126326 -0.2153977 -0.3010965 0.040622674 0.30963323 -0.37149093 0.17556906
79 -0.69046897 -0.77497494 -0.16065419 0.23264548 0.8448134 -0.08260464 -0.30267203 -0.09950257 0.1263448 -0.13592337 -0.14378005 0.5350008 0.19271867 -0.0842227 -0.13528146 0.21960734 0.26812273 -0.042900607 0.6790456 0.089379184 0.11622117 -0.19953287 0.06340952 -0.3168663 0.037983906 -0.09872618 -0.12238335 0.052090548 -0.22258344 0.017060434 -0.37734857 0.6179207 0.20870395 0.08133687 -0.053351555 -0.06478462 -0.004081208 0.2799386 -0.42794108 -0.4606243 -0.27116957 0.3709601 -0.3344664 -0.028665597 0.0068088067 -0.28669593 0.034408465 0.43550596 0.4045036 0.0016824444 0.10433642 0.032833464 -0.0640956 0.10260325 -0.08137516 -0.3538429 0.14969434 0.027542105 -0.123679124 -0.11512439 0.3227741 -0.10326614 0.07899151 0.2584102 0.25326562 0.062184185 0.24781495 -0.07251465 0.22777697 -0.31251785 0.20400226 0.20055993 -0.4890597 0.07023893 -0.08245104 -0.12452135 -0.094537295 -0.2737653 -0.13806689 0.03344247 0.10426505 0.1049388 -0.20101306 0.084408835 -0.07875821 -0.27116314 -0.08142861 0.00941833 -0.07866226 0.062876426 0.36848143 -0.040465996 0.041964453 0.09800628 -0.1764185 -0.23154849 -0.25331017 0.004160008 0.17606054 0.2836188 0.023102732 -0.04378402 0.030340677 0.21634603 0.073256694 0.07515533 -0.21541922 0.109785795 0.045145657 -0.0072740195 0.38184935 0.31981593 -0.072012186 -0.11680916 0.43950945 0.47230443 0.17312272 0.050855987 -0.20391585 0.17946547 0.10524393 -0.22398348 -0.37526453 -0.20859316 0.16760166 0.3408021 -0.49347994 0.30262387
112 -0.7828252 -0.3872962 0.011642575 0.07966127 0.9997586 0.01865907 -0.36234653 0.20307261 0.43859658 0.23232533 -0.20498301 0.01818747 -0.15524888 -0.17197168 -0.070393085 0.46589747 0.25391662 0.019361436 0.41207215 -0.1771872 0.29452276 -0.22428595 0.24442652 0.08052596 -0.030965706 -0.052230004 -0.28049657 0.27774435 -0.17065714 0.045874774 -0.2722649 0.76688075 -0.15613955 -0.2061342 0.16483779 0.13079295 0.048810903 0.19434537 -0.41232097 -0.76004815 -0.24054323 0.2818298 -0.34097296 0.091183044 0.027428439 -0.27202687 0.36777017 0.24009202 0.286652 -0.12779175 0.06908047 0.04863174 0.045677155 0.15647891 -0.07251598 -0.15832889 0.06733644 -0.22280905 -0.23064251 -0.14502683 0.12779233 -0.26687336 -0.072638325 0.3602476 0.11758514 -0.37661517 0.27615494 0.5042313 0.3783067 -0.227866 0.015081557 0.22113542 -0.34549692 0.120381854 -0.22673903 0.045192506 0.080102295 -0.5063195 -0.16776006 0.18720376 0.17316781 -0.13005412 -0.054590378 0.072935835 0.37744814 -0.10019599 -0.03652323 -0.0486739 -0.033997197 -0.27501255 0.54934955 0.10901245 0.12822519 0.016574226 -0.30457723 -0.113517314 -0.31669164 0.35194287 0.14076221 0.26984012 0.010644467 0.11348184 -0.018568732 0.10055979 0.15747276 -0.08277026 0.11989844 -0.0679097 -0.12855878 -0.053903714 0.52288103 0.09588137 -0.22981106 -0.1808254 0.325197 0.22067899 -0.16414425 -0.16620503 -0.5272562 0.14897436 -0.05395207 -0.2020681 -0.11786755 -0.1009679 0.16814283 0.19549748 -0.53441805 -0.24646698
80 -0.825894 -0.7510687 -0.26291433 0.37205788 0.89650065 0.04615846 -0.26731473 -0.17946526 0.2659401 -0.06689058 -0.020849546 0.4931203 0.03499927 -0.15911469 -0.31827483 0.19571719 0.16649444 -0.01043552 0.71220034 0.1515919 0.16422236 -0.21401636 0.18260482 -0.45441487 0.049541768 0.034286086 -0.053726293 -0.07296184 -0.18841748 0.033481404 -0.36023822 0.6262758 0.16633019 0.07001767 0.0278085 -0.23706225 0.034950193 0.30964214 -0.36031803 -0.5044948 -0.21694715 0.21821365 -0.35001698 -0.026864205 -0.070741445 -0.29776043 0.06512971 0.45684054 0.4585447 0.02317194 0.1748525 0.05260616 -0.14953288 0.025296593 -0.027959442 -0.24298233 0.15461732 0.052732714 -0.23102616 -0.052919324 0.31636694 -0.08386571 -0.00102573 0.3597174 0.36327106 0.011343275 0.13513741 -0.07632621 0.1987561 -0.23680952 0.15441008 0.1457281 -0.3906246 0.028173633 -0.05777749 -0.09267662 -0.08069155 -0.23383147 -0.19271526 0.08313518 0.02437641 0.08972281 -0.19198099 0.00915122 0.002939741 -0.26209277 -0.23765464 0.058246285 -0.049690843 0.058433663 0.35635355 -0.046101235 -0.12403251 0.03236585 -0.12595113 -0.09888882 -0.27202103 -0.058510765 0.17281099 0.18292205 0.08557238 -0.1708311 0.009527385 0.2720591 0.14662221 0.16272143 -0.19862422 0.053486172 -0.0252893 -0.058488652 0.42019787 0.25827453 -0.044704717 -0.11742367 0.36873254 0.3994866 0.12917922 -0.0285916 -0.076250605 0.17599206 0.17154665 -0.33235842 -0.31322834 -0.14611039 0.24037853 0.45386937 -0.5125536 0.31727046
111 -0.6945896 -0.33385473 0.08504868 -0.071657404 1.0295587 0.042143606 -0.34314188 0.26433504 0.32250786 0.19590388 -0.20839182 -0.063779846 -0.05397145 -0.15086797 -0.112986796 0.4231138 0.15889697 -0.091844164 0.35181016 -0.28763136 0.06585093 -0.4256011 0.23908027 0.14797215 0.0068171876 -0.105887815 -0.35899433 0.28912687 -0.10102567 0.10851963 -0.22356153 0.79327667 -0.23035167 -0.03194337 0.11967342 0.047790565 0.059699696 0.18623896 -0.36399087 -0.7563948 -0.3688564 0.1899155 -0.41477582 0.10887953 -0.037740946 -0.32811877 0.280792 0.22259395 0.28156123 -0.043809902 0.058188513 0.07978429 0.1395764 0.031587705 0.09048085 -0.15332721 -0.08962423 -0.13476878 -0.29845586 -0.1744008 0.14995435 -0.18945697 -0.14017119 0.42676672 0.17120644 -0.18424359 0.27980748 0.55861354 0.3516345 -0.20254168 -0.0022271473 0.22101876 -0.420687 0.09191508 -0.24141045 0.028114421 0.017660087 -0.38401103 -0.12783967 0.22400105 0.15207621 -0.2737943 -0.0721668 0.07393026 0.37545902 -0.08033844 -0.10075339 -0.06361501 -0.16702093 -0.16643743 0.5177861 0.11105047 0.11749374 -0.12731004 -0.30690673 -0.17188291 -0.23471567 0.39037037 0.080400914 0.27106613 0.0057719415 0.2158146 -0.059275556 0.11252274 0.068546645 -0.021705028 0.089571744 -0.039092407 -0.1382087 -0.0056812344 0.5470045 0.24585792 -0.24137366 -0.058851812 0.2846154 0.23788106 -0.21328257 -0.19968061 -0.43898273 0.16640685 -0.08257207 -0.16007717 -0.0948594 -0.12559329 0.13846095 0.09563733 -0.5977644 -0.23435959
113 -0.7534349 -0.40671787 0.1366626 0.04660667 0.90735084 -0.07293347 -0.17396148 0.27654442 0.37727046 0.14908402 -0.15529492 3.0502844e-05 -0.061193995 -0.1372789 -0.07324439 0.48198056 0.16360188 -0.021615373 0.5149114 -0.23249924 0.25387082 -0.114951186 0.22817628 0.07878898 -0.0800791 -0.016720725 -0.31947878 0.2542769 -0.3252382 0.08803233 -0.09583938 0.7830943 -0.31304288 -0.15769261 0.22242612 0.03705998 0.0825344 0.16063593 -0.43603 -0.5151054 -0.15277453 0.24805413 -0.2562656 0.20998342 -0.12099049 -0.12064818 0.3524404 0.18211924 0.2272066 -0.080773816 0.039907966 0.027431047 0.11186478 0.13303299 -0.1566323 -0.12776648 0.061117258 -0.12609412 -0.24733551 -0.117735974 0.15646708 -0.08666932 -0.25045586 0.37781748 0.28297052 -0.36451918 0.27780387 0.348658 0.3810762 -0.15888393 0.13043825 0.16847882 -0.29308003 0.07301418 -0.3392614 -0.12138981 0.1033867 -0.5558222 -0.15869857 0.32033584 0.0708346 -0.07577792 -0.023215989 -0.07230758 0.4177651 -0.08593635 -0.04126809 0.073919594 0.0092539275 -0.15563935 0.47931734 -0.0094555225 0.15685387 -0.09990118 -0.31997347 -0.13137947 -0.37573978 0.3705752 0.066691436 0.1666594 0.0072892224 0.18582651 0.059480406 0.09164748 0.16166168 0.004218284 0.1198374 -0.03962079 -0.1138051 -0.12043951 0.44173992 0.07633879 -0.40619668 -0.075951375 0.19966608 0.24551913 -0.14525875 -0.03068937 -0.40081078 0.1119958 -0.034748834 -0.30770445 -0.17843735 -0.051950593 0.12885515 0.31393948 -0.47969168 -0.16752613
110 -0.65644634 -0.50322026 0.0981363 0.012945077 0.8843714 -0.16762386 -0.2251624 0.20882119 0.34305966 0.32788742 -0.27030304 0.017745685 -0.059094537 -0.20401323 0.05426529 0.37476394 0.07040911 -0.05275714 0.2665802 -0.13048525 0.1606799 -0.17340654 0.24986663 0.047563095 -0.10683848 -0.10742589 -0.3894055 0.3170856 -0.23441322 0.04331032 -0.2012325 0.83085304 -0.28280744 -0.012188509 0.18910806 0.11036887 0.11748351 0.10982759 -0.44626844 -0.5616106 -0.17549235 0.26833835 -0.29913032 -0.0032011112 -0.028209109 -0.20856403 0.4766428 0.3230726 0.34019065 -0.16018635 0.03092273 -0.022527004 0.06340177 0.1553457 -0.041405357 -0.13176407 0.07956956 -0.21334498 -0.19615525 -0.15929377 0.26426667 -0.14927883 -0.20383924 0.43138143 0.18273996 -0.35750213 0.28912672 0.4325291 0.29722822 -0.3321354 0.1440616 0.28829506 -0.38035077 0.047332074 -0.19446954 0.059427932 0.055114392 -0.56007254 -0.15782198 0.19771312 0.2620591 -0.13220862 -0.0251788 0.089332074 0.46453044 -0.109540254 0.0071698176 -0.057501674 -0.10588773 -0.124619246 0.552306 -0.079704806 0.22961915 -0.103962 -0.2851237 -0.23705459 -0.34682083 0.36205095 0.067692526 0.18705234 0.00891171 0.27024347 -0.017876653 0.07640964 0.14572795 -0.03806497 0.07497285 -0.046240184 -0.23345585 -0.12948275 0.43809307 0.1210653 -0.1975872 -0.13726246 0.42799127 0.33478358 -0.1724216 -0.06317313 -0.4904369 0.11934169 -0.013721831 -0.29020122 -0.21170054 -0.11746297 0.12710944 0.1428264 -0.58568525 -0.21566711
62 -0.67143685 0.22729218 -0.1920196 -0.5848178 0.46609005 0.35792682 0.27817842 0.2907391 0.50329864 0.061913356 0.29384798 0.019015811 -0.07483573 0.2813109 0.34350112 0.065243684 0.10352981 -0.17191646 -0.010232015 0.018064413 -0.1020511 0.07659535 0.45667323 0.3307398 -0.28189868 -0.17101946 -0.3209549 0.25455222 0.014921455 -0.41473588 0.04588026 -0.13548076 -0.57875055 -0.09640499 0.53863037 0.28771496 -0.6661742 -0.28047273 0.06567555 -0.5427231 -0.6279316 0.3497598 0.06877847 0.43047965 0.11895287 -0.18682565 -0.017843667 0.19519727 0.1811435 0.05048204 -0.20722236 -0.16804092 0.20998627 -0.45837924 -0.71499836 0.14499319 0.32976797 0.0048415614 0.1125353 -0.0668407 -0.081757315 0.15426591 0.3601157 0.073784776 -0.18356928 0.18004195 0.76850444 -0.050236892 -0.007765207 -0.114342004 -0.10934858 0.13438225 -0.038414627 0.31158158 -0.37961373 0.07636813 -0.1102799 -0.19317506 0.41204244 -0.033266634 0.27921817 -0.25793442 -0.24130577 0.7175697 -0.07345698 -0.58924687 0.0035694817 -0.050259 0.29742488 -0.12436542 -0.018166842 -0.42089006 0.013294572 0.0922801 0.1695414 -0.72821563 -0.03923192 0.3226367 0.48460704 0.30393335 0.5462392 0.07764073 0.13030152 0.055997018 0.13379735 -0.17599201 0.14473343 0.2654367 0.5211668 0.3101396 0.35588068 0.31592253 -0.28856513 0.44635138 -0.49525565 0.11905019 -0.10408105 0.16310482 0.032288224 0.16393553 0.026437584 -0.106453545 -0.06806946 0.046859313 0.63570446 0.39386135 -0.049454093 -0.010868979
61 -0.6729809 -0.07944322 -0.18894684 -0.51093864 0.4977939 0.40200636 0.40797624 0.16374716 0.63071156 0.17778172 0.31699577 -0.062731 -0.09910077 0.12637329 0.36632088 0.14238979 0.21496528 -0.17073002 -0.1550233 0.10865258 -0.0781863 0.1512619 0.53126633 0.22093166 -0.32187587 -0.15903643 -0.38150302 0.42289022 0.013550096 -0.38172927 0.020924108 -0.29359877 -0.62768036 -0.017371599 0.61034966 0.24514574 -0.63412344 -0.31229785 -0.14119764 -0.5649897 -0.49861673 0.27293172 -0.080327556 0.26034486 0.06664519 -0.34154314 -0.15409994 0.19206917 0.24301817 0.06763333 -0.18119225 -0.2659897 0.3301549 -0.5467858 -0.64299184 0.30443844 0.4823417 -0.08753339 0.10595863 -0.19748436 -0.11857948 0.2600133 0.3261467 0.047417086 -0.07045409 0.21871607 0.79548234 -0.07438911 -0.16681427 -0.14819646 -0.10757344 0.26675442 0.12144947 0.35800314 -0.3565844 0.10965268 -0.3423386 -0.19026764 0.56134707 0.14416307 0.53614515 -0.37862137 -0.22325607 0.73248184 -0.0539869 -0.52813923 0.011873691 -0.17735785 0.2739939 -0.14383136 -0.14178458 -0.35503536 -0.12175684 -0.021993523 0.1032035 -0.6506238 -0.06683326 0.29997465 0.27100357 0.32297426 0.52007115 0.0406905 0.21317987 0.2559443 0.22280183 -0.12912576 -0.019203292 0.068163835 0.45175385 0.32773662 0.26757768 0.23762225 -0.2869253 0.41821668 -0.54430735 0.08321281 -0.123171486 0.14309861 -0.041773994 -0.010487472 0.07133441 -0.14775676 -0.14453185 0.03200634 0.65431213 0.5060935 0.07148436 -0.084975705
141 -0.4787235 -0.2979431 -0.5523188 0.26195666 0.46002316 0.9517012 -0.17934981 -0.25479382 0.2594998 -0.13166541 0.27743453 0.48865363 0.1053752 0.01767773 -0.11436281 -0.13401847 0.0020859274 -0.066249065 0.14975023 0.32997376 -0.32762113 0.45322797 -0.09748445 -0.09814312 0.0006432151 -0.4732997 0.15005301 -0.27961025 0.0070604216 -0.45217252 -0.05140246 0.06321235 -0.2975635 0.37219325 0.37773547 0.51797205 -0.6717767 -0.2356535 0.09610762 -0.37394816 -0.49372882 -0.1731878 0.25513667 0.19832048 -0.22300358 0.32272786 -0.21712972 0.024421347 -0.21322346 0.21030785 -0.23485747 -0.36958304 -0.1489749 -0.5261801 -0.3725718 0.44310158 0.5292027 -0.035611425 0.2389244 -0.40616173 0.493561 0.47473922 0.2103927 0.10645942 0.2078224 0.26169434 0.4999488 -0.27022916 -0.46201774 -0.44377074 0.16352342 -0.17816812 -0.3982163 0.24232678 -0.04354928 0.28747904 -0.096480116 -0.27641475 0.53090113 -0.30096412 -0.02775938 -0.05275129 -0.34740457 0.7467432 0.097240664 -0.54333216 -0.27819332 -0.42453286 -0.07047215 0.030190406 0.31456503 -0.71934587 0.3224743 -0.38226715 -0.008436211 -0.65495825 0.23294629 0.010035085 0.2022101 0.14509186 0.77983636 0.16354379 0.09347526 0.09547377 -0.22800642 -0.22233662 -0.11564242 -0.028723046 0.5758398 -0.051646207 0.06195875 0.5593276 -0.34848705 0.1924645 0.106048256 0.24161854 0.18148597 -0.13162452 -0.21202312 -0.19256794 0.43955195 -0.09178835 0.50378346 0.2818464 0.31857604 -0.17359063 -0.35166168 0.07365493
142 -0.3941957 -0.1720663 -0.470951 0.19853644 0.3597616 0.9726464 -0.15085882 -0.31903118 0.20306909 0.07817056 0.28383988 0.37587205 0.15379465 0.066418126 -0.026370656 -0.21556145 0.011097134 -0.019643959 0.24792731 0.28302097 -0.371974 0.42745197 0.011406459 -0.111899346 0.0063592377 -0.36500815 0.043589856 -0.2226963 0.06891085 -0.48435655 -0.023766363 0.1763474 -0.34876606 0.39671114 0.32772222 0.45965782 -0.5977958 -0.15932916 0.1305233 -0.4229384 -0.5179889 -0.23725238 0.22952896 0.11848835 -0.1670801 0.34078223 -0.24138364 0.113835 -0.23259376 0.27777568 -0.24190149 -0.33309934 -0.15777248 -0.51053345 -0.36445358 0.36902386 0.48847228 0.029960882 0.23823045 -0.38319948 0.43870655 0.44601583 0.16394667 0.09387538 0.12497902 0.31580088 0.5366251 -0.26538098 -0.45005047 -0.5194706 0.16487695 -0.1450446 -0.40295988 0.14032184 -0.07284728 0.42811137 0.036130987 -0.23878965 0.46650842 -0.2710896 -0.0812434 -0.08243029 -0.22018921 0.80085194 0.019730648 -0.6095219 -0.19626927 -0.4436709 -0.12172865 0.06306275 0.33198273 -0.6787895 0.26723903 -0.27927807 -0.053042956 -0.5346495 0.18751426 0.098195925 0.18108892 0.23003267 0.80573875 -0.014643628 0.08133716 0.024513906 -0.23956522 -0.19777888 -0.09445173 0.11207263 0.59496397 -0.0161843 0.086456455 0.55621517 -0.41197383 0.16497143 0.0105691515 0.35296267 0.14581269 -0.08815163 -0.10579554 -0.1509041 0.4701406 -0.07815567 0.5534764 0.37653 0.44108477 -0.15971602 -0.36179608 -0.0004807644
57 -0.15004814 -0.043759134 -0.13976234 0.49364376 0.15271734 0.27612382 0.3269428 -0.3006937 -0.275795 0.035886265 -0.09760122 0.2909897 -0.09409734 0.020335356 -0.4397055 -0.100565396 0.43320653 0.18785512 0.2608689 -0.030448345 0.7453329 0.19407879 0.21976182 0.090878054 -0.012710478 0.28774035 0.24472617 0.43970448 -0.19754782 0.43688196 -0.57386124 0.32356885 -0.2272819 0.22716911 0.4219296 0.20607577 -0.49866837 -0.2818158 0.45374343 -0.96066177 -0.48901215 0.06279538 0.34280193 0.18551463 0.0021842557 -0.3125471 -0.053988423 -0.38895327 0.28381723 0.0085419165 -0.5966694 -0.0668969 -0.21065612 -0.2943018 -0.05804538 -0.17708561 0.0491084 0.13559152 0.28080502 -0.09490637 -0.05597874 -0.21302867 -0.21267976 -0.19786717 -0.032074686 0.1557624 -0.45125112 -0.021541499 0.064916715 -0.23736022 -0.18427531 0.028379714 0.19377504 -0.0645235 0.14013313 0.14111528 0.11770572 -0.12545826 0.19460876 0.16910022 -0.0025685322 -0.18418899 -0.3402426 -0.36298513 0.21741058 -0.28045276 0.3878467 -0.46529827 0.056683876 0.36385283 0.039394993 -0.13943931 0.13131018 -0.23384921 -0.10304168 -0.1479599 -0.11120486 0.2384529 0.17045832 0.51136017 -0.20737532 0.07882818 0.14011398 -0.3552964 0.47234198 0.22421996 -0.04843842 0.38032472 0.108230166 0.22799593 -0.020437649 -0.389811 0.14117081 -0.10047453 0.107124664 0.18073119 -0.09763007 0.102773756 -0.037304062 0.1724307 -0.017643373 0.0016646266 -0.21858028 0.037374195 0.09186275 0.14702938 -0.118402876 0.17588344
63 -0.58305216 0.071289234 -0.10742419 -0.42917705 0.5373962 0.49342254 0.34570986 0.25931388 0.48238996 0.08326972 0.34809986 -0.012257265 -0.09314087 0.21566632 0.24751054 0.20176314 0.16566871 -0.090809956 0.014468955 0.023446195 0.005832961 0.21994682 0.3785964 0.18344893 -0.3073417 -0.12830958 -0.2500211 0.36899427 0.027956858 -0.39175302 0.0050267796 -0.14438418 -0.55344844 -0.10980942 0.5907606 0.31399015 -0.60104215 -0.2252437 -0.2357312 -0.39984906 -0.3895989 0.29174188 -0.067305245 0.35808837 0.030489273 -0.27682018 -0.11596245 0.23381841 0.2097558 0.09756821 -0.10750156 -0.22132273 0.26659486 -0.49234638 -0.7034504 0.17444947 0.4581035 -0.010461353 0.15836723 -0.10288012 -0.15373725 0.31145287 0.3662916 0.11465909 -0.16478166 0.1328782 0.7701941 -0.11395858 0.039155133 -0.1308769 -0.033955287 0.11203752 0.09815568 0.2920842 -0.40248823 0.051927164 -0.18071471 -0.23116577 0.4867883 0.085326694 0.49177787 -0.28325528 -0.23240633 0.7239533 -0.10814214 -0.52569824 0.01356206 -0.05770673 0.2861482 -0.1603566 -0.13316198 -0.35264105 -0.0642675 -0.0069537205 0.12980135 -0.5914441 -0.0971442 0.3062216 0.26606306 0.39297774 0.5436515 0.028463429 0.2005421 0.14392382 0.21557452 -0.21863982 0.121358946 0.082875684 0.47498843 0.30408555 0.31850633 0.15827002 -0.32913426 0.4179628 -0.4517151 0.070844986 -0.0700407 0.10279808 0.00046867848 0.010745196 0.08004635 -0.0504039 -0.15785591 -0.0061727595 0.5675823 0.41771597 0.08237906 -0.0632262
69 0.03557758 -0.4095615 -0.39643714 0.77968127 0.24925876 0.041343115 -0.23305397 -0.38997328 -0.030662352 -0.6331978 0.06530801 -0.11643741 0.13100514 0.112418115 0.15518819 0.4443764 -0.007114295 0.29616538 0.59271353 0.37025353 0.70607847 0.18170078 -0.23680879 -0.23473264 0.26757655 0.020028982 0.09624826 -0.28623715 -0.1708327 -0.6654035 -0.1573342 0.27016822 0.048467617 -0.04639149 0.32468385 0.49671942 -0.20137872 -0.37643558 -0.008588653 0.22702901 -0.04765557 0.071109645 0.07101536 -0.16469558 -0.09330765 -0.21080305 -0.19554892 -0.16224228 0.57281244 -0.16176103 0.091361746 -0.09734631 0.00969647 -0.606744 -0.78644955 0.39761257 -0.31544688 0.2462866 -0.2371564 -0.15531445 0.09775823 -0.07417525 0.68397194 0.47115147 0.076606125 0.36204436 0.64660347 0.42878795 0.12882006 -0.15260178 -0.18890484 0.15507524 -0.46857324 0.19182666 -0.32752997 0.29634 0.19700879 -0.5781279 0.18546288 -0.2318771 -0.04674523 -0.22561471 -0.8826703 0.33988032 -0.23418301 -0.50885254 -0.25898355 -0.40146157 -0.13823986 0.0024490634 0.23315574 -0.34509712 0.32145438 0.0645465 0.015495594 -0.6098499 -0.24826694 0.017905395 0.0027267418 0.22417973 0.35744908 0.6803457 0.2648193 0.29598886 0.012542582 0.123655014 0.3549513 0.4447363 0.111791834 0.20631826 -0.46841022 0.091493145 -0.5883757 0.08478425 -0.41526937 0.42009002 0.39159697 0.11260995 -0.13136894 -0.16495794 0.27545187 0.28197834 -0.24806747 0.295421 0.57466054 -0.012619179 -0.4348224 -0.098960094
68 0.056319952 -0.31316316 -0.4156331 0.76518476 0.15769517 0.09524229 -0.23263337 -0.36898056 0.03371131 -0.6220609 0.08005112 -0.040753625 0.24460427 0.19219021 0.22703733 0.37824672 -0.15554258 0.2940884 0.64425075 0.28340715 0.7122726 0.18199162 -0.16387123 -0.35184583 0.3238883 0.0701158 0.08070598 -0.347177 -0.15001892 -0.69898 -0.024860399 0.32616138 0.029654464 -0.09045434 0.43339095 0.491386 -0.29387033 -0.36936966 -0.012286188 0.19000843 -0.038475785 -0.012015583 -0.14829236 -0.17972001 -0.06045973 -0.15790513 -0.106351495 -0.0888387 0.5838318 -0.18131667 0.12243057 -0.12911077 0.0028692738 -0.55981606 -0.73722386 0.35783482 -0.31701225 0.20690925 -0.1720111 -0.09646539 0.06435812 -0.09316566 0.63769805 0.3949426 0.14198114 0.3878232 0.7023609 0.3151883 0.09039779 -0.11870904 -0.29907814 0.033006184 -0.5493859 0.26950705 -0.4036416 0.35469818 0.16473518 -0.57159513 0.1851673 -0.12325426 -0.07954976 -0.21257831 -0.7497419 0.3080721 -0.2825101 -0.59057 -0.10668598 -0.41530332 -0.06769499 0.057909127 0.21640714 -0.30483133 0.23746487 0.017650038 -0.060109794 -0.578349 -0.1648533 0.01505967 -0.034091525 0.26410764 0.3177846 0.656899 0.35165754 0.24788627 0.0018575818 0.12985568 0.29333597 0.52651376 0.16240817 0.2959916 -0.34935433 0.050986283 -0.4953408 0.16095966 -0.4274604 0.47784618 0.3801619 0.11809927 -0.14474794 -0.068704225 0.1835686 0.23987024 -0.34491128 0.29296154 0.6265479 0.09644458 -0.4603016 0.061875694
64 -0.47643134 0.09436111 -0.18018182 -0.39442676 0.3753101 0.31464607 0.2146097 0.20211451 0.5425391 0.1711388 0.29922906 -0.11016814 -0.12245354 0.23609453 0.38020918 0.23871568 0.20829152 -0.058058973 -0.028915968 0.07727548 -0.033298887 0.12278115 0.4427277 0.20096156 -0.34462094 -0.17751744 -0.27480984 0.36617947 0.0032228383 -0.4412281 -0.05487253 -0.025892619 -0.61270994 -0.049049728 0.53354454 0.33356684 -0.54287094 -0.29899967 -0.20353144 -0.37180045 -0.48808125 0.28992537 0.0012348719 0.3120706 -0.030439755 -0.40383497 -0.04304727 0.29140097 0.2399985 0.009422707 -0.08954429 -0.21864793 0.2538491 -0.57472754 -0.61828417 0.2361586 0.3449224 -0.0851691 0.1956975 -0.10616525 -0.029774796 0.2417709 0.47508556 0.09147095 -0.15572529 0.10768782 0.72884077 -0.012450541 -0.01562784 -0.119947255 -0.07333902 0.14475392 0.106342815 0.29815653 -0.3337266 0.12185713 -0.14756043 -0.13159116 0.5553717 0.026103206 0.45710304 -0.25689587 -0.29032815 0.72879136 -0.15156944 -0.50099796 0.022337534 -0.098104216 0.28767744 -0.16787957 -0.09442488 -0.37101918 0.051726308 0.0058039753 0.17325872 -0.70036024 -0.14218217 0.2816635 0.3110385 0.39144757 0.51410383 0.14427255 0.08670122 0.11359536 0.19896907 -0.12008782 0.18290451 0.06612 0.45724377 0.23297974 0.22244956 0.1881537 -0.18162711 0.45440805 -0.49005288 0.09107059 -0.121789716 0.08509782 -0.032027703 0.19472755 0.18739732 -0.04055412 -0.110087045 -0.09321824 0.38373756 0.23976202 0.014786287 -0.15090959
204 -0.5905864 -0.1748894 0.5352716 -0.05788937 0.10755714 -0.27455327 -0.6158785 -0.006677254 0.3749646 -0.023507144 0.1453261 0.21744698 -0.24051635 -0.09092712 0.10149813 0.6527221 0.09705823 0.2848706 0.62614197 0.28020385 0.30086997 -0.05641388 0.084710926 0.12889907 -0.37098873 0.095723756 -0.24386895 0.17321652 0.06977624 -0.08704723 -0.07101068 0.6857574 -0.27488118 0.15907529 0.57858944 0.377154 -0.47809935 -0.2842362 -0.20040244 -0.14835408 -0.05482038 -0.17219046 -0.10577457 0.3791 -0.04967887 -0.21340044 -0.21919811 -0.43024215 0.16852157 -0.18463144 0.16750558 -0.29097524 0.17789765 -0.25683615 -0.18362378 0.1592982 0.02084426 0.14217521 0.020361813 -0.40370232 -0.071215786 0.09063256 0.52829933 -0.12561864 0.107298106 -0.18212059 0.5747895 -0.15282275 0.19703014 -0.06569472 -0.030122949 -0.06439989 -0.289335 0.57493824 -0.04852527 -0.044392295 -0.20103316 -0.6510349 0.18327744 -0.17074384 0.14621861 -0.11110869 -0.36997402 -0.03403922 0.37513816 -0.112304196 -0.1287509 -0.11738784 0.29648262 -0.39856556 0.4162981 -0.08977755 0.04152965 0.12455877 -0.12561366 -0.007248925 -0.035743635 0.6399715 0.23414743 0.007813254 -0.06638678 -0.43992537 0.019644428 -0.060514264 -0.28272375 -0.16070405 -0.08951732 0.14740111 0.15887722 -0.016251015 0.3116352 -0.15778238 0.10802572 -0.37405434 0.036317687 -0.2204195 0.39715576 -0.009656662 -0.081928775 -0.051031455 -0.29672894 0.11563526 -0.29990953 -0.16510326 0.5163267 0.054767568 0.5202064 0.16326348
206 -0.6299772 -0.18662201 0.4254131 -0.20127338 0.24995932 -0.2857952 -0.5974031 -0.06937625 0.6274172 -0.19132331 0.2517799 0.0020771623 -0.21412897 -0.20817563 0.20329575 0.7839877 -0.025903186 0.33614087 0.4255322 0.25895286 0.27190146 -0.096394025 0.029630564 0.027894488 -0.47466776 0.013799914 -0.28789893 0.30983615 0.12318122 -0.07481819 -0.033678338 0.5005455 -0.38439572 0.3211022 0.64153767 0.23246744 -0.50842434 -0.2490601 -0.116692595 -0.23765181 -0.06252513 -0.33675632 -0.15316905 0.4154279 -0.15108812 -0.16084395 -0.15149255 -0.42719653 0.11759886 -0.14650494 0.1351378 -0.42591763 0.18331772 -0.23571251 -0.16423696 0.23482472 0.033328168 0.044459987 -0.055399004 -0.50061595 -0.0096634505 0.22491157 0.46611217 -0.25650683 0.25036594 -0.22018115 0.42192262 -0.13021399 0.0748765 -0.09672687 -0.08783124 -0.056714356 -0.25129077 0.5758229 -0.10808971 -0.011479622 -0.2632263 -0.6386242 0.17400984 -0.22372185 0.07667634 -0.124427386 -0.32609713 0.041365135 0.28946155 -0.03843298 -0.07674906 -0.07024895 0.4103997 -0.27897587 0.32992825 0.09886443 -0.058807302 0.097687446 -0.20147108 -0.00630223 -0.009236361 0.61045897 0.19135453 0.17230883 -0.13404611 -0.34660715 0.017702533 -0.13893843 -0.1248829 0.073038965 -0.19194591 -0.08917729 0.1647935 -0.10570581 0.18033083 -0.07068054 0.061619192 -0.24651183 -0.07497614 -0.18833767 0.32104692 0.053672843 -0.16048117 0.16859049 -0.25472233 -0.008999724 -0.32495433 -0.055236842 0.42136282 0.058518372 0.31742823 0.1779613
203 -0.57794625 -0.1306447 0.5243698 -0.21472241 0.1353733 -0.21615209 -0.58263123 0.1565265 0.600921 -0.20118904 0.25503594 0.076987386 -0.050062638 -0.181316 0.16862464 0.6209432 0.045962065 0.31887203 0.5154015 0.26514393 0.2644522 -0.10620487 0.01836114 0.09797577 -0.32895613 0.12276444 -0.24536858 0.18376479 -0.035397954 -0.013847249 -0.026104083 0.48126048 -0.28411406 0.21091385 0.5980787 0.3387329 -0.56844753 -0.29969993 -0.09077197 -0.22129622 -0.16796446 -0.16389777 0.019032141 0.38135687 -0.13938417 -0.061982628 -0.15901601 -0.5954994 0.078741334 -0.048455052 0.13393922 -0.36621988 0.16647016 -0.3684415 -0.27819344 0.07986903 -0.044017542 0.1269789 0.0014321754 -0.45149168 -0.08003727 0.19390698 0.5393346 -0.15959132 0.14018129 -0.1998021 0.5942821 -0.10233829 0.21322052 -0.046862684 -0.07370279 0.0017888391 -0.24597582 0.5998713 -0.19101274 -0.020832652 -0.20076378 -0.68440706 0.072289735 -0.15569314 0.02432134 -0.11860435 -0.38199872 -0.042029366 0.30182812 -0.07824509 -0.12431001 -0.19040726 0.2948257 -0.3564941 0.5109765 -0.048821606 -0.033973128 0.23415413 -0.17359832 0.025552368 0.0340679 0.6171216 0.10587868 0.0028422526 -0.061697733 -0.35536936 0.015879866 -0.14281018 -0.25974947 -0.023038689 -0.12537387 -0.04901068 0.083172545 -0.02067397 0.34118977 0.033830207 -0.1146387 -0.34655485 0.028236238 -0.2694585 0.3797084 -0.055815537 -0.06671618 0.11655342 -0.26147956 0.0220067 -0.21667662 -0.12690547 0.48236176 0.06739157 0.37941816 0.16722012
120 0.4121324 0.39902902 -0.12536752 0.34937155 0.43845674 0.2818216 -0.38093588 0.38361824 -0.14399196 -0.13926241 -0.78418756 -0.42910492 0.12799741 0.4257799 -0.46598345 0.9673848 -0.101474695 0.22813548 0.012020572 -0.27199253 0.13149115 0.5611707 0.0242661 0.5615699 -0.42706093 0.031666037 -0.25493792 0.16415763 0.12781954 0.55150425 -0.5609482 0.01760107 -0.17062049 0.1786404 -0.00151071 0.12089972 -0.37009025 0.009035186 0.42627606 -0.64117754 0.44864252 -0.03137237 0.02994653 0.20027041 0.0059126327 0.06653465 -0.011979217 -0.30268592 0.064222634 0.24612471 0.24745719 0.0303565 -0.32606083 -0.50134087 -0.0602768 0.12985395 0.24407324 -0.30887657 0.7241174 0.14513646 -0.12210394 -0.25585502 0.11396133 -0.34557313 0.58886653 0.4307627 0.32665935 0.029237717 -0.040284548 -0.10230468 -0.22167948 0.21360305 0.04059925 0.0073585534 -0.2784647 0.44558892 -0.39483526 -0.33236387 -0.52912515 -0.016894592 0.023496091 0.52129847 0.35133466 0.14644724 -0.08872291 -0.47369885 0.05311989 0.09281056 0.5301615 -0.18949729 0.18917379 -0.43736082 0.06601836 0.21202326 -0.06487497 0.25885913 0.29362035 0.16079435 0.1849325 0.29457223 -0.40250468 -0.6147883 0.59536004 0.22552888 -0.24664013 -0.0480038 -0.69839776 -0.3944242 0.20530654 0.16438778 0.41955838 0.31559768 -0.5824218 -0.03587373 0.011731397 -0.25771725 -0.17116109 0.045454666 -0.17105067 0.22629537 -0.1766348 -0.44343644 -0.1218318 -0.13349345 0.5472017 0.3285937 -0.29841927 -0.2800977
205 -0.53182054 -0.24685977 0.53990644 -0.05838793 0.16084555 -0.306866 -0.68266636 -0.12658355 0.38452467 -0.18184255 0.16500734 0.109271236 -0.17309609 -0.18244325 0.042435553 0.7272823 0.013080895 0.27898178 0.51717395 0.30023333 0.29208082 -0.17469145 -0.05024616 0.07833565 -0.36042795 0.053112697 -0.3276464 0.23405504 0.12893702 -0.18761879 0.0071984343 0.64293784 -0.18913177 0.23353027 0.5810993 0.29889092 -0.4022164 -0.24965386 -0.169365 -0.1510672 -0.052408338 -0.30653182 0.005284387 0.44509622 -0.19627303 -0.1728093 -0.18875769 -0.5558816 0.14028546 -0.200126 0.21686591 -0.38700703 0.19462179 -0.26750636 -0.15494807 0.28135037 0.037277613 0.17325863 -0.008901424 -0.3809013 -0.047237907 0.18714026 0.5014271 -0.17244987 0.124295816 -0.16354954 0.54445463 -0.14714535 0.14753203 -0.1458513 0.08361011 -0.059139036 -0.2691619 0.46560058 -0.11623161 -0.0054495516 -0.20801651 -0.6634403 0.24930201 -0.1624127 0.14918791 -0.2198238 -0.46743572 -0.09626159 0.35076588 -0.108826846 -0.17387411 -0.09513617 0.33917028 -0.32682273 0.41517803 -0.006849369 0.008936762 0.08893156 -0.16936304 -0.04670865 0.015851695 0.6900122 0.20335741 0.12018559 -0.021082725 -0.35866353 0.10449133 0.0153548345 -0.16069843 -0.08118188 -0.111192234 -0.08640699 0.17642896 -0.034582794 0.25493407 -0.17321193 0.034078907 -0.29775625 -0.11391187 -0.18713742 0.39727625 0.10017504 -0.13633463 -0.06409991 -0.24800996 0.07986421 -0.36567062 -0.10836299 0.50946546 0.08794769 0.46657953 0.13545696
118 0.4127667 0.43865478 -0.14361699 0.42153454 0.29528353 0.272031 -0.39867955 0.4235279 0.045897663 -0.21405645 -0.65474313 -0.3554673 0.1264024 0.4862146 -0.3372147 0.99772316 -0.11653177 0.1390739 -0.018066982 -0.13403259 0.31713054 0.5400458 -0.020325225 0.5772433 -0.36403626 0.10270644 -0.25951293 0.12012851 0.018725015 0.55717266 -0.5359491 -0.079475105 -0.16497622 0.23817576 0.063078284 0.07494539 -0.40101793 0.05465869 0.46464702 -0.57859355 0.3471821 -0.03707525 0.02635788 0.23348016 -0.04024051 0.035931457 -0.08011389 -0.23699892 0.108952455 0.22830154 0.22463892 -0.007993525 -0.3538798 -0.53330743 -0.05151391 0.22565715 0.2510704 -0.31382558 0.7018222 0.053391434 -0.17486659 -0.22582865 0.22918229 -0.38384348 0.6290113 0.42217132 0.35618708 -0.08543721 -0.07274112 -0.16870493 -0.19375807 0.26004887 0.050112247 0.032584395 -0.27962062 0.45940533 -0.3528212 -0.39736873 -0.38950896 -0.031916704 0.010600141 0.46164647 0.26652327 0.11727008 -0.007175081 -0.40339646 -0.021159712 0.019181078 0.5236821 -0.15735121 0.16309322 -0.3938429 0.01968168 0.32424948 -0.120880894 0.3211051 0.32836512 0.21089529 0.14896832 0.304467 -0.35295728 -0.5952022 0.6077311 0.2133808 -0.1996942 0.04579527 -0.65432936 -0.37293664 0.21498887 0.25461692 0.43030855 0.32910785 -0.4218541 -0.07781293 0.013452371 -0.27106288 -0.17329375 0.054905284 -0.024550552 0.2486277 -0.12250052 -0.41687158 -0.13469568 -0.0036761493 0.66674995 0.29043293 -0.19168371 -0.3045194
117 0.38614312 0.35615948 -0.15836331 0.34131777 0.28489593 0.23868862 -0.4885497 0.38716742 -0.013337564 -0.08314789 -0.67625195 -0.28946635 0.10940224 0.46866474 -0.35604802 0.89748996 -0.14283134 0.16446228 0.030511074 -0.22457951 0.17998973 0.48482025 -0.056242563 0.51215583 -0.35080463 0.11962489 -0.21422112 0.18656752 0.031391226 0.48239988 -0.4941203 0.047930375 -0.13602117 0.25181234 0.030347094 0.11008635 -0.473973 0.027550524 0.37311515 -0.57619834 0.43701962 -0.042004183 0.027663924 0.12085216 0.049581286 -0.0029984387 -0.14794074 -0.21115899 0.15477693 0.18465446 0.24890766 0.027369324 -0.30314305 -0.44166833 -0.05671397 0.23630612 0.3108202 -0.29104504 0.6865919 0.17846987 -0.13344562 -0.25908422 0.10015253 -0.35220385 0.53385216 0.41511935 0.38449627 -0.082199305 -0.19877233 -0.07823276 -0.16483913 0.20477949 -0.07449996 0.058615558 -0.21691498 0.47274333 -0.40945354 -0.36018437 -0.39831007 -0.072833344 0.039400604 0.44362003 0.4152926 0.10360974 0.078201644 -0.43606174 0.06720397 0.079543 0.4785456 -0.25521475 0.08339585 -0.36141482 0.039363205 0.19234365 -0.073253416 0.37101 0.3059305 0.13220619 0.20802107 0.23652646 -0.3694445 -0.61363214 0.56707126 0.17464013 -0.23052904 0.12830451 -0.5738913 -0.31308904 0.21940625 0.15181935 0.49022603 0.25197342 -0.4439061 -0.056797426 0.027163586 -0.17577046 -0.19478133 0.06303906 -0.08589029 0.13126503 -0.1852178 -0.38064796 -0.14833917 -0.0406497 0.70318264 0.33350304 -0.30421594 -0.26035357
121 0.35136876 0.4238128 -0.17534433 0.35659385 0.4021334 0.2794947 -0.40790758 0.35944772 -0.07482115 -0.1539589 -0.6965341 -0.34194103 0.10236724 0.28836244 -0.37593356 0.89198387 -0.13177598 0.2046785 -0.03995082 -0.28327388 0.23584658 0.54686594 -0.032026503 0.5272693 -0.42292684 0.0103870835 -0.19939764 0.121973716 0.030084718 0.5244124 -0.54815686 -0.07575631 -0.16021779 0.10775284 0.08721242 0.093980156 -0.329576 -0.0637374 0.43301067 -0.6634655 0.39871877 -0.057724793 -4.920351e-05 0.16822968 0.05685625 -0.05234947 0.019364033 -0.26656044 -0.01743728 0.122500256 0.28345302 0.044705663 -0.36310607 -0.37198398 0.059746474 0.1731528 0.16608918 -0.31464183 0.6692517 0.11145775 -0.12990339 -0.22027919 0.10406988 -0.30166322 0.49927425 0.4861637 0.3441874 0.09882285 -0.17380196 -0.054886386 -0.23029475 0.23426053 -0.037427727 0.09691249 -0.2847849 0.49986863 -0.4158107 -0.30522436 -0.5035938 -0.13971771 -0.014911756 0.4581814 0.36885056 0.13042082 -0.005517564 -0.43124634 0.07383637 0.011852434 0.41744158 -0.2180746 0.13062131 -0.33137643 0.05521711 0.21394286 0.018629488 0.26233268 0.21518755 0.21376687 0.16296174 0.25869477 -0.37910438 -0.65169567 0.5974467 0.22157937 -0.20439477 -0.0033008205 -0.768026 -0.36576983 0.14062193 0.18395852 0.4623864 0.36661574 -0.4952652 -0.10766713 0.035945766 -0.3048979 -0.17198585 0.029266765 -0.11940988 0.2127181 -0.14916252 -0.41234016 -0.0646773 -0.022909604 0.6501973 0.25813305 -0.2740189 -0.30472776
