222 128
66 -0.1606812 -0.015739981 0.034304317 -0.051177163 0.00011201312 0.1238651 0.05224355 0.076949075 0.3941298 0.5526046 -0.196018 0.017451776 -0.13245325 0.15562028 -0.07946219 -0.6814436 0.4189503 -0.09947889 -0.36759025 0.057509016 0.13190208 -0.010775926 0.55564827 0.2314523 -0.26436484 0.2536125 -0.017874306 0.21702741 -0.27415627 -0.11102674 0.07164307 0.1317806 0.05000581 -0.16747423 0.059992522 0.14055055 -0.08686604 0.13319439 -0.059655983 -0.23451002 0.09750428 0.40619576 0.06762457 0.20722239 -0.20253015 0.099754505 -0.03598567 0.35395005 -0.22558397 0.18238236 -0.30142334 0.07818733 -0.014497923 0.374947 -0.32456493 -0.15206341 0.021286318 -0.30164528 -0.04221192 -0.26854104 -0.030429104 0.1817763 0.11522583 0.022128114 -0.27663893 -0.098943315 -0.32619745 -0.15332122 -0.28501493 -0.10936918 -0.24481337 0.16277044 0.061916023 -0.06468846 0.037782356 -0.2248011 0.06710961 -0.021422204 0.14318994 -0.002375049 0.21507393 -0.07276367 0.26924926 0.15270743 0.3413216 0.16015366 -0.06786487 0.1456946 -0.17701559 0.27450383 0.08197054 0.08477287 -0.1410137 -0.29177037 0.095982686 0.33291352 0.14564034 -0.22039048 0.2634144 0.26553157 0.24087137 0.14675479 -0.025817523 -0.048280038 0.05541167 -0.083660595 0.14024702 -0.30037865 0.13877335 -0.016531108 -0.28310192 0.06007759 0.16668716 0.0840154 -0.0055293255 -0.65344095 0.18693835 0.19969499 0.33088785 0.11536486 0.39542532 0.04318324 -0.113751784 -0.05082353 -0.0904023 0.32656226 0.09083799 -0.051650476
67 -0.25581738 -0.022258013 -0.017432522 -0.11600967 -0.012444576 0.025474798 0.13820678 0.12453442 0.4006607 0.5619211 -0.17491773 0.11469642 -0.094249144 0.09446069 -0.08150347 -0.61816376 0.31105882 -0.1339622 -0.34228715 0.09153773 0.2575151 -0.0008303327 0.5205513 0.16220385 -0.34464172 0.32181692 0.034782488 0.23707537 -0.27833438 -0.06630758 -0.055866707 0.22046658 0.013996617 -0.19320637 0.15397415 0.16124511 -0.09882313 0.061376087 -0.05317833 -0.23891674 0.02919202 0.35847864 0.083905175 0.18275096 -0.22150816 0.11815013 -0.090053156 0.24415818 -0.2086493 0.06157214 -0.29892 0.029150395 0.07356316 0.32754856 -0.32432267 -0.29472056 0.057022925 -0.3423759 -0.08052666 -0.25527605 0.047491536 0.1539566 0.08547109 -0.0423628 -0.3288655 -0.02879495 -0.32538727 -0.21232083 -0.3602811 -0.15782773 -0.15092747 0.10194432 0.13443193 -0.0775058 -0.11234667 -0.2445731 0.007183148 0.003777804 0.14895451 0.030952647 0.25499585 -0.13287507 0.33579206 0.26255143 0.33868533 0.25532514 -0.03854472 0.041675776 -0.13175851 0.18974805 0.13064633 0.003705025 -0.33884808 -0.3588764 0.15203516 0.27285054 0.22752297 -0.23443775 0.23574148 0.11713598 0.18721089 0.1562173 -0.038064666 -0.07682201 0.09301725 -0.12496705 0.05972868 -0.35478204 0.1584862 0.021567047 -0.23513398 0.2300754 0.1879693 0.03962228 -0.027730312 -0.5790266 0.16704205 0.02785621 0.33349165 0.11462873 0.5087837 0.08857587 -0.045256738 0.03832842 0.002019061 0.29591545 0.07683385 -0.19245188
171 -0.13563235 0.05834208 0.007566966 0.008226314 0.0020910893 0.09992026 0.088953555 0.058773715 0.27299413 0.5366301 -0.21351856 0.14605406 -0.059507307 0.16147026 -0.06150805 -0.5517533 0.3427285 -0.1265382 -0.33283275 0.08462788 0.15061508 0.021542609 0.5745749 0.14939238 -0.2217356 0.28206584 -0.03208689 0.17738478 -0.26057094 -0.02088897 -0.008211424 0.26619494 0.101187676 -0.25195965 0.03181584 0.034187827 -0.11916996 0.087732196 -0.104909696 -0.18071657 0.105691284 0.37638324 0.023111187 0.19419846 -0.23877573 0.07478363 -0.095212996 0.36617884 -0.26751065 0.08173925 -0.26773784 0.049713343 0.01968699 0.3595356 -0.26961753 -0.1323619 0.0217026 -0.46710742 -0.12412736 -0.26419917 -0.060668834 0.17396066 0.11122495 -0.015509415 -0.21717645 -0.11516842 -0.3334035 -0.13640106 -0.23947428 -0.12268176 -0.26310793 0.119757354 0.1518324 -0.005288548 -0.03976955 -0.17468221 0.050041243 -0.05152042 0.16336738 0.06693311 0.21474321 -0.092571065 0.3731998 0.1694841 0.33133912 0.1803848 -0.027641376 0.16103542 -0.16598007 0.31363675 0.03453545 0.14008473 -0.32356572 -0.27047414 0.08760134 0.28909785 0.08417738 -0.19901982 0.26131055 0.101000376 0.22193119 0.20134912 -0.05113364 -0.12203628 0.01684774 -0.22430722 0.037806477 -0.35366362 0.097649835 -0.06939259 -0.24113414 0.24694617 0.20617807 0.0047952314 0.03481912 -0.5684481 0.20369431 -0.025944106 0.23223118 0.022176033 0.3389536 0.05663903 -0.08043186 -0.031187432 -0.08996393 0.18518403 0.014712641 -0.14509016
170 -0.1821615 0.11968216 0.03030738 0.085094124 0.022843933 0.030010015 0.093725085 0.06534712 0.30347878 0.5561161 -0.24010761 0.06565121 -0.06961582 0.16702226 -0.051553536 -0.5964962 0.44643 0.020197688 -0.36724246 0.14736243 0.12084296 0.081344336 0.6161105 0.25729078 -0.37587646 0.2755114 -0.03692857 0.23293631 -0.19929211 -0.19055933 0.04309109 0.26459342 0.0741226 -0.16847791 0.025308045 0.1383394 -0.23458236 0.124023706 0.008312855 -0.3181544 0.13634768 0.51601833 0.021373829 0.13027382 -0.12913191 0.042553864 -0.15210347 0.27523708 -0.15194689 0.1428907 -0.29798418 0.061139565 0.04388731 0.38830417 -0.3290343 -0.21546036 0.056977563 -0.47650558 -0.077221975 -0.27896497 -0.07279065 0.20896073 0.168356 -0.067983 -0.2492133 -0.070821494 -0.28576893 -0.17987604 -0.34364164 -0.06408103 -0.3013651 0.17826615 0.19103771 -0.0140201505 -0.15407442 -0.23553476 -0.062011633 -0.0061112624 0.08346156 0.04278591 0.13109854 -0.029863818 0.27953765 0.17567866 0.2739882 0.29759368 -0.19355036 0.101022646 -0.12674406 0.19864386 0.114563994 0.07035341 -0.19215472 -0.25412622 0.134344 0.29758772 0.12388975 -0.15526085 0.24216802 0.19759081 0.22749172 0.15400602 0.007341578 -0.14269514 0.07284094 -0.13366105 0.093304105 -0.33044043 0.109608196 -0.010813913 -0.29285637 0.1469662 0.13252155 0.04957827 0.045446336 -0.6350712 0.226645 0.07209602 0.31594884 0.1345728 0.29577863 0.1209813 -0.21378423 -0.09484753 -0.018183332 0.28869727 0.08822415 -0.155796
105 -0.17450988 0.016417686 0.107813366 -0.03334964 0.09957247 0.07347716 0.15937771 0.174078 0.5427244 0.4407678 -0.083587974 0.076133884 -0.06974104 0.13077 0.04835498 -0.6731892 0.33874774 -0.09378411 -0.4531857 0.11231612 0.14756322 -0.07141945 0.5344121 0.19535315 -0.2815101 0.26587802 0.016445836 0.20891269 -0.41076127 -0.07097334 -0.1267422 0.21417251 0.05209043 -0.23587112 0.1375014 0.058084294 -0.018236356 0.10673014 -0.045463834 -0.18577327 0.101913966 0.2579925 0.0811381 0.17721885 -0.16133721 0.1378621 -0.044126544 0.2658527 -0.33283827 0.17148961 -0.3489922 0.16405888 0.062682234 0.3156689 -0.30268407 -0.23371448 0.11944025 -0.34018454 0.024107793 -0.13336037 0.058399912 0.21658102 -0.02257072 -0.008953253 -0.3922301 -0.008528449 -0.2009975 -0.09225478 -0.32365644 -0.06707126 -0.15294684 0.10703295 0.092742324 -0.055786226 0.019890606 -0.09548863 0.08178987 -0.026235597 0.16957493 0.010982108 0.26163694 -0.11402658 0.38097572 0.19642568 0.25522953 0.08779524 -0.053225555 0.041663337 -0.19931199 0.20056161 0.033585075 0.087918036 -0.09939179 -0.42635247 0.072274856 0.35267195 0.14305979 -0.17404932 0.34849703 0.1360994 0.28956747 0.17843287 -0.037735775 -0.01727453 0.09369196 -0.10995341 0.14674135 -0.29381308 0.07745053 -0.06591115 -0.21334893 0.22155517 0.12014162 0.0670285 0.08320524 -0.4945048 0.13510196 0.10886828 0.25095657 0.064802125 0.44664875 0.080042355 0.006369913 0.023353606 0.096715406 0.25736624 -0.01857816 -0.15421371
106 -0.1374761 0.08382645 0.15677013 -0.089533776 0.13014382 0.11606645 0.17058207 0.28418535 0.44052124 0.4436906 -0.16049024 0.13653138 -0.08319705 0.13820155 -0.056807123 -0.6271094 0.39443532 -0.026314106 -0.41588876 0.09137018 0.12869577 -0.056712467 0.5735094 0.07058573 -0.29428792 0.26233646 0.076475725 0.19838005 -0.32671863 -0.10009134 -0.12908189 0.16915739 -0.021499695 -0.14754629 0.1042762 0.09737443 0.0007099038 0.10827653 -0.07504566 -0.23972887 0.13488011 0.385942 0.084799364 0.18994619 -0.23927052 0.08321821 -0.09778405 0.4040558 -0.23181081 0.13192853 -0.24348584 0.091300935 0.09147665 0.35277975 -0.36974573 -0.20137705 0.04238118 -0.41676697 -0.0721993 -0.24882235 -0.025004782 0.24194203 0.0679708 0.04871604 -0.24575794 -0.0456091 -0.26011023 -0.088075526 -0.2476673 -0.11072489 -0.1634622 0.1449731 0.13681622 -0.12682007 -0.12705064 -0.22399968 -0.082761794 -0.04149035 0.20851581 -0.027763002 0.14738244 -0.1305377 0.29429543 0.19043191 0.41752616 0.21757698 -0.07603615 0.005850665 -0.19334315 0.21675241 0.02924286 0.015762696 -0.16846246 -0.35753477 0.18832783 0.18014215 0.1399151 -0.14850307 0.2846181 0.2848761 0.19733399 0.21658163 0.003109578 -0.09728611 0.086323306 -0.06453955 0.19477534 -0.27870628 0.12847863 -0.013550338 -0.3875662 0.033167314 0.23468637 -0.05319413 0.019403704 -0.44442284 0.13606775 0.18298204 0.31454158 0.06176406 0.35277504 0.10806142 -0.01795692 -0.07158993 0.07208279 0.27502555 -0.042814992 -0.04648646
68 -0.26091513 -0.18529637 -0.73638535 -0.5749967 0.19063461 0.04415156 -0.08533849 0.09879708 0.28422803 -0.011240053 -0.05117602 0.4020747 -0.37662295 -0.054637257 -0.0712268 0.13742031 0.24115424 0.31941965 -0.23200181 0.4227556 -0.36731791 0.19531564 -0.003654503 0.36347356 -0.12289138 0.23812288 -0.107533075 0.08610619 -0.007870674 -0.27685362 0.011462525 0.21953405 0.1443718 -0.22593184 -0.06886603 -0.22918296 0.014613053 -0.12670247 -0.010792476 -0.066208184 0.18287489 0.006118409 -0.2457981 -0.14321372 0.054230627 -0.029137528 -0.18236963 0.39769378 -0.507949 -0.24694905 0.004786266 -0.247933 0.18064363 0.079974 -0.31287238 0.05230297 -0.110168636 -0.42124486 0.26208246 0.05185763 -0.28997788 -0.1686001 0.241603 -0.23821782 -0.24634634 0.3606521 0.10432454 -0.30368724 -0.11327257 0.03550119 0.19754255 0.031223746 -0.24099505 0.0893697 -0.2662114 0.0113820275 0.2579395 -0.18448736 0.056307144 -0.17061554 0.11790256 0.059696108 0.19916655 -0.09914012 0.37147117 -0.092678614 0.5252405 0.17980593 -0.13025878 0.2274467 0.24149689 0.33542237 -0.061532177 0.065066405 0.17838739 0.07245024 0.079559155 0.06633395 0.3383028 -0.060256258 -0.016926227 0.06589581 0.06904888 0.3066183 -0.014000341 -0.21663031 -0.13685188 0.27322274 0.2296215 0.30647147 -0.054304346 0.14465392 0.2682262 -0.18579137 0.017445376 0.17366703 -0.21111326 0.11229614 -0.15640433 -0.01502294 0.20538978 0.19905591 0.33129093 0.25335833 -0.1532024 0.13751158 0.071267806 0.15526298
69 -0.30801147 -0.09309202 -0.7419344 -0.5899042 0.19619533 0.04256944 -0.15164882 0.039790742 0.20364071 -0.051453676 -0.103423774 0.41259545 -0.40673015 -0.047052238 -0.040407542 0.15733628 0.23848249 0.40612742 -0.2564399 0.41378865 -0.38103956 0.13154574 -0.120629564 0.2378509 -0.1512878 0.18767358 -0.19317344 0.04114417 0.033897687 -0.29842374 0.12951827 0.41118765 -0.02561044 -0.2549682 0.04341896 -0.15041862 0.20707938 -0.0962023 0.046966568 -0.182829 0.28021097 0.02042496 -0.16404496 -0.113393776 0.0336645 0.0065861796 -0.16888449 0.435225 -0.5469989 -0.26327243 0.094108745 -0.26270023 0.2752252 0.05592579 -0.48941752 0.07330781 -0.09471457 -0.49522078 0.24094857 -4.5534114e-05 -0.22686864 -0.19483489 0.074572496 -0.26493436 -0.35870725 0.49462408 0.21979663 -0.32837474 -0.012640049 0.07643774 0.062787205 0.08429022 -0.33605877 0.074556224 -0.2190856 -0.09705038 0.23359954 -0.05883483 0.08075139 -0.16905865 0.23313895 0.018043827 0.32174516 -0.17173353 0.358868 -0.11175834 0.5507467 0.17452177 -0.15789482 0.086982034 0.12715665 0.37727728 -0.080072016 0.15099213 0.2708504 0.016622549 0.077003404 0.06890404 0.26980415 -0.06442762 0.04894834 0.098084345 0.100599565 0.35564902 0.14167902 -0.11033323 -0.2656024 0.32958433 0.28578162 0.2913895 -0.047555853 0.13399068 0.13917285 -0.23131214 0.074345954 0.12955607 -0.2307135 0.10374854 -0.08368512 -0.024082106 0.12070294 0.11957774 0.21775548 0.21410269 -0.12992744 0.095462374 0.15521142 0.21142352
2 -0.34540644 -0.11411767 -0.13387148 -0.13219652 -0.4377214 0.35099787 0.14970197 -0.14946754 -0.2716684 0.123418264 -0.36517867 0.32576883 -0.08288041 0.04910795 -0.09129748 -0.65876174 -0.11733111 0.14031394 -0.08228563 0.17970331 0.13664117 0.03006183 0.12547597 -0.3067952 -0.0448751 0.17397238 -0.25016615 -0.0058770785 -0.25446072 -0.004072763 0.25802788 0.29421738 0.1402377 -0.07926698 0.012261519 -0.29073817 0.38066748 0.054672528 0.026496653 -0.11054603 0.214632 0.27948716 0.24545564 0.020709394 0.09835113 0.33731234 -0.114299 -0.050864793 -0.11569662 0.30622113 -0.17520139 0.01657942 0.17526533 0.15721254 -0.1824844 0.24142669 -0.06727461 -0.3329382 -0.07070157 -0.53967905 0.03640664 -0.24156946 -0.30140585 -0.03353425 -0.14162982 0.16533819 -0.13882284 -0.36021608 -0.3569241 -0.250373 0.06487866 0.15477206 -0.047781643 -0.2287856 0.19263583 0.040005308 0.13206127 -0.14029156 -0.31658146 -0.47514638 0.119641915 -0.070832714 0.3501051 -0.3557578 0.25913 0.26601377 0.41943285 -0.087734506 0.085480705 0.3569505 -0.013536292 0.17089732 0.08227842 0.059410002 -0.14815785 -0.15040106 -0.122899204 0.13126035 -0.34043497 0.12709357 0.6475713 -0.058171906 0.16782369 0.039414518 -0.19043554 0.19776705 0.13625588 -0.1159641 -0.17109227 -0.20885868 -0.64059603 -0.2346134 0.018646663 0.12004939 -0.14094098 -0.07991261 -0.24636985 0.64176464 0.13176608 -0.0015944912 0.1633044 -0.70844615 -0.16925411 0.074001014 0.20226292 0.2688665 -0.2395692 -0.37525687
173 -0.35773766 -0.07930789 -0.77554816 -0.4098276 0.20886634 0.01370993 -0.12705202 0.12138324 0.20957929 0.013768328 -0.15334202 0.36432984 -0.41004127 -0.06607759 -0.030371753 0.22696313 0.44014734 0.4310483 -0.24678421 0.40009132 -0.34800538 0.1351368 -0.07589254 0.39253706 0.0070662475 0.2173911 -0.24222732 0.042730987 0.00037577795 -0.21387787 0.049497653 0.28768748 0.099356785 -0.30279166 -0.043415196 -0.18729837 0.06789732 -0.055764187 -0.021445742 -0.18250915 0.3184426 -0.042948853 -0.21298459 -0.07602015 0.07785356 -0.07349034 -0.1475989 0.32857865 -0.48572883 -0.19992794 0.037325438 -0.2887201 0.20232196 0.078028865 -0.35414767 0.05929925 -0.06418808 -0.42769453 0.34722653 0.033378955 -0.21988314 -0.23415549 0.09614327 -0.35202503 -0.3558678 0.41983342 0.20493725 -0.29660493 -0.044252016 0.16287577 0.24045008 0.106515184 -0.3056927 0.1032517 -0.21856482 0.029613279 0.19421981 -0.10044143 0.028892186 -0.20570756 0.27180004 0.043878015 0.35649654 -0.19734246 0.18287249 -0.19426484 0.5930172 0.31382042 -0.034506794 0.14639995 0.15644498 0.41314885 -0.12048292 0.09284403 0.1582044 0.21578625 0.1067169 0.07305093 0.3426504 -0.15759553 0.053076725 0.12895484 0.122400895 0.44010392 0.08967583 -0.15901956 -0.23163886 0.35169047 0.26707754 0.29278523 0.013269658 0.015603429 0.19096988 -0.15881239 0.16440538 0.1887941 -0.16238762 0.100452155 -0.15537174 0.011250455 0.13218245 0.07380025 0.2002912 0.23907419 -0.16092637 0.1936862 0.22782846 0.077952154
172 -0.2503957 -0.08234522 -0.7042898 -0.4947351 0.17697181 0.13752525 -0.122558706 -0.05527415 0.19904707 0.08539427 -0.09272985 0.4407483 -0.29802892 -0.022592766 -0.18100071 0.14915824 0.29546154 0.3066719 -0.21322954 0.32652795 -0.35942143 0.098232 -0.021698274 0.2413233 -0.08056707 0.22133496 -0.119326904 0.05019886 0.07059223 -0.26395366 0.033236016 0.26559743 0.05352423 -0.19122545 -0.011817064 -0.20276839 0.04931727 -0.18069394 0.0090882275 -0.19551817 0.29130453 0.021039965 -0.23972037 -0.057326887 0.14018813 0.0053771287 -0.2531999 0.30112937 -0.586941 -0.24876963 -0.02721634 -0.34121162 0.18277422 0.15618211 -0.44458693 0.007829945 -0.044009484 -0.43232214 0.2787757 0.05022045 -0.37288347 -0.1707161 0.02382551 -0.22555982 -0.3207908 0.43326086 0.19063726 -0.21786462 -0.08381563 0.12957552 0.15237115 0.16583683 -0.25621426 0.15842378 -0.36198875 0.02037328 0.2886626 -0.010441086 0.008458385 -0.08700578 0.07648794 0.017075866 0.2532834 -0.16199811 0.26855218 -0.09193727 0.6184574 0.16455804 -0.016754383 0.1498024 0.2187879 0.29181895 -0.101837754 0.17599933 0.2865147 0.06294139 0.07987076 0.015371168 0.39878097 -0.060763955 0.0535372 0.061768148 0.1411062 0.33291835 0.10420519 -0.19523482 -0.32630238 0.33804142 0.3034696 0.28743434 -0.019700542 0.10611588 0.27077192 -0.30070838 0.07025587 0.21239196 -0.25863522 0.07395317 -0.24585599 -0.14298911 0.1267158 0.04309834 0.14084536 0.20060924 -0.0905596 0.06732029 0.14182359 0.116136834
83 -0.17460203 -0.03204759 -0.38522857 0.10854386 0.053556178 0.084183976 0.08367351 -0.051598657 0.34400326 0.07307223 -0.13222088 0.05851793 -0.060111564 0.27554548 0.08023871 0.17597319 0.28395963 0.2130461 0.007591124 0.19661368 -0.15838829 0.18682772 -0.10888285 0.13310549 0.2434143 -0.11105386 -0.07882023 -0.15791282 -0.07757651 0.025548851 0.041120376 -0.19778548 0.07136889 -0.24821106 -0.13325147 -0.064941905 -0.16578656 -0.048948277 0.16398703 0.050593972 0.13798329 -0.13245083 -0.0795058 0.01134455 0.2611992 -0.2221245 -0.050888527 0.20147036 -0.0060614473 -0.0053165043 -0.0049304203 0.06137967 -0.17116094 -0.027265396 0.1426266 0.40456867 0.087712735 -0.1751187 0.29228505 0.10164649 -0.18134604 0.08488507 -0.06612498 -0.04783626 0.37929812 0.30723074 -0.38678667 0.0445235 -0.080522686 0.16152504 0.088461146 0.37745914 -0.17384857 0.00797031 -0.23370856 -0.015731674 -0.40353996 0.2521578 0.029561218 -0.15608472 -0.10048652 0.13641427 0.3047203 -0.3032308 0.3925407 0.10271802 0.0798672 -0.047376625 -0.17856058 -0.030340394 0.13988923 -0.17208461 0.09210312 -0.10791906 -0.08574144 -0.13622822 0.17561378 0.24272057 0.20753676 0.008410118 0.0032475567 -0.09386232 0.20495729 0.29052183 -0.18858074 -0.06533341 -0.26077864 -0.10218812 0.25620225 0.21460721 -0.2832103 0.18021047 -0.10500765 -0.20478432 0.11071875 -0.061798904 -0.11641545 -0.2903338 0.07663068 -0.15534344 0.313606 -0.18141815 0.0888408 -0.2693824 0.14163461 -0.15125108 0.36647463 -0.45081002
82 -0.123396516 0.19954307 -0.29863462 0.007160364 0.11004477 0.19645973 0.18210854 -0.09983236 0.41353035 0.10316293 -0.09216793 0.17400753 -0.049829792 0.28614968 0.05159495 0.13132116 0.3049629 0.19365254 -0.11207769 0.2509402 -0.19536273 0.25402364 -0.14307761 0.17875214 0.14537336 -0.21461935 -0.1568639 -0.13694972 -0.21679807 0.057037383 -0.026930341 -0.0101868035 0.035815705 -0.23496331 -0.0074535087 0.09143389 -0.01851895 -0.12585479 0.21684113 0.20031595 0.16778435 -0.0858918 -0.057967164 -0.047210947 0.26526466 -0.17940201 -0.056897 0.13963045 -0.062285136 -0.08792646 0.104096316 0.13040863 -0.24984717 -0.07774439 0.18614721 0.32456848 0.04216987 -0.15604514 0.20063806 0.089474715 -0.37369582 0.044199497 -0.018234424 0.083761536 0.3736962 0.28600278 -0.3727166 0.036473095 -0.059331056 0.19825089 -0.013013501 0.34586245 -0.16487747 0.11368239 -0.19098504 -0.15307242 -0.30157542 0.258976 0.1668908 -0.023823723 -0.16996491 0.15026116 0.21750566 -0.29299197 0.45044333 0.10258961 0.18419729 -0.1041491 -0.19344902 -0.025666546 0.013180005 -0.14227863 0.22097903 -0.056737456 0.022879027 -0.13916905 0.11872967 0.12764087 0.09395549 0.22063738 0.014588855 -0.21720678 0.15122412 0.18064171 -0.18376857 0.092751764 -0.22102158 -0.12217632 0.20057279 0.19811599 -0.2780368 0.14766663 -0.055489752 -0.11516372 0.084612526 0.055832002 -0.08242399 -0.26002687 0.096524455 -0.16479796 0.17086849 -0.2549787 -0.102598414 -0.2447301 0.14003049 -0.16983011 0.33007815 -0.3846103
84 -0.38264015 0.14244531 -0.4828817 0.09146849 0.0048783193 0.19217472 0.20053077 -0.057251334 0.34006733 0.13862844 -0.15672767 0.11903723 -0.038864993 0.32241544 0.0076088365 0.057145678 0.31896594 0.14640436 0.04213119 0.30015925 -0.23889627 0.1381125 -0.10083931 0.16268338 0.12677866 -0.041473288 -0.16857617 -0.18385416 -0.16637433 -0.006242564 0.07620648 -0.030148197 -0.07362422 -0.22874177 -0.04938195 0.029796852 -0.079724185 -0.020796599 0.1683076 -0.00039649947 0.115625314 -0.08117756 -0.070973486 0.047804493 0.2720727 -0.12618616 0.016419163 0.16796084 -0.12207832 -0.013819203 -0.0054978067 0.2220924 -0.18961892 -0.15435833 0.1016669 0.2574811 0.11714685 -0.22021773 0.16265704 0.034801282 -0.1604539 -0.034748435 -0.15194252 0.02224157 0.24659069 0.38921767 -0.3652777 0.06789372 0.056035377 0.19918898 -0.040492263 0.40389088 -0.16022605 0.14202656 -0.133313 -0.1205983 -0.2274201 0.3504582 0.09311146 0.038598403 0.021209875 0.06436931 0.35694784 -0.24923564 0.4418859 0.067457564 0.1453787 -0.018471474 -0.18858966 0.03523877 0.17828108 -0.11058181 0.05132297 0.007660826 -0.0035706318 -0.13724938 0.16216606 0.13657114 0.27054346 0.11688779 -0.02968747 -0.14647403 0.19922817 0.2349392 -0.06669282 0.015473666 -0.37226942 -0.08553805 0.19926561 0.2774956 -0.2578077 0.26666152 -0.04884258 -0.11095256 0.14576592 0.040050652 -0.18807453 -0.38806817 0.0869997 -0.115137324 0.21057461 -0.31046936 -0.06892472 -0.23318633 0.14630748 -0.18722345 0.5158444 -0.38746747
40 -0.4033627 -0.04686586 -0.20630258 -0.17470002 -0.46853912 0.3148708 0.12970418 -0.09094213 -0.28865525 0.060507018 -0.3708013 0.2789585 -0.15637033 -0.02489611 -0.123654895 -0.54857314 -0.13132016 0.16823433 -0.023881316 0.17723982 0.057782587 0.076969765 0.20198946 -0.26427418 -0.09746399 0.16575079 -0.14890692 -0.06819999 -0.17799152 0.0016431436 0.3187039 0.26534528 0.045921143 0.014230651 0.059216883 -0.27385837 0.35885125 0.0826948 -0.0014618995 0.03675891 0.1886904 0.23024902 0.317299 0.13124724 0.066044286 0.29174525 -0.13614559 -0.023788305 -0.22152989 0.3007092 -0.09172347 0.050992984 0.233812 0.1705614 -0.1052464 0.25708714 -0.07409601 -0.2894864 -0.09038534 -0.5046947 0.035647605 -0.2527291 -0.29904413 -0.09999146 -0.12353498 0.12425986 -0.20132814 -0.35115796 -0.31897667 -0.15520807 -0.016913118 0.056794867 0.082362235 -0.2744485 0.38594675 0.04974164 0.051004298 -0.13112411 -0.352896 -0.42605826 0.1909629 -0.1366539 0.32665625 -0.41413376 0.24724916 0.2250531 0.4195006 -0.09507594 0.07215373 0.25168753 -0.09793916 0.25695455 0.038670857 0.009984763 -0.1052793 -0.12837121 -0.112589516 0.15416914 -0.31080964 0.07846597 0.5004892 0.07125675 0.07699781 0.015713688 -0.14052264 0.17042357 0.12780243 -0.2081715 -0.19122739 -0.18522294 -0.6064263 -0.30273628 0.14764857 0.12271759 -0.15396033 -0.18297711 -0.2800912 0.61919 0.09986954 0.005030413 0.24794929 -0.7199094 -0.05409932 -0.019436486 0.12233975 0.33584338 -0.24711207 -0.48293427
107 -0.2386084 -0.060521904 -0.6643137 -0.5155759 0.1393818 0.04915355 -0.04942567 0.008061225 0.23724158 -0.09147069 -0.057234064 0.2813232 -0.33699685 -0.18528798 -0.11567515 0.07898168 0.17289725 0.43300274 -0.32633993 0.48320994 -0.3699858 0.07867201 -0.09027139 0.26082763 -0.077543005 0.1769168 -0.062433593 -0.04772616 -0.013767327 -0.15837163 0.0320821 0.23875415 0.04598057 -0.37632802 -0.014296384 -0.1605308 0.031637896 -0.05738864 0.03695462 -0.19890025 0.3017117 -0.06524884 -0.107141055 -0.18068203 0.12486684 -0.07580144 -0.17753461 0.47256294 -0.5717494 -0.272703 -0.09441053 -0.16323209 0.24462181 0.21160743 -0.35255203 0.11401569 -0.14161725 -0.46427998 0.29158953 0.08163398 -0.21418303 -0.23331852 0.019144982 -0.30464503 -0.27517572 0.47012675 0.02284027 -0.26110005 -0.07235465 0.12920327 0.049647562 0.06858598 -0.19967014 0.054743547 -0.17992666 -0.1485851 0.2555847 -0.07231799 0.076427706 -0.20643562 0.2680036 -0.019999374 0.39024544 -0.20358811 0.27666008 -0.1339207 0.6269987 0.08005043 -0.11385403 0.06886148 0.13936488 0.46321997 0.028390937 0.043415558 0.26748392 0.14249276 -0.035706297 0.010659396 0.29401654 -0.050603665 -0.099327706 0.16523616 0.06503897 0.33608496 0.13826196 -0.1262983 -0.14025675 0.3315555 0.31953898 0.26751637 0.07590755 0.1461558 0.20836242 -0.18239687 0.10690454 0.113802575 -0.16135633 0.015723526 0.026204204 -0.06024377 0.13228054 0.13086805 0.20881265 0.13553745 -0.21310592 0.059077475 0.1768944 0.22813836
85 -0.25856245 0.04916518 -0.42337573 0.055908825 0.1722139 0.14367895 0.08774992 -0.1597397 0.46399662 0.18678184 -0.11962402 0.1296731 -0.011125875 0.23023838 0.10815128 0.113891214 0.36041984 0.25385836 -0.008986805 0.20223853 -0.20139816 0.2064978 -0.09379524 0.1499009 0.17649962 -0.046126522 -0.22658226 -0.15238915 -0.14208536 -0.011230748 0.15763007 -0.06340361 -0.12429985 -0.3856028 -0.027094467 0.015504622 -0.12570241 -0.09045049 0.18880862 0.08263213 0.1650561 -0.27225494 0.033053156 0.022584658 0.2517386 -0.13778788 -0.069511175 0.23241532 -0.13573278 -0.03907826 0.031212049 0.050353654 -0.26216948 -0.15156913 0.10804135 0.24422072 0.14498132 -0.21594362 0.22873454 0.13831505 -0.13588391 -0.01865799 -0.11300107 -0.027224049 0.361578 0.27422082 -0.40812758 0.17823792 0.0480249 0.14205056 0.009461979 0.39197642 -0.25921988 0.13814315 -0.15533248 -0.05947625 -0.31440118 0.2721542 0.030954305 -0.04810913 -0.051239274 -0.017002922 0.2842108 -0.27432054 0.43784 0.028747471 0.13604553 -0.01322663 -0.21902123 -0.043379866 0.11934685 -0.18216845 0.15000704 -0.009581515 -0.13124833 -0.15853758 0.15807973 0.11707739 0.25154722 0.12828012 0.17306097 -0.17603858 0.16855016 0.20726217 -0.10548252 0.10706775 -0.34956065 0.031192094 0.25434116 0.1679199 -0.15815371 0.27287793 0.0014333286 -0.1208538 0.2218339 0.13878253 -0.20983654 -0.22140756 0.04880116 -0.016496435 0.36190063 -0.29437685 -0.0570067 -0.21429896 0.105974816 -0.040643275 0.35137403 -0.42974323
8 -0.34844917 -0.035048425 -0.12754826 -0.00906047 -0.44048074 0.43278202 0.058121793 -0.07243912 -0.124165 -0.017545212 -0.3572952 0.2651949 -0.23434816 0.035596073 -0.17852464 -0.72051334 -0.33616096 0.17774652 -0.00038027164 0.21708624 0.18256196 0.012016177 0.15986645 -0.2719549 -0.12725735 0.30890948 -0.16206412 -0.10103082 -0.3112031 -0.09620417 0.15978025 0.23893146 0.14558703 -0.14367387 0.20067987 -0.18959807 0.21759026 0.1596309 0.088601395 -0.10798571 0.27193964 0.26054716 0.31904614 0.044135313 0.1472196 0.17806536 -0.14524396 -0.14569846 -0.1398169 0.27352542 -0.1796196 0.044782735 0.17690055 0.14409442 -0.09123623 0.1953487 -0.099802636 -0.22159767 0.036196385 -0.49951178 0.030650474 -0.20134681 -0.2397388 -0.059937783 -0.106687956 0.096944235 -0.12083294 -0.2725554 -0.30308157 -0.15683237 0.015461692 0.08085997 -0.09700947 -0.38042024 0.26151392 0.011658861 0.124870785 -0.14904565 -0.4176898 -0.5031688 0.077215545 0.010642663 0.414318 -0.28541544 0.13988064 0.20548777 0.36306053 -0.11842597 0.22083732 0.24642326 0.19381973 0.14957738 0.260878 0.14890243 -0.062536895 -0.16081876 -0.18795794 0.22558337 -0.11396581 0.088641785 0.6875504 0.17150566 0.14814046 0.0026286615 -0.16826847 0.24514697 0.07931242 -0.2521816 -0.084590554 -0.24861462 -0.4807522 -0.15724269 -0.038769294 -0.040513407 -0.09274756 -0.16518833 -0.24543183 0.7335384 0.22052883 0.19776888 0.22323866 -0.8443861 -0.16320057 -0.07283181 0.21983474 0.45636466 -0.20887645 -0.3381563
149 -0.057507012 -0.10800989 0.10339879 -0.25656033 -0.10781497 0.0033601893 0.16183677 -0.19746843 0.39303198 0.46399617 -0.341412 0.12998153 -0.24181299 0.1765785 -0.019865945 -0.7487783 0.26205525 -0.12520778 -0.49406987 0.028746499 0.25057688 -0.18950929 0.221985 0.11967367 -0.22664778 0.3096042 0.1299907 0.113352224 -0.26551327 0.20048568 0.1331364 0.17172346 0.03700296 0.029131299 0.15864167 0.016838549 0.0049376925 0.18077324 0.052728973 -0.21161634 0.0319567 0.30189604 0.055785194 0.13581371 -0.17858677 0.039124735 0.013418661 0.35582694 -0.19706285 0.11023414 -0.296532 0.20441367 0.0007860628 0.4040901 -0.43018353 -0.116187915 -0.058769874 -0.23174122 -0.14455482 -0.25705153 -0.09503741 -0.0878022 0.05819559 0.103383616 -0.3724159 -0.040515162 -0.29390198 -0.20845945 -0.32649416 -0.0743522 -0.31708997 0.15701957 0.14262399 -0.14462847 0.18963765 -0.33685842 0.12480647 -0.06431685 0.22256997 0.05022654 0.22200797 -0.1732574 0.27479443 0.054330815 0.30465132 0.09598437 0.0058320197 0.08246493 -0.20479551 0.3288096 0.14879826 0.111476004 -0.25063446 -0.4375429 0.21785034 0.25230536 -0.04728435 -0.21268275 0.19066758 0.18671235 0.12374828 0.10198193 -0.07364164 0.0326714 0.06353509 -0.183303 0.08346024 -0.4059539 0.111175284 -0.07590945 -0.32341433 0.11735682 0.09945746 0.09803091 -0.1152839 -0.57801396 0.102683485 0.18635416 0.44989076 -0.018236611 0.42759243 -0.04096789 0.074630946 -0.119423024 0.10506169 0.24252151 0.04372657 -0.08112264
150 -0.19516103 0.014952699 0.027519967 -0.2375949 -0.1440775 0.060730163 0.25281173 -0.003519231 0.40592885 0.5860332 -0.28278282 0.10628779 -0.117080614 0.20079966 0.01746304 -0.77355045 0.38376436 -0.032198783 -0.4158574 0.039314874 0.28498507 -0.1001063 0.27635384 0.20439832 -0.258267 0.07341785 0.12826018 0.09562631 -0.26442096 0.11455875 0.05288225 0.19586667 0.018630357 0.078023836 0.033597484 -0.0018681309 0.0867951 0.22774704 -0.047056776 -0.29301256 -0.02210821 0.2805996 0.028121509 0.10281301 -0.12369532 0.018838525 0.06906095 0.23596813 -0.08302373 0.20178816 -0.21721782 0.2934488 -0.019481376 0.3732935 -0.32859644 -0.08830288 -0.036708165 -0.2937114 -0.07165916 -0.24242674 -0.19049297 -0.034018353 0.007432928 0.06635237 -0.35989964 -0.0026651307 -0.21839994 -0.12357539 -0.36241806 -0.11009279 -0.2792156 0.13419549 0.016950674 -0.29150033 0.15593204 -0.31173924 0.06685289 -0.056459576 0.086173244 -0.13473584 0.21498471 -0.17592862 0.19887641 0.077603474 0.4069648 0.15029484 0.0016127332 0.019191332 -0.23325455 0.3916905 0.14421755 0.113692485 -0.14201505 -0.31357592 0.1568369 0.23460588 -0.0040558325 -0.21880902 0.23879062 0.34745756 0.14313996 0.13841924 -0.053337175 0.021061134 0.066816814 -0.17305583 0.1622672 -0.3492165 0.094633214 0.033567946 -0.2906257 0.0573359 -0.02149786 0.16203368 -0.19306967 -0.5261012 -0.0033428846 0.26222843 0.31070092 0.09125138 0.4177497 0.13390927 -0.089882866 -0.1524255 0.015929151 0.25634834 0.07253934 -0.06963953
86 0.046161946 0.2696277 -0.45324227 -0.6766616 0.65016025 0.7620486 -0.043354716 -0.6038758 0.49227738 -0.060586564 -0.12037744 0.3861806 0.12175374 1.0303721 0.4609658 0.31153938 0.5637868 0.5123241 -0.20625746 0.5416826 -0.36567894 0.34709954 0.45798823 0.09306708 0.183184 0.139575 0.04194733 -0.1155123 0.12047377 0.13316986 0.01056544 0.22803949 0.18446892 -0.017662397 0.2608961 -0.09102353 -0.24404405 -0.30545154 -0.25153038 0.29124936 0.7945462 -0.09744481 0.9734662 -0.44653085 0.22277786 0.4239178 -0.31271455 -0.2977611 0.22051403 -0.064700335 -0.55572784 0.2994047 0.1762914 -0.06103208 -0.29741248 0.08201256 -0.25775072 -0.3286585 0.18248332 0.28361204 -0.76431376 -0.008399855 0.3923086 0.31259266 -0.2723164 0.13448444 -0.46499878 -0.690581 -0.2809596 0.2591203 0.28088608 -0.08431314 0.27996132 -0.41015986 -0.62020636 -0.24531637 -0.28421172 -0.37389457 -0.2390139 -0.6821328 0.046600528 0.1437992 0.69349897 -0.2802372 0.3043666 -0.26688898 -0.10100632 -0.33689374 0.6398111 -0.82257646 0.58970714 0.3319174 -0.47090486 0.05412102 0.14017855 0.31582394 0.47176492 0.21416989 -0.1953916 -0.19978008 -0.4675114 -0.3243487 -0.47882688 0.2744914 -0.33481282 0.06736011 -0.03324818 0.27445287 -0.12907873 -0.07558641 -0.9106343 -0.082973026 -0.302348 0.11371464 0.0630374 -0.078774855 0.37370318 0.024962919 0.42968863 -0.056705233 0.59746367 -0.22320351 0.7640123 0.3362393 0.02196135 1.0408218 -0.19655989 -0.543671
16 -0.47730294 -0.2478809 -0.26860043 -0.22032246 -0.55106574 0.3267059 0.082227744 -0.16380915 -0.17039016 0.010473784 -0.36575273 0.4297423 -0.063135125 0.003034618 -0.10850548 -0.66671854 -0.21248114 0.11629502 -0.02064668 0.13397454 0.15241611 0.17965448 0.051812768 -0.3453689 -0.049842272 0.3119178 -0.2247068 -0.113775216 -0.2691141 -0.11274596 0.13966742 0.23412319 0.11903827 -0.13428994 0.06382328 -0.279036 0.3552149 0.040059127 -0.09428862 -0.10654818 0.087221704 0.17987409 0.2854095 0.09894739 0.113864 0.33572888 -0.094886266 -0.09418253 -0.24477035 0.28834966 -0.19331294 0.054271426 0.19444977 0.25793806 -0.06661655 0.110450126 -0.08672646 -0.26628137 -0.056056894 -0.504657 0.13992018 -0.17720747 -0.31259602 0.049859196 -0.187931 0.091051586 -0.16805388 -0.30611616 -0.3449877 -0.25985312 0.080627054 0.1054905 0.023688221 -0.30331153 0.26741225 -0.0034053314 0.05467381 -0.15584783 -0.34120098 -0.41766107 0.1629121 -0.08887269 0.3103354 -0.364571 0.25698295 0.30299452 0.3849016 -0.12982386 0.16381809 0.23779194 0.14426474 0.11527771 0.10334996 0.05707247 -0.13160785 -0.12618287 0.040709972 0.053462397 -0.20185737 0.1948294 0.58926094 0.080804996 0.123183 0.09351842 -0.1689011 0.1381574 0.10441003 -0.19573332 -0.13731103 -0.0592624 -0.6868887 -0.11854307 0.096447855 0.032362826 -0.11266536 -0.106232755 -0.3193598 0.6790027 0.12705292 0.042714078 0.23301333 -0.66555405 -0.1512679 0.04612088 0.15391658 0.49041945 -0.2786033 -0.43030706
108 -0.28593275 -0.056954782 -0.6907173 -0.4361537 0.105786614 -0.017041719 -0.040001996 -0.06303777 0.12252851 0.03424532 -0.08582804 0.32271573 -0.19856389 -0.14462487 -0.049006827 0.18465067 0.22206585 0.2975426 -0.21511981 0.26030156 -0.21026367 0.037743635 -0.08558348 0.2423013 -0.076914094 0.1377495 -0.15927836 0.037198897 0.1290689 -0.19708452 0.022317208 0.22182131 0.062008783 -0.2528755 -0.037685595 -0.2154329 -0.01136685 -0.10612803 0.019044539 -0.23864059 0.32276762 -0.033594377 -0.22150227 -0.14117223 0.17464328 0.09879728 -0.12350604 0.44398272 -0.44376552 -0.29019326 -0.12909804 -0.18801756 0.22919881 0.09471885 -0.5397499 0.001252882 -0.0900062 -0.58799654 0.22382127 -0.0474413 -0.19131243 -0.17771368 0.17578006 -0.23222682 -0.31657612 0.4277399 0.04807332 -0.3497807 -0.1319629 0.15487559 0.16649453 0.101799324 -0.15054372 0.06579041 -0.32279685 -0.10753905 0.23763078 -0.10995655 -0.012568644 -0.19976038 0.09821529 -0.0046315575 0.35940063 -0.15803316 0.23246376 -0.09729902 0.6078576 0.10633421 -0.13100691 0.17543559 0.29034898 0.36165985 -0.081721306 0.04440286 0.26602006 0.012333315 -0.112982206 0.009883418 0.375014 0.02913935 0.082301706 0.017766789 0.06696134 0.3406387 0.101611346 -0.22598486 -0.046282176 0.41935235 0.3172013 0.3686846 -0.031767346 0.12025184 0.2515773 -0.13110837 0.012501356 0.15499121 -0.28322893 0.0026678997 0.04936303 -0.07581693 0.17708561 0.03332945 0.2595474 0.22473072 -0.14723626 0.027802164 0.21997218 0.1672954
137 -0.51881313 0.1584238 -0.10518349 0.08209885 0.018206855 0.00981617 0.32998225 0.293447 0.28654617 0.0784827 -0.085751474 0.022944866 -0.098936416 0.5519401 0.29985029 0.2588065 0.44882238 -0.28898355 0.121243015 0.25176603 -0.12988226 0.06175667 0.33333904 -0.1047503 -0.31507078 0.25401238 -0.024325063 -0.1828392 0.08137053 0.057231773 -0.055549055 -0.20754798 -0.062282164 -0.15742564 -0.16078863 0.033677433 0.013489702 -0.13844907 0.03964381 0.6664255 0.37572944 -0.32707626 0.061119854 -0.1351148 0.09578014 -0.1015965 -0.119735 0.2220412 -0.27148473 -0.17390944 -0.026352992 0.013273976 0.003755411 0.06773328 -0.32489976 0.14421998 -0.13831954 -0.02414013 0.163915 0.15295474 -0.07640644 -0.06202415 0.09314782 -0.03745028 0.26029295 0.32062513 -0.25957048 -0.15691178 0.27382722 0.12141457 0.07196197 0.4506979 0.0005729642 0.23677959 -0.1657714 -0.18948428 -0.38480115 0.4663384 0.28221354 0.069257766 -0.032938812 0.00048368107 0.20863907 -0.31012487 0.24284704 0.20381133 0.31390882 0.19292738 -0.1496306 0.2524405 0.24131177 -0.3830011 0.030960163 0.1005037 0.30545303 -0.41327113 0.41355702 0.08886041 -0.015693745 0.2601211 0.23783831 0.058084674 0.24277376 0.06805855 -0.12110553 0.15619029 0.019495588 -0.18009375 -0.091935255 0.24423796 -0.42968407 0.21749938 0.0682523 0.23040888 -0.07338162 0.26059622 0.055056613 -0.1248869 0.21998288 -0.1071251 0.26949078 -0.33499065 0.2277873 -0.0020116554 -0.052260417 0.19548535 0.14444536 -0.42698616
134 -0.29421005 0.17651202 -0.10816391 0.09761053 -0.06603254 -0.033641424 0.21473494 0.182012 0.23525302 0.0659855 -0.048746295 -0.0069883647 -0.18414266 0.5675234 0.15328687 0.23675993 0.43237877 -0.3157174 0.023192815 0.27189222 0.009835711 0.04316975 0.2805072 -0.0048424015 -0.31795153 0.28960997 -0.06443799 -0.11107469 0.2635887 -0.13790274 -0.15671577 -0.23191915 0.0077748317 -0.18630812 -0.2321474 0.0039211656 0.05273851 -0.09485654 0.12109117 0.62039685 0.24513212 -0.28478017 -0.029090963 -0.063755155 0.12370022 -0.071472034 -0.21265788 0.22504607 -0.39072478 -0.27931476 0.08109819 -0.13382195 0.0958883 0.06351686 -0.17707665 0.13492532 0.04917689 -0.14089791 0.20612808 0.14416584 -0.16889167 -0.0076308553 -0.069292404 -0.09086721 0.33067334 0.34476903 -0.42770493 -0.18027374 0.31912905 -0.08876482 -0.043271642 0.31643432 0.09475271 0.19742616 -0.2508537 -0.20796092 -0.49381003 0.47546813 0.2070453 0.1808902 0.013672443 0.11279055 0.061190713 -0.31336597 0.21607153 0.14893988 0.28714836 0.11560603 -0.0943516 0.12641855 0.32736778 -0.39516062 0.08176866 0.07317536 0.29313442 -0.376738 0.40814993 0.019524664 0.03629602 0.13378488 0.24648304 0.17795466 0.2862603 0.16321842 -0.17422137 0.22742926 -0.07843541 -0.31932193 -0.08189539 0.21832661 -0.3720857 0.122483745 0.09932303 -0.005470068 -0.20204185 0.16368958 0.24101086 -0.026766935 0.17909417 -0.20617194 0.28376606 -0.4039079 0.23423244 -0.038394522 0.090664804 0.16613466 0.23539793 -0.42604077
154 0.038551487 0.00494113 0.0127195 0.19786009 0.35094333 -0.052439757 0.26345608 0.33256558 0.41963667 0.25695705 -0.08938525 0.044273797 -0.01684852 0.40796068 0.12326832 -0.58524245 0.3704393 -0.1704114 -0.4099363 0.17047864 0.24291503 0.111539826 0.63749564 0.14856543 -0.4601886 0.25745812 -0.16445701 -0.07219649 -0.3262449 -0.11431802 -0.07102408 0.115862094 0.18553498 -0.15210657 0.18696144 0.11948879 -0.2267876 0.10154569 -0.09476086 -0.09723257 0.20514208 0.42260838 -0.19691175 0.13223417 -0.11524544 -0.024414483 0.08726873 0.3048938 -0.29488844 0.04658825 -0.29542896 0.20836979 0.08308801 0.2918746 -0.4317326 -0.2834133 -0.035822988 -0.34279668 -0.08469042 -0.22370015 0.20013326 0.33680344 0.05199642 -0.16734095 -0.28860202 0.042112865 -0.16546597 -0.32332194 -0.045867268 0.20881173 -0.09692825 0.12638265 0.16343604 0.0055496623 0.027438095 -0.053446017 -0.026044555 0.13549791 0.08365747 0.15507187 0.26625407 -0.17494471 0.28577247 0.050449736 0.15475392 0.09526008 -0.047691267 -0.017657103 -0.15956332 0.116486184 0.01980644 0.057015933 -0.31796846 -0.07238921 0.11945499 0.01404864 0.2904241 0.088471025 0.406918 0.023530513 0.042284977 0.34329915 -0.058243394 -0.025899779 0.18134038 -0.04392266 0.040820558 -0.3658465 0.29013532 -0.12825786 -0.26084578 0.21084039 0.15046935 -0.2454515 0.10110225 -0.690161 0.08551858 0.12821437 0.23221311 0.17524348 0.2830385 -0.058453556 -0.037997168 -0.112012945 0.06455318 0.42495576 -0.022269566 -0.003151523
135 -0.58794296 0.17679854 -0.115525916 0.07076174 -0.071519166 -0.03825087 0.4007717 0.32280144 0.23869838 0.004605772 0.027172074 0.012575033 -0.079031035 0.47022027 0.2629467 0.1571212 0.5215981 -0.32431155 -0.04384098 0.18260807 -0.16555327 0.06886679 0.3773299 -0.00539087 -0.33206075 0.20076676 -0.064640105 -0.12996341 0.154676 -0.09313482 -0.13867219 -0.28653365 -0.002641727 -0.1591628 -0.24229857 0.07087446 -0.029939502 -0.11257948 0.055153206 0.81368726 0.34938678 -0.42134792 0.095042676 -0.16786182 0.018277064 0.08360006 -0.04871166 0.14937446 -0.29080832 -0.09272308 0.051878307 -0.054838765 0.06704392 0.2561201 -0.13745 0.18587458 0.01741516 -0.20909424 0.35124087 0.2238912 -0.16053742 -0.0508931 0.081761226 -0.04726772 0.2759635 0.23642904 -0.28063425 -0.21639813 0.3168189 0.035131484 0.04213226 0.43262464 0.0127309095 0.20687209 -0.15569332 -0.21601361 -0.48147812 0.52233285 0.25621477 0.18055822 0.08482076 0.14497247 0.052777246 -0.30410075 0.16712764 0.15011676 0.3555252 0.20226313 -0.085128374 0.1800171 0.30386975 -0.18612307 0.12566368 0.016797477 0.20527552 -0.29803395 0.42588925 -0.031316385 0.04689846 0.18629448 0.256485 0.098647535 0.2035018 0.114253946 -0.13120636 0.23807085 0.008965805 -0.16521013 -0.17993882 0.13859119 -0.32443938 0.2646143 0.08913498 0.122608386 -0.08954405 0.17846446 0.22618422 0.08946208 0.13658397 -0.10805777 0.26955247 -0.16687337 0.1453063 0.019108707 0.077611394 0.11717194 0.23989077 -0.4398296
153 -0.007562507 0.016477924 0.107613616 0.06919773 0.34879228 -0.024688063 0.32107133 0.32516205 0.4841208 0.33205608 -0.12990452 0.060423847 0.07299566 0.33131742 0.11167007 -0.5413698 0.37524444 -0.10099805 -0.29210106 0.21430244 0.22586784 0.14854257 0.66567457 0.25463158 -0.42776966 0.22360577 -0.08001848 0.030384008 -0.35054532 -0.14713609 -0.28599647 0.09709203 0.20714217 -0.19576898 0.124876976 -0.02222769 -0.14577511 0.105532095 -0.15397741 -0.20969847 0.07486336 0.43309066 -0.09293005 0.21887632 -0.09761421 -0.096981496 0.0720423 0.31122383 -0.32105196 0.16510218 -0.3273671 0.2601414 0.1407751 0.2798845 -0.30741882 -0.29765588 -0.10972169 -0.3586828 -0.052961476 -0.19950873 0.22642544 0.37636185 -0.0006255289 -0.11663799 -0.28639373 0.04430166 -0.24689616 -0.2417915 -0.10890948 0.047122255 -0.11606445 0.09477751 0.15878753 0.0048079076 -0.13609031 -0.034512103 -0.03956918 0.008075235 0.104755946 0.14048263 0.30617547 -0.14044847 0.3103744 0.13613233 0.21656844 0.16263454 -0.014816014 -0.020329462 0.025629269 0.04610917 0.12241247 -0.026149105 -0.2819711 -0.1070055 0.10179152 0.027641362 0.17320332 0.080740295 0.46773675 -0.005307511 0.03847375 0.37797856 0.015117497 0.0067196894 0.080330886 -0.14273492 -0.02324494 -0.5236694 0.1575286 -0.07443103 -0.30246487 0.28325033 0.14595066 -0.27409068 -0.00034853411 -0.5759663 0.0011023062 0.14108838 0.12474033 0.117222324 0.17720382 0.092480585 -0.1249105 -0.17524816 -0.029990504 0.45067137 -0.070948154 -0.09934442
136 -0.55742884 0.20264839 -0.11980116 -0.021771725 -0.016064934 0.0014806383 0.30283734 0.09116622 0.2935737 0.14326571 -0.08474572 0.086104155 -0.1095821 0.50749457 0.19042479 0.20904967 0.35036203 -0.25914896 -0.0068257647 0.1767622 -0.16555715 0.024894528 0.39212027 -0.0026906568 -0.2749664 0.22367384 0.010251506 -0.08647578 0.07344109 0.110013366 -0.20280957 -0.23562802 0.04995724 -0.16751006 -0.24912442 0.012676102 -0.07038653 -0.13912515 0.036017325 0.7017657 0.29675263 -0.32171664 0.0985241 -0.08708581 0.1435371 -0.04516072 -0.12403445 0.12703694 -0.494126 -0.17379959 0.055411573 0.010710625 0.09144596 0.10957402 -0.1457883 0.045943 -0.035177402 -0.17140798 0.23973264 0.19045785 -0.051713753 -0.06326132 0.006856602 -0.1246287 0.2112733 0.28238574 -0.26178375 -0.12685055 0.26163065 0.061432596 -0.054864686 0.4614157 0.045146402 0.33874178 -0.27055418 -0.23304467 -0.558808 0.4321309 0.2686215 0.16986562 0.077531174 0.030352311 0.098084494 -0.16887605 0.18743707 0.205599 0.42925447 0.1242939 -0.06498028 0.20180297 0.25445566 -0.29516262 0.14380686 0.13715403 0.3593619 -0.33117568 0.31775942 0.0010629138 0.020797798 0.10022817 0.13003206 0.09474301 0.26562724 -0.09884588 -0.11371263 0.16560161 0.022336885 -0.18452007 -0.14417443 0.18124707 -0.47794017 0.18318184 0.1382377 0.24884267 -0.110500686 0.24714687 0.07675493 -0.057976577 0.13490088 -0.19478442 0.308912 -0.25836858 -0.033104554 -0.07679717 -0.06073815 0.16642198 0.21114056 -0.6207751
112 -0.27706465 0.09870256 -0.47835493 -0.017451975 0.22475669 0.056973584 0.044852406 -0.001107768 0.5460257 0.25827166 -0.18291146 -0.026425613 0.09363997 0.41725478 0.22717267 0.29822364 0.13472529 0.1445465 0.011864037 0.26210153 -0.17529681 0.10859927 0.018464252 0.16651444 -0.011177536 0.03616072 -0.028103678 -0.13508682 -0.23567465 0.13191442 0.001825089 -0.14386573 -0.107779376 -0.25009245 -0.021290531 0.08274067 -0.14174028 0.060250107 0.1828877 0.20277251 0.27484807 -0.13856521 -0.052173365 -0.0755022 0.25270814 -0.20981736 -0.009579005 0.29205477 0.019529518 -0.11492289 0.16087005 0.11762547 -0.23809941 -0.2041981 0.06531733 0.25650555 0.21680517 -0.1867908 9.18541e-05 -0.021765646 -0.2490884 0.14096275 -0.22854525 0.017573848 0.4060551 0.35707992 -0.34879252 0.07368987 -0.06922055 0.09831204 0.024375578 0.51901495 -0.13658647 0.012937173 -0.26496682 -0.056870423 -0.20509295 0.25295067 0.06939847 -0.12065017 0.007528701 -0.024499886 0.42067695 -0.29432353 0.49387005 0.09893511 0.09699636 -0.026900724 -0.21273416 -0.011037603 0.16082081 -0.105980925 0.1291086 -0.09266432 -0.11774752 -0.14276059 0.16331911 0.07523003 0.14362828 0.08375903 0.127676 -0.15159984 0.27271304 0.14117199 -0.10754673 0.048450783 -0.30223602 -0.13459507 0.14307386 0.13405016 -0.32366472 0.28827217 0.041355755 0.0011110705 0.08442594 -0.06009553 -0.045472268 -0.19409165 -0.06463135 -0.20918512 0.18215887 -0.09079761 -0.07384753 -0.2467448 0.06391636 -0.17339954 0.35653368 -0.40370238
110 -0.12136805 0.18267663 -0.51815385 0.13725081 0.2758194 0.07082445 0.105446376 -0.013763696 0.52041364 0.2630167 -0.20972115 0.06326866 0.0003354312 0.4361048 0.111327834 0.13730149 0.18481654 0.14061126 -0.0055161696 0.25505483 -0.26040396 0.20766336 0.01888117 0.11391672 0.21236953 -0.06921506 -0.06886124 -0.18381774 -0.2534351 0.15531366 0.08151429 -0.0068147103 -0.014970894 -0.32354784 -0.005524466 0.01044331 -0.12711625 -0.034377873 0.18791983 0.2596605 0.35982013 -0.1619003 -0.02758743 -0.061704867 0.18016048 -0.26685733 0.048267737 0.20763732 0.021177266 -0.10077341 0.13369228 0.08458704 -0.29705945 -0.2064105 0.073638916 0.3118518 0.045694206 -0.08880801 0.13323432 0.07431558 -0.32747597 0.07255198 -0.11180308 -0.01490609 0.40674156 0.23758489 -0.33862755 -0.025509838 -0.10189137 0.20711271 -0.0035051731 0.480064 -0.07457924 0.072240815 -0.22652131 -0.017025858 -0.22484773 0.2047955 0.15993758 -0.022817194 -0.13506031 0.1425554 0.31001875 -0.3222811 0.3853884 -0.052244317 0.07051891 -0.014385458 -0.21551424 -0.0058462447 0.12929343 -0.11724923 0.11558433 0.009594187 -0.1489956 -0.14511311 0.109105125 0.06333374 0.21988136 -0.07565167 0.08439583 -0.25709295 0.20889759 0.14851227 -0.24832192 -0.009743543 -0.2811973 -0.12178938 0.13549519 0.13095348 -0.22862628 0.2921647 -0.0142384395 -0.15039486 0.15224932 -0.0661105 -0.08586485 -0.2661414 -0.06525534 -0.31865868 0.22411995 -0.2632218 0.007996792 -0.2194315 0.028837293 -0.047843415 0.2800582 -0.30127862
113 -0.21980897 0.17231901 -0.52686846 0.21445036 0.25607583 0.112770386 0.1433528 0.06416647 0.47834376 0.074778445 -0.2262779 0.017307138 -0.09772906 0.32649162 0.18563293 0.28339824 0.17759195 0.13477558 -0.100789614 0.2598522 -0.3249198 0.26541018 0.1129867 0.14036107 0.20688325 -0.01811766 -0.18709566 -0.20582159 -0.117312625 0.08657117 0.1695803 -0.13115722 -0.082420126 -0.214363 -0.011425584 0.02833844 -0.29552063 -0.04957106 0.30961555 0.20539363 0.35675672 -0.13353942 -0.078103654 0.0016258036 0.18538429 -0.24103476 -0.049137145 0.3525898 -0.06409232 -0.17464738 0.18317972 0.06437769 -0.2808496 -0.100207515 0.06094381 0.30121842 0.059551146 -0.18117592 0.08976066 -0.10861697 -0.11256995 0.0961156 -0.18772647 -0.12406838 0.38436002 0.27560645 -0.35612783 -0.02264343 -0.040300578 0.21715112 -0.033909 0.46072105 -0.145834 0.06974886 -0.22066891 -0.114307426 -0.15745313 0.22971463 0.06472679 -0.11886904 -0.0440938 0.055403408 0.29639858 -0.31204697 0.34874132 0.06547974 0.09959993 -0.059935067 -0.27141762 -0.04399458 0.11224665 -0.14937931 0.17649782 0.045757893 -0.073006585 -0.15923922 0.1743677 0.19239497 0.11967196 0.02888845 0.12606499 -0.13301943 0.15234318 -0.0029173344 -0.06992197 0.17792246 -0.19015111 -0.15976357 0.33018366 0.029094964 -0.13519152 0.3525609 0.038194038 -0.10981071 0.13127486 -0.13966529 -0.12960324 -0.2808242 0.15711589 -0.10764682 0.24057427 -0.3449243 0.031264115 -0.18369497 0.19846374 -0.14922954 0.34111252 -0.40417284
203 -0.20466709 0.032482445 -0.4093219 -0.030807525 0.15478301 0.13603376 -0.10131004 -0.04303051 0.081543304 0.032189503 0.109925576 -0.17312628 0.102297425 0.18506533 0.036847565 0.07723837 0.4316624 0.23437904 0.13316885 0.37846628 -0.2211382 0.3432811 -0.18059383 0.4489026 0.12574671 0.050002363 0.046165198 -0.28777695 0.11466534 0.085896544 0.14569138 0.046422742 0.30042255 -0.12338681 0.12923594 0.08949005 -0.12264302 -0.47487155 0.21277718 0.2323062 -0.047221597 0.017026825 0.12624742 0.080321535 0.22431739 -0.31008437 0.001310036 0.16037124 -0.22462237 -0.15329209 -0.15920319 -0.03188387 -0.13015956 0.2379429 0.108655125 0.36264798 -0.03738085 -0.285277 0.3275372 0.18017197 -0.24878444 0.04778216 -0.047273833 0.15654972 0.35789713 0.2366787 -0.40303063 -0.15296032 -0.15127781 0.15574501 0.18187967 0.36242455 -0.079869196 0.18417963 0.13541149 -0.13474244 -0.319842 0.43942377 0.007206284 -0.12653467 -0.038447745 0.17933701 0.3370143 -0.3670178 0.28423196 0.20375691 0.2714432 -0.1295414 -0.18450828 0.16862702 0.17757079 0.033783436 0.11794766 0.0428891 0.18888253 -0.17319563 0.11129821 0.17538656 0.4220616 0.18983562 0.046332493 -0.25343883 0.15458882 0.46077907 -0.07354708 -0.23113914 -0.35188413 0.11698748 0.113134965 0.33570024 -0.07206201 0.19166994 -0.016633851 -0.2344185 0.20707813 0.10327631 0.11687115 -0.48125583 0.06527329 -0.18338796 0.28019077 -0.3005478 0.110482365 -0.33965543 0.033724893 -0.030903446 0.22579548 -0.2527164
111 -0.29344186 0.1569191 -0.5088354 0.15905672 0.054265384 0.054572202 0.097815305 -0.13857865 0.5331451 0.14675146 -0.21544957 0.16068172 -0.04246291 0.3825818 0.15224642 0.2997476 0.27292487 0.27654144 -0.09596498 0.25684932 -0.27436322 0.31510416 0.0008159471 0.26799056 0.21657036 -0.029987166 -0.20092763 -0.20386834 -0.08705299 0.00045278773 0.05839351 -0.13410333 -0.016877424 -0.19952601 -0.11810717 0.05820479 -0.29089677 -0.01348978 0.24877499 0.3307628 0.29327455 -0.21216922 0.01775286 0.047909502 0.23839514 -0.250092 -0.085017055 0.20763843 0.03070191 -0.062168468 0.15809189 0.07665736 -0.28057146 -0.092698194 0.15393037 0.3075742 -0.02892439 -0.24029468 0.15812832 -0.043889545 -0.23033501 0.09823295 -0.1462715 0.03930575 0.34921843 0.29182252 -0.44212812 0.08598406 -0.09417778 0.29557782 0.06529915 0.40922782 -0.10517715 -0.0049848515 -0.22023055 -0.12570764 -0.24882399 0.2735403 0.13733007 -0.047706313 -0.11000767 0.1637178 0.31313166 -0.35403195 0.4248985 0.08009432 0.16423711 0.049385667 -0.24766691 0.035678543 0.08162911 -0.07749444 0.1455482 0.059824254 -0.08711221 -0.21672809 0.03991532 0.0932845 0.2156624 0.039104253 0.014752655 -0.044339847 0.12000738 0.17179064 -0.20439006 0.099780574 -0.2645056 -0.09448273 0.1375459 0.17937164 -0.042305987 0.30589578 0.13154647 -0.19450217 0.24832784 -0.2296594 -0.15948653 -0.23120907 0.09929788 -0.08303794 0.29521635 -0.08290494 0.003034777 -0.14638612 0.08740811 -0.15323377 0.397959 -0.47350737
205 -0.22802368 -0.00087204017 -0.44085157 -0.069831684 0.1310254 0.12683977 -0.13862754 0.099833876 0.15595415 -0.06941111 0.036118265 -0.14344136 -0.13303807 0.14218307 0.014384996 0.10579903 0.57984525 0.24966066 0.19134746 0.30825055 -0.35087585 0.27246198 -0.2280528 0.34717435 0.057012916 0.07065794 -0.042807277 -0.26392952 0.25018507 -0.14569226 0.087817624 -0.116306484 0.21724519 -0.15362132 0.11271163 -0.011560854 -0.123812966 -0.34881017 0.10174841 0.27996886 0.022961194 0.08087334 0.13726206 0.17041327 0.13790503 -0.2659639 -0.049513612 0.18547101 -0.11162973 -0.1996276 -0.09737654 -0.0510611 -0.090134166 0.19426839 0.04159189 0.21304801 0.043335937 -0.2133059 0.362856 0.032745596 -0.26756063 -0.047820058 -0.07245068 -0.055830043 0.33187103 0.16547045 -0.4765038 -0.11920108 -0.19886735 0.22211592 0.06901586 0.30612934 -0.16331041 0.12760718 0.064602494 -0.21279629 -0.35535267 0.484796 -0.026363537 -0.1395189 -0.1458349 0.23458382 0.2543665 -0.35432988 0.34786895 0.11302529 0.19827484 -0.13631147 -0.21911587 0.105454065 0.24045865 -0.10460208 0.0633557 -0.07545065 0.17960268 -0.19260561 0.103920355 0.20149313 0.34933224 0.13923648 -0.03819541 -0.2826475 0.24390991 0.38330257 -0.15581352 -0.09977551 -0.3939446 0.048609756 0.20189832 0.33241078 -0.09779401 0.14600423 -0.11438437 -0.2378617 0.11165824 0.054391388 -0.1390935 -0.49629402 0.09574018 -0.08360532 0.2405633 -0.48651552 0.17622653 -0.41890025 0.04139799 -0.07650601 0.33300105 -0.29180187
193 -0.26698017 0.040428434 -0.34349227 0.05671802 0.013326041 0.23439832 0.12886018 -0.08168794 0.4106049 0.023347763 -0.077883184 0.21756344 0.03459173 0.22395927 -0.0023870207 0.14014581 0.26865688 0.22728623 0.028529715 0.14510429 -0.13104528 0.24957587 -0.016331049 0.03872311 0.3653372 -0.057709854 -0.16294053 -0.154106 -0.14482148 -0.11153764 0.036906734 -0.0864111 -0.12086885 -0.45398167 -0.09356749 0.020168198 -0.09396074 -0.16939181 0.17596559 0.11951906 0.18313572 -0.17031898 -0.040251248 0.05728344 0.33184627 -0.21105662 0.037630994 0.29039225 -0.09781989 -0.037874173 0.090266004 0.14178175 -0.3249887 -0.28849238 0.07120403 0.2904221 -0.09829254 -0.1340503 0.14291702 -0.047221567 -0.07875982 0.08668602 0.008324442 -0.004834655 0.3503879 0.35241297 -0.34934962 0.108932085 -0.094648875 0.17533185 -0.010396469 0.32801908 -0.26025906 0.26329505 -0.13689703 -0.19355448 -0.24445958 0.28493857 0.15908545 0.0034633866 -0.13661534 0.10297615 0.48402542 -0.25101784 0.5940914 0.0847549 0.24069232 -0.1249004 -0.1266537 -0.0023941454 0.09231433 -0.24998684 0.093326524 -0.08709695 0.007982268 -0.11224891 0.13868487 0.11189012 0.228058 0.0036239885 0.032910023 -0.25566572 0.20585461 0.2640079 -0.1897981 0.037669778 -0.29553896 -0.003223219 0.1655575 0.12596472 -0.26251087 0.2471634 0.030312287 -0.16159339 0.23869485 0.071078494 -0.21024866 -0.27904373 0.27368686 -0.092114404 0.26280916 -0.40623906 -0.070201926 -0.31880674 0.028361635 -0.07714388 0.33652183 -0.35416216
191 -0.34604943 0.17066938 -0.30711827 0.19161688 -0.10379375 0.23206179 -0.0017311457 -0.17313273 0.39593828 0.046265673 -0.14183742 0.09813436 0.036906026 0.21263082 0.0848962 0.21696933 0.19222042 0.1699632 -0.120862246 0.15024121 -0.2741086 0.19530587 -0.036727298 0.14688405 0.23156708 -0.02686373 -0.08504192 -0.3100818 -0.11871705 -0.07792021 0.0501262 -0.11405577 0.0050489316 -0.39952937 -0.043580566 -0.04646078 -0.0725037 -0.03254234 0.20592155 0.030604174 0.13361031 -0.2653184 0.039903745 0.040031955 0.26586697 -0.17834532 0.11047702 0.25315952 -0.004243039 0.014046548 0.014906266 0.13910618 -0.1879322 -0.18388073 0.20530042 0.20589216 -0.13357331 -0.06543467 0.31279024 0.020572726 -0.13616268 0.0405793 0.11065591 0.004987126 0.439331 0.20016128 -0.32216868 0.12232331 -0.108885 0.10136984 0.055974837 0.3146875 -0.32229087 0.20704913 -0.14698374 -0.26120293 -0.26513815 0.22409739 0.078558825 -0.094200626 -0.26944226 0.12617297 0.4075448 -0.20423566 0.5520602 0.08840732 0.24502993 -0.02210771 -0.101675294 0.12598206 0.13976148 -0.22112852 0.09876012 -0.10307632 0.050134 -0.12206847 0.12529229 0.1162963 0.14987221 0.09824972 0.012838054 -0.17429554 0.15400168 0.23745029 -0.3214269 0.014060474 -0.28997552 -0.07490206 -0.008600594 0.17076625 -0.22516169 0.210316 0.050436854 -0.1385582 0.19840178 0.050174747 -0.10896051 -0.19818135 0.09345157 -0.022637742 0.26755565 -0.298941 0.024261443 -0.39764938 0.036907095 -0.03601518 0.42436185 -0.37539774
192 -0.36849445 0.0056110146 -0.441715 0.06916741 0.0002024997 0.2259521 -0.04080478 -0.19017766 0.3598387 0.13446075 -0.17308779 0.15913484 0.005864369 0.27145246 0.09530867 0.19940971 0.27672705 0.14585283 0.0053486903 0.09804174 -0.20776558 0.24514814 -0.08960199 0.1137044 0.22755916 -0.021703996 -0.26072678 -0.21831107 -0.24881642 0.02488883 0.0893904 -0.12931271 -0.03918114 -0.32913628 -0.03946809 -0.01781555 -0.08200459 -0.14771713 0.14822277 0.048215475 0.21085244 -0.19895287 0.09040654 0.07228644 0.23757178 -0.09634636 -0.02623838 0.24256545 -0.10187138 -0.031961136 0.07459631 0.11226723 -0.2570301 -0.27275982 0.10412186 0.20261915 -0.06623479 -0.14301398 0.22728904 0.0024733879 -0.10341461 0.043642346 0.041972015 -0.10019316 0.43095207 0.22567664 -0.400643 0.061362006 -0.08452408 0.08746664 -0.057779748 0.31338048 -0.27913433 0.20837669 -0.21168709 -0.26816213 -0.3033549 0.23555556 0.09054384 -0.13196994 -0.1609924 0.050567225 0.32449973 -0.17134336 0.6329473 0.1069265 0.1962621 -0.18596107 -0.24212198 0.13963771 0.079596214 -0.20890465 0.102895044 0.10517171 0.028447555 -0.08331579 0.11086613 0.17082663 0.2051205 0.12332317 0.007908261 -0.3008285 0.1616234 0.11307906 -0.08220773 0.16011791 -0.2648274 0.03549027 0.2209562 0.22384433 -0.19302617 0.2652875 0.09018185 -0.103198044 0.28607056 0.290136 -0.18563409 -0.29028463 0.16974589 0.020981988 0.26453286 -0.29528934 -0.062262587 -0.29668635 -0.0051038675 0.09673013 0.3840708 -0.4450213
190 -0.2637946 0.009849841 -0.36745098 0.07941166 -0.0803621 0.22037141 -0.05094947 -0.213225 0.42957097 0.170044 -0.11601535 0.11174832 0.026390798 0.37235954 0.056377 0.22262737 0.22348541 0.10912503 0.03432428 0.14213248 -0.2719685 0.2782594 -0.053096335 0.16516773 0.29366055 -0.064886704 -0.25720793 -0.19560823 -0.26626772 0.07469475 0.045615137 -0.20477964 0.058322467 -0.41340724 -0.10933846 0.061532438 -0.13782696 -0.13450778 0.11549392 0.22038268 0.24619931 -0.1617695 0.025327578 0.069471456 0.2284201 -0.10512913 0.0028610576 0.21184266 -0.06672343 0.007939836 0.05827601 0.071390666 -0.33433294 -0.22127421 0.102182806 0.27180254 -0.13810529 -0.11714654 0.18602978 -0.042255007 -0.1272799 0.06861536 0.025094392 -0.0038367948 0.40395913 0.22433017 -0.38997456 -0.04534455 -0.11438441 0.15998165 -0.02570452 0.27981928 -0.30717105 0.20626132 -0.16406526 -0.23729153 -0.25197122 0.18348905 0.16241498 -0.15520771 -0.26010123 0.07496274 0.305051 -0.19915637 0.6081092 0.056986503 0.1556682 -0.11944409 -0.2621633 0.12911768 0.008982933 -0.25297847 0.051336408 0.06301894 -0.090558276 -0.13692634 0.053284243 0.08119488 0.15495858 0.12240258 0.045359965 -0.33486632 0.19988902 0.27416396 -0.3062889 0.06652128 -0.11096262 0.03218369 0.23491655 0.17342474 -0.1748823 0.08651175 0.020594701 -0.102548495 0.31719154 -0.03166183 -0.15033586 -0.27893353 0.06589475 -0.064815015 0.21928705 -0.18492205 -0.06679344 -0.2837799 0.018833471 0.035514604 0.28373316 -0.31978956
18 -0.39225733 -0.08847033 -0.22260109 -0.080708936 -0.43631738 0.467206 0.026875386 -0.048043482 -0.1162211 -0.03824195 -0.3489979 0.36221302 -0.29967815 0.044266272 -0.23179188 -0.65525144 -0.34329593 0.21129365 0.032779206 0.17572875 0.12482227 -0.068875425 0.13448063 -0.37818444 0.050948318 0.2274257 -0.06912729 0.016055917 -0.30925697 0.04230115 0.049923997 0.21310979 0.15162995 -0.098392926 0.11667091 -0.31551722 0.2556762 0.13508262 -0.037384283 -0.12007346 0.28163937 0.42774945 0.41392615 0.059376154 0.104888044 0.20764816 -0.18550038 -0.15906826 -0.036735397 0.20692843 -0.13553904 -0.03675509 0.2043814 0.18230076 -0.17066768 0.3184313 -0.045964625 -0.29784745 -0.08165465 -0.5412277 0.019369096 -0.22537674 -0.34521753 -0.015567773 -0.07057014 0.17239977 -0.24364221 -0.23482846 -0.34512255 -0.2618452 -0.020816157 0.10893529 -0.021509526 -0.38764906 0.21488266 0.027788395 0.114757985 -0.099004775 -0.33550012 -0.45606935 0.1536414 0.018741537 0.52167606 -0.34407678 0.17991492 0.25815293 0.33960178 -0.07893661 0.22579043 0.24110171 0.17352504 0.13752507 0.1898208 0.004656406 -0.08536635 -0.08666576 -0.19622384 0.21772102 -0.3161169 0.09184525 0.5792308 0.28502753 0.20789076 -0.019776262 -0.14073941 0.2323782 0.011656919 -0.33457914 -0.07188522 -0.24526568 -0.5139934 -0.11449123 -0.07745067 -0.10754017 -0.26005504 -0.115206204 -0.18812598 0.5742864 0.16390559 0.044929396 0.20184065 -0.799186 -0.070549674 -0.066298656 0.16721539 0.34083438 -0.28383353 -0.43898657
48 -0.5385655 0.036183786 -0.2640054 -0.013890464 -0.6309688 0.28369528 0.22028527 -0.037588157 -0.23032796 0.059345562 -0.40780082 0.30985874 -0.17998755 0.08678295 -0.12399878 -0.66964686 -0.42029437 0.06751402 0.022741375 0.10313176 0.20830542 -0.021284597 0.051477954 -0.37680042 -0.034450747 0.13027282 -0.05601024 -0.13901463 -0.3203469 -0.024854265 0.124442056 0.22463124 0.07878638 -0.17692265 0.1529718 -0.08875257 0.27499023 0.27939558 0.0216068 -0.2589307 0.22174658 0.29160815 0.2952234 0.030333351 0.1861636 0.1922303 -0.18058544 -0.15116659 -0.15037066 0.2232173 -0.12750705 0.037648648 0.12481865 0.1656745 0.021697856 0.22691074 -0.13048713 -0.38268784 0.01677356 -0.57722026 0.0021322202 -0.26806325 -0.24850784 -0.16971947 -0.16066484 0.2379017 -0.27951443 -0.3338976 -0.35564142 -0.074117236 -0.066494465 0.116870105 0.038547862 -0.33759347 0.25075045 -0.007962644 0.09568644 -0.13818812 -0.43448982 -0.3943214 0.15060756 -0.08376794 0.49592248 -0.35403585 0.107711524 0.2445652 0.33345 -0.15814562 0.14624171 0.09630112 0.13954078 0.1981994 0.16549407 -0.074281536 -0.04424178 -0.18854319 -0.09138111 0.22124584 -0.30510727 0.024876129 0.6028953 0.19180687 0.19789426 0.07942573 -0.25705147 0.3011765 0.031646837 -0.2563075 -0.040976055 -0.14599743 -0.48783758 -0.1027055 -0.032229025 -0.083151266 -0.10898082 -0.22200923 -0.2276579 0.5854555 0.14441139 0.10807068 0.23903084 -0.6003097 -0.060236488 -0.04900485 -0.006276372 0.48362213 -0.24649097 -0.37597853
200 -0.105570294 0.26818904 -0.365584 0.25051177 -0.24101284 0.3660992 -0.25653794 -0.09372717 0.47383872 0.4204459 0.15059237 0.24401547 -0.4295946 0.08590299 -0.36316267 -0.160862 -0.1320277 -0.060141012 0.0304482 0.491546 -0.23234707 0.318218 -0.0076791537 -0.2980292 -0.056459814 -0.10721738 0.21098858 -0.0079996325 -0.30421728 0.21454461 -0.19888718 0.16290367 0.51420754 -0.3396956 0.074666485 0.07714422 -0.14960018 0.09078259 -0.11875597 -0.1352645 0.4909713 -0.15478402 -0.4992207 -0.24885942 0.27276966 -0.032636218 0.12097388 -0.005560964 -0.16189048 0.2786063 -0.05963495 0.04551189 -0.041126397 -0.10841139 0.3559793 0.38816777 -0.11749326 0.1556617 0.23317364 -0.0023417335 -0.38027683 0.0015378381 0.63196474 0.10037842 0.2500101 0.16764982 0.13808587 -0.42427087 -0.2913755 -0.32935956 0.29964948 0.2791726 -0.443769 -0.15039772 -0.28479397 -0.100568995 -0.24612147 -0.0135960225 -0.1502216 -0.3317861 -0.4386494 0.29639247 -0.22304864 0.13714266 0.03384592 0.46375427 0.16888171 -0.026108388 -0.14411435 0.07126274 0.1123947 -0.112747304 -0.28816327 -0.07206292 0.093021676 -0.34239733 -0.23272835 0.33239853 0.04230011 0.03548152 0.17040536 -0.36648047 -0.27873865 0.30897725 -0.057877623 -0.23048154 -0.6147492 -0.8685819 0.25963014 -0.7284419 -0.057092957 -0.12295997 -0.04338275 -0.27546924 0.0037916363 -0.91310596 0.45217666 -0.2650304 -0.14919166 0.24898444 0.20850147 -0.10105598 -0.093481444 0.07585209 0.47919884 -0.05236668 -0.22317529 0.09260612
199 -0.08449818 0.36326882 -0.48681992 0.30770558 -0.27862674 0.37757832 -0.33061427 -0.23382166 0.43595964 0.5806284 0.2119985 0.20660907 -0.4387 0.19788957 -0.35850993 -0.21621744 -0.05793475 -0.045586083 0.05815208 0.5241407 -0.27346483 0.35015112 -0.111773096 -0.18943308 0.056002058 -0.048829406 0.1482174 0.010628473 -0.36634272 0.16001952 -0.1793789 0.17564166 0.5284362 -0.30913728 0.05861968 0.108632654 -0.16665283 0.03016015 -0.14152102 -0.27013764 0.4834425 -0.11018833 -0.31795505 -0.18888201 0.25103027 0.05208073 0.14735526 0.028136691 -0.10236893 0.2953387 -0.023090595 0.08599475 -0.0133855045 -0.18257655 0.5014271 0.36666667 -0.042490076 0.17404033 0.30975118 -0.09967511 -0.33827487 -0.0077930703 0.6484299 0.14624698 0.29221648 0.09879172 0.1839754 -0.35817537 -0.288868 -0.34930983 0.2850177 0.35176286 -0.37338975 -0.14541261 -0.3688641 -0.19830893 -0.24251308 -0.006080652 -0.0026499901 -0.27419037 -0.44294882 0.29264954 -0.22694694 0.23968337 0.11884184 0.4917541 0.14668156 -0.005035906 -0.2481361 0.14054799 0.12203445 -0.1021662 -0.23924764 -0.07447891 -0.010066234 -0.31000686 -0.24093866 0.23315914 0.07253373 0.09964777 0.005214376 -0.4925383 -0.27402765 0.2898422 -0.10351022 -0.20565914 -0.62429976 -0.839433 0.28149486 -0.65097874 -0.06026317 -0.23073192 -0.036636587 -0.12606002 0.017792674 -0.9104282 0.41961074 -0.28070864 -0.18393752 0.17702793 0.22777316 -0.100271076 -0.23141304 0.07551506 0.43100396 0.057914604 -0.1530235 0.03452123
201 0.031382002 0.201959 -0.27293682 0.22126976 -0.31582978 0.3625127 -0.3315866 -0.29871932 0.44050547 0.4581048 0.19020574 0.23430423 -0.43490714 0.06624555 -0.3774949 -0.2296291 -0.07173282 0.09890465 0.03728284 0.45606005 -0.19906314 0.32983565 -0.07494992 -0.26046026 0.10777367 -0.06420595 0.05675613 0.05628434 -0.39369068 0.1418899 -0.14497012 0.134897 0.5006491 -0.33828008 0.061091885 -0.045475204 -0.18205525 0.06525248 -0.124983124 -0.25125623 0.40658495 -0.0539117 -0.34630057 -0.11279384 0.23800829 -0.05082276 0.12415585 0.002566214 -0.037069164 0.37587616 -0.028288318 0.020024482 -0.060271874 -0.20730726 0.3568528 0.4151002 -0.09756792 0.16449825 0.26393735 -0.066512324 -0.31625828 -0.045598425 0.6934188 0.09106649 0.3170277 0.18885083 0.059099544 -0.4329066 -0.44278198 -0.32142285 0.28137428 0.2935269 -0.48320422 -0.07393657 -0.4180611 -0.2119595 -0.26528868 -0.09851189 -0.01154651 -0.3742893 -0.5357597 0.2811108 -0.12642957 0.28406078 0.13461213 0.42653656 0.17930602 0.005577443 -0.11159306 0.08597062 0.06320069 -0.13225046 -0.2880288 -0.10480859 -0.08120624 -0.24778126 -0.28019536 0.23971221 -0.06171706 0.078548454 0.05099201 -0.55689275 -0.16475189 0.45879224 -0.10428928 -0.18581948 -0.5614832 -0.8770052 0.3241244 -0.6408751 0.00033115948 -0.22965251 -0.03967874 -0.20487729 0.012025209 -0.9324354 0.4653207 -0.3307351 -0.12278256 0.19872953 0.2519633 -0.0099508315 -0.06402178 0.089103535 0.4902973 0.10560763 -0.18047579 0.08866805
91 -0.440043 0.3364972 -0.25250876 -0.13712463 0.17646426 0.26726478 0.26035047 -0.2562936 0.58381075 0.3340553 0.021666968 0.43582365 -0.54834163 0.07699259 -0.11553152 -0.13582331 0.07208833 -0.19993292 -0.06534741 0.20878398 -0.13301116 0.158076 0.27119812 -0.0010571177 -0.076318376 -0.23638673 -0.15889288 0.24604052 -0.3885201 0.10310407 0.2799727 -0.21549082 -0.08480514 -0.52730405 0.42493486 -0.31691936 -0.004510374 -0.67392194 0.073349535 -0.28600636 0.43515015 -0.1477386 -0.010787383 0.24129897 0.3396968 -0.14750533 -0.0013022356 0.1499524 0.2752473 0.49446788 0.30758038 -0.118373714 -0.25319105 0.09105653 -0.15115215 0.40572318 -0.040006753 0.39434513 0.3250241 0.3045432 -0.27018952 0.14414088 -0.10413858 0.015262715 0.45481467 0.4136728 -0.33439854 -0.19188882 -0.3082615 -0.055032685 0.2687328 0.1569614 -0.1436474 -0.12822595 -0.34301096 0.0967559 0.032680932 0.011386366 0.19233069 0.042353194 -0.40170133 0.3010013 -0.32641533 -0.26876435 0.15500212 -0.16665745 -0.11130956 -0.13582839 0.04804139 -0.5985555 -0.0772091 -0.09988598 0.2724913 -0.24971552 0.059467223 -0.42748076 -0.4131943 0.17453462 0.3554243 0.11406037 -0.1488888 -0.45993796 -0.21507119 0.11936697 0.2002394 0.35680634 -0.97490424 0.08320554 0.6207843 -0.04504847 -0.2848885 -0.03056875 0.39837784 0.004144685 -0.30853862 -0.13999875 -0.0135556515 -0.04488487 0.21049947 0.2667616 -0.059208106 -0.21530265 0.030228922 0.13183974 0.09247129 0.2684926 -0.05706421 -0.08532843
198 -0.16060251 0.2747733 -0.35854396 0.40602967 -0.31027216 0.34563518 -0.169857 -0.15195847 0.50850886 0.5746929 0.27558818 0.2755688 -0.3157663 0.10614913 -0.36694324 -0.20779109 -0.0234738 -0.008978175 0.045645673 0.4242226 -0.29058394 0.33077124 -0.08215181 -0.28291392 0.025728926 0.0142617375 0.3704072 -0.01904542 -0.35286224 0.119445324 -0.088134915 0.11405361 0.5091615 -0.30299464 0.010540968 0.2181851 -0.07838046 0.16377865 -0.13413253 -0.15043275 0.552361 -0.11266528 -0.38137677 -0.17877957 0.23566827 -0.014103518 0.31333682 0.08284327 -0.10194101 0.36724335 -0.0813731 0.110496275 -0.034354858 -0.27697015 0.47237715 0.3959444 -0.13026166 0.111398175 0.17850795 -0.05077482 -0.2363686 -0.05682891 0.78038657 0.15554233 0.38870135 0.091289386 0.098324694 -0.4831119 -0.33370402 -0.2857287 0.43982077 0.3922964 -0.39200255 -0.14616728 -0.38625136 -0.21059804 -0.13825694 -0.10913984 -0.022196839 -0.30140555 -0.48853996 0.31187513 -0.120010175 0.31230706 0.17044559 0.4837007 0.12151514 0.024652664 -0.12918824 0.16866337 0.1408923 -0.105941065 -0.29359457 -0.1118748 0.0164103 -0.37098098 -0.19072685 0.26940003 0.043342687 0.050702177 0.098503396 -0.43734565 -0.28521302 0.44145167 -0.063672595 -0.119558856 -0.45369032 -0.7567257 0.3036147 -0.663215 -0.1343571 -0.2177351 0.005158296 -0.20062646 -0.086142525 -0.78540736 0.42261156 -0.15427034 -0.24127512 0.16324958 0.24117926 -0.09396663 -0.18130572 0.114226595 0.3715505 -0.04216102 -0.26141518 0.12046034
93 -0.4042076 0.41916135 -0.24499446 -0.1043564 0.14299946 0.3477955 0.25261995 -0.06994089 0.4717203 0.23723362 0.060998987 0.5470035 -0.5188082 -0.042339962 -0.017083801 -0.11348637 0.23909268 -0.2192539 0.041780647 0.11995447 -0.24627744 0.23177306 0.3091687 -0.04137218 0.0677621 -0.26531413 -0.17353745 0.22669432 -0.35763186 0.021509917 0.24748817 -0.18513794 -0.2079744 -0.4784953 0.4812791 -0.12559801 -0.07077315 -0.6535517 -0.007132318 -0.26816198 0.38935584 -0.11866051 0.0063291 0.17166547 0.30678496 -0.16496077 0.03676972 0.31901214 0.28537202 0.4673668 0.17703332 -0.008179336 -0.32335696 0.17238188 -0.17976628 0.4136317 -0.0745892 0.29638764 0.37289268 0.23534079 -0.22297819 0.24794225 -0.030894622 0.0005246441 0.34850866 0.3643389 -0.31147057 -0.2010508 -0.2326421 0.062103093 0.3292283 0.19134006 -0.2009744 -0.14668003 -0.17197998 0.08901046 0.05674599 -0.0010195421 0.26020464 0.01948777 -0.23746757 0.320111 -0.26973248 -0.29443824 0.19807243 -0.18225454 -0.03185236 -0.04495995 0.048743207 -0.6248381 -0.16109861 0.01280032 0.24525847 -0.24890414 0.07950669 -0.36620578 -0.29442856 0.22838615 0.54110247 0.14749062 -0.13288826 -0.4141375 -0.29781878 0.13831973 0.15464255 0.43142346 -0.84971493 0.29518858 0.59529525 -0.12843195 -0.39464623 -0.08232899 0.24024919 -0.11566124 -0.23843198 -0.19342062 0.045994986 0.041216135 0.2565249 0.21714915 -0.21620618 -0.29030296 -0.06566505 0.14586325 -0.030494707 0.2723378 -0.08397803 -0.030027548
92 -0.41397062 0.4801518 -0.24502973 -0.017199242 0.17232461 0.40652317 0.31539914 -0.19970264 0.54163456 0.42205375 0.04339997 0.4896192 -0.43156517 0.039833378 -0.19238983 -0.29888326 0.030367233 -0.238286 -0.16790521 0.16632092 -0.27443546 0.2425278 0.2128485 -0.026558088 -0.10047678 -0.13080546 -0.03245223 0.15612611 -0.36237884 -0.018012246 0.33367586 -0.207875 -0.20026363 -0.50020254 0.42556396 -0.14063974 -0.021892406 -0.5643015 0.0978945 -0.37207374 0.5042386 -0.10782125 -0.11172109 0.16193232 0.28405535 -0.17949694 0.13470134 0.1791171 0.3392703 0.5616642 0.17790003 -0.01358486 -0.3036342 0.19074932 -0.07652497 0.43218234 -0.08164682 0.18764554 0.325558 0.24880628 -0.098406516 0.061183702 -0.103507 0.01197893 0.4507868 0.31783113 -0.36982223 -0.26957893 -0.26270548 -0.031218905 0.39218357 0.21923631 -0.16058688 -0.16752501 -0.21199504 0.13218439 0.249284 0.028961815 0.09525085 0.11643487 -0.32736555 0.34228057 -0.2913663 -0.3292254 0.23436934 -0.15454547 -0.21125206 -0.11410511 0.0005856264 -0.6033378 -0.0818826 -0.08335619 0.3202148 -0.21048832 0.050110508 -0.34199557 -0.39383414 0.18277624 0.46200654 0.16694848 -0.053644374 -0.40052912 -0.3051964 0.16315863 0.19763753 0.37699598 -0.788033 0.20833504 0.7044522 0.047763936 -0.24571235 -0.05930022 0.31343225 -0.045531742 -0.25615045 -0.06397971 -0.036158096 0.03745041 0.09419232 0.23032032 -0.11782241 -0.21739623 -0.06369675 0.0960632 0.03509899 0.15449344 -0.06844685 0.052778654
197 -0.099649735 0.36771 -0.32471415 0.3225941 -0.2875785 0.37272382 -0.29061013 -0.14281078 0.41131657 0.53057414 0.23391055 0.23407808 -0.44642785 0.062124822 -0.36264053 -0.17763019 -0.079372294 0.008896371 0.12736508 0.42885908 -0.25918052 0.3673695 0.021810206 -0.32021967 0.09053898 -0.08185179 0.17464161 0.055468205 -0.36062813 0.1278127 -0.16376251 0.17069851 0.44316864 -0.36506465 0.057227768 0.15693602 -0.14028156 0.13076523 -0.15505925 -0.05012366 0.48094663 -0.12459194 -0.34092447 -0.21061417 0.27771106 -0.02609866 0.12533103 0.12914844 -0.071788855 0.37451398 0.021513749 0.067373216 -0.08328487 -0.124544196 0.43220392 0.43900108 -0.16383553 0.0048681656 0.34778336 -0.049093675 -0.2824911 0.04789849 0.7321474 0.069757506 0.2862789 0.15937734 0.032320496 -0.3650497 -0.24212703 -0.23263766 0.22582369 0.34657925 -0.49523062 -0.123043664 -0.3273647 -0.20218344 -0.2277833 -0.031294413 0.04502518 -0.26190817 -0.45344937 0.35278717 -0.10254266 0.20787399 0.008128865 0.44220722 0.2730678 0.062057123 -0.11128874 0.08382099 0.034949012 -0.028901681 -0.24968332 -0.056199472 0.026858559 -0.29649416 -0.3055699 0.23545438 0.03071574 0.10917242 0.047264606 -0.3864643 -0.25441217 0.42537642 -0.14685243 -0.11608463 -0.5141794 -0.805418 0.25097018 -0.75697744 -0.031901766 -0.2329076 -0.10770282 -0.27558112 0.0048547676 -1.0124993 0.5938259 -0.21246669 -0.05626501 0.15870976 0.1802903 -0.024956398 -0.22470202 0.081980325 0.36660847 -0.053030275 -0.20581998 0.12137081
196 -0.13520667 0.32565525 -0.2909123 0.29218248 -0.3478107 0.31783634 -0.23752628 -0.14594713 0.37875754 0.50452393 0.121032245 0.24604218 -0.38416377 0.12278535 -0.36072394 -0.17293024 -0.09957874 -0.054752715 0.07170895 0.45310277 -0.3089338 0.34964505 0.030406984 -0.28914264 0.07088176 -0.0240945 0.1866733 -0.027930953 -0.32482126 0.20882523 -0.19933143 0.18149793 0.51840645 -0.3334613 0.0021590889 0.08168831 -0.15114824 0.16590945 -0.18326922 -0.19106962 0.49359035 -0.18262275 -0.4257947 -0.18507668 0.3075363 0.013752775 0.14645407 0.067746505 -0.0737859 0.40980986 -0.105582014 0.074525036 -0.13177341 -0.20768167 0.39708057 0.35057473 -0.17352863 0.16304508 0.26112497 -0.01593806 -0.38410738 -0.030355506 0.66916054 0.13675912 0.24302563 0.19629154 0.11650727 -0.4370396 -0.4144255 -0.24349579 0.38760117 0.33440632 -0.53073096 -0.10338288 -0.43342802 -0.25322333 -0.22397 -0.073565364 -0.025252322 -0.30230197 -0.5530349 0.4149512 -0.13554487 0.20991375 0.13736366 0.40517253 0.17528029 0.08693253 -0.014853107 0.1326677 0.10895061 -0.10900551 -0.35037673 -0.015756257 0.07913985 -0.3200397 -0.29733154 0.19602117 -0.02964074 -0.02226926 0.0845849 -0.44462666 -0.2323563 0.42411157 -0.08239451 -0.20139004 -0.6062715 -0.84988725 0.24010186 -0.633038 -0.20128034 -0.20020495 -0.07311018 -0.21886694 0.0235953 -0.94435173 0.4759883 -0.2600675 -0.09195676 0.21021062 0.17417374 -0.044479825 -0.19825892 0.14676116 0.43770197 -0.024963671 -0.13222402 0.039009884
152 -0.15843199 -0.10719694 -0.88131905 -0.6257596 0.148278 0.03585057 -0.09653404 0.075350575 0.41685712 0.030586082 -0.050695807 0.39527276 -0.4819506 -0.22699437 -0.03128655 -0.044750392 0.24439958 0.3336274 -0.36246 0.49517503 -0.40231714 0.121062994 0.1362401 0.21081746 -0.15266827 0.1844284 -0.13819136 0.09693561 0.11263623 -0.24182431 0.0687279 0.41710967 0.0065363385 -0.18427858 0.011884418 -0.25491956 0.048489846 -0.15498517 0.12799145 -0.065758154 0.254849 -0.08366831 -0.06808203 -0.22922313 -0.110073335 -0.0951395 -0.13994664 0.45397577 -0.3611774 -0.32921723 0.019977745 -0.29188138 0.23155686 0.07583317 -0.4792609 0.2097928 -0.019645823 -0.33305672 0.4162664 -0.123777635 -0.1295069 -0.22768977 0.26272726 -0.33621702 -0.2547667 0.41461003 0.23192288 -0.3018781 -0.04344787 -0.042761255 0.16005073 0.026615951 -0.36363953 0.039330255 -0.21837981 -0.07667821 0.40294963 -0.23789157 0.06266299 -0.29048264 0.16165642 0.110645995 0.22550681 0.056279257 0.16427445 -0.21826527 0.5443471 0.21648514 -0.18805447 0.30385423 0.18221915 0.19756635 0.06795443 0.1760997 0.2511956 0.036755253 0.013299324 0.10598407 0.29181144 0.07708128 0.06886755 0.017797893 0.14125252 0.34315097 -0.014443868 -0.11902662 0.029228985 0.44503325 0.25585794 0.307009 0.039623182 0.15188158 0.051467683 -0.06365707 -0.17593591 -0.03861172 -0.11744682 0.029721795 0.19483057 -0.15337938 0.34837332 0.13318545 0.35741895 0.33714965 -0.12731 -0.053935047 0.18269783 0.30885038
90 -0.43045333 0.4109469 -0.22355185 -0.06764188 0.19838943 0.47028357 0.40203398 -0.1932484 0.49553418 0.18336815 -0.0063347504 0.45705044 -0.48322347 0.09339953 -0.097136386 -0.1776963 0.15810987 -0.229428 -0.09162079 0.16819917 -0.21913475 0.28736222 0.35191497 -0.12562926 0.032662798 -0.17768702 -0.15160137 0.07960201 -0.3522377 0.061987527 0.2762247 -0.26175642 -0.066371046 -0.5778019 0.41138086 -0.20872581 -0.09752298 -0.6017442 0.038192365 -0.2804084 0.4636567 -0.18731889 -0.15463066 0.12353421 0.36820567 -0.10740972 0.032360423 0.26023558 0.2666727 0.47769335 0.14019626 -0.072543964 -0.37837744 0.33250415 -0.14979498 0.41705477 -0.043472603 0.27733785 0.32515284 0.23408577 -0.24889599 0.24933286 -0.19178389 0.10487738 0.3737485 0.2888734 -0.3884599 -0.30194625 -0.27786857 -0.077629976 0.36530474 0.12616013 -0.16927613 -0.16706918 -0.21408615 0.08813389 0.081318796 -0.05019724 0.20085737 0.018816838 -0.41008452 0.29165494 -0.37046438 -0.3612506 0.16140206 -0.17438047 -0.09666279 -0.06937287 -0.03041367 -0.53844255 -0.123072736 -0.057640623 0.40202466 -0.3129069 0.020541532 -0.3495419 -0.3560574 0.18872072 0.33602786 0.2593074 -0.057671666 -0.4939258 -0.2432171 0.115208186 0.17428593 0.41278642 -0.78298837 0.21719918 0.7274094 -0.16216566 -0.3044669 -0.12343058 0.2863088 -0.02125924 -0.28889644 -0.12977013 0.08531589 -0.04954248 0.25020945 0.29626936 -0.1974112 -0.20373167 0.024821613 0.2141601 0.119453 0.09543571 -0.122423 -0.02963759
99 -0.12986349 0.24115491 -0.8029966 -0.7680864 0.7259929 0.6978731 0.17261024 -0.30564442 0.41008332 0.42460015 0.3189883 -0.1231074 -0.47460607 -0.05020135 -0.29224223 -0.10613486 0.3241743 -0.045659102 -0.07387526 0.22509569 -0.16008043 -0.1430049 -0.1571217 -0.23082887 -0.2354238 -0.51791525 0.2286006 0.41896388 -0.0330689 -0.10260027 -0.07555313 0.18172327 0.1617691 -0.24154942 0.08720586 0.2702979 0.3307769 -0.16119613 -0.09383088 -0.5948402 0.38916713 0.15960172 -0.5024363 -0.2563282 0.7349552 0.29735723 0.44169465 -0.1467943 -0.01833791 0.3410786 -0.4370454 -0.29428473 0.098248355 -0.23693267 -0.15864529 0.26507688 -0.37576333 0.27433375 0.5217199 0.04803857 0.08421169 -0.14082444 0.13680375 -0.16580127 0.053886723 0.15638351 -0.13724354 -0.52375525 -0.1851256 -0.3712579 0.7118699 0.119057655 -0.2923059 0.07933398 0.118221045 0.08481137 0.1184785 -0.0057880296 -0.025049647 -0.2644329 -0.031820133 0.19287513 0.10496056 -0.12875864 -0.13495296 0.39248484 0.3620065 0.18282278 0.20677099 -0.3715214 -0.18113579 0.02372844 -0.24968377 -0.12915853 0.04458913 -0.16600719 -0.46267658 0.30847445 0.027518041 -0.1895144 0.06829602 -0.11380913 -0.24707451 0.41670755 0.010852286 0.19641718 -0.41761774 -0.4406416 -0.17791757 -0.4994122 0.26922697 -0.25769964 0.43460968 -0.13235198 -0.006268242 -0.9790338 0.46913892 -0.07183679 -0.066614516 0.41099378 0.12049928 -0.09953518 0.23291758 0.29960874 0.18477707 0.35958678 -0.2892042 -0.10550781
151 -0.16873987 -0.10904425 -0.7416182 -0.54953724 0.17958519 -0.04518158 -0.14994137 0.10814478 0.30836034 -0.011261154 -0.10464643 0.39497587 -0.5401053 -0.246485 -0.16681173 -0.00648823 0.13189344 0.15968665 -0.26481357 0.4796652 -0.41481158 0.09411322 0.09766931 0.16174978 -0.22860445 0.20607254 -0.1065903 0.16194168 0.10577255 -0.2114819 0.11735971 0.41497093 -0.092859834 -0.19508587 -0.05676602 -0.22345498 -0.042986933 -0.064951465 0.085770175 -0.22275501 0.29272726 -0.048726305 -0.17530781 -0.18143801 -0.08633105 -0.19769073 -0.15269253 0.5548024 -0.2780809 -0.34152186 0.015868444 -0.28151983 0.18238991 0.119519815 -0.4541569 0.1897219 -0.02711551 -0.32515112 0.2908593 -0.10116152 -0.16904399 -0.2094489 0.37714413 -0.38927558 -0.15062954 0.44752213 0.14806332 -0.3121401 -0.07180689 -0.09327197 0.22367594 0.14201777 -0.2263641 0.041185938 -0.24416211 -0.1436119 0.34567338 -0.28823808 0.04484476 -0.2541304 0.1390729 0.09478155 0.15805395 -0.041831233 0.2078851 -0.18036516 0.4733035 0.3253601 -0.11325188 0.3156394 0.14907014 0.18759139 -0.09534408 0.22688463 0.2568732 -0.03276309 0.010081358 0.061444893 0.3243594 0.12119102 -0.013439563 0.008609124 0.12060154 0.33706218 -0.02473804 -0.17967421 -0.037934702 0.5237182 0.32323092 0.33333158 -0.15247874 0.14176 0.179707 -0.09194061 -0.08033358 0.015680427 -0.12781784 0.08909793 0.22930716 -0.07637029 0.2809049 0.075324394 0.39892522 0.25502425 -0.121026255 0.007335856 0.2862424 0.33288905
98 -0.08489546 0.3945267 -0.7026383 -0.8289426 0.69123167 0.67626774 0.1616837 -0.4064518 0.32256097 0.38613036 0.25658235 -0.15167853 -0.51446635 0.019039566 -0.40718836 -0.13195708 0.1323246 0.002867646 -0.15368551 0.23131996 -0.15614647 -0.099608585 -0.1293263 -0.09910163 -0.39295858 -0.50708866 0.18694755 0.48657936 -0.034211062 -0.10949939 0.042013455 0.15144406 0.15184739 -0.1580041 0.038967557 0.32162943 0.2920261 -0.051351804 -0.06857653 -0.6839217 0.31070256 0.21451461 -0.5343106 -0.32205173 0.7773744 0.3416513 0.4958983 -0.07136234 0.06726169 0.18999921 -0.35775557 -0.29398224 0.063414276 -0.17701615 -0.16990837 0.27641782 -0.34369716 0.23150904 0.43860057 0.057995647 0.00365324 -0.19531736 0.19812244 -0.078848034 0.09865672 0.05234386 -0.13470471 -0.5193446 -0.12833002 -0.3314404 0.7242832 0.20998909 -0.18509938 0.0052945223 0.026379257 -0.031226058 0.070801854 0.04958414 0.011947363 -0.09135558 -0.090811834 0.26622242 0.07431237 -0.0911875 -0.06487862 0.48786223 0.3813247 0.15159398 0.20240761 -0.24776974 -0.106072925 0.033378664 -0.16112383 -0.07362318 0.043457247 -0.28560513 -0.50532955 0.39426044 -0.03456744 -0.09132262 -0.10988991 -0.25463527 -0.2038107 0.41979584 0.0012200011 0.20093627 -0.5854913 -0.41417003 -0.05205361 -0.37810305 0.21116786 -0.33845332 0.4858871 -0.19415048 -0.04193804 -0.9386123 0.35651898 -0.023877673 -0.07152172 0.36713293 0.091863796 -0.021996858 0.26277924 0.33980766 0.13887419 0.34960935 -0.2309993 -0.21062437
95 -0.15456346 0.3903285 -0.67199326 -0.8195969 0.5820495 0.70784867 0.33796042 -0.28294602 0.42673585 0.41352317 0.19614036 -0.008765869 -0.44226566 0.024969079 -0.26920548 -0.124142975 0.17582539 -0.054336462 -0.15533367 0.07173469 -0.035836898 -0.06920517 -0.07003637 -0.112107 -0.27424154 -0.6444191 0.098464005 0.41997695 -0.056696776 0.024142522 -0.18780065 0.2826706 0.17292789 -0.14545055 -0.0016080718 0.1436198 0.3121128 -0.10626331 -0.1776519 -0.6500645 0.37809935 0.068220824 -0.4436563 -0.31572014 0.7676108 0.23058574 0.44372046 -0.2107418 0.09355506 0.2954112 -0.42648014 -0.22644608 0.056642134 -0.09655974 -0.15726025 0.23630458 -0.4526498 0.25695124 0.47554404 0.02330874 0.018263621 -0.14524885 0.16071947 -0.044273145 0.07591504 0.037119012 -0.09089758 -0.38701046 -0.12418096 -0.30001444 0.72151107 0.33838314 -0.16461328 0.086699985 -0.04932257 0.0971751 0.01715778 0.012196461 -0.014513727 -0.21294391 -0.10912267 0.27319545 -0.017475447 -0.18515697 -0.09978446 0.43902773 0.40900755 0.19719873 0.14881171 -0.2881645 -0.15646966 0.006899195 -0.16255566 -0.02988098 0.023190392 -0.2613652 -0.47723946 0.28589955 0.20453739 -0.017085655 -0.03605892 -0.08047788 -0.27468333 0.40038615 0.024301508 0.08872715 -0.46459746 -0.4846779 -0.22532678 -0.34812483 0.25262704 -0.21214764 0.60423785 -0.06591356 0.107811086 -0.8734324 0.29148886 -0.17918861 -0.12354666 0.42594203 0.15238903 0.069125816 0.20529258 0.32966205 0.018403228 0.29697558 -0.294389 -0.18322873
100 0.01552968 0.48068094 -0.6839051 -0.69990224 0.5727293 0.8195216 0.14776495 -0.42847267 0.29218876 0.4949858 0.24258903 -0.06443166 -0.46124497 -0.06774127 -0.2967686 -0.18732254 0.25727582 -0.0051512965 -0.0868451 0.22754955 -0.21632607 -0.04739213 -0.15767394 -0.18609011 -0.3016941 -0.5353197 0.15352769 0.50572807 -0.053657945 -0.12401312 -0.063166514 0.24532528 0.20469019 -0.181975 0.038827408 0.23251064 0.3180868 -0.12555172 -0.030392505 -0.700547 0.27910218 0.2027997 -0.4263069 -0.35713553 0.6818763 0.267498 0.5485803 -0.055086415 -0.00013873866 0.24530028 -0.37175828 -0.22194448 0.18542077 -0.11405492 -0.14303449 0.3152908 -0.39380535 0.172224 0.5033349 -0.02063067 0.17802948 -0.15428618 0.20621148 -0.051360246 0.10178695 0.028101476 -0.07643598 -0.53602505 -0.012095364 -0.37936288 0.6486938 0.22586323 -0.1779316 0.11290772 0.08010678 0.03294395 0.059052262 0.0032735853 0.10776518 -0.09964416 -0.024717703 0.18126854 0.039934006 -0.06437931 -0.11846821 0.54116565 0.3633236 0.089463994 0.23313159 -0.29392457 -0.117221415 -0.062586725 -0.1634552 -0.12554866 -0.024575457 -0.20695367 -0.43376613 0.38296443 0.10724603 -0.07304076 -0.034006644 -0.23604186 -0.23131129 0.46990836 -0.09054102 0.11475602 -0.44660997 -0.48051026 -0.091218844 -0.42824337 0.29018205 -0.26270038 0.42546484 -0.2228704 0.0008553429 -0.90795356 0.3542238 -0.12673233 -0.11022252 0.36451674 0.07434527 -0.07746764 0.20669803 0.3250392 0.23722711 0.34320915 -0.3587086 -0.26507604
97 -0.119529195 0.40551016 -0.7402791 -0.7071997 0.61858016 0.65667975 0.19625244 -0.3098519 0.24610433 0.49830824 0.33692846 -0.12390965 -0.44007137 -0.023990521 -0.31522614 -0.15409459 0.3288972 -0.01116026 -0.12397509 0.29555675 -0.18297966 -0.03136193 -0.05233011 -0.1940342 -0.21337286 -0.47926757 0.15019087 0.4160431 -0.067167446 -0.1313436 -0.0458137 0.2998335 0.14440063 -0.17055255 -0.012630055 0.34199935 0.3542769 -0.13254037 -0.18847014 -0.60892236 0.34701198 0.21851875 -0.5501483 -0.33645922 0.65445805 0.29124007 0.43637806 -0.13748527 0.080130145 0.13425283 -0.31080315 -0.33323285 0.0015550453 -0.06799202 -0.08111735 0.24461392 -0.2759212 0.18037221 0.48198375 0.06539403 -0.05936518 -0.11493452 0.23298766 -0.17414857 0.044699207 0.10380588 -0.06591844 -0.47946408 -0.120351136 -0.4369097 0.7638299 0.20051321 -0.19305176 0.11694672 0.026955461 0.054605965 0.008304479 0.066062704 -0.015891982 -0.10846927 -0.00156111 0.26192784 0.044669125 -0.16179366 -0.109301895 0.44863757 0.32236856 0.22981142 0.16726679 -0.23031083 -0.15867278 0.06340445 -0.12122008 -0.020032002 0.09165144 -0.21943542 -0.52310014 0.3955433 0.022062458 -0.10496461 0.07367548 -0.21563028 -0.20213519 0.411455 0.042885453 0.23205906 -0.4630796 -0.42066982 -0.16486803 -0.43973124 0.19292247 -0.2955659 0.49251753 -0.09413171 0.032715335 -0.93047374 0.4740897 -0.09963274 -0.05819185 0.35712254 0.042840246 -0.038852464 0.20026687 0.3901083 0.26684693 0.41411388 -0.36191827 -0.2251225
96 -0.07748928 0.273215 -0.6866079 -0.7637762 0.5699412 0.6758379 0.22722687 -0.37802488 0.2698635 0.38698182 0.32761782 -0.15908146 -0.4433814 -0.05295938 -0.37423676 -0.22690606 0.216081 0.061356205 -0.11356436 0.25765353 -0.1264081 -0.081836686 -0.03179551 -0.09897858 -0.22942276 -0.4173387 0.15793222 0.4631499 -0.09403236 -0.10009164 -0.04938186 0.21922459 0.20828077 -0.23231404 0.0014302854 0.27740437 0.29695466 -0.15311436 -0.056953035 -0.6073839 0.30224225 0.16040918 -0.43970716 -0.28825623 0.66665655 0.28987518 0.4388389 -0.13948162 0.093999915 0.21210869 -0.31228355 -0.25896636 0.024416119 -0.19593343 -0.06312627 0.26201198 -0.22240357 0.20631851 0.45858756 0.04323245 0.110749476 -0.20810817 0.15466835 -0.14842282 0.1657609 0.06145995 -0.15781227 -0.4950004 -0.13716352 -0.44714698 0.741069 0.22182073 -0.26174802 0.18513858 -0.021288231 0.023383318 0.12925366 0.08444559 0.040570464 -0.10532717 -0.06534034 0.29227152 -0.017074004 -0.08132463 -0.10916987 0.39660305 0.22248343 0.11594861 0.19102892 -0.28536862 -0.17008814 0.039610434 -0.051998194 0.004485717 0.03520124 -0.25864208 -0.466397 0.28813142 0.06272488 -0.015823565 0.027208203 -0.12482793 -0.13430071 0.43395245 0.011341079 0.2306046 -0.4432813 -0.5162869 -0.036701012 -0.40596768 0.2639042 -0.21484065 0.48212317 -0.011859926 -0.004675528 -0.8776606 0.35977736 -0.11719428 0.03371386 0.38729087 0.15586491 -0.04793194 0.20603053 0.44221717 0.2274775 0.3427086 -0.37562093 -0.23327759
219 0.04708233 0.032174747 -0.34462652 0.053096406 0.448561 0.010408047 -0.025137696 0.027465079 0.40893775 0.30294162 0.12873231 0.22339238 0.20642227 0.2646246 0.04666785 -0.35441113 0.64544857 0.09557474 -0.21257573 0.42189774 -0.16048239 0.23097494 0.68784857 0.1361408 -0.36414558 0.27378434 -0.038406152 -0.21448176 -0.042803183 -0.32859847 0.09048159 -0.012530262 0.043542165 -0.09921301 0.062721424 -0.33676758 -0.12332508 -0.0024211905 -0.22500786 -0.1096784 0.108394414 0.20952347 -0.14573644 0.3496711 0.09584294 0.23118222 0.115255155 0.28793314 -0.5086388 0.50496244 0.010342913 0.1822836 0.14092588 0.18124996 0.026244534 -0.008095917 -0.10274204 -0.51179475 -0.07277812 -0.23246087 0.27898523 0.09629095 0.06458281 -0.09037254 -0.14765687 -0.083461754 0.017688686 -0.07215965 0.20116585 0.27919552 -0.42826167 -0.043410026 0.33258235 -0.0972411 -0.03365197 0.1788194 -0.021298295 0.08983333 0.049809434 0.15824914 0.13796055 -0.3474237 0.27673736 -0.036273334 -0.14802201 0.069921665 -0.113472894 -0.024902053 0.0051571983 0.18842964 0.09512644 0.23333813 -0.35548878 -0.08104526 -0.054672163 -0.085939705 0.22241092 -0.00012259786 0.059280526 0.097038575 -0.28655496 0.44081673 0.117727116 -0.07068607 -0.01995917 -0.24629755 -0.13801207 -0.33656642 0.063585185 0.080249876 -0.5104034 0.17174599 0.47904533 -0.033455033 0.02902577 -0.48488465 0.11830215 0.1508893 0.06298696 0.039010987 0.20349142 0.19276035 -0.28547293 -0.28157145 0.13646396 0.40520966 0.08013129 -0.34152263
114 0.05760628 0.25013983 -0.45622385 -0.63718116 0.48377705 0.8236814 -0.1255101 -0.66960144 0.34407634 -0.07611102 -0.10636804 0.3230781 0.07030527 0.92176384 0.38776118 0.24687213 0.5607549 0.4323537 -0.16926044 0.42313585 -0.3085743 0.3326228 0.33479735 0.108178236 0.19546667 0.01609143 -0.09330857 -0.067492045 0.095358096 0.13679242 0.0551585 0.087029934 0.24227183 -0.1180108 0.25191945 -0.059346385 -0.28424025 -0.3705571 -0.17820424 0.36215115 0.77782863 -0.05819208 0.95019805 -0.45543146 0.18488856 0.38897577 -0.36057 -0.28820544 0.24068399 -0.028962335 -0.54017496 0.3023348 0.12064789 -0.12777187 -0.21723713 0.09366259 -0.18820964 -0.2460451 0.21868147 0.24846928 -0.81897277 0.00096656056 0.3602808 0.27108455 -0.2356629 0.21965316 -0.37849474 -0.67219156 -0.26527277 0.38487038 0.1504738 -0.057582106 0.31083733 -0.34770647 -0.5712846 -0.20330535 -0.37439764 -0.32773787 -0.15892316 -0.62583977 0.086480275 0.13508041 0.5465997 -0.15295374 0.2807007 -0.21036264 -0.03989179 -0.3272497 0.55038047 -0.7118891 0.35761398 0.38783136 -0.36785313 0.016519964 0.12435735 0.29542914 0.47690043 0.13431144 -0.18820478 -0.14926834 -0.4478847 -0.33762902 -0.4491301 0.11248206 -0.31007797 0.17888121 -0.09076014 0.29593512 -0.09107945 0.020801002 -0.88282096 0.009783932 -0.14259382 0.16071951 0.13188368 -0.13311297 0.344851 0.010467303 0.51701653 -0.049003165 0.4553412 -0.12663239 0.57043743 0.34107322 -0.10637307 0.9238327 -0.12825684 -0.5522352
155 -0.46308637 -0.10064089 -0.36763376 -0.57791847 0.13918208 0.12320466 -0.12900306 0.07440973 0.33378786 -0.114167616 -0.09652214 0.3127909 -0.28774172 0.1980486 0.020241795 0.5613871 0.27223772 0.38119993 -0.15195085 0.4617782 -0.27217004 0.34641728 -0.10086662 0.44569117 0.1788039 0.14517328 0.029197842 -0.050830975 0.18367504 -0.27642363 0.062122703 0.27783352 0.08928832 -0.37794843 0.34195495 0.055262316 0.2998431 -0.33075833 0.08034964 -0.18966529 0.3187101 -0.0063176765 -0.18337905 0.07645215 0.24906564 -0.16183273 -0.21375318 0.5063226 -0.5996461 -0.43264285 -0.062363777 -0.41183144 0.21716714 0.17507918 -0.28665447 0.033455566 -0.13280278 -0.5242184 0.1641548 -0.13003013 -0.41106558 0.008939 0.058090344 -0.04141211 -0.37771878 0.28361017 0.096984744 -0.30105734 -0.27408582 0.16950205 0.2784626 0.035978734 -0.2047589 -0.074356996 -0.14501943 -0.123705305 0.06971452 -0.11993517 -0.04577274 -0.32842138 0.19209301 -0.0724802 0.4132005 -0.17311315 0.45777455 -0.027620044 0.5459326 0.2887211 -0.051417504 0.026107214 0.22543111 0.29965714 -0.19274719 -0.043946218 0.28971222 0.04970776 0.12509705 -0.10651248 0.2810423 -0.11354936 -0.015910165 0.1558087 -0.04030023 0.1629497 -0.10518937 -0.26448405 -0.20739257 0.30157742 0.147421 0.39669123 0.019934196 0.12624432 0.2523356 -0.11440986 0.05322066 0.24834804 -0.17206383 0.15607692 -0.26863363 0.07070277 0.15518916 -0.023249805 0.41891852 -0.1553267 -0.18824759 0.07409127 -0.071899675 0.024382152
156 -0.29318947 -0.05579655 -0.41318625 -0.5805851 0.2765822 0.16695324 -0.11084152 0.076763734 0.37912425 -0.07648156 -0.0877336 0.41065192 -0.28613952 0.21959004 0.010790519 0.45914066 0.32135224 0.33914948 -0.21505389 0.36115095 -0.2980707 0.37087995 -0.24193215 0.31387135 0.20015003 0.1466046 -0.03731935 0.002775061 0.13352105 -0.3677491 -0.0024129208 0.27243027 0.03449031 -0.25994253 0.23607223 -0.050876785 0.27983704 -0.271823 0.072428755 -0.16761549 0.38490888 0.027626177 -0.1021802 0.06680894 0.21037377 -0.22799447 -0.26032445 0.31616455 -0.59307265 -0.3372186 -0.060200565 -0.3804115 0.19899625 0.12524058 -0.24453023 0.040213585 -0.16244714 -0.5104631 0.22047283 -0.09327906 -0.38815904 -0.109443285 0.13503723 -0.14115505 -0.34187385 0.23577064 0.15279256 -0.25186515 -0.23349398 0.20499885 0.14712603 0.035049897 -0.25060618 -0.0617478 -0.19318733 -0.106243715 0.03801328 -0.18471956 -0.07120776 -0.28298476 0.20537266 -0.059745453 0.38320595 -0.094607726 0.40559545 -0.04540084 0.5549519 0.28105146 0.014229171 -0.035175126 0.21715133 0.223832 -0.28961796 -0.047397148 0.20345525 0.25088236 0.15115707 -0.09126004 0.27557352 -0.17371805 0.053247996 0.08328155 -0.11101865 0.20857397 -0.10232912 -0.21498182 -0.19611923 0.24170138 0.23294337 0.30527282 0.103250556 0.178133 0.11163843 -0.26410073 0.029455014 0.29440063 -0.13951498 0.22166778 -0.34485635 0.01719717 0.21872494 -0.0971054 0.3810388 -0.19296506 -0.12004497 0.23583901 -0.09504241 0.041048206
206 -0.17916012 -0.0031967582 -0.38986114 -0.06664576 0.18708152 0.1981705 -0.13383473 0.013650485 0.14654382 -0.087091506 0.072531454 -0.1731355 -0.037056234 0.124047115 0.09631597 0.109044775 0.58229846 0.32187203 0.042450465 0.33494085 -0.18502407 0.29536638 -0.20217666 0.3872823 0.09367567 0.034413464 -0.14479384 -0.2930302 0.18682297 -0.12990515 0.049067322 -0.036582857 0.19700098 -0.19246392 0.07023233 0.106239475 -0.08939326 -0.38992766 0.15398934 0.24592566 0.00010847861 0.087266505 0.19931844 0.12942953 0.11505884 -0.26101363 -0.04485272 0.24876589 -0.21642223 -0.23564592 -0.102805234 -0.09617367 -0.06652661 0.098248504 -0.013678369 0.23050188 -0.015254736 -0.21673597 0.30893594 0.012747714 -0.22454523 0.008440258 -0.006971944 0.08495273 0.23735912 0.30729765 -0.3647346 -0.06971425 -0.15063693 0.22759879 0.092140906 0.34530658 -0.07391173 0.13224046 0.044548273 -0.20315354 -0.3335102 0.48089403 0.016738161 -0.16944714 -0.032280996 0.16268836 0.41011783 -0.20844166 0.2909888 0.18932922 0.2938899 -0.11053106 -0.115855515 0.14122142 0.21405499 -0.08452415 0.08887874 -0.19151938 0.23530543 -0.14012606 0.15151028 0.1878465 0.21572569 0.21619596 0.07250165 -0.14909187 0.26694468 0.43143418 -0.10753197 -0.030837346 -0.29302105 0.08682325 0.15585677 0.38389972 -0.057621866 0.14869894 -0.05135193 -0.18067488 0.07195618 0.14769521 -0.105270214 -0.40937015 0.10277959 -0.07830156 0.22141121 -0.34390596 0.10907854 -0.363238 0.034344986 -0.06529294 0.25785488 -0.15814145
218 0.057322513 0.019129759 -0.36290714 0.09014005 0.52534324 0.028342517 -0.05867451 -0.07695761 0.3554685 0.33912686 0.19352128 0.10811686 0.16867661 0.39735737 0.07096697 -0.2886665 0.70696115 -0.054437917 -0.23922113 0.33511892 -0.12053634 0.11337356 0.57612675 0.3312284 -0.23730856 0.16843092 -0.18065208 -0.14418644 -0.06877277 -0.2859412 0.14612241 -0.13998996 0.04481927 -0.22868678 -0.024653252 -0.3259523 -0.14488451 0.0061300867 -0.24143821 -0.18899003 0.13652672 0.251502 -0.2506142 0.39191172 0.16506559 0.35548782 0.12771073 0.3277371 -0.5340329 0.55729806 -0.040152002 0.23087792 0.084061496 0.19710895 -0.05639693 -0.08590898 -0.065307036 -0.55965024 0.034223497 -0.09860933 0.30747527 0.088067815 0.1057645 -0.061516073 -0.30785188 -0.032973975 0.018036956 -0.15433599 0.24118039 0.27484518 -0.3785611 0.045196626 0.30965546 -0.099399045 0.026297946 0.20028198 0.012094205 0.13991135 0.057224434 0.088999465 0.18560791 -0.29990473 0.3633296 -0.08176691 -0.21579736 0.018448437 -0.04486181 0.011804897 0.027893523 0.22039782 0.15705223 0.23335962 -0.3484068 -0.1944017 -0.026696792 -0.07820518 0.25190237 0.021353103 0.03257013 0.21241507 -0.15251696 0.3562738 0.07846593 -0.005572588 -0.008402428 -0.2364625 -0.13314682 -0.30305147 0.20639662 0.023443429 -0.54335964 0.0194751 0.4255352 0.09006156 0.059756055 -0.43258741 0.022313382 0.110051975 0.06092331 0.10655152 0.14381887 0.15746516 -0.34598345 -0.27570832 0.07352065 0.3182733 0.20425569 -0.21892731
194 0.02929721 0.19362539 -0.41336763 -0.67832404 0.46696365 0.71941215 -0.04534518 -0.7036838 0.2846602 -0.16309653 -0.12270458 0.32133335 0.15322751 1.0102763 0.4059101 0.24891868 0.6016676 0.47513098 -0.24784882 0.4968384 -0.28377452 0.2891258 0.32502916 0.2157423 0.1793735 0.13685949 -0.14715436 -0.10927799 0.12599672 0.045354657 0.21454749 0.18212326 0.12614349 -0.06017951 0.17856042 0.0061489674 -0.25779077 -0.2218476 -0.23085514 0.313818 0.671548 -0.1278275 0.85222065 -0.4398772 0.20483637 0.46369654 -0.37418368 -0.22413956 0.20819499 -0.07087169 -0.51261526 0.3344855 0.058186594 -0.05871334 -0.25439572 0.007515482 -0.19521002 -0.2810723 0.124437235 0.39332244 -0.88453907 -0.072589345 0.449674 0.25256383 -0.28383672 0.18691082 -0.36876565 -0.7144846 -0.28413737 0.36128512 0.14666525 -0.035724994 0.37367877 -0.32976568 -0.51717114 -0.3161534 -0.31027648 -0.34453765 -0.18292841 -0.55968845 0.072359666 0.16354162 0.6104823 -0.2636306 0.3540539 -0.26407593 -0.08451266 -0.31129915 0.5971104 -0.68335915 0.43373674 0.4739142 -0.43398678 0.03383808 0.11917632 0.2965654 0.5555257 0.14373381 -0.16669306 -0.18687886 -0.44366133 -0.3912039 -0.5632915 0.30007756 -0.25133973 0.22150023 -0.2253583 0.3164787 -0.066165626 -0.09142168 -0.9138308 -0.06606392 -0.09402667 0.08906305 0.28137895 -0.1556692 0.32336283 0.1701211 0.52178913 0.054580983 0.45241526 -0.21721703 0.62064475 0.34802034 0.013440486 0.99554324 -0.093923055 -0.4652546
123 0.14487022 0.3072776 -0.744046 -0.37413928 0.27634618 0.58853185 0.19250062 -0.46371424 -0.05105372 0.14733161 0.16477682 -0.19484913 -0.46882415 0.07088049 -0.23818903 -0.025987886 0.7185869 0.39443043 0.29287565 0.06617679 -0.08343038 0.2006759 -0.30917042 -0.38061026 -0.23843788 -0.36168396 0.22799568 0.14278707 -0.34507424 -0.14642787 -0.07358574 0.1280334 0.518712 -0.1795286 -0.1405192 0.2139389 0.30515084 -0.0859499 -0.077665985 -0.45581996 0.4535544 -0.11859965 -0.25893524 -0.3660673 0.70239353 0.09753995 0.47380906 -0.18179189 -0.156735 0.020462213 -0.4527103 -0.21168196 -0.0136366375 0.013314826 -0.04298194 0.28475413 -0.1735784 0.17038797 0.3249546 -0.12614469 -0.32209483 -0.22356518 0.2812697 0.058218572 0.15568854 0.008424645 -0.16147934 -0.17070174 -0.11531749 -0.26520184 0.38877925 0.34781122 -0.15010059 0.21812506 0.03175095 0.31334305 -0.30678454 0.29646438 0.14431997 -0.10425938 -0.15866724 0.03739225 -0.19365744 -0.2687502 -0.13285883 0.58021116 0.26721594 0.11684054 0.14318913 -0.04395095 -0.29196358 0.3387553 -0.28215834 -0.1592039 -0.08232934 -0.29685646 -0.4783709 0.31988797 -0.11498317 0.24942626 -0.037207462 -0.03590841 0.11222337 0.2218826 0.021794636 0.110699765 -0.470772 -0.6678402 -0.2133884 -0.44242972 0.0360605 -0.19629276 0.7361246 -0.2734544 -0.08916819 -0.6495921 0.17766577 0.09752234 -0.2509233 0.38537982 0.23659311 -0.06669362 0.11449836 0.6060268 0.15230006 0.22884274 -0.52899766 -0.4546936
