222 128
154 -0.16177833 0.07213258 0.20047998 0.06543059 0.35561374 -0.27248636 0.3644156 0.15179574 0.22898129 0.13997912 0.101050414 0.20249124 -0.08029717 -0.41878957 0.09856155 -0.03240139 -0.27934492 0.10646399 -0.12632702 -0.106148906 0.6876224 -0.5747861 0.19364049 -0.03236927 -0.1856272 -0.14669715 0.00413178 0.4359278 0.13631208 0.11509391 -0.29773498 0.29366162 -0.31528333 -0.09884592 0.07175212 0.19800484 -0.13897511 0.35457203 -0.0032193325 -0.42120793 -0.25050545 0.283104 -0.07894635 0.23120691 -0.12247537 0.07891114 -0.29133746 -0.0130314855 0.36510786 0.3133854 -0.641471 0.22568335 0.35860416 0.53217244 -0.31572744 0.21344961 0.27314806 -0.15111227 0.3179145 0.059501734 0.18579754 -0.077456124 -0.12738405 0.1761331 -0.44830197 -0.015037237 0.06442861 -0.09188168 0.047889873 -0.1613079 -0.14303397 -0.18499316 0.56361884 -0.40134254 -0.02351409 -0.01874782 0.68883103 -0.22282085 0.4611707 -0.18784413 0.0222491 0.09241234 -0.13812254 -0.19150943 -0.1462519 -0.16075826 -0.2436043 -0.0940318 -0.19848827 0.14342815 -0.29691416 0.049959116 -0.38087875 -0.17053291 -0.33453292 0.276115 -0.078500435 -0.16152456 0.45450526 -0.024811326 -0.37488008 0.22492851 -0.37134945 -0.35122034 0.1190721 0.0032248313 -0.09196953 0.23794682 0.082753316 -0.01683927 -0.037567075 -0.1810243 0.42427346 0.092803605 0.36484382 -0.16161454 -0.057813004 0.18161792 0.09132439 0.17985414 -0.32596907 -0.18394648 -0.02050296 -0.037005953 -0.111550115 -0.07800062 0.08840576 -0.19335556
153 -0.25669584 0.11811433 0.28821108 0.17522553 0.51417273 -0.27947226 0.18272424 0.18534154 0.18492882 0.06116936 0.16801864 0.15639164 -0.041078053 -0.32010245 0.102881745 -0.030695725 -0.29071063 0.10045774 -0.21244337 -0.146796 0.6471321 -0.6048654 0.15375045 -0.014199589 -0.14940351 -0.17056553 0.06076079 0.38703653 0.17098168 0.09538123 -0.31427094 0.2861268 -0.21342963 -0.17234218 0.13151848 0.16171251 -0.16168706 0.31551287 -0.0365622 -0.50364214 -0.22818775 0.27213657 -0.039945412 0.18474384 -0.19154224 0.038964394 -0.27149665 -0.017456979 0.33590072 0.29566345 -0.60242856 0.24698049 0.37543258 0.5692197 -0.34797984 0.16219442 0.2847553 -0.22151983 0.27914754 -0.07735348 0.19055091 -0.08053325 -0.12400062 0.22205503 -0.4686706 -0.09058672 0.1277535 -0.025236666 0.029128125 -0.14280236 -0.15601611 -0.1585852 0.5984645 -0.32937595 0.0150838345 -0.03748895 0.62769896 -0.208209 0.42641857 -0.1798625 0.021357607 0.08760632 -0.1846149 -0.18455057 -0.09056639 -0.19224794 -0.26848066 -0.109469675 -0.20074832 0.21179593 -0.23717311 0.033397563 -0.31978044 -0.22770779 -0.24903469 0.21281214 -0.14181103 -0.21704935 0.4607264 -0.03688619 -0.34665915 0.12512544 -0.28224167 -0.28948697 0.16123806 -0.075266175 -0.19193156 0.31832695 0.17817143 0.0024063191 -0.11122987 -0.11739641 0.4548847 0.03823955 0.2943643 -0.13602929 -0.0159538 0.10260491 0.11634223 0.20255359 -0.32116428 -0.09405258 -0.027646605 0.051727682 -0.15104872 -0.09193402 0.07386413 -0.23090583
1 -0.36724842 0.04917043 -0.084828794 0.45054948 0.038485933 -0.40412652 0.08071588 -0.2751829 0.2891485 0.0487657 0.054146335 -0.35561115 -0.085163146 -0.44025812 -0.04609451 0.052718263 0.2359643 0.27153867 0.1590813 0.11687577 0.11482178 -0.3889654 0.2147637 0.0715409 0.2414483 0.22685422 0.26866093 0.016597874 0.20338278 0.07397982 -0.08257527 0.42399293 -0.45571086 -0.28040934 -0.27104917 0.03003845 0.21209419 0.51345253 0.16465442 -0.40532947 -0.14713608 0.12793146 -0.06732119 0.5726585 -0.31208205 0.06274016 -0.030726587 0.16142036 0.4203125 0.44741908 -0.6711006 -0.021709153 0.24306643 0.4547807 -0.39456642 -0.18625917 0.12729856 0.037982415 0.029056007 0.046936713 0.04050032 -0.07541107 0.14151518 0.17827515 -0.097759485 -0.44334316 -0.14806762 0.19525522 -0.2539853 -0.54754835 -0.2603789 0.050310593 0.13111447 -8.619999e-05 -0.34754997 -0.20919663 0.2716931 -0.065304056 0.06632746 0.26253447 -0.052843906 0.030573886 0.13215631 0.08398215 -0.15580514 0.08837275 -0.38394567 -0.08410455 0.0024299803 0.01916601 -0.27909938 -0.36693954 -0.3350229 -0.5181545 -0.060497206 0.2651949 0.052956466 -0.023396198 -0.058203235 -0.055430874 -0.08210402 0.27586916 -0.018944988 0.0139502855 0.11272742 -0.41017362 0.022387346 -0.07760602 0.31399077 0.18230383 -0.030963572 0.11502363 0.61775196 0.09589128 0.08668975 -0.033890426 -0.05845332 0.21136247 0.061647475 0.273093 -0.19441216 0.26658663 0.14023364 0.04544325 -0.28797 0.33658952 0.4210118 -0.2858459
185 -0.15696536 -0.22387163 0.06821019 -0.27192593 0.04274972 0.107696235 -0.15127228 0.14899454 0.022006588 0.37559214 0.20024553 -0.14860645 0.20606193 -0.049659077 -0.0809073 -0.4077798 0.156995 -0.20517084 -0.13696797 0.13156226 0.43053398 0.055494428 -0.22506715 0.48383558 0.028419632 0.13143766 -0.28973073 -0.28831828 -0.41875166 -0.14634655 0.17494857 -0.006361817 -0.07133715 0.0077143973 -0.26426622 -0.15036441 0.15203868 0.22791842 0.0014442424 -0.26371124 -0.35913548 0.50202346 -0.5716066 -0.15206817 0.11039984 0.26702368 -0.22072585 0.036323853 0.09034859 0.23359872 -0.12537053 0.49330628 0.3006905 0.22107212 -0.34892365 -0.3894817 0.21166511 -0.3609884 -0.50946045 0.071095616 0.34950703 -0.23023953 0.055965077 -0.22999176 0.028157976 -0.16114311 -0.20400539 0.1745375 0.06072048 0.42106682 -0.17075753 -0.07355353 0.2579894 -0.06744576 0.32691067 0.06340716 0.28285116 0.025824718 -0.3108244 0.10731389 0.09334924 -0.14355333 0.31983718 0.31504405 0.20388684 0.14077888 0.189159 -0.11198606 -0.04527296 0.0073286337 0.33046684 0.083021335 -0.37927267 -0.05846194 0.059541456 0.13850495 -0.14405563 -0.32862708 0.27789754 0.035327896 0.17458226 0.17754926 -0.1466624 0.5286718 0.39014798 -0.018204076 0.01918091 -0.30327144 0.36056784 0.036250368 0.07543652 0.35171136 0.1774983 -0.24218203 -0.18686493 -0.14220284 -0.13543318 -0.20561506 -0.1265069 0.37691677 0.26287234 0.049666476 0.09073335 -0.016490506 -0.2860253 0.36994377 0.052123915 -0.2999202
186 -0.20093825 -0.27524468 0.061438654 -0.28410688 0.04154968 0.1739903 -0.058413498 0.19329947 -0.036425862 0.2608614 0.11423869 -0.22357076 0.12388784 -0.06614343 -0.034018483 -0.416223 0.22147715 -0.27029514 -0.28640905 0.08662916 0.42919588 -0.09862564 -0.22964048 0.4624894 0.06282177 0.08517159 -0.31281546 -0.17537257 -0.40106982 -0.06762394 0.20433652 0.040972278 -0.115859464 -0.13127206 -0.37089714 -0.14280021 0.19061838 0.1740488 0.02067513 -0.25600472 -0.4351843 0.51222897 -0.56523114 -0.11121238 -0.074477755 0.14483461 -0.26463655 0.080525555 0.08723045 0.23099607 -0.085754104 0.3956929 0.24457541 0.18185113 -0.38624415 -0.38575143 0.15543075 -0.46854585 -0.4094883 0.09919255 0.33556217 -0.29677728 0.15013991 -0.24543211 0.056335405 -0.10719143 -0.15154639 0.21756595 0.07355884 0.4227692 -0.23077439 -0.024684057 0.32739732 -0.009961473 0.31476226 0.042182803 0.25516635 0.062508605 -0.26488298 0.15223235 0.1922052 -0.21229693 0.38045868 0.19373746 0.14766753 0.10315364 0.25111797 -0.008337857 -0.14947875 0.058870785 0.2137745 0.09977657 -0.37677607 -0.057467442 0.12564352 0.17150322 -0.14753318 -0.40104467 0.31527835 0.12073545 0.19722618 0.21572848 -0.12754218 0.5631075 0.39996278 -0.09263269 0.13614333 -0.17865051 0.36946943 0.0675091 0.0589898 0.29122695 0.02591212 -0.1763802 -0.15253542 -0.17520815 -0.2597423 -0.21975747 -0.19097914 0.3051361 0.31891027 0.1400157 0.025531877 -0.07152178 -0.28319246 0.28188965 0.104501635 -0.15883906
188 -0.1422365 0.23470503 0.18020351 -0.58559 0.15489137 0.32684872 0.4844498 0.21616666 0.4359484 0.6949032 -0.15253387 -0.45461068 0.35156316 -0.16621116 -0.27623764 0.2868371 0.40062204 0.5036274 -0.11556995 -0.18807945 0.13460384 -0.016324237 0.24957713 0.015991848 -0.42120188 0.001830687 0.013522222 0.1243596 -0.123951085 0.12466865 0.33723745 -0.42154744 -0.39163986 -0.5701697 -0.09461349 -0.11411374 -0.19208656 0.2433898 -0.10439177 0.03721795 0.017593345 0.10755061 -0.13041803 0.06349873 0.30541548 -0.3466282 0.11119183 0.84304696 0.30782261 0.3265107 0.076978795 -0.09779014 -0.21961406 0.31418964 -0.15096693 0.09381499 0.016798174 -0.12453432 0.042425156 0.6495111 -0.12988114 -0.11078626 0.103716835 0.017372848 0.15342847 -0.047179524 -0.2777677 0.17753595 0.0552649 0.32032737 -0.18413414 0.18501417 0.24389945 -0.10280891 0.0019920683 -0.05304886 0.29691264 -0.1058083 0.039081905 -0.05807934 0.12694043 0.02161505 0.20716381 -0.11145576 0.47841063 -0.0642337 -0.1757975 -0.1109998 0.22985077 -0.16068287 -0.2182713 -0.1371181 -0.11271586 -0.09821288 0.105273336 -0.29999304 -0.051122505 0.46708536 -0.040282186 -0.0078075794 -0.1013438 -0.13414432 -0.051082395 0.3135323 0.37081286 0.09263843 -0.23627597 0.0691193 0.13765733 0.3037117 0.35001343 0.17803653 0.11154287 -0.011199662 0.25743926 0.017635524 -0.55638015 -0.14444852 -0.14292312 -0.0718166 -0.25313014 0.31987542 -0.04291849 -0.1853435 -0.10552746 -0.10422711 0.1716494 0.09275421
187 -0.21642256 0.196796 0.19471638 -0.6816007 0.29084426 0.41205668 0.48081622 0.12747243 0.26161468 0.79396677 -0.15785803 -0.41802016 0.23656495 -0.0334126 -0.35833493 0.27769658 0.34529832 0.46446538 -0.11797857 -0.07417349 0.29995725 -0.10428449 0.30137473 0.20465271 -0.49105155 0.039481413 -0.023826057 0.10792285 -0.09355732 -0.03282995 0.5120804 -0.37261572 -0.49595934 -0.53595877 -0.08606637 -0.1159983 -0.091868885 0.2551307 -0.0689296 0.067590825 0.019740568 -0.0009300408 -0.06614225 -0.043963257 0.32570764 -0.32988653 0.12061773 0.7557772 0.29089525 0.23054975 0.10481173 -0.15454218 -0.20426059 0.3973361 -0.21466696 0.19413657 -0.019233232 -0.119188584 0.05120976 0.7520172 -0.050488967 -0.107537255 0.09180294 -0.053385098 0.1320119 -0.0011289427 -0.3346847 0.03407965 0.031375263 0.303529 -0.06777874 0.21620524 0.17360198 -0.20578082 -0.0018870425 -0.0019094341 0.39573973 -0.05377693 0.018720169 -0.006541013 0.14971615 -0.05503937 0.22927472 -0.022014437 0.40596452 -0.07919391 -0.11960781 -0.14691468 0.29783082 -0.13146566 -0.2880806 -0.06317818 -0.097251244 0.0060574734 0.13797867 -0.3169668 -0.15796359 0.50807464 -0.049123097 0.03277849 -0.07236318 -0.04743531 -0.12679197 0.21395749 0.4132343 0.053919826 -0.25591365 0.08462606 0.19217125 0.30946013 0.35699204 0.13556758 0.17068943 0.041550785 0.31950086 -0.018794818 -0.4710927 -0.12047216 -0.072890505 -0.109624535 -0.25374913 0.34089556 -0.05497924 -0.16583298 -0.12262226 -0.19239439 0.18673882 -0.03799953
111 0.025151996 0.23456918 0.13546489 -0.17810623 0.2375033 0.19963697 -0.04255519 0.30883858 -0.08646717 0.24168964 -0.066674545 -0.5217498 -0.024686515 -0.045035105 -0.10909707 0.030369028 0.07595155 -0.20130982 -0.22430131 -0.19082172 -0.11659631 0.21587954 0.12877554 0.1409982 -0.54050285 -0.12371106 0.12172764 -0.03034242 -0.17429559 0.012119904 0.11217864 -0.44866365 -0.33313423 -0.17152442 -0.14283128 -0.11171201 -0.405964 0.2167239 0.15409939 -0.21887356 0.38885328 0.35112125 0.13080491 -0.2457912 0.1241927 -0.2748687 -0.09709312 -0.111723855 0.21751808 -0.060072403 -0.026342807 -0.354134 -0.31521258 0.33030787 0.11784102 0.1012402 0.06984862 -0.11681122 -0.08520748 0.07371636 0.108223885 -0.32524303 0.077839546 0.038877707 0.11131763 -0.08364323 -0.31226206 0.23266715 0.3111873 -0.06997368 -0.34025744 0.19298823 0.38908306 -0.08004193 -0.014951995 0.47675088 0.37092644 0.2595917 0.07733376 -0.24089591 0.17088401 0.17395185 0.19880432 0.00916794 0.12360336 0.120190255 0.010662642 -0.0546766 0.2624299 -0.24765778 -0.037045177 -0.19561014 -0.5154255 -0.13469292 0.05710613 -0.04400572 0.22374222 -0.094434194 -0.013307865 0.29220778 0.08744698 -0.21560264 0.08325896 -0.052403405 0.12692721 0.07180045 -0.15327506 -0.63375795 -0.04835793 -0.24034798 0.005635128 -0.12956055 0.27572495 0.0013707007 0.013091611 -0.289522 -0.10953583 0.044559773 0.011661206 0.36919117 0.12909588 0.1996073 0.051183116 -0.01772748 -0.027659718 0.104452886 -0.04147488 -0.3562067
110 -0.06695272 0.2783666 0.2575009 -0.19984776 0.20740254 0.1805591 0.027439317 0.18465936 0.02571938 0.15097852 -0.058384284 -0.47599107 -0.099989794 -0.044546757 -0.08821098 0.08411717 0.12942314 -0.11375255 -0.19811386 -0.15617824 -0.2372701 0.20259644 -0.0064902254 -0.017495101 -0.5102868 -0.15983942 0.1386156 -0.010251947 -0.07095399 0.0066900696 0.09540086 -0.43871313 -0.3327218 -0.06681761 -0.24292743 -0.032099094 -0.3616638 0.27161995 0.21460316 -0.1893646 0.3533741 0.45924813 0.015311394 -0.27788877 0.15014401 -0.2817548 -0.20734525 -0.043100856 0.33916745 0.051573854 -0.013596019 -0.28374788 -0.31511876 0.20932817 0.02401385 0.11207933 0.18666841 -0.04365264 -0.01471058 0.0030077517 0.036568303 -0.29356363 0.024380054 0.07216067 0.15775873 -0.19008718 -0.31764743 0.13633014 0.18996993 0.017363422 -0.2876625 0.14216946 0.3744484 0.12733251 0.04839413 0.49265856 0.27813083 0.24795991 0.06628008 -0.24045064 0.1847726 0.21430579 0.24843517 0.06680183 0.21562344 0.108350664 0.0038976283 -0.025009213 0.32299405 -0.39906728 -0.0033800926 -0.064965986 -0.492735 -0.111136734 0.057984106 0.0014218062 0.25689882 -0.13013123 0.09793689 0.24014522 -0.040136 -0.20141093 0.08230492 -0.024454748 0.15716095 0.039701294 -0.16419104 -0.5827218 0.06491298 -0.3538825 0.0007984101 -0.107628584 0.19605006 0.014259535 0.059778538 -0.3087362 0.0034262515 0.05318263 0.14341067 0.31595635 0.051512796 0.2957162 0.0050297775 -0.10558401 -0.13955665 0.101489514 0.025807144 -0.38338065
210 -0.5713565 -0.0799967 -0.21047872 -0.28228518 0.5280607 -0.19360913 0.18221584 -0.18539135 0.9566225 1.1509104 -0.22214513 0.27837214 -0.54522985 0.5337976 -0.12672971 0.11252873 0.73961437 -0.43715543 -0.5992819 0.063596845 -0.354079 0.3828606 1.0737251 0.21909061 -0.86762285 -0.18063563 -0.26234975 -0.14975734 -0.14310601 0.16319212 -0.32211858 -0.27611983 0.011796732 -0.23456864 -0.3776852 -0.13653456 0.4388153 0.18347955 0.17712411 0.09759586 0.7501365 -0.0072356993 0.06555664 0.09789345 0.033475928 -0.26632023 0.08147058 0.5291354 -0.53076124 -0.1206854 -0.43593055 0.29554206 0.10678442 0.06588337 -0.43839735 -0.113904424 0.22791679 -0.57775897 0.15077858 -0.27759847 0.17749612 -0.16023052 0.4852441 0.47652835 -0.04100002 -0.32335806 -0.21714906 -0.36228582 0.0422205 0.059696384 -0.5837268 0.28123012 0.48627362 -0.3595894 -0.5115069 -0.01604054 -0.33243796 0.7123651 -0.17444009 0.13807403 -0.117490046 0.34254324 0.30274191 -0.10199342 0.004370732 0.11892677 0.15977372 -0.10469288 -0.19057058 -0.04980299 0.038374763 0.12414147 0.19534029 0.0065213162 0.15196207 -0.15157214 0.13234606 0.20992324 0.0314007 0.28676525 0.19106744 0.15915717 -0.34559393 -0.19599 0.1133772 0.26158646 0.043625012 -0.4523343 0.18465674 0.30095676 -0.33528543 0.19824472 0.60322887 -0.054035373 -0.33227775 -0.38632718 -0.3624782 0.4468297 0.016728032 0.4472249 0.12872228 -0.021044625 0.36703435 0.04420703 -0.19043908 0.47893956 0.3960464 -0.52659845
130 0.011304877 -0.2999078 0.22887644 -0.24278396 0.5558475 -0.52847356 -0.07998379 0.20076405 0.40737605 -0.28171217 0.37238663 -0.18899211 0.3530845 -0.31101197 0.28579396 -0.0856604 0.06114479 0.034954984 -0.09449027 0.040125493 0.18959196 -0.025742456 0.027611615 0.33458403 -0.33060786 0.09068097 -0.22091751 0.07433096 -0.16106838 -0.005060208 0.2857237 -0.12162331 -0.120578885 0.08621972 0.18073349 -0.24383159 0.20287505 0.12791625 0.23721066 0.17005238 -0.35638505 0.58749235 -0.5685144 -0.5158399 -0.25343847 -0.06324983 0.020543376 0.27883565 0.16444126 0.3012059 -0.431349 0.5382629 0.2995092 0.38916403 -0.2529181 -0.23005447 -0.07636053 -0.2741438 0.06817723 -0.3807196 0.14171205 -0.22865203 -0.025038995 -0.024415135 -0.16022246 -0.28703824 -0.11881906 -0.25852984 0.17928308 0.31717968 -0.40805823 -0.1421937 0.15894374 0.02193763 -0.09246005 -0.53532827 0.4223742 0.15140253 0.115154244 0.11437925 0.15833603 0.02060402 0.38802263 -0.038629364 0.19469944 0.02722759 0.16390899 -0.18147501 -0.20996359 0.2536263 -0.23835687 -0.07681331 -0.22691107 -0.0030027283 -0.31527162 0.5085855 -0.100435235 -0.18480505 0.1902332 0.032325953 -0.30226046 0.4860917 -0.23123007 -0.050538447 0.45279568 -0.076471925 0.3339847 -0.22883372 0.16765046 0.16258986 0.20335045 -0.027474612 0.049813353 -0.03670935 0.0400887 -0.12939902 1.6137586e-05 -0.1244928 -0.024292942 0.09188603 -0.18886906 0.08881911 0.25966665 -0.17787924 -0.05263708 0.10027085 0.14467308 0.08905185
112 0.023767872 0.34403762 0.2519558 -0.27785316 0.26005784 0.21762255 -0.09609653 0.22942077 -0.098242946 0.13635287 -0.03512629 -0.5643471 -0.022296065 -0.0034696406 -0.053705227 0.14850071 0.10778448 -0.15505177 -0.20151201 -0.21698463 -0.22210772 0.21104223 -0.099843755 -0.048314895 -0.514459 -0.12692918 0.096060045 -0.06798185 -0.10026681 -0.13327536 0.07889004 -0.43440753 -0.34770253 -0.09849133 -0.33718187 -0.0014951994 -0.28139523 0.1665257 0.1977182 -0.21449594 0.23522711 0.42411816 0.044445984 -0.22098966 0.14434136 -0.23179844 -0.22738904 -0.09482305 0.3017259 -0.031009508 -0.056135293 -0.2089429 -0.2966621 0.24808441 0.168505 0.03247325 0.09531488 -0.06077951 0.12984322 -0.009355434 0.11672052 -0.38447616 0.01804898 -0.12298672 0.16812518 -0.13644645 -0.39793915 0.1468948 0.36446255 0.03774776 -0.34411776 0.2312552 0.3839689 -0.041551083 0.045275114 0.44984874 0.34971106 0.2684936 -0.00017356894 -0.12017968 0.19559203 0.18092172 0.3365364 0.0341159 0.17311959 0.090286836 0.0358674 -0.0686477 0.34565833 -0.36008742 0.09188268 -0.16012521 -0.47791424 -0.07298527 0.04076449 0.0961179 0.3543709 -0.14686063 0.04019228 0.31230718 -0.042370718 -0.21205312 0.06063624 -0.15579325 0.25481597 0.09563636 -0.13288163 -0.58555114 -0.024841014 -0.25116464 0.030872066 -0.092333406 0.23151243 -0.022464532 0.19078799 -0.35363448 -0.06360682 0.07520757 0.1414569 0.40043792 0.09319005 0.32193297 0.0041550244 -0.11939364 -0.1387668 0.18268771 0.024489382 -0.43296444
182 -0.036932025 -0.51053673 -0.078231364 -0.3164979 0.32373393 -0.18286185 -0.17778172 0.041855592 0.42159003 0.33084378 0.043072928 -0.1825888 0.298749 -0.27211985 0.13548347 -0.2883934 0.16860542 -0.1113467 -0.20542836 0.12389249 0.3241263 0.024718452 0.035661127 0.41973904 0.0048797154 0.09571935 -0.33728638 -0.2786228 -0.45828915 -0.16231586 0.24599329 0.16209063 -0.019643875 0.06941648 -0.06674616 -0.0063525983 0.014355083 0.1569406 0.043479566 0.00056801504 -0.2981764 0.6095551 -0.4486342 -0.25458252 -0.36038315 0.06265254 -0.32284054 -0.019494753 0.025484314 -0.066084675 -0.2514101 0.2792073 0.2808974 0.3199354 -0.35464922 -0.14620844 0.16521263 -0.42219022 -0.4205122 0.10935934 0.4171701 -0.26689583 0.027636668 0.06714377 0.009818656 -0.2652806 -0.13858792 0.14360994 0.19820602 0.43737003 -0.032697763 -0.26048443 0.123434626 0.0020581358 0.106152676 -0.08861267 0.401771 0.29478532 0.09873519 0.02081267 0.018592898 -0.06632673 0.1450184 0.1051441 0.3668254 0.013756681 0.057060488 -0.13287553 -0.2635084 0.008212779 0.056362193 -0.07369331 -0.23283646 -0.0538284 0.11543849 0.06913007 -0.105675995 -0.42169228 0.4116618 0.06068097 -0.047622554 0.25845975 -0.05917591 0.21630448 0.30945426 -0.24608876 0.11935445 -0.15852916 0.08205699 -0.07361909 -0.06576478 0.036718536 -0.15979654 -0.01833021 -0.088034675 -0.18201998 0.08799897 -0.29807463 -0.1592754 0.2289162 0.09664589 0.15065943 0.16830921 -0.16192535 -0.1589097 0.12562671 0.18180664 -0.08095282
129 -0.109770775 -0.39050472 0.12897806 -0.28397134 0.5303874 -0.4494582 -0.057838034 0.18562692 0.5150773 -0.18009739 0.331107 -0.131483 0.393428 -0.21268542 0.33744258 -0.114924856 0.12534799 -0.019729707 -0.13197833 0.04332252 0.379174 0.013446601 -0.03148889 0.304647 -0.41228315 0.0041461554 -0.19147849 0.09363562 -0.2646175 -0.04073728 0.2887294 -0.17166124 -0.12676041 0.063127495 0.29004353 -0.28828883 0.10788418 0.10174037 0.15421556 0.13787153 -0.21514904 0.5602161 -0.3901081 -0.42808688 -0.2847962 -0.09483417 0.039936192 0.24590951 0.12713777 0.23588252 -0.45712334 0.5953002 0.28305537 0.45295405 -0.22831644 -0.29154575 -0.07956661 -0.29328266 0.004453914 -0.3102476 0.21387193 -0.21961471 0.069396034 0.102355696 -0.20786671 -0.34100965 -0.090710126 -0.14874226 0.18936187 0.24014394 -0.3504005 -0.15094012 0.27842748 0.018876866 -0.06796188 -0.61101025 0.5116705 0.057669066 0.15788361 -0.05907782 0.22289264 -0.037524298 0.40569326 -0.115153305 0.20141214 -0.033468608 0.18754481 -0.094499245 -0.20068012 0.30003384 -0.16625859 -0.018844517 -0.16681778 -0.14224295 -0.27336612 0.6250807 -0.17565903 -0.19661698 0.13741234 0.040894207 -0.21078642 0.3143869 -0.17666791 0.061484985 0.4176974 -0.0028844613 0.2335746 -0.17431861 0.14634426 0.046363 0.22445425 0.027184198 0.09014527 -0.06882462 0.075731725 -0.10142189 -0.08852831 -0.17500174 -0.09251505 0.21622252 -0.25090915 0.1059419 0.25877053 -0.128282 -0.104463466 0.19258139 0.17503376 0.09382334
113 0.08858119 0.20414637 0.3894972 -0.15859672 0.20781486 0.25204742 -0.11581195 0.18771055 -0.06568219 0.13854748 -0.15525344 -0.5995612 -0.05556482 -0.10905175 -0.046040185 -0.04334898 -0.0078015765 -0.156286 -0.17665541 -0.18751913 -0.24571197 0.23344165 0.060424615 0.0627583 -0.5389418 -0.2403799 0.08764676 -0.07723697 -0.11540483 -0.059215136 0.111858524 -0.45090753 -0.36411566 -0.22656916 -0.22612138 0.05522628 -0.3767756 0.29179 0.11470528 -0.22697599 0.39233223 0.41922152 0.11114739 -0.22014809 0.16699831 -0.23541516 -0.23511963 -0.039467305 0.1769107 -0.022932477 -0.031672396 -0.23875347 -0.1795077 0.17782727 0.08358119 0.04957844 0.14864078 -0.07930197 -0.020648474 0.0034757282 0.16804647 -0.22687122 0.15600733 0.014552578 0.10702246 -0.15837638 -0.38978407 0.2523518 0.26154774 0.039542 -0.30377707 0.13276464 0.3682313 -0.010048107 0.038886968 0.43067145 0.2789825 0.3254555 0.072850294 -0.20086847 0.23658867 0.17007174 0.27552828 0.0827053 0.18211639 0.13461143 0.037415255 -0.09498343 0.30046043 -0.35898587 0.008399547 -0.1803174 -0.5299588 0.008720764 0.07046267 0.03651875 0.14554748 -0.1620395 0.02640074 0.2749087 0.06302608 -0.2178709 0.058954474 -0.15987784 0.027830118 0.07210873 -0.20695645 -0.5055749 0.018399224 -0.22146918 0.055234756 -0.03507045 0.11292261 0.06331704 0.13641064 -0.3097373 -0.090697385 0.06712424 0.10057643 0.3627537 0.054691136 0.35733745 0.04527199 -0.084618255 -0.13824074 0.18315853 0.008081879 -0.32767057
8 -0.3774348 0.052168135 -0.09683806 0.4702209 0.034752537 -0.43171293 0.14597288 -0.30148134 0.13909672 0.017368663 -0.06288597 -0.2904078 -0.15515015 -0.46549577 -0.016279552 -0.07769349 0.25828415 0.1455033 0.15833394 0.14335151 0.0759813 -0.37343466 0.33355746 0.0159355 0.115637526 0.15123636 0.26764134 0.09057394 0.27536845 0.14947219 -0.1575253 0.4692821 -0.483005 -0.288254 -0.3116379 0.20207924 0.26472956 0.593851 0.18370508 -0.39026323 -0.18193905 0.071273886 -0.10370221 0.56812066 -0.15542895 0.064070135 -0.072386645 0.28768563 0.40097043 0.49571463 -0.6503076 0.04667015 0.25276586 0.31807214 -0.4992292 -0.12311417 0.01113151 0.00515854 -0.02522866 0.049047906 0.1580182 0.023513397 0.20606449 0.211919 -0.08707075 -0.352971 -0.17304446 0.21955292 -0.27066037 -0.43495938 -0.28988537 0.074241094 0.14242204 -0.0018361356 -0.32625988 -0.13112873 0.24886927 -0.06399537 0.023145912 0.313107 -0.088627174 0.10364425 0.20043 0.13948923 -0.14341013 0.17969166 -0.29647768 -0.057284728 0.033569712 -0.014448071 -0.42167503 -0.35873634 -0.35927433 -0.4499559 -0.032388262 0.2489296 -0.05101297 -0.0842499 0.032864712 -0.09226207 -0.13005559 0.29789305 0.0057106037 -0.14561462 -0.020577585 -0.40437263 -0.043490577 0.01416303 0.3700202 0.19522482 -0.02400285 0.1378798 0.5315137 0.10726397 0.14895713 -0.038761318 -0.122182116 0.23884219 0.01998618 0.29296917 -0.18153588 0.26134312 0.16970369 -0.09364212 -0.33675542 0.24812879 0.4139021 -0.32563445
212 -0.6506524 -0.057891715 -0.33779106 -0.4778331 0.6407502 -0.17268366 0.19422711 -0.24846888 0.8556906 1.149401 -0.01687261 0.33224356 -0.5531889 0.6171795 -0.17725334 0.113644585 0.81690747 -0.49518165 -0.5081597 0.19854146 -0.3268979 0.4262622 1.0226046 0.28961116 -1.0459315 -0.22994882 -0.26728615 -0.16597049 -0.080256 0.050143264 -0.38438976 -0.2614098 -0.034911525 -0.27595097 -0.42484435 -0.269432 0.33790043 0.16834456 0.32892016 0.20344998 0.75164795 -0.021934139 0.1363809 0.008040887 0.0114699695 -0.2895956 -0.050773848 0.71443194 -0.53586346 -0.05082059 -0.43579224 0.3696405 0.1765157 0.21061991 -0.4670885 -0.19807726 0.19720551 -0.7240646 0.086113185 -0.36323196 0.23428115 -0.14095616 0.3959452 0.39041114 -0.10297037 -0.36288664 -0.054376937 -0.49042922 0.085258126 -0.06418485 -0.52761877 0.21862069 0.5512174 -0.48072743 -0.5353806 -0.06669873 -0.33238095 0.6473982 -0.15926126 0.03812054 -0.15246518 0.2945022 0.2489806 -0.009681067 0.015857834 0.0680899 0.35774478 -0.11145192 -0.22003615 0.066765524 -0.03926705 0.18408412 0.16722798 -0.13550225 0.12085867 -0.20347805 0.09531078 0.1796742 0.006117306 0.28395528 0.28586522 0.058140166 -0.28290528 -0.1457479 0.11676816 0.3301717 0.031427626 -0.37984812 0.23463476 0.38756397 -0.32512835 0.3539599 0.76849186 -0.16030972 -0.28793132 -0.24523005 -0.38444322 0.48539487 0.016277578 0.35825768 0.08803186 0.04920242 0.3763576 0.060338356 -0.22668752 0.5308622 0.37897536 -0.5884388
101 -0.1608202 -0.5044225 0.028714616 -0.21027508 0.20139243 -0.02456232 -0.13598178 0.062403385 0.13393894 0.39737236 0.086612016 -0.22595245 0.08275449 -0.17864247 0.09094528 -0.33998346 0.24771833 -0.29628962 -0.2616835 0.019141683 0.42074913 0.014955602 0.026920967 0.4879995 -0.076318614 0.03255407 -0.2202114 -0.16427957 -0.47988808 -0.15744817 0.12349767 0.04194269 0.008783784 0.051063593 -0.30791688 -0.012165256 0.16995557 0.1492766 0.044263188 -0.027322877 -0.38926458 0.5703698 -0.53530234 -0.12198447 -0.21635963 0.11808526 -0.19581133 -0.08159813 0.068935074 0.124310486 0.025374018 0.13963316 0.112189695 0.2396568 -0.4431585 -0.2656403 0.1028928 -0.3603233 -0.6109918 0.17791265 0.339297 -0.31978664 0.048514593 0.06956548 -0.027350387 -0.23889461 -0.038129725 0.18544708 0.16959827 0.42839745 -0.026337408 -0.10569023 0.28428152 0.0058412645 0.115055114 -0.08556888 0.2952978 0.15777957 -0.04172944 0.07282883 0.10077162 -0.06799544 0.06388258 0.036933616 0.13303787 0.16766381 0.088211685 -0.052058358 -0.22775383 0.03219924 0.101671405 0.0053764116 -0.28787795 -0.15351726 0.14989455 0.13049847 -0.19485222 -0.4314763 0.27727824 -0.11334443 0.023751872 0.22839838 -0.1356965 0.38571304 0.3566737 -0.18335892 0.101887956 -0.18669578 0.14341068 -0.1166838 -0.13880335 0.077495396 -0.112808295 0.0073985886 -0.288362 -0.14929806 0.018627433 -0.22317408 -0.15651433 0.072814 0.12521349 0.25182113 -0.09671463 -0.15992768 -0.21569034 0.21532144 0.10235223 -0.07042978
181 -0.10474665 -0.54940814 0.03510118 -0.2389469 0.3052903 -0.08421732 -0.075304955 0.19228813 0.2619178 0.30324975 0.036962435 -0.1992662 0.1363857 -0.22054753 0.097573645 -0.35493562 0.24434412 -0.19678439 -0.25578696 0.09798983 0.15395041 0.12544014 0.18347917 0.3410472 -0.008542448 0.044851415 -0.2384688 -0.20169476 -0.4537175 -0.04208419 0.21807273 0.031583667 -0.0017034528 0.110069275 -0.08570491 -0.0150775835 0.21895713 0.15512551 0.0671686 -0.09574539 -0.40080404 0.765281 -0.55221045 -0.31067804 -0.23066252 0.08565596 -0.19474691 0.044714127 0.16146408 0.048401706 -0.1196794 0.16283512 0.23420796 0.13790399 -0.41840172 -0.16797529 0.11089874 -0.325197 -0.30980143 -0.0891537 0.40051743 -0.28481236 -0.036789756 0.0008508214 -0.123520754 -0.14054558 -0.16587415 0.33135587 0.23457001 0.47058463 -0.04003152 -0.18216793 0.20402406 0.11390599 0.04783889 -0.03052792 0.34653828 0.22355852 0.07222202 -0.0073192874 -0.07494486 0.0010507973 0.10851981 -0.030402863 0.23998018 0.088669285 0.005836911 0.009104695 -0.21237949 0.06857203 -0.0011371598 -0.08313488 -0.2917001 -0.10449497 0.117369145 0.1660737 -0.2003497 -0.50488997 0.39137724 -0.03065736 -0.06069595 0.2614543 -0.07000017 0.20489448 0.30917442 -0.26241437 0.002303384 -0.014189005 0.14055341 -0.0032608896 -0.12194664 0.027622199 -0.15903033 -0.047798596 -0.16540882 -0.11742161 0.11886771 -0.15358676 -0.05771392 0.14762244 0.12263684 0.10474315 0.028487736 -0.09217912 -0.20083171 0.07114331 0.119924136 -0.020567631
77 -0.08958095 -0.3170299 0.27930823 -0.3077672 0.33940542 -0.107192606 0.0037095195 0.27879274 0.50241417 -0.07060424 0.28646678 0.0024214827 0.13859078 -0.20570514 0.2852319 -0.17564638 0.21130222 0.12485525 -0.0632655 -0.01744658 0.34902972 -0.24250332 0.014287709 0.25009313 -0.5052675 0.056832556 -0.36251765 0.18433659 -0.2713037 0.043525007 0.22170527 -0.08681417 0.09254918 0.22841218 0.10229981 -0.39593977 0.07411143 0.28904468 0.07604561 0.05515259 -0.1876414 0.6368383 -0.3561527 -0.65024394 -0.2143375 0.016352015 -0.072647035 0.37889165 0.11478435 0.25611153 -0.5549536 0.5720968 0.36232677 0.18126619 -0.34752822 -0.010297731 0.28820094 -0.3030946 -0.07303119 -0.23450842 0.25293878 -0.30716887 0.16406856 -0.0007441132 -0.30061865 -0.21796317 -0.05352533 -0.23534696 -0.09683707 0.22167967 -0.18650809 0.035226215 0.11725215 0.035366986 0.15000209 -0.25552064 0.18337731 0.025453603 -0.012414665 0.029105483 0.21294057 0.10052417 0.36045724 -0.033447437 0.09496696 0.049146794 0.22753778 0.048219185 -0.15785544 0.24259382 -0.2224977 -0.05170511 0.062218707 0.021354027 -0.33007157 0.57601756 -0.22009191 -0.21161936 0.2414057 -0.02323816 -0.48139355 0.22983006 -0.16694766 0.016134901 0.22424948 -0.061182242 0.33138525 -0.05722007 0.04408647 0.02798268 0.29386842 -0.0050575365 0.12834252 -0.03259316 0.017939424 -0.17161421 -0.08899466 0.053188622 -0.06769597 -0.02884453 -0.18189088 -0.00018643975 0.31579491 -0.12508518 -0.12764642 0.27773467 -0.10832782 -0.117345214
78 -0.121509664 -0.26331532 0.34303865 -0.3462048 0.336743 -0.08746546 0.009842482 0.2532785 0.43156987 -0.11317975 0.33022448 -0.008011165 0.13384087 -0.27912983 0.29890215 -0.08887079 0.16904354 0.07323611 -0.031364653 -0.027913094 0.38125834 -0.28891277 -0.031593014 0.45747426 -0.49768704 0.110405095 -0.35472745 0.10652906 -0.13314646 0.07046448 0.22210304 0.027703749 0.07611757 0.18420146 0.07557427 -0.3076545 -0.13187248 0.28051865 0.21796457 0.08060689 -0.20290633 0.4512305 -0.29242644 -0.5628305 -0.28307623 -0.016177788 -0.080023706 0.2590225 -0.005522469 0.16252013 -0.4648543 0.57909346 0.32635212 0.2127764 -0.26052684 0.018103437 0.23708469 -0.22441511 -0.008346822 -0.18621537 0.14651662 -0.2102687 0.083030686 -0.011849217 -0.3028831 -0.10276908 -0.018398356 -0.28142256 -0.17184132 0.15838335 -0.22696112 -0.08972165 0.0739739 -0.0625585 0.11835258 -0.35769004 0.33329475 -0.03606515 0.05954064 0.03449986 0.221505 0.01842716 0.31971893 -0.097488895 0.10173998 0.04854263 0.19417433 0.027223175 -0.18123494 0.12526484 -0.30272937 -0.030075612 0.012815601 0.17242205 -0.28140637 0.5657143 -0.22977957 -0.32113597 0.21180102 -0.11723923 -0.5319864 0.24336894 -0.20257595 0.027215708 0.2736876 -0.17359968 0.37389567 -0.11516831 -0.015760714 0.01631597 0.25053316 -0.035550926 0.08884524 -0.021900166 0.08342252 -0.20338097 -0.11927974 -0.049775396 -0.06583166 0.057911187 -0.18816854 0.03898735 0.3185587 -0.08793196 -0.13870533 0.33258045 0.008936844 -0.041746084
102 -0.0752499 -0.44140285 0.09377273 -0.25735548 0.32095557 0.016290726 -0.11657113 0.10223461 0.2838937 0.46860495 0.11165227 -0.21073857 0.11737577 -0.10737472 0.027488748 -0.3783982 0.22998267 -0.2573859 -0.31036624 0.044222694 0.33479866 0.028091663 0.006173733 0.3127945 0.06161799 0.060314823 -0.17834462 -0.23843975 -0.48009735 -0.33502325 0.10442348 -0.013061187 0.06668941 0.04363824 -0.22841693 -0.04214492 0.10198107 0.15430616 0.056161035 -0.122413024 -0.36955306 0.60482436 -0.48396006 -0.125641 -0.14163473 0.100075826 -0.2534795 -0.031012382 0.07637964 0.089315675 -0.09567914 0.28074113 0.2843794 0.21879481 -0.4008126 -0.21019684 0.1384694 -0.3698039 -0.4653859 0.11458392 0.45634285 -0.36614132 0.13357039 0.05247358 0.007947596 -0.27116364 -0.06875285 0.26957747 0.16613433 0.5678405 -0.082866274 -0.064591415 0.27382204 0.0668796 0.10903387 -0.008723918 0.15747903 0.14201625 0.050459564 0.083728366 -0.027907852 0.026216788 0.120388575 0.082286716 0.18011796 0.11222549 0.033590034 0.010134414 -0.14884548 -0.033861354 0.13424338 -0.01396126 -0.26227656 -0.2042219 0.13052437 0.089032635 -0.30760953 -0.4953301 0.37558922 0.031409174 -0.04186683 0.20531654 -0.13135831 0.36749858 0.34459242 -0.18958719 0.08535123 -0.20222513 0.21102247 -0.1702242 -0.1300997 0.118187726 -0.07686006 -0.06950398 -0.26064873 -0.15904203 0.06546326 -0.2937064 -0.06150844 0.19116096 0.123626225 0.1524723 -0.10625652 -0.22290511 -0.23288488 0.2229421 0.07836896 -0.16600828
214 -0.43417957 0.19331679 0.8819466 0.09998124 0.47286624 -0.36328462 0.46166816 0.031421866 0.5453676 0.104453675 0.46282873 -0.14422092 0.11168724 -0.8259593 -0.35805085 -0.040701807 -0.5021696 -0.3844954 -0.2791214 -0.26916328 0.9150774 -0.56310266 0.90818536 0.036067642 -0.10431837 0.052288152 -0.14268985 0.018425206 -0.2131151 0.26561883 -0.5308597 -0.054555386 -0.24138412 -0.24010241 0.1763606 -0.38359028 -0.09102122 0.190332 0.12187512 -0.5342082 -0.11026486 -0.059377618 0.13058533 0.31946668 -0.018841892 -0.091450706 -0.1588436 -0.16553845 0.17253572 0.13507475 -0.46596965 0.4203795 0.052262913 0.6688125 -0.3099013 0.36945012 0.11004253 -0.27120188 0.0833794 0.044371005 0.12842055 -0.08249257 0.014249955 -0.012050079 0.02889916 0.037595607 0.14593999 0.11160289 -0.2818804 -0.18432768 -0.043899983 -0.1880147 0.19873473 -0.15914768 0.22476138 0.5008607 0.58146554 -0.069210246 0.55618715 -0.27842507 0.283124 0.12924908 0.14991625 -0.18558222 -0.3635494 -0.3378249 -0.17544723 -0.10441349 -0.1419956 0.32339424 -0.37600347 0.20025784 -0.24121167 -0.0855017 -0.0675731 0.14345847 0.14987603 -0.11454636 -0.01839868 0.037477683 -0.18484697 0.17630114 -0.05062686 -0.50720125 -0.09817484 -0.029727034 0.05665464 0.38163704 -0.09085724 -0.22086303 -0.135389 0.06453154 0.16726513 0.09109197 0.053314477 -0.23635508 -0.03536517 0.47424087 0.037489798 0.20608735 -0.011773383 -0.2689163 -0.09893787 -0.22512817 0.033379592 -0.03466238 0.28114268 -0.18033001
140 -0.22165586 0.03361664 0.120840356 0.087139376 0.13692173 -0.27593467 -0.31784177 -0.43473887 0.4721509 0.05582016 0.0070988173 -0.009935508 -0.17981495 -0.37862065 0.15374509 -0.2547145 0.287364 0.046721347 -0.19768076 -0.094383374 0.41755182 -0.17413636 0.50893825 0.106614605 -0.17301857 -0.027682276 -0.042227104 0.049974773 0.14842476 0.41208902 0.02364848 0.16814859 -0.3831608 -0.16492012 -0.13922429 -0.035642523 -0.07940085 0.28177255 0.11918311 -0.4230139 -0.3646802 0.2370802 -0.14842562 0.42995033 -0.20519346 0.16485885 -0.4263959 0.12037809 0.31016374 0.16790543 -0.29789683 -0.11758225 0.018719831 0.569571 -0.10391968 -0.17721958 0.06913005 0.18992269 0.1903319 -0.23025455 0.1512338 0.013025571 -0.22808407 0.009739897 -0.23408532 -0.35690135 -0.058677815 0.1455818 -0.0652435 -0.21724533 0.09289828 -0.19094346 0.31720105 -0.082942665 -0.0570922 -0.26957434 0.28332838 -0.385728 0.4475416 -0.22413975 0.10960782 0.16390759 -0.03424872 0.0038884068 -0.044587124 -0.07232079 0.047645308 -0.121924736 -0.12175872 0.28431 -0.38167933 -0.30398685 -0.064149976 -0.5462225 -0.25371796 0.2786692 -0.09760343 -0.049763344 0.293988 -0.22840205 -0.2330819 0.36151773 -0.03464715 -0.47228542 -0.15708698 -0.22436629 -0.2698302 0.3451465 0.07504763 -0.22005948 -0.23928845 -0.15669762 0.2267505 -0.019738073 0.26767254 -0.07653452 0.08512701 0.35814866 -0.0195592 -0.07524067 -0.20034136 0.20277794 0.0784977 -0.10500252 -0.11804113 0.17819081 0.25544578 -0.22084504
215 -0.51436245 0.2684927 0.78908634 0.1780517 0.4442552 -0.3279317 0.43896693 0.0109879775 0.53597534 0.025603775 0.4544375 -0.114688106 0.08825365 -0.8598961 -0.2555261 0.037249275 -0.4624767 -0.34334764 -0.35257128 -0.3345148 0.9205994 -0.60111684 0.9903846 0.14493544 -0.2182158 0.05959838 -0.14003526 0.025732756 -0.18345146 0.34375995 -0.4769642 -0.045339845 -0.25346735 -0.20500945 0.23062389 -0.3325935 -0.06672609 0.18924795 0.08492208 -0.571919 -0.21443255 -0.068196185 -0.05811954 0.39303717 -0.09266452 -0.08771569 -0.1583465 -0.24284689 0.13952915 0.14920022 -0.4490254 0.39671028 0.018444227 0.6096914 -0.3056809 0.3499321 0.18095686 -0.26372242 0.12096703 0.07073661 0.11691655 -0.06913479 -0.081266 0.0053316713 0.0046791225 0.12945364 0.23065366 0.0076254825 -0.26049975 -0.18276581 -0.026906312 -0.21299087 0.24555421 -0.20403711 0.2795791 0.55688655 0.69270414 -0.0012334983 0.5677177 -0.31034407 0.4072013 0.114941604 0.18139778 -0.22150986 -0.3722508 -0.3456079 -0.31274423 -0.21869278 -0.18462662 0.3428782 -0.381618 0.24398491 -0.31795034 -0.07202407 -0.08739288 0.21169169 0.23545967 -0.16246742 -0.012468444 0.0019413616 -0.14887036 0.2835757 -0.09690122 -0.40468094 -0.025487715 -0.0022267164 0.0339486 0.36324552 -0.16105941 -0.20190912 -0.14038494 -0.0036927762 0.15672591 0.06439837 0.18793146 -0.25150397 -0.064027555 0.42775646 -0.08914365 0.2853713 -0.16664463 -0.2994376 -0.09357014 -0.20589119 0.06900896 -0.025352085 0.27878207 -0.12503628
139 -0.18251413 -0.032980267 0.12037872 0.29870906 0.15631163 -0.32535344 -0.26251435 -0.33898842 0.47630718 -0.03237484 0.0018220558 -0.11539145 -0.06681561 -0.42162356 0.23605601 -0.20583521 0.3295406 -0.04414484 -0.246443 -0.074014716 0.43181595 -0.07460131 0.39957905 0.12691951 -0.32766068 -0.086594455 -0.15806259 0.10767544 0.17312449 0.2398772 -0.06523326 0.30477515 -0.3747725 -0.15365729 -0.08423909 0.0020230755 -0.0964491 0.21338043 0.07062018 -0.45037922 -0.33695865 0.27067605 -0.2073528 0.4989752 -0.2969805 0.23179701 -0.33405647 0.0720485 0.40466037 0.16224325 -0.3767513 -0.19650559 0.018546706 0.5934646 -0.063146755 -0.13018563 0.10221263 0.13040338 0.21205497 -0.17295685 0.056334756 0.09203036 -0.15587033 0.033999007 -0.23910554 -0.37133777 -0.090952784 0.15626188 0.021658164 -0.13554388 -0.02976814 -0.11762011 0.35449222 -0.12164085 -0.022528054 -0.21199599 0.31842119 -0.37055343 0.43161193 -0.14862064 0.24207498 0.1594375 0.078171946 -0.101230055 -0.15903814 -0.15883788 -0.1757059 -0.11971943 -0.2140448 0.24865319 -0.33088958 -0.34680495 -0.0041640582 -0.48306355 -0.21972318 0.18836495 -0.012923073 0.07621577 0.3622392 -0.22919342 -0.32286066 0.49549153 -0.09278509 -0.29372823 -0.060193934 -0.14749175 -0.3086232 0.3693412 0.05072212 -0.03770345 -0.190151 -0.18884934 0.30556393 0.06626592 0.30736747 -0.11405201 0.011914399 0.3415572 -0.08373761 0.014421904 -0.31608284 0.18109931 0.06336994 -0.26838523 -0.214816 0.16779763 0.25499412 -0.23264453
18 -0.34975234 0.07359156 -0.13753398 0.43883547 0.108121194 -0.45192033 0.10388151 -0.27909175 0.16473785 -0.018219424 0.008672221 -0.26488185 -0.12982734 -0.36521536 0.07094019 -0.05399936 0.23408233 0.1725736 0.13462158 0.1609319 0.04965611 -0.27191502 0.27209258 0.068429746 0.094018325 0.117807604 0.25120693 0.06337566 0.29423004 0.09908329 -0.05484271 0.41594195 -0.5163823 -0.3613494 -0.2994368 0.10255713 0.1558301 0.45993397 0.23941013 -0.38602817 -0.15215889 0.09567239 -0.07804137 0.515143 -0.23525977 -0.0013729448 -0.11320269 0.1789765 0.4607528 0.42476517 -0.5763159 0.08458363 0.21721114 0.37052277 -0.3293911 -0.2423443 0.05891232 0.09563351 0.10051707 -0.04918237 0.06850898 0.059233095 0.05648299 0.11850136 -0.13647692 -0.42212102 -0.20291014 0.1887702 -0.23048952 -0.42041153 -0.22271366 0.025052836 0.17185958 0.04124235 -0.37117636 -0.28377825 0.23870958 -0.08426286 0.09993089 0.2536802 -0.096892215 0.023508586 0.08648002 0.2403726 -0.086205654 0.072831556 -0.29529232 -0.07913895 -0.01091393 0.007332436 -0.33109814 -0.34121108 -0.4035581 -0.39469633 -0.032624535 0.25709343 0.009940449 -0.0632224 0.030606568 -0.18048145 -0.04037412 0.28644943 0.002950692 -0.08007034 0.069241814 -0.3954823 -0.068703346 -0.037569586 0.36972192 0.18504283 -0.03078079 0.1177915 0.5050207 0.07680563 0.24317229 -0.09361721 -0.09889269 0.18401408 0.10098902 0.19074324 -0.18979675 0.2660913 0.14491186 0.08862476 -0.28618053 0.23471414 0.4825061 -0.33346105
155 0.08008925 0.033450793 0.19791257 -0.4920368 0.014776653 0.13038217 -0.08673998 0.04364364 0.13726948 0.40566576 -0.20790692 -0.33764055 0.30943367 0.03200176 0.18517856 -0.3980538 0.5018455 0.122764096 -0.30927014 -0.0003826351 -0.009576061 0.07000498 -0.22371687 0.7212442 -0.1696614 -0.079756305 -0.37709215 0.01776434 0.18373865 0.09984441 0.33606586 0.005093802 -0.3121407 -0.15433997 -0.2735077 -0.15325342 0.1560098 -0.036689874 0.14634074 -0.42385462 -0.3785626 0.64081866 -0.35550922 -0.230716 -0.19185552 0.31724226 -0.22200343 0.36709166 0.26042145 0.07713534 -0.20186248 0.20865819 0.3849293 0.44113734 -0.28745168 0.0016245256 0.3564937 -0.37251675 -0.09182571 0.4329486 0.69012433 -0.44548595 0.18669978 -0.68833953 0.30024287 0.056650274 -0.2762484 0.14549996 -0.003466384 -0.02045153 0.11697409 -0.23886555 0.26306838 0.053315807 0.101585485 -0.02022566 -0.1916645 -0.22720926 -0.17239067 0.09466571 0.102424875 -0.2272725 0.20580383 0.47056484 0.14949001 -0.061992265 0.24485798 0.002249494 -0.037744813 -0.018618027 0.20471746 -0.17774086 -0.1636546 -0.16177833 -0.06441101 -0.10991772 -0.014397052 -0.3924039 0.63603204 0.047553774 0.35780907 0.018972496 -0.41060823 0.6487159 0.4292257 -0.2376432 0.058862295 -0.17277303 0.4007052 -0.09483814 0.07294064 0.06317193 0.14295103 0.0034963617 -0.24338323 0.07201323 0.14459722 -0.12914291 -0.13089955 0.11946591 0.4310914 -0.071397975 0.17097396 -0.06659632 0.22193153 0.06045943 -0.02627601 -0.1507916
156 0.11055152 0.19050759 0.23234586 -0.5223564 0.030565074 0.25886363 -0.09873636 0.2128502 0.057550963 0.40146294 -0.14337137 -0.32452524 0.25257617 -0.06902029 0.15519719 -0.4908443 0.3750524 0.040424306 -0.28742072 -0.012474199 -0.14240606 -0.03585283 -0.15117982 0.74150395 -0.12655085 -0.082803406 -0.35462788 0.070945285 0.2633465 0.10610566 0.28495246 -0.029147316 -0.16743664 -0.13263577 -0.26397884 -0.032114796 0.18258321 -0.08633567 0.14729512 -0.43059415 -0.38812244 0.62561685 -0.32304126 -0.14773233 -0.24091965 0.32055846 -0.33714828 0.29482064 0.2402085 0.03573498 -0.2498069 0.2763113 0.3939562 0.3250744 -0.24589202 -0.02150149 0.34015206 -0.36034018 -0.10870816 0.31236842 0.59535205 -0.44692174 0.10636998 -0.6465468 0.304313 0.074271046 -0.26629606 0.12501283 -0.084909655 -0.0090826545 0.075987294 -0.1729552 0.24804685 0.06222818 0.30187383 -0.026153974 -0.10883733 -0.12086355 -0.21703741 0.12724099 0.18592267 -0.26338384 0.24141015 0.49265712 0.17329822 -0.019736253 0.15118851 0.028695345 -0.01588637 0.05072831 0.251503 -0.16302659 -0.23747881 -0.038238123 -0.03181643 -0.042783126 -0.015261761 -0.41538638 0.7145635 0.056211527 0.315586 0.06561186 -0.42781943 0.6075757 0.4316165 -0.18942827 0.043568086 -0.07859363 0.40854686 -0.104755156 0.17411408 0.1302549 0.13485827 -0.124633834 -0.19845223 -0.0025011168 0.14567755 -0.08999503 -0.07299956 0.22758834 0.32560754 -0.091661364 0.18176836 0.03504086 0.19331935 0.078540765 -0.014611456 -0.06454416
104 -0.21549945 0.25568518 0.46489888 -0.6199274 0.21261682 0.2451667 0.3479407 0.4272725 0.17655624 0.5672977 -0.06509848 -0.35682422 0.19622044 -0.33024526 -0.25522545 0.513011 0.30115727 0.35014427 -0.06665392 -0.20468093 0.14316536 -0.111562565 0.1004124 0.02067262 -0.28710788 -0.034019027 -0.06831735 0.052998003 -0.066749506 0.11035855 0.3343929 -0.22775477 -0.3873453 -0.45410222 -0.06596829 0.01866014 -0.099158116 0.19417775 -0.074163295 -0.0003158202 -0.034078103 0.12486035 -0.054781396 -0.06700519 0.30821672 -0.15307972 0.034447365 0.69774115 0.1649014 0.1833207 0.08062828 0.05425783 -0.14770132 0.4367148 -0.34527373 0.14595035 0.079264075 -0.25863156 0.08534305 0.48675975 -0.059189703 -0.17189096 -0.06668889 0.054707017 0.041445106 -0.11756714 -0.18419471 0.1880363 0.29774517 0.37709245 -0.02772627 0.11048534 0.13552319 -0.12180867 0.0647146 0.011780824 0.4387106 -0.09518908 0.24162585 0.12924393 -0.16293317 -0.0034138504 -0.0937221 -0.09234747 0.43347272 -0.10927636 0.077783994 -0.08670241 0.011415744 -0.05785354 -0.23150115 0.03158965 -0.04530842 -0.012991685 0.046007086 -0.36641997 0.0029672387 0.13839087 -0.02407333 -0.05148893 -0.057728123 -0.22649176 -0.068437636 0.26858035 0.32217726 -0.09987072 -0.32229 -0.005260849 0.21301003 0.33435494 0.17248324 0.19682269 0.08096731 -0.0920384 0.3053657 0.02157986 -0.35077322 -0.2600533 -0.16433081 -0.20429131 -0.03834559 0.36234277 -0.10773475 -0.05634692 -0.069204375 -0.25660998 0.17600344 -0.048730955
84 -0.028304232 0.12409533 0.36676946 -0.18611678 0.37215996 0.13749875 -0.032512225 -0.0828919 -0.028516395 0.36042655 0.0018133068 -0.53650236 -0.02451738 -0.14363104 0.104705535 0.13532703 -0.12533504 -0.1571661 -0.28492838 -0.2002114 0.0433622 0.12907125 -0.06583047 0.13161454 -0.51457965 -0.24534525 0.17101428 -0.065963 -0.032038983 -0.2388903 0.040992115 -0.3455456 -0.32980958 -0.28324786 -0.44692037 0.26654273 -0.17192486 0.33650357 -0.047472198 -0.12941842 0.30133888 0.37070358 0.028565912 -0.22109583 0.08465974 -0.10311573 -0.32794133 -0.050065394 0.12922446 0.02276175 0.0036248493 -0.21408209 -0.12991102 0.18438601 0.09961657 0.012774842 0.053195026 0.013242172 0.035379335 0.31953365 0.21587184 -0.4642969 0.20014001 0.05927187 0.39112818 -0.11609231 -0.20201597 0.0039411876 0.3698334 -0.010223441 -0.2189649 -0.014789779 0.31671184 -0.024670517 0.04586344 0.33459294 0.32198578 0.3178822 0.025171213 0.007609726 0.31059146 -0.03462753 0.23341799 0.097110465 0.1062637 0.15143138 -0.12359968 -0.07896395 0.283667 -0.6341403 -0.016218375 0.0056749997 -0.49971023 -0.102214366 0.14102082 -0.114167266 0.28201127 -0.19357911 -0.047881808 0.34584218 0.08375653 -0.17796233 -0.1396908 0.035430495 0.17577663 0.16288252 -0.12147099 -0.6213505 -0.066371776 -0.2133644 0.13820119 -0.123926505 0.09254578 0.20982848 0.22414717 -0.22616579 0.02207621 -0.21333608 0.2722131 0.27175796 0.064139 0.4653457 -0.096583 -0.18598467 -0.12183483 0.104974866 -0.07528849 -0.13606772
85 -0.11616128 0.11407264 0.43376064 -0.37942246 0.32346323 0.26830688 0.026565634 0.07013055 0.006220731 0.21783626 -0.00067942776 -0.5095195 -0.2714893 -0.20610167 -0.029555814 0.057663064 -0.18327601 -0.08736383 -0.14689307 -0.12249897 -0.016903173 0.12752979 -0.09337132 0.085901365 -0.50808084 -0.18553464 -0.0058020116 -0.20490818 -0.085982345 -0.19257627 0.08597204 -0.39549208 -0.23032402 -0.21049081 -0.4660501 0.21690965 -0.29127932 0.33874863 0.01692299 -0.11079564 0.26613128 0.2981937 0.090844795 -0.27819404 -0.014500189 -0.10400563 -0.22796491 -0.1080589 0.22969997 0.01968945 -0.05302036 -0.14244983 -0.010976909 0.28990236 0.092739664 0.032522768 0.12448054 -0.020532299 -0.049687464 0.27040842 0.28178245 -0.37463152 0.18078005 -0.065983854 0.30889332 -0.047501206 -0.3160505 0.038715743 0.35222775 -0.10742959 -0.17664085 0.08565937 0.33417943 -0.09002546 0.114313744 0.4306929 0.30007464 0.3140026 -0.01919501 0.038863212 0.27142847 0.10935048 0.29424134 0.115836844 0.1677838 0.24314821 -0.14263198 -0.082232065 0.32830775 -0.47167563 -0.01307961 -0.07512233 -0.57646286 -0.052151587 0.14432308 0.0048740185 0.3320223 -0.08977337 -0.0044741733 0.3110088 -0.008458983 -0.11387723 -0.08064277 -0.101562016 0.13636464 0.19814177 -0.16402818 -0.5665903 -0.018694336 -0.21728389 0.0029402075 -0.097742766 0.11518808 0.09284679 0.15159436 -0.16530822 -0.023268165 -0.14026254 0.27088 0.26556385 0.09669172 0.4143881 -0.016329397 -0.19725095 -0.21816474 0.12708852 -0.07277552 -0.20770872
79 -0.076325044 0.46477228 0.18925145 -0.2660963 0.33155513 0.49639282 -0.12273963 0.07768319 0.13098913 0.6708891 -0.32801244 -0.44976345 0.037637517 -0.24545065 -0.31446406 0.1957954 0.4780257 -0.2576493 -0.1811702 -0.10935371 -0.00359567 0.04756197 0.31451 0.3887055 -0.43229392 0.03359805 -0.010958661 0.13610145 0.08906627 0.10413585 0.22597732 -0.21280207 -0.40382323 -0.32217926 -0.16873677 0.112772994 -0.18480851 0.19645931 0.0076711676 -0.08947018 0.08408207 0.46158138 -0.17693394 -0.4262669 -0.07544867 0.14675878 -0.43553048 -0.03725912 0.11776705 -0.20010515 -0.12722565 -0.07610684 -0.08859113 0.09864405 0.1706299 0.19555248 0.02927589 -0.090050936 -0.021096626 0.11288929 -0.1778088 -0.2538743 0.014998699 -0.1988167 0.021767503 -0.14549157 -0.14882804 0.0764996 0.104437575 0.07134271 -0.09490523 0.1760041 -0.07172243 -0.054645613 0.19198383 0.16663337 0.13012312 0.14817102 0.12213442 0.030238293 0.44220883 0.023487654 0.21952371 0.22077535 0.2342694 -0.009135828 0.046982754 -0.13721251 0.16756178 0.01894112 0.16402487 0.07346804 -0.06418877 -0.164494 0.006379086 -0.19836043 0.31243318 -0.053489473 -0.05829729 0.10184319 0.1963148 0.06833217 -0.071827486 0.08778242 0.1039795 0.19945301 -0.23771442 -0.058542863 0.12226748 0.18111834 0.17378636 0.097868375 0.0027446107 -0.06942554 0.15003115 0.005780678 0.011348635 -0.17205162 0.097513616 0.13886802 -0.06960435 0.2659887 0.054801274 0.25003144 -0.03763702 -0.008670212 -0.13976969 -0.15208293
80 -0.19761133 0.3152879 0.20656283 -0.19109596 0.25199956 0.44612917 -0.15519829 0.11159441 0.17941341 0.5156402 -0.21257557 -0.48902813 0.053043395 -0.19252089 -0.055435963 0.20344155 0.41787428 -0.20635451 -0.30883485 -0.13418378 0.13900822 -0.11539573 0.35812703 0.38851526 -0.49456644 0.03164613 0.022822985 0.09885696 0.13029712 0.14783683 0.41189438 -0.32689238 -0.494087 -0.37306672 -0.2083525 0.006631952 -0.21181367 0.19044268 0.04762227 -0.17976466 -0.02040101 0.42159373 -0.2182923 -0.3718474 0.007898941 0.0962781 -0.47695294 -0.07496602 0.22068773 -0.18501417 -0.01965745 -0.07106897 -0.09777181 0.13376331 0.23108618 0.18337162 0.124731794 -0.27097854 0.04515641 0.09945132 -0.13248333 -0.3132729 0.14816289 -0.22551587 0.009166078 -0.04864113 -0.15371573 0.11436824 0.116813876 0.03720221 -0.1292048 0.22901346 -0.029275995 0.12705135 0.21144474 0.31835046 0.04860829 0.28231856 0.047023006 0.07108333 0.40893248 0.024027513 0.24232937 0.19932066 0.2471458 0.057586823 0.0531095 -0.051624563 0.18458486 -0.16267867 0.18509012 0.17549253 -0.034049086 -0.078001045 0.107426986 -0.22161913 0.49869332 -0.06686408 -0.04392914 0.13334788 0.29058737 -0.007571388 -0.09677932 0.06335425 0.00074602943 0.17384525 -0.2182678 -0.03496567 0.21990165 0.2406251 0.167642 -0.006049587 0.13569646 -0.14167821 0.1802962 0.015108317 -0.17204703 -0.1143516 0.06939392 0.13013881 -0.03836352 0.28870243 0.04832659 0.28771165 -0.15893872 -0.12867314 -0.021252247 -0.08965279
103 -0.24789938 0.34284058 0.4706644 -0.7013694 0.058948725 0.37278628 0.2978376 0.3801203 0.211869 0.658249 -0.1852212 -0.4021412 0.08288259 -0.3878897 -0.2854097 0.5056599 0.32533884 0.3814715 -0.007373305 -0.21571973 0.1903644 -0.057751082 0.14793026 -0.04400125 -0.31440353 -0.027490178 -0.13423868 -0.030329326 -0.1400234 0.17305459 0.4035001 -0.33513677 -0.31549278 -0.331363 -0.02642265 -0.046617303 0.036453303 0.13127707 -0.2231746 -0.008256658 -0.08858838 0.1700044 -0.03792345 -0.11490853 0.40773398 -0.066155836 0.16724843 0.7707573 0.2667287 0.16669628 0.0368766 0.114202455 -0.033214606 0.4106561 -0.2323034 0.124905735 0.078205876 -0.057962146 0.02693444 0.49649173 0.112971686 -0.18548167 0.07934144 0.016162738 0.13862598 -0.1286638 -0.2814822 0.18318775 0.3642356 0.42490047 0.026714712 0.10296499 0.16843854 -0.16870454 0.13908717 0.007883778 0.42393565 -0.11715983 0.14899433 0.12804747 -0.1077156 0.059968688 0.014722789 0.0017663803 0.37007603 -0.012802366 -0.07444915 -0.03633306 0.05616815 -0.099635564 -0.15868665 0.030380161 0.034671456 -0.08736932 0.098412514 -0.38824764 -0.07643062 0.24745403 -0.05197489 -0.048382524 -0.12504765 -0.075806655 -0.09694275 0.16883805 0.2935674 0.088491954 -0.3706837 0.022794655 0.11040234 0.245736 0.060859025 0.21072727 0.052289847 -0.10170628 0.20535608 -0.05892509 -0.31650978 -0.17929308 -0.0866962 -0.12089572 -0.053978365 0.38868254 0.016286025 -0.10559235 -0.023356523 -0.1430823 0.1193761 -0.06361728
82 -0.045498118 0.15254684 0.33007315 -0.124083936 0.23694283 0.029173754 0.067092985 0.16066746 0.20650269 0.21023308 0.14075215 -0.41515434 -0.07748853 -0.2188303 -0.28422108 -0.074102424 -0.0042960434 -0.083721906 -0.15722229 -0.08420867 0.014073859 0.08964298 0.07951325 0.08724603 -0.4786823 -0.19941491 0.08670728 0.0021342284 -0.10584002 0.028329918 0.22079279 -0.43973413 -0.27405795 -0.087893166 -0.36504942 0.11254519 -0.5186339 0.44894814 0.23698533 -0.05532414 0.30332634 0.25417343 0.18206657 -0.3404961 0.016033433 -0.36961165 -0.22103445 -0.21809605 0.24318206 0.12845321 -0.014484177 -0.32272398 -0.23928466 0.22495 0.2074952 0.08857264 0.08454888 0.1132339 -0.019976916 0.24152516 0.03795024 -0.33933932 0.111195095 0.07470291 0.318915 -0.19758433 -0.30304766 -0.014697796 0.14309873 -0.20755312 -0.32053277 -0.102833845 0.37934366 0.09662058 0.06280912 0.52851963 0.2856594 0.35454395 0.16018209 -0.097872674 0.16193803 0.16663525 0.24210633 -0.017075285 0.2966821 0.21829806 -0.045016777 -0.0052550836 0.14405668 -0.41217047 -0.083391964 0.08079854 -0.57638824 -0.038148437 0.035476897 0.019552428 0.23504941 -0.14457549 0.03720123 0.3431027 0.16881631 -0.2575438 0.027929846 0.044538956 0.08799659 0.10641106 -0.09730243 -0.64744884 0.04916776 -0.377242 0.03364277 -0.2179425 0.17370875 -0.019613555 -0.18265599 0.0037182006 0.08330505 -0.19027077 0.1443787 0.4383892 0.13766764 0.12953618 0.008395569 -0.088819526 -0.13250977 0.03254543 0.07315499 -0.089989156
83 -0.11509709 0.32019573 0.23792608 -0.1417152 0.19125107 0.06908493 -0.007676287 0.07146921 0.044849873 0.2867556 -0.011392027 -0.56696385 -0.12705785 -0.16927047 -0.24251862 -0.025782121 0.017417787 -0.14686264 -0.24561842 -0.15283182 0.01873756 -0.042382956 0.21152729 0.17998593 -0.54509175 -0.14867434 0.12883827 0.03652223 -0.07672696 -0.010745025 0.15338966 -0.4588063 -0.20276237 -0.12423503 -0.30484948 0.14209321 -0.2480362 0.41272026 0.07728471 -0.15116253 0.37872785 0.2573783 0.20695306 -0.23876418 0.042209756 -0.32259718 -0.1009436 -0.13390608 0.2582069 0.055487018 -0.04871485 -0.20127606 -0.19097401 0.27830046 0.14207312 0.00610865 0.07634387 -0.056371275 -0.055288453 0.1972087 0.021428363 -0.2586876 0.13922417 -0.01565417 0.20036325 -0.33750123 -0.15090151 0.05045851 0.1616172 -0.060274296 -0.22826314 -0.144602 0.34534824 0.010092785 -0.057524797 0.4471241 0.324432 0.41767624 0.20381612 -0.061218563 0.15591694 0.13609691 0.24631801 -0.054398954 0.18972246 0.3311089 -0.057539143 -0.13972168 0.290276 -0.36518216 7.778002e-05 0.020778032 -0.5892339 -0.088822916 0.07217895 -0.016202217 0.2541134 -0.14864932 -0.08043542 0.3110007 0.087226205 -0.2679339 0.07173353 -0.03199923 0.13740225 0.14434768 -0.053098965 -0.6382807 0.0032044097 -0.29204243 0.0021042407 -0.2107974 0.06916914 0.06533769 -0.11277542 -0.08413833 -0.017319461 0.02239658 0.1367417 0.31750664 0.12692736 0.24604604 -0.117544346 -0.14408505 0.033876166 0.010340851 -0.04687341 0.04945295
132 -0.31403187 0.61672866 0.46379963 -0.31474844 0.585105 0.44053712 -0.19382101 0.21979037 0.2755574 0.7094722 -0.08074559 -0.7070986 -0.046645842 -0.41485885 -0.23819591 0.09557507 0.45758906 -0.21540166 -0.3870239 -0.1502867 0.025687085 -0.09869563 0.11523953 0.47111678 -0.45271203 0.00830285 0.16678126 0.19510457 0.3019907 0.08331644 0.18658112 -0.08444423 -0.3573912 -0.23309514 -0.3172914 0.1682232 -0.301527 0.20732804 0.03168575 -0.5077667 -0.042825565 0.23566255 0.016968125 -0.20006621 -0.02450123 0.08554944 -0.3768475 0.09016141 -0.15342225 -0.07850927 -0.03515894 0.044689123 0.12399053 0.21782891 0.27758336 0.28828242 0.2561931 -0.38831636 0.09555996 0.014477138 -0.043432977 -0.2937178 0.08762555 -0.09401343 0.16330574 -0.2600193 -0.008151237 -0.11749452 0.19245021 0.15105236 -0.11213557 0.1380203 -0.04213823 -0.03080797 0.3222204 0.10106013 -0.05661972 0.2355115 0.07636188 0.2978031 0.2017395 -0.13366073 0.06624184 0.17261446 0.2302739 0.06117495 -0.12341949 -0.106978886 -0.088185966 -0.13985543 0.23774037 0.08011257 0.12195021 0.07088453 0.14022368 -0.4907074 0.274397 -0.02457523 -0.14176221 -0.06590232 0.2581931 0.02649486 -0.1659231 -0.03683391 0.10762233 -0.029460428 -0.17540605 -0.17269287 0.23293777 0.20893161 0.08393485 -0.25916225 0.034673646 0.063599706 0.17721839 -0.12401356 0.0079085585 -0.194173 0.12993439 0.17970046 0.008876901 0.46351942 0.11523846 0.12719847 0.002390002 -0.20523942 -0.0668201 0.04141388
131 -0.21123236 0.5494922 0.5317565 -0.31689414 0.52805525 0.47840273 -0.20410018 0.26594597 0.28588206 0.77483743 0.058082893 -0.6324975 -0.15082559 -0.544432 -0.3172702 0.064685136 0.43368995 -0.25642195 -0.31199646 -0.23741494 0.06534931 -0.1390388 0.081613734 0.5057739 -0.3653002 0.040219527 0.1350314 0.2345593 0.2874869 -0.015642082 0.10015366 -0.16273394 -0.28466657 -0.17189895 -0.22352022 0.047157064 -0.4561398 0.28376493 0.091176175 -0.30407766 0.07147697 0.097268544 -0.013718758 -0.22611488 0.09064143 0.03864953 -0.27946228 0.15743504 -0.034235764 -0.03813299 -0.09914827 -0.06504019 0.13738567 0.18362941 0.2857304 0.3692925 0.2408056 -0.30448446 0.049364515 0.029289925 -0.01631957 -0.31294206 0.17054848 -0.08405566 0.051475137 -0.18716498 -0.036188528 0.009236534 0.28763455 0.19213863 -0.282398 0.21660061 -0.059446823 -0.068418205 0.29811054 0.1630402 -0.12777604 0.16969441 0.066146396 0.23202081 0.31103522 0.10846882 0.08996551 0.24797241 0.21185045 0.06942432 -0.19488333 -0.034835417 -0.04678565 -0.15526202 0.12735547 0.013782968 0.044993687 -0.0664511 0.034720965 -0.5058019 0.20312244 0.11598103 -0.12739559 -0.12607068 0.19838557 0.06520389 -0.29038748 -0.014796623 0.07447409 0.1572526 -0.32838345 -0.21713345 0.15272221 0.21465863 0.20183332 -0.17976843 0.20985982 -0.13263452 0.13553162 -0.13794705 -0.01161092 -0.21293794 0.13877311 0.19866899 -0.044405706 0.44128564 0.096852414 0.11076931 -0.062879 -0.13720137 -0.17933647 -0.03140096
192 -0.31862068 0.3265936 0.059710037 -0.1975587 -0.31934038 0.24276188 0.23032573 0.24989146 0.14243183 0.10367066 0.007905645 -0.0037700585 -0.14240295 0.16579832 0.025550831 0.34367797 -0.082542315 -0.008842279 -0.37472785 -0.4179908 0.11676255 -0.2725359 0.43341246 0.26121688 -0.066572495 0.14959583 -0.45244625 -0.16474064 -0.117069565 0.29989704 0.23445608 -0.5310227 -0.17199022 -0.76550657 -0.21827146 -0.26778534 -0.30059618 -0.110460244 0.062700756 -0.18699163 0.061772037 0.34043884 -0.15903576 -0.12563394 0.04619594 -0.539269 -0.0056325467 0.16463588 0.3322897 -0.34471133 0.2790845 -0.33030152 -0.42888987 0.47727963 -0.3044679 -0.10658758 -0.178703 -0.15430583 -0.11815163 0.09063924 -0.04287469 0.12878585 0.23373042 -0.07034167 -0.014803049 0.015880704 -0.5267199 0.12946068 -0.20556906 0.06637434 -0.6487574 -0.08384016 0.27889296 0.17366418 0.21788652 0.32499763 0.33235836 0.07561148 0.10162431 -0.20468445 0.3854741 0.20554419 0.25404128 0.1684233 0.34071964 0.16952659 -0.11320347 -0.19981365 0.25727218 -0.01813481 0.11120915 -0.20241949 -0.20596685 0.046061166 0.14537539 -0.26340672 0.09392926 0.33515882 -0.0035921182 0.19968762 -0.18066551 0.16765586 -0.0010111992 0.07143453 0.010919556 0.07575294 -0.26005387 -0.27930483 0.09928752 0.023611668 -0.0021606034 0.13375756 0.19457094 0.05181879 -0.001563672 -0.29031911 -0.48690736 0.053480063 -0.38443056 0.51573175 -0.020183405 0.117629565 0.29695863 0.12286531 0.064948834 0.08980673 0.2651862 -0.21377888
183 -0.2496235 0.42143723 0.483142 -0.71493316 -0.027342703 0.33701193 0.22320434 0.35950172 0.20965625 0.64948004 -0.015950479 -0.37773806 0.0066738673 -0.20120698 -0.2629132 0.5177001 0.31389123 0.15091136 -0.023592733 -0.2378356 0.21867748 -0.0661042 0.19493614 -0.041207813 -0.34851158 -0.070126735 -0.083331965 -0.07590208 -0.07729787 0.072712116 0.37449798 -0.2318401 -0.38800555 -0.34200948 -0.24241443 -0.10928398 -0.066363975 0.12783054 -0.009918967 -0.06406842 -0.062330984 0.23186511 -0.17849697 -0.24805339 0.37790778 -0.046183232 -0.07847347 0.61931497 0.21611749 0.23034267 -0.016186295 0.046702348 -0.1617657 0.44222656 -0.180204 0.2329383 0.061814737 -0.11536527 0.15402314 0.2898165 0.07945178 -0.10462764 -0.0720953 -0.030391937 0.17954668 -0.31812492 -0.20190924 0.2581391 0.28644276 0.24905874 -0.09965214 0.11607928 0.05262755 -0.2774778 0.090860575 -0.033265844 0.3953242 -0.24721795 0.23134576 0.09390911 -0.24969831 0.07520431 -0.09442007 0.11483651 0.31600225 -0.010121343 0.18962237 -0.08458689 -0.09069861 0.06769755 -0.021898031 0.0012431504 0.1341869 -0.12881437 -0.090603694 -0.30736896 0.0034835932 0.1518221 -0.18091233 0.05459083 0.045711745 -0.20506833 -0.12894201 0.06098314 0.22506246 -0.010045833 -0.3009879 -0.024491094 0.16917285 0.1945902 0.15286866 0.23643255 0.013602902 -0.26283637 0.20280121 -0.062186386 -0.13951065 -0.13592602 -0.16796103 -0.17080243 0.19313425 0.4425394 0.048583403 -0.1490741 -0.04392963 -0.22446333 0.13097121 -0.025643919
184 -0.051473647 0.2978864 0.39691883 -0.54209876 0.018035097 0.35281438 0.17165159 0.17618795 0.17901763 0.585716 -0.053918652 -0.34259772 0.04323014 -0.5091179 -0.3218981 0.5495475 0.23494124 0.15789415 -0.044408653 -0.21078679 0.08263894 0.036660556 0.20620604 -0.005357408 -0.17555614 -0.08734012 -0.11883032 -0.028514668 -0.06786403 0.002359828 0.25804788 -0.24765794 -0.49477518 -0.4948351 -0.28945354 -0.11017002 -0.23176579 0.24133092 -0.04790689 -0.1571571 0.025338901 0.3494252 -0.19388364 -0.28985873 0.41171542 -0.060967967 -0.077378914 0.78529644 0.10516658 0.17200942 0.11964251 -0.038593195 -0.15908766 0.36664882 -0.3031401 0.22763301 0.10475835 -0.22913009 0.09153841 0.3372059 0.10915318 -0.17369494 -0.042432044 -0.11167734 0.122901335 -0.23377453 -0.22027509 0.10010728 0.3497937 0.26207852 -0.0025596786 0.05138211 0.038636833 -0.27427468 0.1696056 0.10557736 0.29963556 -0.0048073055 0.26316932 0.1536944 -0.31586194 0.03484536 -0.17731978 0.065959156 0.3483561 -0.05748887 0.18604656 -0.13126764 -0.1665516 0.15044351 -0.045387123 -0.07631071 0.0140760215 -0.06837605 -0.11796165 -0.37285024 -0.059720885 0.20723432 -0.116225936 -0.008378582 0.07449396 -0.17934626 -0.13052157 0.045550495 0.2321618 -0.07894119 -0.34241852 0.033859257 0.1239806 0.2659417 0.20824318 0.19160545 0.14053376 -0.2090507 0.3780507 -0.046574745 -0.2227149 -0.21623385 -0.11151771 -0.18992683 0.09261342 0.5131996 -0.020834042 -0.18129137 -0.14738412 -0.26989114 0.23925304 -0.10741191
66 -0.12733072 -0.45318788 0.07000868 -0.2689085 0.17290574 0.23170497 -0.13371572 0.19642025 0.16311516 0.4463338 0.12823129 -0.20689002 0.059976038 -0.18233788 0.064900324 -0.4520597 0.45957938 -0.237722 -0.24220923 -0.07423781 0.4157299 -0.087293096 -0.10518128 0.4134638 -0.119527675 0.120219424 -0.23416597 -0.07605722 -0.37846267 -0.2822262 0.25955585 0.037820045 0.15409769 0.0034844028 -0.3733353 -0.12044332 0.2199505 0.07612764 0.041835196 -0.12892614 -0.30562237 0.62153363 -0.54098654 -0.21555474 -0.33185998 0.15309829 -0.23606673 -0.04928441 0.0026992732 0.068651386 0.09935715 0.18996954 0.13993773 0.2701346 -0.44150046 -0.20855185 0.24748215 -0.4253021 -0.48962787 0.2017592 0.36221698 -0.4086904 0.19747713 -0.043655127 0.033469126 -0.1993248 0.07948602 0.24568805 -0.014858928 0.30373582 -0.017106375 -0.06757855 0.21064503 0.05404031 0.013265485 -0.09571874 0.2643128 0.093055926 0.0048045106 0.031831525 0.037526924 -0.11206968 0.04751508 0.11428116 0.18448399 0.14629723 0.023050634 0.06347972 -0.08946769 -0.06732466 0.05893318 0.06704891 -0.14977755 -0.334874 0.22742973 0.16872455 -0.2508836 -0.46744987 0.3119399 0.0014288159 0.08849977 0.07323389 -0.06894013 0.5124878 0.4301769 -0.11681575 0.09417515 -0.28940722 0.19486532 -0.26768112 -0.20477892 0.0363184 -0.17673326 -0.058817223 -0.24554545 -0.11846584 0.0033727244 -0.33205116 -0.068483636 0.07886612 0.14647265 0.24788046 -0.14430338 -0.19959518 -0.14098133 0.26499143 0.07231986 -0.16861556
67 -0.058944758 -0.40516195 -0.025582291 -0.3259769 0.29696116 0.12871586 -0.1326238 0.15496588 0.18459643 0.47433513 0.14745674 -0.099439315 0.18704224 -0.07244276 -0.069549166 -0.29992694 0.4326945 -0.23975188 -0.2358862 0.039661814 0.49391022 -0.14091685 0.026900828 0.35824376 -0.11065951 0.12541178 -0.2242642 -0.25795874 -0.35369834 -0.17154925 0.07737343 0.07036795 0.20911571 0.018284082 -0.28721896 -0.119233996 0.101864584 0.124475226 -0.030677782 0.021593168 -0.23184083 0.60369855 -0.6200632 -0.28492808 -0.27461594 0.21111184 -0.14768584 -0.03356089 -0.041097514 0.12594706 0.018940063 0.1617308 0.094896875 0.26070318 -0.40213665 -0.06462516 0.16690047 -0.3400502 -0.5979958 0.07352157 0.4531774 -0.37205642 0.092757426 0.08883093 0.15340266 -0.115913995 0.031565648 0.18983975 0.056351006 0.195104 0.12457394 0.010596486 0.2676636 0.0022556204 0.07006626 -0.032257885 0.25672647 0.04521451 0.010550581 0.08875149 0.019821718 -0.06646229 -0.054137677 0.16676159 0.13986863 0.20235723 -0.030884035 0.0679477 -0.086971655 -0.030213738 -0.033542417 0.05004367 -0.25632533 -0.38821828 0.18006259 0.09996668 -0.21646884 -0.4675596 0.25725517 0.03409241 0.08478798 0.14433809 -0.05687536 0.5097316 0.4379895 -0.171726 0.16147108 -0.34219772 0.19999567 -0.36444974 -0.19659266 0.1507878 -0.17221028 -0.039997716 -0.26650804 -0.18681477 0.048454553 -0.45177266 -0.007987226 -0.057156723 0.21077144 0.20421974 -0.26587975 -0.20840028 -0.17088887 0.15490428 0.005221386 -0.3474896
68 -0.011454465 0.35630435 0.48686683 -0.5285049 0.019331045 0.2035433 0.31317446 0.46714523 0.24512044 0.651683 -0.25969177 -0.34369013 0.04865634 -0.38004985 -0.49603483 0.40712392 0.33938164 0.42578992 0.12808202 -0.21242873 -0.033254504 -0.0689874 0.1394697 -0.074970454 -0.3087672 -0.0033957968 -0.07820879 0.1599848 -0.16855837 0.1567732 0.42813504 -0.24211733 -0.35071647 -0.28231537 0.08095168 -0.04843242 0.09133413 0.22750032 -0.12529741 -0.000107356 -0.022900928 0.05010755 -0.102336176 0.04677107 0.42858958 -0.07784151 0.17792112 0.91368747 0.17510274 0.17757282 0.152038 0.06238857 0.02934367 0.6352977 -0.29493147 0.04594147 0.27789202 -0.21811454 -0.016718382 0.4632426 -0.11437567 -0.13544588 -0.09274405 -0.13629368 -0.11019126 -0.11824484 -0.20194961 0.033971645 0.15104516 0.3830417 0.08795862 0.15470548 0.12811255 -0.26430264 0.0006461677 -0.0633561 0.28277555 0.015356281 0.20452781 0.11451024 -0.15350434 -0.0026988126 0.08788048 -0.08637258 0.49842012 0.085164525 0.078190215 -0.1942347 0.039250217 -0.08015576 -0.26544732 0.08226731 -0.009356327 0.097118884 0.0990811 -0.30279133 -0.07394571 0.3712354 0.0458377 -0.08467586 -0.034474295 -0.16368285 0.012166544 0.17974138 0.36554614 0.06549597 -0.35771826 -0.026443014 0.30232987 0.31261495 0.072601914 0.34079182 0.27344406 -0.04773456 0.23726898 -0.060534216 -0.36034596 -0.06463693 -0.096660644 -0.32659644 0.012618935 0.31112555 -0.09405355 -0.07585701 -0.016092496 -0.16289325 0.11134996 -0.14378005
211 -0.50972134 0.033978913 -0.38227767 -0.35097346 0.6120135 -0.1511049 0.14580657 -0.19739234 0.9211843 1.2392452 -0.24872251 0.31987348 -0.537578 0.5845037 -0.19006222 0.1322423 0.6914178 -0.4973533 -0.6286568 0.10533021 -0.33051956 0.3896547 1.0086708 0.32648373 -1.0222675 -0.2375565 -0.3094556 -0.15593421 -0.112282604 0.07592697 -0.28322175 -0.1925548 -0.03585243 -0.19151028 -0.34798157 -0.11552276 0.3073012 0.1266267 0.2342514 0.22608519 0.81373984 -0.08423782 0.095554166 0.03845812 -0.04716726 -0.28430066 0.048295744 0.5592146 -0.52194715 -0.11775112 -0.3626179 0.28998396 0.1631814 0.09028088 -0.513547 -0.28087932 0.22612394 -0.6557713 0.19927582 -0.28907394 0.3755877 -0.1972228 0.41000932 0.33627057 -0.11330688 -0.31927264 -0.10248486 -0.54097354 0.034248017 -0.062011555 -0.51369786 0.23567362 0.55722487 -0.4432476 -0.51549184 -0.15144576 -0.30808297 0.6980606 -0.21036756 0.1479735 -0.19855613 0.31402516 0.15493043 0.0036356472 0.04449407 0.20118412 0.23558183 -0.12456023 -0.25639087 0.032676823 0.021641538 0.20429824 0.16584326 -0.008750624 0.1812701 -0.05261835 0.0014570762 0.16238314 0.14648886 0.19921358 0.2002655 0.14663577 -0.30094826 -0.27584633 0.07042152 0.28378302 0.020838695 -0.38835827 0.1612796 0.3130411 -0.4621208 0.24216072 0.7312978 -0.07246452 -0.27167422 -0.2374188 -0.27150705 0.39290664 0.072960556 0.41685897 0.022826293 0.09181741 0.3232293 0.056706566 -0.22412683 0.51701325 0.34185457 -0.5585234
190 -0.23032776 0.4023613 0.054595508 -0.16209875 -0.3587673 0.36969706 0.16895397 0.39780432 0.1104094 0.19016553 0.08442616 0.060097534 -0.047567453 0.086418964 -0.12471678 0.45019305 0.06210013 -0.0039943596 -0.37508625 -0.5601572 0.12795514 -0.21596994 0.3626688 0.26958004 -0.041328516 0.3065392 -0.34988123 -0.0043332754 -0.16941573 0.2315758 0.3528109 -0.5858667 -0.1530879 -0.7033618 -0.22925194 -0.27680826 -0.1653324 -0.1662626 0.08570317 -0.25425592 0.04540436 0.3414207 -0.32885075 -0.15333414 0.006905233 -0.6436741 0.121799104 0.23374827 0.20396481 -0.34662274 0.3373397 -0.4382018 -0.6019555 0.4414954 -0.2919449 -0.050860465 -0.18877672 -0.15911245 0.09639205 0.18072079 0.01838904 -0.0010087908 0.17277738 -0.04171744 -0.03302003 -0.0038598645 -0.51539373 0.10497706 -0.12556443 -0.15046628 -0.6964875 -0.0047632777 0.2842076 0.07488673 0.06733918 0.29848474 0.48356342 0.17811713 0.13696359 -0.2508775 0.21654482 0.14947832 0.20188603 0.09846907 0.31915957 0.07175681 -0.15705901 -0.17763531 0.15833849 0.068352036 0.13908614 -0.19278425 -0.08748759 -0.17656887 0.11522369 -0.19950557 0.06276327 0.37521642 -0.05203888 0.27485985 -0.09729741 0.054395076 0.072946824 0.096961476 0.1412108 0.049594935 -0.27402538 -0.3571934 -0.013591704 -0.010167729 -0.06317977 -0.007394687 0.29939052 0.1160893 0.08271494 -0.1428279 -0.441297 -0.037743125 -0.3779555 0.63642436 0.022165984 0.014786981 0.3063128 0.1054916 0.015271693 0.08834159 0.25051677 -0.29311252
69 0.041837048 0.28764918 0.52455455 -0.56659436 0.039980352 0.17693824 0.24190894 0.49442098 0.2663912 0.66547084 -0.23548263 -0.297954 0.005033017 -0.28328973 -0.5162274 0.3589243 0.33360595 0.3175893 0.06202548 -0.29863894 0.029751047 -0.10115722 0.16121382 -0.071550146 -0.27226132 0.054901067 -0.04782599 0.091714 -0.245105 0.11347476 0.40915766 -0.3073335 -0.33928263 -0.20790264 0.011310488 -0.08927709 0.15956524 0.30844948 -0.22227402 -0.006424688 -0.02198645 0.06470046 -0.09545194 -0.037614007 0.35010788 -0.07816892 0.18859163 0.9493292 0.15902433 0.25884536 0.09761282 -0.008057862 -0.021231646 0.64133054 -0.21912971 0.11385603 0.23905614 -0.25831333 -0.015329448 0.44062588 -0.11900766 -0.18193904 -0.0020132384 -0.05496274 -0.005629514 -0.051089097 -0.21033667 0.16225678 0.23070273 0.38102698 0.009926223 0.2171892 0.113606684 -0.2626664 -0.0025089795 -0.027612124 0.31799808 0.012795448 0.24517636 0.13391379 -0.06646302 0.041930906 0.15507188 -0.17887926 0.5010593 0.197742 -0.009068889 -0.21623565 0.090118006 -0.11744305 -0.3852356 -0.067489095 0.050885323 0.09191742 0.20188943 -0.34815148 0.0015800191 0.36173266 -0.009275152 -0.05328244 -0.06399483 -0.10297792 -0.0024125625 0.1275144 0.4295234 0.10728008 -0.4514511 -0.034858394 0.3202163 0.37488416 0.115362115 0.3315453 0.14733124 0.03793994 0.29653183 -0.067651354 -0.3299029 -0.0652505 -0.086680755 -0.37945727 0.05156213 0.40929544 -0.14529434 -0.138484 -0.032864407 -0.25855246 -0.01623697 -0.05389519
25 -0.3212367 0.04355881 0.017975945 0.37669614 -0.007422716 -0.39054504 -0.009292641 -0.3116163 0.22447185 -0.014946738 -0.22102681 -0.32772285 -0.16375826 -0.42543426 -0.014910708 0.2271759 0.13648987 0.13879544 0.20429003 0.095311366 0.17114857 -0.38581607 0.24555835 -0.13914521 0.036591783 0.0994696 0.15975276 -0.046956632 0.06892218 0.28049433 -0.044123705 0.412969 -0.47630334 -0.10852006 -0.28282997 0.031173445 0.23667137 0.49864373 0.06948595 -0.50495046 -0.111292005 0.2636775 -0.05436087 0.36210296 -0.20508789 0.06380142 0.029000286 0.14190142 0.4821999 0.4096594 -0.52356046 0.12306012 0.19889629 0.27489495 -0.44557643 -0.23187377 0.12691076 0.19411653 0.16391358 -0.18048438 0.15020485 0.012358006 0.1320948 0.07905634 0.024071656 -0.40609467 -0.21333311 0.17801692 -0.26057723 -0.43586352 -0.12853082 0.02943367 0.18308939 0.28516272 -0.46017012 -0.2072474 0.18949832 -0.0402615 0.17028524 0.30358386 -0.133183 0.06562514 0.03201074 0.20806216 -0.13100101 0.15697469 -0.38414723 0.013823336 0.06755924 -0.08309422 -0.3415285 -0.27001104 -0.26641324 -0.43562913 0.17447764 0.24582773 -0.026739618 -0.017070508 0.004238837 -0.14746317 -0.09940317 0.27868024 0.13129652 -0.14278845 0.004665638 -0.24174722 -0.21415384 -0.09001667 0.42985284 0.14107908 -0.17330283 0.21946089 0.51602095 0.25439534 0.037818898 0.008812299 -0.007968137 0.2021574 0.16420028 0.23136725 -0.15993473 0.22115593 0.17284957 0.16174047 -0.21242727 0.30667615 0.32924503 -0.4538394
158 -0.28006032 -0.40105125 -0.06992099 -0.50175387 -0.24833147 0.21487775 0.26354083 0.077150375 0.36433816 0.51874715 -0.3653571 -0.6806395 0.33490735 0.09491343 0.10992506 0.06215231 0.42761236 0.45017195 -0.532625 0.013352089 -0.26895177 -0.27869603 0.34194657 0.12589154 -0.51132756 -0.2925718 0.020518854 -0.22112241 -0.3517135 0.3519279 0.070328355 -0.1039776 0.104391776 -0.17681538 0.12678866 -0.14133398 -0.160781 0.3152356 0.07618256 -0.28896374 0.29717773 0.2664451 -0.80230445 0.08493524 0.22388832 -0.444223 0.07555465 0.66208553 -0.014742653 0.26375854 -0.13418302 -0.022466486 -0.05398436 0.43573964 -0.24120812 0.090217665 0.14753243 -0.27421534 0.3973585 -0.1409639 -0.17073931 0.12009123 0.036294 -0.03629695 -0.14016935 0.13351159 0.013503743 -0.2311054 -0.7356882 -0.0027494614 -0.46106568 -0.00027411804 0.121348135 -0.5872938 -0.6045228 -0.28794014 -0.21530649 -0.24186009 -0.28633526 -0.8184645 -0.17796448 0.19641808 0.33666202 0.032571297 0.56561047 -0.124399886 -0.36666232 -0.4032451 -0.11237193 0.059148554 0.09675441 0.11420786 -0.32815027 0.20910886 0.10593497 -0.04321642 0.06454751 0.7569925 -0.41637334 -0.1960548 0.23705594 -0.5156763 0.08977134 0.3266941 0.060701173 0.09440562 -0.6009615 -0.40899864 -0.011796771 -0.26062006 -0.0020319233 0.33705834 0.10540029 -0.08150535 0.6473309 -0.7880458 -0.18536364 -0.0046945047 -0.21196897 0.43563545 -0.08196332 0.13559256 0.083455324 0.13619609 0.20708454 -0.062388178 0.21762194 -0.0992696
159 -0.18737313 -0.51109195 0.017988756 -0.4495581 -0.26506862 0.23462577 0.09994888 -0.001060237 0.2539428 0.42795023 -0.34881663 -0.64666194 0.2667406 0.12577787 0.039478023 0.011562207 0.5409054 0.4835787 -0.5590524 0.06529518 -0.15526196 -0.33440435 0.49246234 0.27769575 -0.5150814 -0.17579107 0.039428636 -0.20455392 -0.33768252 0.33314735 0.22814384 -0.15713403 0.008904519 -0.12609573 0.09860772 -0.17252007 -0.120402426 0.3742359 0.089024276 -0.2619557 0.35053316 0.22533971 -0.7505584 0.04674458 0.24536677 -0.34070536 0.057239346 0.5670087 -0.07257179 0.28603843 -0.14839298 -0.04736239 -0.036404774 0.48061803 -0.2922223 0.20378976 0.09676772 -0.26051274 0.42160505 -0.038172636 -0.23766473 0.14685033 0.01419153 0.03404066 -0.14250006 0.10551196 -0.17190692 -0.22551624 -0.62339795 0.0008845931 -0.3926692 0.09495981 0.068234205 -0.5479269 -0.52980244 -0.18478325 -0.17965288 -0.19134387 -0.27805105 -0.8374258 -0.19760846 0.18978108 0.3786069 -0.031077085 0.5863955 -0.15761764 -0.36559427 -0.41461235 -0.01962543 0.21866272 0.18189184 0.07183697 -0.25116244 0.30784914 0.052867725 -0.07250674 -0.056928404 0.92395866 -0.43531275 -0.14764121 0.21740061 -0.42743987 -0.012365619 0.13458948 0.07302743 0.03548551 -0.5712801 -0.38830942 -0.019954506 -0.25705892 -0.028901242 0.16914633 0.15756084 -0.12960377 0.64771885 -0.9054463 -0.11345137 0.029370662 -0.2210112 0.3879264 -0.043574084 0.15200073 0.123900905 0.10720903 0.20059144 -0.17063703 0.2531317 -0.18338914
160 -0.13046175 -0.4613844 -0.07730986 -0.39385423 -0.2595804 0.24383035 0.13555476 -0.031871818 0.22528616 0.42189366 -0.35681608 -0.5550479 0.26517516 0.057082117 0.07595542 0.17141142 0.62234175 0.6628678 -0.5321631 0.015385745 -0.1354669 -0.38039312 0.5518487 0.18136996 -0.6100406 -0.21379563 -0.027756419 -0.22511275 -0.32826778 0.39842212 0.076791525 -0.13272682 0.15538855 -0.16640176 0.13624693 -0.13471317 -0.23321642 0.3742848 0.04447674 -0.1457228 0.3035998 0.19719143 -0.72240716 0.2280897 0.2764745 -0.276477 0.018004349 0.52370226 -0.061526615 0.36569813 -0.08695728 0.036201335 -0.06521734 0.48033398 -0.33054334 0.08892702 0.09726905 -0.27201557 0.271969 -0.029898172 -0.25937906 0.12454573 -0.016500726 0.030773975 -0.062050637 0.06626966 -0.027174205 -0.26240277 -0.60411674 0.095783174 -0.40774617 0.08975955 0.16035697 -0.5543983 -0.49832007 -0.18317583 -0.19749512 -0.25988442 -0.35695606 -0.76353097 -0.16850212 0.34778237 0.3056627 -0.11155951 0.6076512 -0.124279 -0.39734316 -0.38205844 0.018742457 0.09998307 0.18975914 0.1377619 -0.352145 0.20483856 -0.06172313 -0.06790719 -0.02494049 0.8135085 -0.25188193 -0.15202402 0.116486184 -0.51829207 -0.0644233 0.27918094 0.102373056 0.1273667 -0.55976033 -0.4610028 -0.09614226 -0.33167586 -0.024410436 0.24244885 0.16997051 -0.30439934 0.5118665 -0.8597747 -0.15572898 -0.01705973 -0.25743347 0.3635604 -0.16208896 0.011004979 -0.031908225 0.029299172 0.2891604 -0.037756637 0.1706074 -0.22991474
55 -0.21339835 0.09609183 -0.09614323 0.2134229 0.18542883 -0.2978418 -0.13489251 -0.36511606 0.3288611 0.09823724 -0.14359456 -0.27717057 0.033236995 -0.53300595 0.19013163 -0.30953005 0.23444246 0.018160177 -0.24988815 -0.03158785 0.4684637 -0.25535873 0.4543644 0.08713771 -0.13716646 0.012670996 -0.059818756 0.025460808 0.1834287 0.34310687 0.052404303 0.33313173 -0.27638406 -0.21724905 -0.059205107 0.08601243 -0.059554256 0.30883572 0.018508527 -0.44726473 -0.24154882 0.16232891 -0.08020561 0.41029656 -0.024480063 0.16239648 -0.25965193 -0.003504553 0.43634185 0.31867585 -0.47281873 -0.051228758 -0.050195217 0.36392495 -0.06124629 -0.040456224 0.02280394 0.3375825 0.36573046 -0.18671384 0.046690926 0.029682105 -0.05811692 0.09992236 -0.07149359 -0.4357725 -0.12299959 0.12912114 -0.022775574 -0.09606234 -0.09855249 -0.062194254 0.22082178 1.2872055e-05 -0.06900381 -0.1993978 0.35297185 -0.17171942 0.29360625 -0.04306544 0.07363331 0.1760278 0.019918114 0.17134507 -0.20669016 -0.072668746 -0.18571255 -0.006503482 -0.10527316 0.14809832 -0.33106828 -0.2583918 -0.109110825 -0.40227914 -0.12355998 0.13015299 -0.112437226 -0.021552911 0.34935078 -0.13874176 -0.07859742 0.46906948 -0.1280453 -0.30111483 -0.106150515 -0.19673567 -0.15877591 0.26602197 0.25589296 0.0514717 -0.06240561 -0.112640224 0.2833793 0.0006908926 0.11746434 -0.05741326 0.02477709 0.34174657 0.06456421 0.17351812 -0.23627767 0.038302764 0.18672088 0.044884358 -0.07433282 0.12368973 0.40517348 -0.24461791
217 0.5468486 -0.11321187 0.36608806 -0.5859772 -0.20443408 0.31545067 -0.5277192 0.1459964 0.29562038 0.66124994 -0.5468892 -1.0501387 0.6131125 -0.31785426 0.3029838 0.35188612 0.57509077 0.35035765 -0.4243955 -0.0711206 -0.19657484 -0.307911 -0.038330186 0.7019864 -0.57362777 -0.35998693 -0.78467447 -0.19052522 -0.023302462 -0.04979207 0.17381114 -0.066125415 -0.14259678 -0.003058585 -0.314219 -0.13071886 0.076367624 -0.05770735 0.46077663 -0.5396307 -0.27781567 0.81022066 -0.47149453 -0.100107156 -0.09756203 0.019185973 -0.04274395 0.58427054 0.29859856 0.25233564 -0.018138036 0.2072279 0.260173 0.119284645 -0.555898 -0.036972426 0.18123291 -0.12182918 0.28084964 0.07725999 0.6878972 -0.1665897 -0.07808414 -0.62567616 0.42332178 0.2231429 -0.19640057 -0.13138443 -0.31130922 -0.1902301 -0.107166015 -0.2621968 0.23446788 0.06368194 -0.028778914 -0.33724624 -0.41603866 -0.06235123 -0.29466563 -0.082816996 -0.07604443 -0.19611748 -0.040770013 0.008815844 -0.25758496 -0.19595437 0.25469103 0.037006587 0.11690862 0.22792092 0.2839002 -0.46378896 -0.075178504 0.11014707 -0.27646992 0.26672843 -0.4733803 -0.19510245 0.9386307 0.34200394 0.21942057 0.065683216 -0.62986547 0.27600166 0.34437844 -0.21933281 -0.0019189112 0.12104149 0.67985916 -0.3102128 0.20240852 0.36708543 0.235804 0.036184497 -0.42966455 0.2871543 0.16717297 0.0006520807 -0.21812026 0.07456447 0.13202435 -0.4728294 0.10636729 -0.042938333 0.49141034 -0.004359842 0.11108408 -0.036312345
6 -0.3238011 -0.07052477 -0.018157547 0.4667689 0.07322377 -0.42945942 0.006854353 -0.45923606 0.16774152 0.035900652 -0.15421681 -0.2861014 -0.14459123 -0.43360728 -0.004038149 0.17760412 0.25104263 0.16683978 0.2843393 0.21459822 0.21821633 -0.3453383 0.24935354 -0.07317487 0.04432327 0.18599235 0.22816375 -0.08822139 0.12923034 0.21255566 -0.062401123 0.4013178 -0.635074 -0.085548334 -0.20876117 0.11448819 0.1280597 0.60153633 0.16217126 -0.46499273 -0.044786178 0.15426332 0.08263509 0.43901017 -0.13811782 0.14372627 0.10407871 0.11667908 0.48812863 0.39731085 -0.6431779 0.12581615 0.2811974 0.4965812 -0.47783512 -0.14484252 0.04262434 0.1232651 0.009769868 -0.038593404 0.22547403 0.035912886 0.22590335 0.1786721 0.06073143 -0.40942344 -0.2735875 0.19611424 -0.1566673 -0.44516456 -0.19883305 0.04324025 0.09126362 0.07429721 -0.43552953 -0.145305 0.18832207 -0.0023422833 0.08537051 0.32050732 -0.12157662 0.07166536 0.11250661 0.0019556158 -0.095587924 0.2194155 -0.33357516 -0.034041706 0.08237643 -0.10628287 -0.2809162 -0.31479627 -0.28041726 -0.4327498 0.054799527 0.24472348 -0.11003061 -0.026800951 -0.06731673 -0.11651557 -0.003474273 0.2603562 -0.054894157 -0.124794215 0.07299396 -0.32373098 -0.14122434 -0.15934625 0.49163142 0.06161344 -0.03059359 0.2336409 0.5579393 0.115010984 -0.005289937 -0.048399195 0.028776646 0.1354197 -0.0013929708 0.22568205 -0.17163947 0.17667374 0.13115981 0.13218004 -0.15856941 0.27112293 0.41049913 -0.48027924
193 -0.3420853 0.26334295 0.052355714 -0.25347066 -0.17485613 0.3668595 0.21982525 0.34970796 0.09714139 0.09865346 -0.061937254 -0.026431497 -0.08679694 0.056279555 -0.041431956 0.44839162 -0.0916315 -0.008081551 -0.3701593 -0.47804812 0.2797713 -0.14469358 0.36873877 0.12460522 -0.13084094 0.12030777 -0.39121684 -0.026330823 -0.16922283 0.23125952 0.22321235 -0.53205407 -0.23362386 -0.8089519 -0.14547874 -0.2025636 -0.22652811 -0.040998638 0.05770434 -0.24609557 -0.048511814 0.38189295 -0.29620454 -0.20414439 0.11624105 -0.59860116 0.04648033 0.23321341 0.28034848 -0.29241318 0.363181 -0.29487085 -0.42923394 0.40603897 -0.23562765 -0.0698142 -0.27868417 -0.18893808 0.050151255 0.050330106 0.021604436 0.17948358 0.27454954 -0.10587978 -0.01220568 0.08465992 -0.5754571 0.20322357 -0.03311282 0.035562787 -0.6470083 0.04259741 0.25220844 0.088842794 0.08250776 0.26879895 0.33179432 0.06936833 0.096812315 -0.15226915 0.14429325 0.21811846 0.17981973 0.20800227 0.26854572 0.052033026 -0.031024508 -0.14328282 0.25025874 0.07281288 0.11377693 -0.22091037 -0.21680236 0.0056859395 0.13310261 -0.28645262 0.087292805 0.28389657 -0.031220851 0.23367442 -0.03188083 0.06265209 0.05373933 0.061433796 0.055450324 0.100985944 -0.33082488 -0.32284784 0.099526875 0.09168744 -0.017433543 0.03736386 0.27419433 0.08766958 0.13236627 -0.27108666 -0.48141748 -0.0022843727 -0.25528428 0.51825637 0.098437294 0.09714206 0.29017225 0.19919132 -0.052175432 -0.040462922 0.2831407 -0.2615732
161 -0.17766967 -0.40370774 -0.03448593 -0.49421516 -0.33315223 0.2202263 0.27978745 0.04664801 0.30356228 0.50902504 -0.3165886 -0.5081291 0.1516936 0.10300487 0.0097513925 0.026873935 0.5336864 0.5721885 -0.5539238 -0.048880447 -0.15036952 -0.45607182 0.5732414 0.13731267 -0.61078364 -0.16937731 0.02534357 -0.18320045 -0.33441594 0.33276904 0.18435924 -0.03749402 0.091210224 -0.038985867 0.10967873 -0.21969847 -0.20181726 0.29543754 -0.021046262 -0.15790357 0.3098349 0.16256228 -0.7896339 0.12846151 0.21899973 -0.29040498 0.1264042 0.5416901 -0.113458484 0.46890718 -0.07005923 0.106440306 -0.1301155 0.3807493 -0.28563175 -0.019207956 0.16504452 -0.24927294 0.5122539 -0.015418366 -0.2936109 0.112389825 0.07531602 0.04245242 0.09846009 0.13474946 -0.0114749605 -0.3467367 -0.59073037 -0.004416006 -0.49360356 0.07309745 0.18774788 -0.5192366 -0.55194384 -0.1961237 -0.27559966 -0.24233435 -0.28889462 -0.80389947 -0.13629207 0.25362095 0.4326893 -0.053020332 0.6005722 -0.06711782 -0.42608956 -0.39195946 -0.06760648 0.055323884 0.079912014 0.17413239 -0.3328417 0.23474796 0.02576963 -0.119908266 -0.038336035 0.8058141 -0.23109771 -0.05406413 0.17669454 -0.4741057 -0.033718355 0.28909943 0.12628846 0.18780704 -0.46072152 -0.46589735 -0.12452458 -0.2630454 -0.083769195 0.2391841 0.1876732 -0.13289882 0.7346039 -0.7648927 -0.11276438 0.0010940955 -0.1349384 0.3967704 -0.04205043 0.1825768 0.05429341 -0.06131061 0.31938475 -0.05223423 0.112427905 -0.21501826
216 0.4996576 0.067783825 0.31613338 -0.6231827 -0.12311314 0.36460042 -0.38465592 0.19474752 0.19282685 0.6721466 -0.38296768 -1.0753933 0.6037992 -0.21877739 0.30436274 0.15357834 0.67011034 0.3738823 -0.59934753 -0.13091913 -0.25930664 -0.34932855 0.10860971 0.9010136 -0.796151 -0.35213456 -0.8263319 -0.18402025 0.06585581 -0.07578825 0.37269962 -0.072341554 -0.059428528 0.035263546 -0.39565536 -0.105967656 0.08653448 -0.1359303 0.40786567 -0.5618535 -0.38036105 0.875161 -0.5768266 -0.18054235 -0.18939361 -0.00036227252 0.044105403 0.4508336 0.2962781 0.37115297 0.09100592 0.12651628 0.0982795 0.07944992 -0.5680795 -0.18192524 0.15522516 -0.10882424 0.33927816 0.13378412 0.58573323 -0.16900459 -0.025527311 -0.58328795 0.45741004 0.21069331 -0.12058875 -0.1499242 -0.30412796 -0.30074343 -0.17143638 -0.32350868 0.31793183 0.07590515 0.012600131 -0.3027393 -0.33796677 -0.12027975 -0.32346854 -0.07252013 -0.027330903 -0.19157635 -0.07126246 0.119081356 -0.23229079 -0.12964872 0.22377938 0.017378686 0.08747706 0.13823006 0.23985238 -0.47091356 -0.17646758 0.08982352 -0.26988536 0.19260868 -0.5032978 -0.28890938 1.0006945 0.35634935 0.19731043 0.040800676 -0.6733421 0.35866362 0.328591 -0.293987 0.13984339 0.11099892 0.5644755 -0.21527816 0.19150986 0.31889993 0.17328322 0.20144087 -0.38835472 0.5201578 0.2286004 0.036122058 -0.1451126 0.14385752 0.1791379 -0.39703387 0.10774539 -0.16154896 0.48056754 0.09250194 0.033052746 0.018238336
171 -0.06986482 -0.24173416 0.28008783 -0.36677518 0.3323164 -0.19871475 -0.03909225 0.061972167 0.5017971 -0.052127536 0.1968549 -0.21801186 0.36934748 -0.27466917 0.28503373 0.013094379 0.1977363 0.04606842 -0.030575521 0.12538652 0.31793332 -0.12900807 0.089480236 0.24488704 -0.4017063 0.089535005 -0.23275307 0.16247581 -0.10130592 0.123715006 0.29749137 0.011988909 -0.08664939 0.1636591 0.31703106 -0.26442224 0.08867268 0.14960659 0.097613804 0.11775832 -0.23264475 0.48324612 -0.4285685 -0.4090013 -0.23463356 -0.0639791 0.022720207 0.17773233 0.1582896 0.19348493 -0.41104752 0.4245176 0.19743808 0.22582208 -0.23906496 -0.047311235 0.061335497 -0.331066 -0.14540471 -0.23664255 0.17688188 -0.13165718 0.27436727 0.044285934 -0.19422849 -0.45686242 0.12263827 -0.15754755 -0.08715719 0.2292056 -0.25457582 -0.1694978 0.04650751 0.11341427 0.019158868 -0.37828133 0.32676414 0.09302411 0.025907682 0.05205882 0.17174977 -0.008598154 0.41221163 0.12992446 0.09379555 0.10484731 0.24676113 -0.027118962 -0.26590708 0.09094492 -0.087569736 0.04251217 -0.09808591 -0.14705907 -0.24679375 0.50547016 -0.13276358 -0.27545553 0.13592412 -0.049881693 -0.16479208 0.27129126 -0.24058273 0.110366195 0.29704225 -0.16901046 0.4600856 -0.23665218 0.18628891 -0.082738906 0.3318631 0.0017634735 -0.0693335 -0.03843012 -0.0770528 -0.16240688 -0.02296799 -0.07570248 -0.05634768 0.053546384 -0.08423368 0.039581362 0.24668391 -0.23395024 -0.025785042 0.14155923 0.107569665 0.104886435
170 -0.09646385 -0.47908002 0.15126608 -0.28178573 0.36891612 -0.16818333 -0.06365475 0.040684048 0.4274943 -0.020667978 0.19623756 -0.17692 0.30011812 -0.34424004 0.2952032 -0.07387616 0.0662386 -0.020999465 -0.015689489 0.009528462 0.45686296 -0.17283292 0.07260603 0.19062606 -0.30840835 0.09335853 -0.17593263 0.19475514 -0.2643416 0.04281054 0.20366284 0.049565848 -0.03413496 0.11754418 0.3229494 -0.24311201 0.07946819 0.17134686 0.11316116 0.15497935 -0.26150608 0.52006567 -0.4868533 -0.53461677 -0.13535713 0.06060652 0.01711977 0.20717826 0.12205498 0.25881222 -0.3171471 0.3721122 0.25327295 0.34913298 -0.3587527 0.014700278 -0.0024052868 -0.4232371 -0.15655471 -0.18453683 0.12079652 -0.23782927 0.17900582 -0.097012304 -0.2545184 -0.2272623 0.059879333 -0.32067898 -0.065736845 0.2036565 -0.3039435 -0.15691784 -0.05829282 0.00993967 0.04747637 -0.34772387 0.30145475 0.21493624 -0.06964656 0.009989343 0.22963649 -0.011831872 0.5157641 -0.065131046 0.091937736 0.112405784 0.21317382 -0.088031225 -0.14868793 0.17704186 -0.161017 -0.058462776 -0.14889772 -0.09888395 -0.22224729 0.45488372 -0.14851491 -0.17537838 0.20714645 0.10344866 -0.11193062 0.31814682 -0.28602165 -0.034279883 0.3543836 -0.0686157 0.3330394 -0.20344488 0.21453466 0.022406368 0.29866344 -0.03989143 0.094481125 -0.042967692 -0.04588541 -0.27638054 -0.052068356 -0.121396124 -0.055507284 0.14208536 -0.055941373 0.055460803 0.2515301 -0.20981562 -0.010804191 0.074952796 0.14932688 -0.06489547
191 -0.3292251 0.42060536 0.10950303 -0.24490657 -0.29199702 0.289049 0.25000572 0.34352094 0.09764119 0.06400315 0.0026476781 0.027054325 -0.14939117 -0.07427945 -0.02721509 0.29451331 -0.110934235 -0.040309545 -0.38406858 -0.56549406 0.09511046 -0.31003836 0.43840763 0.31580383 -0.027966324 0.22295205 -0.3732992 -0.04604971 -0.06125359 0.27844852 0.2928839 -0.51633805 -0.16911227 -0.8019908 -0.14079736 -0.21527916 -0.19188671 -0.11762128 0.058628432 -0.22683555 0.053907543 0.30160344 -0.3442556 -0.13485673 0.04607558 -0.576235 0.1144645 0.23982282 0.28965458 -0.27561527 0.3722431 -0.29886097 -0.5315289 0.36030075 -0.38060454 -0.052839484 -0.19955426 -0.18055682 0.106161155 0.11339663 0.035805374 0.11102736 0.15357843 -0.09559229 -0.020704595 0.1272887 -0.5133201 0.20209041 -0.15220985 -0.04151816 -0.66143864 -0.009921057 0.19988143 0.15128218 0.06628598 0.30759597 0.3680319 0.16935802 0.14374535 -0.19071046 0.17977121 0.17699653 0.13985062 0.22887965 0.29334447 0.13861538 -0.012804452 -0.16402692 0.24988458 0.013332828 -0.0021503859 -0.25426492 -0.21136451 0.003477932 0.18564641 -0.258847 0.052041035 0.19229679 0.033852857 0.18386418 -0.10688123 0.085975096 0.0020898818 0.05639278 0.029660234 0.018401098 -0.25960618 -0.31608132 0.048038248 0.06738109 -0.027507981 0.028869897 0.21794385 0.10351646 0.15023494 -0.16179135 -0.48322242 0.0616452 -0.2551285 0.5217372 0.10158795 0.17781134 0.26760218 0.081736594 0.024661254 0.0018183417 0.28088483 -0.20903166
209 -0.5613656 -0.09401387 -0.2921555 -0.47487712 0.5796058 -0.085169435 0.18544826 -0.11954036 0.836448 1.1448039 -0.22254778 0.31880078 -0.48032686 0.61039686 -0.19179657 0.16339128 0.7855367 -0.47316676 -0.58183384 0.11100068 -0.29625225 0.37939864 0.88086843 0.16758922 -1.023775 -0.2408471 -0.20962772 -0.10963893 -0.21878561 0.13012818 -0.33264676 -0.19282527 -0.057241715 -0.17782556 -0.34368902 -0.16666341 0.3420426 0.15493514 0.167518 0.11090688 0.75881076 -0.097111486 -0.024429733 -0.037213445 -0.0073220623 -0.2753727 0.044207845 0.56284237 -0.569806 -0.10762423 -0.31764415 0.30312625 0.06116917 -0.006449111 -0.41713598 -0.14865363 0.18507092 -0.6360728 0.16879797 -0.27849355 0.21039191 -0.16805814 0.39769453 0.40555072 -0.0784212 -0.20557824 -0.03269346 -0.46079916 0.0597152 -0.008597819 -0.5003449 0.3319724 0.599283 -0.44219777 -0.5283387 -0.061207253 -0.2598669 0.5627446 -0.12381549 0.11366104 -0.1480737 0.25637576 0.22433926 -0.027992064 0.005825251 0.10676258 0.25970945 -0.108852185 -0.26669508 0.072690815 -0.095866196 0.16954865 0.12976065 -0.0615525 0.19755132 -0.096885495 0.09429736 0.13749108 0.07613658 0.22450846 0.19066338 0.14270134 -0.27284214 -0.16363704 0.12175658 0.26621738 -0.050573956 -0.39161858 0.2323558 0.3772152 -0.39117545 0.21661241 0.6633883 0.0037728022 -0.09207908 -0.28354475 -0.38821673 0.37935203 0.062402118 0.39052147 0.094178736 0.088741496 0.34807757 0.047105264 -0.2576318 0.43585506 0.30321074 -0.5884036
46 -0.18596108 -0.032234352 0.16498357 0.15727179 0.26854864 -0.19924176 0.02219812 0.038992286 0.26450092 0.13529515 0.034541413 0.12995143 -0.1538336 -0.30681 0.076036066 -0.13569728 -0.06433092 0.02344702 0.020214124 -0.14869791 0.49369708 -0.27264675 0.20125447 0.021792669 -0.10007767 0.07038313 -0.0976045 0.19560888 0.06734855 0.2484036 -0.1283519 0.24728431 -0.24915206 -0.14539073 0.009328095 0.22492059 -0.0059692687 0.25181878 -0.016566616 -0.24179292 -0.21834967 0.26560023 -0.16809057 0.29786897 -0.22160478 0.07686037 -0.27999496 0.19541213 0.3589331 0.21223344 -0.5427552 -0.098139726 0.29580274 0.6348201 -0.20209675 0.049347356 0.26623344 0.03609476 0.3461797 -0.15712631 0.0855205 -0.06951341 -0.332003 -0.03690035 -0.5199279 -0.32176822 -0.08771432 -0.042696457 -0.10421053 -0.14136377 -0.15281571 -0.26465705 0.4536272 -0.4859472 0.047164336 -0.165436 0.67155117 -0.11864506 0.22022754 -0.16762875 0.158202 0.09877703 -0.09275864 -0.19520701 -0.020432152 -0.062398348 -0.39319524 -0.16547431 -0.21519692 0.14495373 -0.20766431 -0.07396166 -0.11959275 -0.41008523 -0.1850381 0.1397723 -0.018219981 0.05508188 0.37603983 -0.12218542 -0.25392798 0.4503854 -0.216508 -0.31266764 0.20942453 -0.015343656 -0.23881134 0.31793442 0.27119756 -0.011737548 -0.14357325 -0.015491456 0.35504383 0.04437703 0.0927018 -0.0090227155 -0.0040813847 0.2874524 -0.13770072 0.25760463 -0.41758358 -0.09287723 -0.085442975 0.056771845 -0.24104229 0.0071080346 0.17348598 -0.17031367
15 -0.32731512 0.25267532 -0.23382267 0.22498655 0.18592216 -0.45022622 0.17940995 -0.280668 0.26441047 0.13272226 -0.005058419 -0.3069373 0.11912151 -0.48924354 0.07893766 -0.12197534 0.0684831 0.19806357 0.18957195 0.07497419 0.17933407 -0.2681726 0.22028856 0.04485511 0.102177754 0.10078297 0.14986981 0.00025886556 0.24004415 0.13284773 -0.20617272 0.40089083 -0.3955081 -0.3252377 -0.15921883 0.11149431 0.18997982 0.43687156 0.11514776 -0.4812376 -0.21670844 0.15717407 -0.079937786 0.6102937 -0.21315649 -0.0018528558 -0.19913466 0.22117019 0.40802592 0.48341247 -0.64345115 0.06697146 0.18430321 0.37973467 -0.264669 -0.18079965 0.09172882 0.064143024 0.08886951 -0.09585726 0.18538275 0.07206445 0.07068084 0.06217042 0.014187123 -0.32820404 -0.0069867657 0.22518 -0.14158545 -0.3079282 -0.25328702 0.1128246 0.07760382 -0.08450572 -0.37244502 -0.24326836 0.3426039 0.09725669 -0.023641089 0.30439162 -0.14558668 0.16522297 0.07420366 0.30488822 -0.054888472 0.14432932 -0.3561382 -0.20695208 0.11455478 0.00479026 -0.25352222 -0.37880132 -0.33784795 -0.38736925 0.017270228 0.31027085 0.155546 -0.04854148 0.02358901 -0.11065904 0.05551467 0.15598127 0.09578246 -0.1141357 0.078010514 -0.19098854 -0.07416913 -0.024114082 0.28943014 0.25392875 0.023181329 0.17636856 0.45593715 -0.08091156 0.06760398 0.08825335 -0.056492887 0.24694943 0.10144571 0.30893317 -0.20406744 0.13477838 0.20778751 0.0051914705 -0.12468909 0.29785442 0.42688888 -0.12445368
35 -0.18139717 0.051033363 -0.0012300974 0.13082771 0.087726764 -0.44414598 -0.17838998 -0.28384405 0.44347394 0.04959987 0.05536376 -0.14910126 -0.04568919 -0.30178294 0.12343631 -0.18751891 0.26134694 0.08826696 -0.22044452 -0.051130187 0.438792 -0.2602995 0.24742948 0.20001318 -0.22476858 -0.07502748 -0.14425594 0.09549714 0.17325848 0.22982047 -0.04809796 0.28606287 -0.32600808 -0.22092971 -0.21799284 -0.056519885 -0.06678994 0.3656056 0.04517291 -0.42060658 -0.18277717 0.20329666 -0.20498906 0.42641434 -0.2248842 0.1310145 -0.3155144 0.05678894 0.41467586 0.28979626 -0.33536646 -0.09477564 0.06842287 0.5196413 -0.03146539 -0.0892765 0.095151566 0.11741952 0.0973415 -0.100402065 0.0043412587 0.08674782 -0.09881004 0.023168908 -0.26256174 -0.39170164 0.070805125 0.17528899 -0.13690184 -0.12202492 -0.03396318 -0.12057979 0.29298338 -0.09858565 -0.027324341 -0.2940854 0.35802147 -0.36096302 0.24813206 -0.11834873 0.07432159 0.17946608 0.03849025 0.18687488 -0.15218481 -0.10767783 -0.078240216 -0.13080865 -0.18996984 0.2349214 -0.28235608 -0.2863352 -0.08208155 -0.476085 -0.23301856 0.17287372 1.6636754e-05 0.115030326 0.21399339 -0.3169619 -0.21154504 0.45850414 -0.06474 -0.33656284 -0.1642823 -0.21424225 -0.21516442 0.27885956 0.11276053 -0.02899565 -0.21483575 -0.16027464 0.32974425 0.17262532 0.2784854 -0.095517896 -0.04029183 0.38971427 0.20975815 0.021924427 -0.08847891 0.2268851 0.17013784 -0.19160184 -0.14708018 0.17056029 0.2799293 -0.18470828
63 -0.29586008 -0.15143387 0.28744403 -0.2903397 0.6397547 0.59176886 0.6120138 0.0016131143 0.586548 0.3159699 0.23929031 -0.13918547 -0.21131957 -0.39638808 -0.33480224 0.034663882 0.22310635 -0.070221454 -0.10214149 -0.4007746 0.3646016 0.23760219 0.12947033 0.19419368 -0.123431444 0.04122353 0.015806278 -0.013571382 -0.63800997 -0.011772673 -0.04208415 -0.5261528 -0.16619778 -0.2157626 -0.1540303 -0.093099095 -0.06897032 -0.17950344 0.27429226 0.38676488 0.012964997 0.33548903 0.124331765 -0.21560493 -0.029364621 0.18347041 -0.35618472 -0.0749055 0.25284308 0.42169186 -0.3011317 -0.19722289 0.5114642 0.34754214 -0.2497243 0.20787108 -0.2969762 -0.03930817 0.11369624 0.18740188 -0.041314617 -0.5966365 -0.32393754 -0.19970575 -0.53186816 0.04078355 -0.46404707 -0.20757543 -0.34826785 0.15840527 -0.18066241 -0.030425929 0.18307331 -0.7037725 -0.050538614 0.22353879 -0.051067844 -0.22947295 -0.08772003 -0.3770146 0.099860765 0.29207188 -0.5259194 0.19037569 -0.0825598 0.37856752 0.132799 -0.13865937 0.61640215 -0.22916213 0.032912213 -0.257036 -0.17274037 -0.09445936 0.1622678 -0.095379554 0.28016213 -0.5325143 -0.28335696 -0.05517807 -0.4246302 0.3662397 -0.20654252 -0.37003946 0.10914542 -0.18894842 0.6510267 -0.5188861 0.06284879 -0.05566862 -0.19156417 -0.06041628 -0.027886324 0.13903782 -0.64068395 -0.46379766 0.11158349 0.30880076 0.35125136 0.0791724 0.086611144 0.54248434 -0.16971259 0.34241402 -0.09572103 0.49712098 -0.064537995 -0.23361841
173 -0.34140286 0.4858195 0.3683158 -0.1660823 0.41980985 0.17106953 -5.2164512e-05 0.17518318 -0.02423147 0.7603714 0.05699949 -0.761882 -0.07085583 -0.1878532 -0.11635968 0.10298965 0.3679979 -0.27988672 -0.21322942 -0.31820157 -0.07513313 -0.10007286 0.33938769 0.31554994 -0.56382513 -0.0905972 0.04449083 0.068222806 0.14562663 -0.037109956 0.11262201 -0.1462305 -0.19559465 -0.22737782 -0.4009807 0.11164541 -0.1145791 0.114544906 0.024469757 -0.18438753 -0.07822275 0.27279612 -0.17314745 -0.33635756 0.06833954 0.010327486 -0.27409744 0.14869182 -0.032929264 -0.057899665 -0.028027201 -0.11744936 0.002688955 0.16336897 0.15512599 0.34339294 0.25504702 -0.06715523 0.1236495 0.045621607 -0.015151133 -0.37510285 0.0599756 -0.1907856 -0.019902153 -0.11590842 0.022298507 -0.09714746 0.08743085 0.15233074 -0.17722255 0.27841553 -0.009159972 -0.25732017 0.25711647 0.12713015 -0.029032199 0.17726626 0.06774817 0.39447552 0.27380073 0.09822894 0.12920496 0.16897337 0.2054252 0.012097026 -0.055715427 -0.09344337 -0.036873978 -0.21019392 -0.05710806 -0.013985412 -0.0078121694 -0.016418736 0.03598316 -0.43750858 0.17885889 -0.0697176 -0.15666358 0.07338347 0.11327809 -0.041059162 -0.20947129 -0.027369725 0.17066275 0.06875586 -0.2488473 -0.07083393 0.008296262 0.25163418 0.057827745 0.031924494 0.104695715 -0.06620776 0.08669752 -0.0015077009 -0.023579158 -0.10617954 0.0819093 0.13645998 0.06622414 0.42324317 -0.10008749 -0.08406511 -0.18968226 0.057948392 -0.05526175 -0.072198294
