222 128
77 -0.19270785 -0.3046981 0.35234112 0.13111807 0.1021504 0.19825056 0.23014693 0.06590401 -0.09962853 0.3321951 -0.22341432 0.12399179 -0.26501217 0.12608293 0.056656443 -0.09549048 -0.13717566 -0.11362502 -0.0045361808 -0.021084532 0.20160443 0.34014916 -0.31613588 0.49154 -0.39013037 -0.19667289 -0.030375712 -0.31266928 -0.038801935 0.07181741 -0.15207322 -0.19097131 -0.24207617 0.42402813 0.08561082 0.035297766 0.3570331 -0.41804186 -0.147835 0.06350658 -0.46391627 0.22566584 0.41365516 0.48451775 -0.37900636 -0.16536663 -0.17023084 -0.012805604 0.20390363 0.20163117 0.5218422 -0.31290272 -0.15312533 0.011796353 0.11459855 0.16740729 -0.14619054 0.048788432 -0.17328039 -0.21840769 0.7583868 0.25128657 -0.2040622 -0.1307825 -0.17021924 0.56825376 -0.40160128 -0.19437371 0.30715868 -0.009195072 -0.59036607 -0.4356144 -0.2591834 0.082303785 0.34770945 0.29206598 -0.71384996 -0.012541785 -0.105047755 -0.29139975 0.23719761 -0.18356404 0.10015247 0.42483577 0.016490906 -0.2287371 -0.3347724 -0.29574335 0.42463228 -0.24489173 -0.06259899 -0.24612589 -0.44334853 -0.3819649 0.17001043 -0.0068003135 -0.23077637 0.06727131 0.21860632 0.15650073 -0.3544601 0.12788895 0.14979967 -0.2704316 -0.077013224 0.05385415 0.08840544 0.25395963 0.25917637 -0.038367387 0.081690006 -0.09272633 -0.53349775 0.42635533 -0.000275488 -0.20760514 -0.08933325 -0.12461412 -0.089656435 -0.18390289 -0.29115823 -0.027715184 0.19408415 -0.20932345 0.43294513 0.15461628 -0.28591415 0.25492725
78 -0.2748603 -0.3716625 0.27433243 0.1548033 0.16736801 0.1282848 0.2978409 0.069393076 -0.15197466 0.40876845 -0.20889933 0.19557823 -0.22717562 0.010861647 0.029067423 -0.16562003 -0.119703546 -0.08587932 0.10567106 0.06087014 0.15732282 0.3466375 -0.33751917 0.45353 -0.30039677 -0.34178513 -0.09093373 -0.28220877 0.0098149255 0.04102733 -0.21384884 -0.16760613 -0.21169408 0.34301448 0.08603138 0.04612377 0.37228656 -0.38954884 -0.11433986 0.12531196 -0.47789726 0.2333229 0.48644832 0.5675043 -0.2697829 -0.18050739 -0.25110507 -0.007290631 0.13838004 0.29042786 0.4865188 -0.2872085 -0.11215126 -0.01501424 0.17063338 0.034188647 -0.15995778 0.008951227 -0.21460886 -0.33162573 0.89564186 0.36701018 -0.12215962 -0.18136363 -0.17918395 0.5661492 -0.53475183 -0.2588653 0.37679547 0.03833263 -0.5322039 -0.39543492 -0.37158895 0.17254032 0.39774537 0.36160073 -0.8172908 -0.048642192 -0.1230081 -0.34468484 0.20427997 -0.16057493 0.088058725 0.4703591 0.005755169 -0.330908 -0.38011968 -0.29854447 0.49853513 -0.29997155 0.019128397 -0.31195334 -0.3657756 -0.38549465 0.20981632 0.038834147 -0.2715274 0.09041616 0.23939228 0.17412558 -0.44779858 0.23217066 0.17112966 -0.19394949 -0.10424544 0.03824419 0.14034978 0.27634168 0.21095307 0.1250056 0.06270667 -0.07734614 -0.51423347 0.39601585 -0.03997691 -0.16106294 -0.08490101 -0.1444897 -0.03813784 -0.12687032 -0.3534143 -0.018827928 0.21272957 -0.21548827 0.35845476 0.17010172 -0.37261063 0.23148435
218 -0.1152151 -0.3244334 0.3314938 0.08242783 0.1167002 0.102033265 0.060019154 0.039072555 -0.36387902 0.4144354 -0.22072364 0.14064354 -0.2533962 0.2679885 -0.024662344 -0.168064 -0.22160284 -0.1220335 0.05934896 -0.04320762 0.045409713 0.47693184 -0.29680625 0.45816538 -0.30351725 -0.48067445 -0.063477635 -0.3771141 -0.12367824 0.029003067 -0.14647639 -0.16747718 -0.23298152 0.38740677 -0.0071094204 0.00823588 0.29770356 -0.40880218 -0.22148807 -0.080409706 -0.53150356 0.3186009 0.35038474 0.45877 -0.2284044 -0.2390245 -0.093063734 -0.041414347 0.22067778 0.5636697 0.55588996 -0.06415534 -0.09637489 0.07926815 0.29104167 0.13593446 -0.2778067 -0.090375535 -0.24558476 -0.17979826 0.8580587 0.3312257 -0.26238889 -0.23576158 -0.10301007 0.5042508 -0.36232033 -0.37364328 0.42325532 0.018580727 -0.5045882 -0.48492053 -0.26102683 0.33793893 0.5802784 0.28991896 -1.0159651 -0.08108957 -0.093303695 -0.19487374 0.20730697 -0.07225164 -0.012694734 0.42265928 0.08902735 -0.2649579 -0.47779772 -0.3473055 0.6100388 -0.33722058 0.07398077 -0.33057946 -0.4402476 -0.39476192 0.21228465 0.07993189 -0.28249153 0.1618263 0.34331584 0.24763848 -0.40516078 0.18234454 0.12691317 -0.11212308 -0.12564571 0.08654328 0.03727133 0.24910666 0.29349238 0.1260271 0.088431515 -0.28339314 -0.51050836 0.51242536 -0.1258462 -0.20920329 0.032383658 -0.10599755 0.07239962 -0.1162168 -0.30818808 -0.054227464 0.2500974 -0.33748302 0.24318942 0.17779751 -0.3071734 0.3456137
219 -0.10499912 -0.2740488 0.38378677 0.018601961 0.13588 0.23383284 0.0835704 -0.013568531 -0.25015804 0.41297138 -0.13844344 0.10543044 -0.2795533 0.25196487 -0.020168504 -0.21051504 -0.15342066 -0.11807808 0.015711196 -0.019657629 0.14828904 0.36898717 -0.26612386 0.39525363 -0.38182378 -0.34565574 0.0043644463 -0.33598244 -0.040588554 -0.051944345 -0.14120603 -0.19059552 -0.30675408 0.39702857 -0.009508805 -0.037583508 0.42608953 -0.3551711 -0.1838095 -0.0039467616 -0.5025463 0.3059866 0.33241183 0.44344333 -0.28299558 -0.13321479 -0.05866555 0.029877882 0.19891696 0.4894452 0.4969926 -0.124532096 -0.15700443 -0.03832042 0.1868428 0.052889336 -0.26082367 -0.021855295 -0.15187138 -0.26628637 0.7644457 0.19727589 -0.09116943 -0.23189455 -0.08124521 0.6161182 -0.39458352 -0.30810001 0.37558496 -0.09109113 -0.6503284 -0.44686553 -0.16496661 0.30347925 0.5455519 0.36322612 -1.020871 -0.07195331 -0.08123276 -0.27596676 0.17215222 -0.1032193 0.06821378 0.39572755 -0.06143734 -0.20886606 -0.3881452 -0.44060066 0.5632906 -0.27388087 0.083883725 -0.35771888 -0.47609246 -0.38455993 0.06284583 0.107487656 -0.26533043 0.16811676 0.37875023 0.21030219 -0.4166825 0.19825983 0.10353831 -0.07642614 -0.17651062 0.024778172 0.10113942 0.20333165 0.31625655 0.12916487 0.24139653 -0.33209586 -0.59228766 0.60861963 -0.07830987 -0.28775162 0.022835106 -0.10999596 0.064937696 -0.10610267 -0.32032385 0.0046509835 0.22931428 -0.3141044 0.32068366 0.13312784 -0.31444827 0.40250906
101 0.050158765 0.5208382 -0.1082268 -0.15913631 -0.3880354 -0.42290026 0.047559183 0.06844703 -0.2265878 0.03046239 0.44578692 -0.11290096 -0.18655466 -0.34224337 0.028923174 -0.13366224 -0.016684927 -0.0897783 -0.14298436 -0.16467285 -0.16724685 -0.49292296 -0.17852883 -0.22316192 -0.1983164 -0.31179172 0.12310141 0.07779477 0.053966656 -0.5353872 0.15896584 -0.032744918 0.12198166 0.08642741 -0.12246704 -0.093830764 0.33797085 -0.33355182 0.21917301 -0.34377515 -0.050668005 -0.11431996 -0.17097577 0.11359509 -0.121451594 -0.1458236 -0.17986898 0.30968583 0.13690825 0.081544 0.35515267 -0.01778338 0.29906234 0.0918282 0.16672637 0.2860918 0.13610321 -0.07801663 -0.0648873 0.1288326 0.608105 0.1395303 0.13007854 -0.03010471 0.16992186 0.17225862 -0.2306302 -0.28565013 -0.18687536 -0.14343959 -0.0678499 -0.15832385 -0.30917567 0.12820776 -0.06912051 0.2509422 -0.1876203 -0.025225008 0.04649897 -0.08008438 -0.25955302 -0.5301402 0.31925464 0.4005946 0.113762766 -0.0094978 -0.2689835 0.33816367 -0.091191314 -0.15303466 -0.09783779 -0.034235533 -0.145592 -0.18618545 0.37922573 0.22209553 -0.29110417 0.12924537 0.12517428 -0.07862808 0.30767623 0.23914571 0.34382102 0.47459286 -0.27440193 -0.38862887 0.5119237 -0.014006866 0.11426127 -0.14496939 0.103571504 0.36212048 -0.13282795 0.29441616 -0.06360136 0.008274288 -0.0140088685 -0.25209698 0.17305672 -0.35969433 0.3395391 -0.11455947 0.30230004 -0.11944476 0.36300293 -0.22276267 -0.0023433622 -0.01997977
102 -0.011232944 0.39866018 -0.056924608 -0.15907602 -0.43435505 -0.42679352 -0.10212446 -0.018352827 -0.005051167 -0.04758829 0.3729109 0.09732136 -0.24394822 -0.43712834 -0.099614866 -0.12293031 -0.089155644 -0.10576461 -0.14090224 -0.23173547 -0.07047005 -0.52704376 -0.2222738 -0.29313123 -0.25502366 -0.27556843 0.1903476 -0.10562862 0.08904849 -0.5350573 0.1661559 -0.103236966 0.17601745 0.08890097 -0.07752354 -0.10315044 0.33341435 -0.28198433 0.13305342 -0.44690984 -0.08619196 -0.06315094 -0.1903106 0.09056174 -0.23023608 -0.14696792 -0.08148197 0.31466395 0.26093838 0.03581324 0.30032578 0.058254734 0.35419267 0.06833039 0.09126165 0.24254894 0.17948282 -0.18641475 -0.13153413 0.04997653 0.51910585 0.05475004 0.16087891 -0.04583468 0.0034924792 0.12678276 -0.18024549 -0.21549572 -0.1509044 -0.15033594 -0.19559933 -0.22345544 -0.34402952 0.065004654 -0.009053592 0.22256601 -0.105249055 0.050672464 0.06738046 -0.13490187 -0.25331476 -0.4731471 0.28316587 0.21940842 0.050891496 -0.06321098 -0.27457798 0.37079853 -0.010672459 -0.005773751 -0.11639448 0.035905372 -0.2919853 -0.2150449 0.45512828 0.119888365 -0.22613639 0.025408505 0.0013122519 0.06736665 0.35631645 0.22040443 0.36791196 0.39959666 -0.35048357 -0.26754025 0.5031756 0.0075877155 0.046339486 -0.20030248 0.042007904 0.3194857 -0.08513134 0.24094744 -0.04874614 0.14287256 -0.034746457 -0.26211184 0.19413115 -0.2541404 0.38433522 -0.104998246 0.2505162 -0.12552121 0.3825259 -0.2975928 0.03466868 -0.02981489
103 0.22422102 0.05061273 0.19303396 -0.29017237 -0.097417824 -0.032525104 -0.25433695 0.28080082 0.03211482 -0.111447446 0.27041605 -0.3072104 -0.31964457 -0.0032659152 0.033013467 -0.05039642 -0.11309582 -0.007717125 0.38841 0.19449785 -0.06744665 0.40534076 -0.5478477 0.18400086 -0.53347796 0.32516938 0.093133785 -0.26368916 -0.14944659 -0.4722565 0.18776804 -0.2695396 -0.023656147 0.1236201 0.010557941 0.24268268 0.11754871 -0.22574663 0.1433951 0.17731401 -0.27965227 -0.12581009 0.062071614 -0.19708884 0.44853896 0.0519057 -0.077568084 0.0031769886 0.17686287 -0.3148993 -0.090188116 0.19560663 0.16375688 -0.12117579 0.2875164 0.006798275 -0.044413876 0.037605207 0.07730073 0.33101705 0.3313879 -0.23087554 0.12620649 0.098482765 0.094816804 0.2618323 -0.2386099 -0.19842027 -0.23924878 -0.11766233 0.12097668 -0.28404042 -0.06495889 -0.37032232 0.02204889 0.33710006 0.033776935 -0.17637053 0.42675483 -0.24948865 -0.1825661 0.065488435 0.27998853 0.5752121 -0.29190055 0.052102897 -0.087888636 0.0028379778 0.30041927 -0.12719232 0.4343512 -0.10521148 -0.34835768 0.48620367 -0.02931022 -0.35387194 -0.21304707 -0.34955552 -0.24943417 0.011064196 -0.023480501 -0.058903795 0.052865013 -0.3143713 -0.08829133 -0.050436545 0.1701901 0.003918922 0.16198829 -0.36375162 0.0017418937 0.21279483 -0.25808853 -0.08699929 0.3781856 0.4151299 -0.049546532 -0.119580396 0.028262699 0.13080584 -0.16937235 0.09063119 0.15499319 0.44333214 0.127721 -0.07644028 -0.20614177 -0.0867951
186 -0.04926099 0.4595964 -0.108769 -0.0784034 -0.3739475 -0.35109445 -0.0890563 -0.08214528 -0.100309506 0.054863967 0.39102408 -0.15526429 -0.1170691 -0.30300096 -0.03031266 -0.09524118 -0.033788696 0.030975578 0.029432794 -0.17966412 -0.18277788 -0.48250037 -0.13907415 -0.3232647 -0.29722407 -0.21912274 0.3426277 -0.13410099 -0.009311432 -0.49943963 0.09343545 -0.14988887 0.24907267 0.10490198 -0.2168341 0.0142884 0.35230482 -0.30852008 0.1857502 -0.34305358 -0.06564295 -0.15851794 -0.21820776 0.08860514 -0.13262148 -0.24933438 -0.23071305 0.33303306 0.18697746 0.06109669 0.28074226 -0.0701244 0.23685703 0.03752382 0.21191998 0.18023188 0.09942416 -0.048163522 -0.046830732 0.15215349 0.5550925 -0.06406122 0.028931132 -0.08391244 0.15535687 0.18239716 -0.16796713 -0.22187483 -0.21631123 -0.08963722 -0.17357758 -0.2085274 -0.32889602 0.17058769 -0.102699704 0.220257 -0.18503219 0.14324339 0.15319511 -0.092935584 -0.29245657 -0.54145753 0.2799014 0.3176023 0.011100702 -0.046322368 -0.22728142 0.27315935 -0.038539317 -0.062701486 -0.115226276 0.011569659 -0.31973892 -0.31783465 0.33858043 0.06298976 -0.20266807 0.13216445 0.04589934 -0.0072393273 0.31983504 0.18713702 0.50861496 0.40677157 -0.31871858 -0.25429767 0.3088588 0.03479237 0.24227935 -0.0222005 0.021108963 0.32630143 0.020427158 0.2054366 0.027703915 0.19383888 -0.0802408 -0.2536205 0.13463022 -0.36302137 0.3683555 -0.04392351 0.13858491 -0.09118716 0.29910257 -0.22859448 -0.005553861 -0.064293176
185 -0.14204544 0.45810348 -0.031363584 -0.06563525 -0.28796846 -0.34953412 0.027901566 -0.13776548 -0.1888734 0.10348581 0.3985915 -0.058891166 -0.20987241 -0.33783576 -0.045184154 -0.14503968 -0.075928204 -0.07426604 0.02485577 -0.14544246 0.0069515524 -0.49940935 -0.13872898 -0.23974235 -0.22472456 -0.22389095 0.3178351 -0.09042021 -0.062433224 -0.5221501 0.1283818 -0.05340103 0.34336936 0.033911504 -0.22344302 0.009796703 0.31455895 -0.3246572 0.22689919 -0.363403 0.03934013 -0.0358773 -0.20677195 -0.007967385 -0.05015842 -0.24254054 -0.23942536 0.4334246 0.16305298 0.059425373 0.22372258 -0.07365814 0.32846454 0.10052106 0.2234155 0.10043249 0.07810389 -0.0994525 -0.113591395 0.19582665 0.622344 -0.019459803 0.052543472 -0.14125511 0.24568999 0.13487606 -0.23246829 -0.3447741 -0.16497374 -0.12144313 -0.113893196 -0.11858608 -0.33703825 0.22998202 -0.112966284 0.20415722 -0.12621288 0.10727517 0.13158123 -0.13868615 -0.2740594 -0.5250703 0.27611253 0.3010043 0.061950374 -0.086329654 -0.28563657 0.27197224 0.033334494 -0.06151373 -0.13768612 0.05961173 -0.28613886 -0.25207147 0.43437836 0.08874181 -0.20788877 0.15457845 0.039599128 -0.020989949 0.2351537 0.20187743 0.41835755 0.45801535 -0.29236424 -0.24861062 0.37804595 -0.019341517 0.11447349 -0.094161116 0.0550596 0.33711243 -0.068021335 0.3163351 -0.06625451 0.24912031 0.08693812 -0.28066382 0.103988595 -0.29642528 0.3148276 -0.04141864 0.24166287 -0.13464928 0.34500673 -0.1699514 -0.035282835 0.052852686
104 0.19552429 0.032653987 0.073688254 -0.29249552 -0.09122345 -0.14915453 -0.47300106 0.2825784 0.09149924 -0.13339013 0.26542798 -0.37428793 -0.23644814 -0.023232026 0.11364865 -0.13141958 -0.22282529 -0.0030270747 0.40386888 0.2829043 -0.14575247 0.3335364 -0.48032317 0.21607067 -0.53008205 0.42127007 0.0065099876 -0.23055495 -0.08546176 -0.4866278 0.19676504 -0.12651958 -0.04630754 0.1538861 0.010365284 0.19114043 0.12391275 -0.32325402 0.12980162 0.064507976 -0.34115055 -0.10171493 0.0613812 -0.19907215 0.32182387 0.03451746 -0.1255657 0.020315541 0.1734183 -0.2947063 -0.06719518 0.1875809 0.22016133 -0.17552233 0.22841585 -0.0033526428 -0.022723727 -0.080141984 -0.007705839 0.30816838 0.28833324 -0.19078237 0.17393655 0.051555846 0.074771404 0.17432256 -0.3058503 -0.25940028 -0.33366877 -0.08302041 0.015612068 -0.3049611 -0.12910768 -0.32253516 -0.04533694 0.24864118 -0.057905853 -0.16976811 0.5256096 -0.18634501 -0.10205149 0.12804031 0.26530966 0.50133586 -0.2786432 0.22506583 -0.08160003 -0.087221846 0.34831366 -0.10218898 0.48757863 -0.08865279 -0.474573 0.53959644 -0.06742124 -0.48308012 -0.2609782 -0.2856413 -0.26137432 0.1062663 -0.03213509 0.047579717 0.11721681 -0.28271505 -0.075808205 -0.12706849 0.21445821 0.04678084 0.17153488 -0.42811996 -0.06885675 0.20450787 -0.21314703 -0.10752793 0.36133403 0.35340983 -0.07094635 -0.14995396 0.081322886 0.06236279 -0.22650257 0.08577476 0.109539576 0.46316364 0.15987186 -0.15088087 -0.2088232 -0.061298784
47 -0.10244822 0.1729409 0.24005577 0.048004318 -0.0010394184 -0.272369 0.18558362 0.21090811 0.32225314 -0.050018605 0.0073131905 0.2747839 -0.4527708 -0.23577823 -0.00909274 0.21552597 -0.35990155 0.17320204 0.30706143 0.010467725 0.40541437 0.45350623 -0.51917154 0.8702661 0.03002731 -0.008630408 -0.36134845 -0.20854475 -0.24670903 -0.31707874 -0.0766917 -0.12067919 -0.1275752 0.15605421 0.33056992 -0.03403346 0.58008033 -0.25426924 0.08831198 -0.44485298 -0.07043884 -0.10182231 -0.28700107 0.77602947 0.47468466 -0.44530344 -0.23073629 0.21805976 -0.23421647 -0.02955771 0.1892885 -0.13306157 -0.15416321 -0.5790654 0.35272533 0.08726747 0.32152036 0.26364025 0.21520449 -0.20442097 0.39370826 -0.18069239 0.23703654 -0.11633596 0.2819176 0.42217878 0.29742566 -0.0057612425 0.18073423 -0.005321928 0.05128705 0.2558398 0.079571314 0.14016165 -0.63604444 0.4277444 0.25777006 0.120983586 -0.36837065 -0.30023617 -0.120990306 -0.6029179 0.3587638 0.21161886 -0.1682506 -1.0397463 -0.018416053 0.12760374 -0.17328776 -0.3243661 0.42626828 -0.3550263 -0.0615724 0.6170371 0.04468119 -0.16170858 -0.21319278 0.57221115 -0.05132996 1.0255035 0.21821694 0.03279573 0.3689372 -0.027670696 0.063315526 -0.09639341 -0.21701792 0.06313897 0.4150099 0.21059795 0.5357957 0.37645245 -0.09076318 0.31703824 -0.03982584 0.5017183 -0.5440355 -0.015670827 -0.3003366 0.17008454 0.39218044 -0.45294103 -0.25289327 -0.5131792 0.34337842 -0.23152654 -0.2701064 0.3570681
170 -0.0834258 0.39086086 -0.16279142 -0.10486156 -0.26771563 -0.1396662 0.14475511 -0.14592639 -0.14947014 0.14136931 0.2544687 -0.038231995 -0.2645022 -0.44949478 0.078556515 -0.032027237 0.008570323 -0.108778656 -0.16177025 -0.30040377 -0.039192982 -0.48379758 -0.26509038 -0.28681442 -0.309801 -0.2617249 0.1032406 0.11206751 0.13407983 -0.52607846 0.03748069 -0.21283661 0.21499477 0.06513363 -0.23183161 0.010165375 0.1920596 -0.28592083 0.27105004 -0.4192663 -0.00372948 -0.13116398 -0.16270725 0.14503233 -0.061460644 -0.3247428 -0.317049 0.2567148 -0.10994717 -0.027456034 0.22838168 -0.09777608 0.27260247 0.061067894 0.21274333 0.26328117 0.1546205 0.03736138 -0.16137707 0.21382396 0.7095642 0.12354369 0.09979754 0.008604406 0.2872297 0.22729838 -0.3250944 -0.15899219 -0.16197793 -0.09027619 0.07083625 -0.24384439 -0.31580946 0.14850341 0.08420629 0.2430785 -0.25985408 0.123110205 0.029613724 0.022718664 -0.24520813 -0.52045864 0.15510519 0.41935185 -0.04315167 -0.11349503 -0.4460148 0.38752767 0.09291554 -0.28254294 -0.07198572 -0.027499894 -0.29222703 -0.3154313 0.46512797 0.045004718 -0.49782348 0.22845434 0.1438375 -0.12923461 0.3567965 0.17660494 0.32221934 0.29113626 -0.11776172 -0.25568262 0.3762268 6.3955e-06 0.12966764 -0.129793 0.22398922 0.28576985 -0.09383744 0.31616172 0.08386792 -0.017863814 0.0874918 -0.37333405 0.20721714 -0.3213608 0.27094105 -0.090823025 0.27776587 -0.092995346 0.43967402 -0.15155792 -0.06647381 -0.09745807
188 0.2482521 -0.044432186 0.16378652 -0.15772495 -0.12281301 -0.05990916 -0.2865984 0.10506497 -0.06494833 -0.18003921 0.22860639 -0.37068823 -0.2712047 0.05147014 0.025775285 -0.10672125 -0.1511595 -0.00707045 0.41766265 0.24105975 -0.10023231 0.36026126 -0.53463066 0.120651424 -0.57965434 0.3209302 0.15200253 -0.28003097 -0.0992676 -0.5817492 0.21627766 -0.15081973 0.102530755 0.13977179 -0.06336616 0.22062658 0.16928597 -0.2939045 0.24937196 0.114612184 -0.22808495 -0.09323542 0.1786326 -0.20861158 0.2078199 -0.08664817 -0.16946541 0.04431835 0.15028757 -0.14761119 -0.13501231 0.2206973 0.25401303 -0.14946222 0.31809106 -0.00860911 -0.06195189 0.06358902 0.013452149 0.32993442 0.32438368 -0.15329218 -0.021362452 0.06085697 0.20600882 0.18660596 -0.32634825 -0.16687304 -0.288509 -0.1224073 0.059953075 -0.2852956 -0.023832127 -0.37933162 -0.0020906674 0.19645852 -0.06008772 -0.25846192 0.3888921 -0.20108426 -0.16161242 0.13388903 0.19948441 0.5007114 -0.338014 0.08771224 -0.15448137 0.08709204 0.31785777 -0.0521054 0.5220706 -0.048460532 -0.2846671 0.50291914 -0.12219123 -0.52401316 -0.16546306 -0.33507666 -0.36516377 0.18957128 -0.10725433 0.0024956344 0.028566929 -0.3850293 -0.014256873 -0.066870734 0.12754317 0.025421089 0.05441325 -0.49703607 -0.08615584 0.15003125 -0.3139278 -0.06306195 0.2975606 0.3836378 -0.054633413 -0.03204596 0.057593007 0.16972485 -0.20094238 0.0640625 0.11064739 0.40081307 0.09819835 -0.15252928 -0.16018856 -0.07611149
171 -0.14646111 0.3789172 -0.1330993 0.046505637 -0.18604071 -0.28669718 0.19230044 -0.17231229 -0.11626168 0.099816635 0.3368318 -0.029102346 -0.19773966 -0.4472388 -0.031237649 0.08806258 0.0007098402 -0.049178988 -0.11900978 -0.22156847 -0.012667964 -0.49521342 -0.18235491 -0.2801758 -0.2456696 -0.12721503 0.17821318 0.105184406 0.048686605 -0.37401614 -0.08643769 -0.17382953 0.15987757 0.15423296 -0.15283693 -0.0020434854 0.22337094 -0.27478522 0.2111569 -0.3968201 -0.0574764 -0.11869844 -0.09258135 0.18992913 -0.017949484 -0.3765194 -0.2713319 0.22232565 0.025134707 -0.16896819 0.21479623 -0.19743328 0.34678626 -0.007151254 0.22576253 0.31546724 0.18667854 -0.01232974 -0.11142095 0.17833573 0.64437455 0.11005713 0.008734404 0.016969364 0.15485698 0.21466878 -0.2511367 -0.020498239 -0.15911038 -0.019161308 -0.02733402 -0.3427089 -0.25996763 0.14471637 -0.09783285 0.18235563 -0.28658786 0.1759515 0.109721415 -0.013117223 -0.20147833 -0.57514167 0.14992486 0.43480107 0.02083689 -0.027113045 -0.3484905 0.33036053 -0.0053946185 -0.16126792 -0.16012551 0.1000788 -0.40944242 -0.28751412 0.4503044 -0.029139716 -0.5143022 0.37240544 0.13779798 0.010518604 0.33394653 0.16095522 0.40695727 0.22966662 -0.116091944 -0.27084714 0.39674464 0.065139845 0.12830718 -0.076481104 0.23848169 0.34711492 -0.09570914 0.28893015 0.06997416 -0.021262368 0.07354394 -0.40766922 0.14583798 -0.3816501 0.32486975 -0.14096671 0.31313294 -0.17470759 0.36978152 -0.14601174 -0.00050477596 -0.011909309
187 0.17347851 0.020725755 0.13205908 -0.22596811 -0.11858563 0.028962743 -0.37158635 0.18679707 0.075514235 -0.17110105 0.31567132 -0.29025573 -0.27297935 0.07547946 -0.009038848 -0.11218276 -0.20244423 0.017641248 0.41646102 0.24641818 -0.122997664 0.48239082 -0.5408804 0.18722034 -0.62692237 0.18443975 0.12255279 -0.17414264 -0.09569476 -0.5057154 0.15394172 -0.16463882 0.0110769365 0.16899566 -0.0046985247 0.2795445 0.115548946 -0.29290152 0.1783714 0.11369972 -0.24698858 -0.04875871 0.18711616 -0.32027224 0.26246932 -0.09628775 -0.23716655 0.08936324 0.17169093 -0.24767907 -0.1304765 0.09070308 0.33464983 -0.13795213 0.41394457 0.029858489 -0.043684307 0.004281883 0.020574698 0.31034005 0.38554788 -0.27551058 -0.05398817 -0.0119309025 0.16973267 0.2541371 -0.24748172 -0.20713903 -0.31237566 -0.14010035 -0.055552546 -0.36438608 -0.01570637 -0.30752444 -0.027218802 0.2859999 0.039321583 -0.13959701 0.4191162 -0.18935353 -0.12853712 0.038138296 0.1872036 0.47138152 -0.24527743 0.15528996 -0.044258274 -0.0058823717 0.25609517 -0.07969543 0.4227716 -0.017177312 -0.50028145 0.5105618 -0.16998523 -0.49352804 -0.29016796 -0.23364547 -0.3045237 0.18200235 -0.06917888 0.0016703234 0.04779916 -0.2840457 -0.060689863 -0.14263214 0.12718837 -0.0013449213 0.031570572 -0.4440469 -0.042381167 0.071496904 -0.26434207 -0.1323722 0.3528156 0.39987934 -0.15608293 0.006853419 0.12005384 0.17465322 -0.20875625 0.02721182 0.10319077 0.67578965 -0.017824939 -0.14404295 -0.16032867 -0.10049891
111 -0.10019791 0.21589035 0.020432979 -0.23573084 -0.15545347 -0.0733859 0.34421566 0.25822982 0.0922509 -0.58289367 0.31832072 -0.58789724 0.08290668 -0.32835126 0.37567237 -0.5272935 -0.30181932 0.07425685 -0.16279288 0.24304831 -0.34282425 0.5946867 0.12029317 0.3785265 -0.3539874 0.24133512 0.032750387 -0.22099605 -0.029326558 0.23935378 0.21000403 -0.27584216 0.14999872 -0.16469654 -0.08946215 -0.29411775 -0.030666586 -0.20212117 0.17998105 0.16513836 -0.18819438 -0.577182 0.46747196 -0.07757028 0.06502519 -0.10625228 -0.16558716 0.00066582183 0.18243194 -0.261831 -0.32657582 0.2323916 0.21005128 0.0107350955 0.88648975 -0.2642692 -0.31189454 -0.08135214 0.03363653 -0.07193016 0.38065362 0.09877278 -0.39432377 -0.047870696 -0.17773026 -0.010456996 -0.1478885 0.05842824 -0.29392183 -0.24940453 -0.072844505 -0.37626946 -0.23166715 -0.25986636 -0.08984515 0.041656487 0.007738846 0.045002367 0.4033639 -0.55397826 0.07563899 -0.047487017 -0.24153796 0.30821684 0.008083757 0.441867 -0.24437244 -0.052659012 0.47683558 -0.18812785 0.031293448 0.14211622 -0.7405918 -0.027340451 -0.11247825 -0.22292325 -0.29748276 -0.13847828 -0.14625694 0.54726976 0.103531875 0.2562597 0.33130056 -0.02517208 0.03277278 0.1998538 0.35463655 -0.15577826 0.08434959 -0.60284233 -0.2537854 0.46508476 -0.115755044 -0.020679101 0.5023494 0.1185717 -0.18103907 0.26224294 0.031011423 0.019152049 -0.07224745 -0.2817523 0.16944456 0.29624116 0.19970235 0.13864551 -0.27293077 0.058252044
110 -0.11051326 0.29969263 0.15190996 -0.26690987 -0.30803308 -0.088205814 0.4683086 0.30679265 0.031772885 -0.5254908 0.3013316 -0.6395127 0.07307621 -0.26018316 0.44382825 -0.6131744 -0.20354316 0.122943915 -0.14240597 0.18058105 -0.2899964 0.47292024 0.06994466 0.28412926 -0.4002307 0.3328475 -0.009657926 -0.15144335 -0.11348436 0.21014199 0.22559181 -0.15993944 0.098558 -0.121484905 -0.08363652 -0.14176102 -0.080720834 -0.338512 0.2037282 0.10692693 -0.18155284 -0.3225301 0.3653621 -0.19103462 0.09505747 -0.1754014 -0.20781808 0.060184136 0.17038083 -0.287931 -0.46770906 0.30326638 0.28337696 0.13779554 0.73666555 -0.27137107 -0.24537176 -0.07471682 0.10301866 -0.04841723 0.27896404 0.015678097 -0.3553623 -0.11926865 -0.34229174 -0.03745844 -0.2713428 0.014368899 -0.41304216 -0.3021819 -0.07277371 -0.33465138 -0.2083067 -0.28331387 0.11696108 0.13768645 -0.011219011 0.029833442 0.2599317 -0.6668792 0.17163412 0.02156389 -0.24868204 0.29079127 0.22339956 0.4141678 -0.20837899 -0.006269874 0.49131522 -0.21851051 0.119283915 0.08914267 -0.6073918 0.17340384 -0.056646742 -0.16278571 -0.1302092 -0.03639116 -0.044213973 0.52596396 0.06838536 0.31020012 0.336101 -0.096409604 0.03887745 0.043052588 0.37325284 -0.1756878 0.13338116 -0.7067474 -0.25964233 0.3890888 -0.24732015 0.030037407 0.45176262 -0.01664776 -0.093920246 0.2675849 -0.05795762 0.019784212 -0.026499754 -0.2665631 0.21731587 0.19288814 0.22855148 0.19651371 -0.26605105 0.085020885
153 -0.039820366 0.43525448 -0.16434422 -0.16630231 -0.33205566 -0.5546593 0.08177383 -0.090517804 -0.18758194 -0.00064187153 0.39024797 -0.063384 -0.13290067 -0.3222562 0.000120357305 -0.15761662 -0.10647083 -0.033679035 -0.011580112 -0.07131565 -0.055036224 -0.41191718 -0.270946 -0.17859964 -0.36320722 -0.35958275 0.1948531 -0.103722915 0.04215465 -0.61311746 0.115528405 -0.2336074 0.20944566 0.06139817 -0.32050264 0.026499463 0.3059784 -0.38268098 0.13128656 -0.5162115 -0.06096196 -0.04893516 -0.19193171 0.123215914 -0.057563663 -0.28105414 -0.084758885 0.2694864 0.19651215 -0.054671895 0.31492144 -0.01940431 0.3092005 0.06692392 0.17815271 0.25331822 0.15413527 -0.028955597 -0.15067936 0.09725995 0.5314971 0.041842625 0.061056685 -0.036213342 0.16307077 0.13299784 -0.3260218 -0.26751888 -0.1621376 0.030404266 -0.056264 -0.21162805 -0.40577617 0.11941723 -0.11516301 0.21777956 0.013380508 0.12766331 0.28624782 0.02670274 -0.20073283 -0.46009463 0.2677557 0.32811472 0.21766281 -0.028396375 -0.16276082 0.27514556 0.0047649783 -0.14734004 -0.27013722 0.06297245 -0.3077086 -0.27508548 0.5194824 -0.050652795 -0.33569738 0.0045072148 0.07960064 -0.0141600855 0.39540797 0.26854378 0.40102488 0.46913278 -0.2258339 -0.28576568 0.39134574 -0.049222264 0.19646722 -0.14849852 -0.041617855 0.26831716 -0.08152528 0.35521412 -0.017362997 0.12173767 0.095863126 -0.2914068 0.117596455 -0.3676996 0.38508862 -0.060274836 0.2306437 -0.11977857 0.26311284 -0.29933044 -0.030536342 -0.12707216
220 0.38901556 -0.13312477 0.52348644 -0.4320419 -0.18304567 -0.29589367 -0.029844137 -0.35556647 -0.06773816 0.23417087 0.122665755 -0.63894314 0.059727915 0.13467307 0.10244599 -0.32452977 -0.21452625 -0.17988813 0.24164128 0.05220493 0.56373394 -0.056963537 -0.39449164 -0.014667446 -0.42934978 -0.268967 0.3625113 -0.23194191 0.012012491 -0.37681067 -0.04138211 -0.25590515 0.008448413 0.11208028 -0.40670446 0.40485582 0.2538977 -0.07614724 0.100776605 -0.4979625 -0.26455778 -0.21001762 -0.3017425 0.44287923 0.26608193 -0.048081387 -0.21514814 0.48044333 0.27357775 -0.20273237 -0.23298094 0.1704695 0.1799798 0.066193536 0.73774546 -0.32856768 0.55324984 0.3831094 -0.26520064 0.22359683 0.60420126 -0.22007717 -0.22899336 -0.3662386 -0.25097293 0.24544841 -0.17616601 -0.26231098 -0.079371415 -0.040384844 -0.28179717 0.020445665 -0.4732515 -0.023578234 0.021275206 0.15383665 -0.12163881 0.2855316 0.5153481 -0.1041678 -0.0018184171 -0.41416565 0.7246191 0.018054761 0.14372228 0.3685733 -0.31885073 0.0017836054 0.506229 -0.0663104 0.08680554 0.296637 -0.3603996 -0.584634 0.23624307 0.017867904 -0.057479285 -0.26659656 -0.105679825 -0.013281578 0.7355915 0.21568507 0.6052867 0.39987484 -0.033155005 0.3219025 0.26511562 0.29476714 0.4503528 -0.39419988 -0.19270384 0.18577886 -0.04874392 -0.13947871 0.5879264 0.024973974 0.2080611 -0.061039705 0.06873968 -0.47032964 0.19496675 -0.25958028 0.118322484 -0.5879908 0.4317779 -0.17936434 0.0029703432 0.44364405
154 -0.024310552 0.44400373 -0.1761858 -0.1798275 -0.28520787 -0.37828428 0.13901083 0.016921815 -0.09029814 -0.04143437 0.48011276 -0.12480182 -0.1530624 -0.3144296 -0.020567372 -0.10459819 -0.00699845 -0.029554747 -0.0776972 -0.0870011 -0.24792005 -0.4983069 -0.29873097 -0.22886668 -0.2875287 -0.36995742 0.15185085 0.076500714 0.10155521 -0.49460146 0.008712239 -0.14445928 0.062289912 0.014110294 -0.10136538 0.021037921 0.3317505 -0.30064425 0.17100601 -0.36582425 -0.1095803 -0.040403027 -0.13066436 0.056818128 -0.06399352 -0.21515739 -0.064319834 0.23335868 0.21941654 -0.09533826 0.27780417 -0.010331692 0.22267653 0.0107299 0.15113169 0.22140758 0.14463373 -0.038958877 -0.0712801 0.093365945 0.5105198 0.08891129 -0.041741654 -0.053181075 0.104597464 0.14114165 -0.3224365 -0.13236037 -0.2368386 -0.07149214 -0.07921056 -0.26844013 -0.34201744 0.10836449 -0.04404025 0.241049 -0.11203622 0.1478585 0.16684188 -0.018729825 -0.2911708 -0.4394203 0.19821829 0.29836702 0.18536195 0.028384682 -0.13636632 0.17990822 -0.021995274 -0.15595008 -0.22463775 -0.071689904 -0.33733934 -0.25402838 0.34314466 0.1164483 -0.2960272 0.061895806 0.06745139 0.09584246 0.3811611 0.21670197 0.3997284 0.4971788 -0.27677697 -0.32660037 0.43264583 -0.06351641 0.17933065 -0.1662386 0.011411303 0.20157771 -0.08520162 0.2948847 -0.058571685 -0.039676696 -0.07033827 -0.25331405 0.15937017 -0.31655964 0.3925434 -0.086555146 0.2031227 -0.18019034 0.2356437 -0.22007808 0.13957901 0.0065591508
221 0.35974556 -0.022177551 0.5506444 -0.35943198 -0.22510846 -0.20045197 0.040316477 -0.42035237 -0.057019386 0.17633381 0.15161876 -0.70839685 0.020817436 0.0596687 0.12605962 -0.3692045 -0.2732382 -0.11419023 0.26124105 -0.026288848 0.55816305 -0.10703841 -0.3637153 -0.08693645 -0.59921604 -0.32391787 0.30678836 -0.16673528 -0.053946223 -0.4917454 -0.121284336 -0.36457872 -0.08242918 0.07111423 -0.42447984 0.36065042 0.28934142 0.041238707 0.09214643 -0.5861198 -0.22440058 -0.1728856 -0.4204872 0.50020814 0.2915194 -0.087660454 -0.47280338 0.5347545 0.12597464 -0.30640382 -0.14806286 0.06829277 0.1448535 0.037597418 0.7402852 -0.36222592 0.58538115 0.3781837 -0.30594397 0.27833545 0.6807224 -0.21802284 -0.30418244 -0.38988104 -0.1264334 0.25281692 -0.15093093 -0.3856815 -0.28734314 -0.16064583 -0.23804402 -0.043432266 -0.43943766 0.073678434 0.08461818 0.14066462 -0.1819481 0.38622487 0.5236162 -0.13578883 -0.061096627 -0.44082427 0.6878838 0.040181693 0.09799779 0.37579593 -0.30286986 -0.13027091 0.4706569 -0.09216323 0.10037454 0.2826964 -0.3921806 -0.46522808 0.19789764 0.031566706 -0.11678869 -0.2017355 -0.044746626 -0.11005779 0.74243873 0.27251816 0.5259632 0.404221 0.026377352 0.3426735 0.3269394 0.31616318 0.41987416 -0.37929973 -0.109141506 0.096434705 -0.06793261 -0.11656715 0.57042724 -0.12698308 0.20573287 0.08721071 0.037713964 -0.4439611 0.14945817 -0.32527584 0.10988784 -0.47241488 0.34943044 -0.065063655 0.025060918 0.46985188
130 -0.13769794 0.5557262 0.06945468 -0.14562877 -0.39759445 -0.21624471 -0.117086984 0.06336231 0.025075996 0.25518927 0.4009579 -0.058951255 -0.28400645 -0.51875865 -0.07798947 0.027386133 -0.01281535 -0.07651254 -0.036620673 -0.17658825 -0.07893296 -0.5085014 -0.16155007 -0.20771238 -0.24613024 -0.17370528 0.14774516 0.071602315 -0.0905482 -0.34668615 0.16966055 -0.1389817 0.20276219 0.069222435 -0.16525349 0.009985765 0.19709806 -0.36236328 0.20678742 -0.370458 -0.06722003 -0.20420203 -0.1631024 0.10358296 0.0627628 -0.22617155 -0.24055362 0.27921227 0.058173705 -0.06720598 0.26505232 -0.14715736 0.37618405 0.046139404 0.18154101 0.37996912 0.17505646 -0.15100858 -0.043997135 0.07456601 0.5675376 0.019151598 0.29529542 -0.064985864 0.11055031 0.27059546 -0.26782042 -0.25074136 -0.11042871 -0.073245764 -0.091935515 -0.072471105 -0.4580959 0.11683067 -0.00404753 0.4005789 -0.3091486 0.053694487 0.13453227 -0.07449473 -0.17543553 -0.5633937 0.22213791 0.4489967 0.025945587 -0.008854425 -0.28876767 0.268088 -0.075446635 -0.22981688 -0.15117997 -0.00011525658 -0.29621893 -0.39298993 0.49012393 0.20098805 -0.32802644 0.041691206 0.089048296 0.036144678 0.18908161 -0.0043979916 0.45603558 0.62620956 -0.22697762 -0.35972232 0.39407924 -0.026873892 0.21801205 -0.15783761 0.124953896 0.33744845 -0.18011193 0.028346438 0.0040469547 0.062410656 0.069877006 -0.26599953 0.29616013 -0.3483391 0.41216913 -0.019845443 0.16517729 -0.10455284 0.2791785 -0.26251185 -0.13842651 -0.06266057
173 0.22279564 0.07421561 0.056492522 -0.21346006 -0.1390007 0.054176018 -0.4259829 0.21508628 0.051838193 -0.13886179 0.2824337 -0.2755548 -0.3167374 0.1295617 0.0060742088 0.0038391987 -0.19755472 -0.03341218 0.47732776 0.30561036 -0.11485534 0.23720638 -0.46083567 0.06274482 -0.3969707 0.3561434 0.108755544 -0.14694758 -0.0786404 -0.18249507 0.1190156 0.027118305 0.063237615 0.2542594 0.18362632 0.20358463 0.09146074 -0.11512677 0.037670404 0.10386081 -0.19055974 -0.107351445 0.091202356 -0.092580594 0.30720067 0.037601836 -0.16777094 0.07173419 0.1353228 -0.28780448 -0.07984516 -0.01337755 0.19635895 -0.1676336 0.40212905 0.08591002 -0.05162784 -0.0812253 0.09741731 0.31132847 0.40922067 -0.1525577 0.074451506 0.08869963 0.32973835 0.24510881 -0.19801107 -0.36033294 -0.34516868 -0.2672999 0.080523305 -0.23390839 -0.17027858 -0.30359936 -0.10050321 0.38425064 -0.075321645 -0.2399147 0.51339954 -0.44370836 -0.018244328 0.055353384 0.21318562 0.6285422 -0.3663186 0.124768846 -0.2563912 -0.067479275 0.299073 -0.016889334 0.38918072 0.014721193 -0.45627147 0.32145786 -0.109057315 -0.49936214 -0.21226051 -0.24484624 -0.27147296 0.10843964 0.054427918 -0.0047267685 0.13473734 -0.16954029 -0.085983574 0.01423688 0.16804676 -0.08938525 0.16299927 -0.40446 -0.084844574 0.1772877 -0.37015113 -0.17519426 0.2804815 0.2934158 0.098478705 -0.05027118 -0.18286198 0.112489864 -0.35466793 0.0835823 0.15852521 0.3969984 0.2842306 -0.1813149 -0.20094596 0.088246696
80 0.20120312 -0.23111416 0.5034765 -0.29982448 -0.16621281 -0.13803977 -0.10510287 -0.41505602 -0.090593256 0.1674931 0.026099686 -0.5808113 0.11892585 0.19821867 0.020601396 -0.18914388 -0.19649647 -0.035970498 0.38515887 0.08066052 0.45062804 -0.05285572 -0.5035582 -0.04749744 -0.50822884 -0.36398163 0.4519221 -0.12029268 0.010249802 -0.553114 -0.08138143 -0.31829295 -0.19948687 -0.005119487 -0.4742254 0.3469862 0.16351634 0.15403426 0.034595795 -0.47926608 -0.18856248 -0.09323001 -0.42400283 0.24512215 0.3546096 0.10306501 -0.30030987 0.39337993 0.08880502 -0.33638862 -0.095120825 -0.04241753 0.17254263 -0.09752147 0.53657734 -0.25994816 0.56102383 0.33295554 -0.20149131 0.16245991 0.59392685 -0.28897515 -0.24923843 -0.30512965 -0.0904923 0.2622165 -0.20182818 -0.43745986 -0.1758441 -0.22832324 -0.16771393 0.07936759 -0.4960146 0.14250354 0.24190396 0.23183066 -0.22032063 0.25343797 0.5565734 -0.11276346 -0.080366954 -0.42606726 0.6707668 0.014220991 0.28057727 0.24395098 -0.2049208 -0.041054606 0.4216218 -0.027749319 -0.047800835 0.19566187 -0.3936804 -0.61283284 0.1224175 0.025623461 -0.14229979 -0.38400525 -0.124014854 -0.027790982 0.72678274 0.12676914 0.55199224 0.4787322 -0.10256577 0.2581614 0.38834393 0.19803694 0.49734932 -0.48718533 -0.10075435 0.04651069 -0.16049473 -0.1391596 0.64023423 -0.12298555 0.22590294 0.061964255 0.039135642 -0.46881035 0.20873025 -0.24538617 0.03065396 -0.37304562 0.29682085 -0.06682651 -0.026902795 0.23820187
172 0.15658917 0.06669638 0.124815635 -0.19311272 -0.11785283 -0.11117803 -0.43472025 0.24575807 -0.0027453937 -0.18344218 0.23835266 -0.10287952 -0.18619008 0.11028591 0.09552804 -0.15426667 -0.26178586 0.016194379 0.4556497 0.25309506 -0.056396533 0.44905975 -0.38927788 0.21353577 -0.5214369 0.31276515 0.098464094 -0.2308708 0.059061754 -0.3570557 0.0805484 0.0029944573 0.08184936 0.1335263 -0.036711883 0.08760029 0.037066333 -0.028306203 0.092495576 -0.08162823 -0.20801239 -0.15211366 0.025732104 -0.14432462 0.2748221 0.034228396 -0.29532367 0.023855422 0.15653628 -0.17891148 -0.019432977 0.023985507 0.19111432 -0.1528171 0.23141749 0.06357462 0.026975377 -0.0558949 0.08719759 0.400627 0.48749834 -0.17777368 0.10492169 0.047543526 0.3417374 0.1299273 -0.16141938 -0.41181758 -0.41208497 -0.2451383 0.04024452 -0.16741206 -0.16655746 -0.1634925 -0.033517685 0.44173688 0.01615801 -0.27098036 0.4952707 -0.22879295 -0.082589 0.043251704 0.09852188 0.56498635 -0.26524627 0.09767074 -0.26601216 0.06660175 0.21595244 -0.034432553 0.32546824 -0.028244616 -0.3991965 0.3331706 -0.089767024 -0.475795 -0.28016147 -0.24126703 -0.25793433 0.041537978 0.20663345 0.0123919435 0.03722326 -0.2742431 -0.0690141 0.1645507 0.13872768 -0.06678079 0.21843551 -0.4201758 -0.11253929 0.23552701 -0.28535655 -0.1356509 0.412182 0.4046894 0.086695954 -0.036485128 -0.17205359 0.16791509 -0.36412376 0.14547329 0.14060196 0.57444763 0.28480592 -0.28511703 -0.12573774 0.023543188
156 0.09495243 0.15402497 0.16813388 -0.17461579 -0.07454619 -0.09623842 -0.33280182 0.27314615 0.036514923 -0.19972351 0.14979017 -0.32866213 -0.25761437 -0.11884034 0.05421995 -0.100666925 -0.27654278 0.05846322 0.39009213 0.14400037 -0.14534223 0.37158847 -0.44858903 0.1903786 -0.44749334 0.35661617 0.15387759 -0.28068528 -0.075793765 -0.34747347 0.13531448 -0.12627031 0.023733301 0.13547872 0.0067191375 0.3001271 0.09159029 -0.3352439 0.02178002 0.08243445 -0.23162118 -0.13433908 0.1924047 -0.27046442 0.41949165 -0.001169097 -0.15553911 -0.010355885 0.26836357 -0.36828762 -0.107724994 -0.003940161 0.27742678 -0.20937109 0.3006531 -0.002418566 -0.069962874 0.010053552 0.011919999 0.1710204 0.32772413 -0.26929992 -0.022614028 -0.06811779 0.08974139 0.12185847 -0.2274056 -0.24319403 -0.3237448 -0.13235483 0.02807537 -0.2535487 -0.10563914 -0.2512452 -0.0054849815 0.30870768 -0.01467016 -0.21043958 0.47224206 -0.24517679 -0.1206456 0.009276653 0.103391625 0.5715642 -0.26241887 0.19492057 -0.23438892 -0.029779522 0.26497716 -0.022910237 0.42474762 -0.041744895 -0.53122294 0.38949987 -0.083415 -0.52075005 -0.18553475 -0.2880398 -0.35467243 0.11949302 -0.042187154 0.10362739 0.17600735 -0.14093111 -0.2208448 -0.10330679 0.13746585 0.073667035 0.032610994 -0.34518033 -0.013719929 0.26687244 -0.22524203 -0.1521348 0.3952864 0.5199644 0.05107326 -0.035002936 0.013084993 0.115988016 -0.24145596 0.030353691 0.14710043 0.48886657 0.11972477 -0.22837299 -0.34921196 -0.10560371
161 -0.29524747 -0.0016212377 0.099873886 0.34141847 -0.07453671 0.013508832 0.44030607 -0.01947326 -0.124919325 0.009205429 0.027817504 -0.35516885 -0.0007743586 -0.31116062 -0.0018371787 -0.189982 -0.20395781 0.28983772 0.114883736 0.44623607 -0.055945616 0.1689964 0.25087538 0.09969182 -0.48323482 -0.014701662 0.033131946 -0.516864 -0.37043294 -0.09506028 0.11322662 -0.3487023 0.10238102 0.30166695 -0.45568526 -0.17489745 0.06804033 -0.20116977 -0.055833425 0.07369397 -0.00861633 -0.25040603 0.32765657 0.3226887 0.06187766 -0.15606286 -0.15747301 -0.16366854 -0.08927051 -0.18918855 -0.23913412 0.078957595 0.5409857 0.014951586 0.6240929 -0.10976835 -0.2239148 -0.1625575 0.12788928 -0.38047156 0.33980066 0.11319741 0.10042632 0.13800387 -0.104899734 0.12329391 -0.17255217 -0.1669391 -0.03666262 -0.26757738 -0.038674433 -0.33765882 -0.07910532 -0.2148423 -0.36137384 0.033171084 -0.17706625 -0.16939716 0.4470651 -0.93168944 0.29106298 -0.19729947 -0.07356472 0.12642114 -0.010985595 0.2522499 -0.16494392 0.06344578 -0.14570436 -0.09621388 0.14693817 0.22431266 -0.21075338 0.2531222 -0.09208349 -0.16248417 -0.24417876 -0.532018 -0.1360764 0.45443302 -0.35198703 -0.14290108 0.27521858 -0.32085714 -0.324422 -0.13419695 0.35205606 -0.11089372 -0.073503815 -0.749405 -0.05510358 0.38437888 -0.46514672 0.041333508 0.31869683 -0.33064163 0.322941 0.6621156 -0.043799628 -0.045371097 0.18153879 -0.354641 0.3987104 -0.101508826 0.05376407 0.4975943 -0.53167146 -0.23257884
155 0.090762585 0.11063039 0.19061522 -0.19141175 -0.10575471 -0.13691385 -0.27011678 0.20683795 0.061395332 -0.058240075 0.33402357 -0.40627286 -0.28082344 -0.13280389 0.06285606 -0.11883812 -0.2985923 0.02502262 0.37619624 0.15388781 -0.056808874 0.33511764 -0.37050688 0.21312356 -0.46826026 0.31883818 -0.044689905 -0.32006854 -0.03279781 -0.39532545 0.22463717 -0.116923235 -0.004703725 0.14181533 -0.16626748 0.1321047 0.102784835 -0.36760914 0.14798085 0.122659594 -0.32907826 -0.20105505 0.068133906 -0.05705074 0.40685531 -0.05589062 -0.097759806 -0.043729365 0.32390746 -0.24632569 -0.13053846 0.17276268 0.10493543 -0.23000816 0.29280308 0.105556585 -0.055477183 0.004420812 -0.03405456 0.20673208 0.3149275 -0.2792551 0.10940375 0.060356297 0.14188367 0.20337984 -0.31467015 -0.18688783 -0.2520571 -0.090418704 0.036063284 -0.3509855 -0.07803337 -0.29032782 -0.14545855 0.4040234 0.06933894 -0.26775753 0.46511337 -0.23894146 0.057410784 0.14810497 0.16983151 0.6317948 -0.35081154 0.21789019 -0.07492652 0.13585015 0.21351336 -0.1391395 0.5918935 -0.054294735 -0.36364064 0.49578694 -0.08202993 -0.42851734 -0.10590847 -0.37503195 -0.28551385 0.026552547 -0.026541775 0.0268673 0.142763 -0.2895906 -0.18607394 -0.06935311 0.12469774 -0.020180482 0.14433163 -0.37329203 -0.0988061 0.26609394 -0.24375018 -0.26439002 0.3591831 0.36069784 -0.04978916 -0.15083724 -0.0597787 0.13863014 -0.30166537 0.018841194 0.12593447 0.5092885 0.105559334 -0.16407685 -0.26585 -0.10198933
129 -0.085515514 0.41735277 0.08844876 -0.09596718 -0.34056512 -0.3613869 0.08552785 0.062462527 -0.17745103 0.20403302 0.4625206 -0.0042499187 -0.17759944 -0.5024293 -0.13064773 -0.13975301 -0.0639889 -0.1398803 -0.016793754 -0.12953804 -0.018546782 -0.5417746 -0.036672365 -0.23864551 -0.31714922 -0.2470314 0.095718995 0.10352642 0.12481153 -0.53520757 0.34282878 -0.07452525 0.14659344 0.09475547 -0.2261222 -0.18141586 0.2320262 -0.45069888 0.28165862 -0.36484477 -0.04491521 -0.28143686 -0.23157884 0.17379734 -0.0076271486 -0.16731124 -0.10658982 0.30904883 0.15809955 -0.002453308 0.20927419 -0.07718566 0.33274075 0.069378555 0.19850922 0.39369917 0.24485378 -0.11555335 -0.1054629 0.043846212 0.47586644 0.045948155 0.304683 0.017289422 0.047348224 0.35078287 -0.21161962 -0.19077449 -0.033233892 -0.07168562 -0.19869329 -0.093269296 -0.35976192 0.026715972 -0.056461 0.4563213 -0.07956657 0.0014650997 -0.044854257 -0.1408606 -0.021334365 -0.46156257 0.31778586 0.41583744 0.0731473 -0.03804993 -0.31652585 0.41009018 0.012030365 -0.23419242 -0.10862607 0.06315854 -0.2939545 -0.16806847 0.48737246 0.28254017 -0.290758 0.10984909 0.17174211 -0.030901706 0.23686787 0.13756822 0.32275963 0.5529525 -0.29203627 -0.35564625 0.4711332 -0.021839663 0.06052352 -0.15237407 0.23714696 0.45476958 -0.14074323 0.0021883966 0.098585725 0.03727662 0.01968602 -0.28316703 0.29721257 -0.31143153 0.36760727 -0.11952542 0.33181664 -0.10541329 0.27839914 -0.34155366 -0.12278131 0.07305437
160 -0.24889156 -0.038009204 0.07091859 0.36255103 -0.23603953 -0.078879796 0.34155765 0.04129938 -0.061896544 0.09154485 -0.0064440696 -0.587996 -0.05091405 -0.34947032 -0.111935794 -0.16076046 -0.09467359 0.17487687 0.123988226 0.50890493 -0.17232706 0.18357366 0.2634451 0.073563024 -0.4915637 0.06410847 -0.024858128 -0.46636227 -0.37966335 -0.014051225 0.10202701 -0.34433785 0.10460789 0.1653598 -0.44879326 -0.21912223 0.050540116 -0.20838237 -0.015258564 0.014303793 -0.003953796 -0.31533843 0.27524766 0.3702057 0.02699627 -0.11999842 0.034959227 -0.14840512 -0.10284813 -0.2314858 -0.27273926 0.13362622 0.46516237 0.13996749 0.55097795 -0.14462174 -0.13593017 -0.19838506 0.27624568 -0.38536337 0.33802807 0.18955916 0.19298708 0.15215935 -0.14736816 0.08649151 -0.19134295 -0.11410488 -0.045407865 -0.28282902 0.037715055 -0.30827644 -0.028698547 -0.23710915 -0.2759787 0.004774138 -0.33471277 -0.15441638 0.35915813 -0.97764057 0.28660715 -0.18601449 -0.07756498 0.19902463 -0.10782852 0.19740012 -0.17736706 0.13325629 -0.063857034 -0.040784948 0.28162605 0.24603006 -0.22510722 0.20665887 -0.1082118 -0.19011849 -0.36878884 -0.5166868 -0.078423016 0.4894833 -0.4063465 -0.13012278 0.5098474 -0.30840695 -0.28439665 -0.1541535 0.47648045 -0.1353715 -0.13238123 -0.7008509 -0.048895072 0.45515293 -0.33788356 0.039628215 0.30204722 -0.39401603 0.24102764 0.5440946 -0.023723215 -0.0073913 0.19404164 -0.33607373 0.49885878 -0.09793221 0.061922785 0.37106138 -0.516199 -0.2747256
79 0.2631091 -0.28083098 0.4822686 -0.35483828 -0.13410255 -0.17573358 -0.014758507 -0.47559288 -0.039540213 0.2233713 0.017274218 -0.5983372 0.004661236 0.29355127 0.06217527 -0.2804344 -0.11458983 -0.0721065 0.41039324 0.06709719 0.54820424 0.014905023 -0.5015937 -0.048918642 -0.4948601 -0.45721066 0.40535608 -0.14524838 0.11385589 -0.49864095 -0.13304201 -0.32801405 -0.096597835 0.014259163 -0.5471814 0.44635943 0.120819375 0.13085131 0.07984795 -0.5726427 -0.17978474 0.011778078 -0.46506673 0.33838952 0.34746838 0.063497975 -0.32309175 0.48349494 0.09570815 -0.27979693 -0.16919707 0.034786288 0.147226 0.0071241055 0.50388664 -0.2321807 0.5433299 0.3969108 -0.21421012 0.16186315 0.56438535 -0.35693228 -0.3377998 -0.34507114 -0.14844862 0.0761509 -0.19545437 -0.3834367 -0.13533267 -0.17502566 -0.21599343 0.12397889 -0.47029915 0.12038874 0.23670971 0.18581325 -0.16105616 0.26682752 0.5022253 -0.06482708 -0.046775144 -0.47359815 0.5200857 -0.033162955 0.27704698 0.19974759 -0.29274654 -0.007076801 0.46026114 -0.13221659 -0.002028694 0.23755458 -0.32288146 -0.6178439 0.15537377 0.04867889 -0.080704845 -0.40825194 -0.1567647 0.0042710826 0.74934775 0.19819678 0.5229929 0.33569467 -0.028971024 0.37616217 0.37508142 0.26280305 0.43903396 -0.40882275 -0.12491092 0.021526014 -0.1843496 -0.26981473 0.68210167 -0.1041591 0.21806502 0.10771578 -0.051420137 -0.40751225 0.14182605 -0.28422347 0.19398353 -0.32668167 0.25141594 -0.13763385 0.03114751 0.26976827
132 0.25630525 -0.051264483 0.026598917 -0.3610464 -0.077183224 -0.115557104 -0.3661829 0.2509503 0.049577508 -0.17212377 0.31463113 -0.30680597 -0.24583279 0.040129606 -0.0028334046 -0.17578597 -0.20618689 -0.020046245 0.28383303 0.40129995 -0.108846195 0.3891535 -0.570239 0.09267432 -0.54881173 0.4272143 -0.0023757827 -0.24004287 -0.062636435 -0.4187144 0.068840876 -0.15886949 0.020003514 0.20796666 0.11039854 0.2815093 0.04338414 -0.23057553 0.11886674 0.20237072 -0.37023842 -0.059841108 -0.19716619 -0.25312498 0.42103666 0.16327755 -0.041065853 -0.016102016 -0.030357182 -0.33166787 -0.047517106 0.21007018 0.31803977 -0.05808208 0.16821548 -0.06731363 -0.0427525 -0.010862767 0.039523445 0.32243422 0.33460107 -0.29574794 0.18760641 -0.057863027 0.13583304 0.18575045 -0.18432416 -0.26381394 -0.34965426 -0.13179894 0.08769894 -0.2815263 -0.0042852536 -0.17860556 -0.07062931 0.27694738 -0.026505262 -0.18300612 0.43697846 -0.27929866 -0.1319635 -0.040937353 0.34059677 0.40379214 -0.20302996 0.005914857 -0.08243156 0.003434562 0.41570026 -0.22160752 0.4925642 -0.09870548 -0.43979612 0.47361705 -0.03782891 -0.4288897 -0.2882933 -0.41652605 -0.35190272 0.1276987 0.12640953 -0.009509249 0.13723911 -0.42226037 -0.040758464 -0.06992758 0.2207944 -0.0865279 0.16396666 -0.32915565 0.046385314 0.14117576 -0.18706347 -0.09418899 0.5216908 0.462143 -0.04633996 -0.19602619 0.035513304 0.1158595 -0.29089764 0.01345951 0.16038525 0.509246 0.14177224 -0.21836276 -0.23651074 -0.0937322
131 0.29418802 -0.09027833 0.2880069 -0.18329512 -0.04771981 -0.11500554 -0.44064006 0.2682111 -0.16343053 -0.14450197 0.16936061 -0.3538428 -0.31415653 -0.049612172 -0.09482868 -0.080069445 -0.18339896 0.036890503 0.4589205 0.39615974 0.0010020272 0.27309135 -0.59265274 0.19894078 -0.58724755 0.29660127 0.18286078 -0.2962159 -0.037002098 -0.31337574 0.047342468 -0.17431375 0.09970454 0.16193737 0.030397514 0.2597778 0.130825 -0.2037046 0.04991883 0.13771033 -0.2367793 -0.036775585 0.003128504 -0.26894385 0.3614719 0.08796541 -0.0436235 0.06322399 0.20013876 -0.3182372 -0.07068292 -0.011100896 0.21568614 -0.16841173 0.2861351 -0.093567416 -0.17822465 0.022337139 0.10305639 0.41087633 0.36870468 -0.22463928 0.06818205 -0.0007096315 0.16452347 0.26203942 -0.2439946 -0.23025973 -0.30253544 -0.076030575 0.1685311 -0.28546444 -0.047656648 -0.23947145 -0.106334165 0.33011824 0.04433521 -0.12137404 0.47099012 -0.39466172 -0.19875094 0.012148484 0.23908913 0.50690395 -0.26122907 0.0132616805 -0.06297139 -0.0026107728 0.32096568 -0.16230048 0.40518516 0.025630543 -0.48376396 0.37027785 -0.014309264 -0.4786362 -0.12261278 -0.4865642 -0.3152987 0.14849901 0.08785586 -0.11613749 0.11198131 -0.2762693 0.014171023 -0.01236236 0.10287732 -0.08924628 0.18005809 -0.4390248 -0.031482402 0.17953435 -0.25584063 -0.16835177 0.53999543 0.5177704 -0.018779235 -0.17992413 -0.01765753 0.12502569 -0.33353645 0.07027757 0.17951286 0.3696894 0.06676912 -0.19443768 -0.18083274 0.073454075
140 -0.50686234 -0.14176247 -0.26769707 0.035816006 0.3577462 0.31531814 0.55411136 -0.1605059 -0.3634271 -0.09309016 -0.24395104 -0.14953375 -0.32043192 -0.7040718 -0.04356283 0.19941275 -0.24273251 0.27952665 0.22877888 0.35100776 0.348906 -0.027581805 0.055425346 -0.15373497 -0.5918929 -0.1513431 -0.3430865 -0.03801712 -0.08398128 -0.281706 -0.14009546 0.029211948 -0.041413784 0.5757435 -0.19992028 0.0801382 0.2823138 -0.12412275 0.083286226 -0.30786678 0.1586096 0.44348833 -0.4440275 0.052745104 0.06372191 -0.24883053 0.041074395 0.15089168 -0.3082233 -0.13466069 -0.045685288 -0.39322013 0.10065223 -0.049168818 -0.26304743 0.29358274 0.35106635 -0.31337467 -0.3088733 -0.03047519 0.70746946 0.0047912216 0.11747192 -0.046505746 0.5623361 0.49387962 -0.7546483 -0.058180578 -0.13345124 -0.06691138 0.19114932 -0.67494017 0.047736593 0.24848522 -0.07048379 0.21725596 -0.059173074 0.22898327 0.04462321 -0.117644265 0.036956653 -0.11629735 0.15463571 0.06130418 -0.32523352 0.018127583 -0.4777691 0.36208186 0.46903616 -0.32146722 0.10176833 0.1283302 -0.46317953 -0.018709434 0.14022896 -0.06549416 -0.6570085 0.09276679 -0.028499879 0.0015473056 0.17727557 -0.03962058 0.34481528 0.35850096 0.06528452 -0.32980818 0.25748745 -0.31084308 -0.16174456 0.036675584 0.69728774 0.144377 -0.32461873 0.1533464 0.3590325 -0.06705514 0.3908181 -0.47734594 0.16211446 -0.12401755 0.11933379 -0.1001034 0.6091307 -0.19935426 0.47618675 0.1916443 -0.1837691 -0.3448935
158 -0.32442737 -0.15399818 0.11483468 0.37656343 -0.17803311 -0.12766695 0.47183758 0.12936273 -0.07660795 -0.03522406 -0.0076661482 -0.50538546 0.06823035 -0.41718647 -0.018233646 -0.18032081 -0.19159769 0.27819103 0.08928869 0.5814117 -0.19938745 0.20781867 0.2710302 0.21872772 -0.49152198 0.07707285 0.015600755 -0.5195237 -0.34043232 0.030285977 0.12012408 -0.35591605 0.1012043 0.22418049 -0.52165365 -0.32365128 0.010402584 -0.11260695 -0.040537562 -0.0066710273 -0.04754555 -0.30906266 0.23842561 0.3739437 0.029893648 -0.08083737 -0.13434604 -0.18347979 -0.06725303 -0.31513053 -0.28661883 0.122400895 0.5916017 0.08823979 0.591991 -0.12937881 -0.1790476 -0.27059737 0.18646213 -0.4280055 0.38604248 0.13718523 0.14712995 0.1618385 -0.23859268 0.07784341 -0.1570709 -0.09282607 -0.10990341 -0.29964405 0.029867897 -0.35395062 -0.12414419 -0.21777321 -0.26713058 0.028469099 -0.23590368 -0.18529038 0.39263242 -0.9999821 0.2751107 -0.22155553 -0.06279411 0.16739583 0.014242032 0.26769984 -0.19005954 0.15400133 -0.12702945 -0.08588274 0.20317993 0.2727132 -0.16528709 0.14751402 -0.05262525 -0.12159561 -0.29646826 -0.54721403 -0.09198891 0.4455468 -0.38464278 -0.09337967 0.40009046 -0.3431226 -0.28827634 -0.067979984 0.47700688 -0.14060362 -0.083131656 -0.7443032 -0.06428432 0.46611106 -0.41007024 -0.035575587 0.37391132 -0.37420434 0.20174217 0.62465835 -0.012459833 -0.046971478 0.21867475 -0.35886645 0.41157758 -0.039409835 -0.017574186 0.45273957 -0.56035984 -0.33324412
139 -0.4963242 -0.0838381 -0.33402216 0.11424393 0.3879609 0.4120191 0.391052 -0.16321611 -0.34943378 -0.09620484 -0.3080728 -0.26949823 -0.32321733 -0.7304597 -0.05016911 0.29005134 -0.16644147 0.21590629 0.31151497 0.22516222 0.3149306 -0.1873649 0.105619766 -0.18477376 -0.58888584 -0.20030044 -0.32704636 -0.0062253857 0.087544516 -0.2989 -0.003814505 -0.021841008 -0.07875314 0.6290428 -0.12633981 0.02291008 0.2871238 -0.22326627 0.015802465 -0.28361675 0.16527268 0.22144195 -0.32512093 0.07037725 -0.01121462 -0.28552902 0.022764785 0.12781079 -0.2959504 -0.11532489 -0.1020558 -0.45362574 -0.011345541 -0.15689126 -0.13289346 0.25856867 0.26003796 -0.25943792 -0.38021147 0.00096370373 0.69964296 0.03808634 0.09707958 0.014523877 0.53623253 0.5052333 -0.73211473 -0.082978226 -0.056659732 -0.019566542 0.21460703 -0.7237251 -0.09297191 0.28429478 -0.06760843 0.25233823 -0.0017625964 0.37538746 0.033468783 -0.19335063 0.05593641 -0.07280432 0.10229666 0.029000733 -0.30847582 -0.015052775 -0.48135445 0.34263167 0.4614695 -0.32733384 0.103104964 0.17801861 -0.5799686 -0.03828316 0.22747679 -0.06750935 -0.53809047 0.010486354 0.030617408 0.04305457 0.2619957 -0.13915421 0.42702726 0.37740692 0.11465533 -0.35192528 0.18334046 -0.24042913 -0.071382664 0.013855933 0.5970212 0.111259535 -0.21811192 0.013836067 0.4352629 -0.10144522 0.30483562 -0.5371232 0.14598566 -0.18084855 0.04432971 -0.2051408 0.5200774 -0.17813517 0.37213343 0.17614877 -0.1860349 -0.20399728
159 -0.16862929 -0.12527497 0.14758167 0.2611263 -0.20422475 -0.009779442 0.45934844 -0.025109375 -0.09189819 0.06142909 -0.06303317 -0.5142444 -0.025807895 -0.3078861 -0.013978118 -0.14007041 -0.20693833 0.24399179 0.1079432 0.62258714 -0.11831956 0.34606737 0.26641968 0.20542698 -0.55511755 0.0476241 0.0036915645 -0.47363523 -0.40621445 -0.035108 0.11775728 -0.29567683 0.16088265 0.13836223 -0.4108039 -0.21317124 0.04638583 -0.2641339 -0.042825386 0.012715554 0.039272156 -0.37425524 0.22121547 0.25104675 0.022853665 -0.111304544 -0.10447383 -0.08141709 -0.12813993 -0.27914435 -0.31617928 0.0926046 0.550521 0.052547466 0.6268586 -0.117454626 -0.22857025 -0.124399014 0.21045282 -0.4540522 0.3221835 0.073074274 0.11800575 0.15928815 -0.1810888 0.14575201 -0.17525063 -0.18599147 -0.13856046 -0.3281598 0.056131285 -0.31513667 -0.09290889 -0.36566612 -0.33053422 0.03507356 -0.22815935 -0.12117499 0.35118937 -0.9916881 0.2083316 -0.18028192 0.0066838935 0.13113923 -0.004953409 0.19003825 -0.119306155 0.0175226 -0.05913457 -0.12976909 0.22392358 0.29014003 -0.09787783 0.19260138 -0.06716056 -0.15761848 -0.34507087 -0.54535156 -0.12806974 0.51665705 -0.39350796 -0.061565246 0.39723852 -0.21781965 -0.29403612 -0.13406508 0.3837284 -0.10489533 -0.1450487 -0.7450781 -0.07368397 0.33964637 -0.5007772 0.018993223 0.35118067 -0.4549542 0.2423574 0.66739976 0.07736149 -0.10528485 0.19251132 -0.38045782 0.3953155 -0.0933282 -0.018865505 0.3980975 -0.62840027 -0.29302576
206 0.36274385 -0.14018477 0.2503705 0.22306985 -0.2281484 -0.13901117 0.39773548 0.36929166 0.36424148 0.6886387 0.085518315 -0.08034007 0.33928955 0.34987044 0.21540989 0.16752046 0.027511528 -0.33258864 -0.058157284 0.32409725 -0.09934839 0.082981795 0.39999247 0.070749715 -0.08090137 0.18254076 -0.39190128 -0.18747406 -0.12271946 -0.11287074 -0.064760804 -0.17846 0.002212939 -0.025230872 -0.5283232 -0.109017685 0.34505326 -0.22808142 -0.198323 0.3856974 0.07302533 -0.12755676 0.019210156 -0.18425341 0.24344581 -0.18556234 -0.6886785 0.49470195 0.21344748 -0.45844474 -0.08655409 -0.24107252 1.1403564 0.60818505 0.28163514 -0.4821111 0.4471532 -0.24469839 0.11084101 -0.24015467 1.0171889 0.45848355 0.2669289 -0.45997682 -0.2691876 0.43504298 -0.40756688 -0.20321792 0.11983323 -0.1313863 -0.21645816 -0.93848866 0.37307715 0.6841846 0.14243479 0.26592493 -0.15281785 0.4099314 0.13042583 -0.2130943 -0.29725918 -0.068221435 0.23137656 0.005245001 0.46444896 0.15385455 0.2591 -0.30661985 0.25580266 -0.0810859 0.18034184 -0.0052200337 -0.36056593 0.17979959 -0.10728922 0.1058097 0.19304694 -0.5482332 -0.15772235 0.34195504 -0.02120967 -0.34295753 0.5221686 -0.58487546 -0.4626185 -0.57257366 0.018805895 0.039565306 0.20821111 -0.4218403 -0.44687742 0.19453663 0.1464403 0.36183345 0.53925955 0.22756323 0.11198968 0.097092554 -0.044710074 -0.11221924 0.121547446 0.28816935 0.4595336 -0.30408528 -0.026425647 -0.27296624 -0.03088636 0.2262975
135 0.20996124 -0.37668306 0.282942 0.16179553 0.101984985 0.1015531 0.35700908 0.8832581 0.13508123 -0.29688054 -0.15594523 -0.23352535 0.22701442 -0.2676324 -0.12996347 -0.23322819 -0.10168285 -0.12162827 -0.03699274 0.13315506 -0.2048486 -0.11109638 -0.37160397 0.3654918 -0.19427785 -0.23114796 -0.2364429 0.071104914 -0.18085997 -0.05211744 0.15172818 -0.10241636 -0.10398207 -0.10907612 -0.2548073 0.03267069 -0.36299172 0.08629611 0.19084579 0.43615335 0.26092115 -0.10331102 0.01341362 -0.2979295 -0.22186108 -0.16895206 -0.65383995 -0.14626303 0.3211806 -0.16825403 -0.01714552 -0.10431741 0.38229793 0.021567693 0.29511267 -0.2926553 0.025814267 -0.13972689 -0.14865565 0.023544168 0.28547347 -0.028737782 -0.14769086 -0.34401536 0.18041283 0.3416771 -0.1506266 0.14033039 -0.39602402 -0.18290171 -0.21440913 -0.5676096 0.1172059 0.7017039 -0.11517929 0.28815258 -0.021149522 -0.29609177 -0.20635702 -0.8809576 0.44765523 -0.10343113 -0.029678518 0.11092163 0.21421225 -0.16771168 -0.0767664 0.03493061 0.034700308 0.04137378 -0.1593592 0.1218623 -0.5695432 0.093656115 -0.39755484 0.3307173 0.075806156 -0.42477727 0.15543583 0.09045687 -0.25572637 0.06273513 0.4689313 -0.043478236 -0.55684096 -0.54609406 0.25146255 -0.22699377 0.05533224 -0.38628554 -0.3197728 0.32952887 -0.14712475 0.17263292 0.2001242 -0.42796665 -0.07182383 -0.012155968 -0.14450113 -0.26661143 -0.30100217 0.05093452 0.107660696 0.17831378 0.3872719 -0.32398635 -0.13473278 -0.44064438
205 0.3908115 -0.2217376 0.1498847 0.15903626 -0.3957005 -0.20451868 0.4509755 0.3528054 0.33632204 0.7948484 0.012235853 -0.0070441347 0.2661634 0.18526652 0.20836267 0.15503511 0.14247878 -0.32385036 -0.19949542 0.3200335 -0.106580436 0.056456238 0.39960906 0.14197946 -0.13858122 0.22551103 -0.27436453 -0.19210613 -0.09367458 -0.19675547 -0.07454673 -0.2301854 -0.08244706 -0.13112147 -0.50966203 -0.27828032 0.342648 -0.21571125 -0.17388725 0.29301083 0.1442424 -0.08881502 -0.16554318 -0.11124044 0.21273784 -0.18608207 -0.7487584 0.46432182 0.04952354 -0.46879336 -0.0798705 -0.22325754 1.1880966 0.66126585 0.2992098 -0.3688737 0.25651196 -0.25994477 0.27064785 -0.2986132 0.9865809 0.38826048 0.3617174 -0.39893875 -0.4040843 0.48858303 -0.3552734 -0.17960031 0.09885892 -0.1792287 -0.16057108 -0.96457237 0.34805673 0.58041155 0.11838733 0.20918839 -0.14651868 0.41829047 0.095222585 -0.35137156 -0.20129591 -0.17481282 0.22379594 0.022791617 0.44444287 0.07899349 0.26978964 -0.35645524 0.20860311 -0.0434062 0.021447595 0.047125116 -0.28800875 0.07496502 -0.16168036 0.22511488 0.019200038 -0.44102797 -0.033173684 0.24657181 -0.11227063 -0.28872868 0.38356903 -0.5609377 -0.34348404 -0.3962079 0.023300631 -0.024348307 0.2469093 -0.40976775 -0.365314 0.20115988 0.11167623 0.30663264 0.5387753 0.045227334 0.07080025 0.29791486 -0.17522581 -0.15333098 0.059372466 0.32243034 0.4045352 -0.24277663 -0.017611837 -0.17369984 -0.054244276 0.12374538
204 0.37483412 -0.2357399 0.2832132 0.2973055 -0.28693965 -0.07707291 0.44953018 0.18123318 0.39463133 0.68613285 0.038298782 -0.0453123 0.17803155 0.20272188 0.12996103 0.20678064 0.17098746 -0.20752421 -0.018267373 0.4810558 -0.15123321 0.11892774 0.43123823 0.09406701 -0.16329159 0.11354374 -0.49177048 -0.24624242 -0.23292962 -0.17127146 -0.09320005 -0.23441663 0.029561803 -0.083774865 -0.58928263 -0.18447079 0.3284463 -0.17826055 -0.13145657 0.34771633 0.18701242 -0.11700323 -0.15690936 -0.060551908 0.120753594 -0.28581354 -0.83843935 0.49406973 0.13290396 -0.33259758 -0.018880755 -0.09963433 1.0977136 0.5695187 0.20862675 -0.40167448 0.40032676 -0.27392665 0.1541368 -0.110898525 0.8496574 0.40987796 0.3109444 -0.33765835 -0.35384277 0.36459315 -0.31101173 -0.15941218 -0.018936712 -0.089972906 -0.14184768 -0.9395629 0.39864287 0.483964 0.010124223 0.1893411 -0.20073867 0.39731526 0.10258819 -0.28920957 -0.3173148 -0.08357755 0.033844583 -0.020310901 0.4143184 0.10557765 0.34892365 -0.2413112 0.122966446 -0.16598056 0.25862834 0.05357787 -0.18199952 0.2986187 0.0053438274 0.16072711 0.26523802 -0.57068074 -0.13470612 0.34471563 0.004199476 -0.3563458 0.417049 -0.71518564 -0.36147994 -0.46151972 -0.036279052 0.024273198 0.21079694 -0.4488181 -0.5584991 0.24297166 0.085876696 0.2502391 0.5046049 -0.045620494 0.0059087444 0.13758531 -0.0777383 -0.17614916 0.08501198 0.23663063 0.5473514 -0.34535936 -0.069551915 -0.20818992 0.08924161 0.18133585
76 -0.11286308 -0.52291423 -0.21660915 -0.1642983 0.1177573 -0.07527781 -0.29445678 -0.06633747 0.7717401 0.05446913 -0.07170031 0.28867823 -0.10272705 0.11990879 0.17015913 -0.06348665 -6.570584e-05 -0.22455223 -0.10623015 0.3072243 0.027927548 0.44392565 -0.71390617 0.5374574 0.30349103 0.24730611 -0.11674538 0.039679993 0.32443547 -0.17899221 0.23025073 -0.054646056 0.116853185 0.26949376 -0.19630194 -0.19067197 0.20332325 -0.33348155 0.047061153 0.026349006 -0.13291879 -0.117777646 -0.37561902 0.16520472 -0.0018654929 -0.08384707 -0.38820785 -0.08188887 -0.110996544 0.124772675 0.27551547 -0.19938315 0.29609096 -0.013531347 -0.014379961 -0.0074519073 -0.44925132 0.17996247 -0.2058547 0.11438857 -0.036713198 0.1400923 -0.22618933 -0.018004676 0.03870945 -0.022380421 0.049810294 0.17763054 -0.33088273 -0.09699713 0.09174909 -0.29213658 0.26262793 0.29366496 0.16521786 -0.04563743 -0.05433544 -0.21235377 -0.2614017 -0.3888488 0.06958238 -0.120958365 -0.5555146 0.022818955 0.07755495 0.24773689 -0.08072214 -0.0016107808 0.20711 -0.13779968 0.022066228 -0.008980247 -0.22583678 -0.08813328 -0.01975069 0.094836354 0.12478075 -0.5425138 0.037434164 0.07074354 -0.27239266 -0.16854212 -0.063105576 0.42601824 -0.01233277 -0.48653397 -0.018624248 -0.08286299 -0.07482499 -0.10819439 0.3725699 0.33723006 -0.24349162 0.17567849 0.043065432 0.06321294 0.27564272 0.63426316 -0.052519307 -0.06600207 0.3126262 -0.051921964 0.48370522 -0.32919523 0.011218767 0.27118298 0.04634736 0.093201816
165 -0.024087725 -0.535213 -0.03870275 -0.23806924 0.2657924 0.03996968 -0.09658773 -0.008032839 0.7015611 0.2401632 0.034226473 0.2874127 -0.07395707 0.10444639 0.09473559 -0.05121979 -0.032422494 -0.3627812 -0.19234772 0.24181166 0.10555736 0.44686267 -0.57225394 0.42874098 0.17248885 0.28975496 -0.17223597 0.113456115 0.18844068 -0.22755153 0.1260924 -0.05336124 0.2882033 0.14440455 -0.12558457 -0.16919327 0.17656769 -0.23408389 0.08381504 -0.053580254 -0.16044372 -0.09798208 -0.47842708 0.034649804 0.090141505 -0.11971468 -0.35929906 -0.0879853 0.020102514 0.09838889 0.087924026 -0.12071229 0.3075574 -0.06439615 0.053846747 -0.017910762 -0.4739783 0.106050506 -0.18131734 0.15103126 -0.06349864 0.1279482 -0.2470149 0.09593558 0.028605815 0.0032940127 -0.114354394 0.18769869 -0.453436 -0.16262814 0.22233595 -0.35870937 0.17181872 0.30604762 0.21155672 -0.10863628 -0.089987256 -0.18127285 -0.22533047 -0.37488136 0.01908268 -0.34062487 -0.5842299 -0.031349123 0.036114123 0.13368712 -0.100082375 0.1616789 0.16660349 -0.2576183 0.029282419 0.11544513 -0.1885271 0.05397778 0.043688677 0.23649845 0.1158274 -0.6277857 0.006136853 0.16715716 -0.3482385 -0.09808808 -0.03462221 0.43023148 -0.07118357 -0.39726084 0.039461568 0.044580042 -0.20610768 -0.00514181 0.29500294 0.22785968 -0.16508077 0.044113036 -0.001360849 -0.0040269834 0.3000465 0.67125267 0.029385297 -0.11652239 0.24415259 -0.027679635 0.37333173 -0.36098972 -0.05264272 0.30646485 0.03506168 0.11369005
113 0.025532117 0.05190869 -0.0005414224 -0.22216481 -0.17305231 0.14611284 0.11347933 0.33197582 0.23694381 -0.31053898 0.19429341 -0.61432076 -0.44509563 -0.17603001 0.2079065 -0.32648975 -0.16046475 -0.056375895 -0.10722813 0.11617496 -0.007459976 0.4325635 -0.10571014 0.43364564 -0.41451538 0.36993265 0.046886366 -0.29428068 -0.07951466 -0.010655678 0.2886342 -0.16483496 0.06398764 -0.18128528 -0.09854005 -0.02220802 0.08167207 -0.47165877 0.20173204 -0.07659407 -0.19667467 -0.11541394 0.25983146 0.080616385 -0.18543205 -0.019294662 -0.09977981 0.14616756 0.2887552 -0.26828125 -0.09115042 0.17093661 0.18350725 0.16636628 0.44880992 -0.11399672 -0.3035681 -0.07721599 0.19206695 0.013285938 0.26136377 -0.07223428 -0.27476162 0.116929255 -0.20243394 0.13101254 -0.2406503 -0.08283613 -0.3174645 -0.3393636 -0.16102989 -0.22742756 -0.0800423 -0.3560015 -0.07824254 0.093023665 -0.013339507 0.05597287 0.36716247 -0.56676567 0.22619733 0.04682559 -0.09150632 0.26900962 -0.0072571496 0.21266532 -0.19535363 -0.13661245 0.5563715 -0.23732539 0.37103024 0.1791291 -0.59564173 0.13354479 -0.07643973 -0.51565784 -0.11543766 -0.28581694 -0.15103902 0.67702043 -0.03577044 0.10402938 0.47748592 -0.3096953 -0.0073788683 0.021578876 0.29774007 -0.14998952 0.32655036 -0.7703653 -0.24478495 0.28797844 -0.34665108 -0.03473839 0.31776294 0.14854756 -0.41394046 0.293619 0.021360442 0.12096866 -0.0886376 -0.1886139 0.119485974 0.4501943 0.30202076 0.16522838 -0.16841532 0.028749427
74 -0.022441458 -0.44987196 -0.06269355 -0.14577001 0.18273342 0.098757856 -0.19002277 -0.045006406 0.68876797 0.07397039 0.0727225 0.21769078 -0.19590555 0.05030753 0.07831986 -0.060111012 0.050806724 -0.19877331 -0.08491107 0.23137385 0.07309222 0.4165209 -0.61528087 0.46896037 0.18393558 0.18854222 -0.13830167 -0.0047651487 0.25855896 -0.3223712 0.1640915 -0.043814447 0.11244613 0.17450401 -0.16201974 -0.2513046 0.19801088 -0.2473481 0.033235442 0.079089865 -0.07551701 -0.095751554 -0.4940847 0.10845602 0.05424602 -0.17102782 -0.48398268 -0.06789324 -0.10743298 0.15864539 0.08551223 -0.04552959 0.2915717 -0.080950856 -0.043467782 -0.03947267 -0.39430594 0.123228304 -0.25319234 0.09200464 -0.039290376 0.0803853 -0.25245553 -0.07965309 -0.026787857 0.021342581 -0.017750897 0.22249977 -0.32159743 -0.09441192 0.15114003 -0.3320506 0.31265905 0.2246733 0.25422746 -0.027489532 -0.10365432 -0.21923247 -0.23165327 -0.29737726 -0.03293491 -0.19632472 -0.581252 -0.08642766 0.042636916 0.26384673 -0.13924406 0.16717339 0.14986591 -0.19675943 0.18553893 0.030732578 -0.14553842 -0.02909071 0.033350196 0.21220572 0.1932585 -0.6095091 0.08816993 0.10393933 -0.30545136 -0.19324851 0.011682387 0.41034847 0.02443979 -0.4935166 -0.07887529 0.095187925 -0.06904938 -0.060299788 0.31570047 0.37134537 -0.1202232 -0.0043809675 0.03631774 0.004675623 0.18896745 0.5593634 0.18050477 -0.19060685 0.34876806 -0.15372032 0.418824 -0.32199475 -0.077274576 0.37452722 -0.02310667 0.021836698
136 0.015934866 -0.34090897 0.2112224 0.19662593 0.13194 0.13479324 0.21438861 0.9437809 0.051352754 -0.30222166 -0.22072604 -0.13858704 0.2421317 -0.37926304 -0.16475631 -0.1462272 -0.16199149 -0.118984796 -0.046495594 0.13233307 -0.22965093 -0.121381775 -0.3049609 0.32626703 -0.10539696 -0.03088982 -0.13848133 0.112013005 -0.2991083 -0.07363839 0.157451 0.03344361 -0.19086745 -0.13554828 -0.22519517 0.017506495 -0.32153434 0.1451292 0.20408326 0.33077353 0.20661612 -0.1423224 0.037683535 -0.25551468 -0.29553849 -0.09427443 -0.6303607 -0.17984577 0.2410856 -0.08070334 0.07109759 -0.09748172 0.42054266 -0.031057164 0.28074503 -0.32380646 0.02255065 -0.12402029 -0.09107464 0.042809933 0.37543947 0.04059613 -0.102893256 -0.23319481 0.21619965 0.3431649 -0.17080276 0.1286439 -0.31796452 -0.30296007 -0.14627957 -0.58529174 0.13276786 0.65341735 -0.08418958 0.25033575 -0.114235036 -0.28486842 -0.19775532 -0.82508963 0.31158337 -0.15371741 0.00968572 0.12614183 0.1594858 -0.16005532 -0.07284554 0.06686104 -0.06586814 0.19591692 -0.07298326 0.09202478 -0.60594934 0.0016642393 -0.45706734 0.24543613 -0.091433816 -0.31957224 0.112942435 0.026709225 -0.21610586 -0.065564096 0.4939072 -0.07741216 -0.6056087 -0.53867763 0.18439871 -0.18013676 0.105486535 -0.5018467 -0.3554433 0.43914172 -0.098512754 0.31792784 0.17075236 -0.3326882 -0.04617162 -0.11396237 -0.19823074 -0.26468384 -0.2959378 0.18492451 0.122466795 0.08516666 0.5475744 -0.24358909 -0.07130054 -0.44206718
112 -0.048179433 0.09941919 0.08197486 -0.20081009 -0.18035434 0.07827555 0.3159436 0.434514 0.26855677 -0.3461786 0.19007859 -0.6647212 -0.3178693 -0.16046235 0.29250312 -0.35131407 -0.13109727 0.05571916 -0.06877269 0.11162706 -0.011671745 0.48936126 -0.1028487 0.4138665 -0.3591494 0.28217024 0.009338544 -0.30200046 0.003564396 0.0810332 0.19963641 -0.1436619 0.08637893 -0.18816246 -0.03255785 -0.08481281 0.10527514 -0.3858685 0.16387802 -0.114260346 -0.29190797 -0.16447714 0.21081103 0.18201463 -0.067240536 0.026574265 -0.09405152 0.17793983 0.33092842 -0.25707394 -0.08599821 0.11354842 0.19940363 0.115766495 0.4715479 -0.032168355 -0.30337855 -0.18105352 0.28980052 0.026426937 0.31876758 -0.04633068 -0.17756906 0.13755606 -0.16417298 0.03245395 -0.25337157 -0.04045655 -0.27353457 -0.42291853 -0.11059808 0.00049947965 -0.04344814 -0.36061162 -0.011026323 0.116827995 0.0019134284 -0.02009649 0.30128202 -0.5403247 0.26805195 0.118007734 0.0003711015 0.2318804 -0.048510514 0.26444772 -0.22505376 -0.07991467 0.57591677 -0.22062661 0.46394396 0.14190525 -0.46304032 0.07731838 -0.14319418 -0.4165996 -0.13539733 -0.2324136 -0.12903844 0.49994984 -0.14543866 0.055966243 0.46049082 -0.1860473 0.0021778054 0.0060675237 0.25496942 -0.1247975 0.3331022 -0.8410962 -0.15043038 0.42187288 -0.37972075 -0.1992653 0.3855893 0.24925259 -0.340424 0.30427745 0.018177865 0.017499687 -0.123709634 -0.18716681 0.2659461 0.35881296 0.3886719 0.24051385 -0.13305125 0.027072154
137 0.074836604 -0.3115409 0.3487005 0.19547226 0.025813168 0.069282785 0.14978012 0.9296666 0.19575775 -0.258549 -0.1360853 -0.18601532 0.19859819 -0.22663206 -0.12168394 -0.25831383 -0.1476551 -0.115319535 0.091606386 0.073963344 -0.054015122 -0.06961012 -0.3398168 0.3568728 -0.13819829 -0.07792295 -0.11845746 0.100803554 -0.16815048 -0.10546657 0.05871468 0.0757232 -0.18472229 -0.20656288 -0.24473694 0.1410746 -0.4315577 0.15682645 0.22921892 0.4590515 0.18293472 -0.083267584 0.16946825 -0.3419318 -0.23956682 -0.07337505 -0.68856525 -0.12680107 0.3342998 -0.11972548 -0.043303005 -0.15058066 0.38251725 -0.07679792 0.19644637 -0.30312663 0.13179971 -0.21759063 -0.17812717 0.024817169 0.28222778 0.042306513 -0.11839936 -0.21329731 0.16918588 0.3727006 -0.21616337 0.21070778 -0.21385354 -0.120590426 -0.22734736 -0.56670076 0.1891367 0.7409245 -0.06042382 0.25641054 -0.06944366 -0.3109493 -0.24314141 -0.777361 0.43549353 -0.07353935 0.008402772 -0.014882268 0.1599763 -0.2025368 -0.07112569 0.28480107 -0.0034085617 0.089853935 -0.15345278 0.10698109 -0.56236565 0.0092742415 -0.39687946 0.2577589 0.060014933 -0.45480186 0.14071299 0.16975963 -0.22702041 -0.09207851 0.5971729 -0.08303243 -0.58725077 -0.6498971 0.26660517 -0.13087113 0.2196532 -0.4805777 -0.3289675 0.37064672 -0.30338943 0.26007012 0.21933185 -0.2603553 -0.053544167 0.023349913 -0.16407509 -0.29243615 -0.2761305 0.11611735 0.1586185 0.012306917 0.51541716 -0.20929244 -0.16162723 -0.43128696
134 0.14774375 -0.4115696 0.37713215 0.2667591 0.19113897 0.22002853 0.21351415 0.8090335 0.048356168 -0.3814086 -0.17671016 -0.23886803 0.19582807 -0.35384682 -0.22007684 -0.013832536 -0.09771091 -0.018397233 -0.0079844855 0.06593828 -0.2573089 -0.07919376 -0.41987836 0.35724086 -0.28205967 -0.21647535 -0.14504412 0.053918615 -0.13219826 -0.11101411 0.21898422 -0.21713024 -0.098574705 -0.055657905 -0.19987297 0.0029442704 -0.28118297 -0.004409286 0.18872117 0.37422934 0.21249822 -0.10588145 0.041808836 -0.2872278 -0.08847358 -0.079406194 -0.62323284 -0.1788936 0.3629358 -0.20355204 0.025052309 -0.22060001 0.46190205 -0.1354708 0.40280008 -0.2947841 -0.10146524 -0.18729265 -0.08518548 -0.12014723 0.33626848 -0.054352142 -0.1567516 -0.30974877 0.17415923 0.3497985 -0.15006484 0.1898317 -0.22771157 -0.27550483 -0.19963217 -0.52392673 0.04656541 0.69679147 -0.12231539 0.28535125 -0.028604498 -0.26034707 -0.14156432 -0.9158997 0.3598008 -0.1422695 -0.022213757 0.08687753 0.25894135 -0.18580313 0.01622458 -0.07281618 -0.033248372 0.039383177 -0.12333311 0.090756126 -0.6571303 0.06496141 -0.4060123 0.30470836 0.12347708 -0.45061916 0.075310245 0.10504996 -0.20704696 -0.03798004 0.48650286 0.02775022 -0.61907506 -0.65513855 0.18961412 -0.20674574 -0.0037773862 -0.44063887 -0.26757663 0.21251655 -0.09360135 -0.0055529717 0.22131588 -0.34525907 -0.065134384 0.033594172 -0.065874286 -0.2360876 -0.28576717 0.1897223 0.10124407 0.18703264 0.31344694 -0.26941332 -0.023719376 -0.38452095
203 0.34182367 -0.1505317 0.25282636 0.30763492 -0.32171354 -0.0845332 0.33156085 0.268619 0.39116552 0.7221487 0.045728326 -0.144428 0.15634693 0.20914005 0.111075126 0.32747176 0.0755506 -0.2044473 -0.019746004 0.4708404 -0.16772963 0.12689565 0.29279533 0.17969854 -0.11753192 0.25267157 -0.43594396 -0.28056246 -0.2238934 -0.13430385 -0.07606657 -0.23975389 -0.026314355 -0.14197744 -0.47553238 -0.29572824 0.43624905 -0.21226352 -0.2589599 0.33552557 0.19372548 -0.12700538 -0.14671773 -0.046832666 0.17325985 -0.33274904 -0.79158324 0.45217353 0.08459743 -0.3842865 0.003569494 -0.22823378 1.0997604 0.5528939 0.33566844 -0.40860248 0.3301157 -0.3147209 0.13884819 -0.26149163 0.916024 0.38721153 0.3368013 -0.34726524 -0.34433165 0.42373973 -0.3759336 -0.058509078 0.036109336 -0.0445592 -0.22430737 -0.8722597 0.37668887 0.44489503 0.018163163 0.112215266 -0.17191212 0.4068531 0.09066836 -0.30309963 -0.27261823 -0.10949719 0.17182994 -0.015791507 0.4492823 0.11753983 0.36269334 -0.2518078 0.124669485 -0.17129639 0.21679115 0.05427665 -0.25288907 0.2043411 -0.024823925 0.044042453 0.18514678 -0.57885915 -0.13710864 0.35401207 -0.040114984 -0.39889622 0.559298 -0.55967486 -0.2761146 -0.5548825 -0.05541506 0.1490269 0.13211304 -0.46757585 -0.68010277 0.18173647 0.07774795 0.24781649 0.52738297 -0.04101706 -0.016773501 0.087735616 -0.06430726 -0.29144627 0.077795826 0.35850203 0.52397317 -0.45674616 -0.11445134 -0.23664641 0.051738616 0.21718672
169 0.031922195 -0.58727753 -0.1026854 -0.11439899 0.108965166 0.043020546 -0.23915882 -0.07609679 0.7791208 0.07508571 0.071085624 0.29017395 -0.14592229 0.061756548 0.093621425 -0.051298622 0.03342199 -0.23483203 -0.12730208 0.15717041 0.08947134 0.39201942 -0.69493204 0.41775048 0.2026972 0.21727546 -0.12187054 -0.048370726 0.24115303 -0.21953784 0.11110927 -0.14453468 0.2435213 0.11910133 -0.16781387 -0.155976 0.21204911 -0.33094847 -0.026898615 0.06374307 -0.057753965 -0.049854647 -0.39952406 0.14911264 0.044265233 -0.14988136 -0.38945064 -0.18806794 -0.0836133 0.053537875 0.13528387 -0.24688038 0.3347884 0.006372783 -0.13407344 -0.032541223 -0.5095933 0.102065735 -0.16145857 0.062953174 -0.05805455 0.15721893 -0.29051986 -0.004373729 0.023181133 0.008458145 -0.10420548 0.18370634 -0.3772751 -0.098166436 0.16190088 -0.3028104 0.22562711 0.30566382 0.1751758 -0.04168876 -0.10463916 -0.14523222 -0.09338596 -0.45254076 0.057416115 -0.21900994 -0.6132834 -0.04930155 0.08263041 0.18297629 -0.04000981 0.07162728 0.18151668 -0.23455527 0.028336624 0.09534434 -0.24155772 -0.054378476 0.06183607 0.11763185 0.19375199 -0.6716973 -0.0072368477 0.17762284 -0.36457655 -0.1267665 0.07694883 0.4390346 0.044740893 -0.44203675 -0.012790033 -0.037470367 -0.13905317 -0.028354345 0.27382657 0.343374 -0.15208144 -0.0636953 -0.04802815 0.054252148 0.27308598 0.6828081 0.02151667 -0.16316766 0.37889963 -0.08626437 0.40054825 -0.251751 -0.14928818 0.32707003 -0.024355855 0.0018398932
62 0.13870245 -0.327064 0.3108948 0.24122323 0.09954738 0.13179213 0.25414476 0.8919184 0.15672678 -0.37157542 -0.10299004 -0.14853194 0.13169675 -0.3201695 -0.28915793 -0.14913991 -0.08818968 -0.09087815 0.09714927 0.10340285 -0.24551986 -0.12651198 -0.47540498 0.2965464 -0.23141491 -0.21205163 -0.22166246 0.044263665 -0.26507047 -0.14177856 0.16653726 -0.10799827 -0.15400083 -0.044852555 -0.13152207 0.07085521 -0.2950045 0.17469545 0.24873224 0.54747915 0.2451987 -0.138659 0.055951737 -0.2730319 -0.19623023 -0.15200716 -0.7551299 -0.12884477 0.25629807 -0.14138943 -0.028474892 -0.12999982 0.4255506 -0.1593636 0.36714128 -0.30805287 0.03875181 -0.24741566 -0.2382796 -0.04584275 0.27395308 -0.031428598 -0.11547129 -0.32599634 0.18981202 0.39279577 -0.14654413 0.18720621 -0.27211928 -0.1445225 -0.33061126 -0.5575899 0.0559919 0.68034524 -0.14335872 0.27215904 -0.05639933 -0.3492861 -0.14129253 -0.8969268 0.37923113 -0.031578057 0.028427232 0.06683705 0.1528745 -0.014070575 -0.071064256 0.078418784 -0.04427774 0.19800861 -0.06416117 0.07465759 -0.66999054 0.059273213 -0.4921057 0.29985797 0.0056774714 -0.43506312 0.113556765 0.13266711 -0.25669357 -0.035759818 0.51207656 -0.023595162 -0.55830675 -0.63623595 0.3132628 -0.16558036 0.08160773 -0.45069656 -0.41102278 0.30932558 -0.26354194 0.18681698 0.14471264 -0.4437417 -0.10362964 -0.008833741 -0.12977476 -0.2736565 -0.296591 0.13608067 0.13467628 0.17832576 0.45142657 -0.31323752 -0.11783109 -0.3562435
75 -0.02153913 -0.4754499 -0.029082114 -0.15341295 0.2403894 -0.05566871 -0.16176304 -0.0089214705 0.67180246 0.11119168 -0.0071714963 0.21331628 -0.102412716 0.11816575 0.1310446 -0.041808315 -0.05254103 -0.23444837 -0.1437968 0.22696093 0.04286087 0.34478405 -0.6537447 0.4732901 0.1981646 0.26585642 -0.116399124 0.08112149 0.26473278 -0.20098609 0.1961033 -0.0033676913 0.14861465 0.25715214 -0.059567038 -0.23686549 0.13138868 -0.21387629 -0.011955346 -0.009534026 -0.13541687 -0.06923613 -0.4028227 0.081624776 0.08307948 -0.109770276 -0.37232175 -0.02653702 -0.0019929926 0.08255812 0.18293884 -0.1263399 0.26515752 -0.14384371 0.016059224 0.06973295 -0.43343332 0.055436376 -0.22881332 0.07388321 -0.058479622 0.1036537 -0.21124592 0.033486128 0.01357716 -0.01697726 0.05192315 0.20597933 -0.3571893 -0.0685012 0.13979697 -0.27019572 0.16305618 0.28458303 0.19565153 -0.12431326 -0.123589605 -0.27272767 -0.22970387 -0.37210825 0.02689393 -0.27104107 -0.53152937 -0.0120578725 0.09872157 0.22829342 -0.15892209 0.18734361 0.06896681 -0.23277147 0.06328736 0.06731519 -0.14951502 0.019050498 0.030885099 0.18947406 0.17534246 -0.60171694 0.10928362 0.15745364 -0.32848066 -0.1616595 -0.09968774 0.3444993 -0.0014170615 -0.5598963 0.060356755 0.07427938 -0.097809345 -0.14070372 0.3741722 0.22834493 -0.2967315 0.072606266 0.05582632 -0.06945891 0.24855773 0.6222157 0.044378106 -0.18916194 0.2166483 -0.072477564 0.41529593 -0.42613965 -0.033376846 0.31044498 -0.023498833 0.14668956
71 0.005549582 -0.56471807 -0.13825837 -0.22317503 0.10859091 0.036619265 -0.14001651 0.09913145 0.683423 0.13602781 0.025814105 0.25147814 -0.05607995 0.094152145 0.23989101 -0.10138835 -0.065181255 -0.22881177 -0.219914 0.21929608 0.083495185 0.44931582 -0.48760462 0.45432022 0.17920053 0.30195943 -0.057913624 0.024213795 0.33582103 -0.19100584 0.17203932 0.073493384 0.17871352 0.1473415 -0.14829962 -0.16959333 0.1803165 -0.28281048 0.053667106 -0.029060233 -0.1122353 -0.09872704 -0.39465415 0.056580547 -0.003887941 -0.11337957 -0.47503272 -0.0780243 -0.036829967 0.16278686 0.042495966 -0.11437626 0.2760458 -0.07279042 0.061294828 -0.0035570893 -0.51409894 0.11499077 -0.1648642 0.10321755 -0.012966219 0.16818786 -0.21073908 0.023794662 -0.0076881824 0.051837765 -0.040004328 0.17747562 -0.2707249 -0.15552527 0.31057706 -0.3188236 0.19857162 0.23824798 0.25587463 -0.10400177 -0.09559276 -0.23887321 -0.18896316 -0.36142707 -0.011049676 -0.25318235 -0.5010565 -0.12231914 -0.017785678 0.117702246 -0.20672852 0.20910548 0.16628583 -0.35529625 0.047650795 0.11319084 -0.083584465 -0.0067559485 0.0777324 0.20856436 0.13537149 -0.59841925 0.13936307 0.10397727 -0.4097908 -0.07980006 -0.012941735 0.34005144 0.004744739 -0.49563822 -0.06678989 0.12591304 -0.026734268 -0.044042572 0.36778453 0.29098007 -0.28591675 0.11078448 0.07731179 0.08833638 0.32186916 0.6009831 0.071362 -0.14012392 0.21567963 -0.08084424 0.41213104 -0.42654514 -0.04449791 0.35820395 -0.054121275 0.052501593
61 0.043892678 -0.4707194 0.26035273 0.21668607 0.11896282 0.14967512 0.32722327 0.8645795 0.26142138 -0.40246075 -0.18955174 -0.21081983 0.21258485 -0.35302427 -0.1357276 -0.14277075 -0.11215022 -0.01998202 0.02573714 0.030648109 -0.20934969 0.014656545 -0.41219512 0.39013508 -0.22663844 -0.20028254 -0.17100194 -0.018022327 -0.33462983 -0.20106289 0.1885422 -0.06273902 -0.08613557 -0.16259137 -0.2857922 0.17612514 -0.342249 0.10497647 0.2770734 0.40469575 0.24763866 -0.09749971 0.083834045 -0.36188924 -0.1715636 -0.13124485 -0.65149456 -0.2099202 0.3254318 -0.14243099 -0.0681132 -0.14657275 0.31025273 -0.1379963 0.27162004 -0.32629603 0.09785558 -0.08104499 -0.16742684 -0.1284264 0.24927793 -0.0055940747 -0.24071702 -0.22894903 0.14247899 0.36259198 -0.24458815 0.20051402 -0.24673674 -0.15765692 -0.21074162 -0.56370306 -0.051832102 0.6292423 -0.12323549 0.27752233 -0.032968447 -0.2958837 -0.22952089 -0.8069698 0.35829514 -0.10080091 -0.009286603 0.08408964 0.17306763 -0.13884632 -0.09056897 0.23705427 -0.11867188 0.14494352 -0.15460297 0.09007744 -0.56680083 0.03528081 -0.4595547 0.31552145 0.04942873 -0.3879458 0.057336565 0.19400243 -0.21733193 0.07147264 0.5286118 -0.06911545 -0.59674376 -0.5742682 0.21650976 -0.11402208 0.08465617 -0.36791068 -0.31886718 0.27467787 -0.19564338 0.15164578 0.114610516 -0.41958132 -0.03833246 -0.007280841 -0.16554092 -0.19809511 -0.24275146 0.15519615 0.03856807 0.06951439 0.40009585 -0.25733286 -0.20469415 -0.45481715
63 0.13725917 -0.43569127 0.27931318 0.22947441 0.26409504 0.11448767 0.34402913 0.9057349 0.092771366 -0.38795465 -0.13527259 -0.11540534 0.15559052 -0.25077263 -0.28320676 -0.13497315 -0.10659714 -0.20904686 -0.053547997 0.07393892 -0.19043252 -0.11831759 -0.43539268 0.24931957 -0.23929235 -0.1751864 -0.09917806 -0.015123475 -0.17057538 -0.15002635 0.064683154 -0.016418062 -0.054367617 -0.07540865 -0.28044483 -0.009475987 -0.34810248 0.122476585 0.2336192 0.27607462 0.08903683 -0.0151226 0.18817389 -0.2947413 -0.32399294 -0.17479585 -0.54681593 -0.22337805 0.38735235 -0.19961719 -0.09142196 -0.102634676 0.4480541 0.008023007 0.25922394 -0.2867829 0.06722348 -0.20460153 -0.18205106 -0.020760626 0.424979 0.014461231 -0.20766112 -0.2949535 0.2764795 0.2821128 -0.25519475 0.19335459 -0.26439533 -0.2773567 -0.18455602 -0.65103084 0.14011097 0.69295776 -0.15529764 0.2195841 -0.04880771 -0.2890972 -0.099879324 -0.7675489 0.3754751 -0.15358059 0.061315835 0.10349594 0.18972498 -0.21468748 -0.12222291 0.21963759 -0.0035406044 0.204348 -0.13065438 0.08413352 -0.6055862 0.03737783 -0.40915105 0.2591809 -0.022696065 -0.38656214 0.05830511 0.26388124 -0.2072096 -0.096205056 0.5029179 -0.12938127 -0.56417495 -0.44658706 0.24708834 -0.21385683 0.07726006 -0.4778982 -0.25317344 0.26462674 -0.13525687 0.15955275 0.025119314 -0.31024486 -0.037991658 -0.042422276 -0.21547902 -0.17267235 -0.23546831 0.09579364 0.062046792 0.054768056 0.5221155 -0.17756623 0.051456213 -0.39443034
73 -0.009690232 -0.4908149 -0.13458806 -0.19836725 0.22559784 0.011335487 -0.13461426 0.025372796 0.6676269 0.061864045 0.0046799406 0.13648611 -0.21973626 0.12959687 0.08766001 -0.012457628 0.04080712 -0.23213619 -0.1314196 0.21022668 0.04306904 0.3789137 -0.71617234 0.44969556 0.18866996 0.17222019 -0.13169147 -0.031079117 0.20828524 -0.1811438 0.16336763 -0.13100326 0.17548017 0.2719999 -0.14316005 -0.2527686 0.17873819 -0.25127867 -0.016515302 -0.040557507 -0.12560211 0.009498045 -0.4024032 0.1394175 0.045586646 -0.1126069 -0.3529167 -0.044407666 -0.05960521 0.07313675 0.16369787 -0.14978589 0.35079175 -0.018027516 -0.020724744 -0.013239024 -0.44522542 0.02925616 -0.20520476 0.039084155 -0.08002359 0.118249595 -0.19080693 -0.01103351 -0.00466181 -0.08975971 -0.012560327 0.16641574 -0.3529644 -0.15682217 0.10278416 -0.24047361 0.24617499 0.3545877 0.13962513 -0.12983933 -0.10038771 -0.25660497 -0.18375498 -0.39660448 -0.010793269 -0.33779013 -0.48890844 -0.032962047 0.10808287 0.21323423 -0.10519569 0.016960165 0.16800466 -0.19584495 0.05905988 0.029799836 -0.17407162 -0.053740487 -0.0015479757 0.17181823 0.22444677 -0.63063836 0.035140056 0.15061764 -0.29352057 -0.21746604 -0.017276447 0.37804058 0.034241557 -0.5560118 0.12060181 0.033094417 -0.07104275 -0.13097668 0.31536418 0.328969 -0.12538864 0.012253983 -0.048463717 0.09165265 0.24254382 0.59827125 0.049226325 -0.2165474 0.3468352 -0.07816357 0.39123031 -0.37211722 -0.005463326 0.37913686 0.056269974 -0.001640201
72 -0.036278583 -0.58708304 -0.19470896 -0.21464083 0.10327662 -0.02073309 -0.19121394 -0.024793625 0.77144104 0.06790184 0.005654213 0.12960708 -0.15672159 0.06660735 0.23720951 -0.13229913 0.07892275 -0.17127971 -0.09091945 0.3246528 -0.020430299 0.44733906 -0.7303244 0.50544614 0.24573441 0.253556 -0.11116863 -0.011155762 0.29549143 -0.19380125 0.23798047 0.05412656 0.08308066 0.20312473 -0.20171617 -0.22356671 0.2219221 -0.2942925 0.035783675 0.06813437 -0.10785059 -0.08937305 -0.36814046 0.16146456 -0.0418378 -0.13683799 -0.4119533 -0.04598047 -0.11831216 0.17215076 0.14847845 -0.17612398 0.26249218 -0.07479181 -0.051359784 0.02738778 -0.48152 0.13676256 -0.18709484 0.044691376 -0.071265206 0.1594156 -0.25364462 0.006825163 -0.00065632194 0.02797427 -0.021362616 0.2167737 -0.23065369 -0.08551423 0.18471235 -0.30913082 0.24333216 0.21586151 0.21827616 -0.033125684 -0.1429153 -0.20558287 -0.18775313 -0.3699318 -0.011514929 -0.16587818 -0.57764053 -0.015343356 0.051932912 0.20349108 -0.13444716 0.1278453 0.15813646 -0.2640965 0.10841744 0.022326848 -0.13788736 -0.06488862 -0.0073259035 0.19129145 0.16763301 -0.59193504 0.07838793 0.19860251 -0.28753588 -0.1591151 -0.050466157 0.45957816 0.027187664 -0.53901285 -0.04556676 0.057893038 -0.028500574 -0.15620531 0.33998713 0.36033788 -0.24796747 0.005075699 -0.010951844 -0.030847179 0.22226919 0.5856092 0.012178419 -0.143112 0.34130642 -0.07527905 0.40713775 -0.4202599 -0.027254432 0.38655555 0.010247184 0.056067
215 0.04334671 0.25360256 0.08688751 -0.29737484 -0.18922521 -0.16460752 -0.050127584 0.11244625 -0.11286761 0.18209216 0.32254913 0.08224093 -0.28272393 -0.6307504 -0.13418901 -0.022301037 -0.05125135 -0.2913906 -0.13436697 -0.23052137 -0.051543735 -0.5522425 -0.13308671 -0.31202373 -0.14582601 -0.09664767 0.052932743 0.073654935 -0.28188396 -0.39091647 0.35330832 -0.09743221 0.30126783 0.08483378 -0.07412208 0.023733208 0.23851019 -0.36843747 0.2500853 -0.39040503 -8.6776345e-07 -0.27699965 -0.4370791 0.11109131 0.00016596419 -0.254847 -0.26081824 0.36302713 0.01497858 0.032344133 0.20862384 -0.10447493 0.38809988 0.11357517 -0.12331015 0.339809 0.066161565 0.007366045 -0.20377572 0.29590887 0.4487503 0.0021999476 0.23848556 -0.06446655 0.22512117 0.29999354 -0.09576629 -0.3820402 -0.21407601 -0.08646372 -0.066625126 -0.01293095 -0.58698654 0.29476804 -0.094025075 0.47682112 -0.32966796 0.15311962 0.024450304 -0.2892786 -0.22843856 -0.55629104 0.20257391 0.27343214 0.0033119472 -0.008018412 -0.399461 0.17517562 -0.024003718 -0.21323408 -0.12709197 0.15298721 -0.502529 -0.33981836 0.32978946 0.32635847 -0.36889333 0.07292597 -0.08092693 0.15175739 0.13556473 0.07142707 0.43895137 0.40547442 -0.35967293 -0.2640043 0.376191 -0.10436858 0.119529225 -0.21920262 0.0723617 0.3656148 -0.15404095 0.2602987 -0.044590328 0.014457823 0.08489144 -0.33526084 0.3165854 -0.21574059 0.39835504 -0.04767768 0.04729024 0.06648542 0.29763663 -0.51373106 -0.22377162 0.09488829
214 -0.027694099 0.4356767 0.096928485 -0.13775843 -0.19758658 -0.024661534 -0.0129344845 0.045210566 -0.11272601 0.20342028 0.1694343 0.16892359 -0.20976692 -0.44693422 -0.12492375 -0.056093626 -0.027236393 -0.17718855 -0.06466622 -0.1268205 0.15735814 -0.55139655 -0.12136343 -0.21659617 -0.083436154 -0.15351564 -0.0073645827 0.10994693 -0.19161934 -0.451123 0.35075366 -0.22244605 0.39544454 0.16018665 -0.03850505 0.07527019 0.18365113 -0.38591903 0.38074616 -0.36172283 -0.037971552 -0.26086777 -0.41255978 0.09142358 0.08989829 -0.24508297 -0.35089594 0.46418875 0.04644206 -0.12014485 0.29503918 -0.17586495 0.37917596 0.007248194 0.196466 0.38051102 0.17009176 -0.02585299 -0.19025093 0.22388557 0.473084 -0.0247425 0.26809028 -0.007690301 0.14424697 0.25627756 -0.2148382 -0.33455116 -0.29339716 -0.1323428 -0.13708012 -0.043662872 -0.6545716 0.08659602 0.047118988 0.4939944 -0.18821537 0.13601863 -0.11953978 -0.27179912 -0.25672662 -0.42635477 0.14317134 0.2931036 0.020995157 0.104812354 -0.2857563 0.09354238 0.031356882 -0.06675512 -0.19477391 0.16179854 -0.3724599 -0.27092338 0.43777817 0.29900035 -0.32724857 0.15424052 0.12720951 -0.09258008 0.07923689 -0.020334145 0.3972923 0.51935726 -0.39260682 -0.43332213 0.34350562 -0.068903126 0.26025304 -0.20729603 0.11721819 0.3948805 -0.21184437 0.27071658 -0.13098176 0.0131682055 0.018492414 -0.29435882 0.27725798 -0.30553123 0.3392523 -0.12682903 0.16099088 -0.011497437 0.3609108 -0.36377248 -0.07700506 0.12562811
168 0.0011783317 -0.47792685 -0.055670112 -0.13622546 0.11893169 0.1280719 -0.2361708 -0.03483825 0.7104465 0.0754499 0.024585929 0.28836662 -0.060739696 0.124401115 0.12854837 -0.07572257 -0.02206458 -0.2413306 -0.14687137 0.21569799 0.081398055 0.39705777 -0.61871994 0.410608 0.21667281 0.16279086 -0.20529206 -0.0025492671 0.34514982 -0.22455853 0.07011964 -0.016377745 0.18609318 0.12592404 -0.12829894 -0.2153393 0.17962275 -0.2713575 -0.013016773 0.10077868 -0.13180679 -0.07598674 -0.41963738 0.13449492 0.06475467 -0.08710802 -0.4153023 -0.13567685 -0.053819105 0.080603294 0.14681387 -0.2071643 0.34789327 -0.027807636 -0.09949567 -0.012029728 -0.407514 0.09896558 -0.13808575 0.01573079 -0.031447254 0.1693011 -0.17743711 0.036017023 -0.016756978 0.040407024 -0.09220135 0.20723686 -0.34522852 -0.18449496 0.10372239 -0.40993243 0.3112601 0.31019542 0.24595352 0.047359515 -0.14406845 -0.20580202 -0.20156926 -0.38262707 0.044452477 -0.18967716 -0.5980216 -0.06653415 0.055778775 0.14525448 -0.06715609 0.15420489 0.22555003 -0.24072438 0.04690054 0.036435835 -0.24601556 -0.057617623 0.06207593 0.2229508 0.16191313 -0.6363285 0.048852533 0.10081869 -0.30248183 -0.1692942 0.055323586 0.35441688 -0.06773272 -0.4764794 0.041138932 0.07505759 -0.08818204 -0.042808007 0.2946836 0.31480166 -0.13305981 -0.038318638 -0.069960035 0.009562612 0.27646232 0.63984454 0.0858087 -0.15879856 0.2771408 -0.09113752 0.40898645 -0.30441746 -0.082387716 0.31509987 0.050332822 0.06048629
64 0.15050788 -0.40498003 0.27884185 0.28116357 0.06825409 0.03886567 0.41390628 0.9527942 0.074810125 -0.39765474 -0.19439764 -0.118658595 0.21323128 -0.38974163 -0.22886452 -0.15099546 -0.09142612 -0.12834848 -0.052430764 0.052644722 -0.1022305 -0.15008779 -0.34435374 0.32943743 -0.2394764 -0.13969775 -0.0806228 0.1308644 -0.19342595 -0.1362733 0.12944163 -0.06696614 -0.106323354 -0.17465469 -0.33206102 0.047302045 -0.3194409 0.016225122 0.3152806 0.39491522 0.21269397 -0.14098218 0.07377601 -0.34798408 -0.3669283 -0.05187611 -0.6979874 -0.16931684 0.29264143 -0.100375906 0.07964323 -0.11403682 0.4222984 -0.043674964 0.31545553 -0.29090273 0.04205299 -0.15687375 -0.18838678 -0.061339803 0.30694148 0.10010742 -0.172588 -0.2455398 0.16225964 0.3863222 -0.18008086 0.17779829 -0.20128676 -0.21874163 -0.18060976 -0.6426725 0.1728789 0.63654023 -0.11722756 0.23016246 -0.0074344543 -0.2441238 -0.16549414 -0.7546963 0.3637051 -0.09860611 0.07519114 0.1481291 0.241948 -0.23864774 -0.09207307 0.15655865 -0.047800917 0.12515841 -0.15774702 0.044673763 -0.5684302 0.009917937 -0.327011 0.30336708 -0.015746916 -0.45941627 0.1519441 0.18957971 -0.17128454 -0.04396139 0.4005109 0.002445142 -0.43312022 -0.5390216 0.118659794 -0.18866605 0.17872043 -0.5591128 -0.328049 0.35431466 -0.24437998 0.20370868 0.24242091 -0.4110613 -0.103249714 0.03904232 -0.17561042 -0.15516277 -0.20132017 0.15721053 0.12881282 0.06236477 0.5080459 -0.22011422 -0.0684737 -0.3826136
7 -0.089470595 -0.1894643 0.029747821 -0.14765723 -0.2785703 0.15528212 0.3775792 -0.22532171 0.6404165 0.2538964 0.06305042 0.14309639 0.28716856 -0.19304202 0.52356446 -0.113299504 -0.44397202 0.04240282 -0.29950088 -0.09186131 0.55182016 -0.23254092 -0.4556887 0.08481319 -0.028545028 -0.2887079 -0.7347607 -0.5649368 -0.6747977 -0.09254412 0.1637352 -0.31973734 -0.18653944 0.49870944 -0.13170688 0.14294755 0.12575229 0.30238575 -0.31465292 -0.1322511 -0.31213486 0.20139886 -0.04947192 0.045564767 -0.20073922 -0.09621947 0.06437425 0.12961528 -0.033450726 -0.10373572 0.24664405 0.0391391 0.41809332 -0.34290895 0.4241329 0.115435295 0.3608043 0.13210073 -0.18505709 0.019525105 0.7678248 0.061707288 0.16125329 -0.1485646 0.10993735 0.41921797 -0.3262706 0.069472946 0.19512764 -0.17243478 0.26131654 -0.5310788 -0.27882698 0.06948007 0.33832827 0.20363487 -0.32005385 0.047214374 -0.039043523 -0.2558048 -0.29195517 -0.40268096 -0.27647015 0.43752402 -0.43606868 -0.6483061 0.47781977 -0.14433084 -0.014291458 -0.025884895 0.48121223 -0.18790929 -0.296797 0.2199455 -0.29811627 0.14254832 -0.37171984 -0.4574207 -0.03192443 0.6997734 -0.088000335 0.16151623 -0.07246837 0.33815378 0.008128107 -0.5108551 0.10366944 0.24497063 0.19603671 0.047393806 0.30450526 0.16288438 -0.10719843 0.25398627 -0.59659123 0.14900398 -0.14630106 -0.535308 -0.5029391 0.19633202 0.12942567 -0.14504278 -0.07757883 -0.1961243 -0.37495813 -0.13648416 0.029404486 0.1692622
11 -0.030855335 -0.21370316 0.12695491 -0.118374065 -0.21147417 0.108142614 0.43386084 -0.02362925 0.77613217 0.1115401 0.13588214 0.05554697 0.32983455 -0.162845 0.50691754 -0.17460729 -0.5632969 0.0060463026 -0.31506974 -0.14794312 0.597563 -0.21813639 -0.57600296 0.064286284 -0.0938349 -0.2623912 -0.7233691 -0.4963001 -0.63301635 -0.09343455 0.085639596 -0.42759177 -0.20606634 0.41971326 -0.14848055 0.16305545 0.1647668 0.28808102 -0.35995007 -0.07592349 -0.27579644 0.25809747 -0.023518397 0.09292385 -0.17770323 -0.0954811 0.19812845 0.09683919 0.04673082 -0.0940765 0.3214034 0.025795512 0.29029965 -0.33290413 0.40240982 0.042729277 0.3672571 0.19718966 -0.13449042 0.013236656 0.7365241 0.14672418 0.13238917 -0.18265566 0.19280733 0.37521473 -0.35939372 0.05953585 0.1956105 -0.16111363 0.24043338 -0.41140267 -0.24080412 0.090768926 0.28319395 0.10659779 -0.29278332 0.09129533 -0.027724791 -0.27468157 -0.1544273 -0.30147955 -0.22368729 0.33119524 -0.38948345 -0.657391 0.5193287 -0.123670526 0.030446785 -0.04927299 0.44078818 -0.22511095 -0.39985242 0.31688738 -0.298592 0.07989817 -0.39713746 -0.46327543 -0.027906528 0.81782186 0.0190282 0.20271994 -0.06832921 0.3800462 0.05990798 -0.51926 0.1338969 0.1546081 0.19476779 0.053782705 0.38326755 0.15574913 -0.04086654 0.33555394 -0.598754 0.10341583 -0.15118858 -0.5716999 -0.4531264 0.18528368 0.2460385 -0.17855445 -0.01310578 -0.32813072 -0.33013216 -0.15717775 0.09821935 0.24982099
197 0.10228237 -0.544376 -0.07428326 -0.2642925 0.12609728 -0.101651154 -0.36714536 -0.00797498 0.653957 -0.032434855 0.00880249 0.057560492 -0.17091899 0.1516418 0.075214766 -0.13291448 0.013808092 -0.22400767 -0.07269218 0.27507275 -0.09110262 0.35414973 -0.74208456 0.49297073 0.1893067 0.21932982 -0.1556877 -0.015433082 0.16519196 -0.17163281 0.24972914 0.054111153 0.09393581 0.2505491 -0.13718477 -0.14149764 0.18631533 -0.17997454 0.11167042 0.07775126 -0.2781216 -0.122807994 -0.36735204 -0.031075876 -0.0052358354 -0.28376976 -0.40905285 -0.024172125 -0.11841523 0.17670487 0.068155445 -0.0014442692 0.1484889 -0.03105713 0.16168344 -0.13553816 -0.48171732 0.15662345 -0.294555 0.1308386 -0.021081652 0.030787902 -0.3002684 -0.118529186 0.07246534 0.007350653 0.13504402 0.16490793 -0.31406876 0.009548249 0.1411133 -0.2927402 0.13822122 0.4039137 0.29695275 -0.069876775 -0.19403936 -0.16623572 -0.26986986 -0.15804371 -0.13442491 -0.00045000637 -0.5454075 0.025318392 0.016874725 0.34304604 -0.055460088 0.20564042 0.070555076 -0.13963714 0.14141844 0.0066254763 -0.010289548 -0.10247283 0.006058274 0.1526022 0.17069781 -0.40543473 0.23959897 0.1672841 -0.23961803 -0.17876494 -0.092670366 0.35208407 0.22811173 -0.4317933 -0.05606725 -0.058079123 0.17030701 0.014513486 0.4291334 0.19557367 -0.22356449 0.11805978 0.116833545 0.19694272 0.19961664 0.4185508 0.043487553 0.026802171 0.19987863 -0.15524045 0.38947982 -0.45079854 -0.2163386 0.28860778 -0.041350685 0.15505788
166 0.06537311 -0.5002848 0.014236458 -0.20856884 0.22897834 -0.00032984847 -0.11976492 -0.05341067 0.8725072 0.021813437 0.042081196 0.15888458 -0.05879463 0.0315139 0.13493718 0.028703239 0.075670205 -0.35905957 -0.26787588 0.15164198 -0.040585183 0.33352166 -0.72059083 0.43722212 0.15467899 0.18082313 -0.26443243 -0.0063547576 0.22872224 -0.14490639 0.11194876 -0.076557696 0.27352124 0.1888213 -0.24370115 -0.23158477 0.32504866 -0.3187727 -0.022053648 0.08217493 -0.058356576 -0.13981225 -0.4410844 0.15505195 -0.031535987 -0.05903851 -0.2615112 -0.13434798 0.04984703 0.123420656 0.122413546 -0.14752091 0.25307655 -0.050164998 -0.11246449 -0.020780904 -0.46010005 0.16379976 -0.15157324 0.082386784 -0.08564863 0.18950449 -0.1864142 0.09010342 -0.009278012 0.09146603 -0.09058976 0.09755084 -0.37563467 -0.16375571 0.1598108 -0.340786 0.2030753 0.26452926 0.11742385 0.05398043 -0.084089175 -0.18554376 -0.20431747 -0.4042097 0.077333234 -0.15732564 -0.57056236 0.012044545 0.074633114 0.2551287 -0.100801505 0.2238248 0.16910635 -0.24212593 0.11837808 0.01029481 -0.23391916 -0.05309867 0.09651588 0.23528089 0.25036144 -0.6689924 -0.09923623 0.21797127 -0.24696852 -0.12557064 0.020477502 0.34520027 -0.09740769 -0.3682126 0.06358941 -0.06614686 -0.2047827 -0.0292444 0.23714781 0.33048266 -0.14214714 0.06551329 -0.08082786 -0.02577409 0.2536243 0.6820752 0.10101335 -0.06436155 0.31422758 -0.12849325 0.35320547 -0.278946 -0.08338744 0.3207319 -0.06812593 0.16081446
164 -0.008460626 -0.4899771 0.0022654901 -0.2103356 0.21968204 0.0556817 -0.26967913 0.07281841 0.70587844 0.07673018 0.07278071 0.23369522 -0.042442504 0.1010292 0.20921488 -0.034572784 -0.106413186 -0.26606482 -0.23099947 0.17900775 0.027434345 0.4116554 -0.59461856 0.4576648 0.20146659 0.26827863 -0.12724039 -0.028326878 0.22349189 -0.16219684 0.13187306 -0.117528684 0.17476435 0.20482378 -0.23785663 -0.27180228 0.21589601 -0.3246341 -0.09280524 -0.008348129 -0.082789555 -0.061141834 -0.35374525 0.07793382 0.07145495 -0.065653384 -0.43683338 -0.14443725 -0.02545755 0.16812359 0.19319057 -0.1729495 0.30102158 -0.039131735 -0.08799842 0.08880717 -0.4469038 0.035044834 -0.2131271 0.1612666 -0.012576155 0.13595156 -0.21221468 0.060978256 0.052800562 -0.061073836 -0.006602375 0.1392651 -0.40680537 -0.20016906 0.19429469 -0.30059683 0.2623731 0.30610207 0.20362872 -0.09192272 -0.13978206 -0.17976762 -0.16342579 -0.34239653 0.004917568 -0.27061024 -0.5460994 -0.111563265 0.07373897 0.18838724 -0.14345141 0.025768729 0.23244347 -0.36207923 0.019631706 -0.022000259 -0.3086364 -0.003944987 0.054675903 0.2588988 0.20895965 -0.61201686 -0.07131432 0.22257942 -0.34189084 -0.19522128 -0.021936674 0.3859832 -0.081880644 -0.38216066 -0.04448756 0.03940733 -0.12613836 -0.105363056 0.2903266 0.3619047 -0.16080332 0.01805918 0.024291866 0.091877356 0.24718249 0.6323087 0.07787811 -0.22905558 0.29384464 -0.10499274 0.34085202 -0.348839 -0.041946955 0.37885073 0.0012245807 0.11266555
